hanoi -0.036655 -0.006123 0.003668 0.067019 0.080257 0.003828 -0.050167 0.131734 0.138033 0.027334 -0.074826 0.044902 0.049674 -0.000313 0.104985 0.061123 -0.069813 -0.010466 -0.020835 -0.023142 -0.019028 0.078470 0.103779 -0.098293 0.079633 0.027253 0.097497 -0.062396 -0.017908 -0.038450 -0.008183 0.030061 -0.123795 -0.099742 -0.027002 0.068470 0.003591 0.072569 0.081383 -0.054641 0.077343 0.042487 0.027862 -0.154817 -0.069107 -0.086424 0.004673 0.027267 0.002166 0.051380 0.071828 -0.067733 -0.028855 0.044006 0.025458 -0.071947 0.011514 0.015054 0.132630 0.028626 0.090955 -0.119230 0.114447 -0.065705 0.019513 0.132399 -0.040598 0.031352 -0.107746 0.101055 0.047243 -0.051973 0.028464 -0.024090 -0.043772 0.156876 0.015575 -0.100115 -0.124451 -0.183700 -0.058838 -0.147428 0.009990 0.004523 0.088792 -0.053077 0.104723 -0.017711 0.004594 -0.094066 0.041637 -0.000591 0.027087 0.017971 -0.005880 -0.084587 -0.095133 0.165918 -0.016509 0.157325 0.087401 -0.037595 0.063448 -0.157571 0.110430 0.056216 0.046955 -0.004700 -0.097265 -0.034008 0.073852 -0.092714 0.022650 -0.014177 -0.142566 -0.059827 -0.090624 -0.027512 -0.126264 0.185981 -0.079200 -0.062781 -0.080813 0.036453 0.023679 -0.123467 0.078611 0.119296 -0.019152 0.009466 -0.033065 0.005105 -0.024989 0.019431 -0.015749 0.205220 -0.019645 -0.034668 -0.140922 0.087469 0.026260 0.026349 0.106209 -0.081271 -0.084826 -0.001266 0.095620 -0.053096 0.037218 0.069952 -0.061207 0.052512 0.012487 0.012648 -0.103062 0.016665 -0.131422 -0.078309 -0.179266 -0.185564 -0.011241 0.027648 -0.038706 -0.033034 0.058352 -0.086466 0.131824 0.112861 -0.137582 0.077813 -0.012034 -0.012389 0.010709 0.054393 -0.038138 0.065613 0.185966 0.038455 -0.009522 -0.035076 0.064386 -0.007471 0.007851 -0.000209 0.023079 -0.020508 0.128424 0.115440 0.112024 0.000367
tougher 0.046871 -0.065901 0.114842 0.018272 -0.050934 0.105129 0.083133 0.025910 0.107027 -0.031231 0.021721 -0.127172 -0.091485 0.007985 0.002586 0.057643 0.015368 0.097206 0.047234 0.082382 -0.081401 0.010770 -0.099199 -0.205825 0.075341 -0.041996 0.070948 -0.070128 -0.083708 0.014960 -0.050327 0.065148 -0.045984 -0.002121 -0.004768 0.032385 0.030080 0.153326 0.015892 0.004405 0.053396 0.012602 0.042246 -0.117896 0.085194 -0.048623 -0.220966 -0.005869 0.061811 0.050583 0.097077 -0.084038 0.034734 -0.102741 -0.001540 -0.067143 -0.057011 0.225573 -0.054164 0.117014 -0.012616 -0.006849 -0.017457 -0.008105 0.063418 -0.006718 0.081639 -0.002347 0.102073 0.071520 -0.059372 0.016553 0.032015 -0.035921 0.074390 0.001507 -0.068622 0.018653 -0.013864 -0.002531 0.082143 0.073200 0.053332 0.018434 0.096834 -0.063950 0.003250 0.119615 -0.029828 0.024284 0.064110 0.091035 0.002138 0.075612 -0.084027 -0.043320 0.043393 -0.082846 0.064518 0.002353 0.018928 -0.014799 -0.072876 -0.020273 0.047831 -0.138236 0.013251 -0.003196 0.009089 -0.074685 0.024355 0.105923 -0.062720 0.011433 0.000177 -0.108282 -0.090456 0.160090 -0.058243 -0.031870 0.067769 0.001077 -0.079509 0.006728 -0.007728 -0.008263 -0.057592 -0.074325 0.007944 -0.026807 0.008048 -0.081555 -0.051592 0.006106 -0.044065 -0.061817 0.042491 -0.042901 -0.034984 0.004840 0.015572 -0.035946 -0.094823 -0.003808 -0.029710 -0.004135 -0.014774 -0.072506 0.161382 0.005216 0.086053 -0.129773 0.018599 0.081491 0.028263 -0.024000 -0.005863 -0.009503 -0.008064 0.008315 -0.002316 -0.004669 -0.041550 0.051578 0.026116 0.053120 -0.052067 0.013506 0.073343 -0.082438 0.030379 0.007390 0.114541 0.010832 -0.034050 0.049936 -0.152397 0.039666 -0.104756 0.001138 0.037486 0.056121 -0.029742 0.043775 -0.091644 -0.062705 0.133197 -0.090135 0.122078 0.171393
occasionally -0.041715 -0.055626 0.004428 -0.108517 0.004075 0.020113 -0.078477 -0.027652 0.017963 -0.128770 0.044439 -0.027883 0.032327 0.071280 -0.056610 0.019347 -0.147274 -0.078906 -0.029300 0.105547 -0.003805 0.008388 0.022947 0.061160 -0.152187 0.012584 -0.021658 0.092465 -0.047459 -0.090415 0.080329 0.043520 -0.019783 -0.093898 0.110346 0.023377 -0.011003 0.048609 0.075506 -0.020177 0.039141 0.121811 -0.029649 -0.055395 0.053415 0.044647 0.073973 -0.118610 -0.055201 0.011005 -0.052361 -0.004084 0.034878 0.043357 0.110556 0.026121 0.022092 0.008736 0.016913 -0.050927 -0.029018 0.068491 0.073599 -0.001918 -0.042227 0.036477 -0.005638 -0.039506 -0.030184 -0.027378 -0.021197 0.001268 -0.036676 -0.003602 -0.028861 0.015879 0.000171 -0.085205 0.101055 -0.075603 -0.094596 0.100895 -0.032334 0.099357 0.046398 -0.034455 -0.047730 0.079278 -0.110331 -0.040185 0.061884 -0.084472 -0.034113 -0.028628 0.172519 -0.049978 0.130857 0.183741 -0.070897 -0.053575 0.112938 0.109503 0.015872 -0.060892 0.004871 0.012434 -0.086411 -0.038658 0.029259 -0.040677 0.075641 -0.054849 0.032975 0.006457 -0.075639 -0.010331 0.016084 0.017559 0.082962 0.003227 0.062357 0.196806 0.043252 0.031317 0.012001 -0.001574 0.004894 0.104305 0.115904 0.148907 0.128342 0.147473 0.052552 0.148835 0.049569 0.058239 -0.023921 -0.000902 -0.099062 0.083412 -0.016774 -0.077617 0.027853 0.067761 0.021457 -0.090742 -0.013785 0.128338 -0.104266 0.001160 0.096503 -0.068116 0.150331 0.015782 0.089819 -0.101925 -0.023847 0.096211 -0.105422 -0.081709 0.065009 0.019163 -0.055002 -0.008198 -0.132181 0.002022 -0.133958 0.048160 -0.011595 0.084114 0.025712 0.010715 0.110034 0.034322 -0.124732 0.102544 0.025875 -0.104133 -0.104951 -0.083064 0.068179 0.082041 0.104831 0.001311 0.038451 -0.109215 0.097354 -0.017159 -0.052926 0.067646
ukrainian -0.154090 0.094958 -0.001287 -0.106174 -0.072346 -0.027402 -0.006037 0.093500 0.065497 0.033730 0.006485 0.000124 0.100885 0.009573 0.060907 0.049208 -0.028556 0.031981 0.078975 0.118336 -0.033986 0.081173 -0.003090 -0.004519 -0.002785 -0.019872 -0.002944 -0.015795 -0.073120 0.020913 -0.076107 0.090698 0.122423 -0.098718 0.007835 -0.029274 0.034900 0.059408 0.104233 -0.080413 0.040227 0.030642 -0.017868 -0.026954 0.000885 -0.100370 -0.066242 -0.043737 -0.005558 0.063192 -0.036445 0.022065 -0.087279 -0.101966 -0.004499 -0.096188 -0.019764 -0.053320 -0.048263 -0.002942 -0.032823 -0.117665 -0.084838 -0.012880 0.051101 -0.057984 0.050576 0.109237 0.078235 0.040975 0.140572 -0.064039 0.026118 -0.047788 0.130765 -0.034378 -0.040737 -0.028281 -0.044905 -0.006922 -0.067116 -0.036603 -0.033532 0.011497 0.001498 -0.004638 -0.033309 0.013550 0.115004 -0.034208 0.016254 0.081035 -0.042409 -0.028820 0.104732 -0.141541 0.024859 0.015709 0.007723 -0.033225 0.040291 -0.006443 0.034291 -0.004587 -0.027367 -0.058830 0.027759 0.024351 0.074081 -0.094926 -0.003284 -0.125304 0.088388 -0.001578 -0.092881 0.023741 -0.112451 0.029319 -0.171193 0.043173 -0.042340 -0.098482 -0.117446 -0.015537 0.007886 -0.017265 0.080177 -0.067876 0.058772 0.032852 -0.002030 0.012704 0.032712 -0.022167 -0.024985 0.057842 -0.008377 -0.084760 0.040210 0.036553 0.008082 -0.026164 0.058170 0.023911 -0.139432 0.021734 0.101353 -0.050423 -0.156724 0.088381 0.086896 -0.082738 0.093032 0.123430 0.013791 0.024533 0.048857 -0.082118 0.003124 -0.056480 0.142088 -0.057473 0.017766 -0.090889 0.104511 0.045901 -0.057298 -0.005892 -0.051851 0.051378 -0.045930 -0.151510 -0.009594 -0.043717 0.024810 0.025911 0.030468 0.028356 0.063651 -0.115678 -0.147336 0.071920 -0.028171 0.016756 -0.077096 -0.106906 0.078107 -0.025481 0.089289 0.075444
occasional 0.060104 0.112735 -0.058616 -0.116278 -0.136074 0.131261 0.128689 -0.072162 -0.023558 0.098741 -0.023957 0.097863 0.114815 0.094766 -0.001084 0.073082 -0.047961 -0.003282 0.010973 0.093291 0.026490 -0.008553 0.071907 0.093927 -0.044330 0.012711 0.142968 -0.089304 -0.033291 -0.121157 -0.003914 0.001196 -0.000200 -0.038108 0.005645 0.038536 0.057372 -0.073539 0.031571 -0.104875 0.141989 0.074969 0.036831 0.024093 -0.026471 -0.050644 0.034544 -0.101259 -0.040382 0.013222 0.000825 -0.110055 0.070043 0.002327 -0.026256 0.026445 0.048897 0.066867 0.062615 -0.042001 0.021676 -0.098633 0.028239 -0.009198 -0.061287 -0.129406 0.007410 -0.004942 0.068036 0.062832 -0.040752 -0.015349 0.019481 0.055973 -0.004344 -0.028313 -0.016310 0.084448 -0.037668 0.115155 -0.001312 -0.061571 0.070021 0.155743 -0.030939 -0.003945 -0.013491 0.039293 -0.011806 -0.077039 0.018588 -0.017195 0.023291 0.092792 0.121334 -0.105647 0.072066 0.050618 0.070111 -0.035678 0.042678 0.047658 -0.146313 -0.122684 -0.063187 -0.053219 -0.022162 0.017015 -0.004661 -0.058795 -0.038931 -0.060682 0.096983 0.056170 -0.042733 -0.035528 -0.122374 -0.059120 0.015734 0.126347 0.035654 0.037169 -0.017667 -0.013297 0.081149 -0.167695 0.068406 0.045666 0.093620 0.017606 0.139024 0.136811 -0.058072 0.029048 0.028943 0.126507 0.011327 0.023912 0.044507 0.048922 0.013817 -0.028341 0.037714 0.024303 -0.026158 0.096340 -0.007958 -0.014542 -0.138569 0.039134 0.020115 -0.060739 -0.039992 0.024820 0.039970 -0.110807 0.004431 -0.018923 -0.125983 0.081592 -0.036360 -0.005195 -0.030768 -0.103541 -0.104965 0.005377 -0.020413 0.065150 -0.029192 -0.029858 -0.072635 -0.151263 0.075020 -0.088397 -0.098348 -0.033702 -0.042451 -0.017133 -0.061235 -0.104279 -0.050632 -0.030214 -0.054858 -0.062921 -0.045542 0.037273 0.040852 -0.035052 0.022844 0.129111
norway 0.035560 0.046820 0.012130 -0.122712 0.006049 0.063488 0.109991 -0.010797 -0.012993 -0.015851 -0.048695 -0.055465 -0.008379 -0.152002 0.044099 0.075906 0.018321 0.160845 0.101475 -0.049402 0.003831 0.023043 -0.093631 -0.000593 0.078876 -0.024689 -0.048248 0.006672 -0.059673 -0.043301 0.064792 0.102024 -0.003601 -0.024270 0.063387 0.055223 0.000215 -0.012431 -0.054406 -0.066322 0.059809 0.028188 0.000810 0.013950 0.153637 -0.079402 -0.170421 0.017043 0.040500 0.097064 0.079558 0.064848 -0.016241 -0.013298 -0.030856 0.033220 -0.014029 -0.026510 0.088037 0.099825 -0.090881 -0.000041 0.016978 -0.063678 0.019882 0.007330 -0.045534 0.094591 -0.104996 0.094545 0.061781 0.042905 0.022058 0.037585 0.112762 0.024742 -0.041802 -0.083384 0.028705 -0.049177 -0.019933 -0.042587 0.042725 -0.011505 0.030023 -0.113438 0.019146 0.013322 -0.024840 -0.107154 0.045844 0.014856 -0.037279 0.079479 0.024435 -0.074198 -0.025360 0.048490 0.047169 0.029801 0.008987 0.003862 0.024022 0.021079 -0.002844 -0.101705 -0.031231 -0.107748 -0.013143 0.056606 -0.077429 -0.051268 0.019178 -0.044475 0.091908 0.098758 -0.033176 -0.012190 0.008265 0.012723 -0.019353 0.019826 -0.003495 -0.189080 -0.016282 -0.068648 -0.019165 -0.133761 0.086585 0.015021 -0.013271 0.074248 0.178891 -0.093114 -0.008774 -0.017083 -0.136296 -0.027402 0.003032 -0.011047 -0.063539 0.024440 0.044176 0.061972 -0.006615 0.115700 0.026169 -0.058232 0.075411 0.061969 -0.004477 -0.112296 0.047640 0.050306 -0.060504 -0.061338 0.001145 0.027887 -0.052693 -0.032160 0.011873 -0.066011 0.032186 0.028761 0.094140 -0.132199 0.036526 -0.053854 -0.014494 -0.049623 0.044400 -0.095526 0.017665 -0.009218 0.017758 0.036326 -0.124505 -0.026171 -0.050590 0.045466 0.000710 0.013413 -0.001587 0.045616 0.065601 -0.062828 0.052755 0.063591 0.057290 -0.026013
baghdad -0.060457 0.039800 -0.044030 0.044442 0.044449 0.018643 0.109155 -0.079962 -0.021934 0.003775 -0.017297 0.083493 -0.077779 -0.018475 -0.084358 0.134948 0.015633 -0.015062 -0.087160 -0.139093 -0.119246 -0.038241 0.000400 -0.031037 -0.015576 0.049847 0.064446 -0.032234 -0.053482 -0.031594 0.169079 0.081632 0.146601 -0.074384 0.000010 -0.083460 0.100141 -0.010654 -0.084212 -0.025172 -0.049580 -0.020606 0.079675 -0.042119 0.016542 -0.026385 -0.050445 0.013883 -0.026256 0.049655 0.073766 -0.074191 -0.020023 -0.070115 -0.083469 0.005661 -0.016495 0.022392 0.041578 0.070309 0.011947 -0.089608 -0.025045 -0.077959 0.029634 -0.003021 0.137153 0.001336 0.023755 -0.003865 0.023670 0.049779 -0.001226 0.131260 -0.071608 -0.133247 -0.100664 0.093023 -0.070914 -0.059666 0.078057 -0.032899 0.024567 0.097672 0.147134 -0.031159 -0.041003 0.078947 -0.110667 -0.100025 -0.036428 0.112523 -0.006931 0.167186 0.055290 0.029461 -0.024860 -0.033857 0.026810 0.010512 0.019150 0.078625 0.008987 0.125410 -0.009320 -0.087105 -0.055474 -0.058943 -0.011257 0.002300 -0.018034 0.116475 -0.100029 0.107748 -0.066963 -0.043581 -0.140088 0.017184 0.057469 0.048619 0.060525 0.134667 -0.126189 0.008716 0.087933 -0.099519 -0.011269 0.079419 0.048382 -0.067217 0.074832 0.060435 0.045652 0.183563 -0.026265 0.139730 -0.067985 0.033874 -0.018004 0.038684 0.055589 -0.022556 0.045007 0.049361 -0.101835 0.012213 0.001445 -0.074033 0.033376 0.029512 0.059616 -0.103597 0.122730 0.018292 0.043412 -0.017855 0.045898 -0.150217 -0.086230 -0.014853 0.067682 0.113172 0.052993 0.005246 0.113380 0.010107 -0.000128 0.024290 -0.009944 -0.003855 0.032282 -0.009407 -0.073709 0.023910 -0.165850 -0.065385 -0.141960 -0.027971 -0.050016 -0.029927 0.012166 0.009463 0.035751 -0.092700 0.070196 0.029807 -0.000304 0.079531 0.082812 0.010083
illinois -0.024669 -0.017044 0.045472 -0.031413 0.029440 0.026512 0.045915 -0.091207 0.133372 -0.086631 -0.036380 0.002479 -0.053156 0.103365 -0.046113 0.076645 -0.069670 -0.048201 -0.030757 0.196506 -0.087603 0.002580 0.082568 0.011718 0.044547 -0.027732 0.006257 0.026356 -0.148869 -0.086677 -0.029192 0.096410 -0.040402 -0.017791 -0.175785 0.048551 -0.017466 0.091731 0.036940 -0.061891 -0.036815 0.046795 -0.023527 -0.015310 0.014885 -0.006514 0.034485 0.002598 -0.070605 -0.075341 0.016659 0.111810 -0.052903 0.028587 0.032387 -0.095583 0.067467 -0.006495 0.020502 0.013134 -0.083454 0.075982 0.035724 -0.004381 -0.049371 -0.056398 -0.041594 -0.041209 -0.101022 -0.001939 0.026290 0.033253 0.053149 0.038647 0.060145 -0.035019 -0.045055 -0.034224 0.119619 0.033571 0.068524 -0.067830 0.087857 -0.050189 0.067869 0.105288 0.184225 0.012832 -0.037840 0.043416 0.007707 -0.115981 0.016337 0.153941 0.004351 -0.021133 -0.037148 0.262339 0.039636 0.034893 0.031472 -0.022594 0.040799 -0.010958 0.014400 -0.034103 -0.135308 -0.055373 -0.081520 -0.104301 0.012859 0.060142 0.091945 -0.122011 0.054175 -0.054894 0.008352 0.102128 0.100322 0.052007 0.024586 0.053292 0.008627 0.173355 0.051599 0.059104 -0.018806 0.027450 -0.088461 0.034370 0.037188 -0.025453 -0.028188 0.077782 -0.029833 0.054092 0.042435 -0.097937 0.089442 0.011515 0.068592 -0.042361 -0.085443 -0.028125 0.029644 0.014729 0.095409 0.004041 -0.069577 0.081129 0.096208 -0.032120 0.016195 -0.010169 -0.079247 -0.050807 0.089603 -0.002650 -0.034344 -0.063403 -0.055307 0.034430 -0.077995 -0.076127 -0.043767 0.017676 -0.005355 0.101163 -0.020017 -0.093239 -0.039111 0.121795 0.055924 0.060612 -0.018799 0.108155 -0.132339 0.029616 -0.014670 -0.023887 0.061482 0.054299 0.027053 -0.015635 -0.164236 0.020298 -0.023316 -0.069539 0.030055 -0.084374
moving -0.006148 -0.111072 -0.059298 -0.025057 -0.095286 -0.045268 -0.033151 -0.093338 0.014500 -0.000065 0.123878 0.010328 -0.043968 -0.067804 -0.001470 0.081057 0.015669 0.141357 0.078337 -0.021485 -0.044642 0.096517 -0.081439 0.010534 0.067001 0.142055 -0.125756 -0.011977 -0.022879 -0.079162 0.105867 -0.058197 -0.002197 -0.008284 0.251653 0.040858 -0.062921 -0.036679 0.041679 -0.041545 -0.039102 0.128739 -0.058835 -0.013166 0.011216 -0.074143 0.053832 -0.022480 0.093934 -0.006228 0.029006 -0.017891 0.091236 -0.144955 -0.017818 -0.111129 0.030531 -0.050133 0.020349 0.005409 0.031176 0.019949 -0.131274 -0.087236 0.060208 0.158349 -0.058485 -0.033738 -0.054908 -0.000314 0.179288 0.043627 -0.043830 -0.083454 0.133161 -0.016556 -0.061991 0.132264 -0.064681 -0.011450 0.003364 -0.004185 0.148886 0.021618 0.017217 0.026672 -0.004110 0.022371 -0.045295 -0.085207 0.049174 0.044940 0.000595 -0.045610 0.115412 -0.041897 0.041935 0.096412 0.028084 0.083546 -0.008552 0.047509 -0.082104 0.035774 0.013907 0.008572 -0.085962 -0.028253 -0.028164 -0.053611 -0.018008 0.019356 0.033431 -0.102135 -0.040572 -0.039117 0.090307 -0.035588 -0.067318 -0.011904 0.034863 0.123647 0.000483 -0.118093 0.077684 -0.133925 0.054064 0.056510 0.140963 0.069048 -0.084434 -0.005407 0.064254 0.109876 -0.099569 -0.079277 -0.170790 0.027086 -0.022763 -0.023959 -0.055073 0.009148 0.004433 0.192470 -0.102450 -0.022216 0.005272 -0.031810 0.005315 0.013688 0.118041 -0.006423 0.032474 0.013085 -0.105953 -0.049043 0.002442 0.003990 -0.054342 -0.051576 0.096736 0.112870 0.076454 0.111052 0.041476 -0.055339 -0.003657 -0.021826 0.001681 0.036233 -0.003249 -0.031069 -0.022011 -0.035291 -0.082576 -0.083538 -0.120179 -0.168700 0.037073 -0.061744 0.082367 0.047727 0.059034 -0.092462 0.045064 0.000851 0.029917 0.037209 0.065579 -0.039813
loud -0.037187 -0.022953 0.053784 0.003362 0.019919 0.008436 0.059485 0.111848 0.085000 0.039538 -0.009598 0.011904 0.024944 0.000505 0.017942 -0.043361 0.002585 0.057750 -0.045190 0.145881 -0.108900 -0.010519 0.013335 0.122826 -0.073120 0.050706 0.023885 0.128278 0.051274 0.015062 0.010442 0.018355 0.098626 0.004131 -0.030964 0.030693 0.039413 0.145383 -0.020020 0.080417 -0.093711 -0.033721 0.096536 -0.055451 0.013924 0.002066 -0.100491 -0.082848 -0.020384 -0.000285 0.074117 0.018687 -0.116095 -0.038318 -0.010925 -0.065761 -0.054164 0.015666 -0.038978 0.008687 0.019919 -0.039534 0.011946 -0.057394 -0.107237 -0.003894 0.041001 0.041427 -0.025867 0.062076 0.032706 0.055734 -0.029900 -0.097318 -0.026938 -0.012268 -0.092783 0.049089 0.038731 0.117378 0.085414 -0.154076 0.075352 0.076645 0.037310 -0.043180 -0.095299 0.048562 0.019592 -0.079138 0.031503 -0.098964 0.063390 0.045120 0.079337 -0.030940 -0.016655 0.070481 0.101558 0.022497 0.018423 0.022117 -0.166328 -0.006910 0.035825 -0.047980 0.091288 0.052671 -0.098968 -0.028199 0.062840 0.041615 0.104014 0.013297 -0.055305 -0.073051 -0.088894 0.022968 -0.042502 0.135398 -0.053184 0.026382 0.089394 0.003059 -0.058908 -0.088554 0.052164 0.036519 0.086322 0.032776 0.017593 -0.071034 0.094050 -0.023110 -0.058099 -0.002466 -0.127013 0.054985 -0.036009 0.009692 0.019582 -0.051397 -0.058197 -0.049682 -0.029496 -0.073757 -0.114896 0.021369 0.076143 -0.009399 -0.015402 -0.060785 0.028174 0.129047 -0.066449 0.023112 -0.066041 0.052539 -0.034186 0.012879 0.206114 0.015405 -0.051160 0.055726 -0.013855 0.057633 -0.033340 0.123921 0.011913 0.063766 0.124400 0.044086 -0.030336 0.080551 -0.140502 0.012870 -0.055449 0.114614 -0.140523 0.103218 -0.130270 0.026653 -0.016572 0.058497 -0.062245 -0.087138 0.103662 0.010977 -0.076130 -0.008586
thai 0.014154 -0.058805 0.034392 -0.148868 0.103927 0.099892 0.021024 -0.062402 0.048793 -0.029839 -0.007190 -0.021913 0.006741 0.071068 0.024391 0.096708 -0.014699 0.066879 -0.015215 0.042432 -0.003438 -0.047955 -0.045280 0.012671 -0.042573 -0.000198 -0.093836 -0.011631 -0.168605 -0.011699 0.111122 0.062713 -0.064821 -0.095203 -0.049788 -0.116484 -0.078732 0.140624 0.043005 0.024705 0.060405 0.049801 0.118733 -0.206110 0.000249 -0.116835 0.010102 -0.120518 -0.096662 -0.077573 0.026950 0.122579 0.172723 -0.101912 0.109881 0.019419 0.136027 -0.024734 -0.228780 0.118281 0.073755 0.051573 0.009773 -0.087296 -0.036250 -0.025021 0.044540 0.049064 -0.064373 -0.004335 -0.011365 -0.074371 0.092018 0.019098 0.047962 -0.087713 0.033127 0.129337 0.057283 -0.022604 0.018879 0.017487 -0.030641 0.048855 -0.006824 -0.010058 0.129427 -0.131078 0.054971 -0.088038 0.038482 -0.091659 -0.005841 0.041465 0.102346 -0.082279 0.033156 0.109582 0.069111 0.009040 0.057418 -0.001904 0.096444 0.086889 0.011806 -0.001993 -0.057522 -0.071046 0.143676 -0.123573 0.043289 -0.054307 -0.054543 -0.044074 -0.033501 0.073177 -0.051624 0.112008 0.008654 -0.019244 -0.076634 -0.080042 -0.049378 0.061845 0.065628 0.000994 -0.124987 -0.059787 -0.043849 -0.016204 0.175569 0.060008 -0.124233 0.099932 0.016231 0.146422 0.060577 -0.000336 -0.071151 -0.087897 -0.048922 0.027600 -0.072434 0.102066 0.038968 -0.018568 0.037816 0.001259 -0.035696 0.027353 0.070771 0.022142 0.094694 0.150382 -0.043696 0.059955 -0.012611 0.040413 0.060689 0.077100 -0.022805 0.017881 0.016023 0.053606 0.037832 0.034465 0.035462 -0.024439 -0.067605 -0.075684 -0.028197 0.166429 0.013789 0.047252 -0.072384 0.067932 -0.057404 0.017443 0.045199 0.050636 -0.054838 0.002641 0.009641 0.022074 -0.047880 0.054258 0.019137 0.036865 -0.047760 0.046154
croatian -0.005675 -0.106265 0.035380 -0.023149 0.009687 -0.006350 -0.023094 0.068060 0.037756 -0.137882 -0.008877 -0.032186 -0.067494 0.003053 0.038475 0.088867 0.023055 0.035525 -0.026163 0.194332 -0.065982 -0.147702 -0.053586 0.033613 0.025809 0.030951 0.063620 0.067374 -0.042918 -0.027897 0.069810 -0.063762 -0.130574 0.022805 -0.005531 -0.067748 0.059766 0.031908 -0.079337 -0.009749 0.057759 0.006398 0.039381 0.054454 0.108421 0.027436 -0.022087 0.021280 -0.082625 -0.051447 0.004860 -0.102581 -0.236044 -0.043940 0.115294 0.066716 0.028310 -0.010851 0.146529 0.024365 -0.039205 0.038143 -0.021711 -0.022981 -0.066188 -0.105581 0.042986 -0.067677 0.073468 -0.046970 0.023286 0.000947 -0.097131 -0.141747 0.069960 -0.035105 -0.045617 0.023030 -0.011322 -0.129755 0.035634 0.074320 0.066624 -0.117358 0.107247 -0.074745 0.001267 -0.008334 0.029367 0.083282 0.109263 -0.022031 -0.008659 0.074667 0.048803 -0.103569 0.010707 -0.092497 -0.085555 0.150013 0.003201 0.102757 -0.031348 0.027214 0.069231 -0.046165 -0.056261 0.123730 0.011767 0.000339 0.083078 0.033096 -0.041671 0.057548 -0.043275 -0.073833 0.069174 -0.035177 0.091229 0.058976 -0.026737 0.084344 -0.005959 -0.016092 -0.034835 -0.109369 -0.194333 -0.032379 -0.051324 0.022528 -0.019688 -0.075079 0.120320 0.190181 0.015457 0.009183 0.053855 -0.140394 0.007453 0.120610 0.051185 -0.082662 0.064003 0.023439 -0.048901 0.053511 -0.075746 -0.039439 -0.092565 0.160656 0.004619 0.107693 0.042435 0.106403 -0.007779 0.092010 0.098332 0.056569 0.088740 -0.090502 0.056740 0.009708 0.100342 -0.095131 0.014775 0.119828 0.052558 0.001892 -0.031538 0.018502 0.004771 -0.097759 0.037037 -0.041491 -0.070965 0.033615 -0.015888 -0.040159 -0.086042 0.062284 0.034306 0.030773 0.076239 0.158686 -0.106576 0.081350 0.033092 -0.088249 -0.058934 -0.004560
argentina 0.064441 0.013939 -0.059469 0.113649 -0.060519 0.014860 0.027673 -0.038401 -0.038450 0.009453 -0.062267 0.099911 -0.081158 -0.012436 -0.082894 0.050215 0.016665 0.016810 0.071483 0.090977 -0.008905 0.120157 -0.007461 -0.046178 -0.056892 0.104346 -0.069625 0.073713 -0.086650 -0.083648 0.060923 -0.039880 0.066116 -0.027566 -0.066034 -0.133092 0.131604 0.020888 0.015376 -0.026820 0.097112 0.061666 0.003768 -0.083720 -0.066550 -0.068358 -0.009651 -0.101917 -0.053479 -0.062759 -0.088564 -0.057387 0.054936 -0.059957 0.063324 0.057261 0.048926 -0.070898 0.007438 0.026185 -0.063880 0.040492 -0.037152 -0.070132 0.030544 -0.009290 0.065189 -0.000999 0.045160 0.139446 -0.060735 0.077969 0.144360 0.035201 -0.028414 0.005336 0.110565 0.022251 -0.043153 -0.103989 0.029971 -0.075391 0.048208 -0.052150 -0.097772 0.095867 0.083678 -0.023991 0.112896 -0.046206 0.151872 0.077769 0.014587 -0.039984 -0.058325 -0.108598 0.011277 0.044128 -0.022796 -0.001734 -0.147376 0.056144 0.006258 -0.025788 -0.026681 -0.069301 0.031845 0.035147 0.010586 -0.198934 -0.043409 -0.132880 0.037121 0.115791 -0.039354 0.000383 0.028608 0.130658 0.093172 0.043850 -0.061345 0.016640 -0.061447 -0.057786 0.029454 0.020884 0.068968 0.017124 -0.107246 -0.019755 -0.035665 -0.004413 0.086230 0.078437 -0.022914 -0.047074 -0.026891 -0.082560 0.101917 0.097229 -0.032115 -0.020026 0.114884 -0.021455 -0.063658 -0.011910 -0.136137 -0.046087 -0.090769 0.019909 -0.068639 -0.035007 0.067137 0.131985 0.109345 0.059983 0.008159 -0.042689 0.025805 -0.018629 0.037826 0.062013 -0.109611 -0.084494 0.043997 -0.061064 -0.064060 0.076939 -0.029533 -0.078915 -0.010735 -0.005225 -0.017454 -0.034393 -0.009748 0.019662 0.072231 -0.105856 0.006833 -0.100620 -0.039473 0.011596 -0.041587 0.022774 0.021642 0.039191 0.068598 -0.037160 -0.056986 0.013369
vietnam -0.008136 -0.027260 0.009340 0.010845 -0.110617 0.028556 0.003305 0.067507 0.036744 -0.014823 0.207401 0.029134 -0.053846 -0.030590 0.085865 0.019334 0.015979 0.051967 0.008271 -0.080712 -0.001345 0.013727 -0.015841 -0.055291 -0.022641 0.044475 0.007143 0.047276 -0.029092 -0.053272 0.060901 -0.010487 0.111003 -0.063969 0.070594 0.082542 -0.023295 0.105533 0.080140 0.061220 -0.023439 0.127691 0.077167 -0.156192 -0.025936 0.083899 -0.043256 -0.037772 -0.029462 -0.004224 0.049500 -0.078293 -0.118320 0.005264 0.055299 0.007139 -0.113522 -0.083538 0.046775 0.064666 0.017733 -0.044881 -0.015022 -0.120401 0.030284 0.121418 0.046794 -0.007967 -0.039722 -0.032999 0.036526 -0.001477 0.181276 -0.102950 -0.107493 0.115777 0.028837 -0.059933 0.036824 -0.042152 -0.084949 -0.049679 -0.030118 -0.023728 0.109958 -0.023410 0.057712 0.023709 -0.134136 -0.180107 0.075781 -0.031804 0.003170 -0.056816 0.047993 -0.147531 0.001230 0.076507 -0.027095 0.082639 -0.024530 0.044870 -0.025047 0.029666 -0.060325 -0.033483 0.120009 -0.077209 -0.144289 -0.058771 0.089952 0.038207 -0.059600 0.105223 0.011370 0.073426 -0.086289 -0.012619 0.029952 0.141703 -0.098251 -0.009394 -0.053383 0.033140 -0.056282 -0.060824 -0.047372 0.007697 -0.073550 0.064058 -0.021973 0.076610 -0.050146 -0.022424 0.029158 0.097715 0.046172 -0.058607 -0.170342 0.062207 -0.026336 -0.031120 -0.001734 0.015400 -0.049616 -0.020420 -0.039492 -0.004157 0.035402 0.084888 0.104074 0.120733 -0.004145 0.168165 0.035600 -0.005502 0.006340 -0.037526 -0.019894 -0.054328 -0.071299 0.033364 0.099004 -0.009885 -0.030655 -0.088626 0.066171 0.077299 -0.000226 0.065893 -0.034663 0.004502 -0.029173 0.118885 -0.149570 0.132810 0.008148 -0.033996 0.027730 -0.021437 0.018434 0.078540 0.129086 0.004189 0.013442 0.036585 0.055143 0.118523 0.041828 -0.035578
norwegian -0.014305 -0.012560 0.105063 -0.054440 -0.117489 0.074832 0.111286 -0.107543 -0.027078 -0.003336 -0.039790 -0.097680 0.058344 -0.141025 0.013604 0.097806 0.064410 0.126926 0.108380 -0.029437 0.017787 -0.166055 0.013033 -0.038035 -0.119199 -0.076635 -0.028039 -0.101727 -0.053447 0.038434 0.138268 0.033144 0.020454 -0.095913 0.026062 -0.020911 -0.052726 -0.059894 -0.045359 -0.021835 0.096475 -0.013692 0.025286 -0.044712 0.238435 -0.142739 -0.086579 -0.009520 0.045016 0.061066 0.049664 0.036995 0.045359 0.012633 0.026400 -0.017164 -0.079498 0.014971 -0.009527 0.057493 0.004070 -0.113483 0.001148 -0.028490 0.023932 -0.000274 -0.010704 0.156017 -0.037988 0.042933 0.044443 0.055341 0.001170 0.052789 0.056934 -0.016604 -0.126140 -0.066948 0.044765 -0.001865 0.008622 -0.020544 -0.042085 0.068135 0.007986 0.052531 0.011220 0.005596 -0.004784 -0.024802 0.129921 -0.028001 -0.112388 -0.008985 -0.050828 -0.029556 0.096967 0.067638 0.049175 0.074056 0.077561 0.072791 -0.018104 0.103481 -0.078102 -0.144144 -0.015370 -0.118536 0.053385 -0.122302 -0.067744 -0.031368 0.050869 -0.045773 0.065475 0.108616 -0.155272 0.112678 0.076988 0.065533 -0.046440 0.003565 -0.001425 -0.134325 -0.000988 -0.159483 0.071613 -0.060963 0.046435 0.050475 0.042139 0.072857 0.166360 -0.078457 0.031081 0.003135 0.015746 -0.081886 -0.002204 -0.048911 -0.087270 0.085156 0.029623 -0.021368 0.033446 -0.002208 0.016671 -0.015546 0.062763 -0.020769 0.015841 -0.049589 0.056754 0.071429 0.018165 -0.085711 -0.054082 -0.015595 -0.066282 -0.022354 -0.079109 -0.056998 0.002446 -0.040306 0.121326 -0.084126 -0.074028 -0.012440 0.147703 -0.058569 0.051864 -0.022776 0.040751 0.033484 0.118409 -0.040961 0.015418 -0.040631 -0.057316 0.044836 0.042389 0.014436 -0.036162 0.033004 0.077268 -0.003939 0.101217 -0.008369 0.085493 -0.004299
professionally -0.074999 -0.068765 0.022328 -0.070101 -0.069464 0.035742 0.059864 0.080745 0.021099 0.100726 -0.063554 0.026331 0.078681 -0.012415 0.037502 0.014438 -0.017832 0.074434 -0.091322 0.054987 0.119082 -0.045250 -0.094607 0.075955 0.025296 -0.085886 0.051586 -0.059930 0.065724 0.001921 0.074571 0.084393 -0.110324 0.036052 0.131772 0.055913 -0.075832 -0.068493 0.060382 -0.050357 0.118118 0.004265 0.161684 0.039721 -0.006242 0.023241 0.032267 -0.028152 -0.071061 0.089228 -0.017250 0.085846 0.001142 -0.058838 0.105577 0.043182 -0.045379 -0.059836 0.003130 0.141143 -0.094463 0.003792 0.054737 -0.048409 -0.020746 0.137140 -0.096692 0.146157 -0.101150 0.112714 0.066741 0.002038 0.010706 -0.068037 0.032088 0.003816 -0.030679 0.068458 0.039758 -0.068365 0.048354 -0.096695 -0.011374 -0.031095 -0.132726 -0.070778 0.027869 0.014272 0.001621 -0.025837 -0.012561 0.027769 0.037651 0.085499 -0.015927 -0.042605 -0.009052 0.082221 -0.027488 0.072140 0.045474 -0.090565 -0.033027 -0.109277 -0.030713 -0.116014 -0.043226 -0.037108 -0.136742 -0.001739 0.019438 -0.099454 0.093858 0.064945 0.042811 0.148489 -0.081427 0.032254 0.036061 0.081418 -0.043542 0.096176 0.017602 -0.021015 -0.019692 -0.043277 0.008609 -0.106443 0.025302 0.011364 -0.039937 0.037512 0.109205 0.005066 -0.022158 0.013409 -0.065032 0.148720 0.035150 -0.010911 0.047449 0.031509 -0.081329 -0.012646 0.044379 -0.006260 0.032303 -0.020197 0.012203 -0.035064 0.046951 -0.034427 0.116396 0.064135 0.056822 -0.041654 0.006044 0.033923 -0.040740 0.004388 0.095444 -0.114072 -0.035436 -0.001012 0.027870 -0.121641 0.033098 0.096735 -0.040530 -0.028567 0.030653 0.008148 0.064970 -0.021725 -0.061124 0.000417 -0.044238 -0.054812 -0.126027 0.060486 -0.051650 -0.064844 0.074995 0.024168 0.013631 -0.026326 0.041145 0.089381 0.029723 0.073284
argentinean 0.153304 0.018934 -0.113545 -0.002266 -0.028664 0.016331 -0.065611 -0.124820 -0.050441 -0.077536 -0.079867 0.085574 -0.106757 0.012637 -0.032935 0.003658 0.037775 -0.052369 0.026991 0.083137 -0.071268 0.047672 0.057124 0.092662 0.039908 0.076408 -0.028561 0.090850 -0.142443 -0.015857 0.054624 -0.033069 0.040696 -0.017443 0.101610 -0.117753 0.077250 0.133153 0.018590 0.072819 -0.065967 0.070883 0.056871 -0.110467 -0.033093 -0.066129 0.063669 -0.023854 -0.070111 -0.181099 0.015627 0.031701 -0.015440 0.041990 0.027604 0.032441 -0.013721 -0.038543 0.041960 0.014437 -0.169838 -0.013860 0.021530 -0.065672 -0.012047 -0.070143 0.052675 -0.031202 -0.039468 0.050042 -0.044663 0.071793 0.103691 0.030053 -0.018821 -0.059470 -0.055539 0.041501 -0.042016 -0.005434 -0.001315 -0.032836 0.019806 -0.048743 -0.057227 -0.020927 0.174902 0.057301 0.070262 0.011543 0.131768 -0.145644 0.083032 -0.022636 0.013222 -0.015167 0.005812 0.182879 0.058815 0.021763 0.067518 0.075329 0.013565 -0.045066 0.104740 -0.142257 -0.025755 0.038808 0.018867 -0.030969 -0.110451 -0.004169 0.126508 0.115565 -0.016006 -0.050089 0.117211 0.119171 0.039008 -0.100620 -0.056202 -0.002851 -0.019484 -0.097682 0.050826 0.007300 0.069230 -0.031389 0.117767 0.039128 -0.032882 0.107115 0.125661 0.030628 -0.177207 -0.031372 -0.149310 -0.047163 0.068582 0.039910 -0.003735 -0.008107 0.063181 -0.030963 0.017032 0.091559 -0.135617 -0.001179 0.057306 -0.004707 -0.064955 -0.066215 0.077386 0.103884 0.041771 0.082356 0.047427 -0.055245 -0.019260 -0.066360 -0.023069 0.086958 -0.012457 -0.140780 0.085233 -0.039011 -0.162537 0.112782 0.012016 -0.027948 -0.029074 0.011690 -0.075257 -0.027619 -0.043563 -0.031633 -0.037720 0.007711 -0.056874 -0.033318 -0.078479 -0.008734 -0.138322 -0.018546 0.033925 0.024704 0.009332 0.000063 -0.120117 0.034425
louder 0.010622 0.016336 -0.047364 -0.016374 0.108994 0.042430 0.081535 0.075244 -0.030401 -0.039975 0.019627 0.045222 -0.000145 0.093154 0.076125 -0.023057 0.081779 0.050336 0.021042 0.096916 -0.149429 -0.052981 0.039675 0.131394 -0.045125 0.106337 0.074049 0.087838 -0.107707 -0.034857 0.001869 0.038369 0.091735 -0.000904 -0.118757 -0.006929 -0.007955 0.082071 0.115163 -0.004991 -0.029112 -0.027427 0.074418 -0.108935 -0.054071 -0.013466 0.028780 -0.049396 -0.127021 0.004331 0.054120 0.024576 -0.112813 0.024242 -0.028076 0.097945 0.046225 -0.018669 -0.003425 0.057138 -0.004250 0.017111 -0.011257 0.058033 -0.078819 0.132766 0.047785 0.039409 -0.018876 0.023457 0.077235 -0.016023 -0.005091 0.007692 0.023182 -0.109859 -0.123641 0.010365 0.037014 0.089439 0.000113 -0.086704 0.005837 -0.031153 -0.002794 -0.093796 0.012092 0.126560 0.007529 -0.039681 -0.028109 -0.001741 0.093074 0.052060 -0.045815 -0.061280 0.031545 -0.020503 0.047761 -0.042610 -0.050219 0.041831 -0.069933 0.003729 0.038533 -0.102819 0.119427 0.074307 -0.036981 -0.082241 0.004827 -0.019133 0.054358 -0.005575 -0.063952 0.005524 -0.102879 -0.047979 -0.049870 0.059956 0.044764 0.087122 0.056660 0.043356 0.101153 -0.104646 0.021825 0.067295 0.069941 -0.010941 0.015324 -0.160338 -0.071311 0.117183 -0.069013 0.033046 -0.066457 0.079929 -0.032645 0.067697 -0.037816 -0.022965 -0.039455 -0.100837 0.100390 -0.063717 -0.034147 0.006339 0.033116 0.049800 0.021346 0.061435 0.078081 0.112491 -0.028228 0.007489 -0.070378 0.052774 0.029895 -0.050553 0.198705 -0.001069 0.085924 0.114458 0.063578 0.046935 0.006726 0.068557 -0.090251 0.044715 0.000568 0.033221 -0.065066 0.020032 -0.118047 0.100119 0.034975 0.088382 -0.000902 0.059223 -0.124824 -0.029312 0.003736 0.098587 -0.002644 -0.069471 0.051126 -0.091920 -0.055806 0.023869
chicago 0.151197 0.017734 -0.042393 -0.035317 -0.059370 0.002446 -0.034035 -0.074771 0.077676 -0.084094 0.078941 0.137303 -0.017660 -0.000664 -0.039307 0.029695 0.009844 -0.046432 -0.009457 0.077786 -0.042403 0.014881 -0.047420 0.059417 0.070598 -0.095136 0.017474 -0.004805 -0.040816 -0.085493 0.024561 0.035150 -0.000726 -0.078975 -0.144346 0.001782 0.003645 0.110023 0.075820 0.162638 0.006971 0.008770 -0.031461 -0.038105 0.040126 0.040121 0.000711 0.001868 -0.074371 -0.033005 0.145993 0.039656 -0.007785 -0.043438 0.105910 -0.115585 -0.041235 -0.024337 0.123189 0.051119 -0.081454 0.100540 0.060623 -0.043275 -0.013428 -0.169371 -0.021113 0.021684 0.043861 0.044236 -0.010772 -0.025468 0.096845 -0.002954 -0.005273 -0.043457 0.082397 -0.011165 0.047629 0.098814 -0.018641 0.001219 0.007052 -0.063826 -0.137269 -0.040818 0.115399 0.027921 -0.125631 -0.050489 0.071703 -0.049393 0.013361 0.013290 -0.027144 -0.016982 0.005821 0.226150 0.015242 -0.023998 -0.004657 0.125760 0.047901 -0.038280 -0.082793 -0.090245 -0.025600 0.122139 -0.060195 -0.110786 0.022803 0.087179 0.066145 0.019915 -0.126181 -0.028618 0.011151 0.056893 0.029831 0.006258 0.070244 -0.101925 -0.093360 -0.084725 -0.104466 -0.017185 -0.139322 -0.085932 -0.061939 -0.001547 0.021413 0.030458 -0.002021 0.094530 -0.038738 0.026104 -0.075297 -0.009188 -0.036491 -0.090210 0.097015 -0.027815 -0.117532 -0.064739 -0.045091 -0.016031 0.029893 0.010805 -0.019390 0.047658 0.102485 0.020184 0.111097 0.044187 -0.009211 0.033855 0.049503 -0.045539 0.021932 -0.011821 0.033270 0.006792 0.034944 0.076179 0.001361 0.007938 0.003485 0.020535 -0.067717 0.062242 -0.059831 0.105325 0.012034 0.035530 -0.156382 0.098062 0.010675 -0.020911 0.044461 -0.008599 -0.044440 0.063793 0.081524 -0.001821 -0.103042 -0.017266 0.119873 0.014884 -0.083003 -0.005000
move -0.009898 -0.088793 -0.059672 0.081255 -0.074334 0.018380 0.013925 -0.018867 -0.041389 -0.072716 0.039641 -0.002450 0.002901 0.092420 -0.030606 0.077207 -0.035833 0.105314 0.148962 -0.043110 -0.003035 0.014846 -0.139292 -0.043908 -0.034573 0.062977 0.083293 0.036445 -0.014898 -0.174804 0.098136 0.040901 -0.054205 -0.008192 0.088333 0.025460 -0.050647 0.027438 0.083215 0.126288 -0.029008 0.024660 -0.112582 0.014659 -0.044050 -0.020388 0.062648 -0.076338 -0.009747 -0.086312 0.012224 0.022158 0.026655 -0.007752 -0.024339 0.064069 0.027040 0.037270 -0.008542 0.082837 -0.071188 0.068959 -0.036033 0.054969 -0.125318 0.129889 -0.018214 0.003281 -0.131003 0.086838 0.119412 -0.003107 -0.060737 0.050373 0.040486 0.042802 -0.117184 0.090851 -0.023590 0.003598 -0.049438 0.053455 0.052705 -0.063731 -0.002100 -0.000752 -0.071520 -0.101773 -0.042395 -0.053338 0.179318 -0.072022 0.007009 -0.085294 -0.099425 0.032529 -0.020597 0.155819 0.100610 -0.010600 0.072952 0.121072 0.051833 -0.066458 0.081134 -0.006371 -0.045426 -0.093113 0.019733 -0.183572 -0.154523 -0.013521 -0.039967 -0.116306 -0.090773 -0.030538 0.036636 0.033343 0.090457 -0.040053 0.062775 0.167818 0.088309 -0.147109 0.050872 -0.090171 0.040861 0.062123 0.083537 0.079158 -0.026524 -0.023966 0.021883 0.133881 -0.023488 -0.005389 -0.042390 0.009765 0.046181 0.048225 0.012735 0.016937 0.040500 0.111902 -0.164344 0.071549 -0.014600 -0.024325 -0.015735 -0.048052 0.099793 0.028361 -0.021970 -0.001423 -0.030708 -0.028405 0.022352 0.094514 -0.022584 0.002732 0.028359 0.103785 -0.011782 -0.019830 0.048644 -0.021457 -0.039416 0.010671 0.050777 -0.027518 -0.161606 0.004117 -0.023260 -0.086627 0.013014 -0.097122 -0.001740 -0.258366 0.084621 -0.032507 -0.004157 -0.069703 0.036104 -0.076570 0.132407 0.035833 -0.018071 -0.104980 0.012233 -0.039794
thailand 0.000870 0.036220 0.097207 -0.107998 0.021079 0.190358 0.055808 -0.020341 0.002886 -0.012864 -0.088271 0.004945 -0.019613 0.022334 0.061610 0.103709 -0.031011 0.173887 -0.073132 0.062532 0.133732 0.001209 0.026910 -0.136815 0.139340 0.096137 0.034198 0.028038 -0.025414 0.008356 0.077845 0.090272 -0.070086 -0.015785 -0.012685 -0.055635 -0.071379 0.070516 0.034252 -0.080988 0.127183 -0.001643 0.012452 -0.117886 -0.083610 -0.071994 0.066240 -0.092927 -0.056075 -0.074429 -0.022303 -0.024457 0.038388 0.041096 0.086811 -0.006082 0.130534 -0.020231 -0.145716 0.135166 0.043445 0.069584 0.019352 -0.102391 0.029098 -0.053935 0.046188 -0.010578 -0.103693 0.021467 0.066209 -0.061378 0.047946 0.082253 -0.051244 -0.011384 0.014473 0.066375 -0.075984 -0.057493 -0.028383 -0.029743 0.056062 0.111814 -0.030655 0.018272 0.095452 -0.065087 -0.020256 -0.122104 0.012934 -0.079691 0.055559 -0.017798 0.108208 -0.173541 -0.048235 0.097409 0.096634 0.098791 -0.042474 -0.068364 0.171612 0.086237 0.031957 -0.013659 -0.036807 -0.064584 0.159763 -0.140533 0.028948 -0.019561 0.018095 -0.072506 0.057594 -0.021474 -0.075397 0.129397 -0.006918 0.004926 -0.004879 -0.012880 -0.017917 0.080477 0.176362 -0.112679 0.111108 0.053729 -0.025327 0.086216 0.129485 0.008541 -0.072638 0.044661 -0.006942 0.072425 0.076399 -0.043856 -0.011582 0.000009 0.025481 0.068213 0.069853 0.065486 0.057652 0.033624 0.024513 -0.052804 -0.058371 -0.002857 0.003900 0.086078 -0.078748 0.158011 -0.079126 -0.017163 -0.029635 0.042739 -0.036808 0.113881 -0.045408 0.043828 0.024363 -0.060550 -0.023399 0.177369 -0.009865 0.008565 0.016885 -0.121787 -0.013581 0.039654 -0.052669 0.124888 0.085400 0.063653 -0.060340 -0.017972 -0.054656 0.031924 0.004339 -0.031117 0.062971 -0.078943 -0.019012 -0.027325 0.084442 -0.092314 0.018813 0.050364
ukraine -0.054361 0.013474 -0.013711 -0.110737 -0.028438 -0.006508 -0.027755 -0.058641 0.067365 -0.002302 -0.076115 0.021991 0.002642 0.057087 0.084216 -0.008373 0.014324 -0.018514 0.079767 0.068313 0.101590 0.073285 0.082020 0.079437 0.012217 -0.026942 -0.051858 -0.093377 0.051613 0.091406 -0.046335 0.018311 0.018709 -0.041160 0.042463 0.082607 -0.091213 0.023412 0.012517 0.070122 0.058091 0.038222 -0.089236 -0.041023 0.012209 -0.070361 -0.079119 -0.003831 -0.092628 0.032870 0.089835 -0.101462 -0.081901 -0.051661 0.036039 -0.098757 0.126772 0.115040 0.052889 0.036061 -0.017282 -0.158529 -0.139187 0.058182 -0.035329 0.029015 -0.080200 0.022193 0.072624 0.169467 0.152876 0.057588 -0.033646 0.002909 0.115234 0.143711 0.078062 0.002581 0.001511 0.112050 -0.001645 -0.071410 -0.133210 0.072499 -0.019473 -0.113536 0.115659 0.090412 0.112833 -0.076691 -0.100672 -0.026311 -0.135928 0.047260 0.067398 -0.158833 0.043625 0.066491 -0.103543 0.121638 0.002513 0.075771 -0.015334 -0.068839 -0.108623 -0.063550 0.013693 -0.024041 0.161474 -0.093497 -0.008394 -0.157991 0.041741 -0.063155 -0.022644 0.104034 -0.018159 -0.008624 -0.047627 0.160363 0.103091 -0.113179 0.000785 -0.020140 -0.033805 -0.108706 -0.071397 -0.054660 0.043661 0.048721 0.082941 -0.057761 -0.088738 0.037855 -0.170033 0.055756 0.142775 -0.068876 -0.017385 -0.043013 -0.054907 -0.069536 -0.045770 0.079859 -0.021525 0.071510 0.055189 -0.092085 -0.037591 0.021753 0.116091 0.162473 0.132879 0.067968 0.013019 0.107708 -0.087751 0.007134 -0.086696 -0.055221 0.182916 -0.035697 -0.052846 0.075120 -0.028297 0.091490 -0.052135 0.004918 -0.140561 0.010678 -0.114343 -0.105795 -0.038141 -0.024884 -0.028349 -0.003823 -0.036048 0.130629 -0.024114 -0.005904 -0.071676 0.054396 -0.046161 0.140498 -0.100403 -0.016642 0.088311 -0.118228 0.021121 0.054907
plano -0.029233 0.012457 -0.073362 -0.048173 -0.149036 0.017551 0.076878 -0.075604 -0.108057 0.099713 0.172990 0.008098 0.006471 -0.032644 -0.081718 0.139618 0.123806 0.030591 0.055139 0.086448 0.042403 0.055358 -0.037063 -0.032835 -0.034421 0.035244 0.014829 0.054117 -0.062388 -0.021928 0.146578 0.117283 0.132273 -0.088818 -0.063329 0.001828 0.029534 -0.050048 -0.007921 -0.148186 0.026417 -0.011561 -0.119189 0.048328 0.049264 -0.125324 -0.172400 -0.021187 0.022443 0.005114 0.119078 -0.069777 -0.056107 0.024840 0.000851 -0.175328 0.208935 -0.031457 -0.009390 0.108090 -0.058597 0.014213 -0.031657 -0.060312 -0.124319 -0.034091 -0.073212 -0.001314 -0.018557 -0.042186 0.097223 0.027807 -0.080534 0.092621 -0.006183 -0.123570 -0.140737 0.031853 0.029004 -0.102146 -0.022863 -0.030332 0.074006 0.009404 -0.077581 0.128198 -0.030969 0.018617 0.046187 -0.005525 -0.025805 0.033758 -0.022656 0.055504 -0.038947 -0.042757 0.139253 -0.103466 -0.015143 -0.026291 -0.091914 0.183086 0.021097 0.049594 -0.028857 -0.084551 0.112168 0.017290 -0.132487 -0.043022 -0.046194 0.040377 -0.029921 -0.007414 -0.047665 -0.134264 0.000665 0.007654 -0.038844 0.127377 0.038636 -0.065585 -0.010106 0.060912 -0.038994 -0.036828 -0.107464 0.039895 0.091535 -0.056418 -0.004104 -0.147365 -0.015793 -0.003234 0.056093 -0.045514 -0.025584 0.066445 -0.028712 -0.049053 -0.077085 -0.032877 -0.039050 -0.022757 -0.006931 -0.049796 0.047951 -0.017707 -0.008581 0.145686 0.069450 0.042214 0.026332 -0.028204 -0.060787 -0.086935 0.004524 -0.030852 -0.090271 -0.006055 0.116521 0.047485 0.033294 0.106903 -0.053022 0.029925 -0.086797 0.052321 -0.058065 0.033635 0.144056 -0.027071 -0.005207 0.027472 -0.072974 0.039109 0.062715 -0.055990 -0.055988 -0.041914 -0.013868 -0.100491 0.067881 0.084607 0.098264 -0.107804 0.067469 -0.043446 0.005450 0.035709
texas -0.096303 0.001457 -0.083130 0.063398 -0.176791 0.151327 0.031774 -0.067383 -0.077459 0.021621 0.053254 0.065406 -0.046082 -0.004743 -0.061749 -0.026909 0.063748 0.146505 -0.002612 0.013678 0.048178 0.056063 -0.051225 -0.005723 -0.026722 0.059026 -0.128720 0.099215 -0.017040 -0.067204 0.033584 0.063752 0.054124 -0.093391 -0.104956 -0.057578 0.027243 -0.053700 -0.029713 -0.095410 0.003022 0.063521 0.066007 -0.064574 0.058594 -0.144016 -0.153947 0.074024 -0.082980 -0.007402 -0.053270 0.072683 -0.049419 -0.056298 -0.055467 -0.032646 0.143780 -0.062364 -0.010905 0.157496 -0.125858 -0.026922 -0.129954 0.057774 -0.074538 -0.075836 -0.002621 -0.088538 0.041203 0.006406 0.094594 0.027678 -0.088608 0.076041 0.031186 0.021331 -0.077572 0.009825 0.115897 0.006631 0.051782 0.038136 0.111700 0.022111 -0.093550 0.033561 -0.023015 0.022374 -0.027861 -0.042579 0.157953 0.061023 0.014035 -0.024669 -0.076351 -0.098362 -0.059753 -0.054531 0.109676 -0.045049 -0.103355 0.168274 -0.022948 -0.071004 -0.128314 -0.118649 0.141509 0.007724 -0.004413 -0.119051 -0.065647 0.076662 0.032667 -0.023486 -0.041444 -0.129008 -0.014567 0.143010 0.083489 0.075497 0.005022 -0.120915 0.113670 0.078964 -0.029767 0.070352 -0.073415 0.066563 0.064740 0.085850 0.021362 -0.020253 0.059156 0.038044 0.153867 -0.021306 -0.014512 0.034942 0.186382 0.024350 -0.019189 -0.032165 -0.093460 -0.042884 0.066260 0.026931 0.006376 -0.135996 0.027025 0.084131 0.105616 -0.019640 0.056176 0.107717 0.019414 -0.063232 -0.063964 0.120038 -0.037375 0.064879 -0.018949 0.028637 0.082454 0.037863 0.046491 0.148732 -0.169442 -0.055512 0.046773 0.016766 -0.012879 -0.102657 0.076431 0.126643 -0.049048 0.065036 -0.063746 0.035050 0.041934 -0.020022 -0.045577 -0.044401 -0.035485 -0.021262 -0.028110 -0.056505 0.005339 0.012138 -0.036961 0.219758
tough 0.089506 -0.059747 0.088167 0.094442 0.023065 -0.019912 -0.024651 0.050853 0.071439 -0.033157 0.052613 -0.120268 -0.073767 -0.049027 0.016654 -0.003825 -0.009630 0.087776 0.039368 -0.005396 -0.103961 0.040637 -0.091804 -0.120247 0.029265 -0.089206 0.059618 -0.035684 -0.057441 0.024698 0.001738 0.093797 0.153213 0.016253 0.071160 0.068339 -0.053741 0.103330 -0.082115 0.026359 -0.013747 0.031563 0.042018 -0.094614 0.035350 -0.060618 -0.085130 -0.053946 -0.055682 -0.009761 0.045028 0.038617 -0.054856 -0.034262 -0.033728 -0.018234 -0.098467 0.135752 -0.105199 0.172926 0.013211 0.029455 -0.078265 -0.173671 0.033656 0.158404 -0.097302 -0.035776 0.049673 0.034133 0.090327 -0.057633 0.131644 0.050953 0.049731 0.144052 -0.130549 0.000002 -0.005319 0.050790 -0.008352 0.048734 -0.042911 0.054293 0.135322 -0.106614 0.016132 0.101414 -0.009142 -0.157187 0.102777 0.024010 0.022811 0.043008 -0.023748 -0.051942 0.052541 -0.130184 0.028107 -0.004093 0.032813 0.040336 -0.019945 -0.054281 0.101547 -0.135567 -0.100533 0.026937 -0.038948 -0.115868 -0.015870 -0.067950 0.110252 0.057157 -0.057688 -0.151962 -0.174933 0.221813 -0.142103 0.042766 -0.023770 0.008858 -0.070694 -0.075091 -0.022722 0.028366 -0.094002 -0.122447 -0.004351 -0.000861 0.008444 -0.126377 0.043478 -0.110987 0.030163 -0.025480 0.099776 0.001666 -0.178855 -0.024814 -0.073314 -0.029572 -0.015283 -0.084429 0.042841 0.031155 -0.046759 -0.017051 0.050403 0.049117 -0.033746 -0.190457 -0.011910 0.051270 0.062515 0.018496 -0.012739 -0.023964 -0.038015 -0.013937 0.000936 0.018020 0.047618 0.007029 0.116630 0.011960 -0.097880 0.018259 -0.116793 -0.116340 0.089570 0.035345 0.087121 0.020086 -0.176069 0.016217 -0.072741 0.116898 0.013764 0.002343 0.055440 0.005192 -0.199259 0.108451 -0.059613 -0.007697 0.064923 -0.000876 0.041914 0.133940
flying -0.139812 -0.068845 0.011604 -0.032735 0.022781 -0.023493 0.095029 -0.032816 0.048846 -0.058079 0.106439 -0.039150 -0.037348 0.089312 0.013367 -0.075861 -0.035602 -0.090881 0.072975 0.178991 -0.030648 -0.043916 -0.077434 0.038352 0.090802 -0.093728 0.077291 0.024051 -0.010051 -0.012913 0.006361 0.007289 0.087074 -0.040386 -0.010145 0.082430 -0.015795 0.046046 -0.060678 0.122832 0.113347 -0.048750 0.105805 -0.093536 -0.049078 0.090262 -0.095550 0.030803 -0.044242 -0.024084 -0.051435 -0.059057 -0.108446 -0.061614 0.148078 0.062408 -0.004692 -0.009652 0.044241 0.213525 0.030243 -0.002705 0.065509 -0.055718 0.051409 -0.007762 0.057780 0.136916 0.092536 0.131353 0.034856 -0.017437 -0.048015 -0.058082 0.026839 -0.113863 0.107356 0.024647 -0.060739 -0.044530 -0.007376 0.041776 0.051013 0.010757 -0.069134 0.111069 -0.053661 -0.005721 0.057689 0.125266 0.024052 0.067257 0.015684 0.102714 -0.093589 -0.059616 -0.008177 0.035720 0.045190 0.064141 0.005427 0.068819 -0.008622 0.143342 -0.050441 -0.110588 0.105152 0.174905 0.005827 0.006370 0.061080 -0.000753 -0.063011 0.050958 0.059778 -0.000763 -0.083643 -0.109379 0.054338 0.150206 -0.105603 0.112795 -0.040087 0.153644 0.012618 0.003928 -0.033458 -0.045483 0.040511 0.125355 -0.039007 -0.055844 -0.062369 0.004410 0.049629 0.070127 0.025376 -0.042492 0.068221 0.005911 -0.045254 -0.104779 0.139469 -0.114280 0.034566 0.041455 0.084992 -0.047166 0.006684 -0.019846 -0.089876 -0.069257 0.096939 0.102709 0.073116 -0.078194 -0.037400 -0.100931 0.093886 -0.024516 -0.098329 -0.071656 -0.001497 0.001971 -0.073718 0.032882 0.041371 0.042992 -0.069265 -0.062089 -0.034215 -0.074605 -0.033408 -0.028366 -0.093898 -0.049242 0.087836 0.122031 0.069463 -0.115571 -0.052471 0.060450 -0.004065 0.153313 -0.009824 -0.089480 -0.046542 -0.116989 0.068522 -0.042400
iraq 0.034807 -0.017982 0.078665 -0.010513 0.037884 0.119751 0.098790 -0.098550 -0.025431 0.016390 0.066885 -0.025674 -0.014747 -0.030952 -0.122005 0.010864 -0.051792 -0.007780 -0.130311 0.015512 -0.158598 -0.019913 -0.029258 -0.041048 0.018723 -0.046561 0.060619 -0.072952 -0.006246 -0.040379 0.095629 -0.017750 0.032662 -0.018199 0.061499 -0.052238 0.092053 -0.021091 -0.100416 0.025419 0.037600 0.045432 0.079753 -0.098813 0.052964 -0.146749 0.034059 0.031906 -0.065290 0.004232 -0.046223 -0.065341 -0.027935 -0.059098 -0.060521 0.082383 -0.009242 -0.025196 0.019774 0.116100 -0.014293 0.077752 0.066403 -0.084389 -0.004397 -0.007008 0.009236 0.098880 0.033966 0.094947 0.028766 0.081090 -0.013486 0.050400 0.074825 0.035632 -0.091035 -0.009201 -0.028438 -0.062829 0.053514 -0.020304 0.127926 -0.051280 0.021909 0.059413 -0.085831 0.018028 0.057454 -0.061694 0.032197 0.060081 -0.072631 0.168037 -0.023448 -0.111643 -0.036525 -0.069431 0.038855 -0.013155 -0.006022 0.012792 0.054835 0.061325 -0.007595 -0.052564 -0.029031 -0.002844 -0.112978 -0.018019 -0.026383 0.079832 0.069723 0.065758 0.043318 0.016119 -0.008743 0.137321 0.059599 0.060075 0.032725 0.054549 -0.010094 0.040084 -0.029078 0.019576 -0.097586 -0.013620 0.066931 -0.049054 -0.030564 -0.020350 0.051543 0.020273 -0.028677 -0.012192 -0.003219 0.076329 0.028163 0.178103 0.060017 -0.117041 0.009278 0.108889 -0.098301 0.110543 -0.049708 -0.078302 0.095000 -0.041058 0.028797 0.007504 0.126480 0.084326 -0.157697 -0.013267 0.081839 -0.058764 -0.030608 0.037594 0.028618 0.092699 0.016066 0.010529 -0.130419 -0.065862 0.007971 0.018656 0.047512 0.043887 0.027862 -0.032422 -0.028808 0.009446 -0.080850 -0.126535 -0.049185 -0.098959 -0.086077 -0.038971 -0.142219 0.122409 0.005017 -0.007001 -0.039543 0.022143 0.009028 0.107199 -0.077240 0.030495
professional -0.138542 -0.060488 0.048870 -0.042454 0.069067 0.051001 0.073200 0.023915 0.014879 0.107166 0.152711 -0.001417 0.018284 -0.005975 -0.133380 -0.037462 -0.061198 -0.013476 -0.068374 -0.068193 0.044303 0.074857 -0.073662 0.041764 0.055842 -0.106934 0.030117 -0.007778 0.012719 -0.084594 0.042590 0.102491 -0.095247 0.000795 0.064578 0.075954 -0.059157 0.034775 0.075679 -0.019671 0.152851 0.043452 0.091416 0.022971 -0.073750 0.039643 0.084455 -0.014940 -0.054771 -0.024953 0.015669 -0.086509 -0.020862 0.100817 -0.014751 0.089725 0.004163 -0.068092 -0.054841 0.048118 -0.019684 0.026187 0.075387 -0.039465 -0.002183 0.036943 -0.054542 0.041217 -0.080002 -0.005578 0.060426 0.029190 0.033157 -0.080417 0.072218 -0.146547 -0.019625 0.083599 -0.016777 -0.158039 -0.059555 -0.040524 -0.003213 0.022159 -0.007671 -0.048426 0.030127 -0.024903 0.083368 -0.071174 -0.023386 0.139165 -0.023949 0.151521 0.048340 -0.067369 0.066879 0.116566 -0.080059 0.060431 0.063136 0.009049 0.059436 -0.118247 -0.007952 -0.132515 -0.036546 -0.132448 -0.112379 0.025373 0.035835 -0.064589 0.076141 0.037879 -0.013097 0.065758 -0.054010 0.000652 0.102906 0.016743 0.061275 0.135041 -0.051568 0.045508 0.004818 -0.050856 -0.072476 -0.072595 0.073062 -0.020733 -0.052770 0.027220 0.091584 0.010169 -0.003424 -0.066501 0.010310 0.009231 -0.013821 -0.009675 -0.093713 0.004977 0.006110 0.086452 0.037885 -0.073704 -0.029211 0.068640 0.017344 0.014539 0.061132 -0.074452 0.218556 0.009585 -0.027172 -0.003312 0.000424 0.026411 -0.081342 -0.068755 -0.005926 -0.185508 -0.029661 0.065932 -0.039328 -0.106686 -0.006158 0.074981 -0.087420 -0.031049 -0.013173 0.023247 0.105373 -0.003174 -0.126732 0.091617 -0.062799 -0.099289 -0.098505 0.000915 0.011228 -0.034875 0.087165 0.008850 -0.078748 -0.148920 -0.045604 0.008014 -0.090050 0.030357
fly -0.070829 0.050123 0.046391 -0.011879 -0.169948 -0.036203 0.035903 0.041612 -0.038032 0.020663 -0.026452 0.058502 -0.071531 -0.004134 0.136706 0.110464 -0.067635 0.041555 0.047483 0.131605 0.037225 -0.072154 -0.041942 -0.042501 0.051699 0.020447 0.129543 0.036425 -0.028462 0.014189 0.026902 -0.009322 -0.025242 -0.062293 -0.126321 0.037871 -0.031973 0.076624 -0.097589 0.123319 0.061390 -0.044862 -0.013712 0.002963 -0.033144 -0.035466 0.013986 0.030708 0.014157 -0.153535 0.040862 0.133832 0.023597 0.037655 -0.048877 -0.114358 -0.040188 0.041040 0.134822 0.102710 -0.056513 0.014871 -0.007073 -0.092182 0.078327 -0.055549 0.005333 0.028835 0.125269 0.033185 -0.003395 0.069249 0.053509 -0.048082 0.018172 -0.158186 0.044507 0.024300 -0.114995 -0.011219 -0.067153 -0.030534 0.116433 -0.040011 -0.103870 -0.031340 0.076751 -0.033258 0.045407 -0.000886 -0.016018 -0.038229 -0.027069 -0.010766 -0.079937 0.072280 -0.063816 0.131840 -0.047736 0.123614 -0.044447 0.050352 0.025169 0.067283 -0.051554 -0.064924 -0.090258 0.125807 0.109682 0.073517 0.015362 0.046135 0.046302 0.011497 0.034247 -0.091099 -0.125291 -0.094759 0.051583 0.145419 -0.067279 0.078173 -0.083398 0.028515 0.074986 -0.016306 -0.041937 0.008487 0.110935 -0.044677 0.002648 0.059187 0.070442 0.059045 -0.028425 0.030421 -0.104355 -0.178992 0.071718 -0.065599 0.069293 -0.019081 0.103567 0.024840 0.047591 0.012617 0.004108 -0.020914 -0.070759 -0.031543 -0.035107 0.024411 0.040568 0.107491 0.043754 0.045092 -0.027715 0.003856 0.000536 -0.063408 -0.028375 0.053479 -0.095488 -0.019309 -0.039032 0.030595 -0.027134 0.188672 0.071956 -0.012671 -0.128905 -0.064036 0.023801 -0.075919 -0.008440 -0.014619 0.074707 0.001849 -0.091072 -0.060044 0.069153 -0.047654 0.119642 -0.042357 -0.037924 -0.075167 -0.031281 -0.005168 -0.050331 -0.082744
danish -0.118426 0.009625 0.013333 0.055587 -0.033292 0.029388 0.090248 0.013324 0.054985 -0.010248 -0.098164 0.086953 -0.076631 -0.066487 0.050145 0.013750 -0.118615 -0.095039 -0.095402 0.075272 0.010229 0.122547 -0.120592 -0.088303 -0.013306 -0.040051 0.127245 -0.017303 -0.040533 0.043261 0.128448 0.019374 0.004605 0.004939 -0.049381 -0.031842 0.081603 0.058080 -0.140229 -0.078309 0.122468 -0.009470 0.097920 -0.046817 0.117030 0.003122 0.011248 -0.186397 -0.044920 -0.132811 -0.047526 -0.000804 -0.017514 -0.036128 -0.155021 -0.150628 0.017781 -0.084921 0.020097 0.110979 -0.076639 0.012591 -0.023986 0.029261 -0.032707 0.046275 -0.023148 -0.017213 0.043748 0.120868 -0.049341 -0.084554 -0.008541 0.019297 -0.011256 -0.013477 -0.064990 0.004108 0.119520 -0.086361 0.091300 -0.078891 0.046336 0.019052 0.034817 -0.052220 0.040815 -0.095960 0.067000 -0.023522 0.110502 -0.006110 -0.066922 0.043440 0.004600 0.064902 0.036226 -0.023047 0.011513 -0.032404 0.095905 -0.153031 -0.027092 0.122937 0.005247 -0.033783 -0.119857 -0.020412 -0.037516 -0.054591 0.039142 0.026514 0.061894 -0.120262 0.027888 -0.005381 0.004190 0.067594 -0.041407 -0.128381 -0.012397 0.110366 -0.014359 -0.006720 0.024460 -0.107714 0.024240 0.093911 0.092735 -0.016209 0.037754 -0.037869 0.073214 0.003885 -0.151574 -0.082105 -0.007842 -0.039023 -0.119625 0.011493 -0.044755 0.023243 -0.047212 -0.076990 0.010196 0.171313 0.021668 -0.153063 0.009252 0.175090 0.027647 -0.002033 0.089199 -0.009441 -0.041514 0.027740 0.014790 0.062983 -0.015974 -0.125696 -0.057728 0.022089 -0.093614 -0.095375 0.013406 -0.067833 0.020098 0.168413 -0.057733 0.036723 0.019868 -0.076052 0.029793 0.051611 0.078682 0.087251 0.076028 -0.024887 -0.083023 0.081490 0.076684 -0.002333 0.010575 -0.023199 -0.022211 -0.112848 0.116421 -0.082646 -0.040734 0.034684
denmark 0.058042 -0.012964 0.016691 0.058689 0.146879 -0.111829 -0.123357 0.082498 0.030838 -0.115238 -0.016889 0.003162 -0.104546 -0.051122 0.050354 0.178979 -0.104162 0.048410 -0.056761 0.028357 -0.063006 0.053979 -0.071941 -0.034257 0.055482 0.074505 0.061267 -0.044941 0.003854 0.106842 0.102774 -0.042777 -0.010107 -0.024205 -0.045489 0.007953 0.040394 0.084793 0.050071 0.035939 0.013789 0.001091 0.083778 -0.078182 -0.015123 -0.065237 0.033370 -0.045965 0.019439 0.083615 -0.007433 0.055566 -0.050859 -0.085691 -0.152587 0.021991 -0.073064 0.065107 -0.050279 0.114267 -0.043466 -0.008188 -0.019395 0.050932 -0.088196 0.122369 -0.056175 0.042546 -0.056267 0.151253 0.020365 0.003600 0.089730 0.000606 0.075039 0.026497 -0.041691 -0.027381 -0.111669 -0.059998 0.103285 -0.065612 0.089314 -0.080363 0.029608 -0.129375 0.010314 -0.052820 0.088278 -0.119750 0.141148 0.006517 -0.028926 0.072951 -0.071272 0.117352 -0.020471 0.011005 0.017983 0.101105 -0.056063 -0.081078 -0.065550 0.092026 0.114001 -0.101700 0.043789 0.131052 -0.037749 0.084565 0.088037 0.010108 0.062226 0.034242 0.002854 0.013706 -0.128751 0.136074 0.057941 0.060694 -0.076035 0.047479 0.039462 -0.077962 0.048480 -0.034944 -0.035706 -0.006170 0.062024 -0.000440 -0.043992 -0.048947 0.058668 0.068225 -0.133843 0.003429 -0.029449 0.012112 -0.089952 -0.036883 -0.029023 0.106930 -0.032239 -0.080192 -0.034301 -0.059118 -0.134273 -0.128693 0.041516 0.187633 0.039185 0.015328 0.066752 0.036624 0.070818 0.055365 -0.056482 0.157119 0.089367 0.030454 0.163915 0.073472 -0.135469 -0.009351 -0.019327 -0.059199 0.059278 0.081734 -0.055328 -0.034683 0.100040 -0.018830 -0.019149 0.010045 -0.006235 0.074979 -0.037031 0.042448 -0.077734 0.033236 0.020249 0.016102 0.065327 0.052046 0.011698 -0.048591 0.068123 -0.019013 -0.019326 0.009202
croatia -0.064696 0.006080 -0.027687 -0.099009 -0.031904 -0.055781 0.090957 -0.096846 -0.108194 -0.114013 -0.030665 0.086251 -0.094327 0.041683 0.130339 0.044145 -0.039702 0.020988 -0.067187 0.039975 0.019766 -0.044111 -0.091322 -0.016618 0.125218 0.064063 0.026026 0.107934 -0.078417 -0.062643 0.027319 0.057935 -0.032745 -0.033709 -0.085569 -0.067594 0.008106 -0.017873 -0.088546 0.127108 0.143915 -0.089133 0.067774 -0.023910 0.082978 0.033007 -0.111266 0.113992 0.061752 -0.014532 0.067966 0.043518 -0.094452 -0.089713 -0.047969 0.093487 0.032200 0.011635 0.108159 0.054704 -0.006598 0.077416 -0.012814 0.018720 -0.005093 -0.137549 0.076003 -0.076269 0.091398 0.123491 0.122635 0.004319 -0.107492 -0.024280 0.049907 -0.043649 -0.066827 0.034075 -0.017345 -0.098110 0.106125 0.145139 0.072354 0.026770 0.036399 0.044184 -0.081580 -0.004785 -0.083618 -0.012235 0.021331 0.064709 0.031496 -0.031377 -0.092540 -0.008071 -0.052348 -0.015475 0.016965 -0.043283 -0.084437 0.097866 -0.060401 0.066654 -0.077259 -0.075047 -0.073912 0.091764 0.041963 0.035539 0.026708 0.001470 -0.111782 -0.009569 -0.028382 -0.075395 -0.038850 -0.028493 0.119456 0.108279 -0.008476 0.028368 0.047267 -0.037924 0.096493 -0.196588 -0.070946 0.049337 0.000320 0.082989 0.007811 0.038582 0.058927 0.126496 0.058659 -0.027507 -0.027212 -0.186070 0.056945 0.108110 0.154000 -0.046207 0.046783 -0.002814 0.016081 -0.039578 -0.090593 -0.036526 -0.108498 0.035655 0.021881 0.054417 0.025385 0.073482 0.033155 -0.078587 0.039021 0.079104 0.039964 0.034615 0.073446 0.015067 0.078285 0.057415 0.099231 0.203897 0.031903 0.005214 0.077705 0.047406 -0.034214 -0.020535 0.050632 -0.038258 0.030223 0.141302 -0.081215 0.000602 -0.053114 0.007583 0.024431 0.084504 0.125293 0.042576 -0.136260 -0.089255 0.049577 -0.023455 -0.088272 0.011575
