fly 0.044378 -0.044781 -0.409484 0.308508 0.006974 -0.134555 -0.002662 0.069509 0.098454 -0.015179 0.099000 0.108879 0.064771 -0.050635
loud -0.014021 0.001134 -0.067822 -0.112830 -0.234861 0.124311 0.249602 0.095084 -0.107810 0.110619 0.207060 0.006980 0.091048 0.071150
tough -0.067751 0.016132 -0.099614 -0.069478 -0.159049 0.060487 0.131317 -0.051905 -0.214491 0.061204 0.267751 -0.057085 -0.060328 0.095810
occasionally -0.097727 -0.138117 0.035920 0.044847 0.057120 0.226432 -0.023932 -0.102444 0.031010 -0.284500 0.153173 -0.028545 -0.052813 -0.158547
moving -0.064267 0.144812 0.187260 0.059982 -0.173332 -0.027061 -0.266891 -0.005562 0.042517 -0.134936 0.148295 0.227401 0.062838 0.018128
professionally -0.076955 -0.076877 -0.070510 0.005421 0.115546 0.401884 -0.010079 -0.081294 -0.003128 -0.167116 -0.005977 -0.029343 -0.082373 -0.147177
professional 0.194106 -0.022422 0.111173 0.081238 0.228626 0.207190 -0.124771 -0.028100 -0.229066 0.181651 -0.161630 0.139046 -0.058381 0.160895
norwegian 0.074897 -0.093263 -0.042305 -0.146249 0.114778 -0.062173 -0.063222 -0.042004 0.134347 0.107709 -0.045826 -0.136442 0.262637 -0.057536
tougher 0.067267 0.008847 -0.024217 -0.128261 0.091972 -0.165504 -0.068583 0.017628 0.017338 -0.241449 0.016091 -0.165181 -0.092731 0.315738
ukraine 0.028577 -0.048662 0.084565 -0.004415 -0.134166 -0.154042 0.124015 -0.262793 -0.008548 0.009773 -0.172515 0.060613 -0.126270 -0.051854
move -0.174868 0.049606 -0.190113 0.220566 0.048195 -0.106565 0.028922 0.125838 0.095278 -0.063339 -0.019452 0.160930 0.325462 0.212527
occasional 0.183938 -0.137390 0.126114 0.189702 0.183187 0.047867 -0.036271 -0.003180 -0.205977 0.036328 -0.021377 0.169049 0.039460 0.050255
ukrainian 0.042918 0.118482 0.023818 -0.190682 0.280771 -0.102838 0.116889 -0.163620 0.168790 0.027049 -0.092487 0.059429 0.064204 -0.117853
flying 0.117867 0.144752 -0.049671 0.050398 -0.187618 0.006903 -0.146387 -0.035537 0.056396 -0.010557 0.201429 0.215618 -0.134708 -0.179447
danish 0.003020 -0.035970 -0.007746 -0.103890 0.235799 -0.012485 -0.053326 0.046677 0.284296 0.165666 0.149004 -0.062818 0.030772 -0.111296
norway 0.036396 -0.127310 0.084853 0.089651 -0.297855 -0.072384 -0.112418 -0.115189 0.027132 0.136743 -0.172266 -0.115853 0.062545 -0.020437
argentina -0.071481 0.032428 0.044699 0.172790 -0.203587 -0.058251 0.062249 0.154718 0.025941 0.032715 -0.254624 -0.159899 -0.070122 -0.203586
louder 0.132481 -0.022033 0.047113 -0.237953 -0.067546 -0.028407 0.087957 0.189098 0.162242 -0.248443 -0.077243 -0.044698 -0.119686 0.229316
argentinean -0.069578 0.192048 0.012199 -0.103558 0.271864 -0.069126 0.054566 0.119035 0.092096 0.017610 -0.054722 -0.117961 0.023198 -0.209733
denmark -0.016498 -0.151942 0.085755 0.184791 -0.165299 -0.069958 -0.050323 -0.043196 0.161360 0.207862 -0.077733 -0.054705 -0.173718 -0.071405
