move 0.200437 -0.745894 -0.085499 -0.296385 0.121806 -0.297999 0.587616 -0.124588 0.473070 0.225514 0.583502 0.388055
danish -0.240560 -0.479267 -0.298757 -0.272024 0.280489 0.145884 -0.135716 0.092791 -0.135011 0.284573 -0.453426 0.138651
loud 0.294919 -0.082950 -0.194113 0.094680 -0.127797 -0.187388 -0.548535 0.647176 -0.181686 0.359656 -0.188752 -0.179298
tough 0.232684 0.003660 -0.259551 0.075746 -0.118632 -0.311993 -0.366148 0.403050 -0.243155 0.334656 -0.129219 -0.131330
flying -0.327976 -0.061620 -0.320723 0.223748 -0.234301 -0.327147 -0.094167 -0.424940 -0.016171 -0.000374 -0.218475 -0.359067
denmark 0.262682 0.226081 0.474334 -0.242827 0.062914 0.091001 0.286599 -0.343667 -0.309014 -0.104526 0.079609 -0.189950
tougher 0.525133 0.016914 -0.512185 -0.245061 0.573092 0.398824 -0.144140 0.156612 0.477448 0.509144 0.131143 0.060390
professional -0.228717 0.337527 -0.130867 -0.388463 -0.117063 -0.158255 -0.163339 -0.260693 0.544954 0.190637 0.479295 0.321389
norway 0.317706 0.476214 0.414348 -0.136707 0.032988 0.315036 0.299398 -0.273398 -0.369479 -0.311702 0.359414 -0.326842
ukraine 0.239431 0.344017 0.403935 -0.263529 -0.003570 0.120934 0.102232 -0.554512 -0.262208 -0.135280 0.319013 -0.103944
occasionally -0.315127 -0.191148 0.239863 0.333976 -0.019177 -0.165013 -0.374370 -0.211678 -0.135035 -0.362812 -0.461309 0.240134
norwegian -0.313931 -0.234397 -0.220411 -0.152635 0.336486 0.204603 -0.204831 0.069240 -0.066560 0.072096 -0.036691 0.135282
occasional -0.197670 0.331979 -0.045459 -0.331376 -0.194395 -0.174620 -0.140786 -0.077400 0.425854 0.196782 0.390309 0.398717
professionally -0.374028 -0.086452 0.190731 0.382506 0.038203 -0.079625 -0.514421 -0.234498 -0.075055 -0.415864 -0.537625 0.257769
louder 0.741810 0.148296 -0.397123 -0.222388 0.587185 0.439480 -0.104037 0.282684 0.492629 0.414263 0.019405 -0.016202
ukrainian -0.271041 -0.214964 -0.310385 -0.364135 0.349448 0.263708 -0.392157 0.002888 0.036847 0.337484 -0.052843 0.121194
argentina 0.266287 0.108545 0.548258 -0.353559 -0.164241 0.003846 0.189632 -0.466461 -0.338987 -0.227092 0.064255 -0.283784
moving -0.177358 0.014165 -0.380574 0.098876 -0.034086 -0.158027 0.048381 -0.367365 0.140314 0.206992 0.022202 -0.173337
argentinean -0.326489 -0.464415 -0.234540 -0.381153 0.136411 0.244285 -0.266997 0.145231 -0.146567 0.206566 -0.496020 0.004365
fly 0.038154 -0.605654 -0.087629 -0.219728 0.020959 -0.285093 0.350402 -0.089095 0.180664 0.136438 0.360680 0.151707
