move -0.285607 0.292970 0.349650 0.395832 0.067145 -0.188321 0.409166 -0.415550 0.401868 0.297779 0.312539 -0.102304
danish 0.308447 0.089524 0.004677 0.038863 -0.540841 -0.114481 0.039413 -0.368219 -0.024523 0.129376 -0.130562 0.021628
loud -0.373734 0.290292 -0.389120 0.031910 0.004413 0.308458 0.043375 0.047428 -0.407511 -0.233936 -0.158842 -0.115697
tough -0.234483 0.294432 -0.111668 0.093737 -0.025732 -0.042150 0.121076 0.120641 -0.310153 -0.160776 -0.202190 -0.209581
flying -0.150228 0.015800 0.287833 0.464706 -0.600776 -0.689165 -0.226588 0.224113 -0.089487 -0.157331 0.079757 -0.204841
denmark 0.108284 0.057491 0.098899 -0.062575 0.088213 -0.178534 -0.357407 -0.157227 -0.123210 -0.228416 0.087519 0.035528
tougher 0.258121 -0.308253 -0.551108 0.186511 0.119888 0.375552 -0.190040 -0.197919 -0.308057 0.452144 0.077025 0.450793
professional 0.169705 -0.507518 -0.167066 0.014292 -0.063250 -0.099189 0.132958 0.274154 0.400323 0.031247 -0.447851 -0.377415
norway 0.077244 0.415809 0.216462 0.064365 0.299062 -0.349856 -0.066467 0.383746 0.019554 -0.416312 0.061689 0.068944
ukraine 0.169569 -0.013606 -0.117319 -0.077129 0.124317 -0.319123 -0.186521 -0.001227 0.039017 -0.360744 0.091302 -0.087858
occasionally -0.146811 -0.436752 -0.050154 -0.522281 -0.379509 -0.010259 -0.481737 -0.410442 -0.132090 0.001831 0.013049 -0.167239
norwegian 0.301829 0.127925 -0.045666 0.149136 -0.354048 -0.153809 0.267944 -0.183640 0.163288 -0.153936 -0.218935 -0.055618
occasional 0.059168 -0.350806 -0.098539 -0.160059 -0.080858 -0.053136 0.121418 0.269333 0.289123 0.026329 -0.420339 -0.386585
professionally -0.160364 -0.725194 -0.241246 -0.639244 -0.326936 0.066721 -0.623562 -0.477086 -0.217064 -0.102826 -0.178696 -0.051741
louder 0.015795 -0.249465 -0.569614 0.062075 0.290835 0.620233 -0.295338 -0.067849 -0.389288 0.342427 0.183565 0.634762
ukrainian 0.438273 -0.132505 -0.541611 0.170642 -0.406963 -0.050310 0.169765 -0.308872 0.139309 -0.072862 -0.244527 -0.049933
argentina 0.018114 0.247623 0.147320 -0.008843 0.198099 -0.311018 -0.205696 0.016799 0.007660 -0.370126 -0.038472 0.051209
moving -0.048295 -0.129693 0.109436 0.457845 -0.472296 -0.494604 -0.323842 0.049437 -0.043543 0.037941 0.171085 -0.133088
argentinean 0.257991 0.073646 -0.139803 0.041830 -0.380446 -0.052014 0.107429 -0.280181 0.066087 -0.131859 -0.315650 0.144989
fly -0.200540 0.453526 0.373418 0.420346 -0.042443 -0.413284 0.383441 -0.254013 0.274194 0.080954 0.054475 -0.228496
