move 0.588162 0.032878 0.641042 -0.329283 -0.390876 -0.049586 -0.440330 -0.273303 0.551728 0.143538 0.524751 -0.096892
danish 0.416621 -0.149618 0.116229 0.112249 -0.006265 -0.239091 0.049618 0.382840 -0.336495 -0.527853 -0.083087 0.033376
loud -0.153383 -0.517496 -0.237853 0.333571 -0.029841 -0.474693 0.191720 -0.025818 -0.206273 0.484638 -0.020712 0.085538
tough -0.259844 -0.409987 -0.131919 0.082209 0.209486 -0.054194 0.055937 0.118600 0.096623 0.323458 -0.111310 0.080386
flying 0.163840 -0.151037 -0.594638 0.118120 0.522762 -0.215865 0.028172 0.037205 0.215099 -0.170703 -0.132486 -0.460206
denmark 0.013413 0.099595 0.148149 -0.042637 0.403763 0.122794 0.080549 -0.379127 -0.137576 0.015083 -0.292699 0.218647
tougher -0.334707 0.255348 0.057042 -0.317316 -0.363918 0.305581 -0.416438 0.545687 0.117343 0.091057 -0.013875 0.378211
professional 0.136567 0.325709 -0.287667 0.087489 0.074197 0.508656 0.668151 0.009547 -0.104907 0.251200 0.346906 0.032093
norway -0.124916 0.158268 -0.022630 0.145817 0.509636 0.233806 0.091701 -0.638916 -0.139338 0.047759 -0.380668 0.332061
ukraine -0.058179 0.163435 -0.069247 -0.063271 0.404206 0.413276 0.125089 -0.468644 -0.143957 0.031025 -0.343933 0.219724
occasionally 0.160360 -0.089004 0.113202 -0.366261 -0.304847 -0.047509 0.379981 -0.171786 -0.185161 0.034030 0.068807 -0.323062
norwegian 0.383187 -0.084258 -0.033921 0.006470 0.063484 0.081452 0.126640 0.079953 -0.379733 -0.358968 -0.005126 0.230734
occasional 0.099336 0.182454 -0.107765 -0.027277 -0.032114 0.523281 0.656631 -0.027328 -0.142190 0.367356 0.353001 -0.062966
professionally 0.054614 -0.026437 0.078975 -0.234929 -0.390602 -0.012036 0.488947 -0.144738 -0.351091 0.024264 0.065385 -0.398078
louder -0.244911 0.338378 0.080189 -0.029323 -0.468654 -0.177861 -0.227447 0.286283 -0.122429 0.413663 -0.019639 0.205321
ukrainian 0.384978 -0.015404 -0.220029 -0.019414 -0.062114 0.184097 0.114752 0.155652 -0.479138 -0.214898 -0.077846 0.285469
argentina 0.004575 0.088283 0.225644 0.204284 0.359543 0.239787 0.133310 -0.435396 -0.119560 0.083693 -0.320474 0.059796
moving 0.135289 0.001584 -0.435920 -0.144710 0.237758 -0.008256 -0.212006 0.037496 0.237996 0.007861 0.061478 -0.332572
argentinean 0.471660 -0.162009 0.055031 0.368417 0.014447 -0.156804 0.116672 0.331110 -0.415652 -0.417299 -0.203991 0.007002
fly 0.569182 -0.162080 0.349969 -0.040596 0.022671 -0.181674 -0.193920 -0.238605 0.377057 -0.015419 0.247412 -0.029683
