move 0.479676 -0.267020 -0.740223 -0.358533 0.712164 -0.308355 -0.107687 -0.253755 -0.504816 0.269196 -0.036830 -0.263527
danish -0.374320 0.042122 -0.108716 -0.074853 0.293244 0.482988 0.055933 0.256123 -0.160031 0.409303 0.282688 0.174961
loud 0.068574 0.419071 0.293773 -0.491762 -0.420148 -0.000903 -0.176691 0.078295 0.053976 -0.003641 0.035632 0.351092
tough 0.036378 0.453662 0.235769 -0.331180 -0.412331 0.112982 0.021669 -0.102663 0.297066 0.005251 0.166364 0.235228
flying 0.112185 -0.093815 0.034349 0.209044 0.139458 0.013796 0.228340 -0.409101 0.222336 0.341863 -0.371156 0.170117
denmark -0.087896 -0.241123 -0.129901 -0.065143 0.035759 0.110056 -0.207209 -0.344654 0.063732 -0.241902 0.047790 -0.487514
tougher -0.447665 -0.223152 -0.062678 -0.164298 0.344791 -0.431193 -0.630080 -0.067000 0.140572 0.094750 -0.057643 -0.145466
professional -0.039523 -0.219122 0.442665 0.073107 0.078044 -0.416828 0.556112 0.401430 0.127229 -0.267450 0.112512 -0.119816
norway -0.079281 -0.279570 -0.270856 -0.179426 -0.324501 0.185177 -0.000210 -0.268776 0.419637 -0.284492 0.154169 -0.350931
ukraine -0.159105 -0.381100 -0.173245 -0.119419 -0.127991 0.037454 0.069341 -0.261603 0.147577 -0.258326 0.010936 -0.490258
occasionally 0.323928 0.061085 0.128162 0.369482 0.321694 -0.167718 -0.646143 0.050534 -0.833520 -0.360173 -0.555812 -0.433386
norwegian -0.246136 0.084855 -0.192663 -0.069805 -0.078737 0.471943 0.249721 0.359779 0.092249 0.227678 0.397822 0.211744
occasional 0.256558 -0.107965 0.628083 0.149461 0.230013 -0.502999 0.165229 0.282120 -0.232984 -0.388971 -0.038875 -0.318569
professionally 0.325206 0.134182 0.304114 0.502035 0.251884 -0.135980 -0.718377 0.182524 -0.725555 -0.457980 -0.537571 -0.359148
louder -0.472741 -0.127850 -0.101965 -0.329839 0.133691 -0.285363 -0.609971 0.063303 0.247110 0.014591 -0.162587 0.023721
ukrainian -0.498463 -0.010397 -0.087850 -0.092539 -0.183845 0.436981 0.325028 0.408544 0.133971 0.443752 0.442830 0.315437
argentina 0.312115 -0.422327 0.146292 -0.077380 0.372772 -0.124551 -0.462092 -0.384196 -0.274606 -0.342842 -0.099045 -0.656874
moving -0.061599 -0.194149 -0.190650 0.171548 0.206109 -0.134492 0.149192 -0.431644 0.268926 0.223400 -0.333404 0.115118
argentinean -0.085664 -0.054067 0.164649 -0.117803 0.290600 0.439216 -0.073540 0.448685 -0.237903 0.280026 0.187734 0.203663
fly 0.657055 -0.231150 -0.327371 -0.332760 0.499230 -0.133751 0.065199 -0.235507 -0.388880 0.368506 0.080816 -0.063915
