move -0.193056 0.262856 -0.248536 0.068276 -0.164631 0.456594 0.085237 0.806120 -0.140711 -0.200865 -0.088650 0.249991
danish -0.156152 -0.367363 0.020098 0.274638 -0.234944 0.208135 0.160872 0.070990 0.039009 0.286050 0.400605 0.108186
loud -0.196426 0.124497 -0.168168 0.086923 0.342680 -0.192024 -0.538998 -0.012657 -0.139857 0.342901 -0.318482 -0.262988
tough -0.184481 0.156400 0.141071 0.137531 0.173577 -0.042503 -0.413836 -0.167670 -0.415291 0.182675 -0.306425 -0.118906
flying 0.051791 -0.174533 0.416671 -0.330716 -0.202657 -0.268103 -0.059502 -0.008708 -0.157342 -0.152941 0.337879 -0.165050
denmark 0.378131 -0.248234 -0.007210 -0.094281 0.315168 -0.132073 0.418064 0.116015 -0.303699 -0.016761 -0.060194 -0.014838
tougher -0.073544 -0.134261 0.147154 0.044194 0.252800 -0.289654 -0.212214 -0.135132 -0.433194 0.019257 0.171297 0.760981
professional 0.534798 0.459747 -0.266665 -0.418488 -0.182825 -0.148688 0.067960 -0.212000 0.311129 0.147142 0.081968 0.138210
norway 0.539200 0.077763 0.245178 -0.130999 0.623540 -0.229534 0.526123 0.237406 -0.154146 -0.096932 -0.077775 0.026233
ukraine 0.608004 0.036527 0.034532 -0.121010 0.361461 -0.386557 0.564091 0.208396 -0.275137 0.067308 -0.076484 0.083621
occasionally -0.185072 -0.332259 -0.163175 0.479052 -0.429725 0.040230 0.013617 -0.267881 0.008571 -0.136151 -0.360079 -0.171082
norwegian 0.033927 0.043003 0.060493 0.241277 -0.085601 0.176487 0.243373 0.168068 0.123063 0.322765 0.138973 0.199779
occasional 0.325385 0.476496 -0.278146 -0.245218 -0.176425 -0.006017 0.042893 -0.272420 0.304567 0.122632 -0.125924 0.061076
professionally -0.220079 -0.411390 -0.193897 0.467767 -0.389888 -0.064685 0.047169 -0.419850 0.159623 -0.119750 -0.351118 -0.176230
louder 0.125006 -0.316085 -0.223133 -0.064950 0.508418 -0.430856 -0.345513 0.023932 -0.112855 0.022531 0.050525 0.493957
ukrainian 0.092579 0.090562 0.007673 0.165428 -0.042011 -0.234903 0.213316 0.054528 0.057470 0.470563 0.298772 0.376820
argentina 0.432043 -0.133442 -0.046101 -0.168664 0.452157 -0.173140 0.455495 0.221425 -0.153406 -0.002682 -0.000293 -0.063872
moving 0.186273 -0.120454 0.467082 -0.373288 -0.159276 -0.316449 0.027585 0.147344 -0.101457 -0.192560 0.264726 0.121533
argentinean -0.039743 -0.190544 0.008590 0.176755 -0.072460 0.097635 0.183091 0.139297 0.279724 0.422909 0.278635 0.088761
fly -0.235224 0.267220 -0.197276 0.045246 -0.105842 0.304512 0.024839 0.646434 -0.189285 -0.111118 0.105398 -0.069967
