move 0.263308 0.520432 0.197737 -0.909505 -0.089990 0.140041 -0.146017 0.121935 0.794846 0.067053 0.238365 -0.152318
danish -0.141574 0.471396 -0.443191 -0.046458 0.451654 0.119463 -0.014876 0.387160 0.049729 -0.034230 0.303107 0.603309
loud -0.158879 -0.096927 -0.030356 -0.307362 -0.233852 0.417830 0.110399 -0.696697 0.012280 -0.022830 0.555583 0.217857
tough -0.040939 -0.065772 -0.001452 -0.196905 -0.131000 0.175572 0.203525 -0.415972 -0.075336 -0.037017 0.030193 0.229887
flying 0.320422 -0.024812 -0.038703 0.098032 0.505302 -0.451919 0.624231 0.159133 -0.155890 -0.082510 -0.351509 0.011760
denmark -0.327040 0.326500 -0.081237 0.078872 0.379575 -0.165558 0.013532 -0.142069 -0.182964 0.143974 -0.361182 -0.074831
tougher -0.052286 -0.433729 -0.003727 -0.183313 -0.381766 -0.487937 0.061128 0.318691 -0.263376 0.489846 -0.033739 -0.006941
professional 0.114415 -0.232763 -0.354257 0.439638 -0.241104 0.062796 -0.117262 0.402086 0.038636 -0.177388 0.030232 -0.313376
norway -0.282282 0.339914 -0.071189 -0.098887 0.316031 0.072195 -0.231602 -0.448889 -0.162143 0.236860 -0.292683 -0.222715
ukraine -0.213848 0.289096 -0.167771 0.079157 0.203089 -0.027521 -0.201017 -0.243714 -0.286562 0.146669 -0.367240 -0.106150
occasionally -0.025203 0.548150 -0.412281 0.005890 0.038432 0.422096 0.103807 -0.485223 0.454464 0.504444 0.438604 0.421797
norwegian -0.117046 0.457923 -0.516134 -0.156424 0.275887 0.379411 -0.219039 0.087261 0.194811 0.058394 0.458378 0.317281
occasional 0.119720 0.027943 -0.382812 0.232399 -0.195429 0.597724 -0.239022 -0.014913 0.297271 0.002217 0.349529 -0.067860
professionally -0.152047 0.370253 -0.577462 0.163836 -0.118957 0.147646 0.116978 -0.368595 0.413068 0.544840 0.464446 0.373667
louder -0.153672 -0.444537 0.096356 -0.180040 -0.466680 -0.311877 -0.085291 -0.068487 -0.019197 0.503749 0.280470 -0.032842
ukrainian -0.148304 0.212297 -0.616806 0.020275 0.203233 0.012704 -0.120027 0.352922 -0.232169 -0.128349 0.202530 0.350491
argentina -0.392679 0.228544 -0.073351 0.080011 0.341369 -0.320336 -0.021084 -0.080311 -0.275936 0.017954 -0.505265 -0.134820
moving 0.365284 -0.038907 -0.009063 -0.008662 0.287745 -0.413640 0.357849 0.156731 -0.078051 0.092452 -0.254899 -0.016748
argentinean -0.191366 0.363238 -0.518898 0.004136 0.342958 0.108804 -0.205055 0.212660 0.008619 -0.167660 0.396773 0.511351
fly 0.171768 0.487336 0.088951 -0.686829 0.151729 -0.064488 0.222849 0.206870 0.305289 -0.158213 -0.021884 -0.164004
