move -0.006109 -0.008846 -0.018683 -0.018906 -0.030323 0.281577 0.014659 -0.013898 -0.002771 0.024207 0.039612 0.015952 -0.015545 0.117426 -0.014948 0.501576 -0.002323 0.022628 -0.029576 -0.005653 0.009392 -0.017514 0.028559 -0.000292 -0.030799 -0.025322 0.002530 0.002251 -0.007983 0.001067 -0.022282 0.000625 0.016309 0.011906 -0.016909 0.017974 -0.048727 0.001890 0.147659 -0.007585 -0.016085 -0.030317 0.017444 -0.023158 0.008831 -0.267560 -0.050515 -0.006019 -0.131948 -0.002959 0.040153 0.087045 -0.007126 0.007584 0.004829 -0.029332 0.024474 -0.018342 0.016156 0.011016 0.001401 -0.013317 0.009350 -0.015799 -0.004022 -0.021801 -0.007411 0.107480 -0.022335 0.260830 0.002593 0.030249 -0.141635 -0.002322 0.008865 0.010358 0.004087 -0.018206 -0.031648 -0.003238 -0.106484 -0.001345 -0.024558 0.019566 0.019199 -0.025744 0.004336 -0.016132 0.012730 -0.232922 0.019151 0.015509 0.002497 0.008397 0.021699 0.001601 0.006260 -0.011298 0.009462 -0.003897
tougher -0.007876 0.045974 -0.021073 0.023809 0.022533 0.073531 -0.008422 0.006426 -0.039343 0.009762 -0.018696 -0.027921 -0.003630 0.006684 0.018406 -0.095613 -0.012549 0.003423 -0.467130 -0.020292 -0.038427 -0.008415 -0.000174 0.008726 -0.004067 -0.015794 -0.019031 -0.010170 -0.014847 0.013974 -0.004584 0.017679 -0.018702 -0.002921 0.042022 -0.009045 0.007134 0.007954 0.116324 -0.003078 0.018233 -0.010729 0.024298 0.007379 0.016834 0.079611 -0.012336 0.050234 0.023470 0.006597 0.016847 0.140030 0.029832 0.014479 0.025211 -0.018501 -0.000736 -0.004916 0.010050 0.047842 -0.016194 0.000916 -0.007003 -0.034248 -0.341513 -0.018855 -0.004112 0.101640 -0.022048 -0.065219 0.044822 -0.019864 0.073385 -0.013151 -0.027659 0.017237 -0.035241 -0.003628 -0.002891 -0.012911 0.018690 0.005941 -0.014875 0.006038 0.004599 0.020971 -0.016971 -0.012154 0.005853 -0.107689 -0.029485 -0.040572 -0.005303 -0.006808 0.011196 0.002597 0.008051 -0.009902 -0.027823 0.009973
occasionally 0.006673 -0.026389 -0.002598 0.001477 -0.148596 -0.140754 -0.011712 0.031727 -0.008143 0.034613 -0.000421 0.024163 -0.013561 -0.259755 -0.001913 0.012404 0.042552 -0.025784 0.034153 0.020064 -0.004679 -0.001465 -0.004410 -0.035142 0.002471 -0.013284 -0.025453 -0.000757 -0.018195 0.095075 0.018904 -0.005732 0.030412 -0.006596 0.003074 0.022681 -0.013272 -0.013079 -0.172376 -0.015392 -0.000362 0.021173 -0.020073 0.018634 0.013352 0.014456 0.110806 -0.006500 -0.270917 -0.024588 0.177824 -0.046795 -0.013877 0.030226 -0.029523 -0.021211 -0.008780 -0.048450 0.022646 -0.102659 0.031928 -0.010177 -0.001673 0.021463 -0.041888 -0.016416 -0.039221 -0.129552 0.024828 0.101996 0.005849 -0.007452 0.067697 -0.000428 0.042073 -0.017504 0.017175 -0.001200 0.022715 0.042100 0.029308 0.017061 -0.005969 0.034857 0.005224 -0.035345 -0.008722 -0.021589 -0.001851 -0.039874 0.016746 -0.002205 -0.028410 0.005594 0.003704 0.036851 -0.025633 -0.018547 0.030607 -0.013564
argentina -0.028592 -0.006824 0.010660 -0.026470 -0.083386 -0.186228 0.010452 0.012863 0.026017 -0.016012 -0.004606 -0.002903 -0.021650 0.141273 -0.008024 0.164009 0.008451 -0.001127 -0.152363 0.023181 0.031651 -0.002137 0.000764 -0.002639 -0.016447 0.005921 0.025487 0.005561 0.015568 -0.065750 0.010725 0.019852 0.000928 0.028020 -0.023141 -0.012121 -0.005113 0.007619 -0.093231 0.005857 -0.024147 0.008637 -0.019338 0.015863 -0.018593 0.034871 0.066967 -0.027783 0.143039 -0.017098 -0.020588 -0.235613 -0.008716 -0.007608 -0.012574 -0.000970 0.007419 -0.000091 -0.013950 -0.102294 0.019189 0.010501 -0.006657 0.003280 0.195044 -0.003932 0.021046 -0.051366 0.015303 -0.211517 -0.009904 0.029623 0.102598 -0.000325 0.006729 0.009185 0.017907 -0.016573 0.009321 0.011830 0.010774 -0.019146 0.021915 0.001390 -0.010292 -0.012113 0.012906 -0.001170 -0.001758 -0.065860 0.014328 0.040977 0.001014 -0.019757 0.000586 -0.006010 0.013316 -0.004257 0.020655 -0.000057
danish -0.086937 -0.011775 -0.017669 0.033475 0.109783 -0.006009 -0.021462 0.006738 -0.040967 0.008648 -0.000054 0.047934 0.003711 -0.183426 -0.004333 -0.016613 0.031238 -0.030129 -0.006624 -0.043407 -0.017505 0.022903 0.024051 -0.020085 -0.024124 0.002331 -0.005312 -0.036215 -0.001660 0.065151 -0.009682 0.011230 0.035346 0.010913 -0.020916 0.019112 -0.019106 -0.015222 0.086215 -0.038118 0.052651 -0.007994 0.000727 -0.039345 0.000326 -0.162271 0.139009 0.014618 0.215292 -0.005154 -0.025049 0.175115 -0.027341 0.003704 -0.040993 -0.033732 -0.018954 -0.056068 -0.000026 0.054736 0.023830 -0.009635 0.010004 0.028988 0.181457 0.035724 -0.035447 -0.137135 0.001580 0.227296 -0.013396 -0.036443 0.267147 0.050716 0.025168 -0.036571 0.000062 -0.010200 0.006145 0.014283 -0.071250 0.065410 -0.067360 0.002901 0.019024 -0.011408 0.014794 -0.008981 -0.045741 0.057120 0.014284 -0.014244 -0.017020 0.051288 -0.050293 0.013533 -0.045072 -0.011704 -0.009785 -0.046823
fly 0.039239 -0.021740 0.018956 -0.033714 -0.117969 0.210589 0.004137 0.012131 0.026584 0.025194 0.010766 0.002748 -0.015018 -0.239247 -0.011559 0.458425 0.016840 0.012896 0.088828 0.039293 0.016505 -0.005920 0.009294 -0.012884 -0.014136 -0.005892 0.020909 0.011751 -0.011009 0.088922 0.001077 -0.002167 0.018947 0.011382 -0.002260 0.011963 -0.020800 -0.005480 0.214674 0.003233 -0.018620 0.004220 -0.014052 0.012182 -0.012679 -0.114788 -0.077029 -0.022057 0.107671 -0.030581 0.004215 0.034030 -0.008768 0.022881 -0.001098 -0.013298 0.030109 -0.009447 0.017299 0.063975 0.029958 0.005121 -0.006937 0.009564 0.056441 -0.009951 -0.004962 0.012442 0.007045 -0.149434 -0.010769 0.030767 -0.161652 -0.015959 0.027021 -0.002109 0.019491 -0.002861 -0.010002 0.025428 0.007070 -0.018213 0.016028 0.016707 0.027522 -0.030432 0.009185 -0.016962 0.016261 -0.001347 -0.006406 0.021177 -0.018166 -0.005219 0.026579 0.015118 0.013543 -0.012412 0.013069 -0.002307
louder 0.101612 -0.017589 0.013612 -0.030082 -0.014343 0.328502 0.037438 0.020587 0.034569 -0.024736 0.004540 -0.009934 -0.014947 0.079568 0.001602 -0.223324 -0.013776 0.005968 -0.160559 0.033123 0.037514 0.033790 -0.004358 0.003777 0.006084 0.006805 0.016681 0.015281 0.030818 -0.035367 -0.012061 0.019090 -0.019040 0.004300 0.021058 -0.028763 -0.003186 -0.021067 0.243755 0.010040 -0.022928 0.007951 -0.009891 0.030893 -0.041503 0.157729 0.015358 -0.011232 -0.120509 -0.020056 -0.026135 0.054795 0.012507 -0.032744 -0.008872 0.018507 0.012055 0.028071 -0.024788 -0.143625 -0.007077 0.010047 -0.016708 0.008148 -0.066735 0.000690 0.008529 0.091987 0.010177 -0.077521 -0.017673 0.029140 0.210031 0.004625 -0.005445 0.015919 0.006785 -0.013494 0.015668 -0.005785 -0.017674 -0.026820 0.035239 0.012404 -0.018246 -0.010021 0.007371 0.010191 0.002966 0.002571 0.009182 0.014577 0.015415 -0.025550 -0.010548 -0.044114 0.012408 -0.008803 0.005212 0.030303
loud 0.140914 0.032986 -0.000753 -0.006424 -0.007497 -0.095464 -0.044011 0.008076 0.006583 -0.013171 -0.010564 -0.007002 0.000933 0.065033 -0.002616 -0.080275 -0.000511 -0.006705 0.181367 -0.004728 -0.004142 -0.051983 -0.010291 -0.003417 -0.015233 0.008414 0.000309 0.004543 -0.000461 0.010038 0.017472 -0.026599 -0.010882 0.010107 -0.002642 -0.031833 0.033822 0.046001 0.113472 -0.002770 -0.026119 0.010546 0.000202 0.003095 0.024478 -0.076812 0.025332 -0.016182 -0.185665 0.017625 -0.160725 -0.245868 -0.004162 -0.006111 0.029441 0.027509 0.003343 0.010392 0.003056 -0.009056 0.014012 0.026557 -0.016541 -0.013169 -0.128971 -0.015667 0.014147 0.388389 0.003423 -0.132899 0.007268 0.016623 0.225575 -0.009624 -0.031702 0.005642 0.020297 -0.015806 -0.002012 0.030730 -0.034105 0.003595 0.000646 -0.064218 -0.011712 0.007577 0.014342 -0.005428 0.025189 0.109112 0.005436 0.013678 0.016602 0.007656 0.023453 -0.015874 0.018238 0.010318 0.020801 0.004047
norway 0.014671 0.026887 0.024318 -0.013523 -0.080493 -0.086798 0.003645 -0.006765 0.013621 -0.031308 -0.010816 -0.006294 -0.008615 0.090195 -0.008264 -0.035826 -0.031812 0.029703 -0.275870 0.009597 -0.022609 0.028332 0.024377 0.019586 -0.005629 0.002751 0.029464 0.002108 -0.003002 -0.092332 -0.018514 0.005278 -0.017856 0.017318 0.016996 -0.024341 0.001244 -0.008241 0.009472 -0.006346 0.003855 -0.016262 0.017162 -0.006369 0.000063 -0.067478 -0.003786 0.020957 -0.031030 -0.008446 0.074235 -0.188727 0.004951 -0.028659 0.019204 0.018769 -0.006978 0.027061 -0.016041 0.012919 -0.030905 0.000818 0.012730 -0.003755 0.373621 0.000884 0.015390 0.157384 -0.010522 -0.071539 -0.016261 0.009800 -0.219352 -0.006284 -0.028638 0.005131 -0.002538 -0.011033 -0.018914 -0.026599 0.081413 -0.003418 0.008261 -0.021577 0.005407 0.017727 0.010754 0.019543 -0.002793 0.112603 -0.032028 -0.017514 0.017447 0.002750 -0.004763 -0.029874 -0.006672 0.014331 -0.021923 0.010534
ukraine -0.013389 -0.016783 -0.027718 -0.016157 0.197883 -0.088189 0.013245 -0.006612 -0.004026 0.017860 0.037307 0.020384 -0.005564 0.069240 -0.019915 0.094274 0.026532 -0.004595 -0.117513 0.007444 0.005624 -0.000401 0.029953 0.009980 0.000710 -0.018316 -0.005934 0.029732 0.008681 0.098619 -0.020094 0.024187 -0.002163 -0.006752 0.003173 0.019452 0.006148 0.004956 -0.055441 -0.019191 0.005323 -0.011062 0.016993 -0.002613 -0.022042 0.336677 -0.074406 0.008186 -0.006112 -0.027022 0.021133 -0.204058 -0.020465 0.006575 -0.008680 0.005346 0.006516 -0.011378 0.004341 -0.023711 -0.005073 0.002808 -0.028634 0.014619 0.150054 -0.012770 -0.005489 0.149496 -0.018100 -0.055012 -0.015210 -0.005695 -0.185489 -0.006964 -0.003502 0.000829 0.014313 -0.013162 -0.013254 -0.010507 0.022322 -0.016757 -0.006486 0.022902 -0.000837 -0.032034 -0.000596 -0.032899 -0.019386 0.075654 0.024550 0.006298 -0.004116 0.002681 -0.002555 0.003845 0.011392 0.000081 0.008568 -0.009970
professional -0.090938 -0.007301 0.022022 -0.008645 -0.057984 -0.056862 -0.001105 -0.006606 0.012955 0.000173 -0.009146 -0.016539 0.005611 0.213085 0.026329 -0.140530 -0.000049 -0.020100 0.248177 0.000900 0.015524 -0.030504 0.004382 -0.011897 -0.013257 0.026393 0.017699 0.004705 0.006597 0.043895 0.043542 -0.015138 0.039738 0.026822 -0.045098 0.001941 -0.012588 0.007286 -0.080848 0.041518 -0.028083 0.011532 -0.057936 -0.013498 -0.000655 0.030455 -0.007696 -0.024827 -0.057840 -0.002046 -0.133204 0.450489 -0.014141 0.010887 -0.009472 -0.008488 0.012576 -0.004036 0.010956 -0.124225 0.028205 -0.006941 0.023498 0.009510 0.005505 0.013242 -0.001101 -0.009886 0.022212 -0.144907 0.006301 0.010977 -0.169570 0.010109 0.036607 -0.013430 0.012728 0.018029 0.009578 0.039841 0.085204 0.007037 -0.001004 0.002667 -0.002129 0.002077 0.016006 0.003765 0.016774 0.029546 0.007565 0.034607 -0.014493 -0.019490 0.021021 0.032088 -0.003122 0.008440 0.007669 -0.018350
moving 0.111840 -0.001506 -0.002247 0.035366 -0.149699 0.062342 -0.028564 0.012905 -0.018066 0.001268 -0.021534 -0.001861 0.003546 0.032887 0.005072 -0.151945 0.026681 -0.040216 0.010774 -0.025944 0.010143 -0.002880 -0.013984 -0.011754 0.002306 0.009156 -0.033636 -0.016849 -0.015897 0.006200 0.024250 0.016160 -0.004739 -0.004066 -0.009878 -0.005705 0.020599 0.020273 -0.123557 -0.011374 0.027927 0.023866 -0.010124 0.005295 -0.006090 -0.027096 -0.039358 -0.010140 0.090389 0.010694 0.001348 -0.109431 0.004011 0.016043 -0.010470 -0.005475 -0.000729 -0.013082 -0.006788 0.145584 0.018324 -0.007673 -0.024305 0.010688 -0.002052 0.044019 0.005923 0.019967 0.016465 0.006834 0.019675 -0.038178 -0.206853 0.020420 0.000842 -0.014014 -0.007695 0.013986 0.031154 0.016266 -0.221047 0.014558 -0.017581 -0.011566 -0.023291 0.013007 -0.006340 -0.013723 -0.022967 -0.310263 0.017065 -0.006309 -0.015109 0.014390 -0.018797 0.013997 0.000520 -0.005906 0.011275 -0.016137
tough -0.094269 -0.019343 -0.027157 -0.003339 0.087402 -0.267706 0.021551 0.011889 0.008243 -0.018001 0.034087 0.015194 0.006944 0.017522 -0.025055 -0.069523 -0.002438 0.005146 0.155581 -0.001613 0.018422 0.019746 -0.003113 -0.003648 -0.004488 -0.007199 0.001639 0.006958 0.015360 -0.066820 -0.037526 -0.000237 -0.005561 -0.016259 0.017459 -0.031572 0.000813 -0.011679 0.281277 -0.022740 0.002143 -0.010877 0.017618 -0.000099 -0.017859 -0.040031 -0.015898 -0.015892 -0.007523 0.005422 0.099594 -0.121970 -0.018163 -0.051271 -0.006952 0.019050 -0.006155 0.009599 -0.021551 0.126114 -0.010200 0.021526 -0.006267 0.023041 -0.279574 0.020065 -0.004711 0.198616 -0.003817 -0.024560 -0.043078 0.014941 0.086547 0.017012 -0.014634 0.010548 0.018651 -0.023214 -0.004375 -0.016143 0.184876 0.000975 -0.001067 -0.023161 -0.024593 -0.022757 0.020775 0.001776 -0.006414 -0.000689 0.038617 0.013756 0.026981 0.019015 -0.035966 -0.051408 -0.010203 0.011313 0.031408 0.009693
flying 0.078818 0.023230 0.033317 -0.003224 -0.089057 -0.003140 -0.013822 -0.006324 0.008488 -0.036821 -0.026209 -0.003576 0.001137 -0.160811 0.012775 -0.163114 -0.018527 0.012427 0.152004 0.004614 -0.010170 0.012973 0.033929 0.016649 0.014352 0.029573 0.026597 -0.005174 0.033576 0.053700 0.002031 0.007190 -0.007360 0.030445 -0.001704 -0.002523 0.021384 -0.004987 0.016069 -0.003437 0.003546 0.013014 0.010460 -0.007759 -0.012633 -0.004502 -0.104807 0.007170 0.192291 -0.007724 -0.069926 -0.277869 0.014099 -0.026523 -0.014427 0.031292 -0.010003 0.017773 -0.039394 -0.064016 -0.011464 0.015811 0.001927 0.011636 -0.012032 0.013415 0.019261 -0.144431 0.012618 -0.020815 -0.015558 -0.008323 -0.261565 0.024292 -0.009114 -0.025744 -0.006951 -0.018507 -0.006744 -0.010383 0.098611 0.028832 0.003931 -0.013083 0.028794 0.027475 0.004218 0.016354 -0.009110 -0.261244 -0.039069 -0.017445 0.014700 0.014550 -0.019535 -0.014582 -0.013116 0.013902 -0.052385 0.003894
professionally -0.135827 0.006633 -0.009738 -0.008626 0.002222 -0.063114 0.001950 -0.007385 -0.011707 0.045838 0.006109 0.014169 -0.017703 -0.243434 -0.007286 -0.132920 0.017485 0.025394 0.027776 0.000777 -0.028458 0.024802 0.005540 -0.000922 0.000977 -0.022780 -0.017324 -0.013121 -0.020515 -0.042110 -0.021476 0.014438 -0.012744 -0.020924 0.022770 0.038766 -0.026232 -0.006225 -0.274985 0.001322 0.001852 -0.027030 0.038240 0.001121 0.020485 -0.005718 -0.047827 0.042426 -0.365471 -0.027356 -0.109192 0.050058 0.017824 0.045583 0.007570 -0.016206 0.014060 -0.029379 0.025549 0.071046 0.005274 -0.004753 -0.004279 -0.036512 0.108038 -0.044613 -0.016749 -0.158192 -0.031763 -0.076972 0.028610 -0.013264 0.145470 -0.031651 -0.008507 0.017041 -0.031317 0.008752 -0.013782 -0.017842 0.115715 -0.016481 0.000633 0.040603 0.036422 -0.001120 -0.036764 -0.010288 0.010820 -0.096786 -0.021546 -0.033797 -0.016096 -0.014025 0.022839 0.025610 0.004686 -0.026020 -0.027309 0.002424
norwegian -0.140629 -0.000474 0.009242 -0.026823 -0.010461 0.143779 0.017938 -0.001780 0.017911 -0.009546 0.016530 0.026991 -0.018501 -0.029118 -0.030748 -0.099393 0.008066 -0.000169 -0.068581 0.019793 0.005153 0.025581 0.034452 0.025799 -0.023692 -0.014069 0.026200 0.025194 -0.004860 -0.070144 -0.004830 0.015874 0.028334 0.020414 -0.029580 -0.001915 -0.015103 -0.016981 -0.114386 -0.014745 -0.017023 -0.029855 -0.029778 -0.019088 0.008566 -0.135343 -0.048071 -0.007165 0.014421 -0.042035 0.066600 0.014293 -0.048152 -0.000488 -0.018632 -0.015694 -0.014678 -0.015510 0.028448 0.026054 -0.020190 -0.049497 0.030944 0.019514 -0.034760 -0.009465 -0.008626 -0.056839 -0.011308 0.157368 -0.024978 0.010966 0.070096 -0.005583 0.015844 -0.008980 0.036984 -0.011711 -0.041671 0.015152 -0.132603 -0.006092 -0.012763 0.007694 0.003496 -0.029134 0.039502 -0.013729 -0.027313 0.296081 0.025458 0.017893 -0.020081 0.004423 0.019622 -0.002567 -0.001654 0.011767 0.029594 -0.037624
argentinean -0.064235 0.005358 -0.014679 0.023246 0.059669 0.103677 0.004395 -0.044048 -0.023504 0.000840 0.005973 -0.027100 0.054835 0.189721 0.025073 0.014528 -0.018170 -0.018416 0.103381 -0.016275 -0.005706 -0.043535 -0.000635 0.027530 0.029017 0.008742 -0.012013 0.000293 0.015099 0.019003 0.011523 -0.027419 0.004956 -0.024095 -0.017049 0.003886 0.040501 0.011726 -0.092433 0.018964 -0.005775 0.016248 -0.001669 -0.034809 -0.019379 -0.085490 0.047864 0.004920 0.151384 0.032811 -0.006254 0.011035 -0.022743 -0.011260 0.018787 0.027551 0.014132 0.035439 -0.015515 0.083960 -0.019976 0.009086 -0.015446 0.031169 -0.087765 0.026608 0.004368 -0.281363 -0.020182 0.029642 0.010097 -0.034230 0.320111 0.012771 -0.011380 -0.012926 0.008406 0.028068 0.022791 -0.014472 -0.075016 0.005976 -0.007970 -0.003546 -0.012877 0.030119 0.005072 -0.013257 -0.011809 0.148631 0.000745 0.013129 0.002959 0.012088 0.007268 -0.006360 0.026112 0.022970 -0.008860 -0.026513
ukrainian 0.010665 -0.006888 -0.020713 -0.001205 0.179610 0.157478 0.013074 -0.000133 0.005228 0.037310 0.028953 -0.002070 0.009318 -0.040870 -0.008392 -0.038981 -0.004888 0.016015 0.093094 0.015083 -0.011995 0.018629 -0.039006 -0.012989 0.023154 -0.030075 -0.033607 -0.003485 -0.024633 -0.128188 -0.026758 -0.021512 -0.016020 -0.061080 0.051720 0.004901 -0.000017 -0.005907 -0.177423 0.006044 -0.034324 -0.011696 0.028445 0.012948 0.013310 0.121993 0.164233 0.022296 0.151448 0.002697 -0.044507 0.106224 0.006255 0.010093 0.034724 0.010869 0.015681 0.010594 0.026400 0.072846 -0.018829 -0.017009 -0.011153 -0.022977 -0.133549 -0.029191 -0.019064 -0.049100 -0.022931 0.186914 0.011758 0.000875 0.071426 -0.028680 -0.022667 0.020705 -0.010249 0.022070 0.003769 -0.017143 0.113298 -0.021665 0.023176 0.004245 -0.005214 -0.005605 -0.031190 -0.003576 0.030468 0.222670 0.010682 -0.021834 -0.003454 -0.013665 0.017165 -0.020292 0.006901 -0.016689 0.019099 0.020810
occasional 0.089496 -0.039512 -0.008757 0.010636 0.133021 -0.161826 -0.008177 -0.009253 0.003683 0.003406 -0.013873 0.010924 0.003751 0.093354 -0.006390 -0.020013 0.015447 -0.013873 0.179859 -0.001458 0.032476 -0.013119 -0.009542 0.001744 0.029174 0.009508 0.008332 -0.012872 0.013338 -0.010798 -0.019571 0.001608 -0.011148 -0.004423 -0.022769 0.032807 0.025637 0.007888 0.112092 0.002387 0.028964 0.017824 0.015513 0.013575 -0.018420 0.012667 0.052401 -0.017148 -0.141843 0.021506 0.018020 0.251661 0.016336 0.010901 -0.028392 -0.010602 -0.004747 0.014039 -0.021402 -0.141728 0.000769 0.012958 -0.034604 0.008891 -0.043795 0.019739 0.009043 -0.098516 0.001653 -0.132958 -0.014575 0.002965 -0.249295 0.014535 0.004788 -0.015030 -0.014812 0.013536 0.027998 -0.025525 -0.141509 0.001550 0.007265 0.009821 0.003141 0.002022 -0.020884 0.003288 -0.018393 0.119292 -0.008730 0.024505 0.015834 0.001500 -0.012953 0.011481 0.017649 -0.010363 -0.012358 0.015431
denmark 0.087158 -0.038767 -0.012740 0.006639 -0.029868 -0.285580 0.007529 0.013978 -0.005793 0.003293 0.013283 0.011562 0.013433 0.028337 0.018809 0.147871 0.005553 -0.022423 -0.133843 -0.008640 0.028804 0.021334 -0.025250 -0.023665 0.006208 0.022211 -0.001957 -0.022338 0.034155 0.017838 -0.004533 -0.006422 0.020054 -0.010975 -0.008132 0.010074 -0.018510 -0.022303 0.007101 0.011595 0.016819 0.004173 -0.013522 -0.007900 -0.027501 0.093664 -0.220791 -0.003700 0.124142 0.009240 -0.012278 0.040422 -0.009864 -0.018220 -0.034236 0.003617 0.007634 -0.009286 -0.013405 -0.013997 0.028474 0.021986 0.009576 0.022830 0.333413 0.024153 -0.020306 0.087157 0.015725 0.031474 -0.011654 -0.005393 0.130861 0.045849 0.023580 -0.014659 0.001448 -0.001151 0.011358 0.004095 0.069941 0.025570 -0.001819 0.017348 -0.000599 -0.004731 0.007290 0.014634 0.000641 -0.000103 0.019820 0.011324 -0.005162 0.009624 -0.051355 -0.003719 -0.030020 -0.004530 -0.001961 -0.004826
