hanoi -0.079081 -0.013355 0.024519 0.150134 0.029260 -0.079775 0.024733 0.073780 0.100940 -0.046368 -0.042517 0.079420 -0.026704 0.040428 0.111363 0.058998 -0.074113 -0.011522 0.090323 -0.043685 -0.049249 0.101142 -0.046679 0.015599 -0.003182 0.008313 0.004305 0.011409 0.014816 -0.136907 -0.023584 0.090250 0.012636 -0.057153 -0.122268 0.024947 0.037775 0.089816 0.080929 0.025954 -0.052144 0.030382 -0.007109 -0.163451 -0.117141 0.062591 -0.061939 -0.040413 -0.033844 0.023268 0.104880 0.024011 -0.112726 -0.005819 0.026322 0.011911 -0.012793 0.018742 0.067060 0.057294 0.079090 -0.062492 0.056550 -0.105135 -0.040030 0.132676 0.013734 0.015251 -0.144186 0.073352 0.056301 0.005288 0.075780 -0.059488 -0.061612 0.096328 -0.011798 -0.048169 -0.003279 -0.040980 -0.024852 -0.015166 -0.018785 0.067321 0.047271 -0.051286 0.072485 -0.057969 -0.060554 -0.127089 0.027753 -0.067751 0.130222 -0.179430 -0.012042 -0.094527 0.025475 0.137503 0.048282 0.046791 -0.001700 -0.064065 -0.106176 -0.149173 -0.019540 -0.028619 0.013462 0.013898 -0.138487 -0.026391 0.056412 -0.034989 0.017579 -0.070619 -0.164974 -0.077001 -0.080071 -0.033204 -0.060622 0.118198 -0.018816 0.102587 -0.004649 0.006019 -0.050318 -0.063600 -0.042325 0.057696 -0.087685 -0.007759 -0.012456 -0.026155 0.015427 -0.024498 0.103323 0.096718 -0.049145 -0.036973 -0.091330 -0.040176 0.026984 0.014487 0.041171 -0.095471 -0.006124 0.028475 -0.025652 -0.074196 0.083359 0.087718 0.007906 0.034593 0.051103 -0.040943 -0.012041 0.085290 -0.098335 -0.021170 -0.080843 -0.040432 -0.000171 0.087486 0.059367 -0.006730 0.051570 0.040114 0.050081 0.075802 -0.060148 0.152684 0.109102 0.075079 0.003909 0.167491 -0.023873 0.076127 0.090471 -0.018351 -0.019077 0.118026 0.059205 0.003829 0.044264 -0.013933 -0.007132 0.063945 -0.027138 0.048840 0.007797 -0.060758
tougher 0.066244 -0.009910 0.153368 0.043918 -0.005034 0.074196 0.022683 0.005139 0.088712 -0.017294 0.024094 0.012809 -0.073913 -0.004758 0.045489 -0.023127 -0.061415 0.073697 0.076842 -0.003005 -0.148914 -0.001121 -0.020773 -0.090975 -0.040924 -0.018677 0.097553 -0.030467 -0.090593 0.123302 -0.008596 0.048851 -0.006885 -0.032400 -0.003454 0.131704 -0.084992 0.130661 -0.051436 0.015243 -0.036477 -0.081675 -0.028523 -0.069200 0.084693 -0.003201 -0.107029 -0.068365 0.019487 0.027267 0.064482 -0.040331 -0.024400 0.060040 0.020357 -0.089801 -0.103458 0.066067 -0.033547 0.090324 -0.031650 0.006183 -0.035576 -0.013103 0.068260 0.097497 -0.017944 -0.082780 0.077101 0.095178 -0.062298 0.101132 0.127683 0.026458 0.051622 0.096924 -0.007124 -0.046107 0.072376 0.055280 0.059705 0.004019 -0.022338 0.155183 0.087375 -0.053425 0.076020 0.060689 0.026434 -0.054812 0.104959 -0.002142 -0.054927 0.080514 -0.081709 0.032366 0.059105 0.039994 -0.021160 -0.005203 0.030440 0.027702 -0.098221 -0.136362 0.083534 -0.117430 0.012829 -0.006848 -0.023843 -0.158778 0.005356 0.038735 -0.050972 0.089789 -0.052394 -0.035169 -0.075590 0.096476 0.031497 0.005701 -0.045662 0.021072 -0.038241 0.004561 -0.042133 0.042976 0.039160 0.087055 -0.007652 0.003307 0.000055 0.027152 -0.088887 0.051108 -0.014470 0.040848 0.121535 -0.057833 -0.025536 0.052136 -0.001348 -0.099873 -0.120253 -0.079906 -0.053107 -0.113501 0.003297 -0.036008 0.188674 0.060342 0.035950 -0.036354 0.003058 -0.015495 0.088650 -0.038579 0.005639 0.044003 -0.067531 0.077683 0.002377 -0.057932 -0.024984 0.036559 -0.006480 -0.076180 -0.069925 0.026778 -0.036038 -0.057603 -0.064260 0.094118 0.032622 0.006162 -0.010241 0.071967 -0.106191 0.041437 -0.038852 -0.014989 0.180808 0.022558 -0.062486 -0.002141 -0.039053 -0.098553 0.011615 -0.145502 0.062970 0.109203
occasionally -0.045737 0.010259 0.025189 -0.087715 0.090180 0.049825 -0.083432 -0.031215 0.083754 -0.071479 0.022172 -0.063720 0.001326 0.003925 -0.069519 0.038823 -0.049069 -0.081644 0.016269 0.011467 0.007474 -0.001204 0.011452 0.009556 -0.012181 0.050589 0.045157 -0.059433 -0.049870 -0.098279 -0.019342 0.087349 0.009214 -0.106148 -0.025859 0.013067 0.065965 0.030554 0.015193 -0.082507 -0.022086 0.084651 -0.071235 -0.011707 0.007655 -0.008576 0.020152 -0.147430 -0.005342 0.032551 -0.032414 -0.052034 0.084809 0.019898 0.021880 0.039566 0.039406 0.035626 -0.055456 0.027796 0.037848 0.043628 0.062847 -0.086618 -0.045911 -0.032368 -0.052380 -0.069000 0.093229 -0.028832 -0.068854 -0.015244 -0.047821 0.037191 0.084403 -0.008090 -0.088508 -0.153187 0.080887 0.012126 -0.114977 0.055145 -0.031347 0.032500 0.026602 -0.022936 0.029555 0.028243 -0.042408 -0.015326 0.038025 -0.093353 -0.004110 0.037634 0.254628 -0.103319 0.014754 0.129388 -0.025690 -0.097177 0.035410 -0.019933 0.101991 -0.063889 -0.076664 0.079810 -0.091448 -0.004333 -0.052588 0.063369 0.099896 -0.091030 0.124030 -0.014811 -0.039465 -0.038731 -0.009021 0.032786 0.080890 0.094538 0.090915 0.189942 -0.018722 0.015474 -0.015480 -0.035465 -0.109967 0.035541 0.052781 0.043133 0.108062 0.025874 -0.058215 0.063559 0.003495 0.113317 0.006908 -0.060845 -0.032421 0.055014 0.086996 0.010554 -0.004593 0.041832 -0.022272 -0.037277 0.013919 0.119929 -0.112894 0.090172 0.065426 -0.116936 0.058650 0.113506 0.054567 -0.002343 -0.079766 -0.004600 -0.112587 -0.088496 -0.025992 0.028133 -0.100150 -0.014171 -0.210184 -0.042971 -0.115228 -0.041323 -0.048125 0.046804 0.067324 -0.045835 0.153425 0.061467 -0.117655 0.077019 0.058871 -0.045576 -0.115461 -0.117253 0.044504 0.038336 0.022226 0.039647 -0.067800 -0.041653 0.016623 0.038098 -0.017488 0.010946
ukrainian -0.025276 0.099429 -0.113079 -0.098997 -0.001519 -0.078600 -0.005328 -0.020103 -0.032501 0.052529 -0.078994 0.005169 0.078923 -0.009462 0.004133 0.103518 0.030792 -0.019304 0.058419 0.104115 0.035928 -0.034165 0.033462 0.009149 0.047690 0.025955 -0.007738 -0.129745 0.044912 -0.019614 0.016233 0.038357 0.075351 -0.051421 0.108962 -0.017636 -0.003403 -0.037122 -0.034323 0.005230 0.011267 -0.005793 -0.079367 0.039730 0.059989 -0.129419 -0.009889 -0.030120 -0.002054 0.030915 0.147116 0.023652 -0.058583 -0.068439 0.119041 -0.058971 0.013929 0.020694 0.015657 0.017588 0.006138 -0.060648 -0.136273 0.020497 0.036809 0.015065 -0.134359 0.180969 0.037402 0.070847 0.192382 -0.006144 -0.035523 0.093185 0.050794 0.023853 0.037475 0.029484 -0.120207 -0.104027 -0.032440 -0.053311 -0.014856 0.014834 -0.018076 -0.028840 -0.000927 0.016801 0.148823 -0.006656 0.006505 -0.046420 -0.075357 0.014699 0.009858 -0.096708 0.061010 0.093302 0.051632 0.137525 0.088345 0.127320 0.027119 0.027654 -0.027026 -0.101037 -0.084906 0.041993 0.087156 0.002334 -0.004026 -0.078814 0.118124 -0.049278 -0.035907 -0.054477 -0.021177 -0.086322 -0.084121 0.114420 -0.017711 -0.095635 -0.043854 -0.107559 -0.018345 -0.092809 0.016036 -0.171378 0.023421 -0.045391 0.071494 0.007763 0.037885 -0.008894 -0.063683 0.012125 0.024819 -0.024607 -0.155778 -0.072138 0.053782 0.069819 0.073328 0.119185 -0.098679 0.003344 0.018308 -0.025833 -0.043042 0.013822 0.041679 0.029760 0.123626 -0.047215 0.022468 -0.040596 0.015010 -0.087791 -0.065159 -0.088840 0.128977 -0.039314 0.011778 -0.028528 0.135231 0.100721 -0.060240 0.080508 -0.055735 -0.019856 -0.051392 -0.018088 -0.055593 -0.076257 0.026969 -0.020567 0.006690 0.025366 -0.034354 -0.070195 -0.127044 -0.070238 -0.065233 0.046342 -0.035159 -0.002278 0.100831 -0.023241 0.046841 0.007393
occasional 0.046740 0.138354 -0.075769 -0.151837 0.015096 0.076279 0.024207 -0.091293 0.011302 0.064874 0.020229 0.013785 0.021019 0.049372 -0.002567 -0.079437 -0.127888 -0.002593 0.004088 0.048511 0.051351 -0.046134 0.011536 0.034497 -0.074954 -0.012934 0.047853 0.001056 -0.001631 -0.128380 0.121681 0.043463 -0.095938 -0.032093 0.082885 0.040762 0.020400 -0.049534 0.062900 -0.077415 0.054634 0.016901 -0.089936 -0.039117 0.007644 0.009565 -0.001669 -0.180240 0.066920 0.138389 -0.011817 0.017597 -0.018108 -0.023341 -0.020053 0.014038 -0.004431 -0.001711 -0.012919 0.006309 0.063396 -0.061815 0.071258 0.062683 -0.104601 0.010197 -0.021458 -0.019458 0.035225 -0.029345 -0.045068 0.024112 -0.066206 0.009281 0.087869 -0.051640 -0.011598 0.013793 -0.038863 0.061197 -0.044166 -0.053446 0.018616 0.041775 0.102960 -0.121559 0.025533 0.012443 -0.027489 -0.029760 0.047746 -0.055525 0.014022 0.067722 0.147854 -0.052594 -0.019279 0.151700 0.012487 -0.080212 0.012677 0.124043 0.029055 -0.051041 0.060873 0.065758 -0.087075 0.040371 0.026819 0.038597 0.049166 -0.099034 0.125914 0.047504 -0.032592 -0.014958 -0.001365 -0.017860 0.137209 0.136546 -0.008831 0.053729 0.050156 0.033259 0.034015 -0.072158 0.072869 0.084001 0.087904 0.036397 0.090734 0.025575 0.073082 0.081032 0.045713 0.078150 -0.012412 -0.031488 -0.121590 0.084031 -0.005141 -0.053372 0.039797 0.020644 -0.051565 -0.104457 0.029305 0.134445 -0.060769 0.030841 0.021182 -0.082282 0.051701 0.051059 0.111582 -0.116496 -0.073770 0.057414 -0.075318 0.024625 -0.023522 -0.070478 -0.067321 -0.017904 -0.102951 -0.057211 0.007515 -0.019457 0.020488 -0.003646 -0.039810 -0.107229 0.145715 0.020874 -0.155820 0.056931 -0.038328 -0.108424 -0.039679 -0.136803 0.021234 0.056952 -0.012542 0.110121 0.036271 -0.068081 0.002575 0.101111 0.017503 -0.010402
norway -0.000126 0.056204 0.002945 -0.072681 -0.052124 0.005376 0.140649 0.046643 -0.031988 -0.053924 -0.085006 -0.074776 0.044387 -0.090465 0.030629 0.091829 0.037109 0.075070 0.045217 -0.060545 0.025341 -0.068037 -0.031365 -0.055305 -0.028160 0.013729 -0.037952 0.026058 -0.049601 -0.040181 0.145679 -0.007174 0.052153 0.009515 0.051319 0.012965 0.026234 -0.035160 -0.040460 -0.108996 0.110331 -0.017838 0.025537 -0.004497 0.183891 -0.002374 -0.204827 -0.000668 0.098685 0.083489 0.042546 -0.011130 -0.011556 -0.037099 -0.077380 0.012250 -0.063967 -0.004155 0.075753 0.070860 -0.030431 -0.006453 0.010104 0.011530 -0.041725 -0.039057 0.012655 0.120593 -0.079164 0.058959 -0.007351 -0.014048 -0.040406 0.021754 0.022523 0.044221 -0.099674 -0.041898 0.016896 -0.048463 0.078057 -0.070452 0.046918 -0.005066 0.086395 -0.029690 0.017552 -0.039782 -0.061472 -0.047282 0.161398 0.062941 0.036034 0.076467 -0.049555 -0.004771 -0.023226 -0.007550 0.059359 -0.012853 -0.022891 0.048925 -0.018810 0.075141 -0.001732 -0.103465 -0.017364 -0.200893 0.007536 -0.092360 -0.076104 -0.079830 0.033614 -0.033164 0.061264 0.032587 -0.076624 0.056680 0.094081 0.122833 -0.043160 0.040721 0.121458 -0.077828 0.085822 -0.100614 0.063775 -0.000017 0.015081 0.032967 -0.056323 -0.014473 0.119509 -0.059484 -0.022659 -0.023260 -0.105227 -0.040006 -0.046632 0.045787 -0.048883 0.094956 0.057422 -0.088584 0.050464 0.077283 -0.006029 0.038154 0.009071 0.022474 0.016918 -0.041675 0.023016 0.081645 0.105389 -0.141745 0.024181 0.067091 -0.020478 -0.059521 -0.109977 0.014849 0.057197 -0.084095 0.094310 -0.078547 -0.008784 -0.029876 -0.026232 -0.114217 0.061651 -0.135489 0.038063 -0.005316 0.050501 0.009806 -0.013372 0.011181 -0.007133 0.004008 -0.072391 -0.014505 0.019509 0.107020 0.008756 0.026672 0.082363 -0.021944 0.049483 -0.035463
baghdad -0.121150 -0.019924 0.044918 0.151192 0.010058 0.025354 0.108100 -0.078570 -0.021119 0.012211 -0.090033 -0.010463 -0.087864 0.053931 -0.100202 0.058202 0.046078 0.013065 -0.065873 -0.017867 -0.101955 0.002046 0.041202 0.004757 0.050269 0.030110 0.066929 -0.002533 -0.027390 -0.014250 0.081023 0.026527 0.019553 -0.059943 -0.011081 -0.089247 0.052814 0.014953 -0.108515 0.105896 -0.031624 -0.017127 0.145611 -0.045018 0.001735 -0.029017 -0.051198 0.082080 0.007229 0.022527 0.046923 -0.129028 -0.067053 0.064337 -0.021900 0.050655 -0.020049 -0.005852 0.094474 0.057432 0.052260 -0.080074 0.069234 -0.106382 -0.004259 0.048469 0.068712 -0.074384 -0.026625 -0.034379 -0.048106 0.047984 0.016543 0.105298 -0.034106 -0.143600 -0.160341 0.089351 -0.177330 0.010391 0.115059 -0.010469 0.044213 0.034895 0.081818 -0.015804 -0.133181 0.115340 -0.028652 -0.023341 -0.114811 0.116942 -0.043986 0.115205 0.023639 0.042091 -0.042073 -0.005149 0.001703 0.056908 0.056695 0.030319 -0.006023 0.071321 0.011288 -0.080916 -0.017216 -0.055769 -0.038551 0.038627 0.026928 0.137239 -0.070500 0.157979 -0.060509 -0.059425 -0.121769 0.105536 0.077571 0.019895 0.112311 0.080225 -0.129876 0.040616 -0.009262 -0.058882 -0.067816 0.018868 0.049436 -0.046662 0.020679 0.068078 -0.039118 0.094549 -0.017296 0.124262 0.030306 -0.003448 0.038736 0.030508 0.053337 -0.023542 0.018513 -0.012842 -0.128289 -0.042949 -0.071499 0.003515 0.129680 -0.045503 0.001178 -0.058520 0.085824 0.031857 -0.040019 -0.080228 0.003562 -0.096660 -0.034425 0.040826 0.029083 0.040060 0.082102 0.034479 -0.032610 -0.049011 -0.015567 0.104673 0.081346 -0.024651 -0.033034 0.015671 -0.002908 -0.080475 -0.065980 0.016072 -0.176265 -0.068298 -0.071115 -0.049243 0.080916 -0.025572 0.064675 -0.033417 0.034761 -0.001356 0.057547 0.028228 -0.061238 -0.009467
illinois 0.068487 -0.038116 0.045229 -0.055332 0.041657 -0.098572 -0.050127 -0.119506 0.085044 -0.023388 -0.022128 0.030472 -0.055635 0.062380 -0.092298 0.111683 -0.016014 -0.036386 -0.117994 0.224795 -0.084248 -0.056320 0.130116 -0.010587 0.153908 0.015016 0.039377 0.047957 -0.129174 -0.072500 -0.068342 0.071674 -0.069662 0.030470 -0.129352 0.054535 0.059287 0.110571 0.051180 -0.075906 0.005488 0.047559 -0.007174 -0.022097 -0.008927 -0.114297 0.059836 0.028446 -0.063690 -0.023706 0.007207 -0.009008 -0.029840 0.087061 -0.033880 -0.048879 0.087853 -0.059035 -0.039391 0.072602 -0.087610 0.024848 0.059570 0.002469 -0.086157 -0.110785 0.010266 -0.009316 -0.002244 -0.048341 0.018904 -0.030498 0.049560 -0.075003 0.041983 -0.106769 0.025504 -0.082589 0.001011 -0.004609 0.064546 0.044564 0.070251 -0.114801 0.046731 0.097491 0.079467 -0.034235 -0.060654 -0.011147 -0.003447 0.032557 0.021398 0.065388 -0.024605 -0.047452 0.070761 0.151691 0.084792 0.042446 0.046251 -0.058958 0.012704 -0.041324 0.008790 -0.064720 -0.024229 0.080072 -0.061773 0.010337 -0.030052 0.136800 0.039731 0.055594 0.063198 -0.070395 -0.000720 0.077425 0.109640 0.062628 0.033925 -0.030994 -0.040924 0.117993 0.020250 0.048141 -0.082874 -0.006757 -0.015005 -0.054028 -0.005099 0.046859 0.029017 -0.008654 0.026374 0.075753 0.043938 -0.050600 0.075345 -0.029755 0.070590 -0.131862 -0.065931 0.027949 0.028512 -0.017939 0.047077 -0.006095 -0.036987 0.117737 0.042118 -0.060029 -0.001031 0.032431 -0.004476 -0.044637 0.084047 -0.053135 -0.052607 0.003910 0.052089 0.027248 -0.087982 -0.043318 -0.065816 0.081824 0.038827 0.036921 0.060949 -0.030988 0.039570 0.108616 0.047127 0.035289 -0.002616 0.161978 -0.132965 0.025915 0.006961 -0.002100 -0.003836 0.076500 0.075423 0.022432 -0.180731 0.020194 0.013105 0.064344 -0.058572 -0.118859
moving 0.052836 -0.138844 -0.071630 -0.143767 -0.008381 -0.026804 -0.027866 -0.156268 -0.011345 0.048347 0.127951 0.107057 -0.050674 0.015543 0.049126 0.079113 -0.104840 0.020378 0.127474 -0.024689 -0.025587 0.051769 -0.080492 -0.131762 0.058535 0.058215 -0.079937 0.014825 -0.122730 -0.084057 0.098640 0.104362 -0.030462 -0.063978 0.147208 -0.047878 -0.109211 0.015056 0.057310 0.053177 -0.023380 0.034160 0.041631 0.009132 -0.080232 -0.041174 0.035364 0.026452 0.001717 -0.011503 0.072127 -0.026852 0.156312 -0.101458 -0.070134 -0.035720 -0.004747 -0.003312 0.059778 -0.015966 -0.104264 0.064967 -0.058050 -0.066346 0.086797 0.100848 0.001909 -0.049843 -0.012350 -0.004580 0.149335 0.052077 0.022276 0.018156 0.146016 0.137255 -0.025550 0.054672 -0.058447 -0.043219 -0.089508 0.091175 0.105269 -0.091412 0.012523 -0.030490 0.045717 -0.002646 -0.030673 -0.078969 0.061853 0.029320 -0.027192 -0.102671 -0.065031 -0.015506 -0.015565 0.033118 -0.026173 0.079755 -0.004433 0.091471 0.059117 0.035522 0.090372 0.027012 -0.053857 0.054665 0.026851 -0.069784 -0.096458 0.063366 0.005467 -0.064128 -0.112377 -0.018363 -0.003044 -0.108126 -0.069099 -0.071400 0.032283 0.027544 0.021164 -0.094814 -0.040227 -0.140877 0.011626 -0.021505 0.105009 0.076427 0.027249 -0.028109 -0.002896 0.130113 -0.033374 -0.054475 -0.083384 -0.024271 0.022161 0.076901 0.061998 -0.003044 -0.014909 0.109325 -0.102915 -0.046201 -0.023981 0.004524 -0.032806 -0.029054 0.031598 0.113772 -0.015268 0.066778 -0.090927 0.093575 0.011112 -0.051745 0.048458 -0.007157 0.022280 0.127568 0.031144 0.262535 0.104499 -0.054494 0.031168 -0.005290 0.003093 0.060009 -0.138715 -0.040556 0.000794 -0.102527 -0.055577 -0.033280 -0.128283 -0.132203 0.005936 0.012049 0.067981 0.145858 0.086258 -0.065968 0.062653 -0.005923 -0.029935 -0.017632 0.065075 0.034352
loud -0.009948 -0.054919 0.008888 -0.018466 -0.093372 0.043574 0.066365 0.041533 -0.008752 0.088749 0.005684 0.101912 -0.059081 -0.027235 0.011686 -0.009637 0.008831 0.116383 -0.147379 0.046729 -0.027345 -0.013802 0.017441 0.052303 -0.108488 -0.006748 0.051004 0.155283 0.039180 -0.060049 0.025740 0.016398 0.046681 0.020787 -0.139933 0.042365 -0.005928 0.099788 -0.093209 0.098728 -0.061379 -0.013491 0.087429 -0.116406 0.024742 -0.025294 -0.021908 0.055501 -0.037817 0.037324 -0.023646 0.025970 -0.013714 -0.058781 -0.052010 -0.005074 -0.065248 0.014319 -0.069762 0.012319 0.038845 -0.083503 0.011025 0.016467 -0.080210 0.064699 0.013557 -0.016274 -0.063640 0.028384 -0.020796 0.086286 -0.023465 -0.060077 -0.111439 -0.042443 -0.167444 0.056133 0.013882 0.059431 -0.020213 -0.037760 0.081120 0.033402 -0.014120 0.047861 -0.075313 -0.006971 0.014967 -0.043352 -0.023798 0.014770 0.132859 0.006996 0.075159 0.059836 -0.003952 0.059466 0.046889 0.020313 -0.088363 0.099524 -0.073594 0.032378 -0.035015 0.020303 0.051776 0.038330 -0.087849 0.021680 0.036446 0.091789 -0.013360 -0.047671 -0.073443 0.014518 -0.105275 -0.037161 -0.022580 0.081246 0.073283 0.075646 0.094679 0.034785 -0.006498 -0.124382 0.033970 0.068250 0.059962 0.049116 0.083036 -0.092138 0.001976 0.026626 -0.013742 0.044788 -0.019871 0.036159 -0.016816 0.018325 0.059204 -0.014647 -0.066639 -0.037370 -0.074571 -0.170997 -0.189466 -0.006222 0.018893 0.008383 -0.075007 -0.031903 0.103284 -0.012779 -0.113817 -0.032598 -0.133455 0.038436 -0.033987 -0.021422 0.239215 -0.038123 -0.025098 0.095185 -0.011022 0.063162 0.019443 0.121765 -0.027518 0.077279 0.099212 0.063488 0.054774 0.040561 -0.063553 0.017882 -0.114907 0.017637 -0.060952 0.091162 -0.076402 -0.034451 0.064954 -0.041755 -0.027096 -0.055650 0.097331 -0.055036 -0.083355 0.040176
thai -0.044056 -0.050287 0.043390 -0.119822 0.122220 0.081553 -0.009423 -0.116620 -0.005359 0.000968 -0.000941 0.027085 -0.010020 0.039657 -0.019465 0.070003 -0.071057 0.065654 -0.012866 0.023131 0.028341 0.017109 -0.045710 -0.072358 -0.046945 0.016715 -0.100636 0.075033 -0.058156 0.015933 0.057624 0.060905 -0.091354 -0.082293 0.075916 -0.108932 -0.031813 0.110280 0.030498 -0.004099 0.070602 -0.021012 0.028331 -0.056597 -0.031423 -0.063049 0.013418 -0.067487 0.008774 -0.042410 -0.022522 0.105670 0.140893 -0.015684 0.115656 0.083340 0.034939 0.012084 -0.188644 0.133520 0.009599 0.099137 0.064439 -0.061880 -0.053551 0.023207 0.081411 0.027426 -0.103876 -0.034393 -0.000490 -0.015015 0.002719 0.026068 0.009985 -0.038462 0.064200 0.047472 -0.018359 -0.107482 -0.058180 0.070900 -0.008683 0.043182 -0.029230 0.013621 0.114779 -0.033551 -0.006903 -0.090110 -0.006215 -0.114136 0.006690 -0.038656 0.053410 -0.062604 0.016253 0.057774 0.081010 -0.020840 0.031706 0.008395 0.098703 0.076613 0.006530 0.009518 0.039473 -0.086782 0.127518 -0.143019 -0.023266 -0.065593 -0.010960 -0.022871 -0.011136 0.007630 -0.087410 0.156323 0.131251 -0.000680 -0.053353 -0.032834 0.017184 0.102990 0.031656 0.036693 -0.076702 0.003597 0.011577 0.020099 0.184002 0.041350 -0.005044 0.133166 0.016347 0.082474 0.049186 -0.016523 0.015324 -0.005056 -0.099371 0.055335 -0.057087 0.039951 0.042885 -0.032656 0.046236 -0.033821 -0.104519 -0.009267 0.072586 -0.046366 0.017182 0.095796 -0.078730 0.029690 -0.053112 0.024890 0.002714 0.175582 -0.040950 -0.024043 -0.039608 0.007517 -0.017155 0.073775 0.013841 -0.008324 -0.035123 -0.017255 -0.038405 0.097888 0.044250 0.043384 -0.023790 0.022304 -0.043715 -0.079792 0.037958 0.086408 -0.032692 -0.005471 0.046224 0.015632 -0.065632 0.013948 0.005359 -0.043514 -0.073013 0.021896
croatian -0.098257 -0.109020 0.106723 0.078586 0.056842 0.050852 -0.089402 -0.037588 -0.006545 -0.088843 -0.046735 0.074208 -0.008125 0.002709 0.059144 -0.029848 -0.091979 0.012917 -0.073940 0.181255 -0.034794 0.018531 -0.069324 -0.053968 0.027767 -0.032592 0.094732 0.124645 -0.064647 0.027317 0.033776 -0.013020 -0.135058 0.055880 0.038199 -0.049773 0.040442 0.035698 -0.062926 0.095288 0.074476 0.023299 0.039470 0.136786 0.011175 0.046003 -0.051980 -0.015251 -0.096114 -0.066025 -0.028034 -0.066235 -0.152607 0.010762 0.102664 -0.018059 0.068159 0.017045 0.084323 0.014598 -0.021942 -0.007381 0.000816 -0.041638 -0.105331 -0.112227 0.045163 -0.147829 -0.003261 0.076659 0.039957 -0.010768 -0.096474 -0.018087 0.129885 0.071310 -0.003284 -0.015730 0.048541 -0.183469 0.058158 0.047120 0.051968 -0.050432 0.052511 -0.069726 -0.023623 0.021649 -0.003783 -0.035319 0.136948 -0.084770 -0.079274 -0.035273 0.009892 -0.025716 -0.075765 -0.019860 0.064179 0.041073 0.005713 0.097784 -0.079626 0.004236 0.115900 -0.005722 -0.030605 0.037310 0.068148 -0.065787 -0.032099 0.011317 -0.049604 -0.067672 -0.066128 -0.018222 0.046965 0.023906 0.047636 0.025069 -0.068277 0.031152 0.078826 0.023698 -0.046912 -0.101509 -0.002119 -0.069374 -0.005981 0.079670 0.063239 0.007718 0.132119 0.097415 0.147209 -0.049814 0.032612 -0.060093 -0.026673 0.118219 0.016075 -0.082726 0.041581 -0.039855 -0.016463 0.096059 0.017021 -0.014045 -0.108899 0.075933 0.047292 0.165051 0.060118 -0.019694 0.005092 0.031423 0.108826 0.110373 0.051299 -0.048552 0.014735 -0.039073 0.012804 -0.045980 0.046538 0.215439 0.092054 -0.052606 0.097474 0.026814 0.003714 -0.088917 0.054859 -0.023494 -0.013205 0.018375 -0.018442 -0.029642 -0.088070 0.119532 0.096587 -0.020500 0.109406 0.095956 -0.074731 -0.027467 0.034454 -0.070100 -0.068098 0.116265
argentina -0.023740 -0.087103 0.031517 0.071860 -0.004048 -0.010267 0.049844 -0.006311 -0.014293 -0.026490 0.050939 0.025164 -0.039397 -0.023285 -0.081087 -0.006340 0.039264 -0.031922 0.019298 0.099426 -0.114604 0.096133 -0.061198 0.004426 -0.047124 0.002820 0.015821 0.139697 0.018233 -0.030909 0.051449 0.011752 0.006560 -0.049372 0.036086 -0.070491 -0.083459 0.055664 0.011400 0.054774 0.033401 0.027833 0.048083 -0.071511 -0.037178 0.064444 0.012534 -0.052857 -0.035642 -0.115774 -0.037062 -0.000458 -0.076072 -0.099263 0.176393 0.006974 0.018498 0.052424 0.127669 -0.023182 -0.079964 0.060625 -0.021451 -0.076339 0.006119 0.067887 0.084570 -0.048997 0.057974 0.009067 -0.083281 0.039858 0.002683 -0.021206 -0.067946 -0.018992 0.101022 0.036317 -0.128369 -0.049257 0.017422 -0.033596 -0.004357 -0.157450 -0.078775 0.096228 0.104136 -0.059048 0.080895 -0.005869 0.054118 0.048919 0.028118 -0.033457 -0.074253 -0.045835 -0.055653 0.024025 -0.052776 -0.014354 -0.020304 0.072611 -0.000488 0.066259 0.030789 -0.134649 0.087984 0.000194 0.131584 -0.156743 -0.106607 -0.103511 -0.032319 0.050287 -0.125247 -0.026159 0.059764 0.039832 0.149272 0.007862 0.077533 -0.069794 0.019128 0.065931 0.088763 0.012668 0.008450 0.095207 0.006993 0.038211 -0.088824 0.041262 0.016120 0.078755 -0.063139 -0.030471 -0.012501 -0.085839 0.100540 0.135699 -0.051343 -0.075878 0.100744 -0.090041 0.030684 0.008686 -0.060509 0.080712 -0.034857 0.043003 -0.059454 -0.032580 0.061932 0.043143 0.016562 0.034373 0.042987 -0.009080 0.057586 -0.110990 0.017012 0.088216 -0.014862 -0.016199 -0.014488 -0.050414 -0.133366 0.043797 -0.210284 0.026179 -0.005331 -0.046949 0.030368 -0.019633 -0.052359 0.011217 0.082462 -0.032563 -0.009256 -0.095769 -0.032544 0.051289 -0.105887 0.061931 0.066869 -0.078187 0.072777 -0.110210 0.011647 -0.051361
vietnam -0.102903 -0.107611 0.126644 0.107486 0.041863 -0.086129 0.081937 -0.056888 0.042179 0.047439 0.073502 0.069674 0.002011 -0.020212 0.085838 0.007458 0.020541 0.044054 0.102284 -0.119626 0.060590 -0.004928 0.164132 0.030318 -0.091472 0.063786 -0.037064 0.034400 -0.003046 -0.033667 0.063887 0.075441 0.144983 -0.058579 -0.057906 0.040210 0.031127 0.009816 0.090137 0.035459 -0.035633 0.122522 0.024471 -0.104139 -0.084707 0.053526 -0.024494 0.017398 -0.089372 -0.012358 0.017152 -0.007999 -0.125154 0.031900 -0.014941 -0.017820 -0.049763 0.019576 0.005875 0.057912 0.100213 0.057432 -0.033336 -0.049378 0.032404 0.160029 -0.014481 -0.032626 0.028729 0.162777 0.029144 0.106735 0.083441 -0.059373 -0.009289 0.058895 -0.038221 -0.154406 -0.018155 -0.052033 -0.149647 -0.020387 -0.048246 -0.050826 0.031004 0.056642 0.063177 -0.037301 -0.031187 -0.121768 -0.052147 0.016855 0.071777 -0.119600 0.032758 -0.185126 -0.016696 0.128415 0.022592 0.039189 -0.073338 0.004775 -0.085163 -0.117572 -0.014728 -0.021884 0.023871 -0.008375 -0.131829 0.105912 0.028484 0.014894 0.054597 0.001459 0.021242 0.010041 -0.077163 0.003089 0.029209 0.231850 -0.066244 0.132051 -0.028236 0.004680 -0.025562 -0.046491 -0.103036 0.090404 -0.184019 0.017181 -0.065485 -0.130101 -0.026212 -0.111152 0.059778 -0.038763 -0.081167 -0.038772 -0.033531 -0.060495 -0.001625 -0.078089 -0.014356 0.010043 -0.076229 -0.068809 -0.014040 -0.121748 0.038937 0.095095 -0.030375 0.051292 0.022955 0.107589 0.022071 0.036682 0.010691 -0.053065 0.006741 -0.086717 0.076126 0.140526 0.044100 0.007008 0.031417 -0.029708 0.039723 0.031307 0.002102 0.026708 0.014367 0.016840 0.002271 0.133632 -0.046150 -0.006064 0.068118 -0.016977 -0.076346 0.064870 0.041381 0.063722 0.135783 -0.018030 -0.037991 0.100514 0.003517 0.143741 0.012171 -0.112612
norwegian -0.034327 0.048912 0.020062 -0.043018 -0.079176 0.069910 0.114461 -0.050980 -0.095446 0.040262 -0.062064 -0.073581 0.033698 -0.185479 0.127115 0.146750 0.008746 0.090876 0.118789 -0.088297 0.006766 -0.191445 -0.027883 -0.018274 0.058954 0.062257 -0.058860 -0.056505 -0.095005 0.000295 0.112031 -0.006846 0.061620 -0.038137 0.118750 0.040902 0.048736 -0.016637 -0.033887 -0.115782 0.119880 -0.012767 0.026100 -0.035132 0.166277 -0.060814 -0.069621 -0.029752 0.039639 0.076275 0.090798 0.019939 0.062720 0.011398 -0.072063 0.049360 -0.001853 -0.029212 0.073166 0.091291 -0.006757 -0.077311 -0.003890 -0.037267 -0.065557 0.057817 -0.070353 0.072162 -0.012733 -0.028143 0.122565 0.138402 0.080691 0.071716 0.103889 0.064797 -0.060966 -0.101898 0.012385 0.060389 -0.071201 -0.030294 0.025832 0.070739 -0.068158 -0.069912 0.135773 0.022489 -0.112540 -0.062849 0.152512 0.034264 -0.002477 0.030889 -0.124968 -0.032946 -0.023950 0.065247 0.077043 -0.014347 -0.035350 -0.041063 -0.042061 -0.012878 0.037270 -0.094676 0.013112 -0.127296 -0.073239 -0.093173 -0.081039 -0.091858 -0.020397 -0.042415 0.018431 0.034667 -0.110245 0.076966 0.033505 0.041340 -0.068241 -0.003860 0.100190 -0.094932 0.034523 -0.160785 0.143458 -0.038048 0.034440 -0.016059 0.023531 0.035686 0.148094 -0.117671 0.076618 0.037359 -0.019602 0.007045 -0.019646 -0.005779 -0.041229 0.129977 0.047085 -0.108462 0.068256 0.020566 0.054619 0.077389 0.057273 0.064495 0.038681 0.015555 -0.067332 0.082353 0.052568 -0.056153 0.006130 0.035506 -0.028030 -0.018105 -0.164534 -0.059267 0.073465 -0.056660 0.135831 -0.043823 -0.036979 -0.020653 -0.035497 -0.038107 0.096637 -0.041720 0.042796 0.025429 0.082838 -0.043854 -0.025523 -0.016585 0.010432 0.081542 0.023730 0.008032 -0.026515 0.029996 0.035277 0.027354 0.124558 0.058747 0.172003 -0.066678
professionally -0.036145 -0.045817 -0.021760 -0.070089 -0.068493 0.018199 -0.041129 0.023484 0.027920 0.085634 -0.025380 0.030092 0.025234 0.058164 -0.006456 -0.022073 -0.034858 0.022057 -0.136289 0.012934 0.023624 -0.056788 -0.017886 0.028319 -0.010529 -0.089960 0.141730 -0.048806 -0.025439 0.056481 0.061539 0.075716 -0.065114 0.118765 0.107153 0.048858 0.000015 0.032662 0.072177 -0.007507 0.207689 -0.011999 0.107516 0.079496 -0.078784 0.038543 -0.015777 -0.068448 -0.018359 0.099906 -0.007485 -0.025656 -0.016102 -0.006845 0.059262 0.025614 0.062354 0.011460 -0.055676 0.093808 -0.077854 -0.112130 0.044783 -0.008333 -0.031226 0.095602 0.011674 0.106192 -0.072055 0.075186 0.042509 0.060674 0.052085 -0.045402 0.038199 -0.100382 -0.081709 0.116603 0.025460 -0.084327 0.055936 -0.096357 -0.033578 -0.005792 -0.072305 0.003459 -0.003442 0.077662 0.029449 0.063105 -0.118673 -0.003842 0.077591 0.174429 0.039318 0.009954 0.017572 0.107725 -0.001157 0.017793 0.102910 -0.009555 0.006348 -0.117333 0.011037 -0.125128 -0.053278 -0.032787 -0.066349 -0.038492 0.036163 -0.046155 0.067895 0.003972 0.054296 0.001642 -0.067263 0.003056 0.121474 0.050301 -0.024371 0.122921 -0.035352 0.057923 -0.001546 -0.028595 0.010858 -0.054844 0.057200 0.095325 -0.100425 0.074359 0.106182 0.056235 0.066475 0.077130 -0.030077 0.079720 0.072076 0.024071 -0.016448 -0.007724 -0.076172 0.002379 0.072347 -0.046548 0.057961 0.058347 0.057454 0.020920 0.022038 -0.092825 0.113707 0.020289 0.041290 -0.083544 0.045051 -0.064884 0.001292 0.004846 0.020869 -0.130189 -0.145880 0.002668 -0.011969 -0.014396 0.061033 0.019729 -0.015684 0.070227 0.072797 0.037982 0.023139 0.010137 -0.034028 0.006787 0.004013 -0.055957 -0.040967 -0.035620 -0.010963 -0.088692 -0.044046 0.045240 0.085785 -0.069312 0.084501 0.087564 0.003759 -0.020296
argentinean 0.106743 -0.061866 -0.032897 0.106688 -0.031361 -0.084248 0.015872 -0.088853 -0.055582 -0.017754 -0.061463 0.104781 -0.073549 0.016459 -0.062640 0.006329 0.028897 -0.016458 -0.035101 0.037816 -0.059234 0.094316 -0.000815 0.005734 -0.042644 -0.000926 0.068724 0.090642 -0.111423 -0.029292 0.074572 -0.009642 0.044127 -0.052974 0.021150 -0.106314 -0.033305 0.059702 -0.003207 0.065056 -0.053358 0.014201 0.112586 -0.168113 -0.023075 -0.076254 0.045930 -0.062720 -0.064687 -0.164697 -0.012555 0.048445 -0.046881 0.002160 0.087272 -0.040224 0.007478 0.009972 0.035527 0.029726 -0.101893 0.042967 0.004418 -0.088262 -0.020804 -0.004172 0.101438 0.027530 -0.133463 0.020649 -0.140166 -0.104161 0.069151 0.039629 -0.156500 -0.018850 -0.029775 0.015189 -0.138651 -0.090883 0.082694 0.029406 -0.017662 -0.068785 -0.071684 0.063808 0.111537 0.004018 0.125266 -0.022243 -0.036715 -0.047219 0.103432 -0.098741 -0.010647 -0.092871 -0.010234 0.084328 -0.037826 0.060230 0.037770 0.029838 0.099436 0.099880 0.053058 -0.077497 -0.016550 -0.049720 0.072582 -0.205146 -0.082144 -0.004636 0.105832 0.080909 -0.133825 -0.019158 -0.015248 0.027219 0.054272 -0.079599 0.024933 -0.116738 -0.024456 -0.088872 0.011998 -0.008095 0.064029 0.006136 -0.067737 -0.021446 -0.032129 -0.031734 0.022962 0.040970 -0.144659 -0.019678 -0.074561 -0.038717 0.070701 0.027421 -0.077257 0.041129 0.029257 0.057646 -0.032039 0.042092 -0.175554 -0.041709 0.059983 0.057365 -0.137814 -0.046303 0.096234 0.064077 -0.052025 0.142232 -0.045315 -0.072651 0.025729 0.004529 0.053642 0.081123 0.013733 -0.012654 0.057455 -0.022915 -0.140182 0.137662 -0.066080 0.019504 -0.034018 -0.027848 -0.063314 0.001181 -0.043746 0.038886 -0.004503 -0.073153 -0.063754 0.014545 -0.024510 0.002391 -0.111624 0.045883 0.062256 0.075349 -0.001298 0.011804 -0.043752 0.002809
louder 0.049553 -0.009370 0.021179 -0.073857 -0.000479 0.044788 0.099187 0.125312 -0.010518 0.020765 -0.021095 0.048122 0.012241 0.084554 -0.005765 -0.036811 0.094633 -0.006869 -0.014990 0.096043 -0.078409 0.025443 0.088727 0.116575 -0.097206 0.049153 0.036554 0.019110 0.057070 0.006445 0.032828 0.026293 0.079301 -0.006558 -0.147998 0.010605 0.114840 0.069154 0.038927 0.032189 -0.101690 0.004096 0.069811 -0.127588 -0.120935 -0.071024 -0.040958 -0.019175 0.003117 0.042133 -0.005108 -0.056322 -0.182506 0.082659 0.121968 0.021844 -0.005337 -0.044272 0.000575 0.090205 0.021055 0.073019 -0.081858 0.052324 -0.087318 0.092286 -0.014875 0.035836 -0.049297 -0.060894 0.079374 0.151110 -0.005699 -0.110527 -0.019233 -0.133861 -0.044857 0.007050 -0.052119 0.078391 0.010572 -0.102989 -0.052500 -0.031591 0.022002 -0.017236 0.064975 0.078304 0.123869 -0.020733 -0.116173 -0.028904 -0.030083 0.012787 0.037860 -0.014282 -0.057680 0.126129 0.041024 0.080834 -0.020624 0.037306 -0.026027 0.042076 -0.019717 -0.031694 0.165761 0.099870 -0.039888 0.000829 0.145145 0.060620 0.087184 0.049536 -0.053304 0.069008 -0.028190 -0.044052 0.061804 0.056558 0.011046 0.053447 -0.039899 0.017013 0.037800 -0.122500 0.024629 -0.014944 -0.020156 0.014923 0.048394 -0.139296 0.002664 0.045327 -0.096262 -0.003013 -0.040297 0.035901 -0.046829 -0.055000 0.024884 0.018131 -0.058145 -0.011669 0.011662 -0.124025 -0.039643 -0.035297 -0.022895 0.012924 -0.020913 0.014808 0.111537 0.129115 -0.066791 0.046410 -0.096933 0.075822 0.074213 -0.000253 0.215029 -0.042176 0.124071 0.114746 0.002471 0.023400 -0.001436 0.120453 -0.097931 0.041029 -0.054737 0.098163 -0.033607 0.039393 -0.104634 -0.001483 -0.095609 0.114994 -0.081770 0.048942 -0.082551 -0.007802 0.046280 0.001937 -0.056597 -0.088439 0.024992 -0.017633 -0.086140 -0.084316
chicago 0.167900 0.079743 0.073066 -0.029446 0.017935 0.047153 -0.052684 -0.096023 0.101049 -0.023329 0.143298 -0.021593 0.047552 -0.027743 -0.094843 -0.000685 -0.098732 0.041036 -0.060787 0.202257 -0.088778 0.007736 0.023051 0.033997 0.103174 -0.091870 0.037661 -0.033970 -0.055467 -0.075002 -0.015457 0.021718 -0.094518 -0.096156 -0.212380 0.104464 -0.095698 0.025436 0.123493 0.141560 -0.016264 0.023795 -0.088551 -0.045296 0.029769 -0.061463 -0.019267 -0.009907 -0.060559 0.046256 0.115114 0.046065 0.028833 0.011285 0.125165 -0.168765 -0.025371 0.049472 0.031896 0.055321 -0.010177 0.062960 0.082984 -0.015393 -0.003688 -0.163429 0.019302 0.077315 0.027878 -0.009048 0.010806 0.034670 0.002364 -0.032682 -0.012611 -0.157708 0.023657 -0.021926 -0.005113 0.104110 0.082817 -0.033936 0.038222 -0.023009 -0.059989 -0.019216 0.026341 0.057098 -0.249847 -0.044831 0.135708 0.011850 0.016138 -0.024292 0.022831 -0.004318 -0.020422 0.248131 0.092557 0.021931 0.014227 0.066099 0.026370 0.052963 -0.102365 -0.055450 -0.018686 0.105881 -0.057387 -0.087688 0.034625 0.010258 0.023688 -0.007530 -0.023262 -0.023836 -0.018459 0.076460 0.061135 0.143402 -0.031802 -0.034422 -0.152166 0.014344 -0.023698 0.068172 0.015750 -0.021054 -0.019814 -0.017491 -0.034409 -0.059736 -0.003400 -0.060915 -0.078519 0.086378 0.056441 0.064280 -0.016247 -0.097117 0.046100 -0.061112 -0.044793 -0.121174 0.035808 -0.014862 0.052564 0.104838 -0.094818 -0.031978 0.090815 0.026040 0.145862 0.081782 0.005014 -0.018999 0.013203 -0.043721 -0.062154 -0.033744 -0.028992 0.029777 0.004730 0.061653 -0.126641 0.067223 0.062585 -0.026204 -0.064388 -0.012947 0.105042 0.089505 0.105497 -0.010458 -0.126443 0.074977 -0.011984 -0.032435 0.031520 -0.049270 -0.100195 0.074489 0.108181 0.042155 -0.005973 -0.153917 0.112563 0.044775 -0.108769 -0.057865
move 0.079818 -0.076845 -0.064423 -0.078817 -0.007828 -0.022367 -0.006271 -0.053206 -0.032450 -0.054303 0.048451 0.056467 0.022067 0.073795 -0.019710 0.019290 -0.018497 0.038586 0.099105 -0.037405 -0.011279 -0.010315 -0.083802 -0.024146 -0.082335 0.057932 0.007417 0.064073 -0.036862 -0.068770 0.129579 0.087164 -0.000012 0.061315 0.066995 -0.027422 0.030877 0.044262 0.022611 0.107343 0.017394 0.015393 -0.032454 0.003012 -0.013586 0.018694 -0.046571 -0.112747 0.079830 -0.006764 0.092319 0.004803 0.018292 -0.112846 0.004792 0.034036 0.036646 0.052072 -0.001317 0.032348 -0.058825 0.016712 -0.018313 0.008906 -0.072777 0.025975 0.016258 0.006138 -0.107845 0.077581 0.165642 0.009483 -0.037014 -0.081926 0.099063 0.063941 0.016684 0.027230 -0.029423 -0.004399 -0.027642 -0.046092 0.075030 -0.155882 0.021799 0.063214 -0.034889 -0.013196 -0.010589 -0.050185 0.106746 -0.094733 -0.010288 0.002819 -0.098405 -0.046033 0.030639 0.101333 0.035898 -0.052057 0.002860 0.161874 -0.021351 -0.031729 0.026436 0.042768 -0.039028 0.014969 0.019770 -0.094248 -0.021757 -0.031277 0.019363 -0.124600 -0.009827 -0.046847 0.025810 -0.025184 0.052215 -0.079813 -0.011198 0.164831 0.016612 -0.105836 0.007749 -0.123853 -0.017691 -0.033187 0.011047 0.041334 0.031043 -0.011036 0.061226 0.101884 0.043937 -0.056287 -0.128817 -0.014787 0.020039 0.056600 0.071796 -0.013720 0.004036 0.030307 -0.054094 0.014809 -0.018107 -0.014026 -0.032006 -0.016288 0.076741 0.015498 0.025666 0.015429 -0.011524 -0.053555 -0.000569 -0.041195 0.036550 -0.024359 0.025462 0.090619 -0.067094 0.039514 0.085292 0.056335 0.052775 -0.020468 0.093706 0.056842 -0.037283 0.019889 0.009611 -0.004489 0.051781 -0.064160 -0.030917 -0.162070 -0.006152 0.022632 -0.033458 0.089366 0.058279 0.010592 0.052396 -0.006281 0.021789 -0.044065 0.026621 -0.051742
thailand -0.011099 0.020760 -0.026521 -0.109479 0.013395 0.103294 0.037539 -0.044178 -0.009848 -0.068552 -0.076808 0.082327 0.014164 0.041851 0.080758 0.095771 -0.087407 0.177731 0.051080 0.091644 0.134260 0.020084 0.048365 0.013803 0.081499 0.024294 -0.013057 0.032854 -0.014085 0.006801 0.052028 0.065380 -0.013572 -0.059547 0.048609 -0.060337 -0.022474 0.068179 -0.043501 -0.038736 0.010442 0.020394 -0.040049 -0.068528 -0.069993 -0.089903 -0.016495 -0.115556 -0.055654 -0.051230 0.056944 0.034926 0.051871 0.052553 0.152568 0.001662 0.148698 -0.043908 -0.101646 0.090324 -0.045129 0.041341 0.059308 -0.042089 -0.053647 -0.007906 0.050231 -0.072267 -0.104770 0.001469 0.066276 -0.078937 0.029663 0.043505 0.072460 -0.109504 -0.027869 0.043002 -0.054412 -0.019275 -0.049945 0.036682 0.047996 -0.026567 -0.002741 0.081184 0.151292 -0.027977 0.014065 -0.090053 0.101436 -0.188603 -0.023688 -0.091838 0.048235 -0.013616 -0.031263 0.091495 0.007758 0.083599 0.043035 0.032049 0.164811 0.104993 0.065453 0.065905 0.027746 -0.020928 0.116764 -0.103150 0.124232 -0.041045 -0.000690 -0.008229 0.098194 0.010088 -0.051030 0.124303 0.009991 -0.015979 -0.009520 -0.050237 -0.004847 0.055126 0.061935 -0.054137 0.131228 0.075722 -0.129542 0.100962 0.117078 0.029205 -0.088177 0.002293 0.044110 0.102307 0.038467 -0.022431 0.003224 -0.049998 0.014662 0.034839 0.030772 -0.011041 0.028065 0.085380 0.044965 -0.092991 0.017068 0.075845 0.017292 0.004985 -0.030013 0.049579 0.047650 -0.004743 0.044738 0.068178 0.043270 0.052545 -0.016443 0.024406 0.006393 -0.089558 0.127320 0.002516 0.001413 0.008269 0.026915 -0.133223 -0.063582 0.091042 -0.065476 0.093413 0.050288 0.048884 -0.067988 0.008913 0.014156 0.041076 -0.003003 -0.004433 0.049968 -0.023051 0.029301 0.059622 0.053288 -0.099921 -0.008108 0.015569
ukraine -0.082560 0.069930 -0.027359 -0.037479 -0.026092 -0.038917 0.097713 0.018284 -0.014543 -0.000445 -0.074233 -0.059957 0.108095 0.103128 -0.001327 0.068845 0.021204 -0.020154 0.005832 0.010791 0.113057 -0.025293 0.092369 0.006265 0.020516 0.011216 -0.066848 -0.040508 0.115268 0.058206 0.049082 0.048492 0.100329 -0.076744 0.076465 0.060965 -0.080547 -0.010571 -0.037515 -0.022706 0.034118 0.012485 0.042219 -0.112248 -0.001286 -0.144832 -0.056357 0.118907 -0.110994 0.011420 0.076501 0.055372 -0.159921 -0.106714 -0.026511 -0.055342 0.044816 -0.039938 -0.019760 0.006453 -0.097768 -0.219850 -0.104397 0.060498 -0.004816 0.082635 -0.059762 0.072574 -0.037270 0.156138 0.090095 0.039916 0.025519 0.008975 0.033667 0.011002 0.027133 -0.055331 -0.072273 0.111284 0.033616 -0.093326 -0.034873 0.040599 -0.032717 0.017460 -0.062649 0.064106 0.138302 -0.049285 -0.027404 0.049419 -0.125128 0.070267 -0.041450 -0.136287 -0.034534 0.101335 -0.079178 0.105253 0.088496 0.097903 -0.066928 -0.046453 -0.013542 -0.101078 -0.083765 0.021043 0.209585 0.019586 0.017858 -0.098642 0.112269 -0.066592 -0.005362 0.084101 -0.016396 -0.069776 -0.046388 0.171660 0.049848 -0.030478 0.056793 -0.012056 0.058722 -0.061377 0.015851 -0.027492 -0.007268 0.005419 -0.032745 0.007798 0.005029 -0.024469 -0.120112 -0.015210 0.003218 -0.030263 -0.037146 -0.093133 -0.018218 0.001782 0.055116 0.028664 0.012254 -0.053786 -0.067686 -0.045904 0.039561 -0.146573 0.043213 0.027846 0.132783 0.021392 -0.008362 -0.016175 -0.037123 -0.066221 -0.066411 -0.014371 0.058216 0.013954 0.010219 -0.077639 0.128293 0.057143 -0.036745 0.015845 -0.041874 -0.113928 -0.065917 -0.033655 -0.079567 -0.000377 0.014246 -0.081868 -0.044950 0.047722 -0.087673 -0.026817 -0.090340 0.015604 -0.015336 0.006643 -0.081279 -0.055021 0.075263 -0.084281 0.124267 -0.002695
plano 0.084150 -0.009597 -0.110045 -0.005995 -0.159268 0.022452 0.129326 0.011899 -0.107722 0.040366 0.097575 -0.011712 -0.024580 -0.037771 -0.049294 0.017864 -0.019512 0.060812 -0.088135 0.041497 -0.053528 0.008732 0.011823 0.085017 0.045333 -0.021349 -0.104139 0.057625 0.051635 -0.018656 0.058121 -0.077878 0.035301 -0.103019 -0.031415 0.109467 0.000665 -0.075822 0.017350 -0.049799 -0.013170 0.017601 -0.028188 -0.024551 0.096523 -0.061260 -0.035888 0.113572 -0.037911 -0.039431 -0.052064 -0.071207 -0.030691 0.078843 0.004163 -0.114062 0.131396 -0.090034 -0.017246 0.052295 -0.122599 0.039384 -0.042330 -0.051031 -0.113588 -0.084037 -0.037080 -0.019477 -0.005132 -0.059364 0.057895 0.022508 -0.056541 0.072785 -0.009345 -0.023424 -0.174319 0.048636 0.100634 -0.051927 0.016582 0.060038 0.044800 0.098235 -0.089406 0.018451 -0.013956 0.008357 0.076912 -0.033769 0.053051 0.034579 0.029293 0.045440 0.019455 -0.045988 0.029196 -0.032757 0.065892 0.001416 -0.064622 0.128605 0.039985 -0.079287 -0.009000 -0.125422 0.119846 -0.054667 -0.047447 -0.082866 -0.069101 0.116388 0.025742 0.029508 -0.073737 -0.118014 0.013553 -0.086304 0.001151 0.033850 0.102135 -0.081587 -0.012140 0.151849 0.004154 0.030786 0.047443 0.009981 0.095696 0.057798 -0.084198 -0.133847 0.080686 0.084681 0.079367 0.012840 -0.090065 0.011155 0.031660 -0.008129 -0.056882 -0.045967 -0.001733 0.010262 0.097022 0.020698 0.050487 -0.018384 0.052423 0.086974 0.091930 0.038824 0.060103 -0.016031 -0.019411 -0.079049 -0.079727 -0.087464 -0.162177 0.082674 0.069345 0.093321 0.062953 0.016754 -0.082064 0.031164 -0.107101 -0.109600 -0.152804 0.013151 0.091843 -0.042880 0.021776 0.017526 -0.113169 0.043078 -0.017308 -0.010297 -0.025033 0.000887 -0.045096 0.013509 0.035702 -0.015166 0.037455 -0.174036 0.082847 -0.031611 0.009694 0.047351
texas 0.068133 -0.056732 -0.090518 0.041566 -0.228662 0.095038 0.024854 0.001146 -0.129110 -0.065404 0.058673 0.013296 -0.067799 -0.001988 -0.079110 0.081764 0.042724 0.052670 0.059628 0.077157 -0.048746 0.105438 -0.041078 0.096361 0.046972 -0.028201 -0.144597 0.168779 -0.022622 -0.031403 -0.017264 -0.119025 0.001979 -0.072770 0.003743 -0.021412 0.029605 -0.073166 0.012136 -0.076827 0.030020 0.104198 0.060610 -0.029096 0.009693 -0.120764 -0.085378 0.069089 0.056883 -0.059549 -0.082113 -0.101087 0.022903 -0.043422 0.021810 -0.024369 0.076403 -0.078699 0.058563 0.005148 -0.076255 -0.010463 -0.074245 0.023139 0.012725 -0.070029 -0.006519 -0.049810 0.025469 -0.006667 0.088437 -0.075310 -0.095082 -0.044386 0.016479 -0.004632 -0.044713 -0.054982 0.140105 -0.032805 0.095894 0.037764 0.048546 0.036010 -0.067409 0.121260 0.051761 0.099328 0.033114 -0.049558 0.162034 0.052765 0.043193 0.066737 -0.026916 -0.015114 0.060521 0.000539 0.088484 -0.009388 -0.007285 0.082975 -0.077404 -0.082662 -0.168933 -0.082441 0.186126 -0.027348 -0.084437 -0.063753 -0.069900 0.061021 -0.000433 0.003688 -0.019320 -0.111313 0.046129 0.014874 0.065752 0.012175 0.016468 -0.054500 0.010225 0.057562 -0.032751 -0.024172 -0.049501 -0.048984 0.085449 0.181891 -0.044476 0.008683 0.088435 0.122950 0.104742 0.003956 0.008389 -0.024120 0.107319 0.056936 -0.136308 -0.072522 -0.077253 0.050229 0.040930 -0.001507 0.015962 -0.073569 -0.039921 0.020802 0.051089 -0.037608 0.043355 0.034176 0.024825 -0.073430 -0.072812 0.030299 -0.082871 -0.039024 0.037840 -0.086194 -0.024195 0.012789 0.011994 0.066741 -0.105325 -0.001837 0.054127 0.066522 -0.051034 -0.085649 0.039339 0.080968 -0.075972 0.053889 -0.021439 0.101409 0.083310 -0.072385 -0.038813 0.006912 -0.014396 -0.018669 -0.155081 -0.041591 0.012010 -0.008305 -0.000731 0.126113
tough -0.043191 -0.065650 0.109237 0.051374 0.030701 0.034761 -0.024886 0.040676 0.078127 0.007913 -0.023705 -0.152414 0.072769 -0.038556 -0.015892 -0.009870 -0.112965 0.078958 0.013844 -0.145525 -0.161461 0.105754 -0.003358 -0.060769 0.044716 -0.055847 0.095648 -0.043973 0.041807 0.045498 -0.051641 0.140942 0.068941 -0.002468 0.106453 0.095235 -0.010151 0.097594 0.032899 0.075677 0.051101 0.030185 0.074369 -0.099129 -0.054595 0.004934 -0.044262 -0.028109 -0.035728 -0.059741 -0.025270 0.076780 -0.022248 0.036438 0.015336 0.021206 -0.082816 0.054561 -0.058609 0.175644 0.044536 -0.009536 -0.049546 -0.104061 0.032033 0.139565 -0.035498 -0.066085 0.059099 0.026808 0.020151 0.022822 0.114803 -0.010733 0.090656 0.077682 -0.041200 -0.036331 0.019084 0.084307 0.061420 0.013708 -0.038054 0.128148 0.056480 -0.116861 0.014755 0.075189 -0.072051 -0.133674 -0.032251 0.107867 -0.041303 0.052797 0.047075 0.010627 0.056719 -0.033253 0.156430 0.059319 0.063899 -0.074400 -0.036551 -0.043063 0.012565 -0.068259 -0.041276 0.087602 0.049962 -0.062001 0.042642 -0.041705 -0.031297 0.096736 -0.037660 -0.065172 -0.160397 0.123884 -0.049647 0.036221 -0.134621 -0.046022 -0.077710 0.021850 0.007175 -0.061955 0.031344 -0.060711 0.053518 -0.002745 -0.003388 -0.002867 0.003347 -0.074593 -0.007173 0.014586 0.017274 -0.057547 0.015842 0.029893 -0.041639 -0.126095 -0.027967 -0.020076 0.039676 0.042523 0.047009 -0.063252 0.087241 0.040364 0.035909 -0.098382 -0.008743 0.065331 0.037645 0.093043 -0.066857 0.107777 -0.051359 -0.010859 0.016734 -0.016165 -0.001671 -0.033805 0.052188 -0.018332 -0.132351 -0.010149 -0.058437 -0.115713 -0.004087 0.038035 -0.052166 -0.095172 -0.141478 0.002898 0.003276 0.035387 -0.032568 -0.029561 0.128972 -0.005763 -0.091449 0.080869 0.008375 -0.056698 0.075084 0.110048 0.054212 0.069282
flying -0.153419 -0.030582 -0.038319 -0.002565 -0.059462 0.034880 0.075556 -0.070754 0.039543 -0.014989 0.205222 0.019778 -0.017214 0.045181 0.100262 0.030716 -0.014428 0.053813 0.004093 0.046864 -0.020527 -0.090842 -0.127699 0.056854 0.081700 -0.057135 0.077507 0.004282 0.071936 -0.005419 0.019835 -0.023387 0.058706 0.013313 0.060305 0.101406 -0.002186 0.073719 -0.061991 0.106344 0.093054 0.014326 0.066874 0.038797 0.013949 0.061273 0.054332 0.005158 -0.053037 -0.063846 -0.003707 0.007576 -0.063362 -0.063013 -0.012664 0.070323 -0.035693 -0.097280 -0.007371 0.185043 0.066716 0.108443 0.093825 0.009743 -0.011284 0.003047 0.029071 0.108890 0.062279 0.147588 -0.044359 -0.020100 -0.023724 0.033795 0.063690 -0.071781 0.089712 0.063341 -0.022384 -0.043619 -0.027090 0.021219 0.108007 0.114921 -0.172315 0.075778 -0.048371 -0.021947 0.039739 0.069068 0.092465 -0.043019 -0.054413 0.096839 -0.009653 -0.004701 -0.073475 -0.044109 -0.011872 0.145413 0.071028 -0.006705 -0.053492 0.152760 -0.018294 -0.014701 -0.003848 0.111805 0.073282 0.073761 0.053689 0.106644 -0.009671 -0.046291 0.137910 -0.135450 -0.057784 -0.129241 0.020172 0.111595 -0.041798 0.068172 -0.027937 -0.037142 -0.004924 0.053489 -0.000104 0.064679 0.157317 0.087290 -0.041588 0.022162 -0.034865 0.124927 0.000017 -0.012806 -0.054707 0.005195 0.141797 -0.001377 -0.081549 -0.054553 0.065188 0.072466 0.035763 -0.043685 0.019741 -0.100798 0.037639 0.073443 -0.085295 -0.055586 0.047787 0.019188 -0.051187 -0.010009 -0.067544 -0.042448 -0.067230 0.054761 -0.063457 -0.007203 -0.119641 0.060719 -0.056664 -0.020442 0.046844 -0.036259 0.057854 0.029483 -0.136425 -0.032409 -0.013744 0.040368 -0.059745 -0.144129 0.010424 -0.024949 -0.008663 -0.085362 0.095909 -0.000349 0.105033 0.060777 -0.060683 -0.045883 -0.060932 -0.083849 -0.102221 -0.011037
iraq -0.061450 -0.074930 0.016050 0.043125 0.096111 0.097843 0.120060 -0.065443 -0.029482 0.029296 -0.027176 0.047112 -0.001169 -0.022141 -0.159662 0.028880 -0.043598 -0.057931 -0.083022 0.025860 -0.036367 -0.013663 -0.037929 -0.098961 0.036082 -0.010267 0.115615 0.002925 -0.014606 -0.039548 0.101798 0.012820 0.077014 0.012707 0.074792 -0.033220 0.131516 0.119241 -0.179073 -0.070999 -0.046648 0.027267 0.114128 -0.060396 0.053713 -0.080917 -0.002404 0.055546 -0.101290 0.002583 -0.032536 -0.130416 0.006184 -0.076037 -0.019571 0.094993 -0.067131 -0.029233 0.043430 0.056541 0.013168 0.056214 0.011975 -0.018338 0.003481 0.014917 0.060289 -0.031432 0.008446 0.123749 -0.105639 0.067733 0.011285 0.019737 -0.017097 0.081980 0.002052 -0.006379 -0.083471 -0.037794 0.031290 -0.020911 0.124627 0.002221 0.024148 0.032022 -0.044480 0.077333 -0.019687 -0.018064 0.002937 0.043463 -0.035562 0.085086 0.040306 -0.089535 -0.082046 -0.023473 -0.030569 -0.038435 -0.027022 0.021898 0.011818 0.057210 0.056723 -0.023213 -0.011121 -0.029766 0.007699 -0.108313 -0.006559 0.089094 -0.079769 0.063978 -0.025971 0.064748 -0.038445 0.067656 0.028910 -0.032751 0.101596 0.023740 0.017904 -0.073888 0.004200 0.010030 -0.085646 0.002153 0.042014 -0.048747 0.021601 -0.032825 -0.058060 0.086128 -0.110513 0.016263 -0.019361 0.056514 0.060942 0.169225 0.079626 0.010035 0.065184 0.075460 -0.134596 -0.070351 -0.080890 0.022013 0.015098 -0.020390 -0.057709 -0.031156 0.072842 0.022557 -0.110715 0.003933 0.065956 -0.029662 -0.003117 0.049617 0.048768 0.070161 -0.024060 0.073456 -0.073952 -0.015170 0.094151 0.034043 -0.062750 -0.033092 -0.011066 0.011417 -0.054451 -0.016124 -0.148026 -0.067431 -0.112513 -0.058000 -0.080698 0.038029 0.037713 0.047349 0.052085 -0.026169 -0.054541 0.001742 0.036616 0.043190 -0.021711 0.011826
professional -0.095034 -0.052257 0.031563 -0.118165 0.055181 0.038615 0.069603 -0.022574 -0.072894 0.091093 0.045225 -0.036931 0.015917 0.063940 -0.050431 -0.072719 -0.039189 -0.004815 -0.132946 -0.026260 0.027441 0.018808 -0.026851 0.127913 0.065434 -0.144673 0.137051 -0.015872 0.107693 -0.023336 -0.038497 0.061890 -0.047012 0.019218 0.150464 0.121534 -0.051266 0.063752 -0.057802 0.081454 0.141509 -0.012347 0.068473 -0.018313 -0.074628 -0.010628 0.084540 0.036472 -0.069229 -0.098805 -0.057639 -0.031572 0.031935 0.044411 0.072224 0.080128 0.038802 -0.030753 -0.087308 0.082755 -0.032110 0.018832 0.051790 -0.115120 0.007157 0.031802 0.003506 0.068033 0.072399 0.000921 0.076301 -0.030879 0.033293 -0.035664 0.045082 -0.074424 -0.021498 0.065508 -0.002352 -0.066226 0.012163 -0.067989 0.018697 0.046772 -0.009832 -0.027557 -0.011204 0.026457 0.067411 -0.086034 -0.113339 0.041790 0.022059 0.132777 -0.005806 -0.056477 0.065279 0.116062 0.015060 0.002669 0.055920 0.027779 0.001427 -0.082097 -0.072666 -0.093949 -0.029379 -0.009447 -0.008605 0.043722 0.063048 -0.113119 0.029866 0.148586 0.008864 0.034229 -0.107048 -0.006449 0.104999 0.004742 -0.035342 0.094704 -0.078748 0.091545 0.001786 -0.003652 -0.026305 -0.104536 0.075639 -0.025036 -0.016530 0.119056 0.026440 -0.001469 0.005351 -0.005003 -0.027128 -0.039922 0.019816 -0.023033 -0.019759 -0.078817 -0.026429 0.034057 0.075426 -0.027061 0.005050 0.015861 0.005813 -0.085033 0.096252 -0.086289 0.105151 0.005253 0.058886 -0.038177 -0.052612 -0.036518 -0.066814 0.063092 0.057490 -0.144143 -0.049677 -0.025017 -0.009748 -0.014352 -0.044870 0.073038 -0.019402 -0.034243 -0.029169 0.088363 -0.020871 -0.108576 -0.065417 -0.031444 -0.056648 -0.053771 -0.053994 0.080362 -0.086672 0.036969 -0.006743 0.015233 -0.058068 -0.118198 0.014364 0.029247 -0.039065 -0.002040
fly -0.103276 0.052653 -0.026763 -0.002551 -0.197026 0.092547 0.089353 -0.038556 0.029487 -0.045020 -0.016074 -0.004098 -0.004984 -0.039825 0.064509 0.086180 0.050238 0.023924 0.114007 0.040913 0.002623 -0.110298 -0.049316 0.058764 0.062382 0.016075 0.040111 0.040092 -0.012832 -0.000233 -0.042858 0.025937 0.078368 -0.000384 -0.020789 -0.015024 0.008981 0.011223 -0.113965 0.121398 0.078254 -0.023700 -0.021351 0.038440 0.049567 -0.006918 -0.070065 0.027660 0.016306 -0.048078 0.039105 0.073994 -0.044905 -0.011368 0.097237 0.103758 0.001362 0.007184 0.091785 0.166979 0.029113 0.005025 -0.011789 0.003120 0.016277 0.035278 -0.000848 0.181682 0.050900 0.090801 0.026672 0.019900 0.030885 -0.020783 0.069827 -0.059785 0.033743 0.060431 -0.093572 -0.001839 -0.006271 0.059692 0.043699 -0.011864 -0.170633 0.088030 0.065113 0.002203 0.012852 0.055843 -0.005918 -0.022265 0.000999 0.010111 -0.021536 0.001609 -0.006534 0.053311 -0.011308 0.182983 -0.022152 -0.026099 -0.016345 0.042852 -0.076664 -0.044887 -0.055716 0.062389 0.041357 -0.001178 0.023831 0.000565 -0.078993 0.038233 0.042916 -0.024026 -0.063063 -0.150490 0.077910 0.156977 -0.051375 -0.038605 -0.067756 -0.096534 0.075285 -0.016645 -0.013972 0.100713 0.102301 -0.015197 -0.031707 0.070567 0.086961 0.079659 0.071736 0.118404 -0.055781 -0.060140 0.225475 -0.041111 0.122879 -0.027343 0.099338 0.080349 0.115438 -0.020625 0.012404 -0.000580 0.016966 0.111607 -0.096750 -0.069840 -0.063300 0.109130 0.010962 -0.040850 0.002887 0.058821 0.007274 0.008714 -0.047996 -0.074778 -0.054753 -0.012173 0.073991 0.018738 -0.012711 0.073202 0.049157 0.034176 -0.085589 0.031686 0.064445 0.000475 0.063934 -0.056530 0.036401 -0.044489 0.013802 -0.154804 0.132879 -0.110240 -0.012995 -0.019586 -0.045012 -0.000677 -0.069865 0.027629 -0.071487 -0.000722
danish -0.127192 -0.041204 -0.097421 0.031415 0.020035 -0.028816 0.063981 0.057543 -0.088020 -0.025513 -0.111508 0.045159 -0.019594 0.054485 0.079737 0.030083 -0.033762 -0.055116 -0.015577 0.018779 0.036154 0.111703 -0.055114 -0.039746 -0.035633 0.066189 0.137481 0.014840 0.011548 0.069344 0.163279 0.059043 -0.088321 0.033647 0.078830 -0.091881 0.032499 -0.033635 0.026637 -0.110670 -0.000390 0.047188 0.125795 -0.039231 0.072865 -0.049542 0.026811 -0.061365 -0.101370 -0.121933 0.026878 0.011185 -0.054222 -0.019717 0.032732 -0.132872 0.041405 0.066702 0.007012 0.133726 0.012968 0.017826 0.025283 -0.014503 -0.042571 0.112518 -0.061997 -0.007905 -0.075249 0.067959 -0.106972 -0.095663 -0.157352 -0.029314 -0.055708 -0.033734 0.012020 0.012435 -0.019086 -0.025945 0.056937 -0.133478 -0.008296 -0.038096 0.057700 -0.055967 0.002570 -0.067686 0.093550 -0.067676 0.036791 -0.023690 -0.008669 -0.023394 0.081657 0.052040 0.097755 0.012755 0.026765 0.085231 0.004436 -0.017132 -0.141048 0.080033 0.006080 0.052542 -0.010093 0.057265 0.010916 -0.080212 0.011381 -0.025164 0.022880 -0.063356 0.058870 0.018956 0.034611 0.010950 0.016209 -0.094384 -0.094404 0.069970 -0.038758 -0.006428 0.024615 -0.034472 -0.136065 0.074527 0.103258 -0.110880 0.078555 -0.034966 0.020907 0.124436 -0.088340 -0.005168 -0.064209 0.027856 -0.008493 0.041240 0.033135 0.062130 -0.034363 -0.048194 -0.085614 0.069223 0.021953 -0.105700 0.004738 0.077263 0.142145 0.101105 0.081068 -0.063997 -0.059450 0.010678 0.074142 0.074259 -0.016346 -0.011275 0.051391 -0.017717 0.036114 -0.095489 -0.002782 -0.099189 -0.036624 0.069293 -0.070245 -0.005283 -0.009312 -0.044893 0.063199 -0.041613 0.004925 -0.057574 0.093241 0.000753 -0.130651 -0.044462 0.058680 0.026690 0.049580 -0.048311 -0.016054 -0.033069 0.128771 -0.116035 0.011948 0.076401
denmark 0.057577 -0.080945 -0.107260 0.039743 -0.024793 -0.115737 0.073769 0.104793 -0.071942 -0.041473 -0.074719 0.000197 -0.050561 0.024402 0.075349 0.135094 -0.083621 -0.017616 -0.007579 0.076918 0.044919 0.028895 0.017432 -0.057062 -0.022109 0.016494 0.121768 0.005885 -0.009986 0.059551 0.089324 -0.050556 -0.054830 0.028693 -0.057319 0.009064 -0.000395 -0.022233 0.066492 -0.094719 0.015207 -0.033795 0.055376 -0.020552 0.002338 -0.042386 0.042446 -0.002172 0.024489 -0.053668 -0.059548 -0.063842 -0.005947 -0.015812 -0.143309 -0.075543 -0.004481 0.071467 0.003953 0.091337 0.022672 0.039912 -0.007986 0.033238 -0.023641 0.102898 -0.015205 0.063072 -0.002927 0.086419 -0.015892 -0.118818 -0.050428 -0.074396 -0.024293 -0.060770 -0.143248 -0.084433 0.035907 -0.055365 0.098525 -0.035811 0.003601 0.051516 0.040796 -0.050818 -0.013600 -0.029451 0.145443 -0.044990 0.085267 0.051106 -0.028739 0.098664 0.014466 0.115361 0.053129 0.023608 0.045881 0.083013 0.041418 -0.063370 -0.085569 0.050728 0.010649 -0.069711 -0.001500 0.139125 0.008839 -0.009453 0.078155 0.096824 0.061722 -0.070425 0.010056 0.007481 -0.039508 -0.007550 0.082110 0.015387 -0.056389 0.094766 -0.014037 0.004083 0.056260 -0.057867 -0.099476 0.042543 0.108732 0.040206 0.008806 -0.037854 0.045308 0.124403 -0.062743 -0.013230 -0.012945 -0.031849 -0.130934 -0.016415 -0.095963 0.039699 0.007138 -0.012616 -0.040996 0.084528 -0.009977 -0.147235 0.011622 0.085273 -0.005215 0.039072 0.065017 0.045365 0.036619 -0.016099 0.071326 0.128149 0.022233 -0.031071 0.116895 -0.069000 -0.092178 -0.055607 -0.043208 -0.076267 0.000055 0.010105 -0.005788 -0.025553 -0.011277 -0.032738 0.042083 -0.067745 -0.025569 -0.031920 0.074137 0.157206 -0.117658 -0.047459 0.087220 0.002039 0.050020 -0.022361 -0.022615 -0.070249 0.100871 -0.055590 0.027505 0.073146
croatia -0.023332 -0.012418 0.032813 0.033983 -0.002139 0.039029 0.047052 -0.033077 -0.066297 -0.089892 0.016012 0.058331 -0.048213 0.020948 0.095703 -0.016771 -0.111212 0.058634 -0.081563 0.038944 -0.076809 -0.074531 -0.118121 -0.057831 0.090691 -0.040519 0.023042 0.101822 -0.062347 0.030861 -0.010761 0.024422 -0.038077 0.025805 -0.108174 -0.042407 -0.033995 -0.037114 -0.039352 0.051057 0.116731 0.002154 0.073452 0.002459 0.017964 -0.063593 -0.062396 0.055092 0.025961 -0.029285 0.024534 0.006619 -0.144690 0.040465 0.035553 -0.018936 0.026922 0.005832 0.028659 0.032156 -0.013499 0.000132 0.031621 -0.019401 0.023347 -0.136740 0.021976 -0.174227 0.078062 0.082903 0.044687 0.040992 -0.106854 -0.042764 0.126030 -0.142681 -0.023799 0.021720 0.080294 -0.027524 0.061370 0.054966 0.040740 -0.031311 0.040784 -0.016622 -0.013070 0.050506 -0.009331 -0.061020 -0.032008 0.075537 -0.001335 0.056468 -0.041360 0.034162 -0.003592 -0.101610 -0.050563 0.000813 -0.094034 0.103814 -0.015783 0.033737 -0.020098 -0.094655 -0.099461 0.055081 0.111978 0.046196 0.025385 0.014114 0.038841 0.032027 -0.022410 -0.014858 -0.021263 -0.012608 0.010212 0.101194 0.042059 0.024605 0.012522 0.035868 0.012035 -0.138418 0.010550 0.011522 -0.002863 0.037429 -0.017159 -0.098097 0.061803 0.130830 0.059319 -0.044521 -0.020327 -0.124344 0.027986 0.062022 0.046094 -0.062976 0.005716 0.041494 -0.059873 -0.023394 -0.040759 0.000490 -0.061629 -0.058658 0.002917 0.158499 0.101476 0.042885 -0.010392 0.033662 0.022682 0.055757 -0.011128 0.020626 0.047031 -0.002099 0.050400 0.015818 0.056183 0.103517 0.032224 -0.034921 0.026675 -0.014191 0.063802 -0.086463 -0.031957 -0.017378 -0.078540 0.081783 0.000765 -0.081117 -0.123896 -0.056433 -0.008924 0.012399 0.115905 0.090292 -0.113924 -0.086857 -0.040992 -0.044895 -0.108846 0.027028
