hanoi -0.039311 -0.039056 -0.037343 0.027362 0.001519 0.140014 0.074920 0.086898 0.069387 -0.047918 -0.191403 0.058847 -0.023670 -0.115303 0.083930 -0.102341 0.086895 -0.053311 -0.015055 -0.094852 0.039218 0.091332 -0.011079 -0.081296 -0.033245 0.051230 -0.111774 -0.004963 0.033424 0.079567 0.060755 0.078400 -0.035045 -0.087964 -0.064970 0.037975 -0.078404 -0.019287 -0.074598 -0.070704 -0.044374 0.007037 0.125001 -0.021809 -0.010494 0.133138 -0.088367 -0.229196 0.090038 0.035509 0.007525 0.038070 -0.050450 -0.228382 -0.023326 -0.065068 0.158063 -0.023352 0.016469 -0.009929 -0.198461 0.079139 0.080674 -0.073774 -0.030789 0.100600 -0.022403 0.087901 -0.089824 0.068641 0.114349 0.013154 0.085999 -0.015766 0.068934 0.120816 -0.116444 -0.004147 -0.147394 -0.003274 0.003855 0.072201 -0.034087 0.072406 0.016170 0.026757 0.107481 0.051248 -0.119581 0.071360 -0.061791 -0.099661 0.089873 -0.071147 0.029480 -0.002814 -0.112042 0.135321 -0.015883 0.118074 -0.038037 -0.052418 -0.014646 0.175379 -0.092275 -0.032853 0.088733 0.201792 -0.005131 0.140661 0.031221 0.002159 0.138239 0.133734 -0.130760 -0.034910 -0.077636 0.083308 -0.158066 -0.178923 -0.029296 0.016465 0.023181 -0.026199 -0.114282 -0.042945 -0.010045 0.052354 0.022270 0.105247 -0.007201 0.093999 -0.120961 -0.020062 0.059170 0.096090 -0.030567 0.207093 -0.011149 0.068321 0.107598 0.020080 -0.111226 -0.083201 -0.107029 -0.039814 -0.042706 -0.058082 0.043620 0.047072
tougher 0.040520 0.011314 0.053119 0.120592 -0.079230 0.072082 0.025668 -0.136641 -0.125306 -0.009987 -0.055052 0.027508 -0.014270 0.083979 -0.117437 0.022402 -0.094894 -0.007620 0.054489 -0.155402 0.048859 0.067491 0.151237 0.053198 -0.053624 -0.022738 0.062532 -0.057509 0.094439 0.119355 0.075246 -0.035374 -0.049723 0.008124 0.116819 -0.037161 -0.148529 0.121089 -0.095087 0.000167 -0.018474 -0.072552 -0.031104 -0.021463 0.033503 0.099987 0.056914 -0.031334 0.023789 0.129899 0.045526 0.034681 -0.050270 -0.037042 0.048128 0.002072 0.067656 0.102801 -0.035407 0.001459 -0.008611 0.058948 -0.064409 -0.035058 0.132479 -0.065784 -0.031868 -0.004807 -0.058571 0.050311 0.062252 0.063967 -0.064518 0.057313 0.087566 0.010952 -0.028157 0.021793 0.036458 0.008078 0.093859 -0.001984 0.042506 -0.035459 0.015977 0.057404 0.049147 0.072567 -0.117994 -0.129673 0.117315 -0.019252 -0.015779 0.072686 0.069866 -0.018995 -0.116113 -0.130229 0.035966 -0.047697 -0.005022 0.028341 -0.074455 0.072028 -0.126115 -0.040972 0.165794 -0.042454 0.073893 0.098489 -0.192419 -0.037185 0.060490 -0.055082 -0.143984 -0.020186 -0.236724 0.142756 0.018727 -0.144375 -0.061652 0.060184 0.041332 -0.128202 0.042252 0.014845 0.059364 0.025298 -0.064598 -0.065701 -0.017587 0.120278 0.086001 -0.038117 -0.061263 -0.078341 -0.089421 -0.055106 0.043236 0.071699 -0.101100 0.028251 0.086396 0.023885 -0.014550 0.044547 -0.016624 -0.011847 0.037353 -0.059596
occasionally 0.094845 0.003951 -0.049028 -0.091393 -0.103454 0.056271 -0.047739 0.134981 0.002927 0.015948 0.054635 0.068403 -0.041140 -0.079810 -0.183997 -0.113325 0.078305 -0.041768 0.074900 -0.054631 -0.049444 0.033216 0.014887 0.015935 0.041989 -0.009740 -0.061221 -0.149799 -0.134884 0.075333 0.066994 0.105304 -0.136541 0.065682 0.037681 -0.039725 -0.032852 -0.161592 -0.093331 -0.059303 0.054091 0.094819 -0.116136 -0.103685 -0.102166 -0.057136 -0.143135 -0.063271 -0.046396 -0.100932 -0.051370 0.033015 -0.123699 0.164916 -0.016952 -0.076987 0.054463 -0.144428 0.115320 -0.086433 -0.046283 -0.015242 -0.078204 0.059334 -0.006500 -0.249094 -0.057392 0.018387 0.008055 -0.078485 -0.008088 -0.010728 -0.066275 0.048398 0.049454 -0.076264 0.097639 0.124008 0.062054 0.021179 -0.055934 0.254603 -0.016805 -0.054108 0.040387 -0.036986 0.104345 0.068238 0.093186 -0.093948 0.144696 0.032955 0.107105 -0.036512 0.025867 0.007680 -0.052910 -0.022273 0.080262 -0.007660 0.050200 0.084286 0.019258 0.018402 0.091141 -0.024286 0.089711 0.003705 -0.088167 0.009591 0.015631 0.126116 0.044356 0.041449 -0.067925 -0.109350 0.030355 0.011033 -0.119004 0.014822 -0.033757 0.078672 0.016558 0.016529 -0.057219 -0.116461 0.013670 -0.059728 -0.027753 0.059110 0.096147 -0.029788 -0.025465 0.100801 -0.050666 -0.022241 0.033831 0.068857 0.138325 0.075878 -0.081725 0.055423 -0.109586 0.029914 -0.049418 0.010991 -0.086327 0.012213 0.031399 -0.165387
ukrainian -0.019883 0.079141 0.107164 0.067651 0.210909 0.092481 -0.014716 0.027233 0.024398 -0.085830 -0.094059 -0.029079 0.119299 0.038748 -0.123283 -0.020216 0.022147 0.151871 -0.048337 -0.073121 0.096449 0.154161 -0.055940 -0.031847 -0.100708 -0.015711 -0.045699 0.051850 0.147146 0.020323 0.162790 0.053760 -0.018826 -0.032282 0.082005 -0.109411 0.057677 0.084384 0.028810 -0.132573 -0.017718 -0.110666 -0.030269 0.096812 0.121892 0.140003 0.005316 0.185107 -0.002777 0.033638 0.078154 0.074850 -0.011705 0.089242 0.009015 0.080671 -0.018735 -0.012263 0.079400 -0.052470 -0.076480 0.161779 0.018338 -0.009801 -0.057228 -0.041683 -0.117343 0.114744 0.073105 -0.012631 0.052803 0.069636 0.052296 -0.052458 0.018420 0.119537 -0.014228 -0.002040 0.095962 -0.077948 -0.067122 0.102417 -0.040182 -0.019401 -0.125697 -0.005839 0.207733 -0.014774 -0.008953 -0.007941 0.111610 0.092728 0.070462 0.065624 0.056276 -0.136378 0.097622 0.036908 0.043204 -0.006389 0.166634 0.089429 0.094654 -0.084566 -0.081292 0.062685 0.049585 0.023449 0.018253 -0.087538 -0.041661 0.004430 0.088301 0.075016 -0.026962 -0.080000 0.034975 -0.019821 -0.095673 0.069593 0.041083 -0.076736 0.027700 -0.014949 -0.071032 -0.083927 -0.004800 -0.055271 0.037886 0.013319 0.094383 0.072732 0.050016 0.095088 -0.063663 0.102386 -0.011844 0.002241 0.032052 -0.066812 0.155429 0.019249 0.146344 -0.077694 -0.032112 -0.006808 -0.063678 0.006672 -0.083292 0.131955
occasional -0.024691 -0.075612 0.080348 -0.019853 0.010587 0.077363 -0.059360 0.105851 -0.009549 0.053102 -0.094097 -0.074514 0.157693 0.050748 0.012961 -0.015357 -0.031119 0.106373 0.077553 -0.014500 -0.011782 0.000974 0.123844 -0.086785 0.028896 0.005973 -0.059217 -0.118764 -0.086663 -0.012152 0.174665 -0.004177 -0.033149 0.012277 -0.115335 -0.091325 0.052138 0.049842 -0.050809 -0.001740 -0.068828 -0.081045 0.035085 -0.139973 0.035884 -0.099029 -0.056418 0.093061 0.027059 -0.124460 0.050528 0.017960 -0.122016 0.110153 -0.016364 0.070826 0.079237 -0.148045 0.075267 -0.096858 -0.011010 0.111931 0.001073 0.076208 0.008126 -0.163000 -0.045524 0.017779 -0.035107 -0.031046 0.001735 0.039946 0.027267 0.015064 0.077967 0.025448 -0.045339 0.100668 0.045557 -0.035588 -0.078552 0.103954 -0.138743 0.078437 -0.062818 -0.087750 0.144563 -0.040048 -0.072469 0.026822 0.067233 0.014266 -0.079652 -0.121827 -0.073508 -0.017796 -0.078853 -0.162927 0.030428 0.071739 0.014165 -0.010961 -0.051266 0.020455 -0.040057 -0.016028 0.082286 -0.125482 -0.025853 0.019418 0.018747 0.015020 0.109803 -0.078556 -0.156451 -0.134272 -0.072257 0.071712 -0.134602 -0.027604 -0.078978 0.034525 -0.010374 -0.161330 -0.042567 -0.088440 0.147334 -0.184546 -0.015270 -0.042313 0.053346 -0.168966 0.000551 0.049018 0.000921 -0.030287 0.049855 -0.063596 0.078336 0.062210 -0.009001 0.048256 -0.096155 -0.039484 0.108497 0.062610 0.059862 0.063536 -0.081310 -0.101820
norway -0.025138 -0.068098 0.043591 -0.033349 0.058715 0.100001 0.115392 -0.074222 0.001050 0.112709 -0.040795 0.082384 0.001657 -0.004786 0.029703 0.085512 0.064921 0.093491 -0.009007 -0.003145 -0.002927 0.038329 -0.072278 0.003838 0.123757 -0.033635 -0.093698 -0.146139 0.110287 -0.036339 -0.077403 -0.081217 -0.005368 -0.187453 -0.072883 0.004694 -0.051164 0.059066 -0.009289 -0.074305 0.061847 -0.125644 0.076481 -0.104119 0.048104 -0.038426 0.072195 -0.080321 -0.027290 0.183864 0.027199 0.121644 -0.103973 -0.013035 -0.085561 0.033062 0.058557 -0.107690 0.058578 -0.057397 0.061693 0.167619 -0.137885 0.047104 -0.047506 0.057745 -0.012020 0.113030 0.156756 0.065991 -0.059862 -0.046038 0.001108 0.054074 0.033015 -0.041711 -0.060721 0.068373 0.116371 0.005350 0.042174 -0.041226 -0.147317 -0.054487 -0.126274 0.001291 0.008858 -0.060202 0.044355 -0.064162 0.070567 0.183581 0.027180 0.021130 0.071245 -0.073185 0.001410 -0.175722 0.065483 0.038400 0.053654 0.101929 -0.022808 0.055041 -0.101163 -0.052778 0.069527 -0.018775 -0.027720 -0.122660 -0.177974 0.087813 -0.091055 -0.008000 0.070213 -0.034708 -0.074581 -0.078937 0.004263 -0.043190 0.092559 -0.214075 -0.073350 -0.073324 -0.048347 -0.105939 -0.024048 -0.012842 0.031932 0.061990 -0.006155 0.065176 0.059311 -0.041039 -0.076565 0.016759 -0.049632 -0.100455 -0.127911 -0.098795 0.056938 -0.028058 0.049935 0.024601 0.009567 0.148787 -0.058475 -0.012848 0.087462 0.084924
baghdad 0.228643 0.048751 0.005027 0.149977 -0.145741 -0.002265 -0.004662 -0.050271 -0.098442 0.098535 -0.090127 0.078843 -0.066690 0.102195 -0.073332 -0.051635 0.090306 0.040547 -0.070551 -0.047301 -0.120375 0.038187 0.057427 0.034302 0.067547 -0.065491 -0.134537 0.015644 0.043791 -0.049680 0.142989 0.080971 -0.004215 -0.020491 -0.035570 -0.167136 -0.222019 -0.030760 -0.072786 0.022037 -0.181919 -0.024632 -0.055435 -0.010470 0.099864 0.032125 -0.092002 0.166895 0.072105 0.036683 0.036287 0.092488 -0.092807 -0.092449 -0.060147 -0.027627 0.111813 0.044078 -0.038451 0.041594 -0.162054 0.034467 -0.042443 0.095768 -0.022978 -0.056066 -0.068338 0.107544 0.147243 0.038568 -0.080285 -0.088012 0.082347 -0.025303 0.004355 -0.093202 -0.026820 -0.024868 -0.134791 -0.058943 0.055255 0.017282 -0.057762 -0.000434 0.041795 -0.016396 -0.003765 0.030486 -0.164094 0.102295 -0.108866 0.041867 0.063469 -0.094493 -0.049285 -0.034451 0.007996 -0.124255 -0.016690 0.003995 -0.116680 0.036504 -0.024828 -0.000991 0.014967 0.035025 0.087961 -0.013712 -0.006861 0.071305 -0.128459 -0.091181 0.018931 -0.205491 -0.079905 -0.050975 -0.068363 0.039302 -0.133730 -0.006606 -0.039677 -0.051519 0.034210 0.086852 0.187929 -0.180042 -0.033832 -0.009668 -0.083088 -0.025647 0.153563 -0.038265 0.157407 -0.007429 -0.032239 -0.019677 -0.012935 0.058007 -0.031924 -0.076336 0.055979 0.041104 -0.146625 -0.173372 -0.027352 0.034075 0.014537 -0.012311 0.094037 0.037598
illinois 0.041515 -0.114099 0.012645 0.100702 0.035829 -0.156401 0.068983 0.046803 -0.131313 0.146997 -0.118213 -0.237896 -0.047766 0.058113 -0.072147 -0.125266 -0.069558 0.064132 -0.047188 -0.040278 -0.078432 0.019725 0.136926 0.187985 0.018324 0.062037 -0.001837 -0.044162 -0.059467 0.062627 0.138643 0.050299 -0.026302 0.060669 0.033470 -0.107351 -0.086539 -0.011606 -0.044623 0.019667 -0.044935 0.056999 -0.009701 -0.053912 -0.067455 0.049018 -0.028279 -0.187295 0.053660 -0.143865 -0.048774 0.013703 0.003646 0.096594 -0.023098 -0.110326 0.141790 0.049401 -0.053885 0.030532 0.034753 -0.027891 0.135136 -0.065431 0.013844 0.103080 -0.046258 -0.038611 -0.036935 -0.089018 0.001404 -0.055232 -0.046192 0.015993 -0.005320 0.088544 -0.024028 0.023818 0.130513 0.094030 -0.209422 -0.017343 0.016067 -0.118877 0.061622 -0.026723 0.202002 -0.044352 -0.016029 0.040548 0.066768 -0.022896 0.141298 0.112223 -0.076260 0.017862 -0.022331 -0.055378 -0.027997 -0.098521 0.033346 0.101223 0.001129 0.118396 0.020132 -0.040845 -0.064011 0.035244 0.076359 0.083572 0.016608 0.091161 -0.099215 -0.131389 0.067665 -0.011768 0.021290 0.069260 -0.137688 -0.083908 0.058729 0.005859 0.056014 -0.098145 -0.013601 0.077236 -0.037729 0.087694 -0.014478 0.101217 -0.023631 0.008555 -0.009776 0.012099 0.035542 0.093448 -0.019091 -0.054911 0.107645 0.118788 -0.076242 0.053176 0.026593 -0.098639 -0.035957 -0.018029 -0.129035 -0.144863 -0.070516 -0.017527
moving 0.151522 -0.081645 0.113608 0.011159 -0.139605 0.064446 0.040023 -0.090060 0.096835 0.110675 0.051543 -0.004462 -0.051843 0.046533 0.046693 -0.008682 0.044591 0.174747 -0.081104 0.062209 -0.009466 0.144374 -0.086730 -0.121595 -0.016207 -0.091684 -0.039025 0.105746 0.042943 -0.045318 0.043101 0.147611 -0.011777 0.003005 -0.007608 -0.076806 -0.007288 -0.029237 0.112432 0.123658 0.020169 -0.038959 -0.046691 0.000193 0.102988 0.073641 -0.013923 -0.057376 -0.150021 0.101596 0.044603 0.103947 0.042515 0.105525 -0.015623 -0.153107 0.150736 -0.098002 -0.024551 -0.005922 0.065168 0.055129 -0.054952 0.014519 0.016797 -0.089682 0.049842 0.102295 0.137206 0.008555 -0.094389 -0.075587 0.000109 0.116591 0.040349 0.147549 -0.166958 0.046676 0.004725 0.058913 -0.051687 0.085562 0.121463 -0.037534 -0.017674 0.066405 -0.110595 0.050797 0.022517 -0.008023 0.006803 0.015231 0.090313 -0.043773 0.027084 -0.002174 0.021452 -0.085429 0.074752 -0.104177 -0.098564 0.011604 -0.035895 0.066111 -0.009300 0.037647 0.135141 -0.007083 -0.025514 -0.029004 -0.252709 0.098331 0.066637 0.059257 0.054680 0.010042 -0.062765 -0.016268 -0.039131 0.026645 -0.031796 -0.027613 0.067761 0.049611 -0.035073 -0.022865 -0.033388 -0.057939 0.057655 0.008485 -0.076808 0.027826 0.192866 -0.064222 -0.050466 0.157633 -0.113984 0.056697 -0.034257 -0.024420 -0.079061 0.010943 0.097553 -0.057429 0.097667 0.061538 0.026529 0.015887 0.202468 -0.039979
loud -0.002784 -0.002910 -0.102253 -0.022847 -0.018401 0.100148 -0.130839 -0.060686 -0.010348 -0.037960 0.077866 0.129948 -0.054191 -0.032893 -0.141151 -0.128046 0.045903 -0.122534 0.072869 -0.065603 -0.019744 0.135984 0.064052 0.131803 0.082215 -0.021927 -0.149958 0.008549 -0.063402 0.031671 0.138034 -0.014803 -0.113711 0.062757 -0.043795 -0.072073 -0.046475 -0.010208 -0.020335 -0.033367 -0.137633 -0.060212 0.081495 0.005423 -0.009600 0.009295 0.094455 -0.015744 0.057026 0.021567 0.028656 0.126099 -0.106694 -0.029410 -0.017671 -0.024421 0.081522 -0.101625 0.087546 -0.005828 -0.162797 0.056070 0.010860 -0.045022 -0.049191 -0.152822 -0.043992 -0.002833 -0.000618 0.017799 -0.017165 -0.024047 -0.029644 0.085918 -0.007637 -0.027037 -0.027417 0.165300 -0.074998 -0.057702 -0.029852 0.126616 -0.036519 -0.029972 -0.010336 -0.109523 0.063855 -0.072230 0.043830 -0.029950 -0.008007 0.024045 0.088782 0.116512 0.037137 -0.075722 -0.005374 -0.021159 0.043697 0.030155 -0.043363 -0.026687 0.108164 0.060513 0.026803 -0.009062 -0.028485 0.013733 -0.093000 0.205227 -0.056955 0.029552 0.063788 -0.016014 -0.079534 -0.063807 -0.221453 0.054235 0.096510 -0.080025 0.028531 0.040547 0.137919 0.017793 -0.060483 0.057871 -0.071273 0.046417 -0.045564 0.075784 0.014215 0.049261 0.016688 0.017928 0.006351 -0.111544 0.003937 0.028259 -0.008663 0.016383 -0.048826 -0.014486 -0.149526 -0.023793 -0.032097 0.059848 0.019445 0.067827 0.170663 0.023457
thai -0.137008 -0.042668 0.014411 -0.004069 0.097181 -0.081920 0.077417 0.008481 -0.134418 0.033873 0.141768 -0.025558 0.012024 0.047009 -0.287394 0.018221 -0.189895 0.120922 0.185249 -0.040482 0.040369 0.012935 0.047270 0.009001 0.030219 -0.078896 -0.141913 -0.092733 -0.030821 0.104504 0.051227 -0.055830 -0.033714 0.209993 -0.038235 0.041545 0.043012 0.030750 0.023503 0.029507 0.039225 0.064283 -0.032595 -0.121744 0.098859 0.118226 -0.039572 0.063410 0.075609 -0.071273 0.055612 -0.195305 -0.074844 -0.035023 0.007877 0.059658 0.003462 0.050114 -0.025866 0.047498 0.034370 0.073704 -0.016731 -0.034411 -0.028632 -0.113749 0.114575 0.045021 0.057795 -0.041868 0.051042 0.016848 0.050488 -0.108209 0.045830 -0.077758 -0.068885 -0.101989 0.079452 -0.054177 -0.117514 -0.097182 -0.009288 0.010500 0.041397 -0.077579 -0.033161 0.133817 0.015695 -0.056197 0.090342 -0.051252 0.027747 -0.031475 -0.102830 0.018344 -0.111965 0.028952 -0.037175 -0.051317 0.150444 0.035402 0.031623 0.013489 0.076403 0.016122 0.055631 -0.075123 0.027297 0.036087 0.034073 0.052905 0.121802 -0.045414 0.149244 -0.009852 0.069431 0.058393 -0.154307 0.026120 -0.027603 -0.057005 -0.027561 -0.132253 -0.089716 -0.117517 -0.071028 -0.010913 0.042883 0.044111 0.032479 0.069367 0.152441 -0.060607 0.126275 0.161487 -0.017761 -0.061208 -0.012973 0.077473 -0.012385 -0.035740 0.071987 -0.088885 0.132634 -0.097041 -0.201461 -0.084298 0.003984 -0.100424
croatian 0.110896 -0.106186 -0.068758 -0.065559 0.020634 -0.084011 0.041266 -0.006859 0.044575 0.018794 0.010584 -0.012184 -0.008357 0.065459 -0.082638 0.032795 0.059627 -0.116504 0.044996 -0.027356 0.000076 -0.088854 0.068451 0.092815 0.043926 -0.049462 0.111292 -0.098437 -0.071789 0.093999 -0.008258 0.042133 -0.094561 -0.153184 -0.037057 -0.138109 -0.211669 -0.044960 -0.011559 -0.008937 -0.094109 -0.118775 0.092991 -0.032778 -0.001984 0.163342 -0.075789 -0.198337 -0.067900 -0.162092 -0.110495 0.039827 -0.017794 0.032016 0.030294 0.072125 0.037704 0.061064 0.109193 -0.068326 0.102256 0.015167 0.017825 -0.066619 0.039801 -0.084648 -0.006530 0.046262 -0.042916 -0.006852 -0.000803 -0.135506 -0.029604 -0.066583 -0.091505 -0.049028 0.052923 -0.007576 0.158112 -0.004657 -0.063373 0.151414 0.016168 -0.078116 -0.025495 -0.119553 -0.052503 0.055040 0.039409 0.029552 0.005832 0.075793 0.017279 -0.044064 0.010376 -0.054579 -0.170089 0.044395 -0.160389 -0.034937 0.005953 0.122267 -0.019938 -0.030835 -0.069413 0.043530 0.054117 -0.022238 0.065024 0.116271 0.011247 0.010125 0.011332 -0.056891 0.013293 0.107985 -0.033138 -0.141911 -0.010981 0.134984 0.033809 -0.082710 0.130989 -0.017255 0.008982 -0.079280 -0.015903 0.014237 0.040712 -0.032313 -0.032607 0.026155 -0.026246 0.009229 -0.046709 0.039140 0.014594 0.159159 0.002432 0.031593 0.070804 0.048636 0.041130 -0.005101 -0.095637 0.028314 -0.175170 0.048649 -0.095086 -0.045206
argentina -0.042967 0.016725 -0.011455 0.098454 -0.012246 0.062622 0.148705 -0.001945 0.011964 0.214068 -0.148480 0.062004 0.051231 -0.027584 -0.064757 -0.041064 -0.059697 0.026651 -0.038368 -0.071212 0.136554 0.194789 0.028687 0.110758 -0.065427 -0.004190 -0.052289 0.026617 -0.023938 0.096045 0.002498 -0.026122 0.144994 0.022189 -0.027592 -0.096960 0.071012 0.011446 -0.072980 0.154019 0.046933 -0.075890 0.042247 0.072939 0.014084 0.077205 -0.040962 0.071117 -0.065998 0.091727 0.025049 0.064840 -0.019353 0.022727 -0.012854 0.157500 0.058781 0.134395 0.036611 -0.067881 0.014005 -0.111324 -0.022961 0.025680 -0.012235 -0.011012 -0.063933 0.064710 0.045972 -0.039383 0.131692 0.019157 0.154938 -0.013203 0.019046 0.111091 0.022729 -0.010610 0.096852 -0.075767 -0.072657 0.027494 -0.078708 -0.073395 -0.101984 -0.060839 0.033346 -0.001927 -0.090962 0.021876 -0.018066 0.056783 0.017507 -0.029206 -0.010748 0.005902 -0.010906 0.015145 -0.126150 -0.027711 0.105725 0.096607 0.120829 0.068732 -0.009020 0.103008 0.056574 -0.053888 -0.083076 0.079262 -0.087207 0.133813 0.071117 -0.073601 0.070508 0.041038 -0.011923 -0.029517 -0.030781 -0.052216 0.046714 -0.037604 0.001690 0.139690 -0.167252 -0.021295 -0.136322 -0.140990 -0.021044 -0.004381 0.078591 0.008761 -0.046142 0.045447 -0.075270 -0.019528 0.104549 0.096910 -0.023676 0.108182 -0.006570 0.015778 0.112415 -0.076063 -0.062670 0.056929 -0.002560 -0.019379 -0.069262 -0.023205
vietnam -0.081448 0.015048 -0.122293 0.041422 -0.081564 0.163404 0.068845 -0.030925 -0.028334 0.111870 -0.030525 0.007602 -0.041455 -0.129294 -0.217838 -0.122356 0.102431 0.062705 0.025677 0.091796 0.007132 -0.074624 0.129907 -0.174351 0.072531 0.019575 -0.001789 0.015816 0.032568 -0.065028 0.100608 -0.027377 -0.081907 0.053654 0.099015 -0.047569 -0.069111 -0.015540 -0.027295 0.084596 0.109616 -0.104145 -0.000004 -0.132887 -0.102088 0.149906 -0.009069 -0.059268 -0.015283 0.010771 0.073305 -0.090720 -0.008505 -0.161637 0.062307 0.079408 0.022861 -0.073305 0.001487 -0.142545 -0.212799 0.024518 -0.016037 -0.068229 -0.030401 0.024214 0.039900 -0.050511 -0.008817 0.000905 0.112208 -0.060035 0.021844 -0.084251 -0.065014 0.114809 -0.013821 -0.129181 -0.084211 0.021128 -0.074139 0.192575 0.104534 0.069114 -0.134860 0.088322 0.077084 0.015113 0.016677 -0.016785 -0.012109 0.076558 0.017843 0.002722 -0.038838 0.073962 -0.030442 -0.021790 0.021997 0.043328 -0.020495 -0.129351 0.106917 0.036206 0.018877 0.032923 0.093054 -0.073964 -0.029909 0.015581 -0.054506 0.027218 0.222234 0.043632 0.023320 -0.038159 -0.081787 -0.099987 -0.093740 0.068335 0.117358 0.099477 -0.019434 -0.083235 0.043580 -0.037240 0.040587 -0.057751 0.057055 0.132830 0.057745 0.029255 0.041797 -0.068309 0.088549 -0.002021 0.021266 0.104652 0.023747 -0.058441 -0.060851 -0.038426 -0.078386 -0.140878 -0.020485 -0.012090 -0.090643 -0.150768 0.009793 -0.014626
norwegian -0.131877 -0.095680 0.053435 -0.074237 0.004332 0.014339 0.080863 -0.060405 -0.005904 0.130295 0.035308 -0.046473 -0.029108 0.099137 -0.076621 -0.033604 0.093318 0.008731 0.040846 -0.042115 0.002387 -0.033778 -0.068925 -0.047132 0.066562 0.014330 -0.098884 -0.052990 0.175120 -0.112753 0.004149 -0.100324 0.030706 -0.081412 -0.017667 -0.034758 0.092659 0.081470 -0.008035 -0.104772 0.011136 -0.195971 0.014053 -0.102188 -0.012628 -0.007466 0.099938 -0.046821 0.002436 0.030400 0.140951 0.003807 -0.109100 -0.086307 0.077807 0.027147 0.134679 -0.158504 0.027201 -0.024682 0.038548 0.100065 -0.041799 -0.024439 -0.076892 0.081006 0.088320 0.086224 0.016289 0.076714 -0.163094 0.099228 0.081310 -0.013712 0.075104 0.047658 0.008017 -0.094769 0.145221 0.031388 0.188668 -0.044269 -0.137329 0.151193 -0.116433 0.003210 0.017733 0.031053 0.082951 0.111358 0.040333 0.145208 0.075849 -0.084077 0.134244 0.008298 -0.049705 -0.150514 0.078127 0.085328 0.031775 -0.002206 -0.122572 0.051376 -0.014429 0.056350 0.077980 -0.034039 0.038129 -0.081827 -0.074891 -0.004215 -0.023687 0.136906 -0.006921 -0.009381 -0.092571 -0.097063 -0.122496 0.021835 0.125102 -0.138767 -0.148169 -0.035889 0.021923 -0.026313 -0.024912 -0.088792 0.036000 0.041208 0.098011 0.021847 0.099161 -0.188934 0.078534 -0.013965 -0.115722 0.008281 -0.046755 -0.003524 -0.084624 -0.028180 -0.073698 0.116445 0.153369 0.034642 -0.106806 -0.010271 0.090348 0.003721
professionally -0.193682 0.022470 0.039916 0.017524 -0.021849 -0.131272 0.113040 0.048848 0.066892 0.086960 -0.029512 0.055714 0.059338 -0.107292 -0.097938 -0.047679 0.076481 -0.020216 0.002773 0.016683 -0.015310 0.070155 -0.003637 -0.008489 -0.016028 -0.056781 -0.091098 0.103272 0.020021 -0.027102 0.119207 -0.007392 -0.096871 0.059023 0.014344 -0.011997 -0.018991 0.110690 -0.156718 -0.062182 -0.092589 -0.110282 0.049314 -0.058665 0.075999 0.101362 0.083829 -0.027721 0.120735 0.046112 0.075643 0.000773 0.080725 -0.071730 0.089885 -0.058972 0.092453 -0.085744 -0.022303 -0.058365 0.057969 -0.010893 -0.048751 0.058205 -0.007875 -0.009473 0.060981 0.108994 0.074737 -0.055930 0.169558 -0.074227 -0.015228 0.059224 0.041348 -0.129706 -0.137008 0.129582 0.133745 0.045365 -0.014062 -0.016347 -0.037105 -0.035811 0.150675 -0.003426 0.016573 0.021883 -0.009519 -0.004744 0.019803 -0.037166 0.040942 0.030014 0.070542 -0.024033 -0.022328 -0.032249 0.019511 0.093954 -0.053796 0.065063 -0.086001 0.000853 0.088983 -0.059589 0.004808 0.037305 -0.024967 0.092888 0.047357 -0.092501 0.085063 0.018598 0.000081 -0.079238 -0.176790 -0.037188 -0.059134 -0.009969 0.051369 -0.019633 -0.081403 0.010411 -0.137121 -0.105282 -0.099972 0.014808 0.038632 0.082000 -0.004316 -0.153166 -0.006106 0.005598 -0.009618 0.099444 -0.122835 0.017761 -0.074593 -0.037348 0.073900 0.022913 -0.108867 -0.035365 -0.008691 -0.013447 -0.191621 -0.010645 0.125771 0.030843
argentinean 0.023473 0.096246 -0.099052 -0.017215 0.080223 -0.046191 0.069862 -0.080339 0.019072 0.131357 0.000139 0.019364 0.097035 -0.000447 -0.098787 -0.103425 -0.014483 0.097233 -0.092967 0.002941 0.033534 0.131893 0.129545 0.088264 0.041070 0.122642 -0.109250 -0.021701 0.088127 0.075254 -0.084607 -0.078542 0.077904 -0.017989 -0.086287 -0.042454 0.001928 -0.026126 -0.051026 0.172326 -0.016904 -0.016489 0.027650 0.007071 0.067644 -0.116936 0.026651 -0.064045 0.076467 -0.113697 0.011167 0.004549 0.143012 -0.025394 -0.046761 -0.037659 0.187621 0.075486 0.052871 0.135643 0.045127 -0.102689 -0.080618 0.059610 -0.024527 -0.039615 0.086008 0.062649 0.033592 -0.096844 0.023035 -0.090307 0.185279 -0.109555 -0.003955 -0.106197 -0.053148 -0.000105 0.178382 0.102790 0.034744 0.048139 -0.148970 -0.045095 -0.169224 -0.012434 0.069556 0.007415 -0.098781 0.030033 0.091253 -0.011107 0.049806 0.136958 0.041098 0.004402 0.084792 -0.095558 -0.112162 0.010824 0.004965 0.079205 0.031289 0.046082 -0.046309 -0.083617 0.051864 -0.012084 -0.124999 0.067382 -0.183542 0.277721 -0.055121 -0.130290 0.155915 0.037742 -0.092693 -0.038657 -0.047448 -0.083625 0.081038 -0.100564 0.062768 0.054425 -0.245348 0.063167 -0.101881 -0.016981 0.052102 0.069264 -0.071823 -0.011159 0.079947 0.012513 -0.078530 0.070338 0.234237 0.082649 0.068014 0.058771 -0.141119 0.040546 -0.070343 0.013734 0.020922 0.151316 0.061666 -0.054425 -0.013326 0.020649
louder 0.080186 0.045835 0.085286 0.009733 -0.000793 0.017545 -0.074294 -0.099741 0.002657 -0.001491 -0.007688 0.067397 -0.065233 -0.098833 -0.127258 -0.038479 -0.026359 0.025180 0.054833 -0.002320 -0.014510 0.001591 0.088315 0.072387 -0.014940 0.115901 0.023852 -0.006068 -0.146035 0.149251 0.080029 -0.098658 -0.183005 0.043850 -0.029166 -0.086289 -0.085316 -0.097820 0.002533 0.020305 -0.062780 -0.009715 0.106911 0.023392 0.039628 0.027619 0.074663 -0.001112 0.010089 -0.176072 0.077324 -0.023893 -0.034191 -0.021425 -0.083817 0.025712 0.012729 -0.119713 0.069928 0.040063 -0.097665 0.061508 -0.103843 -0.004406 -0.069033 -0.043075 0.011356 0.001088 0.082593 -0.036420 0.113722 0.022332 -0.078596 0.111865 0.041521 -0.044281 -0.026365 0.034823 -0.041282 0.002835 0.070905 0.082277 -0.105637 -0.190581 0.019508 -0.138873 0.103570 -0.056184 0.082240 -0.028842 -0.051024 0.028199 0.001740 0.038597 -0.006733 -0.054111 -0.038838 0.113634 -0.170966 0.107155 0.011846 -0.034234 0.077998 0.061257 0.024936 -0.033048 -0.088426 -0.002409 0.002051 0.158972 -0.036988 0.026660 0.033446 -0.002951 -0.115344 -0.037622 -0.070224 -0.064759 -0.038864 -0.072249 0.026776 0.092474 0.051247 -0.003241 0.014053 0.085888 -0.098244 0.128558 0.060171 0.175417 -0.010658 0.009200 0.020911 -0.063864 -0.064851 -0.071718 0.037726 0.041081 0.006736 0.147072 0.060414 0.009144 0.002850 -0.082268 0.002484 0.108429 -0.003419 0.059945 0.124081 -0.001494
chicago 0.137736 -0.136564 0.053774 -0.104278 0.079438 -0.000057 -0.063687 0.032722 -0.021296 0.177418 -0.175045 -0.049348 0.003890 0.097152 -0.132169 -0.011965 -0.071631 0.098747 -0.022264 -0.005975 0.006591 0.122229 0.020980 -0.145510 0.136820 0.068789 -0.017005 -0.112445 -0.119942 0.043663 0.022564 0.120736 -0.153311 0.096399 0.007612 -0.042853 -0.054650 -0.068929 0.095920 0.051309 -0.121820 0.072241 -0.041942 -0.029022 0.052158 0.018181 0.004469 -0.219465 -0.077083 -0.030714 -0.016815 0.040333 -0.033974 -0.013730 0.102748 0.032454 0.179295 0.156736 -0.054445 -0.013309 0.018964 -0.178506 0.080990 0.089119 0.052027 0.038934 -0.083816 0.090251 -0.006845 -0.085299 0.065919 -0.078635 0.094814 -0.166079 0.035271 0.060676 -0.062177 0.058527 0.128009 0.085934 -0.116724 0.063483 0.060313 -0.192648 0.037989 -0.087772 0.128474 -0.125044 0.096792 0.006518 0.131673 -0.111750 0.079912 0.073440 0.026949 0.056068 0.075004 -0.063988 0.169151 -0.016998 0.050566 -0.006668 0.090975 0.022657 0.074105 -0.043726 -0.022090 0.048872 0.015190 0.080089 -0.026232 -0.047319 -0.051914 -0.119004 0.049503 -0.067143 -0.018344 -0.027092 -0.004306 -0.134071 0.047486 -0.011526 0.033472 -0.112441 0.024970 -0.063396 0.063968 0.079407 0.081942 0.093836 -0.016376 0.076092 -0.017361 0.060169 0.011568 -0.051251 -0.010439 0.017882 -0.008985 0.030493 0.016091 -0.133656 -0.030693 0.004460 0.065588 -0.008555 -0.126844 -0.064238 0.062437 -0.105174
move -0.022403 -0.083511 0.058847 0.031436 -0.013873 -0.019600 0.020457 -0.047812 0.167241 0.123912 0.143869 -0.136296 -0.133060 -0.047577 -0.041956 0.066920 0.002040 0.104619 -0.043877 0.073203 0.012663 0.053250 -0.032500 -0.073803 -0.158232 -0.031307 -0.048029 0.025847 0.051956 -0.080315 -0.029605 0.099634 -0.013582 0.053780 -0.112182 -0.029765 0.042545 0.014628 0.075967 0.128001 0.010712 0.106731 -0.047973 0.037608 -0.026801 -0.093646 -0.022349 -0.048740 -0.086921 -0.053685 0.105417 -0.017056 -0.013172 -0.013801 0.094522 0.084750 0.225708 0.014452 0.008768 0.024271 0.041827 0.001315 -0.029378 -0.018427 -0.214472 -0.061693 -0.069411 -0.071035 0.024542 0.043187 0.031177 0.063146 0.095022 0.006166 0.020829 0.006493 0.004980 0.001031 0.016766 0.063394 -0.014851 0.112447 0.126119 -0.120392 -0.046527 -0.018708 -0.073241 0.180465 0.189437 0.004218 0.083783 0.127552 -0.006160 0.082017 0.004359 -0.031203 -0.044711 -0.113159 -0.070279 -0.024975 -0.061374 0.106024 0.001423 0.108633 0.069057 0.010636 0.002195 -0.150760 -0.005281 -0.025828 -0.138633 0.083655 -0.004391 0.051647 0.064453 -0.063635 -0.055338 0.112078 -0.136723 0.049634 0.093852 0.032071 0.110075 0.143005 -0.193506 -0.042607 -0.010132 -0.012846 0.174072 -0.061531 -0.025411 0.096469 0.162336 -0.052084 0.018527 0.178941 -0.054002 0.085183 -0.056465 0.004197 -0.028505 -0.104680 0.028374 -0.036566 0.176039 0.019838 -0.016587 0.029578 0.096806 -0.097693
thailand -0.129032 0.101151 0.028353 0.066870 0.251773 0.071654 -0.031485 -0.105861 -0.052054 -0.010619 0.182759 -0.078403 -0.018416 0.145128 -0.122264 0.019855 -0.180666 0.150155 0.115122 -0.026429 0.094623 -0.005629 0.047806 0.037293 -0.074252 -0.120101 -0.105493 -0.090522 -0.015052 0.020228 0.113397 -0.044915 0.104068 0.109435 -0.158360 0.010920 0.165688 -0.003568 -0.023058 0.000292 0.111002 0.095935 -0.110817 0.016508 -0.043516 0.121662 -0.069342 -0.021419 0.052259 -0.067790 0.015914 -0.152100 -0.034131 -0.050660 -0.205855 0.023268 0.031409 0.027953 -0.019912 0.061871 0.010439 0.103129 -0.034472 0.039040 -0.038960 -0.033752 0.017915 0.213065 -0.022455 0.006528 0.049957 0.051602 0.005878 -0.036248 0.132195 0.024452 -0.029331 -0.065031 0.058505 0.055381 -0.088955 0.015175 -0.108566 -0.075628 -0.138273 0.013323 -0.049033 0.172239 0.174330 0.040385 -0.020789 0.008783 -0.009079 -0.097607 0.005241 -0.056029 -0.041733 0.138843 -0.054402 0.059479 0.121922 0.021489 -0.022143 -0.064042 0.026540 0.161589 0.117095 -0.033209 -0.028940 0.067177 -0.060808 0.112326 0.027362 -0.017055 0.109545 0.118739 -0.006394 0.070935 -0.142887 -0.079206 0.022751 0.003601 -0.017165 -0.053869 -0.100141 -0.047068 -0.051085 0.065023 0.208119 0.012283 0.024069 0.119883 0.142562 0.049577 0.150161 -0.029278 0.066807 -0.014764 0.020482 0.141812 0.090859 -0.001380 0.013359 -0.121025 0.115049 -0.131643 -0.060483 -0.044150 -0.016604 -0.037689
ukraine 0.020985 -0.010948 -0.010403 -0.040026 0.180271 0.042524 -0.097095 -0.009036 0.092534 0.048912 -0.068507 -0.019705 -0.000987 -0.014412 -0.037476 -0.136891 0.082668 0.055788 0.096649 -0.107643 -0.016419 0.039944 0.155849 -0.031537 -0.168159 -0.014530 0.009223 -0.013574 -0.077373 -0.012093 0.087064 -0.006048 -0.098057 -0.019833 -0.032817 0.001316 0.205918 -0.034034 -0.148171 -0.093391 -0.016459 -0.026099 -0.124734 0.044513 0.026935 0.121806 0.035390 -0.034545 -0.004684 -0.095387 -0.087641 0.093229 0.098110 0.054936 0.008457 -0.025391 0.056852 -0.087401 0.115292 -0.059938 -0.049167 0.092713 -0.088295 -0.041988 -0.052174 -0.080911 0.102997 0.222144 -0.006747 -0.008419 -0.088417 0.126335 -0.014207 -0.099228 0.065863 0.087465 0.068687 -0.027331 0.102998 0.009582 0.115368 0.074654 -0.054520 -0.020274 -0.057723 -0.034259 0.004997 0.120162 0.011388 -0.087799 -0.005163 0.072630 0.096560 0.038249 -0.015657 0.001995 -0.106657 0.037530 0.116834 0.058881 0.122374 -0.024809 0.131969 -0.082528 -0.122508 -0.006402 0.038810 0.001908 0.082627 0.009289 -0.034324 -0.088772 0.015708 0.031472 -0.066226 -0.100137 -0.023880 -0.099435 0.010893 -0.145833 0.048811 -0.017819 0.125195 -0.181179 -0.113425 0.159492 0.077187 0.105855 0.054775 -0.050520 0.027733 0.061931 -0.075786 0.049496 0.121350 0.046453 -0.125974 0.073356 0.151718 0.027042 0.063659 0.101812 0.095305 -0.016199 -0.101938 -0.067427 -0.188528 0.122189 0.090925 -0.007023
plano -0.042861 -0.200141 -0.006378 0.002677 0.060090 0.073609 -0.134250 -0.155621 -0.010380 -0.059174 -0.006608 -0.002881 0.067382 -0.001781 -0.086906 -0.047118 0.078624 0.074579 -0.051235 0.019034 0.056200 0.106048 0.088324 -0.046080 0.016976 -0.030581 -0.047630 -0.061152 -0.043740 -0.128362 0.111596 -0.074531 -0.005846 -0.003413 -0.022508 -0.142716 -0.070684 -0.153628 0.040096 -0.090599 0.003080 0.053597 0.003119 -0.037949 0.089035 0.036791 -0.032043 0.117728 -0.064374 0.022409 0.057879 0.179499 -0.025884 0.104624 -0.054512 -0.092433 0.067510 -0.106478 -0.050086 0.011365 0.016326 0.070895 -0.040047 0.118619 0.062873 0.126503 -0.194346 0.116533 -0.024878 -0.004418 0.032299 0.025233 0.029710 -0.097237 0.048829 0.094859 -0.051814 -0.020359 0.069560 0.096266 -0.032433 -0.044001 -0.025636 -0.045638 0.100865 -0.193269 0.026345 -0.024009 0.157213 -0.151601 0.175231 -0.016906 0.048856 -0.044722 0.004765 -0.035564 -0.074973 0.162820 -0.164987 -0.081876 0.051315 -0.027964 -0.085739 0.127202 0.050930 0.088557 0.071277 -0.055216 0.195247 0.023471 0.032119 -0.210684 0.073092 -0.082570 -0.068788 -0.057757 0.050516 -0.031503 0.001236 0.106745 -0.019260 -0.006781 0.039858 0.020539 0.150441 0.089505 -0.095232 0.022408 0.051036 0.011385 0.098537 -0.064387 0.065481 -0.041973 0.013265 -0.042241 -0.111568 0.078541 0.013929 0.031422 0.014000 0.019029 -0.023111 -0.078809 0.039287 0.076642 0.031974 0.000930 0.059871 0.061459
texas -0.006613 -0.118585 0.042735 -0.026032 -0.000276 0.208901 -0.128903 -0.126212 0.012346 0.076287 0.149163 -0.064055 0.016852 0.240501 -0.145810 -0.081779 0.028845 0.134977 0.008965 -0.095756 -0.000747 0.086534 0.125371 -0.033517 -0.116973 0.037677 0.014670 -0.017336 0.051982 -0.096044 0.068135 -0.071618 -0.017735 -0.008420 -0.009131 -0.058275 -0.028015 -0.005147 -0.095470 0.003412 0.067964 0.038348 0.184248 -0.068935 0.038344 -0.029207 0.020176 0.035594 -0.063910 -0.131252 0.062987 -0.003679 -0.048637 0.097388 -0.183096 -0.059272 -0.016874 -0.157398 -0.030331 0.048155 -0.018717 0.012425 0.032829 -0.019165 0.039916 -0.011033 -0.196860 0.030909 0.036925 -0.033678 0.079583 0.047118 0.127406 0.058437 0.002063 -0.047382 -0.079713 0.034274 0.060329 -0.007939 -0.008156 0.029192 -0.010355 -0.102094 -0.027267 -0.168924 -0.079524 0.005408 0.028099 -0.119436 0.183115 0.084054 -0.006725 -0.131518 0.071178 -0.038375 -0.099595 -0.031495 -0.240753 -0.092091 0.146835 -0.009963 0.006552 0.035508 -0.086677 0.091776 0.065773 0.010536 0.109590 -0.021363 0.006461 -0.037444 -0.052879 -0.110158 -0.094448 -0.020033 -0.056265 -0.111880 0.004629 -0.008859 0.048998 -0.011454 -0.031722 -0.040092 0.007709 0.120968 0.030260 -0.055856 0.079818 -0.118815 0.052710 0.003035 -0.068658 0.033555 -0.088354 -0.086435 0.039935 -0.030313 0.024414 0.022601 -0.008091 -0.092971 0.004327 -0.155448 0.001973 0.154240 -0.077336 0.015979 0.003880 0.061698
tough 0.010189 -0.004881 0.136985 0.037783 -0.097347 0.075059 0.049024 -0.094986 0.012575 0.100206 -0.127335 0.049715 -0.108765 0.067170 -0.188503 -0.010878 -0.043512 -0.001872 -0.120117 -0.003130 0.068106 0.049889 0.074488 0.050979 -0.028671 -0.007278 -0.123584 -0.092086 -0.000276 -0.010373 0.025607 0.031443 -0.103305 -0.028159 0.162832 -0.037661 -0.111379 0.028048 -0.159644 -0.071121 0.005054 -0.068977 0.046887 -0.192868 0.013563 0.086127 -0.007694 -0.030430 0.081923 0.130010 0.011028 -0.027098 -0.163576 -0.148083 0.056625 0.010282 0.081969 0.048264 0.089555 -0.018136 -0.058325 -0.093753 0.056304 -0.057690 0.097798 -0.024494 0.064816 0.022004 -0.118627 0.022208 -0.019386 0.076611 0.064776 0.066424 -0.093696 0.078481 -0.050572 -0.083417 -0.036100 0.085960 0.111563 0.079169 -0.112543 -0.097393 0.047151 -0.036154 0.064322 0.066784 -0.034454 -0.035440 0.024205 0.148432 0.151780 0.130931 0.011647 0.055423 -0.029905 -0.010959 -0.107058 0.046494 -0.017977 -0.008276 -0.039156 -0.071893 -0.118674 -0.077413 0.188629 0.039922 0.136181 0.066174 -0.083998 -0.002629 -0.033413 -0.003542 -0.067696 -0.053836 -0.165354 0.019680 0.084972 -0.096028 -0.075253 -0.040035 0.109798 -0.136806 -0.004480 -0.061899 0.058540 -0.045327 0.000188 -0.036990 -0.062826 0.092564 -0.068533 -0.076342 -0.027169 -0.101607 -0.087658 -0.055417 0.011830 0.047404 0.010321 0.175720 0.024012 -0.033066 -0.144369 0.059977 -0.095288 0.018416 -0.021246 0.127548
flying -0.007300 0.145535 0.173972 0.048686 -0.027863 -0.053815 0.066663 -0.150389 -0.174785 0.018876 -0.155563 -0.015504 0.103298 -0.087277 0.043002 0.010028 -0.061714 0.052247 0.131636 -0.055326 0.011527 -0.016932 0.142062 -0.010337 0.091983 0.108753 -0.077853 -0.083497 -0.127735 0.061078 0.090358 0.007073 -0.130409 -0.253177 0.038190 -0.175590 -0.069893 -0.062905 0.103572 0.068893 0.055453 -0.024227 0.040463 0.100213 -0.015740 -0.098830 0.170275 0.158117 0.094931 -0.046637 0.001112 0.030830 -0.005846 0.021336 0.027283 0.034022 0.064941 -0.039712 -0.067437 -0.038999 0.015165 0.025771 -0.059523 0.065778 0.023292 0.007270 -0.028718 0.016437 -0.055757 0.068827 0.059633 -0.084602 0.001812 0.010587 0.075233 0.041823 0.074141 0.015236 0.057755 -0.005506 -0.045032 0.148145 0.036978 0.139813 -0.030702 0.034201 -0.019489 0.139978 0.024735 0.037434 0.027512 -0.109675 0.086702 -0.056046 0.016823 -0.106382 -0.032507 0.051090 0.080080 0.077581 0.035720 -0.023085 -0.002125 -0.012199 0.075647 -0.087137 0.060724 0.076161 0.121847 0.066496 0.001022 -0.127133 0.022455 0.047284 0.015972 0.148315 -0.027836 0.028561 -0.127768 -0.003343 0.092895 -0.137070 0.063515 -0.052614 -0.045146 -0.025011 -0.038162 0.010916 0.084094 0.020838 0.044125 0.129584 -0.015731 0.061197 -0.030728 0.082884 -0.012573 0.013608 -0.055382 0.089680 0.112243 0.026972 0.030119 -0.064880 -0.043063 0.013648 -0.044813 0.108277 -0.044152 -0.006749
iraq 0.082405 0.033975 -0.026223 0.144615 -0.064235 0.019716 0.022520 -0.085019 0.009001 0.112982 0.070001 0.063339 0.049806 0.140479 -0.081457 0.078470 0.064543 -0.010429 0.014525 -0.043384 -0.011837 -0.069358 -0.023769 -0.048770 0.027304 -0.073850 -0.039960 0.027828 0.017804 0.001898 0.157228 -0.056149 0.035646 -0.093485 -0.099897 -0.145299 -0.088159 0.038569 0.058349 -0.043696 -0.171895 -0.033901 -0.107867 -0.153473 0.082608 -0.050679 -0.074386 -0.008059 -0.012386 -0.004430 0.015982 0.077621 -0.094545 -0.005349 -0.055243 0.015763 -0.014832 0.053810 -0.117839 -0.053017 -0.020821 0.023683 0.088442 0.060885 -0.077119 -0.026300 0.009582 0.085847 -0.051541 -0.080595 0.050948 -0.007989 0.007893 0.043103 -0.005184 -0.052766 0.096291 -0.020044 -0.007475 -0.131771 -0.091575 0.029095 0.055005 0.015199 -0.022022 -0.103843 -0.053561 -0.005025 0.031963 0.143868 -0.056244 -0.005810 0.046805 0.027322 -0.077911 0.011797 -0.107301 -0.169408 -0.026105 0.011648 -0.130726 0.100419 0.078021 -0.051473 0.025800 0.004481 0.112576 -0.010625 0.124702 0.057697 -0.122570 0.018262 0.019399 -0.147061 -0.077706 0.047874 -0.092984 0.005200 -0.154133 0.154175 -0.073405 0.033260 0.056839 -0.114829 0.054185 -0.081997 -0.145000 0.050480 -0.106227 -0.138113 0.009486 -0.071053 0.035693 0.128008 -0.103177 0.001338 -0.023287 0.101167 -0.060943 -0.027034 -0.051595 -0.108899 -0.022634 -0.113741 0.012759 0.165727 -0.085332 -0.031058 0.049123 -0.058644
professional -0.138211 -0.048465 -0.108786 0.034475 -0.057302 -0.095517 -0.016969 -0.073890 0.000758 0.113409 -0.141864 0.066169 -0.026703 -0.113481 -0.018343 0.000202 -0.083469 0.010336 0.138739 -0.063813 0.012027 0.059659 0.137096 0.031644 0.141760 0.022597 -0.001609 -0.027753 0.048032 -0.065676 0.170122 0.094767 -0.023280 0.020412 0.072739 -0.082168 -0.102236 0.024550 -0.054289 -0.057465 -0.100481 0.023443 0.120904 -0.222298 0.070267 0.046447 -0.044571 -0.146095 0.003125 0.019459 0.092586 0.052644 0.047507 -0.043560 -0.008036 -0.032011 0.027202 -0.060000 0.014596 -0.041332 0.105815 0.102992 -0.151327 0.129388 0.081119 0.004404 -0.008891 0.118934 0.089675 -0.175876 0.055255 0.060641 -0.121918 0.047382 -0.028626 -0.189103 -0.083502 0.076428 -0.027658 -0.026467 -0.024001 0.002676 -0.151392 0.067129 0.042735 0.020656 0.091859 0.066442 0.051623 -0.076587 0.025843 -0.018313 0.015445 0.028067 0.052445 0.090553 -0.099735 0.002506 0.049478 0.019376 -0.025230 -0.014101 -0.075964 -0.079609 0.090246 -0.073755 -0.070277 0.046862 0.100586 0.095249 -0.060580 -0.093167 0.117540 -0.021714 0.108699 -0.115512 0.008856 -0.101918 -0.065438 -0.000234 -0.036981 0.019629 0.028562 -0.007138 -0.044356 -0.022038 0.039459 -0.133722 -0.024128 0.077026 0.075279 -0.015492 0.036681 -0.014001 -0.109390 0.143268 0.036960 0.069094 -0.118733 -0.066687 0.026187 -0.054230 -0.030105 -0.037536 0.081578 0.050455 -0.058102 -0.000558 0.048531 -0.033119
fly -0.016781 -0.056740 0.040199 -0.127565 -0.038557 -0.017580 -0.065364 -0.013874 -0.014725 0.052763 -0.260566 0.040270 0.099677 0.162934 -0.030677 -0.010866 0.003360 0.146359 -0.015080 0.096209 -0.041853 0.024935 0.090746 0.092759 0.102211 0.105683 0.025870 -0.103858 -0.224052 -0.097198 0.126457 0.056126 -0.004454 -0.090358 -0.009111 -0.076382 0.019538 0.017639 0.047441 0.028685 -0.015542 -0.104466 -0.049471 0.025900 0.103977 0.010736 0.005030 -0.059644 -0.027854 -0.075240 -0.016800 0.016736 0.015248 0.060577 -0.028452 -0.102638 0.162467 0.014552 -0.029811 0.037275 -0.025183 0.007240 -0.028649 0.035821 -0.041362 0.022091 -0.004620 0.059910 0.004102 0.048985 -0.023258 -0.056909 0.011889 -0.055955 0.018753 0.048007 0.014800 -0.059013 0.083920 0.006474 0.050810 0.175046 -0.002246 0.080512 -0.192436 -0.056717 -0.071923 0.121797 0.044673 0.072779 -0.047385 -0.082074 0.021644 0.039888 0.048859 -0.064120 0.042162 -0.050424 -0.019117 0.022365 -0.025980 -0.071432 -0.040347 -0.094437 0.106111 0.011135 0.134440 0.116042 0.027982 0.075905 -0.009397 -0.047053 -0.066386 0.036748 0.129332 0.110666 -0.118871 -0.042888 -0.101685 -0.035510 0.004863 -0.040642 0.099189 0.082310 -0.046715 -0.073596 -0.057540 0.089038 0.066504 0.069072 -0.106499 0.059843 -0.024912 -0.091125 -0.084442 0.156196 0.013691 -0.046876 -0.066859 -0.024910 -0.024132 -0.017599 0.079189 0.050438 -0.003107 -0.101612 -0.122693 0.020114 0.052767 -0.070888
danish 0.014525 -0.000939 -0.057366 0.081264 -0.053528 -0.024184 0.023410 -0.155199 -0.138869 0.039361 0.088306 0.012401 0.031118 -0.011779 0.084963 -0.046845 0.075125 -0.034641 -0.095697 0.074887 -0.159619 -0.071311 0.024770 0.087313 0.045835 0.104430 0.052851 -0.110899 0.027992 0.174526 0.088068 -0.076677 0.075344 -0.093812 -0.034383 -0.199576 -0.088542 0.110469 -0.134932 -0.054877 0.043832 -0.103662 0.101988 -0.167016 0.080792 0.099882 -0.116556 -0.035394 0.091264 0.041650 -0.112782 0.041382 -0.045103 0.055272 0.021566 -0.069890 -0.005030 0.045538 -0.073621 -0.003342 0.068988 -0.029305 -0.073686 -0.024504 0.001194 -0.050045 -0.137241 0.008217 -0.019421 -0.123486 0.036856 0.090267 0.005526 -0.048435 0.006054 0.176578 -0.026632 0.045052 0.144239 0.098523 -0.026889 -0.008129 0.043905 0.033271 0.087859 -0.005940 -0.067925 0.106206 0.048668 -0.134886 -0.028683 0.072493 0.123344 0.044082 0.045718 -0.055541 -0.034588 0.020332 -0.071594 -0.081097 0.002936 0.148340 0.073182 0.036894 0.047817 -0.057877 0.065553 -0.149928 -0.120135 0.072482 -0.076612 0.114803 -0.033127 0.027391 -0.030952 -0.004053 -0.083026 -0.122225 -0.089794 0.104567 -0.178453 -0.123884 -0.022284 0.110392 0.034277 0.007994 -0.045177 -0.025526 -0.000968 0.002635 -0.046501 -0.027904 -0.072365 0.033121 -0.025766 0.142452 -0.122375 0.161006 0.030108 0.067472 -0.056514 0.043776 -0.118917 0.000263 0.000099 0.032081 -0.128375 -0.057190 0.107216 0.033762
denmark 0.108384 0.139286 -0.109005 0.056855 0.137855 0.057652 0.115002 -0.127206 0.005189 0.124149 0.100218 -0.020739 -0.127280 0.064828 -0.081115 0.023826 0.049267 -0.106173 -0.017973 0.007984 -0.040393 0.045198 0.036751 0.243712 -0.059791 0.063712 0.052619 0.076188 -0.101710 0.062927 0.031168 -0.039219 -0.074157 -0.039440 -0.026088 0.063658 -0.099048 0.063446 -0.121516 -0.016691 -0.105183 -0.173728 0.001784 -0.034513 0.116308 0.168581 -0.103920 -0.118048 0.019844 0.075246 -0.088840 -0.047776 -0.028559 -0.074261 -0.006404 -0.055881 0.001770 0.058992 -0.051242 0.126675 -0.115323 -0.087112 -0.083353 0.077827 -0.011173 -0.065884 -0.063236 -0.014587 0.139610 -0.063779 0.099095 -0.063342 -0.054430 0.033405 0.055585 0.033198 0.003044 0.043115 0.015977 0.041458 0.034381 0.127503 0.061043 -0.060626 0.135087 0.024845 -0.039110 0.029254 0.037252 -0.075413 -0.073006 -0.026275 0.115684 -0.004238 0.143393 -0.001921 -0.021994 -0.044579 -0.086972 -0.086204 0.019607 0.012182 -0.040005 -0.041264 0.006278 -0.018244 0.115980 -0.076932 -0.067273 0.089020 -0.087373 -0.019154 0.071347 0.126166 -0.087479 0.078768 -0.108337 0.013142 -0.086753 -0.107000 -0.125947 0.109810 0.073082 0.048434 -0.157372 0.067303 -0.063647 0.011558 -0.100630 0.146197 -0.040099 0.058060 -0.020745 -0.187175 0.024063 0.110285 -0.133012 0.009017 -0.022578 0.078268 0.041774 0.022003 -0.078876 -0.013264 0.067011 0.081600 -0.124775 0.035920 0.196335 0.078857
croatia 0.061979 -0.111112 -0.002714 -0.059415 0.011175 -0.030883 -0.057578 -0.105144 0.077377 0.085172 0.013787 -0.050541 0.038813 0.105518 0.015293 -0.020738 0.072127 0.017106 0.021548 0.039609 -0.102915 -0.047035 0.007337 0.087002 0.044111 0.030229 0.113730 -0.104030 -0.193606 0.032348 0.071827 0.079858 -0.044193 -0.027054 -0.080610 -0.077301 -0.157394 -0.089101 0.034886 0.029813 -0.060714 -0.091603 0.043882 0.008738 -0.058918 0.031114 0.080944 -0.092109 0.030669 -0.126424 -0.079501 -0.066937 -0.218216 0.081208 -0.000724 0.031991 0.213630 -0.021901 -0.013720 0.007290 0.040063 0.032348 -0.035990 0.038956 0.030230 0.057450 0.016284 0.070079 -0.056069 -0.029419 -0.026713 -0.188260 0.011434 0.038672 0.042762 -0.057287 -0.004784 0.038394 0.072415 0.036438 0.009802 0.013514 0.097519 -0.098524 -0.047396 -0.129250 -0.087303 0.080122 0.091831 0.078381 -0.031015 0.147599 -0.053490 -0.097035 0.017292 -0.108996 -0.116658 -0.056314 0.065053 0.058776 0.026313 0.047322 -0.180069 -0.038955 0.026422 0.006549 0.013425 -0.049755 -0.019288 0.084470 -0.055929 -0.153524 -0.119089 -0.027069 -0.013118 0.109859 0.002688 -0.140224 -0.111934 0.002050 -0.049517 0.087618 0.023398 0.063242 0.048677 -0.068966 -0.068394 -0.029336 0.142667 -0.018931 0.060294 0.003154 -0.028978 -0.048756 -0.093966 0.015590 0.033434 -0.031908 -0.048031 0.029007 0.156208 -0.014462 0.026213 -0.102845 -0.097070 0.008028 -0.040630 0.150886 0.099246 -0.066606
