hanoi 0.033232 0.082177 -0.000449 0.126758 -0.123926 -0.072560 0.077269 0.004172 0.157717 -0.030479 -0.072264 -0.015464 -0.110926 -0.135955 0.209738 -0.082324 0.042458 -0.116001 -0.021752 -0.084982 -0.070792 -0.059346 0.070096 0.014306 -0.017234 -0.004634 -0.100600 -0.079794 -0.118554 -0.032698 -0.026836 0.075420 0.001017 0.083990 -0.105511 0.202276 0.066692 0.101696 -0.045415 -0.208477 -0.035851 0.029192 0.028347 0.123708 -0.156981 0.003995 0.010617 -0.117718 0.022260 -0.028299 0.017340 0.122616 -0.026738 0.004241 0.004360 0.071532 0.176598 -0.094939 0.042725 0.201124 -0.073095 0.027282 -0.016695 0.097110 -0.077337 0.034206 -0.117421 0.031177 0.074493 -0.078643 -0.113910 -0.138319 0.128640 -0.197618 0.127428 0.050237 -0.308937 0.035556 0.074277 -0.009985 -0.115037 0.219172 0.047955 0.111370 0.022974
tougher 0.012023 -0.036989 0.023326 0.028848 -0.113216 -0.064946 0.077396 0.048354 -0.090794 0.119359 0.007708 -0.089680 -0.098290 0.078198 -0.180645 -0.015436 0.101926 0.004267 0.017518 -0.039235 -0.028655 -0.154274 0.219049 0.123157 0.049072 0.063364 -0.081053 -0.182470 0.006971 -0.016893 -0.100058 -0.023204 -0.154106 -0.097843 0.084143 -0.072660 0.011334 -0.113336 0.078064 0.017615 -0.170985 0.042366 -0.098351 0.054964 -0.194188 0.057065 0.120078 0.049796 0.200775 -0.050412 -0.072225 -0.121465 -0.025885 0.009409 0.029601 -0.051215 0.154387 0.134022 0.073499 0.195383 0.048127 0.034583 -0.111649 -0.098464 -0.155677 0.177905 -0.042346 0.079180 -0.163840 -0.104927 -0.094806 0.034466 0.062011 -0.026966 0.080557 0.031921 0.078321 0.123454 0.120338 -0.111191 0.100527 0.137848 -0.004368 0.023609 -0.015135
occasionally 0.070424 0.023332 0.047638 -0.034959 -0.191490 -0.002915 0.032446 -0.044676 -0.260563 0.090004 -0.004725 0.191491 -0.062271 -0.038598 0.003126 0.013761 -0.100025 0.048632 -0.042627 -0.069932 0.132909 0.000899 -0.161750 -0.016586 0.119169 0.107347 -0.037876 -0.200440 -0.159664 0.129194 -0.028579 -0.061963 -0.042185 0.000656 0.071183 0.052515 0.126990 0.015659 0.001693 -0.059898 -0.083235 0.098459 -0.005339 0.052093 0.143361 0.124032 -0.246084 0.110218 -0.006069 -0.002076 0.016193 0.157404 0.090642 0.058705 -0.131598 -0.046345 0.078507 0.029773 0.026346 0.035646 0.148334 0.008113 0.139301 0.155199 -0.041022 -0.067679 -0.220979 0.099676 0.039438 0.043023 0.056505 0.107323 -0.076156 -0.000002 -0.064193 -0.064588 -0.273128 -0.038203 0.093783 -0.014940 0.036677 0.024543 -0.249287 -0.012682 -0.074244
ukrainian -0.142183 -0.019740 0.005129 0.104585 0.004468 0.030607 0.089474 0.072223 0.059167 0.019339 -0.012190 0.028935 0.052201 0.088943 -0.059894 -0.011039 0.116102 -0.072224 -0.008551 -0.014675 -0.024937 -0.003301 -0.015991 -0.168060 0.012891 -0.063107 0.087629 0.013906 0.012335 0.058381 0.025776 0.093196 -0.016189 0.197862 0.028815 0.097805 0.114755 -0.071412 -0.007003 0.094526 -0.013790 -0.078561 0.141613 0.190083 0.042444 0.138393 0.224073 -0.199083 0.048754 -0.032794 0.127602 0.035654 0.021527 0.139286 -0.123694 0.030082 -0.026019 0.011668 -0.125111 0.053641 0.007408 0.107531 0.093893 -0.025250 0.013627 0.026077 0.163868 0.130858 0.186380 -0.109577 0.063330 0.040229 -0.153882 0.050392 -0.067299 -0.191682 -0.111200 -0.245996 -0.215101 -0.016435 0.178352 -0.156881 0.013071 0.005584 0.033867
occasional -0.037267 -0.045760 0.003171 -0.163706 -0.202909 -0.043488 0.016880 -0.030182 -0.264520 -0.083464 -0.080610 0.153660 -0.076001 0.071346 0.082922 0.133533 0.065672 0.052941 -0.035438 -0.045593 0.012587 -0.063535 -0.161232 0.075088 -0.021004 0.030144 -0.054017 -0.067122 -0.030318 0.182249 0.124270 0.098838 -0.139559 0.069439 0.098235 -0.086217 0.110525 -0.013687 -0.020309 -0.043466 -0.006216 0.084066 0.092686 0.035730 0.180900 0.345063 -0.033100 0.185447 0.146305 -0.071459 -0.018894 0.011019 0.053704 0.062076 -0.017191 0.098930 0.028488 0.008986 -0.007800 0.070137 0.084826 0.086540 0.136747 0.174663 0.016942 -0.039418 -0.057577 0.131094 -0.086988 -0.032210 0.059983 0.006383 -0.109369 -0.037184 -0.090272 0.072654 -0.076620 -0.044124 -0.022589 -0.033896 -0.021187 -0.036082 -0.123016 0.116500 -0.125577
norway -0.173433 0.195617 -0.002071 0.016337 0.008430 0.105478 -0.129331 0.159385 0.044600 0.031552 -0.046989 -0.070213 -0.002926 0.063637 0.005974 0.239832 0.070707 0.009584 -0.155660 -0.051558 -0.001850 0.022622 0.064309 -0.118911 -0.150853 0.042273 0.041787 -0.049439 0.085835 0.188972 0.050761 -0.023458 -0.019596 0.091879 0.096011 -0.075522 0.062159 0.122022 -0.155365 -0.056797 -0.207964 -0.110373 0.089125 -0.048865 -0.136576 -0.019769 0.085009 0.089230 0.010871 -0.063921 0.009580 -0.171535 0.080058 0.031392 -0.030653 0.063439 -0.056652 -0.020338 0.026981 0.119536 0.111469 0.143692 -0.107616 0.191087 0.155143 0.042167 0.060472 -0.110050 -0.063309 -0.094892 0.187097 0.078183 -0.087882 -0.016844 -0.141184 0.066124 -0.000056 -0.021058 0.126506 -0.022929 -0.073557 -0.013216 0.056230 0.077904 0.014057
baghdad -0.027143 0.042417 0.026548 0.033651 0.023535 0.001581 -0.136922 0.054982 -0.166369 0.050842 -0.055458 -0.113574 -0.083568 0.140480 -0.045789 -0.072521 -0.168541 0.154664 0.102367 -0.007972 -0.043012 0.112392 0.017682 -0.103178 0.174929 -0.011797 -0.115518 0.100208 -0.075288 -0.004244 -0.103680 0.159982 0.177075 -0.075714 0.028334 0.135113 0.009263 -0.130731 0.028289 0.122358 0.091795 0.060077 0.081321 -0.030204 -0.032561 0.121184 0.006824 0.137962 0.079418 -0.228547 -0.027286 -0.085236 -0.130147 0.102132 -0.089948 -0.041829 0.032913 -0.048856 0.031138 0.021192 -0.174713 0.095520 -0.234051 0.043201 0.108881 0.177314 -0.096782 -0.032904 -0.168592 -0.113434 0.117198 -0.002658 0.127688 0.029161 0.254819 -0.044517 -0.024711 -0.021263 0.029777 0.030904 0.100660 0.142615 -0.089753 -0.091863 0.065296
illinois 0.320260 -0.160347 -0.130861 -0.052234 -0.097812 -0.050013 -0.006065 0.215308 -0.094272 -0.117266 -0.044121 -0.000215 0.027948 -0.015378 -0.124796 -0.127141 -0.021229 0.090956 -0.073993 0.092370 0.115454 0.018411 -0.037463 0.047768 -0.036378 -0.024888 -0.145190 -0.272494 0.055309 0.097886 -0.035397 0.117409 0.003569 -0.070671 -0.110912 0.062666 0.051068 -0.219468 -0.019117 -0.005856 0.101983 -0.055118 0.000182 0.083936 -0.145525 -0.048231 -0.113763 0.156747 -0.127019 -0.099667 0.089833 0.191651 -0.010279 -0.027239 0.052804 -0.054843 -0.024400 -0.001053 -0.138734 -0.016512 0.083935 0.064854 -0.065229 -0.010609 0.006734 0.015044 0.042931 0.024470 -0.084995 -0.072012 -0.009975 0.075386 0.027985 0.088091 0.033774 0.022441 -0.182451 -0.108980 0.091510 0.082691 -0.009542 -0.065337 -0.021253 -0.132263 0.062849
moving 0.107320 -0.001713 -0.140096 0.007260 0.010303 -0.106396 -0.106173 0.021070 0.026976 0.050711 -0.022329 0.018399 -0.100325 0.062726 0.196106 0.114007 0.092919 -0.135323 0.037572 -0.014648 -0.110119 0.006751 0.066880 0.089394 0.076190 -0.009269 -0.052034 0.001652 0.090866 0.095406 -0.125293 -0.083483 -0.035859 -0.155642 -0.152467 0.107796 0.038552 0.042738 -0.095810 0.091066 0.058846 -0.018711 -0.177402 -0.112167 0.025275 0.248988 0.123465 -0.043057 0.116027 -0.081084 0.318658 0.014339 0.053581 0.010419 -0.264920 0.199252 -0.003722 -0.088919 0.025895 0.009093 -0.033911 -0.045597 0.091775 0.001604 -0.148459 -0.021700 0.032230 -0.019857 0.031785 0.182172 0.033085 0.042866 0.042148 -0.174215 0.076174 -0.288347 0.276272 -0.108046 0.001575 -0.022771 0.103295 -0.034898 0.065104 -0.067564 0.030249
loud 0.089787 -0.014020 0.018625 0.010489 0.018279 0.150477 0.014592 0.098479 -0.006681 -0.029008 0.145843 0.050323 -0.090282 0.005473 -0.067822 0.035804 -0.006239 0.013355 0.068943 -0.109669 0.156786 0.181124 -0.155770 0.008511 -0.037034 -0.072450 -0.154863 0.022172 0.015404 -0.009344 -0.142433 -0.074076 0.031140 -0.000755 -0.018964 0.125744 0.155770 -0.096838 -0.007237 -0.090458 0.260628 0.033991 0.025485 0.035921 0.027008 0.039039 0.124819 -0.162859 -0.050235 -0.119570 -0.030641 -0.087336 -0.137993 0.019579 -0.022874 0.187653 0.125760 -0.058192 0.012909 0.141342 -0.106054 0.194414 -0.137928 0.044502 -0.059920 -0.000282 -0.144218 0.018478 -0.145565 -0.000931 0.051097 -0.080594 0.086415 -0.085481 0.063113 0.188868 0.012727 0.118262 0.013240 0.009372 -0.056623 0.103031 -0.072662 0.038548 -0.210881
thai 0.184167 -0.116702 -0.041323 -0.123107 -0.021460 -0.000335 0.012506 0.063430 -0.158294 -0.014387 0.124648 0.051141 0.054797 0.084100 0.050960 0.012008 -0.126320 -0.055412 0.040186 -0.071239 -0.046738 0.042106 0.146872 -0.095640 -0.080065 -0.121414 -0.125949 -0.068003 -0.015733 -0.006216 -0.090291 0.032512 0.012514 0.124064 0.040627 -0.160287 0.022999 -0.024448 -0.226136 -0.012075 -0.009070 0.034615 -0.219050 -0.011478 -0.037523 0.059818 -0.111681 -0.073487 0.159867 0.117169 -0.059494 0.126926 0.046222 0.069742 0.056305 -0.043295 -0.087573 -0.159545 -0.132362 0.047442 0.063176 -0.113632 0.135205 -0.001137 0.034098 0.069437 -0.053330 -0.051929 -0.130847 0.075036 0.077669 0.010908 0.013261 -0.069446 0.089604 -0.120342 -0.040180 -0.216807 0.187925 -0.016608 -0.011402 -0.011186 -0.046972 0.110735 -0.165648
croatian 0.091419 0.009656 0.093091 -0.077284 -0.010238 -0.221881 0.047140 0.194977 -0.209979 0.072109 -0.097020 -0.115358 -0.109362 0.005226 -0.067804 0.001522 -0.110295 -0.109801 -0.083790 -0.083289 -0.026913 -0.042353 0.027452 0.112547 0.069610 -0.044546 -0.087268 0.025550 0.100352 0.146926 0.027697 -0.134768 0.004576 0.064647 -0.181579 0.134607 -0.049768 -0.138945 -0.040616 0.107670 -0.021848 0.031390 -0.028100 0.203967 0.063480 -0.094821 0.040723 -0.065495 0.030859 0.127276 0.050156 0.102464 -0.138073 -0.045056 0.129600 0.139472 -0.132799 -0.211011 0.165019 -0.045422 -0.061935 0.073577 -0.012097 0.255663 -0.045984 0.038430 0.169497 -0.111179 0.028365 0.051704 -0.000415 0.141235 -0.065560 0.030576 0.079986 -0.071079 -0.014490 0.057665 0.111929 -0.131156 -0.119991 -0.070554 0.099287 0.165356 0.018729
argentina -0.029432 0.034213 0.110510 -0.051336 0.181062 -0.137762 -0.081522 0.043304 -0.039171 -0.178660 0.118903 -0.194959 -0.167605 0.096273 -0.026260 0.001493 -0.017383 0.056505 -0.107384 0.042460 0.055878 -0.021984 0.003294 -0.016194 0.156418 0.023365 -0.086785 -0.002363 0.055627 0.160017 -0.010494 -0.035702 -0.239099 0.158700 -0.028499 0.055661 -0.107798 -0.003435 0.013899 -0.070507 -0.041149 -0.068182 -0.137198 -0.132478 0.002427 0.003644 -0.062416 -0.234601 0.070841 -0.043249 -0.033853 -0.009813 0.086740 -0.003139 -0.046098 0.138850 -0.197817 0.129355 0.021760 -0.094118 -0.135508 -0.011617 -0.038417 -0.100893 0.061109 -0.123201 -0.044500 -0.001014 -0.163530 0.003935 -0.117070 0.008078 0.158292 -0.071259 -0.031129 -0.163307 -0.159330 0.004516 0.072660 0.026069 0.033997 -0.007970 -0.045740 0.134313 0.046915
vietnam 0.176389 0.107888 0.112477 0.297556 -0.203782 -0.046569 -0.013892 0.006789 0.117842 -0.083525 -0.020533 0.060269 0.005185 -0.087906 0.087350 -0.135711 -0.049356 -0.093593 0.152693 -0.109112 0.026709 -0.182746 -0.002241 0.031310 -0.016166 -0.042791 -0.064726 0.003560 -0.132458 0.112617 0.079177 0.085717 0.009079 0.079499 0.029920 0.143228 0.041407 0.167580 -0.101665 -0.201952 0.056536 -0.080196 -0.144731 -0.019443 -0.016210 -0.116841 0.083014 -0.086446 -0.089231 -0.197271 0.058261 0.081363 0.060770 -0.022697 -0.009826 0.140835 0.146583 -0.051334 0.037840 0.073201 0.127338 0.043423 -0.137746 0.091464 -0.167530 0.002026 -0.125371 0.126587 0.081331 -0.049283 0.084371 0.068752 0.112575 -0.204372 0.105103 0.046379 -0.170341 0.065741 -0.060553 0.001910 -0.040094 0.143216 0.054674 -0.070370 0.156453
norwegian -0.045057 0.229364 0.003320 0.040005 -0.013124 0.070146 -0.115792 0.099624 -0.019719 0.106485 -0.114962 0.030017 0.034117 0.091876 0.126358 0.105069 0.118427 -0.041215 -0.145673 -0.101765 -0.027777 -0.076962 0.140055 0.008303 -0.162174 -0.076630 0.225099 -0.114814 0.016128 0.220201 -0.050576 0.111173 0.103202 0.073991 0.187870 -0.103440 0.095953 0.191694 0.001122 -0.031561 -0.226910 -0.168344 0.058386 -0.099611 -0.300999 -0.014000 0.027643 0.057098 0.056910 0.033656 -0.044134 -0.169755 0.087257 0.046350 -0.163841 0.054791 0.047177 -0.066341 -0.147337 0.131709 0.048315 0.242204 0.007546 0.129763 -0.086126 0.112926 0.153646 -0.041626 -0.006751 -0.050364 0.034396 0.010861 -0.079932 -0.046892 -0.056152 -0.040500 0.056390 -0.067873 0.048798 -0.052549 -0.188114 0.009761 0.047710 0.053933 -0.002920
professionally -0.026776 -0.062913 0.057700 0.030627 0.036963 -0.026293 -0.008263 0.090289 0.038137 -0.055097 0.147565 0.035748 0.032097 0.074641 0.039515 0.108455 -0.170060 0.272679 -0.206892 -0.083530 0.137536 0.056999 -0.080568 -0.020249 0.039009 0.146385 -0.093186 -0.160241 -0.139202 0.077786 0.059426 0.226764 -0.001561 0.033049 0.025820 -0.045876 -0.051788 0.098031 -0.070030 0.071902 -0.001053 0.067017 0.045641 0.093236 0.028668 0.126058 0.096308 0.125672 0.094245 0.083274 0.010916 0.070195 -0.007628 0.132792 0.167692 0.120119 0.037414 -0.124100 -0.140232 0.003079 -0.071683 0.141790 -0.075783 0.046152 -0.184979 0.129868 0.134922 0.067670 -0.116762 -0.062978 -0.025812 -0.141632 -0.076724 0.092393 0.009225 0.024742 -0.037145 0.059192 -0.037670 0.028419 0.030067 -0.021370 0.052721 -0.012144 -0.140538
argentinean 0.032833 0.029973 -0.107278 0.062205 0.190365 -0.071436 -0.102397 0.088576 0.077526 0.007694 0.072391 -0.015503 -0.172057 -0.047462 0.167762 -0.122221 0.021070 0.075398 0.057206 -0.023239 0.050850 -0.000335 0.025432 -0.171530 0.050772 -0.020927 -0.225654 0.078168 0.036669 0.052958 -0.089201 0.049951 -0.196548 0.033390 -0.030513 0.044473 0.029770 -0.142454 -0.178411 -0.024292 0.044392 -0.040987 -0.228143 -0.122370 0.037831 0.021816 -0.005576 -0.305008 0.179984 -0.076467 -0.098573 -0.031795 0.038328 -0.015840 -0.067340 -0.061765 -0.025334 0.060927 0.002353 -0.041164 -0.169880 -0.009459 -0.204147 -0.076989 0.144661 -0.010139 0.102804 -0.025210 -0.142748 -0.001977 -0.125732 -0.054275 0.017078 -0.020636 -0.020289 -0.151352 -0.224022 -0.071778 0.072925 0.153298 0.097473 -0.045213 0.001551 0.099814 0.076227
louder 0.033770 -0.027384 -0.010030 0.110637 -0.026936 0.102686 0.075398 0.036413 -0.022488 -0.146103 0.267283 0.132868 -0.041522 -0.076203 -0.107225 -0.083852 0.008284 0.020152 0.109101 -0.070930 0.020940 0.039886 -0.034159 -0.066396 0.056107 0.050030 -0.018715 0.153578 0.076035 -0.014947 -0.105425 0.068049 -0.032635 0.092691 0.026868 0.072146 0.174022 -0.066138 -0.016374 -0.105334 0.247963 -0.031524 -0.034623 0.188275 0.027595 0.097990 0.002826 -0.133872 -0.026840 -0.195077 -0.165688 0.048184 -0.140986 -0.016874 -0.070053 0.196930 -0.000061 -0.071630 -0.080869 0.148351 0.059329 0.194911 -0.058647 -0.015007 -0.134014 -0.000807 -0.016867 -0.004386 -0.072253 -0.028699 0.037411 -0.181669 0.322581 0.104804 -0.020654 0.055737 -0.037270 -0.046090 -0.089573 -0.019499 -0.017826 0.049743 -0.060619 0.025999 0.088774
chicago 0.196420 -0.148893 0.049751 -0.201464 -0.238034 0.063665 0.115353 0.040807 -0.003862 0.060318 0.128384 0.012124 0.068005 0.093685 -0.068395 0.143084 0.115397 0.079121 -0.094212 0.196284 -0.001684 0.110001 -0.057432 0.084999 -0.022937 -0.026190 -0.208432 -0.081182 -0.061913 0.096307 0.060057 0.157257 -0.014094 -0.086701 0.159630 0.151364 0.091596 -0.303287 0.044751 -0.001682 0.101592 -0.188260 0.092206 -0.104706 -0.050929 -0.008243 -0.170278 0.005253 0.098785 0.007011 0.146254 0.133053 -0.050629 0.054322 -0.060298 0.218214 -0.128014 0.117299 -0.037207 0.054529 0.189479 0.025531 0.006279 -0.017631 -0.102809 0.022459 -0.054959 0.007006 0.078419 -0.118122 -0.099264 0.005402 0.127356 0.086422 -0.023183 0.108051 -0.263764 -0.108707 0.142652 -0.059120 0.030259 0.084551 0.053878 0.067294 0.085623
move 0.034040 0.138334 -0.075018 0.060169 -0.001260 -0.129066 -0.028023 -0.081953 -0.013283 -0.055168 0.085638 0.022523 -0.026120 0.036229 0.187738 0.071647 0.035765 -0.048880 -0.065595 -0.104782 -0.047524 0.082065 0.001680 0.019048 -0.110641 0.030177 -0.030071 -0.183128 0.014214 0.045735 -0.055739 -0.117275 -0.102577 0.059032 -0.136192 0.106918 -0.098419 0.004097 -0.084855 0.043151 0.110868 0.058126 -0.021458 0.001466 -0.058050 0.143336 0.015636 -0.052849 0.182555 -0.052034 0.222953 0.025560 -0.009614 0.049330 0.050505 0.198028 -0.070933 -0.123474 -0.022293 0.016589 -0.024926 0.121851 0.055418 0.099866 -0.137436 -0.040550 -0.011225 -0.077158 0.086397 0.005338 0.121239 0.177174 0.022096 -0.034040 -0.036948 -0.098962 0.143961 -0.050018 0.012707 0.083225 0.035440 -0.122188 0.001047 0.130269 0.041497
thailand 0.053322 0.023077 -0.086818 -0.058873 -0.056511 0.103888 0.171455 0.072573 0.008356 -0.069288 -0.080471 0.014849 0.071860 0.031100 0.058718 -0.053340 0.029006 0.037422 0.083574 -0.156736 -0.040474 -0.117334 0.104087 -0.053415 0.082731 -0.254347 -0.048238 -0.185492 0.147672 0.036540 -0.009267 -0.009044 0.041322 0.057687 -0.022878 -0.043423 0.024671 -0.138310 -0.162243 -0.041901 0.062876 -0.019007 -0.074809 -0.005245 -0.059940 0.011924 0.017534 -0.134108 0.166294 0.143360 -0.143903 0.052861 0.060636 0.175827 -0.120835 -0.052177 -0.096077 -0.285298 -0.102483 0.024886 0.204491 -0.048019 0.078461 0.003882 0.064310 0.055244 -0.016017 -0.011852 -0.131690 -0.020637 -0.009504 -0.001483 0.009708 0.036083 0.056875 -0.160774 0.011174 -0.096338 0.182096 0.113170 -0.101089 -0.130607 -0.013154 0.125351 -0.004408
ukraine -0.056486 0.040352 0.042643 0.150277 -0.041997 0.231761 0.118373 0.058165 0.122365 -0.126841 0.100000 -0.019182 0.005452 0.074916 -0.128161 0.107532 0.081123 -0.169389 0.107953 -0.118806 0.020189 -0.076097 -0.140131 -0.191322 0.048268 -0.072824 0.057300 0.015843 0.000602 0.021239 0.017575 -0.003825 -0.012742 0.115888 0.127001 0.172941 -0.170191 0.096197 -0.000797 0.114597 -0.015606 -0.066065 0.080711 0.115513 -0.012290 0.060202 0.236919 -0.052875 0.014086 -0.246719 0.013156 0.001405 0.001112 0.034179 -0.093272 -0.172316 -0.062608 0.011388 -0.091921 0.078932 0.017291 0.179421 0.012594 -0.001510 0.040172 0.073405 0.171877 0.060352 0.022142 -0.209176 -0.000547 -0.028208 0.060630 -0.135266 -0.070910 -0.082477 -0.062820 -0.126912 -0.099322 -0.054715 0.188167 -0.194584 0.093127 0.073840 -0.009528
plano 0.063136 0.075802 -0.109512 0.097350 0.034354 0.122559 0.138052 0.157233 -0.103074 0.126773 -0.091523 -0.006963 0.033548 0.110813 -0.099483 -0.033213 0.015871 0.147597 -0.265782 0.165483 0.065782 0.074771 -0.184643 0.040030 -0.084052 0.131543 -0.019924 0.142186 0.171813 -0.038004 -0.064689 0.021042 -0.002302 0.108176 -0.108744 -0.025805 0.095921 -0.011704 0.085134 -0.004352 -0.015281 -0.139611 -0.093370 -0.125839 0.042847 0.014872 -0.035347 -0.048990 0.028385 -0.169387 -0.093744 -0.081381 -0.074413 0.082698 -0.129653 -0.014685 -0.165336 -0.098922 -0.050984 0.081370 0.026547 0.114045 -0.028621 0.075619 -0.090920 -0.041188 -0.007328 -0.031271 0.012750 0.080425 -0.184586 0.105326 0.087297 -0.097496 -0.054459 0.037532 -0.139843 0.005408 0.022917 -0.025139 0.168919 0.104588 0.155478 -0.050867 -0.256838
texas 0.062124 -0.013582 0.112389 0.018690 0.111696 0.009189 0.106359 0.089220 0.017754 0.057346 -0.117595 0.007917 -0.075030 0.057133 -0.044130 0.021413 0.085563 0.174914 -0.135369 0.075294 0.186464 0.003392 0.082602 0.130414 -0.290197 0.161404 -0.078638 0.104389 0.071540 -0.015795 -0.133115 -0.077874 -0.046652 0.122798 -0.083918 -0.037647 0.017318 -0.050063 0.040391 0.152979 -0.004829 -0.015349 0.025673 0.084137 -0.041151 -0.007020 -0.101137 -0.032665 -0.112600 -0.149894 -0.082720 0.050367 -0.050110 0.121491 -0.114419 -0.059532 -0.161966 -0.007003 -0.039210 -0.009481 0.022269 0.130892 0.010274 0.127239 0.019062 -0.271680 0.100728 -0.005940 -0.115524 0.119597 -0.021445 0.105248 0.087940 -0.133325 -0.011769 -0.116544 -0.023322 0.051288 0.197511 -0.159616 0.106553 0.069776 0.111525 -0.098275 -0.163012
tough -0.050936 0.120255 0.119489 -0.100771 -0.143505 -0.026342 0.081332 0.103389 -0.053531 0.128821 0.123384 -0.098835 0.055516 0.071309 -0.055297 0.160148 0.080430 0.032090 0.173060 -0.152978 0.014463 -0.069347 0.164050 -0.033747 0.109656 0.015536 0.077612 -0.069428 -0.152920 0.032422 0.070257 0.093219 -0.119943 0.085270 -0.042387 -0.186998 0.047553 0.011232 0.085335 0.007211 -0.081319 0.010384 -0.163849 0.079391 -0.092536 0.012061 -0.065586 0.031731 0.018676 -0.090412 -0.003908 0.079023 -0.119626 0.048672 -0.078514 -0.117979 0.226151 0.035629 0.069457 0.070361 -0.093204 0.017185 -0.152776 -0.109161 -0.152100 0.270717 0.074496 0.090355 -0.097413 -0.079825 -0.111595 0.046480 0.056927 -0.074115 -0.047816 -0.102671 -0.060560 -0.042748 0.013759 -0.211217 -0.036453 0.210581 -0.014120 -0.038476 0.022046
flying 0.025510 0.076337 0.038256 0.111267 -0.073290 -0.030379 0.004193 0.026363 -0.122121 0.043618 -0.050928 -0.258566 0.010641 0.061118 -0.124299 0.161883 0.030282 0.045884 -0.137400 0.077188 0.129954 -0.056772 -0.264254 0.108960 -0.070990 -0.050284 -0.108577 0.037067 -0.030091 -0.072737 -0.126677 0.018829 0.062884 -0.034352 -0.101370 -0.126549 -0.107342 0.023225 -0.158273 -0.011286 0.143447 0.001357 0.096726 -0.045825 0.128927 -0.164443 0.128632 0.028341 0.136984 0.105677 0.007822 0.100316 0.096587 0.086738 0.008945 -0.036986 0.068395 -0.106269 0.060035 -0.060431 -0.079264 -0.042333 -0.001288 -0.011643 -0.177915 -0.135880 0.016770 0.090066 -0.106573 -0.081606 0.172840 -0.131957 0.170185 -0.036950 0.071290 -0.135320 0.086095 -0.145450 -0.016402 -0.198358 0.135823 -0.025265 -0.200987 -0.048668 0.078908
iraq 0.096045 0.008883 -0.054626 0.016220 0.037261 -0.065460 -0.227807 0.107803 -0.180043 0.037225 0.127328 -0.124635 -0.106499 0.103853 -0.074226 0.005065 -0.103115 0.008762 0.135889 0.061382 0.153170 0.032513 -0.054516 -0.102665 0.051675 -0.060749 0.071710 0.110295 0.047018 0.073299 -0.189345 0.016487 -0.023197 -0.237954 0.044837 0.122652 0.068999 0.009995 -0.055772 0.128265 -0.010697 0.029720 -0.106079 -0.075905 0.172529 -0.010017 0.130970 0.034415 0.048020 -0.156329 0.068180 -0.057893 0.066465 -0.002368 -0.019030 -0.007744 0.094456 -0.025748 0.104483 -0.050083 -0.104310 0.119266 0.003645 0.019124 0.026426 0.130086 -0.109969 -0.017335 -0.114724 -0.048388 0.134154 0.073482 0.156022 0.062188 0.090890 -0.071432 -0.058865 -0.005758 0.111441 0.067061 -0.012127 0.009284 -0.060673 0.076161 -0.057925
professional 0.087301 -0.093205 0.140481 -0.089406 0.011326 -0.062180 0.107649 0.067464 -0.109158 0.008989 0.191117 -0.084950 -0.028883 0.069707 -0.027623 0.032363 -0.160663 0.147031 0.012998 -0.070406 0.014596 -0.006106 -0.132694 -0.083568 0.051307 0.038730 -0.062471 -0.000967 -0.064140 -0.031503 -0.114247 0.112947 -0.075369 0.164039 -0.031318 -0.115942 -0.070390 0.106149 -0.007004 0.109766 0.021912 0.023346 0.004620 -0.066101 0.095270 0.157401 0.002180 0.183982 -0.038482 -0.033921 -0.054954 0.043641 -0.083104 0.114966 0.062336 0.008128 0.049911 -0.091255 -0.138620 -0.114418 0.016905 0.128105 -0.041748 -0.101629 -0.152263 0.218616 0.095861 0.177528 0.005990 -0.113478 0.044733 -0.141365 -0.063328 -0.055492 0.003800 0.011365 -0.062228 -0.222327 0.030468 -0.080666 0.096594 0.046732 0.039109 0.030061 -0.019459
fly 0.053603 0.080456 0.110309 0.024842 -0.045689 -0.014318 0.029301 -0.030846 0.161841 0.063027 -0.082555 -0.110698 0.079427 0.076072 -0.028921 0.104007 0.036459 0.094908 -0.272756 -0.028760 0.204947 -0.188671 -0.033123 0.055647 0.002033 -0.074541 0.017406 0.102825 -0.054146 0.090573 -0.024596 0.079742 0.060875 0.052077 -0.043762 -0.027872 0.023528 -0.089193 -0.155984 0.019783 0.100053 0.058344 0.177717 -0.021786 -0.105025 -0.020272 0.002616 -0.146867 0.070343 0.067555 -0.024788 -0.023550 0.113793 -0.054066 0.039805 -0.060934 0.069715 -0.013340 -0.153255 -0.055200 -0.140339 0.044517 -0.066947 0.102942 -0.088350 -0.092683 0.015112 0.098510 -0.117209 -0.079432 0.190918 -0.126585 0.109694 -0.003946 0.059355 -0.180904 0.084724 -0.169586 -0.008743 -0.137137 0.048452 -0.098639 -0.196896 -0.059118 0.151300
danish -0.090378 0.075271 -0.059294 0.138316 0.060168 -0.119057 -0.075569 0.213343 -0.034572 -0.094355 0.008708 -0.034766 -0.062103 -0.042868 -0.000924 -0.037708 -0.113408 0.006621 -0.043253 -0.072454 0.050582 -0.027924 0.179259 -0.234928 0.157536 -0.063058 -0.097371 -0.006856 -0.015565 0.004982 -0.165676 -0.026884 -0.169452 0.040394 -0.037499 -0.087900 -0.030411 0.015144 -0.053098 -0.047117 0.001170 0.148273 0.260360 0.007390 0.262555 -0.205264 -0.042628 -0.078722 -0.012122 -0.110373 0.067784 -0.001918 -0.178224 0.033527 -0.070232 0.001849 0.067585 -0.098218 0.067313 0.189546 0.105209 -0.154194 0.071477 0.090109 -0.051345 0.082584 0.008369 -0.087127 -0.099612 0.015518 -0.055206 0.061279 -0.016292 0.030097 -0.007255 -0.083726 -0.001553 -0.001871 -0.063036 -0.073675 0.053866 -0.144433 0.030739 0.205816 -0.009565
denmark -0.188051 -0.006984 0.069161 0.123305 0.002053 0.005526 -0.129027 0.241604 0.081298 0.002112 -0.020791 0.005100 -0.001937 -0.088434 -0.019223 0.025665 -0.096304 -0.078041 -0.045956 0.020171 0.170255 -0.128849 0.008447 -0.008348 0.016557 0.084994 -0.109116 -0.045906 0.034041 0.016580 -0.115717 -0.121147 -0.019489 0.057141 -0.082916 -0.190932 0.056326 -0.096418 -0.138944 0.005084 0.025043 0.042581 0.119150 0.077246 0.049255 -0.110062 0.060564 0.104822 0.002743 -0.175151 0.013740 0.047427 -0.274818 0.122660 -0.020428 0.063023 0.128446 -0.043883 0.118954 0.155978 0.167321 0.055645 0.072178 -0.024289 0.031232 -0.061967 0.092728 -0.091356 -0.152299 -0.040024 -0.097473 0.044259 0.001970 0.093214 0.033730 -0.051853 -0.007681 0.059494 -0.149143 -0.070720 0.136499 -0.007426 -0.034316 0.097189 0.000580
croatia 0.032821 -0.010383 -0.047376 -0.087737 -0.059624 -0.088470 0.163336 0.109948 -0.102837 -0.033607 0.053286 -0.148449 -0.086615 0.154437 -0.196108 0.060106 -0.031992 0.074322 -0.075672 0.023379 0.037633 -0.067399 -0.122476 0.137497 0.074664 -0.123218 -0.221970 0.117965 -0.009613 0.165996 0.050974 -0.166504 0.003461 0.044798 -0.119160 0.125774 0.078041 0.015321 -0.015246 0.146254 0.076936 0.045008 -0.052715 0.018623 -0.005390 0.006623 0.024450 0.081956 0.003130 0.001766 -0.001372 0.025139 -0.236743 -0.053348 -0.021277 0.036500 -0.100627 -0.060683 0.099300 0.084907 0.025933 0.065393 -0.076288 0.218964 0.088430 0.040759 0.093821 -0.069976 0.035730 0.068027 0.092251 -0.002994 0.039892 -0.063616 0.018396 -0.110896 0.055813 0.052413 -0.024351 -0.035548 0.012150 0.037444 0.036877 0.002844 0.105566
