hanoi -0.140571 0.365829 0.009343 0.047943 -0.116458 0.158865 -0.211759 -0.144871 -0.013037 0.102073 -0.244096 0.214484 0.011841 0.194673 0.156009 -0.003066 0.045261 -0.071482 -0.302373 0.221322 -0.123758 -0.258694 0.045156 -0.429211 0.146170 -0.129505 -0.120641 -0.173110 -0.194574 -0.001719
tougher 0.056933 0.150698 -0.223036 0.074211 -0.112948 -0.156556 -0.066423 -0.005422 -0.000885 -0.114957 0.055154 0.000361 -0.056780 0.276546 0.500849 -0.031740 0.268225 0.184854 -0.113678 -0.282852 0.000819 0.054436 -0.019680 0.308397 0.095811 0.161236 0.115974 0.020047 0.054860 0.080784
occasionally -0.129041 0.089556 0.055617 -0.144821 0.000858 0.244067 0.133810 -0.205696 -0.228021 -0.104891 0.021486 -0.080465 -0.371264 0.172538 -0.088743 -0.092324 -0.062519 0.163059 -0.037739 0.233565 -0.047394 0.337944 0.038977 -0.121749 0.021372 -0.248944 0.267927 -0.144809 0.031466 0.167969
ukrainian 0.009720 0.371239 0.158161 -0.110648 0.153516 0.099224 -0.059291 0.069762 -0.152624 -0.273833 -0.121704 -0.187331 -0.042555 -0.055922 0.218131 -0.044151 -0.131115 0.194863 -0.193792 0.012688 -0.059847 -0.184868 -0.063800 0.234311 -0.010098 -0.070141 -0.100665 -0.041035 -0.170116 -0.134283
occasional -0.190810 0.365460 0.112906 -0.084568 0.034291 0.203893 0.272860 0.061458 -0.028555 -0.155009 0.018983 0.017920 -0.107381 0.055908 0.111317 -0.001586 -0.159843 -0.040078 -0.315958 0.104273 -0.054501 0.025670 0.000573 0.181193 0.031651 -0.287555 0.171440 0.191851 0.111460 0.167332
norway 0.217251 0.041481 -0.226053 -0.076829 -0.070399 -0.052778 0.074413 -0.333917 0.003079 -0.187942 -0.207696 0.073775 0.137495 0.188452 0.268164 -0.140684 -0.168210 -0.058959 -0.083672 0.233992 0.085931 -0.051747 -0.020975 0.047693 -0.170152 0.132506 -0.040363 0.091660 -0.005638 -0.190211
baghdad -0.152429 -0.107272 -0.233055 0.020840 -0.009770 -0.208683 0.075623 0.002124 0.073372 -0.133011 -0.217625 -0.034215 -0.249876 0.156382 0.068522 -0.112916 0.234311 -0.206986 -0.246994 -0.032943 0.147866 -0.202348 0.097056 0.078080 -0.065573 -0.302152 0.290652 0.265195 -0.004354 -0.029939
illinois 0.077936 0.260031 0.022221 -0.180376 0.160730 0.030592 0.157949 -0.347999 -0.009517 0.207501 0.134162 0.205388 -0.214342 0.224679 -0.014101 0.192537 0.206337 0.105068 0.121702 -0.072553 0.122220 0.129843 -0.300059 0.040035 -0.126365 -0.246268 -0.086449 -0.066902 -0.179069 -0.010317
moving 0.045907 -0.252623 0.225185 -0.149669 -0.024694 0.055593 -0.100078 -0.063081 0.197151 -0.204366 0.170076 0.047369 -0.211539 0.302412 0.187966 -0.158633 0.103352 0.033630 -0.059163 0.329186 0.150845 -0.076163 0.140953 -0.044175 -0.147354 -0.027013 0.191827 0.168432 -0.256163 -0.336977
loud -0.267134 0.072066 0.047038 0.104074 -0.234352 0.105441 0.023542 -0.163579 -0.034873 -0.093093 -0.115496 0.030182 -0.158016 0.100235 0.053372 0.106413 0.174854 0.329245 -0.126902 -0.032631 0.223817 -0.164355 -0.025417 -0.073666 -0.171658 0.045295 -0.219983 0.268379 0.271785 0.231234
thai 0.507936 0.287720 -0.157288 0.139677 -0.123994 0.005221 0.334458 0.035838 -0.203882 -0.093430 0.100927 0.213823 -0.077647 -0.048868 -0.031717 -0.057375 0.123685 0.231283 0.098769 -0.126741 -0.028359 -0.028591 0.041322 -0.148289 -0.055067 -0.291054 0.158456 0.098719 -0.315599 0.089136
croatian -0.222792 0.012227 -0.056278 0.263040 0.017502 -0.200749 -0.085681 -0.217692 -0.054211 0.227608 -0.043407 -0.157258 -0.247532 -0.149355 0.095670 0.084278 -0.126790 0.102057 -0.159378 0.023076 0.187045 0.088978 -0.185820 0.111178 -0.308164 0.101112 0.247264 -0.118340 -0.325663 0.236574
argentina -0.128027 0.185767 0.332401 0.057044 -0.183972 -0.133194 -0.323004 -0.075328 -0.290035 -0.117318 -0.100042 0.034692 0.015403 0.020352 0.038818 -0.063345 -0.181101 -0.098254 0.181313 -0.179007 0.042350 0.020740 -0.061376 0.092356 -0.160950 -0.273331 0.115493 0.196668 -0.165420 -0.066418
vietnam -0.049156 0.125022 -0.076489 0.183787 0.000595 0.281975 -0.239975 -0.229888 -0.163377 -0.095989 -0.153268 0.147836 -0.144223 0.043196 0.027334 0.086935 0.280792 -0.195247 -0.134577 0.151263 0.028229 -0.090306 0.119823 -0.147345 0.054557 -0.021089 -0.017255 -0.179309 -0.151364 0.015683
norwegian 0.260759 0.071290 -0.323941 0.134780 -0.044427 0.057708 0.113697 -0.194619 -0.012474 -0.328222 -0.115217 0.010036 0.167415 0.177460 0.329242 -0.192750 -0.306057 -0.022560 -0.029357 0.172285 0.075536 0.050123 0.025885 0.049325 -0.124325 0.006395 -0.065377 0.113426 0.029754 -0.189894
professionally 0.086029 0.221422 -0.091260 -0.126015 0.050044 0.001100 0.044967 -0.255212 -0.050879 -0.163192 -0.245294 0.255973 0.039677 0.199740 -0.142759 -0.015389 -0.157470 0.171779 -0.044334 0.148130 -0.203109 -0.142223 0.308358 0.049695 -0.230089 0.082238 0.025756 0.064894 0.081530 0.112184
argentinean -0.037265 0.168982 0.163463 -0.247639 -0.122674 -0.142304 -0.139444 -0.099540 -0.342063 -0.103462 0.002178 0.014672 0.080394 0.017311 0.090219 0.180001 -0.036670 -0.135897 0.043419 -0.175144 0.143995 0.258957 -0.200740 -0.197219 -0.236919 -0.180189 0.060098 0.427350 -0.022208 -0.119682
louder -0.226265 0.149526 -0.044346 -0.037535 -0.194817 0.051570 0.014914 -0.070130 -0.154240 -0.180628 -0.046618 -0.056218 -0.241868 -0.113488 -0.076473 0.079047 0.234012 0.216057 -0.128914 -0.044803 0.174919 -0.299284 -0.107274 -0.220465 -0.239537 0.077042 -0.092258 0.127708 0.072390 0.096800
chicago 0.059924 0.103712 -0.050156 -0.142400 0.067104 0.160026 -0.252910 -0.056371 -0.345229 0.125353 0.064605 0.137989 -0.110082 0.183608 -0.213391 0.096971 0.121899 0.177870 -0.127085 -0.194480 0.300554 -0.002723 -0.157135 0.173583 -0.127633 -0.162499 0.119455 -0.084951 -0.137746 -0.037492
move 0.219283 -0.173136 0.286663 -0.001211 -0.143975 0.146581 -0.166527 -0.042114 -0.168438 -0.137342 0.274563 0.099036 -0.159762 0.137320 0.043015 -0.037876 -0.018112 -0.145322 -0.115790 0.248729 0.108060 0.037074 0.075891 -0.049488 -0.246591 0.076775 0.256144 0.262601 -0.163926 -0.181780
thailand 0.437634 0.455978 0.002358 0.193432 -0.304336 -0.000948 0.291988 -0.081398 0.117813 -0.071946 0.154532 0.202453 -0.171500 -0.097356 0.015401 -0.102050 0.005685 -0.019886 0.181337 -0.059150 0.092303 0.052167 0.116638 -0.090726 -0.020981 -0.274445 -0.085282 0.153235 -0.246150 0.070176
ukraine -0.056159 0.293645 0.020174 -0.138260 -0.242974 0.358719 0.083518 0.187695 -0.079972 -0.032148 -0.028823 -0.094755 0.069537 -0.164324 0.236000 -0.104119 0.022950 0.186722 -0.432670 -0.080414 -0.050454 -0.062801 0.103469 0.273831 -0.237845 0.079851 -0.194407 -0.256180 -0.370876 -0.108424
plano -0.203080 -0.199357 0.099385 0.141177 -0.032833 -0.109246 0.116788 -0.104617 0.015317 -0.492616 0.060276 0.008047 -0.070792 0.086631 0.097651 -0.240144 0.152692 0.164510 -0.062529 -0.075575 0.272946 -0.019338 -0.052485 0.095470 -0.143013 -0.160998 -0.136919 -0.213669 -0.136269 -0.009611
texas 0.149009 -0.006367 0.192038 0.141746 -0.039904 -0.129792 0.056870 -0.058474 -0.082186 -0.699765 0.085730 -0.008432 0.023618 -0.026144 -0.014717 0.021999 0.135382 -0.077304 -0.195852 -0.097279 0.321419 0.143447 -0.162656 0.227876 -0.096926 -0.118344 -0.098471 -0.133936 0.027563 0.139468
tough -0.036276 0.055244 -0.206953 0.146189 -0.199175 -0.103342 0.102470 0.055879 -0.424650 -0.023978 -0.073395 -0.037279 0.057129 0.475762 0.497951 0.041484 0.300865 0.084136 -0.084279 -0.182491 -0.115358 -0.055088 0.001727 0.082679 0.011003 0.204203 -0.096468 0.018483 -0.049847 0.059813
flying -0.248004 0.132762 -0.155225 0.260952 0.183773 0.106683 -0.152806 -0.038897 0.068510 -0.060893 -0.070984 0.358753 -0.284398 -0.066113 -0.104430 -0.067462 -0.159722 0.112195 -0.185560 -0.281931 -0.293870 0.155786 -0.110781 0.195611 -0.022358 0.060667 -0.173717 0.140943 -0.188721 -0.088474
iraq -0.025095 -0.088331 -0.099112 0.102728 -0.004543 -0.077160 0.081370 -0.245604 -0.069827 -0.104870 -0.060625 -0.025516 -0.219488 0.055964 0.158536 -0.041954 0.113080 -0.382471 -0.096387 -0.093631 -0.135254 -0.100980 -0.022048 0.268861 -0.289238 -0.276709 0.173533 0.072294 0.110086 0.029551
professional -0.103736 0.030612 -0.226724 -0.364214 0.058193 -0.162269 0.057667 -0.228830 -0.051918 -0.154138 0.003048 0.192199 -0.134154 0.267979 -0.098102 0.077884 -0.086140 0.146970 -0.032792 0.082598 -0.240636 -0.033594 0.432587 -0.034287 -0.244127 -0.072206 0.069667 -0.091693 -0.128804 0.216761
fly -0.163179 0.207787 -0.073898 0.144497 0.166663 -0.043759 -0.125122 -0.057586 0.235919 0.046637 0.127827 0.351002 -0.099525 0.080666 -0.029045 0.055451 -0.283285 -0.006773 -0.284994 -0.245437 0.133850 0.275150 0.008127 -0.121228 -0.225461 -0.006027 -0.042191 0.096272 -0.050107 -0.186061
danish 0.026018 0.198902 0.183415 0.202989 0.170819 -0.362768 0.077318 -0.391621 0.009099 0.105298 0.031955 -0.229206 0.065756 0.266713 0.033753 -0.101312 0.050545 0.103759 -0.273814 -0.056123 -0.142626 0.117189 0.127668 -0.104088 -0.205463 -0.103743 -0.187702 0.015744 0.023312 -0.155812
denmark 0.059088 0.206471 0.207127 0.163043 -0.184097 -0.342818 -0.086709 -0.286706 -0.092799 0.103322 0.005877 -0.126773 -0.124145 0.249885 -0.012063 -0.064159 0.094727 0.063614 -0.223985 -0.176876 -0.084178 -0.155796 0.070569 -0.060334 -0.140787 0.183858 -0.137399 0.147198 0.127334 -0.067169
croatia -0.047941 0.143134 -0.153218 0.128621 -0.032853 -0.245189 -0.041538 -0.034087 0.131787 -0.073005 0.001702 -0.032223 -0.382257 -0.104842 -0.120611 0.185724 -0.048643 0.055194 -0.180784 0.059503 0.396601 0.172288 -0.083803 0.217099 -0.148197 0.155264 0.179117 -0.015167 -0.160550 -0.045909
