move 0.472434 0.346154 -0.005851 0.569415 0.326041 0.577280 0.097666 0.277300 -0.069866 -0.310706 0.298456
danish -0.356619 0.345962 0.240328 0.212039 0.093869 -0.363599 0.387463 -0.390933 -0.077806 -0.403068 0.139200
loud 0.329401 0.011996 -0.235704 -0.209511 -0.264858 0.041400 -0.342581 -0.326879 -0.273821 0.087763 0.440491
tough 0.258448 0.314945 -0.243655 -0.106432 -0.271075 0.069640 -0.450534 -0.199136 -0.185398 0.301183 0.234974
flying 0.081941 -0.182768 0.178234 0.057365 -0.309270 0.004561 -0.105867 0.185888 0.780361 0.640258 -0.070974
denmark 0.012216 0.273849 0.155580 -0.311829 0.228202 -0.148627 -0.160330 0.343807 0.440347 0.379479 0.194899
tougher -0.171354 0.338509 0.408539 -0.168123 -0.340510 -0.181867 -0.353508 -0.345771 0.072188 -0.700296 -0.286243
professional -0.309676 -0.068482 0.254959 -0.519132 -0.458473 -0.100644 0.365778 0.575300 0.194654 0.010698 -0.445294
norway 0.031845 0.194063 0.293731 -0.449007 0.252732 -0.221111 -0.324927 0.453928 0.504429 0.403793 0.177954
ukraine -0.011014 0.280788 0.146675 -0.391028 0.145223 -0.293988 -0.190268 0.426411 0.455743 0.421940 0.005689
occasionally -0.001538 0.197042 -0.725684 -0.269417 0.192221 0.216202 -0.240719 -0.034686 -0.131142 0.325623 -0.316014
norwegian -0.380980 0.280625 0.203482 0.099818 0.129643 -0.292691 0.270449 -0.163236 -0.138255 -0.301191 0.072907
occasional -0.149539 0.095730 -0.000735 -0.555005 -0.354918 0.142613 0.290572 0.398511 -0.023291 0.180148 -0.412879
professionally -0.245225 0.071834 -0.611663 -0.427584 0.188011 0.268003 -0.219814 -0.051109 -0.288273 0.288069 -0.482695
louder -0.148193 -0.033091 0.461653 -0.398243 -0.210440 -0.041761 -0.337104 -0.301024 -0.010899 -0.657167 -0.115684
ukrainian -0.335001 0.284337 0.282768 0.006526 -0.045157 -0.600770 0.345620 -0.316397 -0.100128 -0.492842 0.049531
argentina 0.064593 0.284576 0.287950 -0.302492 0.174385 -0.239264 -0.112552 0.378522 0.395695 0.463966 0.221541
moving -0.030172 -0.247379 0.336073 0.029082 -0.314896 0.120594 -0.074456 0.268313 0.898758 0.341957 -0.078176
argentinean -0.417261 0.243234 0.399382 0.134789 0.078367 -0.496798 0.476893 -0.405915 -0.212008 -0.405261 0.196017
fly 0.559597 0.325245 -0.040766 0.499590 0.236716 0.246872 0.129180 0.180214 0.009187 -0.027724 0.343233
