move -0.055371 -0.085468 0.571656 0.020963 -0.046819 -0.017306 -0.038111 -0.612773 0.177914 0.083974 -0.149810 0.139358
tougher 0.150022 -0.024407 -0.044321 0.147689 0.056590 -0.034948 0.073019 -0.181526 -0.026393 0.183886 0.225805 -0.021379
occasionally -0.324582 0.086878 0.406608 0.297344 0.330803 -0.300048 0.364326 -0.185590 0.234597 0.236382 -0.056514 -0.100578
argentina 0.072200 -0.249896 0.076907 0.160601 0.174336 -0.058992 -0.264631 0.101454 -0.108577 -0.062019 -0.073377 0.225456
danish -0.019414 0.280252 0.100401 0.135878 0.201137 -0.133300 -0.070999 -0.082366 0.022121 0.208105 0.186398 0.291512
fly -0.151704 -0.051588 0.481890 0.125136 -0.104672 0.076804 0.053791 -0.345253 0.161963 0.017298 -0.261964 0.065433
louder 0.055551 0.035738 -0.082969 0.145522 0.001871 -0.092533 0.137545 -0.139413 -0.008675 0.290361 0.139270 -0.097265
loud -0.111914 0.000223 -0.007244 0.086663 -0.106312 -0.070420 0.169166 -0.076039 0.215155 -0.036770 -0.214082 -0.344904
norway 0.065564 -0.339463 0.045311 0.087555 0.139170 -0.036519 -0.240733 0.092768 -0.104058 -0.056617 -0.069129 0.244248
ukraine 0.065448 -0.262484 0.046270 0.049537 0.162119 0.028722 -0.109170 0.104216 -0.038507 -0.008245 -0.083449 0.130068
professional 0.095592 -0.012643 0.096319 0.038100 0.102489 0.136112 -0.006129 0.190597 -0.362309 -0.065358 -0.077648 -0.254117
moving -0.208008 -0.245963 0.227622 0.320739 0.000617 0.159889 -0.015518 0.040221 -0.156611 -0.089905 -0.002235 -0.204842
tough -0.052505 0.045295 0.028715 0.059362 -0.073158 0.069835 0.163848 -0.038479 0.171497 -0.136886 -0.198857 -0.313311
flying -0.338921 -0.212021 0.236913 0.368714 0.027896 0.231867 0.109978 0.194222 -0.097924 -0.150768 -0.094512 -0.288406
professionally -0.265552 0.105844 0.307238 0.278839 0.365556 -0.308218 0.346767 -0.109247 0.103970 0.182711 0.011468 -0.090976
norwegian 0.016114 0.151553 0.046568 0.074932 0.184630 -0.096173 -0.096235 -0.075275 -0.004516 0.185404 0.190754 0.177403
argentinean -0.019878 0.208022 0.085524 0.094389 0.185104 -0.082243 -0.115783 -0.077722 -0.002677 0.159859 0.184847 0.139959
ukrainian -0.022299 0.232202 -0.014249 0.047941 0.216314 -0.010884 -0.026631 -0.013374 -0.021103 0.164377 0.182524 0.110094
occasional 0.028430 -0.043467 0.171175 0.040460 0.039748 0.147901 0.022961 0.126537 -0.186354 -0.025705 -0.185679 -0.296633
denmark 0.082829 -0.182564 0.143006 0.112225 0.186236 -0.071735 -0.195829 0.093605 -0.082692 -0.029834 -0.090340 0.251462
