fly 0.010622 0.016149 0.319628 -0.180106 0.221909 0.239507 0.132308 -0.017460 0.282202 -0.220058 0.153164 -0.076552
loud -0.363341 0.126015 -0.004155 -0.211386 0.087321 0.108633 0.047794 0.162403 0.216590 -0.114290 -0.152357 0.086721
tough -0.256999 0.116470 0.011846 -0.228699 0.051308 0.108940 0.112937 0.223975 0.211032 -0.038881 -0.120190 0.050033
occasionally 0.071826 0.077170 0.041418 -0.002400 0.016349 -0.121015 0.396664 0.022694 0.285377 0.141696 -0.110777 -0.062229
moving 0.027502 0.057632 0.063596 -0.267922 0.101062 -0.183229 0.153965 0.100082 0.088136 0.085215 0.101359 -0.217771
professionally 0.004220 0.085339 -0.071239 0.113800 -0.014791 -0.051372 0.392023 0.007695 0.291279 0.085026 -0.127628 -0.084772
professional -0.090493 -0.010211 -0.433708 0.154052 0.026645 -0.044532 0.054187 0.148950 0.177925 -0.173341 0.157663 -0.021921
norwegian -0.072717 -0.076678 -0.036655 0.164992 0.239325 0.026527 -0.024367 -0.087332 0.194386 -0.105441 -0.001318 0.140958
tougher -0.052734 0.019826 -0.047222 -0.058357 0.043375 0.129293 0.043832 0.116547 0.064090 0.229166 0.192020 0.224755
ukraine 0.052860 -0.247366 -0.135613 -0.082321 -0.045680 -0.092669 0.040705 -0.013450 -0.053673 -0.111580 -0.042459 0.107411
move -0.159371 0.239389 0.307076 -0.162250 0.222324 0.129444 0.016126 -0.069269 0.288445 -0.197827 0.276883 0.017066
occasional -0.051973 0.025745 -0.269642 0.065748 0.060409 -0.066611 0.125823 0.128009 0.184426 -0.195750 0.172585 0.010220
ukrainian 0.021857 -0.014872 -0.020230 0.294048 0.263783 0.065258 -0.040924 0.021733 0.209029 -0.051553 -0.027569 0.152909
flying 0.105846 -0.051138 0.103066 -0.251574 0.153808 -0.026288 0.223468 0.151109 0.094415 0.017707 -0.039538 -0.242846
danish -0.032172 -0.094146 0.021260 0.280835 0.315091 0.070829 0.117386 -0.043089 0.205135 0.000034 -0.015004 0.046213
norway -0.114385 -0.294959 -0.066360 -0.190877 -0.053696 -0.140128 0.031461 -0.097624 -0.009392 -0.136761 0.018858 -0.068171
argentina -0.063489 -0.197926 -0.057255 -0.061432 -0.126855 0.007857 0.034831 -0.201381 -0.100217 -0.156689 -0.063057 -0.089535
louder -0.117451 -0.015979 -0.099299 -0.040485 0.036901 0.111294 0.037978 0.067424 -0.004101 0.242990 0.082867 0.237556
argentinean -0.035142 0.039822 -0.021963 0.298845 0.207487 0.146361 -0.042718 -0.047811 0.148241 -0.050743 -0.076792 0.018476
denmark 0.020411 -0.387729 -0.062662 -0.048363 -0.031739 -0.062054 0.148526 -0.166982 -0.062657 -0.137134 0.025347 -0.036759
