hanoi -0.517098 -0.287355 -0.115261 0.307163 -0.260912 0.124717 0.142958 -0.137362 0.083314 -0.040278
tougher 0.106212 -0.337568 -0.186163 -0.067294 -0.028239 0.263994 0.039700 0.036134 0.560132 0.056623
occasionally -0.323348 -0.174542 -0.302922 -0.338914 0.382799 -0.082739 0.127607 0.055105 -0.053103 0.140970
ukrainian 0.003584 0.280311 -0.330976 0.018137 -0.132536 0.241177 0.281244 0.074353 -0.267938 0.033729
occasional -0.212597 -0.135763 -0.227767 -0.410478 0.308523 -0.021713 0.273256 0.145770 -0.164061 0.095384
norway 0.177285 0.062651 0.121851 -0.175795 -0.251206 0.411193 0.236864 0.203925 0.033429 0.005007
baghdad -0.200138 -0.113171 0.362610 -0.086844 0.162446 0.361442 -0.315618 0.151610 0.233453 -0.192945
illinois -0.216754 -0.127721 -0.085109 0.048872 0.313389 0.039051 -0.155166 0.046921 0.183830 0.388243
moving -0.248648 0.128240 0.165148 -0.064325 -0.233265 -0.171128 0.355551 0.463877 0.040246 0.055987
loud -0.496581 0.057041 0.099722 -0.016580 0.095400 0.231124 -0.203252 -0.105202 0.047912 -0.114708
thai -0.016517 -0.140601 -0.216438 0.004900 0.071280 0.121614 -0.294564 0.477146 -0.224948 0.261103
croatian -0.079599 0.237256 0.047989 0.177804 0.146459 0.015876 0.185359 0.147383 0.214992 0.184627
argentina -0.154505 0.142768 -0.073060 0.192299 0.090331 -0.162265 -0.051093 0.449463 0.286806 -0.113203
vietnam -0.573966 -0.228337 -0.047128 0.288070 -0.234669 0.182828 0.192134 -0.222319 -0.001796 -0.086462
norwegian 0.166592 -0.170276 0.143694 -0.228657 -0.406238 0.485321 0.302055 0.177809 -0.073899 0.105810
professionally -0.055808 -0.108009 -0.007984 -0.202252 0.386295 0.342873 0.122888 0.067777 -0.171811 -0.178504
argentinean -0.189098 0.072861 -0.122714 0.284369 -0.089648 -0.077733 -0.260304 0.559221 0.207114 -0.251091
louder -0.525812 0.049813 -0.113792 0.131068 0.041940 0.250494 -0.229325 -0.137192 -0.112018 -0.116616
chicago -0.326850 -0.260172 -0.135477 -0.012900 0.218152 0.015697 -0.038112 -0.061882 0.120183 0.542991
move -0.231540 0.101539 0.093050 -0.053911 -0.102074 -0.074072 0.387797 0.355546 -0.117404 0.008616
thailand 0.008229 -0.060577 -0.267220 0.236601 -0.134813 0.160874 -0.210479 0.431015 -0.276140 0.333909
ukraine 0.001332 0.269472 -0.290617 0.063828 -0.239599 0.421066 0.128871 -0.050715 -0.158351 -0.037292
plano -0.231789 0.453708 -0.016328 -0.321201 -0.041104 0.202142 -0.215564 -0.027156 0.188563 0.210039
texas -0.107670 0.483745 0.001224 -0.267327 0.047403 0.103129 -0.055190 0.039439 0.318412 0.276914
tough 0.111928 -0.418951 -0.268263 -0.034503 -0.010371 0.367187 0.094298 -0.012206 0.354601 -0.064703
flying 0.038774 0.177225 0.235809 0.293118 0.447799 0.273504 0.190096 0.074356 -0.049912 0.168471
iraq -0.209795 0.002140 0.184050 -0.073423 0.118609 0.175199 -0.223673 0.278575 0.192704 -0.207777
professional -0.014346 -0.134318 -0.084780 -0.151931 0.439196 0.334280 0.010345 0.093808 -0.161672 -0.114555
fly 0.057098 0.083366 0.289144 0.300514 0.250720 0.285769 0.227723 0.143244 -0.076191 0.232182
danish 0.008354 0.286511 -0.321426 0.229881 0.147090 0.164742 0.042418 0.150023 0.113046 -0.379337
denmark 0.011270 0.298977 -0.223860 0.178966 0.198535 0.244481 0.121914 -0.028574 0.197216 -0.245157
croatia -0.130398 0.230517 0.163149 0.074489 0.211482 0.122626 0.078532 0.043727 0.219260 0.226084
