fly -0.070235 0.041796 -0.262197 -0.047130 -0.074523 -0.084986 -0.021919 0.150686 0.003575 -0.258185 -0.396260 0.082484 0.017032 0.010097 0.047220 0.019184 0.222094 -0.210758 0.000919 0.001849
loud 0.070013 0.091365 0.183657 0.248641 -0.118121 -0.145320 0.163886 -0.067392 0.299609 0.126486 -0.132810 0.049996 -0.150616 0.356000 0.019069 -0.131666 -0.100217 0.079369 0.110287 0.179850
tough -0.064511 0.113751 0.132781 0.016952 -0.029536 -0.061756 -0.002361 -0.127267 0.267955 -0.042853 -0.249289 -0.193378 0.142453 0.128251 -0.005719 -0.129416 0.090307 0.035629 -0.073766 -0.001146
occasionally 0.030108 -0.154903 0.108995 -0.288910 -0.086524 -0.091284 -0.102445 0.082774 -0.020623 -0.057937 -0.022963 -0.179393 0.131505 0.118005 0.130873 -0.075553 0.075265 0.057773 0.032035 0.080376
moving -0.028179 0.044070 -0.112436 0.168927 0.363798 -0.018103 -0.121039 -0.119081 -0.178287 -0.017674 0.275917 0.245735 -0.164376 0.173480 -0.207622 0.123042 -0.222294 0.072455 -0.047815 0.106875
professionally 0.256190 -0.166327 0.074587 -0.056121 -0.237637 -0.150809 -0.004444 0.194229 0.041012 0.097127 0.070812 -0.093479 0.012016 0.212158 0.150229 0.040428 0.091364 0.088334 0.268005 0.175229
professional 0.241913 0.391661 -0.011223 0.008049 -0.234677 0.030961 -0.086862 0.242333 -0.127289 0.194790 0.210130 -0.067339 -0.004379 -0.098680 -0.234201 0.184377 0.207670 0.097422 0.380725 0.157256
norwegian -0.166227 0.121893 0.162011 0.140844 0.110535 0.181800 0.057679 0.012156 0.013292 -0.186535 0.024307 -0.122963 -0.185251 -0.093134 -0.017023 0.099044 0.075365 0.006308 0.179478 0.178286
tougher -0.087979 0.244396 0.223551 0.148100 0.083888 0.156835 0.198959 0.100676 -0.167035 -0.097560 -0.041111 -0.152111 0.095934 -0.037675 0.114172 -0.177653 0.182976 0.088702 0.121596 0.042298
ukraine -0.061641 0.216106 -0.030857 0.077039 0.070426 0.133245 -0.032853 -0.207145 0.079312 -0.016018 -0.106818 -0.056710 0.055512 -0.145722 0.026375 0.080895 -0.016569 0.201854 0.002396 0.093445
move -0.049751 0.150767 -0.166802 0.296932 0.076336 -0.010486 0.228102 -0.013715 -0.166393 -0.185242 -0.236266 0.268146 -0.217749 0.202710 0.065974 0.166925 -0.039004 -0.200929 0.102556 0.123460
occasional 0.036983 0.338970 -0.073223 -0.190093 -0.143548 0.096692 -0.179432 0.142160 -0.180352 0.052692 0.100961 -0.149166 0.042170 -0.145934 -0.252113 0.146100 0.159855 0.042486 0.115331 -0.010731
ukrainian -0.069038 0.009636 0.106316 0.048934 0.032818 0.127969 0.028622 0.091500 0.011958 -0.132959 0.064185 -0.111466 -0.198231 -0.104767 0.043602 -0.024535 0.120434 0.019864 0.386928 0.012651
flying 0.110325 0.026193 -0.084616 0.098464 0.205342 -0.132937 -0.213515 -0.119089 0.065107 -0.264263 0.030178 0.125035 0.000145 -0.124333 -0.195979 0.170400 0.040155 0.133675 -0.074516 0.022512
danish -0.139389 -0.105737 0.075594 -0.191025 0.012391 0.120003 -0.049168 0.180722 0.007231 -0.142470 0.033907 -0.191275 -0.207950 -0.052649 -0.050046 -0.168878 0.193676 -0.160238 0.166381 0.061335
norway -0.069248 0.146628 -0.049794 0.149172 0.056830 0.231778 -0.010040 -0.108452 0.047389 0.169672 -0.039178 0.133443 -0.090813 0.092149 0.047333 0.033484 -0.020782 0.103416 -0.002117 0.287183
argentina -0.081858 0.039323 -0.161548 -0.189301 -0.308946 -0.070035 -0.074374 0.199565 0.054823 0.315106 -0.061274 0.115690 -0.125429 0.149449 0.150379 -0.137475 0.048689 -0.077624 0.050440 0.173984
louder -0.239197 0.156222 0.224928 -0.016990 0.004658 0.046495 0.260744 0.135517 -0.136068 0.143519 0.210540 -0.128360 -0.089305 0.209211 0.066069 -0.400642 0.061754 -0.046696 0.143727 0.125058
argentinean 0.002581 -0.126864 0.118091 -0.049922 -0.270302 -0.076594 0.017535 0.360892 -0.012354 0.104099 0.085767 0.070602 -0.302320 0.039927 0.077148 -0.080041 0.127103 -0.059221 0.411957 0.026294
denmark -0.208368 0.159852 -0.192323 -0.278867 0.064266 0.154481 -0.105147 -0.073416 0.097259 -0.016848 -0.116247 -0.160905 0.053830 -0.132688 -0.016733 -0.101046 0.076371 -0.107688 -0.192504 0.173186
