move 0.002671 -0.000354 -0.002459 0.014325 -0.009491 0.004371 -0.005434 0.203559 0.001466 -0.003093 0.174662 0.024276 0.026403 0.000858 0.017426 0.002705 0.034487 -0.003271 0.017877 0.006151 -0.003597 -0.007449 0.011889 0.018667 -0.006044 0.002026 0.000005 -0.020716 0.021467 0.013491 -0.026550 0.007101 -0.018803 0.012290 -0.010773 -0.002812 -0.015204 -0.007985 -0.007263 -0.008961 -0.035395 0.000685 0.011191 -0.010560 -0.028001 -0.005104 -0.011742 -0.007376 0.127384 -0.022214 -0.020132 -0.008097 -0.000238 0.003404 -0.006750 0.019617 0.016678 0.047152 0.002574 0.010431 0.023287 0.034770 -0.022293 -0.003468 0.001850 -0.000594 -0.017546 -0.099886 -0.020338 -0.002376 -0.016334 -0.012978 0.011900 0.124006 -0.044727 0.004963 -0.005801 0.003710 0.006137 -0.019009 0.000262 0.009646 -0.014429 0.024005 -0.013648 0.008736 0.012544 -0.020259 0.172337 -0.039854 0.016390 0.007842 0.006803 0.009731 -0.008848 0.020736 -0.332363 -0.030716 0.010328 -0.006187 -0.005310 0.001625 -0.014723 -0.026456 0.027451 -0.006139 -0.002592 0.001514 0.008135 -0.008816 0.030157 -0.014634 0.006645 0.382846 0.011380 -0.002610 0.000966 -0.010327 0.019364 0.012556 0.011128 -0.018256 -0.037830 -0.019233 -0.044132 0.022825 0.005620 0.003456 0.121158 0.005239 -0.006819 0.001219 -0.002137 0.013253 -0.045791 -0.010734 -0.018062 -0.008389 -0.008874 0.408301 -0.030217 0.026452 0.002951 0.008779 0.027243 0.026887 0.014318 -0.005046 0.015994 -0.015796 0.012670 0.002291 0.002419 0.019199 0.012410 -0.003719 -0.000559 0.006999 0.012259 -0.006901 -0.015323 0.002354 0.011649 0.011474 -0.003617 -0.028470 0.014016 0.004405 -0.005497 -0.004554 -0.000654 -0.019293 0.012327 0.017961 -0.016288 -0.014632 -0.039459 0.016470 0.026536 -0.027223 -0.016057 -0.010500 -0.030079 -0.010414 0.017249 -0.001220 -0.007155 -0.000522 -0.006140 0.042985 -0.012307 -0.003349 -0.008325 -0.032333 0.004373 -0.008373 0.068315 -0.015878 0.005680 0.011145
tougher 0.001563 -0.016386 -0.014802 -0.007669 -0.019900 0.019248 -0.006639 0.246971 0.014372 -0.002435 -0.249234 -0.013522 0.007266 0.006254 0.017589 -0.013080 0.004606 -0.016547 -0.006438 -0.012312 0.015804 -0.014518 0.017623 -0.031275 -0.025841 -0.018091 0.016364 -0.020028 0.001654 0.016544 -0.014197 0.001874 -0.035469 0.027885 -0.027160 -0.056353 -0.002217 -0.008029 0.042113 0.014687 0.017763 -0.052430 0.042379 0.003606 0.012550 -0.031604 0.007424 -0.008504 0.066098 -0.025832 0.004180 -0.036845 0.011620 -0.031613 -0.004878 0.014560 -0.046258 0.004764 0.010102 0.003297 0.001223 0.024178 0.052681 -0.017813 -0.056910 -0.017234 -0.000271 0.178631 0.027927 0.010590 -0.021226 -0.020860 0.042771 -0.138380 0.017577 0.013412 -0.020080 -0.008004 -0.006104 -0.017540 0.001682 0.014906 -0.011706 -0.008107 0.007614 0.022177 -0.003799 -0.002777 0.054363 -0.026197 0.036967 0.008787 0.037774 -0.008700 0.002617 -0.006724 0.088845 0.011749 -0.025318 -0.129883 0.009197 -0.014679 -0.025426 -0.031904 0.041121 0.018150 -0.004740 -0.016545 0.015471 -0.032987 0.026727 -0.015329 -0.002161 0.082668 -0.017976 0.018779 0.009240 0.014490 -0.009826 0.011873 -0.018875 -0.021639 -0.030931 0.010406 -0.009323 0.000305 0.018882 -0.007748 -0.241992 0.023303 -0.030974 0.030498 -0.011722 -0.013179 0.083709 -0.008280 0.005884 0.052066 0.008109 0.049275 -0.002401 -0.002805 0.006329 0.032047 -0.009054 0.007407 0.016114 0.027184 0.023388 0.012386 0.123556 0.035587 -0.025454 0.001980 -0.008250 0.009460 0.019009 0.026962 0.021456 -0.011993 -0.003426 0.005795 0.017533 0.022512 0.002920 -0.007368 -0.001318 0.001171 -0.011632 -0.026925 -0.022795 -0.017965 0.029728 -0.009139 0.018480 -0.003120 0.017651 -0.287332 0.025804 0.020847 0.001814 -0.000513 0.005160 -0.006596 0.013936 0.032487 -0.012352 0.010874 -0.024532 -0.027578 0.017284 0.035581 0.008440 0.008130 0.034262 -0.024059 0.161457 0.001041 -0.000962 0.028109
occasionally 0.000665 0.017742 -0.014540 -0.000848 0.010267 -0.007397 0.005301 -0.034339 -0.007416 0.011196 0.061157 -0.021778 -0.034184 0.018451 0.026871 -0.003817 -0.033355 -0.006480 0.005907 -0.005617 0.018121 0.006980 0.014482 0.000796 -0.001287 0.000300 0.005378 0.023948 0.012193 0.013562 0.017561 0.005395 0.015022 -0.012433 0.005266 -0.012572 0.019786 -0.005430 -0.036566 0.012664 0.014333 -0.020643 0.017840 0.025870 0.012556 -0.004672 -0.000905 -0.005514 0.017179 -0.011136 0.005452 -0.000253 0.005721 -0.002780 -0.001777 -0.005976 -0.005078 -0.019143 -0.014446 -0.017876 -0.001747 0.004798 -0.005093 0.011323 -0.013529 -0.004522 -0.004194 -0.136987 0.026584 0.003572 -0.010640 -0.018911 0.028046 0.112373 0.016674 -0.000480 -0.008849 0.002397 -0.004087 0.005011 -0.010222 -0.009848 0.013560 0.016614 0.019859 -0.001690 -0.006939 0.005376 -0.021213 0.009083 -0.001954 -0.035748 0.016744 -0.023530 0.011236 0.007294 -0.209252 0.021559 0.022883 -0.154321 -0.000955 -0.008618 -0.005472 -0.015972 -0.016859 -0.011156 -0.005153 -0.001248 -0.002148 0.000043 0.009033 -0.005764 -0.013727 0.023985 0.020624 -0.019559 0.006634 -0.025150 -0.001031 0.013142 -0.004155 -0.009356 0.017767 0.020909 0.024346 0.011650 0.007221 -0.015242 0.005164 0.019447 -0.001166 -0.018447 0.005442 -0.012756 -0.086177 0.013655 -0.020005 0.013040 0.015052 -0.445215 0.009442 -0.009703 0.000990 -0.017470 0.002261 0.012432 -0.013310 -0.015910 -0.026310 0.042815 0.052232 -0.005108 0.008756 0.001104 0.014189 -0.003038 0.013667 -0.010906 0.004349 0.025079 -0.018504 0.022284 -0.002107 0.002776 -0.023140 0.003404 0.015990 -0.004402 0.019909 0.008023 0.004497 0.006313 0.012430 0.000462 -0.014867 -0.000605 0.034265 -0.009787 -0.037587 0.007746 0.012087 0.004415 0.005783 -0.012965 -0.022527 0.005827 0.035135 -0.014993 0.007031 0.061918 0.016683 0.037995 -0.019079 0.019976 -0.001373 0.008914 0.085829 0.012744 0.002750 -0.010803
argentina -0.013063 0.009007 -0.022760 0.005461 0.003569 -0.020611 0.002448 -0.026445 -0.014938 0.013545 -0.297585 -0.008559 -0.005382 0.013194 -0.000394 0.010055 -0.008292 0.006256 -0.001713 0.000149 0.006770 0.019209 0.001946 0.002494 0.010440 -0.002407 -0.006692 0.012947 0.008294 0.009203 0.013003 0.027031 -0.000887 0.004898 0.009731 0.003944 -0.005071 -0.001183 -0.105305 -0.018787 -0.007763 0.005843 0.017733 0.008396 -0.011566 0.014616 0.000860 0.000618 -0.043553 -0.000573 -0.008707 -0.007506 -0.016474 -0.000377 0.024966 -0.006516 0.001760 -0.006535 -0.007812 0.009956 0.017003 0.016370 -0.001425 0.028781 -0.003185 0.016684 -0.011425 -0.167353 -0.013248 -0.002542 0.011310 -0.021185 0.005370 -0.078043 -0.012376 -0.004577 -0.000315 -0.016383 0.007225 -0.006216 0.000222 0.004446 0.018674 0.017556 0.008729 -0.004762 0.013385 0.003121 -0.236447 -0.007073 -0.007421 -0.014124 0.009049 -0.003013 -0.008273 0.006344 0.029089 0.002260 0.020467 0.090010 -0.013622 -0.013603 0.010108 -0.011408 0.000660 -0.020548 0.002323 -0.002814 -0.002117 0.022385 0.005593 -0.014747 -0.002289 0.128000 0.009519 -0.003091 -0.014388 -0.014712 0.004037 -0.007917 0.014185 -0.025038 -0.010858 -0.014316 -0.018190 0.043967 -0.012949 -0.002005 0.005389 0.011011 0.013734 -0.002290 0.012784 0.011087 0.029558 0.012198 -0.004700 0.001891 -0.007670 0.022397 0.007318 -0.004374 0.000531 -0.004281 -0.004567 0.014117 -0.003140 -0.008302 -0.015427 0.005444 0.020407 -0.011560 0.027385 0.009591 0.015385 -0.006968 0.000211 0.001091 -0.003750 0.016023 -0.017001 0.001404 -0.015324 0.021826 -0.013808 -0.013307 0.008990 0.008601 -0.009355 0.012296 -0.000673 -0.008324 0.002683 0.022145 -0.019188 -0.001648 -0.007954 0.347990 -0.017748 -0.010843 0.004241 0.003433 -0.013931 -0.004777 0.008527 -0.024856 0.007823 0.001496 -0.003183 -0.010381 0.002796 -0.001678 -0.038945 0.001011 -0.000038 0.012290 0.036660 -0.001542 0.008937 -0.011603
danish 0.049941 0.031264 0.018754 0.041900 -0.025932 0.007134 -0.028151 -0.103103 -0.025408 -0.029718 0.183919 0.027983 0.039788 0.005253 0.003887 -0.034108 0.030168 -0.023057 -0.036028 -0.026787 0.019901 -0.022648 0.017563 -0.027013 -0.021287 0.016513 0.011800 -0.021764 0.014750 0.021288 -0.022301 0.019549 -0.015406 0.008991 0.008313 -0.012987 -0.032234 -0.025998 0.048574 0.006571 -0.032051 -0.003498 -0.016194 -0.030164 0.007408 0.008973 -0.033684 0.027199 0.097815 -0.005158 0.022483 -0.017945 -0.016643 -0.038023 -0.004769 0.005355 0.025986 0.058493 0.012687 0.014930 0.032675 0.020948 0.012285 -0.005935 -0.005918 -0.023906 0.003074 -0.158916 -0.018129 -0.001654 -0.015204 -0.036322 -0.011363 0.105256 -0.033567 0.005608 0.003326 0.024024 -0.019739 -0.037321 0.024380 0.003751 -0.020370 0.009218 -0.010601 0.007273 -0.011315 0.022873 -0.093860 -0.029422 0.015858 0.018151 -0.020338 0.040189 0.006240 -0.000420 0.266004 -0.034454 -0.013094 0.203842 0.023950 -0.020698 -0.016550 -0.007907 -0.000272 -0.008445 -0.016489 0.000618 0.032237 -0.033522 0.022224 0.010074 -0.028184 0.219866 0.015226 0.007290 0.015025 0.018363 0.014510 -0.016108 -0.024274 0.001162 -0.023578 0.009744 0.008585 0.003038 0.009011 0.005280 0.087051 0.008013 0.007590 -0.006897 -0.028823 0.039940 0.164457 0.003352 -0.006482 -0.050102 -0.018051 -0.124679 -0.007983 0.014002 -0.011616 -0.002065 0.059947 -0.003716 -0.025737 0.023152 0.007948 -0.026801 -0.038336 -0.004804 -0.022277 0.004506 -0.008353 0.051422 -0.034906 0.030047 0.034896 0.008288 -0.001663 -0.009342 -0.031637 0.001326 -0.002498 -0.004565 0.012866 -0.008308 0.000925 0.031242 0.040193 -0.005004 -0.023011 -0.009558 0.017552 -0.042692 -0.008592 -0.280219 0.023458 -0.004854 -0.039303 0.023953 0.010345 -0.045700 -0.002954 0.003309 0.012711 0.033831 -0.037286 0.015692 -0.049828 0.015685 -0.008569 0.010620 0.002159 0.032268 -0.006475 0.010808 -0.013169 0.018861
fly 0.024872 -0.001886 0.020051 -0.004456 0.014547 -0.018444 0.020605 0.227870 -0.018372 0.010596 0.233319 0.021579 -0.002874 -0.016973 0.006915 0.021724 0.009640 -0.009601 0.029473 0.016953 0.010840 -0.002561 0.012582 0.028090 -0.006433 -0.006531 -0.025551 0.005958 0.011169 -0.000921 -0.027789 0.020559 0.019146 -0.004251 0.000695 0.024729 0.000502 -0.015388 -0.340845 0.002776 -0.010464 -0.016627 -0.004476 -0.003795 -0.016649 0.021033 -0.010998 -0.018442 0.158586 -0.021758 -0.003066 0.027790 -0.006523 0.036127 0.034325 -0.010027 0.023499 0.024363 -0.004375 -0.008635 0.007625 0.005661 -0.011255 -0.002592 0.032713 -0.005304 -0.023757 -0.103959 -0.001700 -0.016425 -0.013799 -0.002964 -0.001467 0.267505 -0.015439 0.012671 0.001916 0.010019 0.007477 -0.015376 -0.031510 -0.023017 -0.006857 0.034168 0.007407 -0.008171 0.008500 0.009391 0.108314 -0.012452 -0.007102 -0.028180 0.016856 -0.010660 -0.007263 0.005519 0.064463 -0.000660 0.016955 0.022448 -0.033569 0.017832 -0.012908 -0.008061 -0.009228 -0.008487 0.035183 0.019081 -0.024409 0.000323 0.015476 -0.028164 -0.013785 0.138837 0.016635 -0.025556 -0.008436 0.008679 0.034037 0.002251 0.029012 -0.000998 -0.012174 -0.018648 -0.005189 0.002880 -0.010051 -0.019588 -0.024400 0.009292 0.018963 -0.018005 0.006193 0.042235 -0.160316 -0.001908 -0.004808 -0.085700 -0.005122 0.235985 -0.011694 0.023251 -0.010385 -0.016474 0.028655 0.021517 0.014932 -0.030913 -0.013671 0.014228 -0.019639 -0.008182 0.035933 -0.005068 0.038906 -0.014907 -0.006873 -0.014852 0.007815 0.023076 -0.043452 -0.002133 0.009721 -0.002233 -0.015130 -0.020864 -0.008240 -0.007317 0.023761 0.028202 -0.002112 -0.010770 -0.000357 0.011881 -0.032178 -0.007328 -0.011052 0.138903 -0.000057 -0.021934 -0.015477 -0.020539 -0.004431 -0.023854 -0.001871 -0.010021 0.002689 0.010716 0.024954 -0.028753 0.005934 -0.001223 -0.024914 -0.033305 -0.012713 0.021662 -0.045865 -0.000560 0.001638 -0.040355
louder -0.012257 -0.003232 -0.023253 -0.006931 -0.005222 -0.001617 0.037014 0.122579 0.007142 0.020662 -0.388816 0.001573 0.002380 0.001221 0.006407 0.015275 -0.028999 0.012109 0.005735 0.031598 0.003500 0.006175 -0.014063 -0.017077 0.009825 -0.028523 -0.002209 0.013948 -0.013279 0.003251 0.033895 0.021544 0.007900 0.016529 0.010013 -0.004639 0.002040 -0.015416 0.127324 -0.021287 -0.017688 0.004427 0.003514 0.019044 0.007920 0.010699 0.025165 0.004052 0.182211 0.020067 -0.019236 0.015858 0.019065 0.008004 -0.006017 -0.020684 -0.011536 -0.009966 -0.008089 -0.000090 0.008051 -0.004382 -0.022437 0.022021 -0.009400 0.002620 -0.007417 -0.008775 -0.009130 -0.026016 0.002083 0.016796 0.004610 0.026809 -0.004534 -0.006588 0.018066 -0.006765 -0.013415 0.015015 -0.004809 0.014540 0.041878 -0.025751 0.023760 -0.003264 -0.006388 -0.006951 0.103413 0.034029 0.006534 0.003124 -0.025341 -0.002664 -0.026027 -0.021272 0.068147 -0.001866 0.017444 -0.117683 0.011982 -0.006885 -0.001324 0.014775 0.002358 -0.030617 -0.004196 0.005933 0.004812 0.031338 -0.024327 0.019866 0.006340 -0.165311 -0.010832 0.007097 -0.011069 -0.006861 -0.027212 -0.005553 0.015058 0.013345 0.034117 0.008425 0.006635 0.018782 -0.018096 0.005366 0.008369 -0.004530 0.026161 0.005022 0.006016 -0.001273 -0.052863 -0.001759 -0.017318 -0.079908 -0.000737 0.104252 0.014086 -0.018395 0.002000 -0.019578 -0.025203 0.001080 -0.009119 -0.000569 -0.002544 0.001299 -0.100006 -0.026296 0.007071 0.002160 -0.008149 -0.010750 -0.005584 -0.010214 -0.012896 0.014110 0.004336 -0.022559 -0.016326 0.020739 -0.010283 -0.009101 -0.008221 0.015410 -0.018830 -0.005388 0.009819 0.026771 0.015845 -0.001517 -0.009648 0.024749 -0.013452 -0.299278 -0.014828 0.027899 0.014925 0.012144 0.008902 0.010430 0.025989 -0.010972 -0.009511 -0.005776 0.015623 0.077621 0.007721 -0.004805 -0.013167 0.015623 -0.013073 0.018425 -0.024152 0.025488 -0.008202 0.006784
loud -0.031047 -0.001244 -0.007511 0.002562 -0.000648 -0.008459 -0.018307 -0.262042 0.010737 -0.003328 -0.132026 -0.038521 -0.019717 0.000209 -0.021295 -0.002351 -0.013844 0.019328 -0.019061 -0.007024 -0.023623 0.026235 -0.033473 -0.001247 0.011074 -0.004765 0.032106 0.009890 -0.012926 0.009140 -0.001422 -0.015949 -0.008365 -0.017103 -0.011413 -0.006081 -0.014579 0.015055 -0.237977 -0.011890 0.010311 -0.001357 0.006146 0.011178 0.004990 0.006987 0.001944 0.000906 0.059020 0.006865 -0.000906 -0.007402 -0.016519 -0.013481 0.005070 0.021789 -0.030349 -0.026540 -0.003635 0.014737 -0.014317 -0.004954 0.010518 0.006045 -0.012263 -0.002269 0.010403 -0.211555 0.006471 0.035168 0.025793 0.008952 -0.003056 -0.222711 0.022687 -0.006336 0.011342 -0.010392 0.013154 0.020341 0.025842 0.007768 0.009316 -0.020417 -0.003792 -0.005941 -0.006587 -0.008898 -0.041697 0.016186 -0.010343 0.004297 0.011594 0.006442 -0.006571 -0.005421 -0.105084 0.008233 -0.029328 -0.211880 0.011468 -0.006883 0.027645 0.008860 -0.004520 0.016003 -0.018247 -0.024626 0.003420 0.005184 -0.020924 -0.004601 0.009780 -0.234539 -0.006255 0.030759 0.007249 0.003602 -0.023155 0.003454 -0.009782 -0.017633 0.005029 -0.008001 -0.014346 0.009765 0.022116 0.017518 0.057293 -0.010320 -0.012640 -0.004402 -0.010215 -0.017951 -0.029603 0.000342 0.019111 -0.029526 -0.000548 0.194837 0.022537 -0.012750 -0.006886 0.009394 -0.029574 -0.014513 0.000087 0.010137 0.005146 -0.004173 -0.014316 0.019872 -0.011673 -0.013834 -0.031465 -0.013004 0.013917 -0.009785 -0.024754 -0.024843 0.021848 0.014309 0.005976 -0.007178 0.006632 0.010803 0.000381 0.019388 -0.025722 -0.022035 -0.011878 0.007181 -0.007337 0.012608 0.020078 0.007520 0.040330 -0.144750 -0.000625 0.004990 0.012765 -0.005043 -0.008111 0.030062 0.016857 -0.007664 0.001255 -0.009427 -0.002115 -0.049302 0.012931 -0.021917 0.002936 0.025630 0.020941 -0.015060 -0.102886 -0.008572 0.009142 0.015603
norway 0.022435 0.024586 0.022032 0.008524 0.004727 0.015776 -0.009689 -0.054873 -0.001519 -0.021809 -0.217661 0.005201 -0.000980 -0.001926 -0.022032 0.000174 -0.018230 0.001738 0.006588 -0.004116 0.012204 -0.012397 -0.012529 -0.005165 0.011803 0.001616 0.002757 0.012950 -0.014902 -0.010469 0.012011 -0.018286 0.007880 -0.005293 0.006295 0.017682 -0.018480 -0.016525 -0.029611 0.031612 -0.009071 0.004712 -0.031572 -0.004220 0.022892 -0.009490 0.010539 0.024696 0.227141 0.012785 0.013814 0.006647 0.009601 -0.016431 -0.022423 -0.013492 0.002461 -0.003620 0.000638 0.020007 0.015280 -0.007712 0.008865 -0.020644 0.018462 0.007758 0.011273 0.095250 0.008443 -0.009950 -0.014739 -0.015497 -0.035387 -0.209483 0.023263 -0.014123 -0.006478 0.003056 -0.015963 0.021934 0.012022 0.002790 0.002434 -0.011934 0.006516 0.005063 -0.029471 0.004828 0.053320 0.003103 -0.010906 0.018236 -0.019205 0.010042 0.029355 -0.012620 0.003271 0.002300 0.002084 0.026008 0.018831 0.017230 -0.006614 0.009918 -0.032238 0.017554 0.027701 0.001934 0.020484 -0.003093 0.000655 0.002623 -0.010650 0.156592 -0.002897 -0.010561 0.004032 0.025794 -0.004052 -0.010247 0.005738 0.005183 0.017724 -0.014192 0.009228 -0.017780 0.000685 0.011201 0.045758 0.009984 0.009906 -0.017382 -0.024513 0.014842 0.039046 -0.011628 -0.015855 -0.032287 -0.011192 -0.055018 0.002542 -0.000120 -0.010679 -0.001087 0.001738 -0.025262 -0.026289 0.006448 -0.009982 -0.017696 -0.033500 -0.022360 -0.013485 -0.027967 -0.021797 0.008337 -0.010342 0.008064 0.017441 0.008779 0.015737 -0.009136 -0.002016 -0.014527 -0.002073 0.000428 -0.021995 -0.006761 0.000971 0.001843 0.012528 0.031790 -0.010692 0.003366 0.005475 0.002488 -0.012959 0.414011 0.007317 0.029345 0.012925 0.016937 0.020266 0.012383 -0.004168 -0.014134 -0.004330 0.006843 0.005788 0.055358 -0.003717 0.008989 0.022189 0.019680 0.002941 0.015527 -0.194220 -0.000736 -0.003049 0.006628
ukraine -0.007746 -0.008072 -0.018171 0.019441 -0.012729 -0.014876 0.009126 0.028591 -0.018487 0.005259 -0.102974 -0.010587 0.005239 0.007205 -0.008265 0.011985 -0.003502 0.003296 -0.019795 0.001488 0.008563 0.006864 -0.008088 -0.016547 -0.008182 -0.015981 -0.023215 -0.005044 0.016814 0.008247 -0.005781 0.023191 -0.001367 -0.022640 0.018806 0.010507 -0.012817 -0.019158 -0.061851 -0.032110 0.008923 0.021338 0.002201 -0.010855 0.007850 0.026728 -0.004271 -0.019662 -0.077596 0.015325 0.009848 0.020427 -0.012185 -0.003709 0.007227 -0.006021 0.010747 0.002071 -0.013797 -0.017668 0.006989 0.001842 -0.020943 0.036586 0.013200 -0.010988 0.008230 -0.045934 -0.020641 -0.004512 -0.000212 0.021802 0.014649 -0.257280 -0.029829 -0.013167 0.007628 -0.000743 -0.000820 -0.020935 -0.000782 0.008195 0.000972 -0.013028 -0.007214 0.011081 0.003035 -0.005705 0.228311 0.029844 0.006603 0.001378 -0.044680 0.016902 -0.045342 -0.006228 0.006974 -0.004266 -0.004030 0.110995 0.013596 -0.025246 0.004399 0.009680 -0.015172 -0.033402 0.000993 -0.002219 0.007979 0.026572 -0.001122 0.022389 -0.014091 -0.034976 0.004891 0.004564 -0.016323 -0.004113 -0.018079 -0.010741 0.013160 0.003849 0.017094 0.012882 0.020582 0.012926 -0.006188 -0.006320 -0.117043 0.003658 0.028975 -0.001683 0.000062 0.022085 -0.005804 0.008369 0.003848 0.260962 -0.013048 -0.020742 0.016001 -0.002434 0.012714 -0.002832 0.006229 0.004258 -0.006739 -0.009654 -0.005166 0.023584 -0.167667 -0.013231 0.019838 0.001244 0.018309 0.008874 -0.019379 0.015565 -0.011338 0.008922 -0.004035 -0.000207 -0.017457 0.012069 0.002280 0.017362 0.004075 0.012424 -0.004980 0.035285 0.027107 -0.000263 -0.013358 -0.004696 -0.019300 0.006379 -0.016006 0.237970 -0.023774 0.000784 -0.005515 -0.014218 -0.011781 -0.021082 0.004684 -0.017465 0.003178 0.001396 -0.009947 -0.027775 -0.021769 -0.021163 -0.030977 0.000407 0.007064 0.000182 -0.028860 0.001097 -0.012142 0.008038
professional -0.037851 -0.014467 -0.019281 0.011754 0.004577 -0.031447 0.005880 0.066277 -0.005932 0.032926 0.182877 -0.018157 -0.006519 0.002422 -0.005258 0.035416 0.003773 0.017205 -0.009181 -0.015685 -0.010133 0.024490 -0.016890 0.014832 -0.000977 -0.002321 -0.010258 -0.000947 0.025301 0.008802 -0.019741 0.030925 -0.006502 -0.043422 0.007289 -0.003173 -0.017122 0.017090 0.385184 -0.025489 0.026754 0.007147 0.019073 -0.008131 -0.029963 0.037559 -0.014529 -0.034255 -0.065158 -0.019068 -0.019326 -0.010451 -0.032322 -0.005539 0.040962 0.025940 -0.014443 0.005171 -0.009665 -0.037257 0.013832 0.021573 -0.019805 0.035034 0.005026 -0.039319 -0.011525 -0.018988 0.004748 0.024113 0.007878 -0.006790 0.031551 -0.002579 -0.022898 0.023827 0.001904 0.004383 0.031239 -0.020530 -0.007978 -0.004467 0.001302 0.022274 -0.024472 0.002134 0.003415 -0.028838 -0.131407 0.010052 -0.004939 -0.019316 0.008850 -0.009535 -0.040321 0.003033 -0.057295 0.021962 -0.020399 0.051318 -0.005250 -0.014475 0.018721 -0.013419 -0.010806 -0.003864 0.012785 -0.014485 -0.024346 0.019512 0.014076 -0.055462 0.011050 -0.306002 0.006359 0.008881 -0.020660 -0.033071 0.007758 0.010561 0.036908 -0.029181 -0.015954 -0.025428 -0.011475 0.029857 -0.006606 0.000267 -0.210855 0.000420 0.002486 -0.019551 0.004967 0.009927 -0.019105 0.010420 0.014662 -0.082428 0.000003 0.082168 0.005775 0.026569 -0.010092 -0.005364 -0.006771 0.031619 0.013646 -0.037884 0.013071 0.043158 0.133941 0.022529 0.027705 0.001051 0.033421 -0.020386 0.013508 -0.015494 -0.021332 0.000217 -0.035764 0.032896 0.009055 0.015805 0.006653 -0.012049 0.022635 0.029919 -0.005128 0.013292 -0.024304 -0.028942 0.009903 0.015821 -0.013833 0.007234 0.001853 0.087545 -0.014027 -0.028796 -0.019681 -0.018755 -0.036813 0.007773 0.004497 0.002327 0.006814 -0.011513 -0.009740 0.086107 -0.009777 -0.032054 -0.038481 -0.023899 0.019060 -0.023840 -0.248901 -0.047235 -0.009173 -0.011985
moving -0.002385 -0.005414 -0.005810 -0.000486 -0.002405 -0.005404 0.003034 -0.180999 0.007143 0.016723 -0.120206 0.007785 -0.006932 -0.036520 0.004895 -0.008594 0.003105 -0.008045 -0.025334 0.013241 -0.008664 0.004467 0.009679 -0.014384 -0.005860 0.020267 0.006885 -0.005211 -0.009352 -0.007048 0.017563 -0.002070 0.005737 0.007895 0.012217 -0.012403 0.018693 0.009863 0.095157 -0.019848 -0.007804 -0.004538 0.003193 -0.005155 -0.018530 0.003088 -0.009100 -0.002093 -0.071158 0.000791 -0.002314 -0.005245 -0.012703 0.008694 0.010036 0.004508 0.026781 -0.003127 0.017387 -0.011062 -0.010958 -0.020674 0.003804 0.005536 -0.017948 0.006072 0.007675 0.258681 -0.026290 0.011602 0.015584 0.006758 -0.005738 0.305978 0.005548 -0.009245 0.010116 0.019691 0.005565 -0.009559 0.002314 -0.019080 -0.003909 0.011919 -0.010113 -0.009853 0.024431 0.014465 -0.002601 0.000841 -0.003772 -0.025362 0.019936 -0.006390 -0.000452 0.018278 -0.075484 -0.010489 -0.008482 -0.097723 -0.025276 -0.006336 0.010594 0.014439 0.007632 -0.018830 -0.026755 -0.003455 -0.007635 -0.005728 -0.008416 0.005570 0.005114 0.101011 0.011113 0.012870 0.005492 -0.019949 0.010009 0.009140 -0.006955 0.013638 0.001247 0.016840 0.010258 -0.010687 -0.002297 0.009821 -0.015117 -0.012446 0.001010 0.013290 0.031890 -0.021003 -0.027149 0.019049 0.019036 0.200710 0.012829 0.123383 0.002066 -0.008134 -0.007947 -0.018172 -0.012850 0.009331 0.006882 0.009298 0.007202 -0.012156 0.026909 0.015322 -0.003106 0.017301 0.005394 -0.009255 0.000690 -0.017651 -0.007568 -0.003486 -0.007743 -0.003537 -0.020514 -0.008804 0.004159 0.002334 0.015740 0.000294 0.002103 -0.012040 -0.008722 -0.018402 -0.006988 -0.018748 0.013547 -0.000745 0.024883 0.055330 -0.005742 -0.021160 -0.023348 0.014672 0.023957 0.000152 -0.012843 0.018502 0.007424 -0.009635 0.000713 -0.076106 0.001450 -0.009865 0.014043 -0.000556 -0.025966 -0.001659 -0.029222 0.010590 -0.002599 -0.014718
tough -0.001124 0.013986 -0.019896 -0.008685 0.003249 -0.009577 -0.004271 -0.250471 -0.010826 -0.001086 0.086350 -0.001887 0.001924 0.010297 -0.003252 -0.009577 -0.015713 -0.000447 -0.007226 -0.003506 0.000918 0.010215 0.006681 -0.016639 -0.002104 -0.011453 -0.002322 0.018839 -0.013391 -0.004942 0.026294 0.014422 -0.000390 0.016490 0.015133 0.003804 0.004278 0.009201 -0.231726 -0.009019 0.002681 0.018621 0.003328 0.009069 0.006613 0.004330 -0.002526 0.002406 -0.122550 0.035967 0.008313 0.006925 0.013399 -0.005230 -0.011401 -0.014460 -0.006108 -0.019229 -0.011171 0.011398 -0.015338 -0.007445 -0.008689 0.010957 -0.000655 0.026176 0.008617 0.049843 -0.016171 -0.027619 0.022352 0.007390 -0.007967 -0.258292 0.003537 -0.007782 0.005315 -0.003834 0.004662 0.006762 0.003075 0.011056 0.022006 -0.013985 0.006075 -0.006399 0.015975 0.009365 0.060814 0.019250 -0.006733 -0.002150 -0.028913 -0.002762 -0.011154 -0.009086 -0.006668 0.007037 0.016249 -0.205316 0.000917 -0.023977 0.005131 0.009545 -0.006178 -0.017712 -0.026889 0.013642 0.007442 0.010888 -0.022990 0.039962 0.001187 -0.048444 -0.004942 -0.011786 0.003486 0.003637 -0.020899 -0.008003 -0.012604 0.010360 0.027064 0.039258 0.011435 0.011144 -0.023581 -0.000354 -0.182816 0.004629 0.007695 0.002388 0.009960 -0.014208 0.068523 0.008586 -0.008445 -0.246370 0.009588 0.098292 0.017281 -0.034551 0.028317 -0.003767 -0.000491 -0.014050 -0.010808 0.018610 -0.015181 -0.014467 0.046101 -0.019430 -0.001276 0.002620 -0.012753 0.021462 -0.009409 0.015358 -0.011733 0.010388 0.021433 -0.020941 -0.018431 0.012372 -0.001073 0.000961 -0.002368 0.002747 -0.002807 0.014740 0.029470 0.012593 -0.008211 0.003026 -0.004999 0.000067 -0.003370 -0.095216 -0.018544 0.012546 0.014742 0.001180 0.007561 0.002149 0.007425 -0.017497 0.011973 -0.003262 -0.004326 0.024865 -0.012810 0.006603 -0.011266 0.021756 -0.027842 0.012014 0.121954 0.036209 -0.009139 0.006077
flying -0.003405 0.006097 0.003253 0.012319 -0.003074 -0.014457 -0.009987 -0.145541 -0.014722 -0.014420 0.024257 -0.015201 0.033659 -0.016016 -0.032103 0.024539 0.000935 0.005104 -0.026445 -0.003318 -0.013436 0.008282 -0.009086 -0.022585 0.008378 -0.007942 0.016893 -0.000123 -0.014424 0.011319 -0.001075 -0.000078 -0.001174 0.000281 0.017339 0.007167 -0.024329 -0.001602 -0.127655 -0.004873 -0.006486 0.004737 -0.009236 -0.003857 0.006054 0.022640 -0.011598 0.032174 -0.076225 0.013022 0.007672 -0.014405 -0.010477 -0.018249 0.007679 0.007552 -0.005633 0.006029 0.004156 0.041618 0.019929 -0.007769 0.023552 -0.021154 -0.000445 0.002661 0.002283 0.186564 -0.030457 -0.015315 -0.001577 -0.024389 -0.019851 0.285591 0.010070 0.017379 0.038791 0.011392 0.007442 -0.001220 0.008000 0.003544 0.003951 -0.012591 0.004357 -0.004869 0.011249 0.009970 0.017984 -0.000350 -0.003386 0.014476 -0.009582 0.016698 0.001589 -0.023338 0.138689 -0.012934 -0.021685 -0.200931 0.012984 -0.012252 0.020013 0.018771 -0.008988 0.004267 -0.012404 -0.010128 -0.010248 -0.001141 -0.029502 0.011315 0.006815 -0.144257 -0.012848 0.007322 0.010513 0.037794 -0.008209 -0.010867 -0.012748 -0.013935 0.002091 -0.027606 -0.011912 0.002953 -0.005209 0.013995 0.052672 -0.018914 0.008838 -0.014882 -0.015241 0.025551 0.085108 0.009415 0.018168 0.160474 0.001006 0.018608 0.011827 -0.029974 -0.029127 -0.006422 0.003447 -0.005151 0.010092 0.010611 0.015537 -0.022773 0.034032 0.010750 -0.021310 -0.011612 -0.032351 0.023734 -0.017508 0.004964 -0.005427 -0.010943 -0.002726 -0.027691 -0.019755 -0.006057 -0.014571 -0.004790 -0.014204 0.005872 -0.008521 0.000354 -0.001851 -0.000251 -0.024092 0.022009 0.040631 -0.006853 0.016365 0.293470 0.028519 0.006090 -0.015589 0.038414 0.009888 0.024318 0.023394 -0.000528 -0.010048 0.041636 -0.014071 0.068653 -0.021958 -0.030704 0.005160 0.010446 -0.002206 0.006214 0.080135 0.012526 0.007760 0.017106
professionally -0.018386 -0.014183 0.027698 -0.010125 -0.004212 0.017450 -0.009787 0.087203 0.015733 -0.028987 0.154847 -0.012054 0.001461 0.013580 0.008134 -0.011233 0.014057 0.019687 0.038423 -0.004626 -0.009359 -0.004119 0.004643 0.024987 0.000547 0.005276 -0.002154 -0.002321 -0.004511 0.023790 -0.004685 -0.021413 -0.003489 0.024913 -0.005903 -0.005259 0.001960 -0.005235 0.142456 0.010893 0.015059 -0.037108 0.011990 -0.002449 -0.006418 -0.033734 0.001949 0.001227 -0.196512 -0.005334 -0.012557 -0.002615 0.018917 0.005392 -0.007015 0.019693 -0.033827 0.000992 0.003048 0.035728 0.001086 0.009274 0.037897 -0.025952 -0.010880 0.028466 -0.010740 -0.072780 0.023649 0.009497 -0.022861 -0.009235 0.028632 -0.021396 0.006124 -0.005379 -0.006432 0.007879 -0.005615 0.007664 -0.021498 0.009306 0.003860 0.001018 0.005838 0.003175 0.000712 0.002460 -0.163162 -0.020753 0.028210 -0.004195 0.028888 -0.017322 0.024054 0.023435 0.032009 0.004582 0.008120 -0.371511 -0.020433 0.030027 -0.014856 -0.032357 0.030199 0.024985 0.013281 0.003074 -0.013451 -0.019675 0.010886 0.009499 -0.015652 0.011557 -0.004193 -0.005036 0.017699 0.016624 0.003405 0.014065 -0.010443 -0.009795 -0.033737 -0.018710 -0.041383 -0.000306 0.011131 0.013951 0.110676 0.000127 -0.011549 0.027294 0.000267 -0.007439 0.006632 0.009550 -0.005209 0.047922 0.012894 -0.345838 -0.014978 0.004685 -0.007898 -0.001918 -0.008560 0.007885 0.006390 -0.011581 0.013483 0.012242 -0.031887 0.016381 -0.010144 0.022770 -0.003158 -0.000948 0.012305 0.015368 0.009408 -0.004694 -0.007967 -0.005647 0.004183 -0.008745 0.002518 -0.004891 -0.007988 -0.013636 0.001876 -0.006244 -0.032432 0.006867 0.021963 0.011831 0.004486 -0.014337 0.017446 -0.009080 0.029561 -0.004412 0.001353 -0.002029 -0.001470 0.010086 0.008841 0.020301 -0.028480 0.009346 0.008499 -0.114802 0.035532 0.006118 0.016481 -0.005460 0.000413 -0.006499 -0.194735 0.012296 0.011599 -0.005864
norwegian -0.016587 -0.007098 0.007920 0.007495 -0.005092 -0.007488 -0.000635 0.008387 -0.002130 0.015096 0.106835 0.023599 0.025913 -0.005365 -0.018720 0.013589 0.012680 0.008912 -0.004176 -0.016657 -0.017311 0.004493 -0.004109 0.025544 0.019272 0.017259 0.003005 -0.002397 -0.006205 -0.028110 0.007193 0.022727 0.005271 0.002043 0.007650 0.018575 -0.015116 -0.004197 0.010449 -0.012478 -0.005950 0.011214 -0.018411 -0.036188 -0.043490 0.029745 -0.017090 0.011866 0.091415 -0.005618 -0.014929 0.006133 -0.034020 0.004402 0.044414 0.000546 0.031181 0.022033 0.007168 0.010047 0.014493 -0.000285 -0.002470 0.001958 0.017849 -0.007806 -0.017630 0.215655 -0.011553 -0.000522 0.017990 -0.020000 -0.013900 -0.138306 -0.007160 0.022544 0.019861 0.010702 0.020922 -0.004894 -0.002533 -0.000375 0.010629 0.029906 -0.030715 -0.009378 -0.002509 -0.003755 -0.152750 -0.020123 -0.015050 -0.002177 0.004080 0.008613 -0.002411 -0.013794 0.025062 0.006333 0.004489 0.173401 -0.008839 0.006313 0.008950 0.011517 -0.012327 -0.003182 0.011107 0.011817 -0.010793 0.024771 0.003915 -0.032973 -0.007163 0.035797 0.018853 0.011653 -0.011780 0.001386 0.030614 -0.003290 0.016972 -0.006306 -0.025608 -0.026022 0.003768 0.002571 -0.014741 0.018327 0.215534 -0.012050 0.027127 0.006615 -0.006725 0.022805 -0.074997 0.009068 0.003572 -0.008079 -0.014532 -0.118513 -0.005575 0.016471 -0.021128 -0.010418 0.004527 0.013514 -0.003645 -0.020354 0.004417 -0.011968 -0.055795 -0.022562 0.021413 0.001751 0.002933 0.003729 -0.019034 -0.009639 -0.005507 0.024982 -0.018812 -0.014800 -0.015080 -0.021514 0.003470 -0.020712 0.002883 0.019663 -0.013797 0.011494 -0.002681 -0.000231 -0.012672 0.004273 0.021482 -0.006048 -0.020603 -0.214454 0.013649 -0.037829 -0.024837 0.007679 -0.006432 -0.008711 0.005787 -0.021502 -0.009132 0.008823 0.005646 -0.000331 -0.016638 -0.030450 -0.009629 -0.027479 -0.012118 0.018924 -0.008253 -0.010817 -0.008719 -0.019644
argentinean 0.003393 0.010485 -0.008734 0.027529 -0.002262 -0.004122 -0.021343 -0.002045 0.003455 0.013572 0.008554 0.006247 0.011210 0.001822 -0.028510 0.015333 0.022133 -0.004012 -0.047012 -0.022755 -0.003298 0.004066 -0.004852 -0.010194 -0.003120 0.029812 -0.000302 -0.025251 0.018441 -0.028804 -0.011221 -0.014575 -0.009920 -0.045810 0.004851 -0.006317 -0.018529 0.030883 -0.037198 0.012674 0.000852 0.037805 -0.019923 -0.026954 -0.000927 0.023932 -0.018500 0.008747 -0.206883 -0.002719 0.020134 -0.022461 -0.030678 -0.027342 0.031909 0.021158 0.020211 0.005088 0.009818 -0.017100 0.007073 0.003935 0.003709 -0.015448 0.004267 -0.033803 0.027272 -0.035843 -0.015178 0.018788 0.022807 -0.008548 -0.021944 0.038961 -0.004615 0.009872 -0.011132 0.018825 0.028516 -0.017127 0.024407 -0.003784 -0.040341 0.009697 -0.029572 -0.003690 -0.002870 -0.016337 -0.305389 -0.008249 -0.013637 0.018029 -0.009677 0.017051 0.007540 -0.008832 0.068444 -0.003502 -0.044373 0.260530 0.011653 -0.021088 0.029041 0.015490 -0.023474 0.025554 -0.008867 -0.015060 -0.008685 -0.012458 0.003321 -0.015853 0.023902 0.038792 0.003273 0.015817 -0.014192 -0.007023 0.005539 0.009298 0.015322 0.000314 -0.004557 -0.004356 0.027004 -0.024857 0.006713 0.013028 0.101632 0.003899 -0.028197 -0.013399 -0.008386 -0.006543 -0.036558 0.001711 0.019735 -0.108870 -0.004804 0.000253 -0.007659 0.009792 -0.008770 0.012553 0.012286 0.002613 -0.007295 0.000983 0.019862 -0.016893 -0.079903 0.025847 -0.028686 -0.018229 -0.010634 0.007195 -0.003614 -0.007902 -0.009153 -0.021185 -0.002774 0.025508 0.001178 -0.017231 0.014904 0.011429 0.031211 -0.003562 -0.000865 -0.011964 0.002593 -0.029043 -0.029300 -0.017028 0.031343 -0.002450 0.002057 -0.244901 0.008575 -0.008305 -0.028602 0.011886 -0.016464 0.015945 -0.018202 0.019060 0.022218 0.000296 -0.032659 0.026065 -0.037252 -0.017183 0.025308 -0.005807 0.014564 -0.036580 0.059451 -0.047581 -0.013310 0.007863
ukrainian 0.007395 -0.000763 -0.003917 -0.013696 0.012935 0.018857 -0.006408 0.084372 0.013129 0.011164 0.087375 -0.005232 -0.036896 0.010140 0.009240 -0.021142 -0.027717 0.009695 0.017739 -0.008291 0.012518 -0.002956 -0.013668 0.001924 0.016828 -0.006756 0.001321 0.015116 -0.009342 -0.015375 0.022962 -0.034140 -0.003959 -0.015188 0.002640 0.014282 0.021628 -0.003339 -0.035030 0.002772 0.010755 0.021235 0.001590 0.021565 0.028727 -0.019862 0.038003 -0.008307 -0.182039 0.019237 0.002127 0.005043 0.012856 0.008185 -0.025782 -0.017339 -0.009019 -0.045962 -0.003878 -0.008859 -0.017304 -0.024946 -0.004389 0.010213 0.009740 0.036772 0.027228 0.066424 0.014358 -0.000623 -0.000494 0.027208 -0.001287 -0.019910 0.016425 -0.030736 -0.033526 -0.036041 -0.024814 0.023446 -0.014453 0.002048 0.008142 -0.019914 0.006778 0.011888 -0.002548 0.004106 0.120890 0.027138 -0.004375 0.005270 -0.012189 -0.022923 0.016567 0.012021 0.052697 0.018861 0.030215 0.309444 0.006413 0.010299 -0.009003 0.005266 -0.005152 -0.008329 -0.009329 0.002873 0.000992 0.009934 -0.005860 0.035802 -0.004017 -0.168144 -0.002417 -0.014944 -0.023393 -0.013439 -0.025745 -0.001823 -0.008062 0.012869 0.034512 0.030501 0.001517 -0.000233 0.002229 -0.008679 0.172859 0.015060 -0.028555 0.012838 0.017301 -0.042524 0.184862 0.001861 -0.009523 -0.054902 0.004770 -0.145562 0.004973 -0.014805 0.028343 0.016301 -0.031353 -0.021591 -0.003251 -0.000649 -0.042913 0.010256 0.012358 -0.024623 -0.011514 0.005277 -0.016645 -0.001896 0.009047 0.003165 0.006637 0.014527 0.038969 0.011122 0.020846 0.001272 0.009922 0.031145 -0.008306 -0.009001 0.007752 -0.019639 0.010851 0.018542 0.004910 -0.002881 -0.027160 0.036516 -0.003091 -0.243876 -0.037069 0.025662 0.041970 -0.025462 0.011494 -0.003684 -0.009968 -0.024010 0.008785 -0.026248 0.001647 -0.040882 0.020098 0.009783 0.022790 0.021159 0.008661 -0.012135 -0.045385 0.002866 0.012407 0.013311
occasional 0.037879 -0.008760 -0.000723 -0.011763 -0.013048 0.016282 0.001022 -0.016280 0.001376 -0.017064 0.203018 0.019206 0.009103 0.019123 0.010831 -0.003396 0.009296 -0.007292 0.017839 0.006346 0.000878 -0.027764 0.007572 0.033699 -0.006815 -0.014908 0.000160 -0.011611 0.002360 -0.013897 -0.022663 -0.018287 -0.001206 0.014545 -0.021302 0.010183 0.000431 -0.020708 0.235259 0.022328 -0.013241 -0.026601 0.000230 -0.010954 0.008056 -0.021359 -0.001336 -0.021591 0.117763 -0.021846 0.022476 0.024315 0.001041 0.009918 -0.012444 -0.010165 0.011096 0.022944 -0.002250 0.000079 -0.007591 0.010204 0.011001 -0.034177 0.004469 -0.027604 0.012604 -0.052692 0.024903 -0.018726 -0.023430 0.009812 0.009073 -0.007688 -0.008954 -0.004155 -0.027001 -0.006528 -0.020481 0.003030 -0.002469 0.005443 -0.018874 0.008284 -0.000374 0.004534 -0.026008 -0.001562 0.011869 -0.022702 0.006803 0.021663 -0.008003 0.016548 0.000085 -0.019031 -0.114159 -0.014968 0.012232 0.080245 0.000432 0.009166 -0.021892 -0.011445 0.008818 0.025641 0.035983 0.013221 0.006646 -0.013876 0.007501 -0.006829 -0.015554 -0.314061 0.002243 -0.007873 0.007769 0.029663 0.006650 -0.008533 0.001231 0.000474 -0.010989 -0.006536 0.022187 -0.018215 0.018321 -0.014789 -0.208725 0.004116 0.004917 0.007545 -0.023876 0.023415 -0.036031 -0.021079 -0.015785 -0.110739 -0.026723 0.037843 -0.023854 0.017161 0.001463 0.010733 0.030176 0.008236 -0.001050 0.005089 -0.003592 0.000843 -0.076730 -0.019100 -0.005554 -0.011054 -0.002091 0.003063 -0.011887 0.001566 0.019920 0.010034 -0.002191 -0.005999 0.022937 -0.013804 0.000279 -0.007537 -0.016067 -0.009437 -0.000088 0.006398 0.019562 0.007035 -0.005987 -0.010696 0.002960 -0.007832 -0.025012 0.147233 0.015206 0.003859 0.001474 -0.037028 0.009446 -0.017937 -0.000473 -0.013180 -0.005297 0.007606 0.015488 -0.110263 0.016331 0.027124 0.016917 -0.026799 0.009793 0.004328 0.067613 0.002561 0.003697 0.001527
denmark -0.004678 0.005330 -0.031185 0.018296 -0.005798 0.006066 0.007511 -0.097530 -0.004579 0.029536 -0.088531 0.002252 0.004302 0.000234 0.000436 0.005084 -0.008031 -0.008796 0.007526 0.000280 0.000507 0.003868 0.012671 -0.001992 0.017233 -0.002127 -0.011474 -0.004048 0.005692 -0.010944 0.039623 0.000967 -0.001744 -0.004860 0.030877 0.012663 0.014241 0.009680 0.087174 -0.008339 -0.012304 0.042067 -0.005305 0.003599 -0.002516 0.020229 0.021294 0.017457 0.016353 0.028516 -0.015495 -0.004027 0.007915 0.010529 0.007837 -0.018412 0.008524 -0.015625 0.000540 0.002403 0.012096 -0.006644 -0.042324 0.023009 0.002078 0.026719 0.008402 -0.230845 -0.021523 -0.031801 0.014193 0.002668 -0.000024 -0.170794 -0.012835 -0.014609 -0.004342 -0.016552 0.002560 -0.002193 -0.013864 0.014384 0.018645 -0.004646 0.001265 0.007634 0.008822 -0.009505 0.086667 0.010009 -0.000105 0.008180 -0.023796 -0.009083 -0.003158 -0.001044 0.247149 -0.012102 0.025948 0.059882 0.013903 -0.013239 0.007470 0.012027 -0.002986 -0.029486 -0.015687 0.002442 -0.016746 0.024786 -0.011802 0.016022 0.013581 0.226048 -0.003158 -0.019770 -0.031695 -0.020412 -0.020855 -0.006271 0.008242 0.002878 0.018891 0.016775 -0.009328 0.028356 -0.024896 -0.001635 0.042151 -0.004648 -0.007026 -0.008193 0.020914 -0.019855 -0.136663 0.014031 -0.011246 0.011275 0.007111 -0.000579 -0.001682 -0.020340 0.013946 -0.002045 -0.012066 0.004236 -0.003326 -0.012216 -0.018972 -0.007521 0.133830 -0.027906 -0.000495 0.017906 -0.008284 0.013109 -0.013435 -0.000440 -0.001615 0.011571 0.011939 -0.015592 -0.008755 0.015208 -0.004125 0.009910 0.008355 0.004082 0.005257 -0.009168 0.009396 0.003037 0.008722 0.002995 -0.023036 0.022292 -0.039436 0.281584 -0.021661 0.000261 0.008370 0.008440 -0.015405 0.000270 0.002253 -0.016675 0.013915 -0.009114 -0.010769 0.023043 -0.020696 -0.008953 -0.011335 0.011264 -0.010307 -0.009527 -0.015875 0.002854 -0.001311 0.008193
