fly -0.319749 -0.167224 0.253749 0.109863 -0.088985 -0.277473 -0.045819 0.085213 -0.010031 -0.188582
loud -0.172195 0.123969 0.100807 -0.124300 -0.024542 0.138101 -0.122268 0.207320 -0.034917 0.264173
tough -0.055740 0.113039 0.101198 -0.131463 -0.057191 0.033100 -0.124389 0.235123 -0.030177 0.216602
occasionally 0.174189 0.205931 -0.055124 -0.142278 0.041579 -0.127808 0.073216 0.059515 0.171584 -0.153372
moving 0.198369 -0.130075 -0.019312 -0.083330 0.241596 -0.180139 0.235262 0.093128 -0.138224 -0.010273
professionally 0.160417 0.264141 -0.067482 -0.077291 0.073533 -0.087380 -0.088559 0.014029 0.177168 -0.178573
professional 0.189342 0.036518 -0.028249 0.014166 -0.007943 -0.132146 -0.388698 -0.167379 -0.274277 0.027505
norwegian -0.110955 0.044540 -0.079079 0.100729 -0.092738 0.111537 0.058860 -0.149966 -0.060672 -0.039420
tougher 0.061011 -0.031748 -0.173540 0.174117 -0.101977 -0.192438 -0.011213 -0.083789 0.117609 0.260792
ukraine 0.075488 -0.178902 -0.044332 -0.233685 -0.176674 0.022533 -0.006453 -0.014038 0.005472 0.013090
move -0.374891 -0.077527 0.166723 0.041705 0.170291 -0.326698 0.043227 -0.177664 0.023673 0.005776
occasional 0.077784 -0.006985 0.012426 -0.075997 0.010651 -0.165442 -0.305128 -0.129391 -0.197374 -0.044645
ukrainian -0.133775 0.106169 -0.273909 0.076441 -0.181009 0.019985 0.026204 -0.097303 -0.049686 -0.124579
flying 0.108032 -0.132628 0.031877 0.009388 -0.010265 -0.100505 0.104932 0.305661 -0.187402 -0.145339
danish -0.048454 0.074478 -0.102971 0.282758 -0.125439 0.122539 0.047317 0.010824 -0.044842 -0.154801
norway 0.131030 -0.282025 0.115648 -0.195307 0.007003 0.133838 0.029068 -0.063322 -0.023653 0.064427
argentina -0.031721 -0.308340 -0.023949 -0.120029 0.134853 0.119662 -0.080665 0.020589 0.188214 -0.037092
louder 0.073054 -0.039317 -0.238654 0.183056 -0.041103 -0.057864 -0.011291 -0.031674 0.165998 0.301536
argentinean -0.182731 0.056738 -0.280412 0.157855 0.005044 0.087409 -0.030915 -0.014236 0.038039 -0.131190
denmark 0.153105 -0.322634 0.134562 -0.001722 -0.083754 0.112231 -0.036214 0.015995 0.041310 -0.073798
