move 0.064311 -0.014599 0.196039 0.239373 -0.252165 -0.395115 -0.064834 0.233992 -0.042985 -0.107528
tougher 0.235234 -0.047400 -0.006296 0.175853 0.101977 -0.126548 0.182225 0.229818 0.183544 -0.106671
occasionally -0.179250 -0.042640 -0.218974 0.277978 0.003152 -0.065294 0.097892 -0.053268 0.158676 0.170755
argentina -0.298970 -0.081877 0.149142 -0.104801 0.175810 -0.212393 0.300704 -0.070186 0.060274 -0.081031
danish 0.106376 -0.133005 0.094062 0.185166 0.343863 0.004739 -0.213123 -0.067634 -0.335511 -0.315423
fly 0.031424 0.110313 0.155509 0.096136 -0.156917 -0.366039 -0.070139 0.132755 -0.112302 -0.137145
louder 0.210194 -0.003559 0.011207 0.026147 0.200515 0.005341 0.069040 0.266850 0.014276 -0.193217
loud -0.072630 0.314894 -0.070187 -0.104401 0.178272 0.046542 0.134604 0.187166 -0.203737 -0.351315
norway -0.290113 -0.115155 0.170553 -0.155446 0.050500 -0.179422 0.382796 -0.049980 0.136341 -0.018934
ukraine -0.206687 -0.076197 0.028237 -0.138283 0.068218 -0.267893 0.354470 0.029312 0.147733 -0.000293
professional 0.035703 -0.135565 -0.239401 -0.284637 0.109238 0.088537 -0.122998 0.156603 -0.107583 -0.017721
moving 0.066776 0.057609 -0.093539 0.081038 -0.129558 -0.159909 0.044802 -0.095528 0.273068 0.184277
tough 0.036248 0.293298 -0.181328 -0.021818 0.109017 -0.121094 0.165056 0.132406 -0.157695 -0.241833
flying 0.005810 0.152052 -0.175824 0.028464 -0.098514 -0.188676 0.066186 -0.171168 0.177495 0.210719
professionally -0.192083 -0.073317 -0.203915 0.173970 0.124872 0.097185 0.029123 -0.035566 0.116672 0.154221
norwegian 0.172036 -0.143685 -0.001358 0.153988 0.263971 0.041912 -0.095425 -0.063719 -0.233379 -0.277678
argentinean 0.185832 -0.089694 -0.005024 0.103839 0.356019 -0.014831 -0.195133 -0.052076 -0.246291 -0.282458
ukrainian 0.222148 -0.128244 -0.151104 0.107033 0.301929 -0.047019 -0.149471 -0.034420 -0.175223 -0.266408
occasional 0.019456 -0.066180 -0.225463 -0.197395 0.003293 -0.035892 -0.047441 0.157008 -0.088471 -0.034668
denmark -0.321636 -0.101330 0.187970 -0.101581 0.158488 -0.188791 0.280787 0.000536 0.025715 -0.063110
