hanoi 0.021354 -0.081877 0.072021 0.028853 0.020459 -0.106011 -0.103690 -0.034353 -0.026004 -0.048898 0.070463 0.122579 -0.019250 0.140469 -0.076001 -0.193368 0.065816 -0.042564 -0.006270 0.066478 0.090266 -0.036267 -0.032872 -0.031434 -0.097363 -0.055540 -0.011172 -0.065375 -0.001421 -0.003403 -0.026254 -0.051431 -0.025013 -0.037635 0.051183 0.084273 0.063556 0.083164 0.093901 -0.016388 -0.090934 -0.036942 -0.000065 -0.066350 -0.036281 -0.011955 -0.033616 0.094075 0.081795 0.013605 -0.062828 0.073821 0.068200 0.053432 0.010386 -0.139577 0.050939 -0.102372 -0.020116 -0.056913 -0.028777 0.017288 -0.024090 -0.073875 0.042501 -0.036580 -0.157715 0.138350 -0.078902 0.021334 0.057493 0.142860 0.122965 0.055866 -0.066643 -0.012913 -0.102370 -0.017823 0.005958 0.021622 -0.043353 0.058988 0.013899 0.023187 -0.058311 -0.105818 0.052746 0.034983 0.001814 -0.002250 -0.004372 -0.048817 0.106004 -0.026620 -0.069997 0.039209 0.056128 0.083928 -0.038196 -0.018879 0.151667 0.021600 0.062301 0.033090 -0.055799 0.010392 -0.004482 0.056825 -0.047773 0.028374 0.121624 0.017192 0.015967 0.015555 0.048438 -0.076345 -0.012175 0.027444 -0.054194 0.041557 -0.098152 0.024161 -0.152821 -0.081983 -0.122683 0.021769 0.041432 -0.109161 0.038299 0.118505 -0.028764 0.059195 0.063715 0.051075 -0.051898 0.219994 -0.000263 0.069205 0.036690 0.100472 0.010614 0.000172 0.129063 0.000853 -0.056431 0.013332 0.134379 -0.024991 0.004962 0.006572 0.104366 -0.147183 -0.077467 0.004712 -0.101979 -0.213238 0.060439 -0.121400 -0.101743 -0.010820 0.016514 -0.015132 0.025501 0.017893 -0.053835 -0.096964 0.058610 0.002619 0.084967 -0.054753
tougher 0.033010 -0.045350 0.093735 -0.157347 -0.002692 -0.009779 -0.004007 -0.068218 0.060672 0.060595 -0.087908 -0.059462 0.029920 0.020579 -0.011714 -0.041345 -0.001229 0.062147 -0.048541 0.057520 -0.043724 -0.042825 0.125321 -0.022366 -0.105106 0.116792 0.005343 -0.083402 -0.092117 -0.008914 -0.006347 0.068801 0.000860 0.014170 -0.068876 0.137449 0.022007 0.009972 -0.078078 -0.061007 0.002752 -0.167879 0.161098 -0.130406 0.007158 -0.050806 0.082760 0.068821 -0.075543 -0.001453 0.049318 0.049954 0.034968 0.024538 -0.036647 0.012555 -0.062341 -0.061415 -0.011145 0.044778 -0.092933 -0.001342 -0.070942 0.114099 -0.071482 0.004451 -0.044053 0.055766 0.007217 -0.042982 -0.053178 -0.036877 -0.049220 0.007353 -0.149022 0.034909 -0.015942 0.138746 -0.020408 0.029433 -0.000710 0.069936 -0.101251 0.020622 -0.072469 -0.023677 0.100561 -0.146010 0.085649 -0.020956 -0.001414 -0.000803 0.109590 -0.098332 -0.096571 0.104234 0.015427 -0.011144 0.016133 -0.055565 -0.123673 0.011871 0.059265 -0.043423 -0.069885 0.118278 0.090995 0.064886 -0.071373 -0.077989 -0.036477 0.040402 -0.044788 -0.017992 -0.046763 -0.105602 0.028305 0.087602 0.065326 0.066720 -0.028281 0.045352 -0.062441 0.035585 -0.090285 0.033687 0.008959 -0.057413 0.001957 0.074750 -0.030995 -0.057963 0.004282 -0.056317 -0.004574 0.155591 0.060029 0.047995 0.016835 0.067372 -0.004899 0.069997 0.002097 -0.113920 -0.099375 -0.025857 0.032925 -0.082938 0.045812 -0.057757 0.177474 0.161336 0.075785 -0.090251 0.100868 -0.030454 -0.005095 -0.018346 0.042151 0.168680 0.080491 0.065298 -0.028938 -0.104718 0.095731 -0.037586 -0.091935 0.056229 0.087243 0.003693
occasionally 0.091316 -0.095028 -0.085344 -0.146924 -0.051136 -0.039001 -0.066137 0.155375 -0.006240 -0.022611 0.061681 0.037542 -0.080610 0.038651 0.035607 0.000468 -0.177127 0.033513 0.018142 -0.000252 0.091230 -0.083203 0.164198 -0.062057 0.022388 0.035329 -0.018616 -0.012740 -0.031526 0.028470 0.113403 -0.024657 0.018253 -0.025250 0.010319 0.002536 -0.025441 0.079592 0.024555 0.077480 0.025826 -0.001575 -0.013970 -0.057442 -0.134870 0.012524 -0.029970 0.043191 -0.127365 -0.016146 -0.099543 0.069995 0.079833 0.064351 -0.081139 0.100224 0.000189 -0.114276 -0.014019 -0.100877 0.029907 0.004231 -0.057148 -0.009228 -0.035461 -0.037175 -0.024846 0.204466 -0.033487 0.033722 0.077166 0.160387 0.029520 0.069225 0.097268 -0.007912 -0.089976 -0.017933 0.068368 -0.051684 0.035744 0.096611 -0.084288 -0.109829 -0.041424 0.073005 -0.008668 -0.035342 0.058314 -0.008123 -0.031307 -0.108424 0.124552 0.030691 0.073001 0.086762 -0.001646 0.008125 0.001444 0.031728 0.029544 -0.004296 -0.001008 0.028503 -0.104585 -0.098741 -0.036530 0.043899 -0.041947 0.045304 -0.028684 0.186684 0.034309 0.184058 0.081733 -0.039337 0.093004 -0.073261 0.067454 0.009868 -0.049637 0.007173 -0.041205 -0.071645 -0.053183 -0.078032 -0.033637 0.106095 0.030972 0.014765 0.012506 0.151084 -0.024036 -0.006125 -0.086308 -0.187724 0.012907 -0.066236 0.085532 -0.082565 0.074743 0.015348 -0.060367 0.068536 0.034873 -0.009910 -0.028240 0.004803 -0.095481 0.092276 0.078662 0.003224 -0.069657 -0.062588 -0.001127 0.060161 -0.006199 0.112128 0.038791 0.081848 -0.000334 -0.038012 0.101013 0.107204 0.041525 0.010482 0.104154 0.079047 0.087688 0.092357
ukrainian 0.058252 -0.024768 -0.026745 0.127331 -0.091147 0.094179 -0.200408 0.102147 -0.005560 -0.054304 0.004551 0.100349 -0.058255 0.022491 0.011529 0.021502 0.078667 0.007871 -0.161292 -0.089067 0.082277 -0.139412 -0.042222 0.038459 -0.010494 -0.018309 -0.061776 -0.029149 0.007818 -0.065871 -0.080087 -0.028184 0.176378 0.039465 -0.052257 -0.075678 0.067856 0.078356 0.056851 0.118514 0.114936 -0.021472 -0.022782 -0.084532 -0.045684 -0.112849 -0.017711 -0.160953 0.068303 -0.045112 0.053203 0.023219 -0.018121 0.093619 0.087443 0.063360 0.007262 0.074947 0.033040 0.036450 0.092047 -0.020884 -0.006746 -0.044331 0.016960 0.043390 0.013435 0.005219 0.020301 -0.000112 0.010554 -0.053388 -0.031582 0.079219 -0.042432 -0.060097 0.087614 -0.108873 -0.008678 0.096334 0.075618 0.026588 -0.059902 -0.004111 0.077979 0.144573 -0.104919 0.097270 -0.105751 0.152369 0.035195 0.097940 -0.035951 -0.096648 0.053138 0.014046 -0.018714 -0.020218 -0.150087 0.000970 0.037318 -0.080875 -0.002545 -0.038034 0.034602 -0.058095 -0.066319 -0.083690 0.167868 -0.003633 -0.085728 0.004866 0.006549 -0.067951 0.015557 -0.110005 -0.010099 0.021190 -0.037974 0.000521 0.030498 0.041702 0.068760 0.121640 -0.032517 -0.097589 0.053582 -0.040345 0.018391 -0.082212 0.014611 -0.031137 0.106377 0.085055 0.082711 -0.013483 0.077340 -0.111051 -0.009040 0.067001 -0.045159 -0.003360 -0.028916 0.029674 -0.009133 -0.012097 -0.000531 -0.055834 0.040505 -0.082215 0.045420 0.032486 0.038905 -0.072209 -0.094494 -0.022344 -0.053504 -0.084124 0.038855 0.016624 0.024221 -0.055389 0.023867 -0.030688 0.123669 0.046661 0.168642 -0.070492 0.072242 0.018047
occasional 0.103045 -0.043224 -0.083455 -0.096294 -0.017070 0.002517 0.043780 0.031243 0.096877 -0.126102 0.120574 0.095311 -0.090837 0.045943 0.043395 0.095965 -0.053464 0.183296 0.033942 -0.003518 0.101759 -0.074539 0.155955 -0.021131 -0.004083 0.140739 -0.004019 -0.013265 -0.057702 -0.020000 0.155779 -0.024442 -0.006870 -0.058299 -0.031407 -0.066232 -0.085938 0.000391 0.085844 0.122552 -0.003063 -0.068690 0.106294 -0.109424 -0.144364 0.037919 -0.032599 -0.024724 -0.009650 -0.043252 -0.035843 0.017667 0.036598 -0.021939 0.000893 0.144468 -0.034205 -0.082901 -0.067931 0.010518 0.007234 0.082247 -0.076749 -0.054699 -0.052559 0.058981 -0.009441 0.144317 0.125818 0.049586 0.029196 0.037467 -0.035658 0.007043 0.029399 0.006779 0.010290 -0.084304 0.066113 -0.067203 -0.021149 0.059205 -0.022179 -0.032317 -0.046391 0.024139 -0.022383 -0.183424 -0.046079 0.062171 0.040541 0.049726 0.115780 0.108703 0.076354 0.045061 0.079224 0.017784 0.026858 0.088333 0.000609 -0.036447 -0.085521 -0.073884 -0.062427 -0.022442 0.072385 0.037566 -0.002630 0.089829 -0.041607 -0.019433 -0.071240 0.115162 0.027854 0.004162 0.089080 -0.058084 -0.014926 0.136468 0.045398 0.042559 0.021889 -0.047197 -0.064426 -0.064631 -0.061959 -0.006252 -0.065249 -0.076269 0.021531 0.122350 -0.013766 -0.139229 -0.118369 -0.106693 0.152342 -0.073153 0.054647 -0.037001 -0.012757 -0.032067 -0.068469 0.136000 0.029527 -0.048879 -0.047468 0.026521 0.047406 -0.046851 0.014976 0.051190 -0.073137 -0.049711 -0.113772 0.038346 0.000635 0.048296 -0.039974 0.069963 0.069450 -0.089250 0.041728 0.060674 0.095912 -0.042014 0.091044 0.049540 0.066758 0.060327
norway 0.023551 -0.105985 -0.057420 0.043709 0.060554 -0.068962 0.004884 -0.032873 0.072934 -0.013764 -0.019947 -0.044990 0.026124 0.006975 0.011024 -0.023445 0.086438 0.014248 -0.009837 -0.020214 0.047309 0.021010 0.048073 0.018020 -0.038850 0.142739 -0.098331 0.019770 -0.041490 0.125291 -0.053494 0.021741 0.092341 -0.152355 -0.040080 -0.150991 0.057108 0.053504 0.089649 0.057787 -0.003674 0.001620 0.087121 -0.044932 -0.089229 -0.003063 -0.015200 -0.000338 0.024300 -0.107978 0.042631 -0.064249 -0.010666 -0.024257 -0.005600 0.003176 0.017690 0.052776 -0.093705 0.100327 0.008427 0.000592 0.115765 0.102203 0.013357 0.163074 -0.022395 0.043915 -0.033030 -0.157566 -0.057512 -0.098267 -0.031168 -0.064313 -0.122193 0.080594 -0.073591 -0.140035 0.121592 -0.046361 0.081917 -0.056434 0.016822 -0.065198 -0.100582 0.047088 -0.040715 -0.064711 0.069056 0.057547 -0.045717 0.041022 -0.051968 -0.068208 0.044907 -0.000460 0.063858 0.110268 0.048842 0.048678 0.095592 -0.077626 0.107693 0.012191 -0.055069 -0.034966 0.109943 -0.007857 -0.012180 0.013183 -0.018192 -0.059972 0.112173 -0.090318 0.050766 0.076871 0.147365 -0.014263 -0.069355 -0.037137 0.228019 0.004986 -0.008133 0.055527 -0.032538 0.073674 0.032936 -0.033785 0.037717 -0.099614 -0.071037 0.083592 0.082205 -0.125479 -0.063017 -0.050457 0.057058 -0.056756 -0.047397 0.140314 0.082688 -0.064805 -0.015197 -0.004781 0.019110 -0.026099 0.043704 0.064323 0.103354 -0.059252 -0.048333 -0.003696 0.016060 0.024444 0.089705 0.050502 0.113419 -0.065046 -0.115470 0.049973 0.040655 0.064325 -0.037167 -0.005387 0.037250 0.005140 0.024153 -0.051196 0.040656 0.009783
baghdad 0.028899 0.011087 0.075292 -0.076592 0.081826 -0.103411 0.008266 0.017583 0.019772 -0.020548 -0.043863 -0.063506 -0.009422 -0.055436 0.077353 -0.029605 -0.000262 0.043293 -0.066160 0.012556 -0.007222 -0.092219 0.014793 -0.079970 0.008067 0.034370 0.077267 0.048215 0.062888 0.050159 0.038570 0.013807 -0.056428 0.046580 0.036360 -0.098623 0.067277 -0.030607 -0.079143 0.081760 -0.028223 -0.012742 0.056167 -0.051079 0.039075 -0.125297 0.010150 0.042768 -0.024261 0.134276 -0.100008 -0.008334 -0.025773 -0.141185 0.068887 -0.089906 0.085278 0.038139 0.108648 0.097629 0.015844 0.140100 0.057454 0.002162 0.092704 0.007571 -0.028533 0.072834 -0.045353 0.023484 -0.049243 0.060413 -0.093701 -0.124781 0.017382 -0.079794 -0.052025 -0.008881 0.012870 -0.053526 -0.000912 -0.041519 -0.188653 0.122602 -0.001511 -0.080778 0.072062 -0.258445 -0.085778 -0.045730 0.010751 0.123133 -0.169602 -0.012097 -0.012146 -0.015009 -0.062926 -0.078829 -0.045128 -0.079701 -0.080323 -0.089780 0.090341 -0.060343 0.154989 -0.068884 0.054601 0.086889 -0.023925 -0.034893 0.081209 -0.020511 -0.035746 0.037834 0.162894 -0.121071 0.061145 0.138900 -0.007711 0.018941 0.024039 0.011414 -0.007883 -0.027865 0.029030 0.125923 -0.070360 0.024295 0.015956 0.122260 -0.020401 -0.020687 -0.004824 0.002181 -0.092006 0.018083 0.031675 0.000223 0.079200 0.065982 -0.087688 0.011014 0.095057 -0.038040 0.133743 0.034259 -0.034094 -0.051275 -0.063064 0.164629 0.085824 0.092814 0.045523 -0.108262 0.039031 0.076583 0.016396 -0.013139 0.160206 0.117988 -0.041551 0.016017 -0.057769 0.003621 -0.077651 -0.021779 -0.003795 0.043962 0.078911 0.002110
illinois -0.128990 0.032294 -0.104992 -0.045660 0.022569 0.022129 -0.013845 0.076431 0.030853 -0.082302 -0.001463 0.055641 -0.050609 -0.020449 0.020192 -0.111122 -0.181331 0.056291 0.037922 0.022113 0.001445 0.018401 0.052621 0.029768 0.014203 0.007477 0.039755 0.125100 0.038651 -0.081370 0.158461 0.046768 0.058163 -0.082459 0.009480 0.080932 0.141352 0.062886 -0.143109 -0.046795 -0.057435 -0.002534 -0.180086 -0.100026 -0.032237 -0.091298 0.074233 0.075542 -0.059873 0.015222 -0.039463 0.098075 0.064522 0.150884 -0.018100 -0.019092 0.015733 0.090270 0.001873 -0.114505 -0.079421 0.133809 -0.002133 0.026296 -0.008625 -0.046752 -0.110236 0.074190 0.099556 -0.000668 -0.010013 0.005037 0.090200 -0.049294 0.090208 0.015530 0.010176 -0.015309 0.010342 -0.122619 0.019069 0.020205 0.024868 0.061231 0.037100 0.065904 0.067853 0.024450 -0.073984 -0.042549 -0.008374 0.012085 0.113548 0.018082 0.030367 0.052006 -0.067579 -0.070660 -0.091763 -0.050934 -0.112816 0.015070 0.070575 0.077052 -0.059199 0.028786 0.053335 0.013073 0.078515 -0.100098 -0.139381 0.009657 -0.134277 0.029128 0.042583 -0.070801 0.038332 -0.010760 0.045607 -0.037652 0.067351 -0.005674 0.085242 -0.143767 0.060483 -0.043778 -0.022728 0.059671 0.130050 -0.043813 -0.016547 0.106785 0.015762 -0.000906 -0.004251 0.061818 0.028079 -0.065817 -0.056925 -0.034386 -0.107559 -0.031631 0.034303 -0.066281 0.121541 -0.019621 0.112371 -0.034519 0.040978 0.178684 0.108748 0.023077 0.026988 -0.010471 0.064693 0.031555 0.099965 0.060494 0.074046 -0.036982 0.007215 -0.033807 -0.079191 -0.042344 -0.037386 -0.073110 0.040405 -0.050813 0.037837 -0.121142
moving 0.063058 -0.008670 -0.003433 0.189508 -0.010540 0.002397 0.043295 0.067087 0.163399 -0.131570 0.146320 0.055939 -0.028151 0.074917 0.193165 0.087960 -0.035728 -0.020168 -0.150936 0.103810 -0.063156 -0.009775 0.115084 -0.036010 0.007845 0.041490 -0.019924 0.061605 0.011045 -0.024006 -0.064797 0.030509 0.104758 0.098333 -0.038541 -0.003223 0.014550 0.075470 0.011617 0.092296 0.123795 0.069049 0.022781 -0.097672 -0.062235 -0.101021 -0.063260 0.059747 0.044332 -0.113330 -0.034334 -0.069087 -0.026777 -0.120092 0.020891 -0.056308 -0.064002 0.096552 -0.010882 0.065408 -0.069471 -0.017537 0.020083 0.071298 -0.014319 0.014986 0.050887 -0.006550 0.009075 0.039257 0.114241 0.091018 0.035243 0.044780 -0.069056 -0.095895 -0.027429 -0.021154 0.089918 -0.004344 -0.146249 0.031111 -0.083558 -0.038446 0.016007 0.007379 0.016028 0.063507 0.087159 -0.061723 -0.114445 0.010617 0.080346 0.107307 -0.017880 -0.050706 0.040311 -0.096966 0.024553 -0.060160 -0.046813 0.194780 0.030641 -0.047118 -0.052864 0.105968 -0.075266 -0.118985 0.014374 -0.117751 0.004295 -0.092811 0.009845 0.003937 0.140530 0.125569 -0.107618 0.084494 -0.072393 0.025428 -0.094818 -0.080696 0.170553 0.005250 -0.007498 0.082062 0.103407 -0.050380 -0.080231 0.020834 -0.015069 -0.100289 0.022998 0.094228 0.063645 0.113296 0.003885 0.137745 0.070717 0.079312 0.033647 0.018690 -0.062687 0.050918 -0.096563 0.056724 -0.175218 -0.027383 0.070023 -0.010522 0.049361 0.058903 -0.018145 -0.048046 -0.164887 -0.027972 -0.058112 0.007658 0.173760 -0.014758 -0.034419 -0.134719 -0.021252 -0.016554 0.002953 0.032506 -0.042647 -0.046411 -0.016085 0.049356
loud -0.018884 -0.046535 0.046992 -0.153447 0.071817 -0.006509 -0.037388 0.051086 0.014203 0.014731 0.057136 -0.022801 -0.017174 -0.009274 0.019006 -0.023670 0.029140 -0.041584 -0.079293 0.016238 -0.025888 -0.037277 -0.001907 -0.006375 -0.023110 0.018632 -0.010019 0.038244 -0.005393 0.065459 -0.101566 -0.056759 -0.066880 -0.013276 0.034302 -0.034954 0.077727 -0.116211 -0.023609 0.091127 -0.152917 0.078693 0.081336 -0.006446 -0.067788 -0.095971 0.039350 0.045789 -0.066844 0.062177 -0.004338 0.068071 -0.064066 -0.009354 0.048140 -0.094433 0.057343 -0.050129 -0.019179 0.071208 0.012287 0.012083 0.019254 -0.078133 -0.024291 -0.117914 -0.048925 -0.026596 0.167844 -0.008261 0.005407 0.228934 0.029644 -0.162299 -0.063539 -0.026457 -0.160273 0.100731 0.080859 0.024716 0.079921 0.061997 -0.031076 0.005404 0.005925 0.034647 -0.040352 -0.005998 -0.061616 -0.005220 0.047545 0.142691 -0.085129 -0.006518 0.003942 -0.034871 0.042038 0.057670 0.045246 -0.018824 0.089217 0.167182 -0.076808 -0.030884 0.033442 0.012916 -0.051287 0.083634 0.034658 0.114953 -0.062383 -0.198095 0.002857 0.094320 0.096795 -0.119919 0.029249 0.136307 -0.009042 -0.001033 -0.092429 -0.099823 -0.000466 -0.129759 -0.022139 0.037144 -0.070271 -0.110942 -0.068445 0.068507 0.096087 0.115261 0.030154 -0.061248 -0.074700 0.045935 0.090220 0.090190 0.062518 -0.025051 -0.069654 0.038842 0.056336 -0.016509 -0.005459 -0.111078 0.047183 -0.077920 0.064436 0.045923 -0.021973 0.019252 0.014669 -0.049742 -0.020706 -0.023389 0.135440 -0.025544 -0.005440 -0.020478 -0.005550 0.031969 0.065430 0.023005 -0.007617 -0.064558 0.012505 -0.004406 0.076077 -0.050571
thai -0.007150 -0.066952 -0.029039 -0.054779 0.070502 -0.044312 0.091116 0.101799 -0.011558 -0.057946 -0.115597 0.029454 0.050202 0.032977 -0.065173 -0.029267 -0.028491 0.011048 -0.013340 0.030649 -0.106911 -0.092901 0.086549 0.022103 0.135835 -0.150996 0.065606 0.012174 -0.028838 -0.063286 0.006702 0.190375 -0.086880 0.076859 0.013019 -0.055932 -0.121768 0.050367 0.023267 -0.018479 0.091060 -0.013180 -0.079708 0.034014 -0.080687 0.059139 -0.070880 0.047385 0.071837 -0.038263 -0.091681 -0.019394 -0.068151 -0.028138 -0.154748 0.028519 0.015601 -0.016874 -0.005183 -0.084854 -0.034638 -0.018911 -0.029875 -0.023438 -0.071206 0.018296 0.007701 0.070041 -0.023658 0.010935 0.069593 -0.000968 -0.003736 -0.026981 0.084489 0.001841 -0.075164 -0.141819 -0.049875 -0.027142 0.056438 0.004737 -0.056804 -0.089670 0.005026 0.065510 0.038141 -0.024481 0.043518 -0.102207 -0.088647 0.019756 0.109799 0.089142 -0.014878 0.033499 -0.000578 -0.048725 0.020986 -0.177882 0.047652 -0.071738 0.017864 -0.036826 -0.114036 0.069274 -0.119866 -0.064328 -0.013081 0.027215 -0.107957 0.070041 0.110909 0.023647 0.021653 0.026629 -0.045160 0.058909 0.053297 0.005710 0.124110 -0.072531 0.128552 -0.081903 0.050053 0.009440 -0.085255 -0.033221 0.053327 0.032405 0.018833 0.062833 0.023513 0.033642 -0.057844 0.057250 0.130223 -0.002846 -0.024708 -0.005960 0.011686 -0.046801 0.002497 0.029857 0.036724 -0.065444 0.065972 -0.046024 0.143979 0.040380 0.118040 0.103637 -0.071355 0.008743 -0.113397 -0.028891 0.084531 0.015802 0.001918 0.061221 0.112236 -0.123488 0.003132 0.036651 0.069790 0.007072 -0.034587 0.064695 0.015048 -0.081326
croatian 0.088988 -0.005223 -0.033857 -0.004660 0.117514 0.071100 -0.042424 -0.063764 -0.012849 0.063070 0.034701 0.059268 -0.118919 -0.072647 0.098749 -0.054537 0.070637 0.051450 -0.135827 0.066136 -0.168776 0.008392 -0.078565 -0.026496 0.092504 0.061772 -0.091081 0.068100 -0.048736 -0.111335 0.043710 0.130787 0.019706 0.044175 0.032397 -0.031217 -0.040096 0.037815 -0.066551 0.051602 -0.020847 -0.110277 -0.070140 -0.153540 0.058612 -0.022362 -0.029284 0.049597 0.002806 -0.025049 -0.043948 0.066689 -0.012566 -0.090122 -0.058764 -0.067634 0.064093 0.019950 0.020593 0.034028 0.040762 0.107913 0.107034 0.025310 0.199548 -0.007331 0.157095 -0.071241 0.052542 -0.004507 -0.024914 0.073976 0.052261 -0.054025 -0.065427 0.045465 -0.029423 -0.022021 -0.181908 0.037530 0.050512 0.009837 0.124190 0.062460 -0.042009 0.087337 0.141371 -0.013325 0.016526 0.002482 -0.154048 -0.005459 0.148356 0.032348 -0.095906 0.029224 0.009175 0.147123 0.046057 0.077607 0.048241 0.034244 0.086312 0.013892 -0.003407 0.117712 0.010525 -0.028686 0.034969 -0.000801 -0.069448 -0.023216 -0.011217 0.131472 0.017236 0.080697 -0.005609 0.023823 0.049686 0.023591 0.033229 0.006304 0.013917 0.005451 0.033603 0.054134 0.017716 0.060219 0.058406 -0.129285 0.030120 0.076746 0.094801 0.094359 -0.086260 -0.013475 -0.009808 0.024130 -0.100320 0.070017 0.037862 -0.062863 -0.035616 0.071118 0.090781 -0.048736 0.070366 0.082316 0.099327 -0.113004 0.083373 -0.094351 -0.021080 -0.090309 -0.053083 -0.193132 -0.055674 0.162179 0.142590 0.060282 0.087159 -0.017988 0.044904 0.002040 -0.143291 -0.062182 -0.047232 -0.036680 0.032221 -0.044428
argentina -0.066685 0.073791 0.085313 0.034041 -0.042826 0.026678 0.001897 -0.002614 -0.091688 0.066783 -0.010485 0.080339 0.066722 0.021898 0.150498 0.045394 0.107320 -0.112615 0.078286 -0.174185 0.012791 -0.132808 0.006355 -0.102507 -0.006947 0.060034 -0.033945 -0.033553 -0.061959 -0.012283 0.037162 0.049298 -0.081364 0.027894 -0.054171 -0.036316 0.056031 0.054838 -0.160058 0.072251 0.103200 -0.004383 -0.021394 0.083251 0.074176 0.026517 -0.015904 0.102400 -0.017038 0.051626 -0.014300 -0.053543 -0.112776 -0.085274 0.077308 -0.000171 -0.141964 0.065663 0.057670 -0.039921 0.043375 0.032285 0.038311 -0.026250 0.074691 -0.047460 0.009348 -0.028435 0.012894 -0.009091 -0.042636 -0.035746 0.042828 0.063642 0.052943 0.079747 -0.154977 0.011449 -0.001523 -0.003251 0.016776 -0.025351 -0.076450 0.002808 -0.031033 -0.032353 0.093092 0.035134 0.081569 0.078151 -0.023377 -0.079160 0.133855 0.098109 -0.037835 0.117667 0.075766 0.038898 0.074499 -0.062338 0.043194 -0.056979 -0.002888 -0.032537 -0.046782 -0.031739 0.010090 0.045580 -0.145730 -0.000321 0.041511 -0.048823 0.061503 0.011841 0.086165 0.032394 -0.031614 0.017386 0.028056 -0.066606 0.117401 -0.084757 0.106195 0.028843 -0.032912 0.008526 -0.077591 -0.054779 -0.053616 -0.102063 -0.053834 0.030346 0.146881 -0.139079 0.073083 0.055711 -0.044791 0.055157 0.065277 0.017036 -0.095321 -0.006858 -0.067696 0.038302 0.102193 0.079830 0.054782 -0.088630 0.076606 0.098513 0.021018 -0.011237 -0.021397 0.074100 -0.077410 -0.057241 -0.088816 0.036754 -0.014824 0.103539 0.028686 0.008863 0.096195 -0.106271 -0.028399 -0.119922 -0.056354 -0.080518 0.019098 -0.045697
vietnam 0.006477 -0.069953 0.048944 -0.066357 -0.031115 -0.093189 -0.049380 0.099762 0.038432 -0.040295 0.141552 -0.010461 -0.025376 0.168704 -0.049488 -0.147485 -0.036851 0.028179 0.081854 0.153339 0.062563 0.000489 -0.077034 -0.039207 -0.072019 -0.124506 0.008164 0.033124 0.019019 -0.002604 0.012090 -0.057211 0.069102 -0.087730 0.004083 0.024374 0.245500 0.065359 0.059417 -0.062647 -0.137181 -0.028937 -0.073536 -0.064855 -0.046934 -0.025902 -0.023244 0.078485 -0.036097 0.044336 -0.021753 -0.069606 -0.009400 0.015873 -0.009153 -0.101282 -0.042616 -0.067834 0.033506 0.015701 0.084689 0.012346 0.012619 -0.114871 0.031922 -0.065911 -0.119716 0.045851 -0.104810 -0.046256 -0.001580 0.108371 0.132150 0.107818 0.024796 -0.125255 -0.129631 -0.031702 0.033845 -0.091496 -0.147571 0.034450 -0.044119 0.095069 0.018135 0.053886 -0.072400 -0.041662 0.053461 0.113602 -0.027794 0.059943 0.055661 -0.049349 0.018598 0.169318 -0.019377 0.056985 0.009191 0.042949 0.195195 0.120656 0.065561 0.027158 -0.125695 -0.025063 0.045094 0.067102 -0.014869 -0.088121 0.104150 -0.045913 0.069283 0.057213 -0.011100 -0.104932 -0.042172 -0.069133 -0.061756 0.017346 -0.040120 -0.091733 -0.228224 -0.007773 -0.109301 0.055766 -0.000712 -0.119434 -0.028019 0.020656 -0.087391 -0.101380 0.008403 0.116297 -0.079415 0.067635 -0.116871 -0.000972 0.042082 0.036610 0.019883 0.064479 0.108136 -0.067401 -0.046954 0.001265 0.063401 -0.050100 0.087954 0.014578 0.082526 -0.085805 0.032708 0.066156 -0.083117 -0.114940 0.031153 -0.044069 0.047371 -0.121834 0.017407 -0.006090 -0.065251 0.077902 0.038218 -0.046996 -0.000026 0.060094 0.043093 0.011883
norwegian 0.077759 -0.256645 0.021870 0.151698 -0.022351 -0.074884 0.027127 -0.012288 0.119438 0.054735 -0.003332 -0.058400 0.067865 -0.009621 -0.029955 -0.051352 0.010067 0.112123 0.029905 0.065964 0.006789 0.059223 0.041931 0.095597 0.026458 0.161052 -0.091998 -0.082335 -0.027927 0.171418 -0.000409 0.063103 0.081064 -0.117336 -0.082917 -0.098464 0.062533 0.033974 0.146943 0.019318 0.012563 0.075054 0.137735 -0.097440 -0.050446 0.053874 -0.073358 0.048075 0.055719 -0.148581 0.024068 -0.076342 0.069284 0.146297 -0.052910 0.064390 0.008955 -0.033182 0.080581 0.040951 -0.014631 -0.046376 0.171253 0.021954 -0.038641 0.145556 -0.025071 0.089755 -0.095459 -0.088615 0.093792 -0.070735 -0.024284 -0.065530 -0.198174 0.027372 -0.095992 -0.131132 0.070188 -0.080865 0.033976 0.072543 -0.092198 -0.054591 -0.028126 0.005678 -0.037083 -0.069300 0.046735 0.028028 -0.025666 -0.019614 -0.000386 -0.066170 -0.011334 -0.007382 0.064280 0.056355 -0.026134 -0.024151 0.108873 -0.049433 0.179720 0.076721 -0.023400 0.068682 0.085882 0.018874 0.014707 0.051718 -0.002823 -0.015152 -0.016521 -0.085760 0.036154 -0.052621 -0.000762 -0.007248 -0.142888 -0.019276 0.153367 0.060271 0.080224 0.087327 0.011475 0.067958 0.066008 -0.084929 0.071593 -0.037990 -0.121629 0.050618 0.011998 -0.020993 0.008151 0.036110 -0.015415 -0.132345 -0.169981 0.191265 0.056558 -0.005173 0.035451 -0.038069 -0.061022 0.025764 -0.016212 -0.017497 0.146694 -0.089337 -0.023435 0.031181 0.005156 0.063239 -0.004969 0.067167 0.069211 -0.012681 -0.159327 0.027206 -0.007347 -0.000288 -0.031369 -0.054018 0.067663 0.138450 0.030775 -0.091152 0.020445 0.025110
professionally 0.043400 0.080082 0.082737 -0.027737 0.059333 0.028124 -0.084760 -0.037887 0.011954 0.052884 0.076089 0.067496 0.047938 -0.127494 -0.097444 -0.097146 -0.055305 0.175194 0.099338 -0.086781 0.033768 -0.039614 0.020085 -0.094544 -0.041358 0.063709 -0.029061 0.062222 -0.007824 -0.085364 0.065675 -0.048982 0.074156 -0.027922 0.016660 -0.021781 -0.031919 0.099266 -0.000054 0.151071 -0.019455 -0.081652 0.006157 0.040037 -0.080340 0.033116 0.072345 0.007923 0.046240 0.141761 -0.094666 -0.016981 0.006245 -0.021342 0.032065 0.139172 -0.059410 0.025541 0.022095 -0.041448 -0.015810 -0.009305 -0.047563 0.010809 -0.024542 -0.043733 0.018643 -0.075067 0.042073 0.142300 -0.005599 -0.031627 0.017844 -0.237847 -0.113640 0.003242 -0.054156 -0.162450 0.006245 0.002049 0.025834 -0.060694 -0.085644 -0.018909 -0.004707 0.099722 0.028348 -0.102282 -0.065709 0.024832 0.097758 0.047612 0.022036 0.129388 0.009090 0.022048 -0.043376 -0.011081 -0.047832 -0.073443 0.027318 0.108196 0.102678 -0.051361 0.034159 0.026610 0.030255 0.056177 -0.017125 0.112919 0.048724 -0.041334 0.040039 0.063590 0.048717 -0.023410 0.032365 0.038479 0.028332 0.001160 -0.017982 0.180042 0.123141 0.015191 0.026266 0.017569 -0.049562 -0.039655 0.110256 -0.049973 -0.050381 0.168457 -0.065314 -0.103542 -0.097473 0.007367 0.100410 -0.101336 -0.091387 -0.019266 0.040197 0.048517 -0.039501 -0.130577 -0.033878 0.007679 0.075469 -0.060005 -0.017368 -0.069186 0.007428 -0.013917 0.067350 -0.069057 -0.010482 0.017220 0.038840 -0.054598 -0.080583 -0.004017 0.089110 -0.144462 -0.031541 0.070579 -0.004039 0.019115 0.007203 -0.016507 0.027631 0.001584
argentinean -0.038158 0.039252 0.047377 0.054233 0.015771 -0.019897 0.052139 -0.027970 -0.042710 -0.046890 -0.032605 0.166981 0.036150 -0.029368 0.264616 -0.032932 0.111741 -0.115184 0.079457 -0.067752 -0.033715 -0.123357 0.009047 -0.068395 -0.054334 -0.038654 0.044074 -0.108414 -0.065853 0.016822 -0.120529 0.074526 0.026906 -0.002968 -0.087791 0.063254 0.077090 -0.019693 -0.065350 0.096987 0.024198 0.013055 -0.078570 0.007320 0.072976 -0.074955 0.009745 0.003670 0.049763 -0.082527 -0.061585 -0.004369 -0.174211 -0.085795 0.072586 -0.075448 -0.060175 0.066567 0.124600 -0.045009 0.030293 0.026037 -0.037959 -0.049470 0.000816 -0.136895 -0.043807 0.011596 0.067561 0.005453 -0.046847 -0.058123 0.059736 -0.054530 0.022668 -0.000125 -0.116335 -0.079013 -0.003508 0.019236 -0.055340 0.068907 -0.037617 0.017196 0.018067 -0.055846 0.078055 -0.033512 0.078666 -0.006532 -0.056920 0.020800 0.019357 0.087080 -0.077227 0.096179 -0.003896 -0.067784 0.020630 -0.166763 0.096001 -0.093280 -0.078199 -0.011586 -0.019644 -0.110070 -0.160816 0.015479 -0.015240 -0.115397 0.047406 0.039542 0.129408 -0.052008 0.104152 -0.028294 0.000991 0.040775 0.097336 -0.001531 0.232122 -0.016271 0.064212 -0.027866 -0.059625 -0.023717 -0.030741 -0.068940 -0.056014 0.013708 0.047255 -0.001733 0.133093 0.023684 0.058784 0.083632 0.019308 0.061519 0.124426 -0.066547 -0.110539 -0.027653 0.033142 -0.107011 0.106975 0.014682 -0.100862 -0.079449 0.030183 0.126896 -0.004730 -0.066253 0.071305 -0.000993 -0.093817 -0.047762 0.036593 -0.119016 -0.071774 0.037317 0.009370 0.008672 -0.018079 -0.124399 -0.037151 -0.122495 0.019058 -0.041553 -0.031785 -0.065870
louder -0.026991 0.047677 0.003159 -0.009753 -0.030854 0.038983 -0.098385 0.068197 -0.099463 -0.019639 0.039262 -0.033577 0.076047 -0.000675 -0.007569 0.020114 0.115426 0.014778 -0.102326 0.039655 -0.018956 -0.151249 -0.053523 -0.058812 -0.144416 -0.088514 0.081230 0.072030 0.041468 -0.071097 -0.046161 -0.081860 -0.101538 -0.111808 0.043517 -0.027213 0.105754 0.044525 -0.005392 -0.012954 0.021305 0.050647 0.072290 0.042751 -0.036561 0.018238 0.025693 -0.104283 -0.037600 0.041866 0.033879 0.115228 -0.110165 0.095203 0.113089 -0.033069 -0.023065 0.005302 0.076265 0.019180 0.054811 0.124000 -0.049823 -0.177064 0.004553 -0.154295 -0.113068 -0.076187 0.092255 -0.002016 -0.067199 0.157160 0.073133 -0.069040 0.008331 0.010102 -0.149851 -0.011480 -0.087017 -0.071796 0.004546 0.081545 -0.077586 0.087348 0.069043 0.061167 -0.079504 -0.089228 -0.096269 -0.052966 -0.017964 0.073454 -0.039538 -0.001938 -0.017241 0.006297 0.009042 0.039360 0.062541 0.081603 0.089026 0.022630 -0.033594 0.009012 -0.057297 -0.004454 -0.019579 0.028677 0.017897 -0.010466 -0.063945 -0.077107 -0.081587 0.093944 0.055264 -0.152397 -0.005099 0.046412 -0.076080 -0.056349 -0.025050 -0.070679 -0.073972 -0.136143 0.001472 -0.018808 -0.003876 -0.139682 -0.098993 0.024574 0.108287 0.059694 0.025885 0.039009 -0.032669 0.047584 0.163574 0.022459 0.085248 0.028078 -0.154008 0.088567 -0.029042 -0.067029 -0.130893 0.036668 0.091329 -0.043355 -0.033529 0.029496 0.122887 0.055926 -0.003393 -0.081661 -0.127569 0.064301 0.156018 -0.026604 -0.069627 -0.018450 0.023517 0.048855 0.006697 -0.000129 0.112110 -0.006788 -0.052592 -0.073004 0.015381 -0.072873
chicago -0.067136 0.142133 -0.090221 -0.000326 0.030925 -0.073444 -0.017904 0.110148 -0.064477 -0.015384 -0.007830 0.025442 -0.074628 0.012334 0.069139 -0.040455 -0.065469 0.125475 -0.006899 -0.180258 -0.013172 -0.058883 0.116414 0.099386 -0.048650 0.104639 -0.089135 -0.017896 0.035608 -0.065588 0.078701 0.127007 -0.117526 -0.015070 0.119345 -0.006133 0.123145 0.145481 -0.090770 0.151142 -0.074137 -0.052297 -0.092829 -0.065558 0.039302 0.031636 0.027663 -0.063785 0.048718 0.092084 -0.022776 0.135431 0.170366 0.122595 -0.036016 0.050156 -0.086410 0.057436 -0.037998 0.006313 -0.063806 0.168141 0.124712 -0.084176 -0.030537 0.065774 -0.026892 0.101877 0.070628 0.078286 0.114017 0.031447 0.134295 -0.077801 0.064741 -0.055818 -0.004052 0.120908 0.019337 0.083229 -0.030723 0.065613 0.037697 0.019601 -0.048273 0.041113 -0.004823 -0.000238 -0.137705 0.011826 -0.000055 -0.066901 0.089250 -0.015530 -0.010301 0.107773 -0.023624 -0.008065 -0.044174 0.033507 -0.082843 0.068662 0.039683 -0.058997 -0.113734 0.082542 -0.028048 -0.045185 -0.085818 0.020456 -0.061319 0.012927 -0.106676 0.050210 -0.117609 -0.040545 0.077882 -0.087277 -0.040403 0.025853 0.071473 -0.036586 -0.016124 -0.190262 0.095929 -0.000813 0.076777 0.062668 0.000022 0.069659 -0.016921 0.109340 -0.062064 -0.054856 0.089882 0.071714 0.080114 -0.017839 0.115810 -0.015242 -0.009155 0.008978 -0.065423 -0.012194 0.052651 -0.073704 0.108643 -0.145236 0.099036 0.191865 0.064410 0.093846 -0.003173 0.006059 -0.013526 0.025527 0.121415 -0.005660 -0.044779 -0.046429 -0.033186 0.009452 0.037960 0.056058 0.123802 -0.019898 0.047418 -0.052781 0.229629 -0.026321
move 0.007716 0.031472 -0.034210 0.101033 0.067595 0.049258 0.005765 0.054434 0.084157 -0.155903 0.029861 0.015421 -0.089122 0.039821 0.040679 -0.047383 -0.087461 0.027049 -0.027198 0.003316 0.035897 -0.022285 -0.003288 -0.017880 0.036902 0.030213 -0.056583 0.065618 0.000765 0.023366 -0.054621 0.056807 0.034649 0.059454 0.046274 -0.038697 0.017046 0.175830 0.060904 -0.012548 0.089129 -0.064041 0.002589 -0.033468 -0.076610 0.002338 0.033811 0.124198 -0.026034 -0.010667 -0.073276 0.013969 -0.002435 -0.087268 0.038107 -0.066396 -0.043343 0.078517 -0.048476 0.102946 0.040848 -0.079873 0.031953 0.022825 0.048701 -0.023678 0.040781 0.010372 0.089626 0.053188 0.035110 0.100288 0.107657 0.037955 -0.085532 -0.076851 -0.093305 -0.107276 0.016589 0.031676 -0.084448 -0.027404 0.012318 -0.011932 -0.142560 0.025306 -0.054470 0.033718 -0.005290 0.033455 -0.109339 -0.075996 0.068251 0.089190 0.036394 0.033452 0.012448 -0.003609 0.005825 -0.049640 0.026230 0.078891 0.041452 -0.001154 -0.045225 -0.003561 -0.012762 -0.028953 0.089849 -0.065384 -0.052969 -0.096763 0.018457 0.076414 0.136615 0.027836 0.004928 0.056090 -0.077261 -0.089827 0.027833 0.052501 0.097366 0.050076 -0.128095 0.060966 0.011788 -0.084863 -0.059416 -0.122261 0.012206 0.033781 0.032304 0.040361 0.061242 0.040912 0.120616 0.106358 0.019419 0.055804 0.059706 -0.108935 0.050082 0.083784 -0.068463 -0.009643 -0.049464 0.026263 0.049225 -0.118414 -0.040759 0.014288 0.003986 -0.022878 -0.092888 -0.009832 -0.035731 0.064432 0.018129 0.021689 0.079367 -0.127485 0.022232 0.030342 0.091149 -0.022718 -0.049377 -0.088875 -0.056439 -0.044676
thailand -0.063530 -0.084340 0.020985 -0.046661 0.011076 -0.100370 0.039997 0.025512 0.112138 0.002731 -0.116767 0.072526 0.034273 0.056564 -0.106690 -0.050197 0.128350 0.006885 -0.040112 0.110322 -0.079506 -0.064628 0.046120 -0.067382 0.047726 -0.041280 0.074669 0.046294 -0.043582 -0.018448 -0.027588 0.120569 -0.061285 0.026859 -0.004005 -0.110414 0.004752 0.005855 -0.113088 -0.030759 0.057358 -0.001253 -0.084232 0.012672 -0.040595 0.012793 -0.084475 0.006098 0.027898 -0.143430 -0.030858 0.061458 -0.091842 0.085461 -0.129591 0.042192 0.053353 0.087240 0.153241 0.026998 -0.004978 -0.004397 0.045210 -0.019022 -0.080541 -0.028197 0.045924 0.109091 0.064584 0.054997 -0.022599 -0.030821 0.037004 0.033256 -0.089441 0.103101 0.064798 -0.044116 -0.038785 0.031222 0.013353 0.013802 -0.074653 -0.051576 -0.146871 0.082382 0.020491 -0.037328 -0.036831 -0.079431 -0.091220 0.043256 0.062980 0.038005 -0.045891 0.015547 0.040469 -0.114426 0.000029 -0.120154 0.039754 -0.118490 -0.060906 0.046672 -0.010334 0.063085 -0.048229 -0.034528 0.131934 -0.145484 -0.117587 -0.016543 0.050688 0.035228 0.022060 -0.033427 -0.078702 -0.051443 0.014867 0.077287 0.212355 -0.065668 -0.010030 0.008494 0.032676 0.014837 0.026387 -0.059156 0.101132 -0.018924 0.157331 0.063270 0.010931 0.111036 -0.021713 0.046612 0.050889 -0.050919 0.017366 0.035272 0.097866 -0.191861 -0.025385 -0.044770 0.091416 -0.042227 0.085964 -0.049053 0.069670 0.038985 0.070047 0.002124 -0.096753 0.112142 -0.159697 -0.068541 0.049951 0.007824 -0.039533 0.015161 0.051682 -0.129736 -0.031542 0.027458 0.150497 0.069289 -0.031129 0.020296 0.005921 0.035206
ukraine 0.106482 -0.029580 0.080276 0.060982 0.037550 -0.055639 -0.089765 0.088422 -0.048007 -0.094177 -0.041768 0.011905 -0.015017 0.166918 -0.002212 0.022249 0.144585 -0.073969 -0.066909 -0.042619 0.128620 -0.086901 -0.063884 0.051082 -0.050957 0.015019 -0.092838 0.039872 -0.027287 -0.041157 -0.082319 -0.159052 0.102529 0.014960 -0.094418 -0.091039 0.141948 0.023396 0.051450 0.103251 0.182357 -0.051830 0.016141 -0.121495 -0.053475 0.035824 -0.050519 -0.150840 -0.023986 0.002911 0.125999 -0.035404 -0.027294 0.099025 0.140114 0.111072 -0.005439 0.052986 0.110814 0.151354 0.050296 -0.000510 -0.039934 0.036307 -0.005120 -0.031797 -0.042851 -0.014713 -0.034777 0.021054 -0.090452 -0.024884 -0.118171 -0.049113 0.005292 -0.006260 0.059155 -0.019937 -0.003979 0.032325 0.158582 0.051888 -0.153312 0.108255 0.054251 0.146756 -0.098290 -0.010080 -0.044276 0.105670 0.042754 0.046999 -0.053612 -0.050860 0.104465 -0.092764 0.004822 -0.054294 -0.143370 0.036459 0.035281 -0.018353 -0.034973 -0.152761 -0.009388 -0.005912 0.062358 0.043853 0.079625 0.020516 0.032636 -0.071416 0.011484 -0.112755 -0.062527 -0.101936 -0.029134 0.026978 0.041476 -0.092518 -0.045362 -0.034499 -0.072192 0.106072 -0.006047 -0.034624 0.014572 -0.059261 -0.007039 -0.103177 -0.017121 -0.044644 0.142011 0.057358 0.013592 0.063710 0.006535 -0.028130 -0.001354 0.020241 0.032341 -0.100344 -0.005589 -0.001092 0.047142 0.026413 0.106694 -0.058135 0.106714 -0.013815 0.030080 0.037107 0.143861 -0.099896 -0.102682 -0.044756 0.050986 -0.031958 -0.095268 -0.008902 0.043542 -0.052126 -0.011823 -0.023462 0.070577 0.006846 0.029311 -0.031447 -0.016480 -0.084625
plano -0.010827 0.053138 -0.017000 0.102730 -0.015725 -0.023790 -0.009689 0.062446 0.095280 0.011281 0.084003 0.083577 0.100347 -0.012144 0.039126 0.089225 0.059342 0.004557 0.028679 -0.079247 -0.079807 -0.049507 -0.039136 -0.016378 -0.018535 0.073058 -0.123992 0.100489 -0.011580 0.014939 0.050916 0.159158 -0.035139 -0.030653 0.022826 -0.012305 -0.059573 -0.094456 -0.072555 0.106375 -0.022152 0.116350 -0.139440 -0.100585 -0.002948 0.019889 0.063000 0.058864 -0.041464 0.045594 -0.020511 0.048910 -0.030220 0.072136 0.016883 -0.052292 -0.056333 -0.039070 -0.013494 0.092942 -0.005021 0.007686 -0.061458 0.052765 0.051193 -0.009624 -0.130297 -0.042656 0.062440 -0.136342 -0.055818 0.044065 -0.017364 -0.052914 -0.097201 0.047493 -0.189886 -0.025435 0.084619 -0.005516 0.130630 0.017059 0.022225 0.068727 0.079838 0.158539 -0.016260 0.016896 0.014071 -0.032063 -0.014193 0.171245 -0.076678 -0.013135 0.005112 0.082477 0.034477 0.033650 -0.094834 0.002361 -0.035263 0.165300 -0.073873 0.047896 -0.049465 -0.066951 0.028995 0.020322 -0.067292 0.156564 -0.033468 0.048242 0.002540 -0.053609 0.052216 -0.009037 0.045658 -0.019091 -0.024029 0.065097 0.068798 0.045322 -0.060292 0.062584 0.123644 -0.085469 0.085014 -0.027115 -0.056801 0.169052 -0.022076 0.056058 0.012379 -0.090925 0.091423 0.022186 0.119512 -0.012471 0.009505 0.081168 0.016908 -0.078083 -0.057411 0.036615 0.050774 -0.063547 -0.061094 -0.042482 0.029711 0.205556 0.148475 0.048370 0.014471 -0.015042 0.149341 -0.067886 -0.135446 0.040157 -0.176030 0.009857 -0.017266 0.043523 -0.001966 0.085966 0.032806 -0.004948 -0.059565 -0.081474 -0.016505 0.043453
texas -0.003543 0.032451 0.009657 0.081151 -0.011702 0.096973 -0.137634 0.066993 0.118745 0.104200 0.003434 -0.036584 -0.068538 -0.009551 -0.040666 -0.026295 -0.035761 0.035914 0.079730 -0.019961 0.021253 -0.003789 -0.000395 0.016055 -0.006906 0.144765 -0.084427 0.217778 -0.035156 -0.027826 0.037735 0.157208 -0.003896 -0.020585 -0.060619 -0.111893 -0.072303 -0.080560 -0.049980 0.028788 -0.000923 0.114705 -0.097538 0.026734 -0.063482 0.022770 -0.041555 0.019380 -0.001081 -0.009021 -0.097889 0.065254 0.007289 -0.005051 0.054714 0.013433 -0.011248 -0.047380 0.073815 -0.017235 -0.012100 0.041400 0.042714 0.053583 0.081562 0.127397 -0.113094 -0.032879 0.068330 -0.117199 -0.092457 0.035841 0.101494 -0.027530 -0.077757 0.006167 -0.119843 -0.002902 0.050692 -0.005452 0.129409 0.051384 -0.000057 0.105183 0.084858 0.060313 0.104175 0.087224 0.139514 -0.057802 -0.165859 0.114924 0.044437 -0.093295 0.002576 0.039247 0.086273 0.030523 -0.053455 0.033072 -0.153395 0.110479 -0.020958 0.109342 -0.087599 -0.047286 -0.064070 0.023534 -0.061472 0.057360 0.002711 -0.039202 0.103373 -0.071656 0.036990 -0.048079 0.031675 0.090298 0.037835 -0.060457 0.021196 0.062952 -0.015125 0.141492 0.152002 -0.164739 -0.058917 0.073083 0.014789 0.050638 0.048007 0.086094 -0.015661 -0.071900 0.044511 -0.003374 0.041288 0.050932 -0.002123 0.045356 -0.095873 -0.033702 -0.097315 0.019795 -0.007309 -0.037660 -0.088097 0.061404 0.064275 0.108890 0.087148 -0.007406 -0.050046 -0.042058 0.106798 -0.121819 0.022343 0.066029 0.015236 0.045889 -0.055964 0.049574 0.006016 -0.105235 0.116569 -0.122504 -0.094946 -0.053118 -0.144710 -0.034892
tough 0.062519 -0.093497 0.129719 -0.054769 -0.023020 -0.030343 0.050961 -0.011405 -0.057284 0.076101 -0.053153 -0.034009 -0.022656 -0.022864 -0.062300 -0.090393 -0.016940 0.066617 -0.092407 0.017358 -0.051811 -0.076185 0.119151 0.112098 -0.112485 0.003723 -0.114414 -0.103640 -0.087029 0.074342 -0.060908 -0.011945 0.028904 -0.005794 0.006540 0.022384 -0.025733 0.030591 -0.066140 -0.002475 -0.063295 -0.075092 0.140888 -0.026359 0.047194 -0.016999 0.032986 -0.041639 -0.005302 -0.033387 -0.082046 0.062827 -0.015196 0.143085 -0.033202 0.101446 -0.069653 -0.127422 0.010751 -0.009159 -0.114550 0.022800 -0.058029 -0.078693 0.085340 0.027439 -0.009506 -0.053006 -0.126070 0.008297 -0.111184 -0.009773 -0.026721 0.094157 0.026863 0.025217 -0.143167 0.002954 0.073094 -0.051212 -0.072595 -0.006503 -0.068672 0.097572 0.055794 0.044728 0.003528 -0.206571 0.016409 0.028691 -0.072893 0.004334 0.038309 -0.086938 -0.060567 0.106336 -0.114789 0.025635 -0.078667 -0.094672 -0.055852 -0.069215 0.134417 -0.027054 -0.004120 0.020212 -0.007288 0.040055 -0.084415 0.015586 0.032614 0.013323 0.008021 0.023616 -0.078855 0.035949 -0.079666 0.111328 0.187906 0.032647 0.009300 0.057612 -0.024964 0.013145 -0.027118 0.093440 0.088624 -0.076433 0.090165 0.064334 -0.105255 0.029388 0.021567 0.036491 -0.075133 0.093111 -0.080503 -0.001438 -0.074864 -0.036891 0.045506 0.066023 -0.058043 0.054017 -0.028823 0.074608 0.063672 -0.114691 -0.030741 -0.091093 0.132555 0.171373 0.027179 -0.091394 -0.062814 0.000700 0.017996 -0.080898 -0.035234 0.121490 -0.044072 -0.021295 -0.104978 -0.027576 0.082776 -0.064927 -0.006344 0.101890 0.054043 0.036184
flying 0.069310 0.011954 0.066997 -0.051504 0.062651 0.044265 -0.065101 0.002183 0.036527 -0.085035 -0.060510 -0.043984 -0.141127 -0.080658 -0.159429 0.050084 0.030793 -0.079936 -0.056760 -0.008450 -0.044580 -0.085951 0.079121 -0.013585 0.069337 -0.010877 0.006470 0.013557 0.067615 -0.023408 -0.066909 -0.056466 0.058657 0.019935 0.045925 -0.188015 0.078917 0.111463 -0.094922 0.039007 -0.029661 0.109581 -0.118479 -0.083846 0.006312 0.034238 0.041747 0.041613 -0.068728 0.146103 0.001051 -0.000943 -0.106736 -0.117845 0.049687 0.169013 -0.086236 -0.073070 -0.079330 0.061890 -0.135936 0.048763 0.019271 -0.069054 0.184169 0.094159 -0.021498 -0.030748 0.170967 0.014339 0.077696 -0.020630 -0.002497 -0.034310 -0.093941 -0.047905 0.100772 0.019968 -0.097117 -0.098246 0.104856 -0.064795 0.022890 -0.000976 -0.080369 0.067591 0.060278 -0.095600 0.012351 -0.033168 0.077997 0.017708 0.103241 0.113526 0.003132 0.020307 -0.026394 -0.012044 -0.064297 -0.078139 0.003663 0.150505 -0.050354 0.073579 -0.013164 -0.043184 0.031582 -0.051301 -0.057030 0.045129 -0.086442 0.030353 0.107769 -0.100151 0.066168 0.030407 0.010070 -0.058267 0.004260 -0.181619 -0.063743 -0.122666 -0.029725 -0.022207 0.071309 0.016518 -0.109749 -0.008197 0.050523 0.048473 0.038501 -0.071596 -0.106826 -0.079393 -0.037663 -0.008526 -0.197119 0.000821 -0.011906 -0.006481 0.040200 -0.008999 0.092357 0.013556 0.015068 0.079212 -0.049067 -0.041772 -0.000728 0.025765 0.052556 0.096118 0.068832 -0.078660 -0.097624 -0.083945 -0.170338 -0.053016 0.026830 0.004797 0.042195 -0.090767 0.023474 0.025083 0.026955 -0.000899 -0.045072 0.102369 -0.040839 0.077017
iraq 0.025037 0.005465 -0.065209 0.028877 0.137347 -0.021207 0.000743 -0.054736 -0.019780 -0.012690 -0.054844 -0.064776 0.031472 -0.035428 0.145264 0.091639 -0.015578 -0.084560 -0.005205 0.040045 -0.100986 -0.037078 0.061213 -0.098614 -0.007105 0.020818 0.026527 0.015674 -0.014179 0.018553 0.039407 -0.035283 -0.002347 0.034059 -0.025689 0.043072 0.067936 -0.030337 -0.074865 0.096771 0.055080 0.076318 0.046784 -0.127524 0.020016 -0.082516 0.006792 0.132929 -0.059579 0.064573 -0.000002 -0.136963 -0.000137 -0.146568 0.120741 -0.093912 0.005084 -0.014989 -0.052035 -0.024978 0.002064 0.086348 0.122216 -0.031601 0.068269 -0.058518 0.054405 0.060589 -0.008035 -0.060236 0.055343 0.065704 -0.090278 -0.075819 0.088490 -0.016245 -0.083093 0.077986 0.025968 -0.075548 -0.002324 0.016941 -0.075937 0.013781 0.011028 0.010942 0.034427 -0.076462 0.031099 0.011429 -0.061122 0.019078 -0.093538 0.085571 0.028410 -0.060224 0.004907 -0.003637 -0.076385 -0.051775 0.026761 0.008984 0.007718 -0.070675 -0.028250 -0.075379 -0.034107 0.069814 0.041114 -0.070659 -0.117461 0.037258 0.108997 -0.012700 0.040271 -0.102166 0.036931 0.052254 0.119869 -0.098069 0.046095 -0.124896 0.093275 -0.053688 0.030970 0.143053 -0.026123 -0.112528 -0.018061 -0.008543 0.035015 -0.068172 -0.002833 0.057913 -0.125930 -0.062762 0.027335 0.043657 -0.009422 0.037689 0.018360 0.103941 0.015135 -0.029662 0.027958 0.007172 -0.053982 -0.030102 -0.075196 0.043380 0.104232 0.047746 0.086631 -0.197505 -0.065864 0.043133 0.053081 0.065437 0.022746 0.074506 0.008910 -0.058962 0.011157 -0.072962 -0.086346 -0.001297 0.008528 0.022546 0.125895 0.021142
professional 0.018401 -0.013009 0.019944 -0.084845 0.017948 0.022285 -0.049389 -0.019116 -0.057563 -0.054749 0.069127 0.012334 -0.009555 -0.115630 -0.081899 -0.014111 -0.077346 0.167622 -0.011788 -0.022096 0.042730 -0.067723 0.019097 -0.107798 -0.030913 -0.075515 -0.041998 0.037412 0.088011 -0.010496 -0.024718 0.011686 0.011797 0.068920 0.070538 -0.035608 -0.085703 0.028451 -0.093703 0.103499 0.024259 -0.096086 -0.005454 -0.030428 -0.092257 0.053217 0.036273 -0.075989 0.058628 0.106313 -0.062702 -0.018350 -0.029687 -0.029059 0.066778 0.138030 -0.089534 -0.001033 0.013853 -0.052412 -0.089684 0.057534 0.047567 -0.043291 0.002844 -0.032788 0.096753 -0.034944 0.037277 0.019567 0.045309 0.055168 -0.125072 -0.069968 0.000277 0.011555 -0.099077 -0.069519 -0.004224 -0.105145 0.049766 -0.034575 -0.185990 0.009572 0.105712 0.083623 0.031065 -0.092017 -0.014192 -0.007820 0.119262 -0.004389 -0.016754 0.028486 0.027958 0.087593 -0.167728 -0.040643 -0.068561 -0.130235 -0.042902 -0.091657 0.034145 -0.111816 -0.010352 -0.045176 0.086398 0.040170 0.009536 0.156577 -0.056303 -0.065813 -0.026296 -0.050996 0.002183 -0.046828 -0.045804 0.010569 0.116598 -0.054810 -0.063646 0.160363 0.073183 -0.019369 0.080557 -0.037963 -0.045022 -0.084078 -0.021749 0.071483 -0.066518 0.115919 0.053170 0.028021 -0.029553 0.004649 0.019376 -0.046407 -0.103016 -0.080040 -0.019254 0.019076 -0.114999 0.045268 0.048147 -0.011269 0.059751 -0.064817 -0.035120 0.032022 0.122176 0.065078 0.052392 -0.035379 -0.066186 -0.026286 -0.021804 -0.091190 -0.023577 -0.064382 0.081713 -0.038933 -0.006464 -0.012194 0.071494 -0.002897 -0.068699 0.069730 -0.007359 -0.030912
fly -0.070005 -0.101802 0.057292 -0.039350 -0.077392 0.119141 -0.106951 0.020265 0.091140 -0.035284 -0.030615 0.015492 -0.120386 -0.136950 -0.105124 0.029648 0.051023 -0.019139 -0.062736 -0.025558 -0.033960 -0.041045 -0.019268 0.029176 0.033058 0.018545 0.091515 -0.023465 0.067883 0.001765 -0.001027 -0.044792 -0.038223 -0.045627 0.047487 -0.167971 0.076351 0.154499 -0.072904 0.015965 0.059182 0.078834 -0.013887 0.007369 -0.007690 -0.038883 -0.062702 -0.007999 0.030226 0.109105 0.013139 -0.082391 -0.066852 0.001787 -0.006473 0.133148 -0.025976 -0.011273 0.117415 0.014711 -0.057579 0.037436 0.112322 -0.105049 0.076071 0.200894 -0.019978 0.021288 0.081384 0.042701 -0.034463 -0.056642 0.062681 -0.053926 -0.133155 0.051146 0.090801 -0.064651 -0.031551 -0.080874 0.096511 0.051433 -0.016390 0.061876 -0.051800 -0.011514 0.019650 0.009630 0.097447 0.130246 -0.016486 0.015453 0.089378 0.067390 -0.113780 0.005055 0.010691 -0.011885 -0.008675 -0.131622 0.003310 0.090766 -0.000477 0.111784 0.073499 -0.106990 0.039253 -0.118364 -0.038207 0.014550 -0.032454 0.036480 0.010698 -0.094448 0.093347 -0.044633 0.019448 -0.012702 -0.073580 -0.114989 -0.004522 0.019794 0.010516 0.047232 -0.081953 -0.007464 -0.006185 -0.007096 0.065711 -0.054502 -0.025964 0.065136 -0.125254 -0.089332 -0.027826 0.045618 -0.080394 -0.057806 0.033894 -0.003300 -0.064659 0.058294 0.185585 -0.035631 -0.009253 0.147294 -0.023558 -0.052875 0.077955 0.041041 0.001605 -0.044001 0.136137 -0.046952 -0.083163 -0.036842 -0.009149 -0.038461 0.047589 -0.016590 0.071411 -0.019567 -0.016467 -0.052219 0.127739 -0.006356 0.079903 0.118630 -0.011822 0.072031
danish 0.112499 -0.021138 -0.003651 0.034691 0.121713 -0.017304 -0.046840 0.034713 0.027563 0.006008 -0.124828 -0.024833 -0.088995 -0.055324 0.059734 0.027791 0.108778 -0.031554 -0.117817 -0.106466 -0.048348 0.004351 -0.069110 -0.203838 -0.095018 -0.090195 0.099418 -0.034909 -0.030056 -0.066122 -0.121409 -0.079265 0.068252 0.045365 -0.017030 -0.039593 0.050964 0.040993 -0.014827 -0.054778 0.050312 0.004549 0.006270 0.008331 -0.068359 -0.020035 -0.032026 0.009193 -0.066645 -0.049374 0.011522 0.037150 -0.111299 -0.141662 0.069137 -0.044860 0.081131 -0.116523 0.093387 -0.023698 -0.010691 0.010019 -0.147562 0.094284 0.159033 -0.002312 0.015495 0.030361 0.012011 0.022797 0.068577 0.061912 -0.005368 -0.029556 0.056233 0.053319 -0.060392 -0.136684 0.041704 0.150733 0.039494 -0.041535 -0.013939 -0.016336 -0.045058 0.031169 0.066285 -0.055870 -0.013790 0.025788 -0.027645 0.001748 0.034816 -0.006265 -0.088632 0.084066 0.030544 0.004385 0.039789 -0.116261 0.039213 -0.061359 -0.134672 0.084263 -0.041499 -0.038601 0.001301 0.047208 -0.014744 0.011621 0.011737 0.046221 -0.055857 0.050501 -0.022961 0.020086 0.118951 0.025551 -0.031366 -0.077277 -0.009394 -0.060162 0.013642 0.003426 -0.077266 0.101519 0.070090 -0.169026 0.070405 0.021753 0.019438 0.099535 0.076266 0.124880 0.058101 -0.073197 -0.058968 -0.183991 -0.004290 0.021847 -0.001403 -0.055147 -0.197347 0.010034 0.011922 -0.135199 0.077830 0.028166 -0.001013 -0.122306 0.005464 0.086890 -0.003966 -0.011949 0.023271 -0.061354 -0.000145 0.037390 -0.003213 0.072739 0.037814 -0.077182 -0.029941 -0.012513 -0.147871 -0.166365 0.009218 -0.083522 0.018608 0.036608
denmark 0.103298 -0.043319 -0.065498 -0.021263 0.049859 0.004603 -0.020032 0.003175 0.120725 0.004620 -0.029915 -0.080426 -0.118360 -0.093805 -0.020740 -0.072992 0.132634 -0.006051 -0.113334 -0.104059 -0.008298 0.011598 0.071625 -0.016085 -0.209798 0.008595 0.019918 0.108492 -0.154775 -0.030777 -0.114598 -0.054986 0.211590 -0.067910 -0.018909 0.011022 0.121740 0.022803 -0.031100 -0.038354 0.011138 0.018482 0.041110 0.018827 -0.057482 -0.053909 0.084966 0.024319 -0.114662 -0.016453 0.072801 -0.049553 -0.088544 -0.027343 0.064533 -0.003517 0.092899 -0.032222 0.037872 -0.045396 0.053906 0.099537 -0.062409 0.107422 0.180654 0.006506 -0.115411 -0.054574 0.057449 0.021669 0.055275 0.010349 0.075764 -0.053604 0.015205 0.012588 -0.014876 -0.036027 -0.013977 0.118597 0.067549 -0.020691 -0.073451 0.060421 -0.007452 0.154275 0.092538 -0.026120 -0.016128 -0.042105 -0.019548 0.026046 0.041696 -0.043395 -0.016455 0.042101 0.012892 -0.088493 0.081562 0.106110 -0.023389 -0.026908 -0.038606 0.058836 0.024425 -0.026581 -0.024088 0.027398 -0.068587 0.009806 -0.053938 -0.027765 0.020663 0.001943 -0.015473 0.059852 0.092404 0.010450 -0.003470 0.013909 -0.039997 0.011629 -0.047940 -0.013872 0.006385 0.065898 -0.009757 -0.038116 0.002266 0.100312 0.051514 0.095483 -0.011692 0.034251 -0.069671 -0.024629 0.021380 -0.153103 -0.002146 -0.029120 -0.094109 -0.056606 -0.098880 -0.046178 -0.015885 -0.026037 0.019426 0.023376 -0.010134 -0.128956 -0.001221 0.126551 -0.044809 -0.054919 0.100734 -0.118373 -0.012100 -0.018684 -0.049678 0.075994 0.056835 0.000652 -0.030969 0.023188 -0.053146 -0.103340 -0.033340 -0.065793 -0.062185 0.019835
croatia 0.059033 0.024791 0.014409 -0.054320 0.074001 0.044104 -0.051149 0.054368 0.003996 -0.076388 0.157674 0.036375 -0.021859 -0.019583 -0.000602 -0.011241 0.123549 0.110803 -0.096267 0.058739 -0.168892 0.014862 -0.058483 0.001731 0.072426 0.073009 -0.086303 0.032625 -0.046099 -0.069166 0.009323 0.008138 -0.020912 0.033217 -0.003927 -0.061498 0.106556 0.104187 -0.083987 0.030581 0.022140 -0.027514 -0.003366 -0.049151 0.059711 0.018532 -0.010435 -0.076421 0.022651 0.060254 -0.015596 -0.040028 -0.039063 -0.062905 0.065137 -0.062975 -0.038545 -0.009717 -0.025362 0.075465 0.008599 0.163539 -0.029353 0.080338 0.050712 0.037887 0.105376 -0.018756 0.079073 -0.018186 -0.038034 0.098630 0.017021 -0.095115 0.036986 0.007504 -0.098053 0.042332 0.017566 -0.019335 0.088698 -0.024336 0.031593 0.109385 -0.088934 0.141431 0.028480 -0.143377 0.038399 0.020086 -0.006613 0.049358 0.082726 0.044222 -0.055432 -0.028317 -0.005452 0.069630 0.093731 0.016174 -0.032181 0.045214 0.106488 0.053558 -0.001715 0.029450 0.001472 -0.065004 0.028967 -0.033261 -0.115450 -0.089216 -0.099415 0.059818 0.011112 0.082036 0.011484 0.020937 -0.003492 0.014371 0.108529 -0.074372 -0.008420 -0.013046 0.108007 -0.072803 0.078585 0.111908 -0.038079 0.001600 0.002191 0.011678 0.097630 -0.003678 -0.064402 0.023049 -0.016740 0.025077 0.016902 -0.016715 0.053677 -0.039094 -0.002724 0.066249 0.022091 0.024808 0.054256 -0.009190 -0.049053 0.087175 0.073208 -0.045697 0.011160 -0.126580 0.013808 -0.106853 -0.045360 0.067858 0.175034 0.042416 -0.029911 0.110028 0.100353 -0.003042 -0.046596 -0.049475 0.049206 0.017519 -0.061520 -0.042470
