hanoi -0.088973 0.247098 0.035102 0.174745 -0.143703 0.035266 -0.352118 -0.107912 -0.190982 -0.015928 -0.159475 0.027814 -0.078930 0.263821 -0.107885 0.203545 0.064330 -0.026190 -0.173237 0.133376 0.102317 -0.240950 -0.030262 -0.340742 0.155741 -0.026068 -0.156961 -0.184519 -0.151858 0.076761
tougher -0.053816 0.158112 -0.228306 0.150213 -0.052596 -0.077014 -0.085261 0.019158 -0.139011 -0.078351 0.277201 0.024257 -0.019698 0.245791 0.369560 -0.073858 0.381738 0.141890 -0.129583 -0.039266 -0.093081 0.022671 0.004967 0.080453 0.222691 0.097616 -0.081426 0.173495 0.038432 -0.000038
occasionally -0.148404 0.171836 0.017447 0.040773 -0.078074 0.250717 0.124856 -0.183574 -0.143677 -0.101262 -0.113248 -0.010048 -0.299110 0.208716 -0.073159 -0.213558 -0.000572 0.091964 0.020470 -0.013248 -0.153941 0.376692 -0.140408 -0.111582 0.038300 -0.163895 0.149229 -0.325037 0.154584 0.205608
ukrainian -0.018793 0.151645 0.047917 -0.282991 -0.258157 0.077709 0.051376 0.158121 -0.009631 -0.092978 -0.223869 -0.044900 0.018905 -0.063141 0.157830 -0.186792 -0.297556 0.227354 -0.236988 0.106635 -0.041100 -0.101748 -0.029125 0.164889 -0.159570 -0.053466 0.028340 0.009247 -0.323124 -0.199938
occasional -0.177805 0.174643 0.144286 0.073134 0.016711 0.215358 0.292956 -0.183439 -0.079113 -0.081476 -0.200854 0.179005 -0.122866 0.185613 0.111051 -0.113460 -0.152023 0.245198 0.018702 0.145769 -0.102476 0.190926 -0.127962 0.003083 0.114702 -0.024664 0.332425 0.080231 0.097221 0.128457
norway 0.188302 0.014318 -0.186950 0.213753 0.062311 -0.041991 0.193012 -0.269027 -0.007252 -0.292852 -0.297426 -0.058876 0.157949 0.051779 0.336886 0.034544 -0.140631 0.007568 -0.032392 0.136128 0.105138 0.016755 -0.050670 0.035184 -0.230436 0.059513 -0.119939 0.035136 0.154298 -0.193627
baghdad -0.254410 0.022260 -0.376035 0.002894 -0.122370 -0.365010 -0.023291 0.087438 0.167036 -0.057111 -0.130875 0.053824 -0.257810 0.194929 -0.028043 0.047637 0.210771 -0.147730 -0.028029 0.007975 0.068008 -0.058468 0.123899 0.073470 -0.098500 -0.274037 0.235658 0.263713 0.087699 0.087338
illinois 0.023705 0.190261 0.022240 -0.244796 0.182398 -0.160013 0.105805 -0.218003 0.163008 0.032349 0.026727 0.173771 -0.263208 0.180338 -0.002909 0.070908 0.108215 0.110153 -0.003879 -0.301277 0.160445 0.144324 -0.262153 0.068028 0.093099 -0.213595 -0.188597 -0.017414 -0.145131 0.070442
moving 0.188713 -0.170229 0.195740 -0.069138 -0.226086 0.130705 -0.192819 -0.102505 0.115811 -0.053462 0.183717 0.143881 -0.175434 0.155521 0.140375 -0.055605 0.164172 -0.177965 -0.050546 0.201987 0.151918 0.072404 0.036468 -0.085271 -0.124771 0.129402 0.432179 0.087854 -0.308688 -0.252695
loud -0.210738 0.052030 0.068743 -0.036567 -0.194385 0.089411 -0.034268 -0.196764 0.034708 -0.109140 0.041725 -0.066361 -0.217686 -0.086373 -0.054370 0.245788 0.212946 0.194260 -0.162985 0.016019 0.206579 -0.162249 0.091288 -0.115742 -0.065321 -0.084339 0.008583 0.316134 0.262762 0.229728
thai 0.463318 0.097719 -0.086221 0.134055 -0.055620 0.076953 0.173834 -0.042242 -0.186580 -0.078277 0.098791 0.178233 -0.212793 -0.004684 -0.106809 -0.061221 0.021657 0.101951 0.153856 -0.121776 -0.061372 0.133933 0.137599 -0.126617 -0.003472 -0.191256 0.068453 0.133098 -0.260375 0.180732
croatian 0.088859 0.216748 0.106238 0.168105 0.089568 -0.134857 -0.033490 -0.267290 -0.195535 0.290762 0.139431 -0.286705 -0.226939 0.019775 0.022371 0.112245 -0.106828 -0.029320 -0.034994 0.216188 0.324243 0.182343 0.092623 0.317783 -0.046189 0.055936 0.073515 0.041838 -0.206079 0.071476
argentina -0.171859 0.113544 0.130084 0.083802 0.070864 0.031439 -0.287178 -0.028271 -0.327275 -0.055678 0.181693 -0.021705 0.039898 0.033526 0.065897 0.049771 -0.020788 -0.117944 0.244655 -0.114401 -0.025442 0.072583 -0.042302 0.086151 -0.295055 -0.333891 -0.007896 0.176250 -0.077481 -0.187407
vietnam -0.253504 0.076684 0.049951 0.199485 -0.115722 0.115517 -0.328221 -0.200643 -0.046037 -0.010530 -0.394944 0.182404 -0.098062 -0.007222 0.000725 0.096345 0.318069 0.077026 -0.030014 -0.081743 0.126229 -0.144977 0.070692 -0.192306 -0.037211 0.167828 -0.158397 -0.280072 -0.271415 0.070957
norwegian 0.236296 -0.010396 -0.309180 0.173969 -0.037065 0.003049 0.063718 -0.193160 -0.002772 -0.313730 -0.226394 0.138116 0.110757 0.125674 0.403290 -0.211984 -0.212344 -0.026632 -0.002729 0.267956 0.188149 -0.111582 -0.013555 -0.103104 -0.041158 0.129135 -0.222226 -0.008911 0.036539 -0.032190
professionally 0.072238 0.222643 -0.122552 -0.233435 0.224931 0.066117 -0.099744 -0.210270 -0.080284 -0.118276 -0.140194 0.228491 -0.041497 0.153744 -0.135912 0.082655 -0.107287 0.150545 -0.081095 0.111819 -0.189635 -0.052614 0.229417 0.235508 -0.052395 -0.005323 0.051781 0.155556 0.206621 0.090289
argentinean 0.058338 0.143198 0.143057 -0.111275 -0.098369 -0.164412 -0.240322 -0.010774 -0.312991 -0.108727 -0.039842 -0.049731 0.126450 -0.093762 0.104242 0.161104 0.116628 -0.174864 0.074913 -0.178172 -0.068699 0.035453 -0.033159 -0.234512 -0.204872 -0.417191 0.102432 0.308273 -0.166971 -0.091870
louder -0.265428 0.081241 -0.009897 -0.150008 -0.126628 0.099938 0.024235 -0.045932 -0.141692 -0.038858 -0.038850 -0.006694 -0.373811 -0.150789 -0.104295 0.082067 0.103316 0.272243 -0.003710 -0.157850 0.115995 -0.451702 0.003744 -0.167995 -0.207301 -0.005517 -0.062954 0.197023 0.012563 0.026787
chicago 0.056650 0.050300 -0.128334 -0.051457 0.040564 0.103489 0.058440 -0.028783 -0.185396 0.168030 0.047769 0.349921 -0.145646 0.149559 -0.133243 0.061896 0.101824 0.302042 -0.268845 -0.124496 0.207553 -0.011049 -0.545115 0.178270 -0.012162 -0.281781 -0.032670 -0.065876 0.046961 -0.010068
move 0.162296 -0.142013 0.218384 -0.018449 -0.006043 0.248537 -0.131989 -0.136225 -0.076277 -0.038154 -0.051131 0.030704 -0.154198 0.233279 -0.029663 -0.056787 -0.074356 0.010445 -0.031007 0.178495 0.212129 0.092836 0.065763 -0.000940 -0.102263 0.097931 0.108957 0.257048 -0.138362 -0.178739
thailand 0.397291 0.408178 0.115663 0.160954 -0.227849 0.013029 0.239978 0.015209 -0.021915 -0.077986 0.095504 0.204864 -0.081492 -0.065032 -0.082853 -0.092655 -0.021108 -0.054150 0.089738 0.022699 0.136810 0.025608 0.040755 -0.095713 -0.060990 -0.147917 -0.166643 0.156995 -0.213795 0.033188
ukraine -0.210140 0.221759 -0.092110 -0.122558 -0.157504 0.226186 0.184655 0.186393 0.094359 -0.231752 -0.194802 -0.101838 0.172856 -0.006490 0.075317 0.058900 -0.049500 0.077314 -0.262258 0.001558 -0.017562 -0.156229 0.175437 0.160805 -0.223118 0.018185 -0.106965 0.098247 -0.350195 -0.144308
plano -0.053119 -0.223897 0.085627 -0.009362 0.050034 -0.114570 0.059591 -0.076600 -0.125982 -0.546204 0.213484 0.004290 -0.084029 -0.074584 0.017125 0.194996 -0.013857 0.036978 -0.158251 0.160089 0.000912 -0.131243 -0.221085 0.214937 -0.152543 -0.206707 -0.000185 -0.094406 -0.069276 0.260846
texas -0.005719 -0.062220 0.178148 -0.041029 0.389373 -0.104957 0.004837 0.044502 -0.144768 -0.515446 0.244251 -0.051143 -0.169644 -0.026947 0.087475 -0.016431 -0.018797 -0.026621 -0.173812 -0.102550 0.278200 0.064057 0.040995 0.101382 -0.104568 -0.044981 0.005750 -0.138211 -0.022843 0.105739
tough -0.034664 0.182864 -0.234612 0.067409 -0.210382 -0.089506 -0.002844 0.068231 -0.357420 0.052591 0.126858 0.127140 0.011069 0.337629 0.317811 -0.073272 0.112000 -0.017264 -0.162631 -0.178542 -0.130321 -0.150337 0.181670 0.083676 0.017483 0.188832 -0.028717 -0.083341 0.046118 0.130761
flying -0.076031 0.017884 -0.027468 0.228031 0.019150 0.016012 -0.231685 -0.012140 0.232938 -0.035220 0.146518 0.214165 -0.278457 -0.143870 -0.049827 0.043555 -0.296577 -0.093818 -0.389165 -0.170971 -0.185596 0.258752 0.047589 0.086398 -0.173108 0.111541 0.003680 0.174216 -0.035891 0.052237
iraq -0.087381 -0.146379 -0.132489 0.075152 -0.086801 -0.012302 0.027045 -0.202774 0.046459 0.116119 -0.123987 -0.111182 -0.295926 -0.045381 0.165049 -0.033111 0.218284 -0.268178 -0.105264 -0.111455 -0.062434 0.042633 0.163471 0.103031 -0.124821 -0.329859 0.166417 0.183776 -0.002729 0.025647
professional -0.085625 0.078334 -0.222242 -0.301056 0.035770 0.004921 0.027560 -0.061310 -0.135579 -0.002265 -0.006683 0.326734 -0.142733 0.111129 -0.005215 0.105792 -0.124530 0.113637 -0.017459 -0.025884 -0.272668 0.076423 0.302742 0.192778 -0.122433 0.009934 0.038453 0.086124 -0.059774 0.214087
fly -0.106237 0.178821 -0.187666 0.165936 0.005009 -0.059897 -0.268996 0.099102 0.101017 -0.159508 0.006160 0.244510 -0.058559 -0.143668 -0.027516 -0.117004 -0.380025 0.001929 -0.219051 -0.211296 0.179546 0.230142 0.062179 -0.060669 -0.141763 0.083114 0.028973 0.125947 0.021515 -0.094753
danish -0.009841 0.110634 0.112690 0.015144 0.002441 -0.291319 0.087717 -0.247849 -0.063824 0.092342 0.109234 -0.275039 0.002018 0.082096 -0.115742 -0.190342 0.058231 0.087861 -0.222186 0.142013 -0.252615 0.038603 0.215045 -0.215922 -0.307388 -0.089196 -0.071381 0.066138 -0.140362 -0.069629
denmark -0.028150 0.099320 0.191374 0.127796 0.106323 -0.383235 0.053432 -0.200256 0.051533 -0.064805 0.022286 -0.207762 -0.106846 0.102567 -0.063605 -0.135828 0.068466 0.276350 -0.260826 -0.047282 -0.189883 -0.053807 0.102603 -0.049917 -0.232726 0.140776 -0.046737 0.073776 0.018325 -0.120131
croatia -0.136574 0.139270 -0.148481 0.009470 -0.000571 -0.189073 0.048429 -0.178205 -0.105528 0.033066 0.134284 -0.106049 -0.143408 -0.037565 -0.046943 0.194877 -0.037247 0.041741 -0.025141 0.003817 0.304213 0.133721 -0.062875 0.231921 -0.175585 0.170311 0.263436 0.021660 -0.162317 0.058632
