hanoi 0.002178 -0.102727 -0.000400 -0.051490 -0.077507 0.038973 -0.126971 0.061485 0.101934 0.098505 -0.147183 -0.056811 -0.127635 -0.031058 -0.078657 -0.035450 -0.076581 -0.043310 0.014405 -0.093555 0.037351 0.044141 0.102716 -0.202617 0.119717 0.053990 0.067142 0.050448 -0.046835 -0.002733 -0.104463 -0.050155 -0.130268 -0.004258 0.079620 -0.037359 -0.026020 -0.116201 0.052349 0.027592 -0.025896 0.070603 -0.032840 0.022956 0.017780 0.083349 0.009844 0.042586 0.018669 0.103264 0.044766 0.020095 0.095420 -0.122023 -0.113995 0.140186 -0.182633 0.016691 0.012250 0.016625 -0.010498 0.155758 0.155305 0.117163 -0.028945 -0.059729 -0.086408 0.074001 -0.119259 0.046351 -0.001615 -0.121494 0.065483 0.060175 0.122761 0.072382 -0.045894 0.012536 -0.158430 0.061355 -0.217895 0.035046 -0.026644 0.074869 0.098147 0.057126 0.022704 0.106107 0.202720 -0.057338 -0.113087 0.047233 -0.050924 -0.023817 -0.032386 -0.051866 -0.088221 0.064841 0.150021 0.028550 0.101572 0.007289 0.010901 0.069577 -0.072576 -0.081095 -0.026218 0.073924 0.058157 -0.054641 0.053351 -0.027171 0.014875 0.121375 0.074605 -0.007278 -0.123066 -0.000219 -0.066587 0.107518 -0.122032 0.004026 -0.101794 0.011822 -0.006079 0.015871 0.083100 0.059981 -0.090687 -0.164060
tougher 0.132562 0.072071 0.007104 -0.037459 -0.033835 0.076406 0.006258 -0.013548 -0.094134 -0.028372 -0.088221 0.114065 0.004614 -0.034632 0.116026 -0.005498 0.124115 0.019517 0.149866 0.014953 -0.088630 0.109550 0.113085 -0.162087 -0.061097 -0.017299 -0.021583 -0.010654 -0.082521 -0.080468 -0.001048 -0.035134 0.012905 -0.003209 0.041754 0.037008 -0.060516 0.091756 -0.080300 0.010006 0.036336 -0.085690 0.088243 -0.088974 0.015598 0.034544 -0.099337 -0.104767 0.052900 0.037014 0.040254 -0.069864 0.062919 -0.037743 -0.105989 0.091949 0.009493 0.019861 -0.100522 0.037770 -0.013891 0.058863 -0.021325 -0.009003 -0.102595 0.049638 -0.107257 0.104317 0.114218 -0.036613 -0.021659 0.132478 0.010365 0.035698 0.035590 0.145269 0.035259 0.103246 -0.015573 0.082798 -0.101247 -0.089421 -0.116136 -0.022469 -0.079370 0.033876 -0.014684 -0.112542 0.013076 -0.169349 -0.184823 0.123228 0.190256 -0.036086 -0.015879 0.019837 0.029467 0.036359 0.187625 -0.092167 -0.110632 -0.013175 -0.068994 0.186938 -0.082605 -0.113186 -0.095019 0.001103 -0.047298 0.042140 0.028687 0.010582 -0.065797 -0.025450 0.065980 0.016254 0.040045 -0.042671 0.134723 0.160610 0.077742 -0.044484 -0.062420 0.104687 -0.022315 0.003521 -0.090449 0.008682 -0.117896 0.115157
occasionally 0.000946 0.113092 0.060791 0.078793 -0.171268 0.025807 -0.057952 0.147355 -0.001398 -0.076613 0.106071 0.182269 0.001529 0.049301 -0.248645 -0.084211 0.059120 0.015270 -0.140838 0.122893 -0.213136 -0.091453 0.096602 -0.142339 0.008752 -0.034986 0.027283 0.031604 0.187047 0.073407 0.083367 0.126165 -0.070103 -0.060335 0.163545 0.003397 0.157870 0.064297 0.031960 -0.094696 0.025983 0.080215 -0.074620 -0.037903 -0.026600 0.067608 -0.052286 0.010873 0.071704 0.020181 0.026441 0.158413 -0.098827 0.072901 -0.134166 0.065252 -0.042208 0.153154 -0.010542 -0.060859 0.017005 0.057644 -0.018812 -0.034871 0.115682 -0.008616 -0.061478 -0.053471 0.026408 -0.086739 0.072868 -0.005982 0.053819 0.127188 0.048461 -0.066007 -0.038938 -0.060629 -0.061988 -0.057470 -0.102547 0.010155 -0.073483 -0.101800 0.083321 -0.069317 0.002581 0.065091 0.056824 -0.014458 -0.086016 0.168590 -0.021821 0.032867 -0.089384 0.039557 0.000039 0.002351 -0.053091 -0.042867 0.079568 -0.049231 0.058920 -0.114791 -0.005610 -0.038564 -0.047104 -0.099611 -0.026622 0.018670 -0.007218 0.007914 -0.060392 0.037939 0.042435 0.095701 0.009951 0.008678 0.067450 -0.039444 -0.009645 -0.010848 -0.006450 -0.087832 -0.008410 0.055122 0.089025 0.143290 -0.151951 0.054251
ukrainian -0.199250 0.068237 0.110896 -0.043330 0.034364 -0.152470 -0.119896 -0.074920 0.051291 0.141860 -0.024181 -0.145075 0.017335 0.020839 0.029176 0.015329 0.110287 0.056765 0.084851 0.000949 0.122718 -0.096859 -0.032119 0.074957 0.033405 0.022989 0.064036 0.114396 0.033552 0.010034 0.004744 0.083877 -0.065605 0.189672 -0.023989 0.026043 -0.064398 0.089408 -0.127588 -0.119679 0.046308 0.012756 0.049981 -0.039250 0.007153 -0.042751 -0.000138 0.003402 0.059053 -0.041743 0.032564 0.028854 -0.087822 0.179507 -0.145383 0.089922 0.071176 0.020167 0.097956 -0.001358 -0.041393 0.038888 -0.033940 -0.076239 0.129361 0.107549 0.033578 -0.069414 -0.047898 -0.017209 -0.125035 0.063977 0.141862 -0.074808 0.015724 -0.057943 -0.086380 -0.058781 -0.077119 -0.051848 -0.101730 0.117125 0.065102 -0.033301 -0.036941 0.019401 -0.098213 -0.019786 0.023362 -0.012128 0.087903 -0.122302 0.060849 0.034154 0.057257 -0.066536 0.009216 0.021915 -0.080880 0.023840 0.122407 0.052191 -0.085872 -0.150968 0.019805 0.043354 0.026108 0.133057 -0.022355 0.066851 0.123722 0.017325 -0.031965 -0.002737 -0.053055 0.053526 -0.175842 0.153675 0.044202 -0.002136 -0.189128 -0.055879 0.064212 0.163125 -0.060010 0.067347 -0.143270 -0.004995 -0.111122 0.031436
occasional -0.116636 0.216181 0.191847 0.037911 -0.162481 -0.005596 -0.043173 0.191499 0.064118 -0.039910 -0.027996 0.141852 -0.009730 0.062441 -0.079673 -0.128568 0.204872 0.024217 -0.046792 0.060984 -0.089420 -0.055633 0.040518 -0.024460 -0.051332 -0.048009 0.071172 0.088626 0.068764 -0.019162 -0.049319 0.039881 -0.056183 -0.046431 0.012794 -0.006198 0.138055 0.003931 -0.003605 -0.104301 0.142539 -0.069745 -0.044681 0.002104 0.013419 -0.042220 -0.058736 0.007919 0.140495 -0.063147 0.001911 0.152385 -0.016434 0.108759 -0.036088 -0.028143 0.051351 0.069607 0.048986 -0.011201 -0.134964 0.003506 0.054821 -0.069541 0.058980 0.160261 -0.101102 -0.009302 0.054010 -0.200506 0.095418 0.002034 0.078798 0.090877 -0.029197 -0.037436 -0.067150 -0.026409 -0.048045 0.014600 -0.029401 0.105970 0.008155 -0.009200 0.063779 -0.043944 0.033480 0.014798 0.004089 -0.050164 -0.098270 0.040822 -0.076002 -0.112101 -0.151196 0.009963 0.024344 -0.136444 -0.032732 -0.033397 -0.025143 -0.097369 0.035225 -0.001392 -0.001441 -0.077690 0.003603 -0.170364 0.007507 0.124076 -0.062521 -0.081362 -0.016936 -0.027436 -0.019080 -0.083663 -0.069998 0.009573 -0.013574 -0.069402 0.067891 0.004119 0.009459 -0.030225 -0.015907 0.174027 0.024472 0.078098 -0.091408 0.057660
norway -0.047143 -0.008076 0.033179 0.049478 0.013062 -0.085604 0.091459 0.086280 0.030612 0.027349 -0.089715 -0.156750 -0.069757 0.066919 0.073709 -0.168598 -0.070368 0.089708 0.032588 0.026076 0.004127 -0.087050 -0.041685 -0.042481 -0.031012 -0.002839 0.193020 0.066452 -0.043830 0.069457 0.029362 -0.047796 0.020531 -0.001148 -0.077878 0.046429 -0.015048 -0.000024 -0.008891 -0.072216 -0.001518 -0.082067 -0.031849 0.100939 0.032119 0.035962 0.007668 0.105068 0.053296 0.021163 0.065423 0.015593 -0.061155 0.030077 0.089880 0.077180 0.019781 0.092131 -0.011793 0.010827 -0.041808 0.137127 -0.104066 -0.120874 -0.060519 0.084135 -0.057237 0.014885 0.066199 -0.073653 0.120324 0.021867 0.090827 0.047018 0.054945 0.150668 -0.110902 -0.117314 -0.027882 0.073591 0.032461 0.094928 0.073381 -0.008466 0.116079 0.066805 0.099790 -0.097280 -0.065466 -0.194383 0.151348 -0.065384 0.082569 -0.088144 0.049288 -0.096358 -0.076288 -0.053334 0.020813 0.011803 0.005108 0.089989 -0.148579 0.025478 0.020464 0.135077 -0.011113 -0.178477 0.078964 0.089449 0.030550 -0.160374 0.062778 -0.122250 0.046756 0.065234 0.088901 -0.038952 0.090696 0.039830 0.138198 0.138892 0.038919 0.115063 0.018242 0.068446 -0.062472 0.058202 0.056211 -0.055486
baghdad 0.121562 0.113510 -0.049970 0.092786 0.001400 0.052080 0.060427 0.083098 -0.076677 -0.016817 -0.029526 -0.017129 -0.022678 0.047268 0.154843 -0.002125 -0.082098 -0.035378 -0.003481 0.125092 0.095078 -0.003505 -0.268139 -0.122908 -0.177662 0.111511 0.107393 0.065920 -0.119069 -0.044629 0.020576 0.007765 -0.040992 -0.034568 0.027462 0.031340 0.023324 -0.023876 0.019885 0.138969 0.092164 0.007949 0.025293 0.064230 -0.132451 0.054266 -0.053764 0.042179 -0.040781 -0.097624 -0.002284 -0.077978 -0.056954 -0.133975 -0.133187 0.056887 0.063665 -0.155663 0.056340 -0.063788 0.057681 -0.025206 -0.040234 0.078740 0.178171 0.061441 0.050729 -0.000743 0.014406 0.154747 0.042462 -0.108815 -0.092700 -0.022060 -0.052284 0.041813 0.131919 0.110010 -0.056855 -0.001321 -0.107936 0.019675 -0.056672 -0.050715 -0.099709 -0.088446 -0.119304 0.019727 -0.017610 -0.133254 -0.055930 0.050392 0.040132 -0.128259 0.003326 0.132353 -0.011123 -0.074137 -0.088257 -0.097212 -0.052883 -0.009834 -0.039457 0.013395 -0.023309 0.001040 -0.037816 -0.120060 -0.133217 -0.076736 -0.043281 -0.029112 0.053903 -0.016776 0.176558 0.012992 -0.082737 -0.003037 0.040113 0.082916 0.032205 0.051867 -0.117877 0.002565 0.113359 -0.044364 -0.072679 0.094454 -0.214062 0.092553
illinois 0.121272 0.006855 -0.024833 0.100454 -0.011995 0.072057 0.135418 0.103542 0.055731 -0.050914 0.043053 0.030461 0.126125 -0.069712 -0.103816 -0.053682 -0.040455 -0.015204 -0.008219 0.184883 0.066084 -0.058409 -0.007308 0.168088 -0.083603 0.202684 -0.011211 -0.031540 -0.075961 0.063215 -0.027970 -0.023573 0.066429 -0.088202 0.110857 -0.063863 0.044347 0.021754 0.068118 0.000100 -0.082163 -0.035748 -0.006901 0.024378 -0.014925 0.137055 0.048667 -0.001093 0.004873 -0.064294 0.034852 -0.085215 -0.040110 0.034530 -0.163262 -0.090401 -0.056479 0.152482 0.034610 0.009458 0.078530 -0.080042 0.004168 0.099669 -0.009104 -0.039232 -0.073215 0.019909 -0.011389 -0.073386 -0.082987 0.025531 0.007361 -0.112581 -0.023740 -0.045446 0.059791 0.009925 -0.045310 -0.065623 -0.065482 0.021364 -0.097104 -0.119087 0.119534 -0.094113 -0.032366 0.153954 0.165096 -0.048338 -0.115672 -0.015624 0.125647 0.020771 -0.034268 0.050680 0.051891 -0.092974 0.140142 -0.000794 -0.060392 0.123173 -0.034893 -0.126026 -0.055683 -0.057481 0.007954 -0.013099 -0.042165 0.085179 0.066926 -0.007136 0.029824 0.053141 -0.110134 0.002894 0.094342 -0.005861 0.034931 0.044222 -0.046420 -0.093633 -0.026082 -0.173656 -0.076624 0.033173 -0.105875 0.074976 -0.170373 0.017178
moving -0.072508 0.101115 0.075467 -0.014751 0.069587 -0.070460 -0.172235 0.006735 0.085266 -0.092547 0.032158 -0.073112 -0.097482 0.037158 -0.030406 0.100669 0.106587 -0.085728 0.029749 0.022280 -0.018373 0.029249 0.089891 -0.080056 -0.122276 -0.015752 0.009818 -0.064042 0.002979 -0.128295 -0.103170 -0.062208 0.018895 -0.014619 -0.081523 -0.139445 0.087795 -0.017980 -0.031822 0.008510 -0.006555 -0.040907 0.002637 -0.161546 0.089441 -0.057644 0.074162 0.028112 0.050135 -0.090678 -0.054727 -0.104403 -0.243563 0.120556 -0.144364 -0.016759 0.004795 -0.111918 0.068978 0.009793 0.092131 -0.059089 0.062270 0.008288 0.117622 0.089220 0.099839 -0.012470 0.099829 0.011449 0.078200 -0.240178 -0.148608 -0.052531 0.131716 0.080593 0.051749 0.022140 0.005146 0.170306 0.065575 0.108124 -0.036919 0.111057 -0.046159 -0.085375 0.150857 -0.099782 0.008724 0.027611 0.005906 -0.146956 0.076424 -0.005711 -0.056749 0.003235 -0.004928 0.062139 -0.028532 -0.132976 -0.010627 -0.050364 0.116122 0.010063 -0.102834 0.123521 0.007653 0.086717 0.066149 0.015848 -0.028033 -0.079780 -0.197763 -0.026319 -0.090678 0.094190 0.007429 0.048768 -0.015625 0.160474 -0.172449 -0.134261 -0.072435 0.110216 0.008427 -0.125678 0.123476 -0.035442 0.014727 0.016125
loud 0.104098 0.028257 -0.079306 -0.076857 -0.063133 0.051425 -0.049807 0.038164 0.078563 -0.066475 -0.062651 0.064206 -0.015511 0.044988 -0.083160 -0.129286 -0.079819 -0.175304 0.156350 -0.017229 0.055021 -0.019943 -0.051519 0.014477 -0.130864 -0.035987 0.066386 0.162758 0.001464 0.018276 -0.078905 -0.036100 -0.029864 0.053633 0.030164 0.058109 -0.079583 -0.118249 0.003670 0.126873 0.142848 0.017097 -0.012731 -0.015733 0.064439 -0.076538 -0.042853 -0.046063 0.078847 0.024210 -0.004564 0.080751 -0.063036 -0.014037 -0.083106 -0.105195 -0.109111 -0.133367 0.015699 -0.039256 -0.135858 0.002407 0.065855 0.081294 -0.071946 0.005007 0.144334 -0.000182 0.002882 0.059559 0.099139 0.020586 0.059837 -0.050294 -0.005875 0.088748 -0.016362 0.031288 -0.063632 0.028015 -0.014942 0.214074 0.057118 0.099585 0.005773 -0.027465 -0.011682 0.125261 -0.004293 -0.027706 -0.149173 -0.002536 -0.028378 0.048546 0.102521 0.141506 -0.001681 0.031863 -0.008755 0.008211 -0.032335 0.131872 -0.014903 0.000707 0.004987 -0.083711 -0.110905 -0.067077 -0.050099 -0.189529 0.000055 -0.052006 0.100941 0.058100 0.009985 0.037096 -0.122875 0.011785 0.007983 0.118960 0.162333 -0.026219 -0.105899 -0.087201 0.011099 -0.010336 0.140315 -0.015128 -0.167553 0.050179
thai -0.079792 0.044015 -0.111103 -0.055830 0.060034 0.121734 -0.110282 0.070249 0.045609 -0.024357 0.014408 0.001152 0.047958 0.043486 -0.093026 -0.099991 0.031798 0.021590 -0.070308 0.097230 -0.072183 -0.086751 0.059536 0.093329 -0.011698 -0.036217 -0.024435 -0.019880 -0.110117 -0.016466 -0.023054 -0.045791 -0.126083 -0.004150 0.017745 0.035356 0.045021 -0.142751 0.119385 0.012423 0.072935 0.033556 0.166033 -0.047936 -0.095993 0.096007 -0.094544 0.091813 0.136473 0.015324 0.010968 0.006824 -0.175625 -0.007978 -0.046156 0.004431 0.021119 0.114545 -0.043184 -0.081277 0.051042 0.075436 -0.062604 -0.034930 -0.036284 -0.075484 0.064290 -0.011459 0.015584 -0.011071 -0.067103 0.050991 -0.142847 -0.021387 0.139278 0.045775 0.099342 0.053717 0.014564 -0.009656 -0.090225 0.150848 -0.072573 -0.030461 -0.078249 -0.066903 -0.007214 0.003627 -0.003943 -0.003965 -0.145125 0.013360 0.037606 0.018443 -0.106635 0.003017 0.028919 -0.005439 0.118420 -0.207354 0.027114 -0.038768 0.082355 0.026327 0.145636 0.040135 -0.015931 0.132301 -0.007394 0.205970 0.051199 -0.102965 0.009445 -0.049567 -0.141835 -0.040494 0.058808 -0.047503 0.056033 -0.156613 -0.027187 0.028088 -0.025594 -0.026001 0.016730 0.076763 0.131093 0.069821 0.063460 0.045036
croatian 0.074250 -0.060788 0.168444 0.182222 0.014037 -0.004052 -0.001287 0.025781 -0.081012 0.022837 0.048524 0.043196 0.040209 0.022319 0.098618 0.033120 0.189305 0.061348 0.056383 -0.039664 0.179797 0.017730 0.027057 0.013655 -0.099622 -0.047778 0.024845 -0.057679 -0.077057 0.111445 -0.127549 0.006357 -0.015745 -0.066918 0.060320 -0.115907 -0.039621 -0.104288 0.121890 0.059543 0.028363 0.062153 0.019097 -0.126395 -0.032979 0.044547 0.042334 0.086525 -0.104471 0.084302 0.013915 -0.012701 -0.035659 0.074030 -0.060071 0.068521 0.043182 0.007719 -0.022095 0.013076 -0.029722 -0.228130 0.047111 -0.061956 0.075753 0.042752 -0.007352 0.196783 0.021892 0.025287 -0.021008 0.146550 0.013894 0.013183 0.087441 0.123405 -0.012111 -0.035967 0.058646 -0.041569 -0.029059 0.232766 -0.136155 -0.009132 -0.008430 0.096923 0.023430 -0.073227 0.127327 -0.013027 0.068861 -0.051795 -0.053698 -0.084148 0.087109 -0.115922 0.004306 0.039559 0.107928 -0.091684 0.104282 -0.002785 -0.097125 0.002439 -0.065165 0.007439 -0.091497 0.008431 0.104870 0.074074 -0.084338 0.040268 -0.053831 0.072157 -0.236378 0.056924 0.119515 -0.003014 -0.043315 -0.055093 0.012928 0.125111 -0.094462 -0.129123 0.107910 -0.053964 0.154331 0.069419 -0.141695 -0.083723
argentina 0.134974 -0.095769 0.021512 0.097251 0.059196 -0.096631 -0.076635 -0.057255 -0.011932 -0.070852 0.077603 0.083876 0.075409 0.018421 -0.107165 -0.071245 0.059809 -0.006083 -0.004523 -0.051779 0.141776 -0.024406 -0.100465 0.003890 0.011284 -0.009724 0.010683 0.050573 -0.013651 0.052158 0.049102 0.010663 0.073257 0.006482 -0.022398 -0.014879 -0.078004 -0.008206 0.111762 -0.077701 -0.088587 0.004857 0.045894 -0.065843 -0.018850 0.104717 0.023528 -0.017292 0.193023 -0.007291 0.184349 0.026541 0.060425 -0.013518 -0.043171 -0.073410 0.018722 -0.213868 -0.046200 0.002375 0.116060 -0.004005 -0.121636 -0.022308 -0.103161 -0.109445 0.082020 0.089205 -0.015858 0.042759 -0.034980 0.052428 0.047327 0.030792 -0.014950 0.021261 0.108996 -0.045846 -0.072808 0.098109 0.049891 -0.008166 0.068481 0.105249 0.048788 -0.004028 0.111083 -0.237833 0.038167 0.082197 -0.104606 0.053405 0.004965 -0.197597 -0.089949 -0.039688 -0.008374 -0.070880 -0.065209 -0.087809 0.074873 -0.041405 -0.075106 0.136905 -0.050463 0.119186 -0.001107 -0.067472 0.045063 0.121553 0.080573 -0.098538 -0.082221 0.183642 0.039733 -0.041693 -0.030683 0.006654 -0.075433 0.006787 -0.078428 -0.028170 -0.111612 0.072882 0.064447 -0.028549 -0.016975 0.140905 0.014183 0.079001
vietnam -0.084780 0.023091 -0.088964 0.027062 -0.200488 -0.043859 -0.061118 -0.113178 0.058976 0.031391 -0.117178 -0.026030 -0.021664 0.063514 -0.103022 0.034710 -0.161803 -0.016672 0.057342 -0.160494 -0.033001 0.141989 0.104472 -0.156533 0.116878 0.175176 0.060691 -0.033041 -0.016244 0.053370 -0.149414 0.022301 -0.074810 0.072577 0.131909 -0.065105 0.019930 -0.067894 0.107963 0.024817 0.032518 -0.132291 -0.015473 -0.093175 -0.064110 0.038269 0.001242 0.050473 0.031961 0.038355 -0.029596 -0.008807 0.106643 0.009119 -0.140866 0.041219 -0.181219 0.049529 0.088649 0.066391 0.025318 0.142773 0.024712 0.139739 -0.019437 0.000097 -0.093597 -0.025150 -0.139983 0.028783 0.188128 -0.161931 -0.074228 0.057559 -0.037193 0.051658 -0.058490 -0.019513 -0.117149 0.046262 -0.031580 -0.052875 0.005107 0.026724 0.060016 -0.088556 0.052694 0.004177 0.149016 -0.073213 -0.027213 0.106817 0.052126 -0.012382 0.011095 0.222574 0.161261 0.138937 0.115518 0.000056 0.152373 0.055653 -0.090146 -0.027168 -0.066366 0.100310 -0.061375 0.050169 0.169932 -0.018486 0.095654 -0.023441 0.010533 0.030573 0.117938 0.019474 -0.119825 -0.031040 -0.129442 0.070480 -0.058878 0.019433 0.019865 -0.113757 0.012938 -0.107774 0.006175 0.038287 -0.129844 -0.137622
norwegian -0.094214 0.022865 -0.076737 -0.007997 -0.039645 -0.044458 0.090727 0.000384 0.074353 0.096774 -0.189063 -0.216876 -0.021920 0.138532 0.114145 -0.137637 -0.007954 0.070368 0.108396 0.032352 -0.102304 -0.063506 0.083237 0.024562 -0.052130 -0.073524 0.142584 0.030851 0.031834 -0.053288 0.074425 -0.217422 -0.128949 -0.000044 -0.099898 -0.000059 0.003401 0.018761 -0.029256 -0.012383 -0.086374 0.091367 0.009726 -0.029302 -0.032387 0.064741 0.018421 0.094425 -0.028198 -0.003885 -0.059158 0.025231 -0.047516 -0.049472 -0.022741 0.037039 0.038429 0.102448 0.037892 0.062825 -0.031525 0.141334 -0.060557 -0.140761 -0.016075 0.076761 -0.111253 0.000429 0.003599 -0.112654 0.066932 -0.129584 -0.060266 0.004269 0.135896 0.262602 -0.161803 -0.105028 -0.043883 0.018082 -0.039206 0.018631 0.041878 0.068561 0.126586 0.086738 0.039647 -0.012579 0.016296 -0.120423 0.153343 -0.045604 0.113171 0.016641 0.064040 -0.040371 -0.062194 -0.038685 0.127418 0.057628 0.006047 -0.104078 -0.038041 0.070315 -0.013866 0.087342 -0.038293 -0.158327 0.173266 0.165751 0.118689 -0.040600 -0.047910 -0.193931 0.025574 0.033979 0.006039 0.024575 0.106789 0.134333 0.059584 0.083137 0.096756 0.132596 0.018198 0.095520 -0.118705 0.063499 0.050128 0.064955
professionally -0.080788 0.157488 0.172119 -0.074266 0.020212 0.030367 0.130476 0.029774 -0.012157 0.000702 -0.095763 -0.059035 -0.001058 0.113856 0.048733 -0.183389 0.078221 -0.086807 -0.041979 -0.025774 -0.082533 0.021872 -0.048644 -0.042945 -0.001492 0.016963 -0.023658 0.195637 -0.052119 0.069207 0.037754 -0.099585 0.019681 0.020375 0.106510 0.071514 -0.098199 -0.020032 0.008417 0.045527 0.015213 -0.086975 -0.053670 0.016386 -0.051465 0.077280 0.112311 -0.057657 0.145002 0.015304 0.003186 -0.025829 -0.040327 0.056076 -0.096912 -0.027386 0.118007 -0.107752 0.061324 0.033371 -0.019519 -0.061073 0.031221 0.091535 -0.040896 -0.061993 -0.052282 -0.099188 0.046105 0.005762 0.011769 0.030056 -0.017163 -0.063401 -0.006140 -0.026622 -0.059431 0.009211 -0.031496 -0.124295 -0.132482 0.170010 -0.082780 -0.082938 0.028673 -0.077432 -0.077675 -0.027806 0.142109 0.002872 0.127888 0.087786 -0.010934 -0.033885 -0.125832 -0.073332 -0.087901 -0.072913 0.058972 0.074431 -0.079792 0.042429 0.118788 0.111772 -0.067602 -0.077928 0.003021 -0.086038 0.037845 0.018129 0.070306 -0.031343 0.116401 0.036715 -0.041183 0.015785 -0.058747 0.087609 0.064021 -0.212891 0.133254 0.119233 0.071847 -0.016248 0.011976 0.029903 -0.016514 0.052566 -0.083511 0.102916
argentinean 0.003698 -0.083736 -0.062616 0.040798 0.167113 -0.104594 -0.056549 -0.041647 0.025453 0.025951 0.104503 -0.088325 0.030412 0.014538 -0.088657 -0.039141 0.024832 -0.043202 0.139676 -0.005274 0.110820 0.000778 -0.068234 0.056371 -0.059642 0.245796 0.052474 0.080902 0.043668 -0.014122 -0.005622 0.075430 0.003480 -0.000682 0.011746 -0.046274 -0.069378 -0.126957 0.022596 -0.044858 0.007348 -0.131807 -0.007251 0.100467 -0.060817 0.093101 0.120950 -0.029160 0.163396 -0.092003 0.060652 0.096001 -0.087126 -0.143915 -0.033946 0.121426 0.050155 -0.158288 -0.025506 0.084182 0.163752 0.096255 -0.044620 0.049103 0.014424 -0.119547 0.168598 0.033310 -0.061381 0.167882 -0.094885 0.076041 0.012028 0.031700 0.055853 0.050186 0.259028 0.021340 0.018616 0.097921 -0.059083 0.037812 0.073777 0.020533 0.121919 -0.043426 -0.029476 -0.175430 -0.060115 0.015672 -0.180073 0.052344 -0.009852 -0.001478 -0.087233 -0.015151 -0.000561 -0.024131 -0.024873 -0.094523 0.055600 0.014450 -0.011265 0.163327 0.116021 0.012914 0.036169 0.057060 0.068362 -0.016671 0.086240 -0.125219 -0.121014 0.041894 -0.026106 -0.027077 -0.083476 -0.017373 -0.113183 0.046952 -0.067099 -0.091079 -0.148560 0.018831 -0.001452 0.022208 0.012716 0.048665 -0.024952 0.035247
louder -0.044511 0.110411 -0.154058 -0.092975 -0.064214 0.032893 -0.077838 -0.143858 0.013619 -0.000325 0.038748 -0.018527 -0.041323 0.118644 -0.074101 -0.166754 -0.061814 -0.048815 0.161212 -0.045304 0.112396 -0.077395 -0.122241 0.031140 0.017187 0.097818 -0.098519 0.044810 -0.097169 -0.022351 -0.090294 0.003350 0.059800 0.084147 0.018291 0.129472 -0.063032 -0.095386 0.102727 0.065750 0.083223 0.057840 0.087925 -0.160465 0.021912 -0.125812 -0.036169 -0.021881 0.138577 -0.142739 -0.013614 0.017298 0.092067 0.047906 -0.016618 -0.055983 -0.065281 -0.076558 0.076893 -0.001163 0.015953 0.100260 0.040919 0.058972 -0.062350 0.016814 -0.000159 -0.103281 -0.004401 0.074481 0.096328 -0.062206 0.141328 -0.037666 -0.018627 0.013789 0.071272 0.046529 -0.085651 -0.004585 -0.022333 0.128382 0.092429 -0.102845 0.002063 -0.030894 -0.012433 0.033155 0.140650 -0.058366 -0.095439 0.064715 -0.069941 0.124430 0.115019 0.153441 -0.004144 -0.027251 -0.111218 -0.083807 -0.004099 0.085897 -0.110947 0.009401 -0.071979 -0.122251 0.014201 0.051887 0.059838 -0.098199 -0.020417 0.066076 0.048240 0.165782 -0.020206 -0.030473 -0.115513 -0.021092 0.021503 0.087031 0.041159 -0.045644 -0.074474 -0.061982 -0.097040 0.156154 0.030140 0.100603 -0.218759 0.035597
chicago 0.114386 0.036399 -0.042079 -0.003709 0.084484 0.003771 -0.024437 -0.015341 0.149394 -0.053255 -0.038015 0.133638 0.135644 -0.015025 -0.258524 -0.090774 0.027193 -0.039938 -0.064155 0.076904 0.010407 -0.136833 0.040317 0.165716 -0.047381 -0.059304 0.074072 -0.077992 -0.054735 0.144433 0.111692 0.003307 0.008519 0.000794 0.078212 -0.010247 0.127064 0.070516 -0.093152 0.115106 0.081847 -0.222003 -0.018610 -0.066856 0.070374 0.259997 -0.008646 0.079890 0.145076 -0.046462 -0.000190 0.063314 0.049249 0.047998 -0.109118 -0.121475 -0.031935 0.056626 0.054309 0.008280 -0.008690 0.084460 0.101700 0.025521 0.131611 -0.011493 -0.046262 0.064487 0.009185 -0.075936 -0.129924 -0.119695 0.073701 -0.117105 -0.070169 -0.103808 0.038978 -0.077851 -0.033966 0.094771 -0.107501 -0.034806 -0.003978 -0.019981 -0.057649 0.156034 0.008357 0.087766 0.094963 -0.115117 -0.039346 -0.039634 0.035374 -0.069921 -0.073196 0.052153 0.112917 -0.120883 0.086728 0.090607 -0.054213 0.041210 -0.100285 0.013079 -0.115943 -0.098106 -0.111257 0.038976 -0.046357 0.019171 -0.095769 0.004491 0.070491 0.209740 -0.125852 0.035188 0.041188 -0.055968 0.151355 0.082615 -0.095773 0.055334 0.009087 -0.113735 -0.012538 0.138657 -0.047709 0.117915 -0.147666 0.020643
move 0.028563 0.060938 0.095094 0.022157 0.019884 0.066159 0.002068 0.105658 -0.049283 -0.089804 -0.046104 -0.093077 -0.092844 -0.004352 -0.016252 0.022973 0.085386 -0.128686 -0.048446 -0.143502 -0.004509 -0.057721 0.029902 -0.036351 0.027582 -0.038468 -0.004496 -0.009318 0.008753 -0.017868 -0.079285 0.015746 -0.037502 0.049640 -0.022522 -0.055601 0.014692 -0.093744 -0.001117 0.023524 -0.041586 0.023680 0.035226 0.019474 0.118719 -0.001595 0.097127 0.005258 0.166994 -0.067990 -0.054061 -0.006529 -0.133390 0.155398 -0.137492 0.103594 -0.062807 -0.003418 0.112571 0.033601 0.048973 -0.079129 0.048794 -0.034458 0.035436 0.007752 -0.002509 -0.003360 0.146567 -0.070738 0.050514 -0.008830 0.004566 0.003143 0.104236 0.211757 -0.024013 -0.125763 0.003709 0.084307 -0.001801 0.195729 -0.051756 0.149135 0.029152 -0.071063 0.046708 0.009906 0.020216 0.085879 0.061187 -0.084751 0.032177 -0.027105 -0.059211 0.037344 0.014214 0.046905 -0.094245 -0.104922 0.003512 -0.009096 -0.067405 0.072412 -0.037943 0.090336 -0.051440 0.091258 0.092979 0.046211 -0.038663 -0.181665 0.022937 0.047887 -0.112969 0.076653 -0.042185 0.051846 0.009482 -0.020814 -0.112477 -0.024703 0.020238 -0.017244 -0.004444 0.007381 0.022579 -0.018994 -0.002959 -0.081078
thailand 0.039681 0.007896 -0.114813 -0.061449 -0.097456 0.009893 -0.019462 -0.027019 0.150251 0.088444 -0.019419 -0.111174 0.096272 -0.020999 -0.026421 -0.066595 0.088115 0.090153 0.107216 0.020518 0.086940 -0.018534 -0.035707 0.105375 -0.015826 0.058839 -0.090580 -0.000834 0.039215 -0.117102 -0.005643 0.056210 -0.141075 0.055714 0.090790 -0.078136 0.020001 -0.177086 0.020801 0.042007 0.096400 -0.047137 0.158597 0.017988 -0.064072 0.116943 -0.025249 0.145800 0.044367 0.023221 0.019596 -0.069362 -0.068679 0.001883 0.052097 0.063196 0.052232 0.041218 0.077597 -0.079682 0.046309 0.071197 -0.020285 0.023627 -0.032813 -0.038981 -0.005704 -0.061862 0.082782 -0.098205 0.079759 0.075902 -0.057009 -0.110590 0.164658 0.101388 0.167059 -0.061228 0.098374 0.032644 -0.157003 0.042540 -0.054662 -0.072315 0.018200 0.033377 0.114981 0.084396 -0.014258 0.008720 -0.074772 0.044836 0.083793 0.025627 -0.043809 -0.082071 0.043425 -0.080218 0.095012 -0.192573 0.063942 0.002664 0.001093 -0.086071 0.069005 0.080866 -0.078725 0.083627 0.010900 0.124141 -0.043232 -0.042226 -0.036615 -0.079271 -0.171787 -0.080119 0.033798 0.069476 -0.000755 -0.112219 -0.009850 -0.041350 -0.018500 0.094065 -0.070448 0.158684 0.088032 0.132472 0.089679 -0.020921
ukraine -0.132584 0.141905 0.047616 -0.018516 -0.000205 -0.091153 -0.108882 -0.125693 0.024809 0.084227 -0.053069 -0.105221 0.188476 -0.086978 0.143242 -0.040774 -0.052888 0.137359 0.087585 -0.018625 0.123378 -0.054406 -0.015113 -0.125941 0.002843 0.021441 0.049231 0.113629 -0.053683 -0.045880 0.068293 0.082356 -0.034287 0.287243 -0.060832 -0.009534 -0.077294 0.017915 -0.003363 -0.097061 0.132627 0.064060 0.162493 -0.039555 -0.016424 -0.011498 0.149615 0.110261 0.086695 -0.014323 0.113448 0.067540 0.036066 0.102080 -0.000910 0.024984 0.050278 -0.064104 0.098514 0.029396 0.057696 0.112796 -0.064216 -0.014994 0.002701 0.139315 -0.006417 -0.061861 0.008932 -0.050435 -0.080242 -0.027863 0.063444 0.049315 -0.104777 0.016580 -0.156138 0.038926 0.059807 0.056309 -0.032415 0.109731 0.010433 -0.086144 -0.012445 0.039409 -0.005738 0.063373 -0.022217 0.008916 0.018756 -0.033979 0.096261 -0.114541 0.074091 0.003145 -0.007578 0.021234 -0.023525 0.032908 -0.030484 0.137127 -0.202007 -0.022653 0.062863 0.047112 0.064524 0.090666 0.037218 -0.114373 0.120952 -0.040776 0.080974 -0.013584 0.045288 0.063346 -0.153219 0.156192 -0.023839 0.025438 0.016094 -0.151135 0.099472 0.061537 -0.141202 -0.029643 -0.042653 -0.031206 -0.096396 0.020423
plano -0.021745 -0.006917 -0.033180 -0.043825 -0.039954 -0.097434 -0.078822 -0.185623 -0.018899 -0.124228 -0.169941 -0.073970 0.101157 -0.034516 0.067221 -0.160596 0.026398 -0.009222 0.037043 0.021256 0.071831 -0.047225 0.113265 -0.047698 -0.137612 0.021067 0.114141 0.008641 0.075464 -0.042516 0.049020 -0.013395 0.064097 -0.096953 -0.017976 0.027122 -0.145212 -0.126194 -0.090408 -0.030851 -0.098949 0.055612 -0.030837 -0.018806 0.100198 0.145766 -0.022088 0.087469 -0.043333 0.009798 0.041928 0.159596 -0.042959 0.061143 0.004734 -0.143645 -0.028557 0.079268 -0.080058 -0.084947 0.070410 0.039414 -0.086242 -0.090131 0.063848 -0.046172 0.029233 -0.030326 -0.127323 0.124554 -0.010879 0.067029 0.069365 -0.128077 -0.051706 -0.000047 0.097041 0.010254 -0.138223 0.145489 0.008723 0.084653 0.003750 -0.077719 0.082255 -0.081172 0.025192 -0.046721 -0.064451 0.024704 -0.008301 -0.078618 -0.081645 -0.026115 -0.092140 0.064617 0.020809 0.041426 -0.075718 0.204802 -0.061254 0.042087 -0.031732 0.035490 -0.210665 0.004800 0.042583 -0.078448 -0.123408 0.078747 -0.053505 -0.056755 0.087132 -0.054831 -0.066666 -0.055599 0.066515 -0.143598 0.066939 0.031812 0.078338 -0.024686 -0.011324 -0.039576 -0.058408 -0.008770 0.088823 0.082041 -0.204228 0.145141
texas 0.124968 -0.114371 0.063471 0.026130 -0.010884 -0.096485 0.019167 -0.142453 -0.036333 -0.067213 -0.048364 0.001114 0.169784 0.018210 -0.009522 -0.006412 0.070313 -0.016011 0.096487 0.034067 0.091877 -0.172235 0.055228 0.030401 0.013998 -0.011200 -0.013865 0.018432 0.039685 0.033583 -0.063641 -0.101090 0.053835 -0.066580 0.017105 -0.054486 -0.093260 -0.196151 0.055510 -0.140338 -0.156166 0.140709 0.085176 0.068424 -0.009734 -0.119364 0.011504 -0.014415 -0.025921 0.033311 0.026720 0.130214 -0.086219 -0.011890 -0.040042 -0.058467 -0.137765 -0.054302 -0.022342 -0.127617 0.047753 -0.006304 -0.120151 -0.067967 0.032057 0.043937 -0.033706 -0.003057 -0.037446 0.019111 0.023613 0.041337 0.025246 -0.024556 0.074786 -0.041842 0.006834 0.118592 0.066055 0.029588 0.004890 0.008758 0.046806 -0.069291 0.032134 -0.114321 0.022340 -0.057208 -0.099909 -0.021173 -0.040158 -0.103601 -0.090978 -0.075094 -0.045677 -0.049731 -0.024820 -0.041639 -0.014434 0.186970 -0.133277 0.122990 0.026223 0.040913 -0.215163 0.041019 -0.120478 0.006305 -0.092565 0.225668 -0.012337 -0.084538 0.011941 -0.017301 -0.062109 0.164230 0.134317 -0.133121 0.111977 0.107382 0.061601 0.043726 0.082658 -0.065452 -0.073497 -0.107981 0.056170 0.150036 -0.138001 0.061291
tough 0.056610 0.091177 0.069658 -0.166917 -0.024812 0.012984 -0.040710 -0.022441 0.059825 0.086558 -0.095405 0.095472 0.151010 0.070967 0.003325 -0.018144 -0.100243 0.063463 0.135287 0.108384 -0.049490 0.107893 0.160448 -0.141649 0.088357 -0.152499 -0.024841 -0.093404 -0.170741 0.023179 -0.050391 0.007149 -0.098783 0.019006 0.018931 0.042609 -0.074174 0.070071 0.025280 -0.008830 0.092729 -0.077042 -0.040901 -0.091037 -0.074372 0.130017 0.128300 -0.095679 0.018664 -0.019803 -0.007320 -0.028591 0.055994 -0.151603 -0.080670 0.136926 -0.032606 0.005611 0.009456 0.016993 0.014442 -0.016243 -0.253304 -0.056443 -0.007143 -0.002497 -0.099125 0.133699 -0.022716 -0.063122 0.056639 -0.041742 -0.018472 0.038810 0.026626 0.112285 0.029983 0.100139 -0.013562 -0.012076 -0.104925 -0.015737 0.051502 -0.123158 -0.039727 -0.126623 -0.137899 -0.074750 0.033115 -0.142384 -0.016935 0.130463 0.056483 -0.088532 0.046374 -0.055852 0.017920 0.084343 0.088052 -0.032177 -0.060407 -0.082617 0.002429 0.084319 0.004289 -0.057397 0.017290 -0.020479 0.025854 -0.038675 0.074604 0.086215 0.013430 0.015193 0.016723 0.026586 0.021276 -0.003675 0.124537 0.041682 -0.017723 0.032067 -0.132050 0.205402 0.014395 0.021508 -0.030803 -0.030893 -0.105766 0.141180
flying -0.078799 0.020017 0.136656 0.042118 0.040816 0.043369 -0.136709 -0.047489 -0.119888 -0.004295 -0.008277 0.027868 0.098159 0.056440 -0.058130 0.008189 0.014424 -0.082169 -0.012689 0.013808 -0.069977 -0.042766 0.055368 -0.225442 -0.022944 -0.001364 -0.034971 -0.073988 0.016454 0.075976 0.114046 -0.059103 0.072583 0.031682 -0.023912 -0.114010 -0.113769 -0.036484 -0.009259 0.128411 0.112264 -0.063282 0.032134 0.095340 -0.097781 0.039932 -0.133649 0.026311 0.009521 0.015615 -0.046247 -0.098682 -0.071137 0.077743 -0.032110 -0.018103 -0.053423 -0.221111 -0.052393 -0.149235 0.033070 0.003804 0.020118 -0.002797 -0.067737 0.019193 0.056365 -0.090865 0.037986 -0.069800 0.088711 0.169662 -0.167587 -0.145157 -0.010554 -0.180068 0.069712 -0.094246 0.126587 -0.072286 -0.024892 0.150268 -0.025146 -0.129481 -0.086163 -0.142088 -0.059817 0.074225 0.114672 0.049145 0.006276 0.054505 0.029948 -0.161937 0.085543 0.072015 -0.024916 0.058646 -0.077289 0.122229 -0.007510 -0.008004 -0.044841 0.047348 -0.014690 -0.007246 0.024457 -0.107878 -0.013680 0.047517 -0.040933 -0.017807 0.052856 -0.076944 -0.203632 -0.077098 -0.040631 0.044342 0.013480 0.215605 -0.043978 -0.016447 0.054588 -0.013796 0.078400 -0.083550 -0.059357 0.047415 0.074012 -0.107303
iraq 0.016610 0.038918 -0.088449 0.053900 0.001553 -0.016989 -0.058608 0.054388 0.001571 -0.066115 0.119366 0.101438 -0.067173 -0.044224 0.097212 -0.112720 -0.060135 -0.029957 0.012561 0.049795 -0.053109 -0.068709 -0.099138 -0.171497 -0.225012 0.029906 0.009350 0.079837 -0.004041 0.082730 -0.008200 0.050002 0.070347 0.016348 -0.085403 -0.048175 0.063568 -0.002782 0.069060 0.091038 0.065866 0.010924 0.037329 -0.053962 -0.062530 0.073028 0.065482 0.009916 0.005526 -0.000015 -0.051011 0.018489 -0.112796 -0.078714 -0.167654 0.028829 0.101789 -0.089970 -0.049772 0.009194 0.059799 -0.052541 0.002825 0.135303 0.027343 0.103665 0.035410 0.073978 0.008151 0.054057 -0.027826 0.023520 -0.093479 -0.027757 -0.065780 0.039966 0.065650 0.098067 -0.002181 -0.027683 0.154522 0.088728 0.031163 0.008553 -0.065272 -0.093052 -0.007183 -0.118083 0.010558 -0.081301 -0.056587 0.075991 0.036942 0.108494 -0.031253 0.158955 -0.033979 -0.063474 -0.070893 -0.133608 0.086903 0.008000 -0.083357 -0.058407 0.065576 0.022157 0.069989 -0.070343 -0.078271 -0.047554 0.067502 -0.168063 0.003780 -0.042847 -0.058917 0.019449 -0.017853 0.041004 0.038702 0.189713 0.019576 0.075368 -0.072906 0.022327 0.160772 -0.070181 0.072033 0.030400 -0.055713 0.042033
professional -0.024264 0.134763 0.080082 -0.146827 -0.041024 0.075537 -0.007369 0.094175 -0.024106 -0.052373 -0.027910 0.012479 0.048814 0.131350 0.001559 -0.129985 0.020327 0.102857 -0.022600 0.089563 -0.092508 -0.050440 -0.029610 0.029930 0.051531 -0.028013 0.007156 0.050373 0.021408 -0.010295 -0.086277 -0.035379 -0.053656 0.055151 -0.059655 0.013529 -0.142810 0.033575 -0.046051 -0.038073 0.096297 -0.011229 0.072200 -0.074043 -0.193035 0.124101 0.091812 -0.012754 0.113705 -0.088667 -0.053953 0.004416 -0.023043 0.006143 -0.006118 -0.003245 0.038543 -0.113163 -0.013272 0.043421 0.005444 -0.065350 -0.080360 -0.015429 -0.010175 -0.021825 -0.129202 -0.139309 -0.019484 0.014582 -0.101056 0.005372 0.031156 -0.072219 -0.137641 -0.068273 0.057738 0.157091 -0.009498 -0.061936 -0.079012 0.153382 0.012430 -0.054650 -0.081231 -0.210493 -0.183861 0.029978 0.121772 -0.007461 0.039054 0.057969 0.062128 -0.148110 -0.049203 0.001794 -0.024843 -0.045544 0.012623 0.018515 -0.081186 -0.028282 -0.011282 0.050047 -0.044187 0.011012 0.011511 -0.049928 -0.064173 -0.022973 0.095220 0.048285 0.116826 0.018432 -0.078174 0.037017 -0.056135 0.045881 0.053871 -0.148874 -0.035086 -0.001212 0.007084 -0.056853 0.095401 -0.060562 0.026515 0.089555 -0.079590 0.051929
fly -0.049467 0.045252 0.045075 0.107913 0.063039 0.021413 -0.079058 0.002130 -0.096951 0.056995 -0.061167 -0.002819 0.116524 0.137023 -0.084942 0.016936 0.041139 0.021871 -0.002938 0.000800 0.064111 -0.162635 -0.103885 -0.035779 0.064647 0.004140 0.112990 -0.005899 0.027103 0.082805 0.106168 -0.048695 0.056754 -0.009728 0.085814 -0.051049 -0.132140 -0.064202 0.009145 -0.036833 -0.017916 -0.049610 0.053606 0.100681 -0.077355 -0.100908 -0.102044 -0.028827 -0.030213 -0.027553 -0.042325 -0.068512 0.025649 0.057059 -0.081114 -0.066980 0.063181 -0.075493 -0.020727 -0.099453 0.046682 0.014524 0.012428 0.046225 -0.132239 -0.056696 -0.038299 -0.078661 -0.021912 -0.068566 0.144225 0.036233 -0.158464 -0.194717 0.149849 0.011620 -0.006393 -0.120064 0.102089 -0.119692 -0.151598 0.038537 0.086533 -0.091042 -0.080011 -0.144175 0.034814 -0.026450 0.122946 -0.037265 -0.017658 -0.026429 0.092036 -0.144098 0.146399 0.023174 -0.075565 0.061570 -0.017260 0.179617 -0.062912 -0.056074 0.048792 0.101170 0.111466 0.104316 -0.058480 -0.067972 0.075104 -0.004307 0.070031 -0.035515 0.034863 0.046265 -0.084730 -0.018586 -0.071297 0.121698 -0.052862 0.190849 -0.050626 -0.004001 0.070795 0.088508 0.017181 0.042752 -0.171420 0.088936 0.041003 -0.033965
danish 0.155612 -0.053499 0.156835 0.010684 0.030192 -0.024632 0.052477 -0.016451 0.005589 0.119559 0.075417 -0.037894 -0.095778 0.058057 0.200274 0.003795 0.020213 0.048168 0.018868 -0.004706 -0.003191 -0.108233 0.122550 -0.021958 0.018611 0.053034 0.022686 0.045017 0.053410 -0.010084 -0.000283 0.112329 -0.136823 0.122072 0.073809 0.121441 -0.095581 -0.019815 -0.128448 -0.026691 -0.016542 -0.018730 0.083945 -0.018667 0.001730 -0.081020 0.027067 0.046553 -0.034048 0.206692 0.107236 0.065342 -0.160375 0.018540 0.010482 0.038887 -0.090885 0.016295 0.098647 0.026261 0.169033 0.093150 -0.060873 0.080897 -0.036549 -0.014722 0.108302 0.187198 0.054583 -0.005955 0.111946 0.007433 0.117458 -0.007984 -0.031271 -0.045447 0.173562 0.037995 -0.027139 0.006029 0.082803 0.261879 -0.018351 -0.036439 -0.134989 -0.059697 0.001614 -0.057943 0.074081 -0.029282 -0.044213 0.101566 0.016737 -0.007024 0.046730 -0.089795 -0.086076 0.054424 -0.063945 -0.174838 0.141727 -0.009905 -0.015144 0.027861 0.120835 -0.006866 0.153889 -0.061919 0.095378 0.070033 -0.077304 0.030337 -0.004537 0.062940 -0.028229 -0.060297 -0.025932 0.067477 -0.048980 0.008041 0.025059 0.074255 -0.042659 -0.089173 0.062576 -0.019098 -0.029198 0.014369 -0.075131 -0.034242
denmark 0.106542 0.042734 0.210524 -0.029977 0.039096 -0.059339 0.053392 -0.019793 0.001078 0.019948 0.030524 -0.102397 0.039272 0.095987 0.165254 0.077095 -0.093964 -0.041103 0.053132 0.017121 -0.034486 -0.032623 0.060786 -0.038625 0.066047 0.116189 -0.155101 0.064840 0.064736 0.107696 -0.015618 0.016861 -0.005241 -0.047567 0.101754 0.069441 -0.081854 0.038018 -0.091544 -0.051726 0.003328 -0.040730 0.089124 -0.047106 0.012617 -0.055387 -0.067533 0.008619 -0.009447 0.196246 0.058894 -0.037586 0.020259 0.067369 -0.003991 -0.041303 -0.097494 0.005231 0.086420 -0.030207 0.117897 0.104945 -0.008894 0.048708 0.016986 0.171467 0.070188 0.133880 0.113857 -0.035425 0.099399 0.099739 0.080485 -0.029488 0.028067 -0.072482 0.129939 0.067552 0.016933 -0.016273 -0.010370 0.257596 -0.050874 -0.051763 0.136669 -0.093140 -0.057472 -0.039942 -0.039760 -0.058313 -0.031177 0.017949 -0.002117 -0.032944 0.090518 -0.029796 -0.103320 0.033568 -0.022125 -0.075003 0.069551 0.178892 -0.058659 0.004370 -0.020756 -0.078998 0.069307 -0.111800 0.036707 0.082433 0.011836 0.084862 -0.001803 -0.034539 0.012209 0.066886 0.010736 -0.061840 -0.019271 0.113314 0.095967 0.052392 -0.062571 -0.026852 -0.018955 0.068159 -0.023167 -0.052327 -0.058437 -0.022138
croatia 0.018775 0.063126 0.060547 0.058786 -0.037364 0.043477 -0.131813 0.042185 0.029263 0.015727 0.020352 0.004072 0.109551 -0.017562 -0.035539 -0.026251 0.153273 0.076313 0.057188 0.017707 0.152427 0.017357 -0.096246 -0.091884 -0.057135 -0.075064 0.163306 -0.084069 -0.038055 0.168681 0.034660 0.049698 0.091568 0.059776 0.003065 -0.088167 -0.064519 -0.006942 0.085206 0.162770 -0.048606 0.107524 0.017389 -0.031946 -0.026493 -0.034622 0.002265 0.052141 -0.048982 -0.054216 -0.024034 -0.046750 -0.006429 0.074632 0.056589 -0.084593 -0.051952 0.034833 -0.064267 0.060485 -0.053415 -0.074905 0.098041 -0.051136 -0.001855 0.084384 0.073356 0.052204 0.010389 0.014917 0.085634 -0.002000 -0.023547 -0.064937 -0.024023 0.084734 0.049337 -0.013648 0.030262 -0.019195 0.015420 0.216600 -0.105693 -0.115148 0.033981 -0.014270 -0.010633 -0.109799 -0.021843 -0.071640 -0.020947 -0.000380 0.026684 -0.187901 0.018384 -0.021999 0.050671 -0.011196 0.032108 -0.078666 -0.015230 0.034523 -0.047913 -0.043388 -0.095608 -0.027080 0.048560 0.048277 -0.002477 -0.006030 -0.150844 0.066058 0.035888 0.036531 -0.153054 0.104531 0.028322 -0.105113 -0.097693 0.004948 0.006029 0.093546 -0.093599 -0.028689 0.069875 -0.135245 0.011480 0.019712 -0.228767 0.013136
