hanoi -0.208066 -0.388820 -0.365238 0.112354 -0.268749 0.194374 -0.041039 -0.090938 0.258411 -0.033249 -0.228545 0.067323 0.133729 0.109290 -0.228687 -0.232805 0.113529 0.015340 0.027032 -0.188559 -0.239102 -0.258178 0.060867 0.160432 -0.032846
tougher 0.343609 -0.161986 -0.151239 0.237471 -0.018686 -0.004119 0.074027 0.005563 0.088184 -0.076481 0.196599 -0.290415 0.068317 -0.392403 0.007646 -0.022143 0.050184 0.294059 -0.052603 -0.054215 -0.022684 0.295975 0.261744 -0.205845 0.082431
occasionally 0.010940 0.197849 0.042419 -0.213878 -0.166007 0.134472 -0.116503 0.269483 0.176405 -0.178803 -0.260222 0.258362 0.267915 0.080549 -0.303859 0.012928 -0.049533 -0.069367 -0.093865 0.371787 -0.070300 0.138106 0.182158 -0.155536 -0.117472
ukrainian 0.217330 -0.224179 -0.026846 0.137893 -0.192498 -0.122983 0.019176 0.161642 0.205384 -0.044283 -0.031560 -0.134610 0.122970 0.061507 -0.065230 -0.097805 0.248162 -0.080542 0.059780 0.207003 0.344896 -0.368134 0.083598 -0.149005 -0.029405
occasional 0.211895 0.023728 0.027611 0.027089 -0.196672 0.118641 -0.124503 0.084011 0.052272 0.057825 -0.127552 -0.068658 0.191529 0.056142 -0.491260 0.008892 -0.100183 -0.009035 0.081634 0.392813 0.155322 -0.112675 0.225737 0.075441 0.033884
norway 0.171277 0.182978 -0.201971 0.184918 -0.147816 0.053596 0.061977 -0.191312 0.289537 0.319678 0.100592 -0.022074 0.123224 0.003298 0.124732 -0.314933 0.061430 0.007617 -0.214605 -0.038089 0.099843 -0.014808 -0.053356 -0.182179 -0.117238
baghdad 0.215538 0.092342 -0.357787 -0.024127 0.015840 0.179452 0.137389 -0.013431 -0.196234 -0.141960 0.221864 -0.286031 -0.037133 -0.042469 -0.257330 -0.316846 -0.091388 -0.040039 -0.214452 0.151349 -0.119455 0.016017 0.163320 0.046505 0.211190
illinois 0.058385 -0.091104 -0.079197 0.050915 -0.089464 -0.085227 -0.113752 -0.300732 0.040185 -0.228026 -0.177742 0.159888 0.153320 0.122872 -0.161299 0.116656 0.032610 0.020494 0.006891 0.049487 -0.032755 0.263845 -0.027985 -0.454161 0.395355
moving 0.441455 0.013365 -0.022387 0.027594 0.104287 0.227833 0.122775 0.168933 0.008259 0.117277 0.271223 0.388164 0.096434 0.189472 -0.109448 -0.137178 0.221754 0.005009 -0.410225 -0.019052 -0.182439 -0.101697 0.011782 -0.032858 0.145079
loud -0.014650 -0.169976 -0.261852 -0.243759 0.145211 -0.178848 0.043268 0.036378 0.370811 -0.033274 0.044345 -0.350878 0.204195 0.115368 -0.307808 0.161930 -0.081630 0.099030 -0.321368 -0.093147 0.051011 0.112228 0.057691 -0.018454 -0.074561
thai 0.005798 0.312473 -0.314981 0.139771 0.083253 -0.146602 -0.361885 0.110907 0.075098 0.102618 -0.093301 -0.020072 0.070996 -0.144862 -0.156939 0.104342 0.219801 -0.006430 0.260078 0.058840 -0.180259 -0.083058 0.042268 -0.331956 0.343731
croatian -0.133409 -0.084599 0.097093 -0.053683 -0.118296 0.390236 -0.020144 -0.059630 0.072237 -0.139581 0.054464 -0.171610 -0.246047 -0.151926 -0.145168 0.202420 0.075631 -0.215615 -0.321294 -0.004297 0.102443 0.002069 0.059950 -0.454662 -0.115828
argentina -0.067262 0.080035 -0.155432 0.011614 -0.165134 0.012295 0.177403 0.223049 -0.092453 -0.042412 0.130685 0.179262 0.089456 -0.083451 -0.230074 0.139035 -0.002573 -0.267823 0.092918 -0.326367 0.304962 -0.117450 0.152026 -0.140724 0.151244
vietnam 0.023887 -0.135154 -0.369193 -0.040788 -0.289253 0.226144 0.002827 0.049014 0.222778 -0.242201 -0.134672 -0.023089 0.003649 0.187058 0.034044 -0.114231 0.027592 -0.084533 -0.008922 -0.176208 -0.280845 -0.058133 0.033849 -0.051546 -0.028829
norwegian 0.138986 0.355284 -0.158129 0.385598 -0.319366 0.017310 0.064607 -0.099060 0.264841 0.351544 0.161087 -0.073635 0.110095 0.025426 0.035885 -0.170256 0.017621 0.110496 -0.108964 0.024154 0.049710 -0.041406 0.007918 -0.087533 -0.093255
professionally -0.100684 0.084928 -0.233059 0.075059 0.118710 -0.111792 -0.066965 -0.028045 0.194167 0.210859 -0.248924 0.105985 -0.047120 -0.004293 -0.191225 -0.428410 -0.037341 0.092964 -0.167951 0.022944 0.080412 -0.028907 0.171299 -0.162981 -0.166550
argentinean -0.101700 0.067659 -0.314570 -0.009273 -0.051149 0.043419 0.096224 -0.021114 -0.143422 0.078414 0.125366 0.222702 0.457895 -0.115542 -0.199588 0.217423 0.139060 -0.278532 -0.056222 -0.214952 0.457029 0.171935 0.052509 -0.024586 0.100093
louder 0.001297 -0.123518 -0.368274 -0.231319 0.235736 -0.099223 0.096790 0.000017 0.284960 -0.098379 -0.000949 -0.241454 -0.032108 0.134226 -0.376484 0.212230 0.033915 -0.067955 -0.053372 -0.033312 0.020511 0.051099 -0.003957 0.000006 -0.115603
chicago 0.083962 -0.130192 -0.290963 -0.104094 0.139250 -0.006811 0.128012 -0.276274 0.075935 -0.315534 -0.081243 0.282642 0.084724 0.001206 -0.001627 0.209160 0.033024 0.066178 0.041564 0.150882 0.092175 0.045593 0.194410 -0.354398 0.129897
move 0.325420 0.164043 -0.171035 -0.069678 0.076590 0.326063 0.113413 0.240231 0.039118 0.173455 0.134288 0.484135 0.035541 0.037335 -0.120152 0.131087 0.062344 -0.024356 -0.138581 -0.108272 -0.037752 -0.099935 -0.166700 -0.126506 0.023407
thailand -0.125880 0.327481 -0.268328 0.241127 -0.004330 -0.040618 -0.457539 0.137773 0.097086 0.170480 0.042878 -0.042093 -0.010901 0.092435 -0.216272 0.163191 0.111534 -0.021816 0.231733 -0.082108 -0.193259 -0.066867 -0.011005 -0.278428 0.352974
ukraine 0.154770 -0.438144 -0.161121 0.160356 -0.002530 0.058085 0.024568 0.053125 0.250107 0.152551 0.087949 -0.015894 -0.170428 0.154567 -0.121745 0.116625 0.322523 0.222549 0.359170 0.291701 0.205209 -0.302106 0.254701 -0.157049 -0.163963
plano 0.245999 -0.036466 -0.030370 0.262319 -0.147780 -0.221444 0.295869 0.258511 0.048596 -0.085987 0.209728 -0.104360 -0.133583 0.279964 -0.223393 0.104395 -0.081378 -0.160028 -0.055497 0.079122 -0.143464 0.190893 -0.014021 -0.222684 -0.091760
texas 0.271507 -0.006741 -0.154767 0.377129 -0.010366 -0.174797 0.080108 0.307880 0.120912 -0.111437 0.269349 -0.061737 -0.003462 0.147566 0.000730 0.241739 -0.187140 -0.466579 0.022854 0.181285 -0.018283 0.196175 -0.028676 -0.215434 -0.098730
tough 0.214990 -0.193414 -0.130694 0.209825 -0.072092 -0.015244 0.210477 0.050085 0.397810 0.001865 0.174300 -0.209714 0.224315 -0.476211 -0.078888 -0.144825 0.031273 0.211225 0.236410 -0.190299 -0.091815 0.247842 0.198251 -0.043674 0.053220
flying -0.049935 0.027944 -0.071351 0.316837 0.086690 0.206675 0.091875 0.103219 -0.005476 -0.328308 -0.354206 -0.186681 -0.051908 0.171809 -0.028105 0.123831 -0.195106 0.297979 -0.053740 -0.071105 0.393965 -0.152846 0.150143 -0.156566 0.049264
iraq 0.193486 0.086607 -0.323796 -0.027382 -0.024187 0.184496 -0.009586 0.051469 -0.103953 -0.179571 0.197433 -0.102812 -0.057402 -0.064266 -0.111873 -0.337244 -0.329292 -0.102985 -0.027240 0.103484 0.180865 0.080970 -0.043330 -0.212064 0.073887
professional 0.011632 0.128238 -0.067788 0.105745 0.230807 -0.050360 0.035721 0.108961 0.071826 -0.018339 -0.384949 0.133547 -0.087594 0.001522 -0.257495 -0.431432 0.028178 -0.092376 -0.083822 -0.045106 -0.033456 0.144537 0.293687 -0.191047 -0.149914
fly -0.217836 0.015415 -0.053971 0.401074 0.029364 0.328655 0.134790 -0.087671 -0.130047 -0.019399 -0.259769 -0.002214 0.062665 0.192341 -0.162108 0.262622 -0.078309 0.162614 -0.279773 -0.048610 0.211084 -0.035388 0.066595 -0.116441 0.121820
danish -0.223152 -0.201100 0.047263 0.102619 -0.009081 0.236462 0.134551 0.148529 0.260569 0.256714 -0.040299 -0.051748 0.007241 0.034090 -0.064444 -0.284137 -0.040567 -0.108904 -0.030618 0.038226 0.176988 0.260411 -0.124946 -0.239775 0.379762
denmark -0.247407 -0.308859 -0.305659 0.036726 0.039352 -0.011057 0.119929 0.203918 0.251849 0.257576 -0.003310 -0.008178 -0.105618 -0.293050 -0.138661 -0.077805 -0.083059 0.038116 -0.248180 -0.100522 0.092906 0.084905 -0.167389 -0.136830 0.254157
croatia -0.097663 0.166170 -0.044111 0.116714 0.177766 0.309968 0.127443 -0.113233 0.155878 -0.128634 0.149855 -0.111336 -0.259010 -0.009729 -0.015863 0.306305 -0.009861 -0.183850 -0.332837 0.243114 -0.045128 -0.044274 0.189167 -0.274471 0.092069
