hanoi -0.164635 0.018350 0.076061 -0.001149 0.048893 0.025295 0.007277 -0.070865 -0.120212 -0.083229 -0.075582 0.106662 0.018343 0.108154 0.072653 -0.062018 0.019747 0.080227 -0.113865 0.011221 0.123478 -0.120423 -0.151767 -0.072856 0.093453 -0.082928 -0.088338 -0.098417 -0.068783 0.034588 -0.157344 0.020921 0.099257 0.124279 -0.055279 0.016230 0.082969 -0.026580 -0.083410 -0.069634 0.127636 -0.141554 0.231358 0.050825 -0.021461 -0.053760 -0.177468 0.012297 0.105023 -0.115949 -0.046906 -0.130948 -0.187742 0.064497 -0.024086 0.156239 0.117996 -0.031888 -0.022826 0.015461 -0.092698 -0.009811 -0.000696 -0.051995 -0.072445 0.034605 -0.098105 0.003955 -0.087352 0.027207 0.147951 0.115593 0.065263 0.000922 -0.102908 -0.073338 0.038301 0.003550 0.079342 0.117346 0.022807 -0.047258 -0.081916 -0.001296 0.077153 0.063729 0.053587 0.052243 0.101991 0.159154 0.001407 -0.032164 -0.023366 -0.209608 0.131537 0.096136 -0.041688 0.034135 -0.009145 0.130781
tougher 0.080526 0.008531 -0.118726 0.010312 0.040564 0.129122 0.152953 -0.018997 0.164452 -0.032773 0.089684 0.022047 0.113166 0.121719 -0.033815 0.097115 0.092860 0.030169 -0.037608 -0.009696 -0.072315 0.017530 -0.016725 0.178760 -0.006268 -0.193322 0.095550 -0.048608 -0.006199 0.089268 0.094961 -0.096507 -0.010923 -0.022173 0.129112 0.057754 -0.039869 0.050523 0.076689 0.013793 -0.012358 -0.049893 0.122851 -0.116501 0.002991 -0.181245 -0.025320 0.058461 0.016215 -0.002985 -0.015660 -0.021347 -0.003423 -0.112146 0.040452 0.135997 0.088909 0.056615 0.053796 0.032041 -0.005216 0.096824 -0.013810 0.042149 0.073235 0.093696 -0.064394 0.034518 0.014382 0.089236 -0.029268 -0.035691 0.060002 0.078675 -0.138936 0.066367 0.023118 0.038722 0.067216 0.111904 -0.079353 -0.198366 -0.028812 0.051358 -0.038037 0.074210 0.163493 0.049865 0.027495 -0.068877 0.230206 -0.104280 -0.180286 0.008229 0.007041 -0.075687 0.061383 0.044785 0.010163 0.081811
occasionally 0.024785 0.166083 -0.101806 0.027004 0.202018 0.080298 0.183593 0.161324 -0.066415 -0.036839 0.029783 0.129849 -0.000691 0.053253 -0.042940 -0.102976 -0.010222 0.032103 -0.053097 0.112392 0.023358 0.022687 -0.163917 0.117220 0.039091 -0.035844 -0.176434 0.111139 -0.041485 0.093452 0.054181 0.027093 0.052005 -0.154018 0.019439 0.064548 -0.002963 -0.040975 -0.050554 -0.003706 0.078656 -0.075560 -0.033536 0.029875 0.077939 0.145477 0.066799 -0.077542 -0.146514 0.008023 -0.044774 0.020100 -0.059902 -0.015554 -0.090799 -0.003193 -0.038752 -0.045510 -0.089336 0.015562 0.016558 -0.190808 -0.067513 -0.096510 -0.107968 -0.171987 -0.078975 -0.029712 -0.036903 -0.076144 0.177881 -0.157621 0.038931 -0.271177 -0.079518 -0.189650 0.038349 0.040194 0.031827 0.085706 0.167825 -0.120469 -0.123554 -0.209591 0.103781 0.000300 -0.086220 0.051720 0.097943 -0.032741 -0.020824 -0.093222 0.120773 -0.004400 0.070921 0.027571 -0.075787 0.030151 0.130072 0.021808
ukrainian -0.085417 0.004745 0.052923 -0.002073 -0.100249 0.067407 0.140132 -0.004058 0.117783 0.087634 -0.204006 -0.079093 -0.085620 -0.249394 -0.033803 0.144676 0.163231 0.071770 -0.099659 -0.095441 -0.027888 0.000394 0.100742 0.104145 0.026239 0.011352 0.074310 0.110362 0.140069 0.163159 0.072619 -0.002810 -0.032585 -0.052641 0.120252 0.091204 0.087514 0.089361 0.054344 0.104953 -0.083671 0.086454 -0.200872 -0.071041 -0.061980 0.074827 -0.076734 -0.121675 0.075410 -0.034217 0.090573 0.085674 0.060077 -0.180004 0.055222 0.236053 -0.079580 0.087961 -0.115224 -0.056820 -0.229336 -0.061558 0.011979 0.008548 0.238917 -0.005598 0.065576 0.032156 0.034257 0.085947 -0.116757 -0.001739 -0.018172 -0.005731 0.040894 0.004441 0.109851 -0.014922 -0.061818 -0.070109 0.050920 0.126075 -0.060753 -0.118435 -0.065818 -0.102390 -0.143830 -0.039490 0.047228 -0.081369 0.009229 0.104202 0.141721 0.001474 0.048751 -0.065210 0.031470 -0.196286 0.098692 -0.024151
occasional 0.091374 -0.023988 -0.033536 -0.066500 0.019456 -0.067773 0.167672 0.057071 0.000836 -0.019884 -0.015558 -0.023839 -0.084850 -0.039858 -0.037299 0.000714 0.042958 0.120988 -0.160387 0.023304 -0.028061 0.089531 -0.070586 0.119833 0.059226 0.022460 -0.124384 0.014939 -0.009930 0.081921 -0.188525 0.010921 -0.071982 -0.132465 0.041131 0.058267 0.074264 0.009219 -0.001171 -0.031831 0.005161 -0.098718 -0.013637 -0.088558 -0.029957 0.053847 0.045388 -0.166297 -0.070845 -0.086143 -0.003725 -0.060302 -0.052572 -0.141073 0.077424 -0.155014 -0.026457 0.010716 0.017016 -0.015779 0.042520 -0.086396 -0.030763 -0.055224 -0.161222 -0.093445 -0.006813 -0.077860 0.027815 -0.052499 -0.047581 -0.045895 -0.047234 -0.055336 -0.093554 -0.071985 0.070228 0.086093 0.053005 -0.017605 0.064924 -0.005621 -0.011335 -0.120060 0.105576 -0.031735 0.021751 0.000694 0.097957 -0.017173 0.033977 0.046131 0.031556 0.065902 0.037563 0.074717 -0.167952 -0.099894 0.072035 -0.123666
norway 0.121751 0.006083 0.093468 -0.057844 -0.055901 -0.055109 0.124680 -0.036895 0.084077 0.025211 0.030894 0.054723 0.086130 -0.184106 -0.106572 0.015030 -0.065497 0.071780 0.030734 -0.085751 0.093934 0.185951 -0.052954 0.129877 -0.013018 0.001971 -0.111413 -0.124906 -0.128908 0.029652 0.009776 0.108883 0.052632 -0.092172 -0.004087 0.073700 0.156465 0.139000 0.020465 -0.058659 -0.021297 0.019949 -0.017398 -0.046554 -0.058973 -0.109831 -0.102547 -0.074651 0.022370 -0.103726 0.100451 -0.034660 -0.019410 -0.046718 0.065824 -0.013970 -0.002175 0.018482 -0.045133 -0.001369 -0.075695 0.031454 -0.023073 -0.024251 0.073287 0.033266 0.055353 -0.051844 0.018487 0.129045 -0.093681 0.062980 0.039994 -0.018475 0.039481 0.140996 0.040154 -0.015311 0.065368 0.034988 -0.095510 0.060866 -0.026499 0.111824 -0.039142 -0.124110 0.055388 -0.002814 0.033112 -0.052159 0.159684 0.021450 0.134171 0.070080 0.059374 0.007914 -0.069144 -0.046341 0.006631 0.072792
baghdad -0.010505 0.142849 -0.147555 0.022646 -0.029665 0.110851 0.114793 -0.047187 0.145670 0.071178 0.064071 -0.049189 0.000957 0.098109 -0.056416 -0.049861 0.023465 -0.002847 -0.101186 0.077069 -0.138384 -0.159520 -0.066038 0.085454 0.098783 0.016982 -0.057747 0.002661 0.005253 -0.112031 0.073150 -0.112865 -0.086165 -0.141553 -0.175766 -0.151868 -0.022783 0.001312 0.106412 0.042756 0.094616 0.021295 -0.057893 -0.160791 0.040324 0.024849 0.039500 -0.078839 -0.003812 -0.051518 0.000409 0.033269 0.009604 -0.018652 -0.211145 -0.087411 0.121928 0.041306 0.017206 -0.023306 0.128054 0.041217 -0.014652 -0.058338 -0.141566 0.003157 0.007838 0.001900 0.085127 0.029704 0.112673 -0.013588 0.058595 -0.028818 -0.057546 0.085072 -0.077861 -0.082916 -0.036424 0.096507 0.033547 -0.139729 -0.005585 0.040672 0.085251 -0.044339 0.055795 -0.092127 -0.089027 -0.059969 0.013092 -0.120369 -0.026860 -0.002501 0.043566 -0.044125 0.013477 -0.035899 -0.121186 -0.080901
illinois -0.049803 0.051223 -0.094906 -0.018752 0.064862 -0.087902 -0.094373 0.112582 -0.090596 0.102655 0.024369 0.028806 -0.045214 0.046702 -0.025734 0.085306 0.026823 0.036982 -0.117857 0.009392 0.109727 -0.132852 -0.070601 -0.077367 0.107854 -0.059082 -0.063443 0.085631 0.068393 -0.035929 -0.072754 -0.165308 0.017622 -0.075583 -0.094916 -0.034607 0.041013 0.056812 0.094264 0.054944 0.051039 0.081818 -0.074528 0.030008 -0.005209 0.133216 -0.000984 -0.003892 -0.006355 -0.092298 -0.033797 0.040865 0.034647 -0.003056 -0.041926 -0.088230 0.093798 -0.084830 -0.110726 0.023080 0.038599 -0.138197 0.007337 -0.045762 -0.087316 -0.141157 -0.038611 0.102276 0.052149 -0.094801 0.075943 -0.072318 0.053184 -0.079922 -0.112341 -0.116170 0.063987 -0.179978 0.033172 0.035419 0.250210 -0.011640 -0.111301 -0.034540 0.008918 0.021335 -0.159296 0.105012 -0.074266 0.118793 0.074670 -0.053557 -0.069274 -0.186451 -0.072245 -0.071774 -0.046108 -0.037938 -0.114657 -0.140581
moving 0.215123 -0.109608 -0.113037 -0.130782 0.061885 0.011897 0.049196 -0.096430 -0.046515 -0.082197 -0.282549 0.123617 0.054094 -0.028395 0.009789 0.160717 0.190269 -0.065289 -0.161038 0.073787 -0.015232 -0.062640 0.157774 0.099335 0.052956 -0.107540 0.116983 0.093625 0.043465 0.094335 0.099815 -0.073780 -0.056969 0.078395 0.111316 0.055646 0.071773 0.052286 -0.007387 0.031289 -0.088178 0.111414 0.051856 0.066926 -0.054070 0.128178 -0.056639 0.158730 -0.026809 0.039561 -0.093537 0.036685 -0.091520 -0.249785 -0.101881 0.149872 0.052437 -0.062905 0.121986 0.043213 0.059077 -0.149812 -0.115441 -0.013160 0.142568 -0.099076 0.120455 -0.038232 0.198111 -0.095550 -0.012842 0.027282 0.014049 -0.018397 -0.003939 -0.008401 -0.010228 -0.026766 0.028433 -0.037840 0.046588 -0.011175 -0.076452 0.022601 -0.063557 -0.149429 -0.148028 0.114485 0.049429 0.031065 0.068008 -0.017011 -0.010765 0.178750 0.040160 0.052307 0.050606 -0.028175 -0.109707 0.034088
loud -0.056924 0.019035 -0.009246 0.065329 -0.101218 0.007594 0.028659 0.008856 -0.057134 0.107370 0.011188 0.044236 -0.059328 -0.121602 -0.014401 -0.031734 0.010836 -0.012626 -0.048624 -0.053306 0.034300 -0.136684 -0.026204 -0.010811 0.037093 0.020511 -0.077141 -0.056562 0.034201 -0.130255 0.085543 -0.007765 -0.074844 0.017481 -0.084445 -0.024264 0.079951 -0.022649 0.007536 -0.042691 -0.005664 0.003074 0.016529 0.072461 -0.030573 0.095323 -0.008095 0.072388 0.132415 -0.116320 -0.127524 -0.138517 -0.009111 0.052785 -0.050164 0.029573 0.014866 0.059758 -0.044486 0.011303 -0.152423 -0.091771 0.029731 0.010724 -0.075750 -0.067899 -0.070820 0.042004 0.003415 0.040286 0.026120 -0.111686 0.039605 -0.069558 -0.008282 0.072818 0.013544 0.013066 -0.076772 0.122901 -0.082944 0.020093 0.049420 0.046346 0.031851 0.150751 0.097957 0.036152 0.055440 0.080557 -0.017726 0.034463 -0.015941 -0.143120 0.128322 -0.058389 0.025436 0.045537 -0.014027 -0.151683
thai 0.182910 0.076583 -0.034186 0.084661 0.059970 0.005221 0.169884 -0.094508 -0.060590 -0.020016 0.117578 0.033118 0.060194 0.014762 -0.069127 0.021112 -0.039322 -0.145612 0.045243 0.050578 -0.012350 -0.025841 0.039797 0.223700 -0.015725 -0.033078 -0.059413 -0.058626 0.034645 -0.052593 -0.003401 -0.026551 -0.097794 -0.065126 -0.075047 -0.111480 0.091385 -0.100722 -0.056708 -0.110852 -0.080508 0.044255 -0.034132 -0.017495 0.026843 -0.005495 0.115515 0.015958 0.012557 -0.076416 -0.074895 0.011769 0.056841 -0.055801 -0.060396 -0.062883 -0.063277 -0.004874 0.082992 0.038866 0.043316 -0.129210 0.017889 0.073622 -0.077939 -0.049460 0.010237 -0.096264 0.096393 -0.004107 -0.113108 -0.006552 -0.024462 -0.247710 -0.049721 0.116040 -0.050496 0.029806 0.054110 0.047082 0.039233 0.036753 -0.088845 -0.008336 0.145821 -0.012797 -0.003314 0.036707 0.065864 -0.239520 -0.039533 0.106280 -0.080579 0.059456 -0.005327 0.003526 -0.014255 -0.065338 0.085381 0.075824
croatian -0.015751 0.138197 -0.085609 0.046742 -0.022263 -0.009195 -0.040328 0.077510 -0.047694 0.054561 -0.030388 0.172762 0.106334 0.005833 -0.086191 0.032316 0.023626 -0.129945 -0.115587 -0.011013 -0.011664 0.002929 -0.002182 -0.033502 0.011418 0.090392 0.020112 -0.022244 0.081109 0.105535 -0.007875 -0.084632 -0.083482 -0.041106 -0.036912 -0.039524 -0.009778 0.085834 0.040433 -0.006248 -0.069453 0.071813 0.053586 -0.003662 0.046938 -0.014374 0.049137 0.130185 -0.121155 0.024957 0.004920 -0.091590 -0.008587 -0.147237 0.001273 -0.015927 0.077323 0.051984 0.108012 -0.000245 -0.127566 0.014734 0.109169 0.001896 -0.107980 0.059881 0.125127 -0.038418 0.057729 0.010843 -0.052676 0.033701 -0.053471 0.014258 -0.037769 -0.009593 -0.054398 -0.077031 -0.023860 0.034863 -0.106068 -0.161146 -0.026059 0.066845 0.027471 -0.119236 0.111176 -0.060442 -0.005969 -0.080305 -0.004396 0.001752 0.032294 -0.020635 -0.053426 0.001335 -0.024055 -0.078075 0.012228 -0.007868
argentina 0.239281 -0.088682 0.039510 0.063729 -0.149525 0.067358 0.023165 -0.079539 -0.095105 0.037517 -0.105166 -0.023174 -0.056250 0.033417 -0.060322 -0.048753 0.014883 -0.008882 -0.051802 0.073663 -0.022063 -0.105176 0.083355 0.025024 -0.078992 -0.054593 0.048739 -0.085138 -0.012276 -0.060791 -0.050297 0.174502 0.038996 0.035152 0.010087 -0.028406 0.082964 0.008730 0.014894 0.231238 0.001996 -0.109770 0.080461 0.147581 0.157273 0.039600 0.014656 0.022077 0.116303 0.022458 -0.037735 0.016973 -0.025139 0.054323 0.079528 -0.153066 0.076879 -0.161398 0.049830 -0.028782 0.140189 0.011962 0.005593 -0.046495 -0.001619 0.039655 0.103466 0.005460 0.123445 -0.135463 -0.000716 0.097271 -0.084511 0.066760 0.002743 0.045442 -0.069199 0.050045 0.029763 -0.024060 0.046947 0.008596 0.152909 -0.127691 -0.070899 -0.052347 0.044851 -0.032043 -0.090566 -0.002704 -0.087095 0.020422 -0.004001 0.028988 -0.054009 0.006939 -0.129204 -0.018669 -0.121921 -0.225589
vietnam -0.218747 -0.028667 -0.098793 -0.102011 0.101648 0.171938 -0.102454 0.010601 -0.105907 -0.189795 -0.054416 -0.065016 0.005603 0.209788 0.059664 0.043123 0.151195 -0.002199 -0.068447 -0.165331 0.026891 -0.081005 -0.017827 -0.104416 0.049561 -0.088992 0.075640 0.009820 0.016300 0.109068 -0.208560 -0.274517 -0.052176 0.078491 -0.112561 -0.038920 0.008822 -0.038514 -0.028162 -0.043263 0.116445 -0.048706 0.173473 0.216969 -0.121303 0.088528 -0.094477 0.136939 0.086956 -0.085919 -0.199424 -0.036001 -0.114781 -0.009602 0.076720 0.104354 0.072259 -0.071685 0.058954 -0.127697 -0.139401 -0.145038 -0.092818 -0.146497 -0.021273 0.030363 -0.070393 0.091796 -0.061774 -0.027154 0.038773 0.026012 0.043681 -0.004229 -0.147974 -0.119981 0.113088 -0.099050 0.143025 0.080735 0.104918 0.046530 -0.109574 -0.103043 0.043668 0.138468 -0.089303 0.137767 0.160957 0.036808 -0.049882 -0.009511 -0.002248 -0.173326 -0.005372 0.006722 -0.095829 0.012555 -0.037646 -0.011721
norwegian 0.041261 0.046196 0.104867 -0.178505 0.191236 -0.038086 0.184515 -0.150481 0.024059 -0.130346 -0.021058 -0.059113 0.045282 -0.011627 -0.091192 0.055848 0.036774 0.110504 -0.001357 -0.052849 0.076835 0.059569 -0.039764 0.158006 0.061119 0.030180 -0.075822 -0.108091 0.022816 0.152256 -0.194585 -0.022924 -0.008280 0.004589 0.014205 -0.011457 0.118597 0.162150 0.031677 -0.166872 0.036923 -0.015710 0.135438 0.000698 -0.033818 -0.203519 -0.192909 -0.043098 0.017747 -0.193015 -0.042027 -0.005766 -0.075758 -0.076083 0.049185 0.070890 0.097706 -0.055684 -0.098089 -0.015256 -0.016703 0.067559 -0.172564 -0.001810 0.010177 0.054363 0.003731 -0.124134 -0.075235 0.102696 -0.119365 0.123271 0.058518 -0.054334 -0.033297 0.022609 0.054383 -0.129675 -0.017799 -0.021893 0.067672 0.052006 -0.105191 0.135603 0.050938 -0.037872 0.084449 0.137947 0.111734 -0.124078 0.181735 -0.004985 0.056156 -0.022350 0.087141 0.031677 -0.085852 0.017122 -0.059326 0.114673
professionally 0.039854 0.050919 -0.030915 0.099422 -0.002231 0.020132 0.116379 -0.042819 0.072426 -0.001331 -0.011178 0.100839 -0.039727 -0.034381 0.049021 -0.025664 -0.041924 -0.097610 -0.006825 0.093101 0.095670 -0.042857 -0.026933 0.033969 0.141793 0.073395 -0.055369 -0.027168 0.086645 -0.052272 -0.011968 -0.080792 0.009575 -0.097493 -0.019109 0.189289 -0.113912 0.027683 0.007182 0.008885 -0.157907 -0.032337 -0.116803 -0.027011 0.015709 -0.135174 0.105441 0.021724 -0.000829 -0.028679 -0.119526 0.091900 0.089479 -0.066373 0.058548 -0.014004 0.088539 -0.018654 0.056421 0.077982 -0.027622 -0.190478 0.067843 0.046931 -0.054148 0.078993 0.068233 -0.032434 0.136089 -0.022424 0.016734 -0.013518 -0.014161 -0.003633 0.100082 0.148229 0.075461 0.022980 0.093291 0.066413 0.083845 0.039791 0.095654 0.094010 0.032334 -0.032298 0.033852 0.094127 0.035858 -0.110607 0.097174 -0.049073 0.096843 0.018798 -0.007426 0.125522 -0.043065 -0.175670 0.207998 -0.057928
argentinean 0.069285 -0.121971 0.090958 0.134088 -0.099550 -0.157596 0.076127 -0.186915 -0.014544 0.124788 -0.095528 -0.098715 -0.081312 -0.122393 -0.203823 -0.059575 -0.168749 -0.064535 -0.103892 0.132463 0.108394 -0.162551 0.006422 -0.029285 -0.002441 -0.050587 -0.081906 -0.043577 0.049712 -0.127587 0.138373 0.112206 0.063986 -0.055470 0.042962 -0.110617 0.033542 0.152115 0.009251 0.130599 0.034847 0.087648 -0.075317 0.056534 0.184076 0.047856 -0.124729 -0.116691 0.075055 -0.195087 -0.015484 0.074040 0.080990 0.106276 -0.174786 -0.034666 0.146846 -0.016463 -0.073315 0.012221 0.044864 -0.054055 0.050744 -0.052904 0.035504 0.036019 0.048176 -0.042074 0.065154 -0.076691 -0.023077 0.147459 0.079585 0.108887 -0.027793 0.088198 -0.245577 0.164576 0.078305 0.068682 0.054750 0.032053 -0.069635 0.079309 0.036118 -0.136080 -0.030876 -0.128195 -0.214386 0.075330 -0.009978 -0.080880 -0.163040 0.010775 0.017166 0.220496 -0.150433 -0.063859 -0.235348 0.111971
louder -0.153284 -0.035012 0.038609 0.035220 -0.134399 -0.101967 0.119976 -0.031440 -0.104365 0.061475 -0.057908 -0.003714 -0.102065 -0.033147 0.074768 -0.131449 -0.002239 0.040202 -0.068120 0.030568 -0.023374 -0.197382 0.151457 -0.070400 0.003616 -0.046887 -0.010713 -0.029443 0.208187 0.054966 0.071904 0.013537 -0.064838 0.052447 -0.029295 -0.025867 0.007916 -0.158158 -0.002768 0.159698 -0.049665 -0.078409 0.073797 0.057820 0.067272 0.024592 -0.079310 0.161470 -0.002135 -0.020782 -0.051926 -0.136215 -0.099246 0.109172 0.014418 0.030046 -0.030810 0.057021 -0.045618 -0.108297 -0.102370 0.004278 0.183787 0.013400 -0.129009 0.042005 -0.009936 -0.038725 0.074274 0.043169 -0.029751 0.113176 0.010954 -0.027078 -0.036593 0.083988 -0.062107 0.008079 0.009293 -0.037941 0.021737 -0.111802 0.054646 -0.064572 0.161937 0.144007 0.178824 0.006593 0.166549 0.117354 -0.143653 0.100419 -0.100753 -0.288374 0.075353 -0.155634 0.078554 -0.016022 -0.111225 -0.232956
chicago 0.016423 0.200108 -0.049651 0.013101 -0.069547 -0.023466 0.021494 0.117924 0.052568 0.073188 0.161885 -0.005904 -0.053615 0.039116 -0.038905 0.111905 -0.065757 0.114137 -0.051758 -0.108929 0.021207 0.150455 0.009142 -0.019114 -0.097361 0.022236 -0.116642 -0.058234 -0.064885 -0.100733 -0.136434 0.056128 0.041633 -0.140260 -0.095630 0.007630 0.061406 0.025008 0.152300 0.071385 0.055620 -0.150668 0.027539 0.113685 -0.097813 -0.010929 0.072302 0.081297 0.031037 -0.057813 0.046406 -0.142740 -0.019124 -0.046912 0.012869 -0.081850 0.006709 -0.119887 -0.032188 0.149928 -0.130461 0.115583 -0.047196 -0.092285 -0.040892 -0.157254 -0.101343 0.025699 -0.007048 -0.011001 0.000377 -0.098187 -0.026710 -0.086902 0.018643 -0.086592 -0.015322 -0.198579 0.020747 0.092473 0.084667 -0.034363 -0.015998 -0.159540 -0.044819 0.093187 -0.004969 0.113747 0.120553 -0.090916 0.034315 0.091087 0.139853 -0.141050 -0.026687 -0.309688 -0.049388 -0.038863 0.023311 -0.198537
move 0.069753 -0.123305 -0.098664 -0.189639 -0.015451 0.036503 -0.068003 -0.037449 -0.156398 -0.157169 -0.136522 0.135609 -0.016897 -0.074414 0.082887 0.122637 0.130107 -0.055699 0.001723 -0.027339 0.072795 -0.089930 -0.016288 0.036647 0.060203 0.118916 0.115086 -0.021380 -0.042310 0.128929 -0.025444 -0.029624 -0.039244 0.000382 -0.006513 0.058340 0.144594 0.100113 -0.099848 -0.071298 -0.075269 0.042655 -0.029751 0.139233 -0.033013 -0.024237 -0.108755 0.071664 -0.038690 -0.121983 -0.158616 0.059226 -0.082828 -0.090722 0.160411 -0.017527 0.061428 -0.084309 0.017782 -0.092246 -0.047570 -0.190307 -0.085571 -0.042998 0.021748 -0.042104 0.072513 -0.121543 0.147045 0.016101 0.025533 0.025883 0.104900 -0.032798 0.110036 0.046143 0.172037 -0.091750 0.057426 -0.050088 -0.022602 0.050725 0.043318 0.044647 -0.025389 -0.052054 -0.027212 0.176726 0.096025 0.044027 0.038020 0.105938 0.114276 0.008722 0.046887 -0.102428 -0.013631 0.006515 -0.011257 -0.189401
thailand 0.115427 0.081477 0.042603 0.067287 0.037545 -0.168106 0.033591 -0.065968 -0.110959 0.089993 0.065145 0.054179 0.058597 0.036158 -0.117404 -0.061970 0.022083 -0.010194 0.029733 0.038038 0.123449 0.011559 0.026325 0.027399 0.018307 0.001990 -0.043539 -0.015087 0.146992 -0.036337 -0.032672 0.041104 0.012497 -0.026761 -0.025821 -0.079197 0.166199 -0.024685 0.059884 -0.146166 -0.012333 0.095285 0.092439 0.134626 0.000384 0.093801 -0.038887 -0.015496 0.055403 -0.137276 -0.017446 -0.005572 -0.016064 -0.027762 -0.168868 -0.105989 0.038704 0.028391 0.016676 -0.061794 0.131253 -0.155005 -0.013923 -0.029690 -0.096649 -0.144107 0.129820 -0.033905 0.024326 -0.094721 -0.145483 0.034591 0.012028 -0.198986 -0.056701 -0.044857 -0.023654 0.025638 -0.008544 -0.108747 0.087750 0.094454 -0.090516 -0.051742 0.184213 -0.140725 -0.115163 0.090657 0.009241 -0.110416 0.003714 -0.012377 -0.065507 -0.035669 -0.130327 0.097870 -0.171432 -0.200450 0.024413 0.042934
ukraine 0.056007 -0.130277 -0.017689 0.013383 -0.063450 0.186666 0.124280 0.006953 0.027245 0.058462 -0.118428 0.037400 -0.059317 -0.203860 -0.085612 -0.083596 0.075995 -0.085883 -0.050405 -0.146808 -0.053058 -0.126821 -0.056417 0.015388 0.081225 -0.043357 0.026062 -0.033450 0.079533 0.149031 0.120855 -0.107313 -0.104544 0.021723 0.019959 -0.015582 0.131720 -0.043475 -0.024610 0.048194 0.013137 0.117714 -0.124409 -0.013828 -0.045218 -0.029462 0.013877 -0.119474 0.133294 0.051641 -0.155688 -0.021526 -0.097466 -0.041768 0.074109 0.089428 -0.055470 0.002138 -0.090136 -0.103923 -0.169255 0.022675 0.080926 -0.065193 0.066845 0.124649 0.030361 0.055513 0.024313 0.148921 -0.043311 0.009608 -0.030101 -0.016349 0.020696 0.172536 0.043823 0.115656 0.022034 0.088076 -0.000240 -0.003165 0.135158 0.085958 0.006407 0.004237 0.146474 -0.072274 -0.079406 0.085881 -0.066974 0.051825 0.019988 -0.001025 0.095588 0.046978 -0.019993 -0.023660 -0.016423 -0.109652
plano 0.007045 -0.023653 0.101221 0.123267 -0.153471 0.085734 0.118082 0.022294 0.042255 0.078817 -0.016299 -0.048372 0.046363 0.079119 0.006933 0.069586 0.048162 0.051963 0.099673 -0.074427 0.100485 -0.046404 -0.000791 -0.052185 0.086353 -0.027337 -0.017764 -0.076834 -0.049629 0.008364 0.070243 -0.023699 0.049799 -0.026095 0.009293 -0.112721 0.031896 0.115353 -0.001924 0.095029 -0.003320 -0.004431 0.008083 -0.080268 0.195388 0.025807 -0.145451 -0.033432 0.095979 0.110409 0.118154 -0.018226 -0.011419 0.073013 0.030139 -0.043268 0.018432 -0.065330 0.008556 -0.039003 -0.052616 0.023450 -0.066857 0.128135 0.054830 -0.035289 0.056951 0.095828 -0.004604 0.046063 0.081077 0.178036 -0.045054 -0.129824 0.038357 0.044486 -0.001014 -0.066138 -0.022966 -0.021407 -0.060129 0.035353 0.011588 -0.259970 -0.100380 -0.020546 0.002136 -0.037387 -0.087928 0.020746 -0.150455 0.045675 0.083569 -0.180803 -0.024641 -0.099986 0.078582 -0.129038 -0.062800 -0.197766
texas -0.087635 -0.091247 0.088424 0.063870 -0.254245 0.053935 0.079506 0.197114 -0.115563 0.006120 -0.061502 0.031701 -0.028493 0.102050 0.082652 0.037519 0.005382 -0.072218 0.194924 0.027951 0.189489 -0.054289 0.097367 0.023893 0.230643 0.122101 0.002497 0.027132 0.023196 0.195587 0.040031 -0.134240 0.043014 -0.121648 0.057945 0.126060 -0.064433 0.009298 -0.100228 0.027229 -0.042357 0.119029 0.014609 0.060456 0.188048 -0.221100 -0.143341 -0.111201 0.031882 0.038669 0.015966 0.098791 0.129554 0.072243 0.017310 -0.029290 0.070200 0.022328 0.130983 -0.188946 -0.037247 -0.241732 -0.001785 0.139669 0.097165 -0.055863 0.046888 0.114792 0.089690 0.027907 0.065135 0.264243 -0.021284 -0.123906 0.060228 0.114411 0.086017 0.062500 0.052389 -0.130681 -0.087602 0.054726 0.011603 -0.216897 -0.085311 0.089823 -0.071523 0.071192 0.084131 -0.012792 -0.090191 0.109334 0.124645 -0.167990 0.115504 0.085916 0.098384 -0.154876 0.119588 -0.074598
tough 0.064290 0.113096 -0.124608 0.114183 0.135504 0.163441 0.080770 -0.011755 0.064677 0.073144 0.121404 -0.045328 -0.027562 0.148909 -0.025772 0.031289 0.074645 0.003930 -0.044585 0.001884 -0.162214 -0.062610 -0.073495 0.058060 0.081759 -0.105589 0.048440 -0.028659 0.077096 -0.003556 -0.067666 -0.117949 -0.091891 -0.014685 -0.025827 -0.056424 0.019815 -0.114175 0.036639 0.075289 0.063766 -0.116295 0.048215 -0.095381 -0.099753 0.013337 0.070275 -0.014438 0.191712 0.040608 -0.048863 -0.013508 -0.011599 -0.107742 0.008545 0.031716 0.030858 0.031874 0.036017 -0.008841 0.063305 0.054748 0.052929 -0.065174 0.030392 0.058255 0.000033 0.007609 0.024016 -0.045409 -0.050833 -0.113592 -0.050622 0.098031 -0.116159 -0.001575 0.028481 -0.034350 0.029858 0.155611 0.072603 0.015544 0.037941 0.111305 0.097473 0.044244 0.153249 -0.010410 -0.069212 -0.169937 0.072682 -0.090301 -0.216880 0.014909 -0.059773 0.086028 -0.085689 -0.110441 0.073976 0.040219
flying 0.063093 0.218638 -0.103703 0.080288 -0.135524 0.410918 -0.114954 0.026757 -0.078666 -0.068506 -0.032217 0.339315 0.133614 0.068629 0.062972 -0.062577 0.031182 -0.210518 0.035364 -0.035285 0.053483 -0.057243 0.000673 0.059654 -0.004165 -0.124530 0.067601 -0.004532 -0.152350 -0.131958 0.093902 0.128713 0.097836 0.125989 -0.139691 0.013885 0.069918 -0.093915 -0.040218 -0.012265 -0.018745 -0.024110 0.045201 -0.010099 -0.105775 0.148744 0.152299 0.123208 -0.027642 0.135931 -0.095356 -0.000064 0.069193 0.073163 0.006986 -0.016432 -0.020112 -0.104306 0.074873 0.021670 -0.222008 -0.130714 0.036646 -0.000732 -0.128741 -0.091184 0.007268 0.226148 0.035826 -0.050978 0.177776 -0.015144 0.030477 -0.227512 -0.066466 0.093793 -0.020628 0.057848 0.117623 0.053980 -0.224538 -0.005675 -0.032408 -0.048891 -0.151963 -0.105177 -0.114699 0.032132 -0.017403 0.030999 -0.096912 0.119252 0.064950 0.094756 -0.079111 -0.087972 0.048283 0.089285 0.004391 -0.046324
iraq -0.114452 0.081279 -0.185981 0.044984 0.021648 0.061703 0.026381 0.020351 0.039069 0.048044 -0.012775 0.114569 -0.025631 -0.038441 -0.034531 0.029538 -0.064792 -0.022077 -0.160892 0.173154 -0.099288 -0.061379 0.052099 -0.007583 0.012150 -0.036913 0.012357 0.093510 -0.029686 0.066266 0.252674 0.109129 -0.011840 -0.056981 0.006463 0.007961 -0.061112 0.075496 0.051203 0.141552 0.074553 -0.052305 0.007712 0.017812 -0.089912 0.169336 -0.116741 0.078895 -0.033758 -0.055504 0.024456 0.054947 0.015162 -0.073339 -0.185459 0.113496 0.031150 0.075238 -0.057441 0.033183 -0.163771 0.055314 0.149329 -0.065955 0.082948 -0.008561 -0.003938 -0.057205 0.116080 -0.022902 0.073921 0.074323 0.137165 0.020567 -0.068704 0.003952 -0.154056 -0.059581 0.009489 0.109738 -0.007085 -0.111517 -0.099031 -0.007967 0.044556 0.002373 -0.052870 -0.090726 0.005419 0.044255 0.043850 -0.066884 -0.011356 -0.080648 0.106728 -0.031103 0.062402 -0.019408 -0.083092 0.030213
professional 0.029506 0.030611 0.088129 0.150343 0.024347 0.073026 0.196030 -0.051583 0.070517 0.112568 -0.001540 -0.012036 0.034982 0.020466 -0.070611 -0.189763 0.066608 0.031638 -0.104185 0.038868 0.028014 -0.122200 0.017164 0.189106 0.097223 -0.040940 -0.159061 0.034032 0.058706 0.001827 -0.009560 -0.068279 0.035597 -0.061956 -0.080085 0.044172 -0.083444 -0.100337 0.113493 0.042158 0.050862 0.035790 -0.018225 -0.049427 0.097059 -0.109586 0.080425 -0.108088 0.096669 -0.005905 -0.059166 0.025125 0.099061 0.014219 -0.064969 -0.035602 0.038744 -0.020417 -0.043867 -0.038889 0.164399 -0.066370 0.018598 0.013543 -0.083332 0.035252 -0.049041 0.168222 0.062418 -0.029196 0.004152 -0.033480 0.029663 -0.069834 -0.024523 0.137016 0.011213 0.081436 0.044811 0.069423 0.182685 -0.120462 0.020614 -0.033032 -0.014373 0.102042 -0.048795 0.022578 -0.038413 -0.070399 0.024717 -0.051986 -0.010795 -0.042194 0.042919 0.032281 0.011283 0.015918 0.070698 -0.047200
fly 0.028833 0.149003 0.079048 -0.003393 0.012946 0.174787 0.061029 -0.043311 0.024325 -0.109421 -0.073752 0.114862 0.099102 -0.015073 -0.001990 -0.075451 0.034570 0.085682 -0.003049 0.088354 -0.044865 -0.057857 0.045792 0.122125 -0.026513 -0.073918 -0.033210 0.015579 0.074871 0.026376 -0.063247 0.069160 0.149537 0.019195 -0.060190 0.048490 0.071135 -0.097225 -0.058144 0.107371 -0.033663 -0.051332 0.053964 -0.098887 -0.015751 -0.065912 0.051466 0.025577 -0.039432 0.035515 0.037025 0.019319 0.020294 0.041567 0.121013 0.068712 -0.009598 -0.116997 -0.026056 -0.032505 -0.089448 -0.048727 0.023707 -0.005819 -0.056398 0.034133 0.004921 0.071207 -0.009698 -0.010075 0.138881 -0.018000 -0.042831 -0.052113 0.041915 0.026240 0.039836 -0.033115 0.071984 -0.001130 -0.043092 0.045252 -0.071574 0.050764 0.053236 -0.136193 -0.045780 0.061481 0.034735 -0.107740 -0.040954 0.051666 0.092046 0.057971 -0.103948 -0.052065 0.004769 -0.045977 0.030877 0.048185
danish -0.105537 -0.087114 0.126840 0.069980 -0.163175 -0.024851 0.021617 0.050262 -0.009938 0.067155 -0.084816 -0.042037 -0.089484 -0.090373 0.031249 0.058036 -0.061702 0.051498 -0.092382 -0.019801 0.161056 0.060648 -0.003323 -0.065339 0.134691 -0.041132 -0.020799 -0.017607 -0.061278 0.027618 0.005928 0.050318 -0.066402 -0.018689 0.005442 0.104255 -0.015645 0.067624 0.009705 0.046250 -0.020509 -0.096906 -0.039279 0.045522 -0.045608 0.101336 -0.103000 -0.031878 0.089126 -0.122110 0.051599 0.025321 0.021112 -0.042662 0.086582 0.030747 0.024795 0.133946 -0.023444 -0.024238 -0.209296 -0.070530 0.154617 -0.041112 0.080057 0.064602 0.070924 0.040431 0.085188 -0.064115 -0.050398 0.122616 0.025831 0.124361 -0.098780 0.039746 0.024319 0.062597 0.038160 0.045867 -0.067486 0.103962 0.053196 -0.067831 -0.117845 0.046299 0.043151 -0.023824 0.070775 0.076288 0.055313 0.059147 0.022431 -0.070855 0.121658 0.167175 -0.058100 -0.124005 -0.030908 -0.057988
denmark -0.184941 0.159985 -0.055478 0.111519 -0.228861 0.064820 -0.006425 0.133029 -0.021289 0.147035 0.020254 0.058560 -0.067195 -0.015706 0.016173 -0.010349 0.003425 -0.083060 0.000382 -0.039219 0.042240 0.055644 -0.040477 0.047771 0.007371 0.038447 0.066947 -0.012024 -0.016572 -0.056610 0.039549 0.115946 -0.008728 -0.075481 -0.028604 0.163202 0.000218 -0.007733 0.029142 0.081009 -0.041808 -0.101715 -0.033756 0.042043 -0.036581 0.089177 0.012589 0.007375 0.041552 -0.029182 0.072491 0.032930 0.119920 -0.031302 0.099406 0.011104 0.062783 0.195075 0.017319 -0.078886 -0.196586 -0.180062 0.133102 -0.090826 0.034572 0.020978 0.046690 0.046159 -0.001568 0.037928 -0.104831 -0.042598 0.029910 0.102010 -0.135820 -0.041302 0.084792 0.081947 0.080067 0.093573 -0.069711 0.030929 -0.006367 0.007537 -0.018590 -0.022387 0.037544 -0.076527 0.062141 -0.054300 0.081586 -0.018731 -0.014621 -0.016381 0.011988 0.051061 -0.090597 -0.077611 0.142534 0.053565
croatia 0.054505 0.079542 0.069774 0.041352 0.000030 0.105914 0.061169 0.031138 -0.046999 0.022126 -0.063155 0.017781 0.081977 -0.065921 -0.038985 0.031917 0.008759 -0.157725 -0.022709 -0.049390 -0.014352 -0.107009 0.016674 0.058853 -0.027745 0.093789 -0.099653 -0.093686 0.020899 0.001917 0.020332 -0.050539 -0.080074 0.046447 -0.018662 -0.032635 0.034418 0.125276 0.034029 -0.041635 -0.058415 0.100717 0.047717 -0.004342 0.208951 -0.005184 0.072730 -0.034763 -0.098681 -0.006387 0.006200 -0.098803 0.082948 -0.015296 0.114486 -0.051064 0.108405 -0.019542 0.146206 0.023924 -0.109949 0.000364 -0.078307 0.127689 -0.166483 -0.045441 -0.003957 0.109938 -0.030362 0.085367 -0.001714 0.038481 -0.063539 -0.101266 0.046662 0.025011 0.037337 0.001664 -0.040708 0.036702 -0.160561 -0.046905 -0.009216 -0.071170 -0.045142 -0.076935 0.070453 -0.079806 -0.012759 -0.017386 -0.052978 0.044348 0.133457 -0.014537 0.079787 -0.107156 -0.078550 0.031228 -0.005039 -0.038281
