hanoi 0.009573 -0.017529 0.038459 0.133281 0.074147 0.099120 0.008077 -0.004423 -0.005782 -0.001246 -0.082334 0.066808 0.016901 -0.043278 0.114774 0.067599 -0.012209 0.043087 -0.116375 0.042678 -0.025532 0.039354 0.112204 0.038166 -0.013998 -0.019465 -0.004838 0.036238 0.006247 -0.032887 0.062916 0.061762 -0.025220 -0.000905 0.135653 0.117737 0.029533 0.063375 0.020424 0.065464 0.114906 0.021535 -0.032412 0.052458 -0.013518 -0.019384 0.034414 -0.012005 -0.078256 0.028399 -0.086609 0.043715 0.019640 0.078752 -0.034565 -0.068135 0.012867 0.033076 0.097212 0.001585 -0.065986 0.001204 0.084878 -0.015819 -0.008893 -0.011957 -0.047010 0.081720 -0.138586 0.040761 0.022960 0.008368 -0.034092 -0.007106 0.077507 -0.103394 0.134965 0.024104 0.100928 -0.053592 -0.116660 -0.143173 0.072241 0.001786 0.052571 -0.080995 0.039232 -0.115229 -0.028154 -0.176329 -0.046559 0.007342 -0.033507 -0.007641 0.082636 -0.024794 -0.041660 -0.116693 -0.006286 0.040965 0.038970 -0.060472 0.070346 0.054670 -0.093954 0.069021 0.076371 0.094921 -0.080153 -0.016600 0.041301 0.014619 0.009624 -0.013770 0.101714 0.010279 -0.148036 -0.020928 -0.016571 0.098276 0.042922 0.043162 -0.082748 0.031808 -0.059527 -0.143973 0.123404 0.043521 0.087950 0.006528 0.096710 0.088875 -0.034783 0.050541 -0.108315 0.042847 -0.026655 -0.079099 0.053720 -0.114889 0.086089 0.096314 0.097454 -0.107673 0.199519 0.025201 -0.025670 -0.041745 -0.012269 -0.019899 -0.055598 -0.021539 -0.078971 0.066815 -0.068921 0.066647 -0.031646 -0.047827 -0.031762 0.092822 0.026044 -0.031353 0.018046 0.104830 -0.031515 -0.051876 0.173403 0.045634 -0.088552 0.005624 0.027840 0.062423 -0.019853 -0.185898 0.052270 0.040503 0.086445 0.053358 0.053468 0.060903
tougher 0.014766 0.077628 0.123230 -0.015289 -0.005153 -0.016533 -0.047835 0.060623 0.149788 -0.114488 0.014201 0.037622 0.025989 0.007979 -0.085900 0.021545 -0.067471 -0.030361 -0.041452 0.022865 0.065036 0.019392 0.016810 0.046230 -0.043034 0.197131 0.125074 -0.081519 0.061605 -0.069007 0.027480 -0.045944 0.137368 0.058426 0.079297 0.028378 -0.061567 -0.171267 -0.124283 0.080898 -0.027826 0.013816 0.097233 -0.024226 0.019159 0.044654 0.048137 0.043701 -0.033314 0.105821 0.067641 -0.053092 0.062228 0.109395 0.049288 -0.110501 0.081387 -0.017711 0.085515 -0.003568 0.141942 -0.013776 0.096818 -0.063743 0.006942 0.103451 0.036795 -0.046600 0.017762 -0.011296 -0.003950 -0.081586 0.017797 0.050659 0.126494 -0.037884 -0.127689 0.079514 0.026638 -0.030624 -0.090367 0.034010 0.041680 -0.043907 -0.000541 -0.143812 -0.111669 0.011716 0.000899 0.051285 -0.081621 -0.056716 -0.020549 -0.135367 -0.003925 -0.032900 -0.012659 -0.013853 0.011722 0.087075 0.086847 0.088739 0.134433 0.142323 -0.016349 0.000204 0.046327 -0.044516 0.093621 -0.062932 -0.016628 0.051421 -0.000420 0.020289 0.003451 0.021342 -0.132739 -0.098932 -0.039556 0.031832 0.021533 -0.030064 0.026005 0.003483 -0.089786 0.008741 -0.035916 0.037667 0.048807 0.075289 0.058276 0.007112 -0.026396 -0.137227 0.043637 0.029560 -0.037725 0.017158 0.047439 -0.083122 -0.024303 0.007992 0.017039 -0.118590 0.031124 -0.014190 -0.056171 0.049489 0.113537 0.120788 -0.012360 -0.027905 -0.025647 0.007057 -0.004227 -0.179755 -0.013873 -0.096070 0.057117 0.150661 0.095869 0.008891 -0.039661 -0.001441 -0.005436 -0.056794 -0.055914 0.060762 0.050290 -0.000165 -0.023473 0.029341 0.009898 -0.046287 -0.018014 0.027882 0.124372 0.032289 0.048984 0.024454
occasionally 0.051787 -0.038986 0.092908 -0.023048 -0.074142 -0.091131 -0.011415 0.084913 0.064770 -0.100029 0.100661 0.100499 -0.090660 -0.023709 -0.027470 0.007194 -0.054583 -0.156112 -0.122750 0.057666 -0.011430 -0.024211 -0.023863 0.061763 -0.051060 0.012522 0.036255 0.050460 0.049652 -0.047428 0.058533 -0.021638 -0.032227 0.007570 -0.047419 0.007660 -0.060724 0.009938 -0.025749 0.006542 -0.010285 0.063590 0.155221 -0.063100 -0.038186 0.094660 0.036511 0.037742 -0.054164 0.053190 -0.008036 0.027230 -0.034626 -0.048689 -0.053765 -0.061946 -0.113863 -0.039110 -0.056510 0.056317 -0.009798 -0.010162 0.025399 -0.013510 0.070334 -0.116355 -0.044632 -0.076053 -0.099081 0.067204 -0.021259 0.090894 0.108617 -0.061018 -0.024788 -0.015927 0.027204 0.034858 -0.056749 -0.055564 0.010091 -0.017712 0.014023 -0.086088 0.005220 0.037324 0.003078 -0.040944 -0.077727 0.044633 -0.024281 0.074658 0.016173 -0.054562 0.028794 0.017724 0.051164 -0.107240 -0.032385 -0.000796 0.057377 -0.019802 -0.065334 0.053577 -0.041371 0.026824 0.087022 0.103873 -0.029914 0.034764 -0.066503 -0.118534 0.110890 -0.021195 0.045395 -0.132202 -0.040373 0.073467 0.040691 -0.059560 -0.131209 -0.030739 -0.184357 0.031408 -0.030927 -0.121932 -0.008649 -0.098990 0.006247 -0.019806 -0.038790 -0.155433 0.126810 0.034339 0.017622 0.140717 -0.062113 0.002389 0.039008 -0.004343 0.035758 -0.077597 0.023037 0.100000 0.050825 -0.015437 -0.022610 0.016351 0.078059 -0.016538 -0.039709 -0.053943 -0.015714 -0.029812 -0.065043 0.076891 -0.172144 0.154622 -0.153452 -0.004512 0.022511 0.109734 0.101562 0.002263 -0.119695 0.029720 0.071670 -0.017706 -0.001448 -0.021764 0.201217 -0.000942 -0.011644 -0.075317 -0.133734 0.138215 0.126220 0.011041 -0.079632 -0.079238
ukrainian -0.086158 -0.040701 -0.020478 0.106533 -0.036258 -0.020895 0.030375 0.150817 -0.026876 -0.022646 0.047450 -0.022761 0.047065 0.092572 -0.052235 0.102902 0.069020 0.009317 0.003856 0.020218 0.106696 -0.082888 0.072366 -0.083121 -0.060110 -0.035595 -0.033401 -0.081512 0.089227 0.033455 -0.075816 0.011087 -0.046695 -0.052303 0.045941 -0.019581 0.045426 0.019412 0.008809 0.044231 0.136395 0.091621 -0.137032 -0.049854 -0.117312 -0.020715 0.061413 -0.096162 0.005611 -0.062032 0.100886 0.107468 -0.003448 0.021268 0.061893 0.069732 -0.210231 0.064182 -0.098046 0.133472 -0.096397 -0.135688 -0.042781 0.027863 -0.074183 0.021981 0.069997 -0.054093 -0.069674 0.023319 -0.079371 -0.039621 -0.014810 0.035559 0.039715 0.120626 0.014620 -0.040062 -0.021538 0.019941 -0.083795 0.011748 -0.024129 0.027704 0.011509 0.010444 0.014746 -0.138471 0.013408 -0.030527 0.121871 -0.034770 -0.019907 -0.017415 0.001558 0.021296 0.059247 -0.055501 0.073922 0.054791 -0.051162 -0.097090 0.125501 0.103766 0.027004 0.076578 0.029684 -0.067781 0.000046 0.104878 0.038295 0.023900 -0.136535 0.051126 -0.029612 -0.010163 0.030595 -0.025283 -0.118731 -0.019151 -0.025761 -0.033758 -0.018568 0.006034 0.095962 0.092903 0.061554 -0.085195 -0.037553 -0.072349 0.125558 -0.177412 0.066517 -0.106055 -0.029469 0.064668 0.032607 -0.031264 -0.013254 0.049531 -0.027623 -0.038117 -0.024212 0.000164 0.083498 -0.023868 0.123073 0.048169 -0.113268 -0.124959 0.039633 -0.002924 0.073300 -0.116333 -0.033944 0.076757 -0.101019 -0.015345 -0.016688 -0.059086 -0.010370 0.007118 -0.068790 0.062616 0.053333 0.137943 -0.060422 0.182454 -0.044773 -0.007356 -0.139432 0.008632 0.045952 0.011540 -0.109328 -0.083047 -0.017286 -0.018520 -0.112305 0.034240
occasional 0.000083 -0.021666 0.011904 -0.008538 -0.098450 -0.034523 -0.048121 0.087746 -0.015405 -0.059915 0.223708 0.086603 -0.009807 0.104889 0.003392 0.040255 0.023267 -0.033316 0.014338 -0.038245 -0.105018 0.040603 -0.103574 0.067455 0.000556 0.027635 0.045341 0.002027 0.071648 0.053462 0.041675 -0.077517 -0.072027 -0.034349 -0.067483 0.026157 -0.026514 -0.005842 -0.028583 -0.021696 0.030577 0.053790 0.119962 -0.188768 -0.105458 0.005529 -0.074269 0.066145 -0.045315 0.077053 0.012208 -0.027694 -0.116558 -0.099301 -0.114864 -0.041082 -0.087326 -0.063255 0.002242 0.119447 0.086823 0.011380 0.042778 -0.013451 -0.052649 -0.093266 -0.039437 -0.090782 -0.125771 -0.011344 0.029386 0.053087 0.106441 0.026789 0.007537 -0.086745 -0.049884 -0.039710 -0.021584 -0.049623 -0.017599 0.001094 0.028128 -0.062835 0.061794 0.037832 -0.099800 -0.118178 0.009003 -0.014316 -0.061193 0.048368 -0.058035 -0.056634 -0.078526 0.024449 0.036965 -0.019254 -0.024064 0.063260 0.035286 0.062940 0.096701 0.140491 -0.043873 0.028077 -0.068706 0.089687 -0.012081 0.016430 -0.092405 -0.043910 -0.051802 -0.007900 0.051075 -0.108406 -0.010249 0.033013 -0.035927 -0.024606 -0.131197 -0.045391 -0.035637 0.088341 0.053034 -0.004582 -0.004353 -0.134411 0.039543 -0.116097 -0.032281 -0.014882 0.089554 0.015260 0.065857 0.054155 0.019502 -0.030442 0.012932 -0.051665 -0.082468 -0.016044 -0.087556 0.104387 -0.001908 -0.074069 -0.005117 -0.023411 0.026333 0.047177 -0.071289 0.011965 0.060648 -0.020459 -0.039744 -0.012788 -0.191618 0.189699 -0.127091 0.013805 0.091529 0.058288 -0.006470 0.117263 -0.134099 0.054282 0.047886 0.017262 -0.001722 -0.022172 0.038186 0.017216 -0.143355 0.097762 -0.103223 0.151443 -0.039604 0.012270 -0.056069 0.044882
norway -0.085263 -0.034260 -0.093109 0.010419 0.053130 -0.019446 -0.024395 0.049883 -0.006932 -0.079242 0.147078 0.100422 0.012287 0.039634 0.062416 0.016130 0.060662 -0.087701 0.047732 -0.118465 -0.071994 0.070123 0.072083 -0.028477 -0.054841 0.049520 0.017081 -0.026615 0.028848 -0.094157 -0.089408 -0.038069 -0.112948 0.046487 -0.007823 0.015058 -0.040478 0.010768 -0.032529 -0.053100 0.085813 -0.109444 -0.043576 -0.068615 -0.105334 -0.063688 -0.107372 0.023110 0.101105 0.030837 0.130828 -0.072177 0.010361 0.036432 0.059554 -0.058653 0.143633 0.006342 0.036393 0.090660 0.015429 -0.036134 0.068303 -0.009798 -0.000519 0.029767 0.075205 0.072521 0.025099 0.070216 0.061983 0.025166 -0.039430 0.078042 0.071893 0.058797 0.021003 -0.131158 0.010383 -0.140805 -0.057930 0.090908 0.072843 -0.094803 -0.010161 0.087446 0.007538 -0.030857 0.085773 -0.026075 0.005601 0.055389 -0.017554 0.079845 0.045198 -0.005275 -0.026315 -0.005777 0.011783 0.008580 0.065296 0.066027 -0.005666 0.061480 0.060960 0.047547 -0.064362 0.073602 -0.070282 -0.070404 -0.081837 -0.024810 -0.035507 -0.020440 -0.019878 -0.015627 0.008570 -0.103414 0.039922 0.047511 0.052853 -0.018242 -0.055489 0.035887 0.088339 0.011341 0.116626 -0.002682 0.019542 -0.037928 -0.057809 0.131747 0.073893 -0.051126 0.053318 -0.007380 0.079587 -0.012002 0.126093 0.048656 -0.153916 -0.028182 0.010806 0.040249 0.171184 -0.049455 0.190471 0.042815 -0.087755 -0.036098 0.014193 0.022052 0.093746 0.030236 0.076274 -0.010759 -0.005796 -0.028507 0.001668 -0.002578 -0.033845 -0.017557 -0.024440 -0.080360 -0.115231 -0.046661 -0.180902 -0.029173 0.016300 0.021717 -0.145994 0.072236 0.027877 -0.096828 -0.091652 0.131779 -0.078803 0.051321 -0.025232 -0.065806
baghdad -0.001672 0.034928 0.129700 -0.072005 0.132567 -0.027036 0.031687 0.006321 -0.026058 -0.071824 -0.024932 -0.018008 0.038869 0.072965 -0.007674 0.004293 0.056319 0.025103 -0.020340 -0.028164 0.015018 0.072702 -0.040594 0.003124 0.000581 0.015683 -0.067866 -0.076686 -0.084731 0.115137 0.003722 0.088120 -0.043098 0.094216 -0.049897 0.097580 0.003050 0.006446 -0.029692 0.063810 -0.009025 0.040618 0.017105 0.038548 0.113997 0.075718 0.057467 -0.121431 -0.085474 0.024477 -0.006523 0.008067 0.087222 -0.141021 -0.081987 -0.025414 0.159842 -0.058886 -0.051567 0.042948 0.205405 -0.044010 -0.095120 0.036520 0.021992 -0.072711 0.068129 0.046893 -0.012840 -0.035296 -0.007876 0.001037 -0.091279 0.018686 0.150633 -0.093261 -0.087846 0.149564 0.025154 0.069799 -0.027851 0.225935 0.020024 -0.047661 -0.050433 0.038628 0.079937 0.013871 0.010298 0.156363 0.001819 -0.072068 0.192488 -0.005434 -0.059394 0.016586 0.059462 0.045885 0.002044 0.063238 -0.015775 -0.030748 0.065809 0.084723 -0.035803 0.126685 0.103763 0.118090 -0.065682 -0.018836 -0.021947 -0.002873 -0.049116 -0.083955 0.030144 0.017686 0.038989 0.028732 0.034904 0.012212 -0.026216 0.101005 0.051058 0.035056 -0.056008 0.025420 0.042764 0.051483 0.071322 0.092398 -0.080702 0.013153 -0.000183 -0.044151 -0.011866 0.062261 -0.035453 0.071795 0.072914 -0.043410 -0.028274 -0.018217 -0.062085 -0.088366 -0.016648 0.006512 -0.130368 0.055067 0.033152 0.099551 -0.077479 0.014259 -0.011392 -0.101362 -0.123855 -0.004405 -0.056104 -0.094369 -0.069887 0.045460 -0.081024 0.065894 -0.003963 0.024171 -0.085882 0.079090 -0.026403 0.042896 0.121454 0.105472 -0.066061 0.106509 0.194189 0.064470 0.037648 0.065185 0.082035 -0.044580 0.031765 0.006190
illinois -0.008541 0.019344 0.019326 0.011699 -0.042983 0.024517 0.000123 -0.001358 0.024250 -0.016374 0.018189 0.023423 -0.012229 0.057699 -0.050071 -0.063470 -0.017700 -0.066701 -0.166419 0.064895 0.018684 0.069982 0.099573 0.078127 0.001905 0.060717 -0.059182 0.007083 0.000280 0.057539 -0.029620 -0.071222 0.080480 0.050882 0.004713 -0.050825 -0.010782 -0.136676 -0.196971 0.026024 0.032475 0.015927 -0.047883 -0.003862 -0.081354 -0.014178 0.055720 0.007974 0.059989 -0.070796 -0.003578 -0.050917 -0.012746 0.018051 -0.146947 -0.084907 -0.020349 0.078091 -0.098369 -0.057018 -0.045543 -0.001634 0.012803 -0.013968 0.078466 -0.054076 -0.086885 0.034822 0.049029 -0.014886 -0.030760 -0.067806 0.049974 -0.028001 -0.072182 -0.087261 -0.041905 -0.009295 0.002353 -0.002114 0.107930 0.046130 0.017607 -0.008476 -0.026064 0.029338 0.178715 -0.034248 -0.034447 0.122364 -0.031944 0.075078 0.000784 -0.109619 -0.072322 0.106837 0.075108 0.015459 -0.035076 -0.136110 0.005082 -0.056400 0.014457 0.079257 -0.087709 0.049857 0.086888 0.021819 -0.090224 -0.083841 0.046760 -0.067680 -0.002457 -0.038503 0.101061 -0.080499 -0.012871 -0.032176 -0.019328 -0.036675 -0.167405 0.031532 0.030796 0.033982 0.083853 -0.031769 -0.101714 0.074616 0.046665 0.090397 -0.045216 0.058476 -0.009121 0.051387 -0.102157 0.134861 0.011956 0.062953 0.071424 -0.057526 0.120088 -0.139720 -0.043675 -0.091733 0.008142 -0.106611 0.069021 -0.042751 0.108798 -0.070071 -0.060371 -0.113700 0.029076 0.019174 -0.011940 0.007460 -0.033350 -0.011791 -0.061254 -0.092377 -0.113740 0.056410 0.067513 -0.003096 0.086267 0.012260 0.049277 0.130310 0.067766 0.052918 0.046928 0.031466 -0.122409 0.094352 0.168948 -0.032490 0.112429 -0.036136 -0.016882 0.032052
moving 0.088912 -0.030865 -0.010135 0.060352 -0.080864 0.044005 0.015861 -0.024807 -0.009432 -0.038235 -0.089671 -0.033050 0.094907 0.126304 -0.089257 -0.030381 -0.041512 0.136214 0.080102 0.133115 -0.033701 -0.079952 -0.059034 0.036187 0.040910 0.028030 -0.001976 0.023126 0.071051 0.063186 -0.069037 0.027361 -0.016193 -0.047265 -0.027367 -0.016746 0.066902 0.184103 0.066099 0.074793 -0.024531 0.143413 0.099311 0.086446 -0.039076 0.039524 -0.153503 -0.059832 -0.046927 0.059918 0.001790 -0.073845 -0.004832 0.103433 0.042383 -0.025530 -0.034800 0.037748 -0.004264 -0.053665 0.093583 -0.000438 -0.261943 0.019564 -0.175601 -0.052995 -0.141996 -0.125301 -0.114814 -0.025521 0.019269 0.107544 0.019516 -0.055662 -0.006881 0.084784 0.039982 -0.020558 0.007993 -0.051140 -0.036185 -0.115404 -0.021679 -0.044679 -0.029809 0.047767 -0.016537 -0.130274 0.089725 0.074313 0.084148 0.052726 0.003491 -0.049133 -0.079983 -0.065251 -0.016940 0.042852 0.096607 0.042329 -0.073037 -0.005183 0.072899 0.035987 -0.102847 -0.052247 -0.080957 0.123859 -0.002382 -0.058048 -0.115103 -0.036655 -0.152386 -0.030189 0.014301 -0.017055 -0.140203 -0.029663 -0.153092 0.058726 0.049389 0.011636 -0.168581 -0.082478 0.014506 0.002459 0.068260 -0.044439 0.040300 0.083122 0.040794 0.001569 0.015309 0.006091 0.039328 -0.042409 0.088461 0.008616 -0.044927 -0.008979 0.132305 -0.086685 -0.063924 -0.085087 -0.018681 0.042547 0.018365 -0.006834 -0.068117 0.015238 0.061729 0.009613 -0.007589 -0.146861 -0.052194 -0.236451 -0.054314 -0.090720 0.061742 0.029237 -0.044861 0.071682 -0.086748 -0.047674 0.047120 -0.118528 -0.018128 0.102817 -0.015973 0.036252 0.063129 -0.019031 0.142219 0.046748 -0.023470 -0.002928 -0.053338 -0.079006 0.023022 -0.058460
loud 0.004204 -0.028558 0.066857 0.118637 0.090561 0.033380 0.062893 0.064858 -0.098648 0.175196 0.107319 0.067291 0.043128 0.009019 0.061342 0.000465 0.151578 -0.012564 -0.102022 0.065390 -0.082332 0.091740 -0.048585 0.024127 0.002263 0.027125 -0.093843 -0.038613 0.050467 0.154755 -0.040682 -0.036181 0.033042 -0.014308 -0.096850 -0.040787 -0.036525 -0.038493 0.069329 0.082894 -0.038094 -0.060317 -0.072245 -0.059687 0.002386 0.061448 -0.018050 -0.116009 -0.024307 0.092657 -0.091447 0.012136 0.030606 -0.047193 0.010018 0.050655 0.092485 0.000831 0.015945 0.035684 0.005467 0.094172 -0.035504 0.050126 0.000165 -0.067093 -0.097822 -0.004404 -0.031737 0.086868 0.084553 0.004096 -0.060671 0.097823 0.044107 0.020746 -0.166157 0.087374 0.083802 0.015772 0.011222 -0.059421 -0.025738 0.098825 0.157785 0.060960 -0.004635 0.062782 -0.069694 -0.095067 -0.063799 -0.021674 0.021554 0.048145 -0.006195 -0.017546 0.005887 -0.052439 0.056977 0.036272 -0.050171 -0.031504 0.077528 0.066037 0.098152 0.041960 0.007098 0.078211 -0.035431 0.086162 -0.050206 -0.012024 0.001651 -0.100791 -0.014450 0.139975 -0.056544 -0.071028 0.022355 0.044674 -0.010692 0.064775 -0.094698 -0.020134 -0.028898 -0.081571 -0.028922 0.082014 0.142209 0.212234 -0.006116 0.078197 -0.042542 -0.023589 0.010725 0.012537 -0.022590 0.059432 0.071310 -0.031487 0.029292 -0.073931 0.051324 0.029291 0.009235 0.041869 -0.070566 0.021828 0.002947 -0.012639 -0.112837 0.005418 0.005360 -0.010893 -0.070165 0.011429 -0.054895 -0.029535 -0.084248 0.129279 0.083107 -0.013794 0.047385 0.035278 -0.054035 0.097006 0.068723 0.034460 0.062845 -0.066109 -0.024418 0.093181 0.019211 -0.004399 0.095311 0.050472 0.101355 0.018973 0.037070 0.132778
thai -0.079465 0.052634 0.087877 -0.053362 -0.099518 -0.037684 -0.083944 0.138408 0.016192 0.041013 0.010797 -0.015182 -0.044700 -0.077808 -0.061544 0.004055 -0.092886 0.077960 -0.114726 -0.012735 -0.003477 0.147737 0.065370 0.016148 0.081280 -0.038871 0.022518 0.043461 0.007788 0.050430 -0.024719 0.021265 -0.008671 -0.054509 -0.112223 -0.128424 0.052971 0.010121 0.026315 0.002532 0.075601 -0.027721 0.089954 -0.080344 0.022064 0.164336 -0.069415 0.080920 -0.103664 0.031194 0.077819 0.070012 -0.090860 0.123598 -0.096270 0.004747 0.050082 0.109958 -0.053793 0.019816 -0.025329 0.036954 -0.046279 -0.009323 0.007253 0.026102 -0.099411 0.032591 0.002926 0.078076 -0.040850 0.060751 -0.012797 -0.031610 0.013507 0.018710 0.040910 -0.056521 -0.012718 -0.026158 0.102979 -0.022902 -0.032012 -0.071960 0.009925 -0.092645 -0.017529 -0.033201 -0.016868 -0.046740 0.031444 0.001534 0.021437 -0.123013 -0.109905 0.043449 -0.026797 0.046719 -0.015073 -0.019636 -0.048544 0.011306 0.042644 0.020935 -0.027960 -0.062220 0.075285 0.106299 0.118863 -0.112996 0.000230 -0.055007 0.012257 -0.035514 0.101312 -0.049718 -0.071946 0.080791 -0.166833 -0.062488 0.052170 -0.042505 -0.055794 0.001114 0.058572 -0.083516 -0.042901 0.050963 -0.056079 -0.020231 -0.014194 -0.013119 0.091784 0.015806 -0.041480 0.011549 0.055034 0.093061 0.180974 -0.030646 -0.109976 -0.024071 -0.008995 0.089336 -0.050474 -0.127153 0.006135 -0.043285 -0.074128 0.074344 -0.039044 0.078280 0.057597 0.013795 -0.001059 -0.054937 -0.064850 -0.085376 -0.153602 -0.026333 -0.035639 0.093491 0.085059 -0.059297 0.046252 -0.033955 0.079731 0.047196 0.005493 0.036997 0.025554 -0.075038 0.041133 -0.051914 0.022861 -0.050589 0.010306 0.055763 0.076748 -0.098455
croatian 0.022749 -0.139237 -0.041954 0.044183 0.116033 -0.021359 -0.048241 0.086284 0.143578 0.034729 0.044744 -0.091657 0.096346 -0.001157 -0.160220 -0.063725 -0.081388 -0.037176 -0.082491 0.073413 -0.026743 -0.032677 -0.028195 0.097392 0.052063 0.072720 -0.152668 -0.073401 -0.027108 -0.026966 -0.099937 -0.113112 -0.052627 0.093669 0.133745 -0.005112 -0.116946 0.019234 0.066525 0.036526 0.022899 0.077474 0.035543 -0.106400 -0.007798 -0.073654 -0.074076 -0.055987 0.003603 -0.003479 0.081954 0.003634 -0.073707 -0.051312 -0.179806 -0.035539 -0.008153 0.029400 0.020258 -0.068983 -0.013158 0.232988 -0.024814 0.009484 0.015354 -0.009950 -0.054282 0.042507 -0.037115 0.099689 0.037509 -0.031259 0.017713 -0.045668 0.062054 0.002237 0.056921 -0.138632 -0.000772 0.165776 0.097088 -0.050685 0.054227 -0.048263 -0.088772 0.092884 -0.148334 -0.069136 0.024247 -0.031321 0.046958 0.066274 0.033339 -0.000790 -0.177197 0.015016 -0.033445 0.139049 0.101242 -0.027535 -0.051415 -0.114370 0.030139 0.035828 -0.032016 -0.024846 0.174997 0.031593 0.050773 0.055876 0.002086 0.005771 0.016250 -0.072972 0.135098 -0.073217 0.070971 -0.034090 0.098132 -0.000843 0.117904 0.014063 0.017518 -0.048455 0.052786 -0.062452 -0.029861 -0.076699 -0.022432 -0.033961 -0.003113 0.149286 0.035657 -0.125186 0.026574 0.006157 0.040478 0.016820 -0.047665 0.046331 0.020234 0.114683 0.001844 -0.089997 -0.025036 -0.055127 0.023394 0.021925 -0.014825 -0.020717 -0.030368 -0.039437 0.011410 0.010030 0.047680 -0.044467 -0.015706 -0.161760 -0.001394 0.075312 -0.013488 0.143896 -0.071254 -0.055294 0.032330 -0.012379 0.092228 -0.004274 -0.043063 -0.057516 -0.034684 0.094263 -0.067761 -0.048094 0.004917 0.010214 -0.010742 0.093607 0.004106 -0.023024
argentina 0.055404 0.011137 -0.006574 -0.049389 0.099121 -0.031130 -0.038896 -0.069872 0.002102 -0.033613 0.021748 -0.087817 -0.062027 -0.091292 -0.087563 -0.014509 -0.088549 -0.030639 -0.057288 0.019912 -0.029170 0.017273 0.053188 0.136937 0.080776 -0.049507 0.028059 -0.021500 0.034700 0.108757 0.023193 -0.093175 -0.079388 0.139951 -0.068111 0.039349 -0.028455 0.096733 0.048849 -0.074415 0.056465 -0.085928 0.029252 -0.050318 0.041717 -0.069604 -0.092789 0.023933 -0.081962 0.036206 0.053487 0.080056 -0.086030 0.012458 -0.076586 -0.009694 -0.179932 -0.073819 0.031423 0.047408 -0.031749 -0.051380 0.014535 -0.027080 -0.078684 0.049432 -0.007037 0.059293 0.074997 -0.001858 -0.035413 0.039000 0.018487 -0.075935 0.024280 -0.084280 -0.064578 -0.007361 -0.044974 0.028160 -0.072862 -0.121785 0.062548 0.039220 0.001504 0.000235 0.021829 0.023775 -0.010425 -0.061984 0.090131 -0.071507 0.048767 -0.040251 -0.043303 -0.071669 0.116503 0.103367 -0.112641 0.008132 -0.048708 0.025700 0.005449 -0.003236 -0.051608 0.042474 -0.036504 -0.042585 0.002656 -0.004328 0.065177 -0.139254 0.014888 -0.108044 -0.032713 -0.077221 -0.141230 -0.081389 0.056947 0.019150 0.216357 0.178195 -0.047188 -0.033746 0.040205 -0.043646 0.054667 0.070988 0.088923 0.003146 -0.039859 0.106411 0.041561 -0.122861 0.040370 -0.085173 -0.072948 -0.013692 0.034567 0.012839 0.004105 -0.040508 0.033710 -0.033097 0.014014 -0.015160 0.058736 0.009598 0.023090 0.173311 -0.019749 0.008148 0.099603 -0.009961 -0.005889 -0.028521 -0.073043 0.041489 0.064568 -0.067978 0.024488 -0.043174 -0.102467 0.063314 0.187397 0.023522 -0.136388 0.050878 0.039106 -0.041516 -0.004407 -0.016309 0.154977 0.009030 0.041360 0.029190 0.039627 0.002687 0.067666 -0.110702
vietnam 0.019432 -0.042114 -0.005748 0.094290 0.075394 0.029230 -0.056456 -0.006599 -0.008821 0.028038 -0.091761 -0.081427 0.059927 -0.015589 0.066646 0.111390 -0.050045 -0.040459 -0.113500 0.051970 0.042761 -0.005506 0.057078 0.083931 -0.104790 0.021153 -0.106575 0.015932 0.109183 0.024846 0.041092 0.104399 -0.119379 0.138140 0.009229 0.063794 0.175154 0.141950 -0.010845 0.113674 0.060834 0.040830 -0.092925 0.121374 -0.115512 0.129890 0.012271 -0.047194 -0.005246 0.039205 -0.057881 -0.040678 0.058658 0.038063 0.004624 -0.012887 0.010644 0.035951 0.034001 0.009110 0.006865 -0.057263 0.049786 0.046669 -0.017469 -0.078660 -0.002603 0.055469 -0.150821 0.062850 0.175666 -0.036999 0.057499 -0.077025 -0.010873 -0.054790 -0.015086 0.085144 0.056099 -0.037294 -0.067113 -0.061687 0.152043 0.026150 -0.001504 -0.071482 0.050686 -0.101386 0.025701 -0.026830 -0.051971 0.025287 -0.065071 -0.078183 0.138440 -0.038236 -0.011197 -0.116204 -0.052783 0.162105 0.012093 -0.187835 0.124180 -0.046939 -0.044986 0.078172 0.005773 0.059699 0.029426 -0.034164 0.055216 -0.005505 0.030963 -0.085894 0.008005 -0.012290 -0.053405 0.038300 0.078252 0.067346 -0.053289 0.107322 -0.182351 -0.002586 -0.046468 -0.171915 0.064942 0.053490 0.083322 0.010830 0.132373 0.023472 -0.047196 0.176473 -0.022275 0.005797 -0.071211 -0.025661 0.002279 -0.106186 0.079594 0.003391 0.110938 -0.014754 0.102969 0.048733 0.027326 0.006127 0.038223 0.038394 0.033516 -0.133881 -0.019225 -0.022486 0.096822 0.039447 0.162255 -0.070947 0.026451 -0.007556 0.067162 -0.050966 0.092862 -0.005371 -0.053932 -0.024474 0.039957 -0.034774 -0.096472 0.102297 0.058865 0.013350 -0.092722 -0.061569 0.111276 0.158668 0.059979 0.026122 -0.037936 0.089577
norwegian -0.035917 -0.005711 -0.068714 0.045669 0.051260 0.025113 0.006379 0.086079 0.054387 -0.154043 0.060301 0.010465 -0.101277 0.073777 0.029562 0.036424 0.045355 0.069825 0.029302 -0.144535 0.025522 0.052253 0.071536 -0.006765 -0.109402 0.028880 0.105339 -0.068291 -0.012445 -0.061102 -0.058780 0.050468 -0.029387 -0.002900 0.006757 0.079895 0.063434 0.025663 -0.076346 -0.148586 0.064942 0.036267 -0.059598 0.013402 -0.144898 -0.052413 -0.048206 0.018430 0.129437 -0.009195 0.124608 0.028401 -0.038503 0.168966 0.045378 0.002406 0.117757 -0.039955 -0.008942 0.023210 0.007764 -0.060593 -0.037629 -0.061413 -0.084093 0.062967 0.049762 -0.042987 0.062923 0.092579 0.066579 -0.055499 -0.001214 0.071938 -0.019184 0.093911 0.088395 -0.035107 0.087244 -0.147925 -0.102876 0.031599 0.099081 -0.103716 -0.014435 0.018065 0.107366 -0.108966 0.106119 -0.045800 -0.144134 0.090625 0.017656 -0.042808 -0.040350 -0.012795 -0.107055 -0.077781 0.009935 0.039360 0.047331 -0.032309 0.029895 0.040293 0.066779 0.004631 -0.016224 0.085640 -0.027898 -0.056927 -0.105377 0.059963 -0.076924 0.076115 -0.045449 0.003965 0.003800 -0.037464 -0.068544 0.011425 0.011296 -0.028742 -0.047953 -0.000692 -0.010286 -0.035132 0.017645 0.039822 0.077312 -0.041320 0.007622 0.105613 0.024706 -0.098969 0.010920 0.028990 0.031687 -0.079896 0.173964 0.129573 -0.193277 -0.016668 -0.069637 -0.042111 0.216024 -0.052505 0.173490 -0.002331 -0.080024 -0.086108 -0.024964 0.056761 0.120809 0.058386 0.131283 -0.096905 -0.036366 -0.066653 -0.009776 0.037892 -0.021807 -0.027495 -0.075623 -0.064194 -0.173581 -0.132639 -0.035061 -0.076880 -0.040933 0.102234 -0.025263 0.038395 0.022124 -0.084950 -0.158930 0.124579 -0.117751 0.085636 0.011969 -0.017390
professionally 0.014101 -0.024622 0.045998 0.068488 -0.079825 -0.032060 0.016071 0.089875 0.033261 -0.043863 0.014896 0.023002 0.021606 0.039149 -0.106642 0.034379 -0.032075 -0.012216 0.019566 0.002531 0.038353 -0.098431 -0.066182 -0.074957 0.005111 -0.141117 0.085745 0.000621 -0.031977 0.078716 0.067117 0.005585 -0.020911 0.091745 -0.060384 0.030544 -0.119108 -0.135052 0.030079 -0.133459 0.012743 -0.100302 0.058738 -0.091210 -0.020364 -0.042144 0.018778 -0.011071 0.055507 0.063300 -0.101073 -0.058773 -0.049726 -0.042778 -0.095086 0.091580 0.173288 0.055679 -0.092588 0.116703 0.024908 -0.114267 0.053266 -0.039843 0.010786 -0.093030 -0.047361 0.149093 -0.031392 0.029000 0.007196 -0.002667 0.088589 0.166032 0.105338 -0.049029 0.013644 -0.110016 0.052261 -0.082444 -0.021040 0.020205 0.039536 -0.070484 0.032410 0.029928 0.014268 0.013511 -0.086416 0.022084 -0.061582 -0.004517 0.055710 0.000348 -0.110835 -0.032818 -0.108311 0.046682 0.009799 -0.025363 0.030958 -0.022560 0.159073 0.036390 0.039517 -0.064808 0.090130 0.049588 -0.075297 0.002819 0.027486 -0.021930 -0.108654 -0.075950 -0.015411 -0.110424 0.051483 -0.098864 -0.119822 -0.063893 -0.100096 0.130170 0.056943 -0.049303 -0.004955 -0.042209 0.021435 -0.077177 0.006838 -0.028492 -0.050679 0.025563 -0.025081 0.002325 -0.080098 -0.007636 -0.060816 -0.032138 0.144741 -0.042558 -0.052452 -0.058361 -0.075924 0.135743 -0.008013 -0.029905 0.054088 -0.114810 0.065071 0.063531 -0.073862 -0.086747 -0.000150 0.053291 -0.000360 0.061368 -0.045407 -0.069979 -0.087558 0.038044 0.110019 -0.009441 -0.069095 0.103405 0.070557 0.092457 -0.013796 0.006695 0.019691 -0.007244 -0.034750 0.050266 -0.060065 0.012331 -0.078535 -0.002429 -0.029339 0.049515 -0.006372 0.090238
argentinean 0.057878 0.007133 0.059476 0.007744 0.042364 0.058144 -0.022196 -0.027549 0.040917 -0.009727 -0.030425 -0.060184 0.024360 0.028272 -0.005570 -0.014953 -0.081176 0.022831 -0.106953 -0.004548 -0.024144 0.125325 0.038308 -0.016002 0.027344 -0.108756 0.034371 0.035456 0.042365 0.141487 0.090101 -0.032370 -0.073930 -0.036431 -0.121734 -0.005410 -0.034714 0.039047 -0.002254 0.021571 0.066100 -0.062375 -0.082580 -0.035601 0.033945 -0.078296 0.047035 -0.045438 -0.195819 -0.056359 0.132708 0.010015 0.029299 -0.034117 -0.009923 -0.107581 -0.063827 0.019488 -0.023607 0.107860 0.085605 -0.056951 -0.084296 0.067933 -0.021045 0.044625 -0.108274 0.071026 -0.064000 0.077722 -0.083533 0.042972 -0.137148 -0.038568 0.039005 0.024925 -0.019059 0.017169 0.060758 0.044969 -0.069065 -0.137272 0.024108 0.039004 -0.044829 -0.040694 0.039548 0.057768 0.037209 -0.007154 0.048556 -0.000562 0.021487 0.023394 0.069909 0.036592 0.057253 0.158894 -0.130414 -0.008211 -0.097871 0.038602 0.041245 0.005555 -0.142544 0.105266 0.045145 0.006714 0.120734 -0.008333 0.033948 -0.106694 0.055758 -0.106747 0.022042 0.063416 -0.126996 -0.075963 -0.010575 0.025920 0.153648 0.097512 -0.025267 -0.079036 0.122201 -0.086013 0.103041 0.139209 0.107659 0.009413 0.015411 0.036951 -0.025350 -0.044486 0.017628 -0.102422 -0.045103 0.019241 0.125030 0.028746 0.069615 -0.036156 0.013852 0.016249 0.067105 -0.005553 0.049743 -0.030711 -0.074173 0.059533 0.048128 0.043807 -0.013970 -0.079036 0.011155 0.032440 -0.039828 0.067482 0.016529 -0.065189 0.039344 -0.077743 -0.157362 0.032136 0.078321 0.094419 0.006035 0.107441 0.057585 0.021520 -0.108154 -0.148216 0.180068 -0.010275 0.087844 -0.084273 0.040735 -0.055868 0.108216 -0.041423
louder -0.010011 0.000255 0.070549 0.035268 0.099221 0.110014 0.056369 0.031655 -0.111156 0.072383 0.014018 0.020252 0.087939 -0.012896 0.034792 0.001938 0.059283 0.014720 -0.047559 -0.021297 0.099399 0.063231 0.087333 -0.002516 -0.016471 0.020657 -0.102001 -0.071149 0.090349 0.171128 -0.003472 -0.009928 -0.032522 0.100209 -0.070877 0.000473 0.040641 -0.076635 0.026744 0.088115 0.020549 -0.040723 -0.073247 0.102617 0.033598 0.067067 0.031131 -0.068372 -0.066216 0.100114 -0.015572 0.181213 -0.077575 0.038365 -0.108528 0.050958 -0.224723 0.071819 0.080771 0.038618 -0.001802 0.024326 0.041103 0.105783 -0.054266 -0.029001 0.003823 0.003995 -0.027581 0.078388 0.018651 -0.056603 -0.060718 0.092364 0.105275 -0.053021 -0.120874 0.026220 0.207220 -0.045303 0.001502 -0.044451 -0.023995 0.142540 -0.016742 -0.010993 -0.064092 0.003792 -0.076092 0.038701 -0.018028 0.013306 -0.072268 0.039472 0.102197 0.031309 -0.069042 -0.002365 0.081760 0.121234 -0.022908 -0.125954 0.057988 0.107496 0.055305 0.016063 0.014744 0.111368 -0.005111 0.094127 0.016039 -0.012798 -0.005152 -0.122171 -0.033376 -0.001877 0.003673 -0.020432 -0.047954 0.005761 -0.042011 0.038856 -0.054565 0.042776 -0.077815 -0.121737 -0.071004 0.137448 0.075116 0.186267 0.010567 0.012595 0.007796 -0.029855 -0.139917 0.022227 -0.044201 0.039592 0.075599 -0.128527 0.018410 -0.072137 0.008208 0.043084 -0.055701 -0.082336 0.006379 0.091549 -0.016652 0.021820 -0.022324 0.006536 -0.064549 -0.043156 -0.001965 0.071409 0.068113 0.165679 -0.019443 0.117058 0.015478 -0.047605 0.024347 0.120333 -0.005370 0.145027 0.004649 0.033043 0.005194 0.024702 -0.014168 -0.015142 0.001980 0.090190 0.038969 0.003158 -0.064219 -0.009414 0.016699 0.100104
chicago 0.094051 -0.033855 0.077076 0.081507 -0.034721 0.039020 0.054310 -0.050019 0.040880 -0.054809 0.049579 0.049687 -0.077251 -0.094506 -0.109226 0.078077 0.027044 0.086349 -0.221328 0.067487 -0.079083 -0.036724 0.157343 0.001595 -0.011627 0.015158 -0.057046 0.056270 0.010811 0.020353 0.010539 -0.184357 0.004061 0.048025 -0.123475 0.004926 -0.039401 0.026148 -0.010288 0.011018 -0.014841 0.005893 0.062917 -0.064557 -0.053199 -0.030336 -0.038646 0.028872 0.068397 0.012372 -0.027797 -0.038953 -0.007789 0.066007 -0.030020 -0.148658 -0.129757 0.166805 0.033722 0.004696 -0.050240 -0.112946 0.155266 -0.004541 0.106227 0.014303 -0.035454 -0.132609 -0.024119 -0.078305 0.045863 -0.000247 0.005305 -0.004123 -0.086103 -0.225332 -0.084690 0.012242 0.093714 0.074252 0.028010 0.078173 -0.025390 0.060035 0.019159 0.052882 0.042546 0.012630 -0.014830 -0.015778 0.039202 0.039586 -0.082532 -0.067826 -0.032317 0.022246 0.028864 -0.043595 -0.018160 -0.121914 0.018379 -0.023560 0.061728 0.131235 0.070738 0.146363 0.000987 0.035475 -0.100370 -0.053890 -0.065308 -0.062902 0.028044 -0.104603 0.106541 -0.108779 -0.057517 0.097988 -0.074162 -0.095382 -0.068044 -0.051291 0.032539 0.132875 0.119411 -0.047495 -0.126119 0.091911 0.039556 0.014448 -0.038142 -0.044567 0.004819 -0.040047 -0.055648 0.039345 -0.015307 0.044029 0.020200 -0.075263 -0.028091 -0.131278 0.016335 -0.068783 -0.071722 -0.184587 -0.020381 -0.064318 0.182274 -0.079298 -0.042645 -0.146653 0.084253 0.002749 -0.094955 -0.123389 0.000339 0.073213 -0.131693 0.022630 -0.146739 -0.044974 -0.079743 0.090509 0.028530 -0.018883 0.019532 0.020654 -0.080317 -0.011798 -0.080454 0.124108 0.030618 0.038412 -0.073925 0.062279 0.099707 -0.010443 -0.048811 0.089882
move 0.012199 -0.085219 -0.002101 0.107338 -0.041019 0.031274 -0.027408 0.011347 -0.030100 -0.046321 0.020833 -0.035860 0.073284 -0.006122 -0.058560 -0.011242 -0.035177 0.028059 0.021522 0.027425 -0.128149 -0.077228 0.003453 0.053557 0.096883 -0.011134 -0.069168 -0.000965 0.050318 0.002085 -0.055508 -0.062392 -0.044707 0.044347 0.034353 -0.066264 -0.060168 0.082512 0.118395 -0.039634 0.045657 -0.053760 -0.025299 -0.003788 -0.053072 0.104565 -0.089154 -0.079139 0.054472 0.077304 -0.029757 -0.041197 0.012206 0.118144 -0.048309 -0.041464 -0.029764 0.078683 -0.041622 0.039531 0.050445 0.028506 -0.120009 -0.026304 -0.069339 -0.035227 -0.125007 -0.047229 -0.171010 0.078443 -0.001325 0.020116 0.036982 0.030190 -0.039003 0.017357 0.014381 -0.131659 -0.063158 -0.103403 -0.060524 -0.132948 0.039395 -0.025912 0.056708 0.089451 -0.049239 -0.125799 0.020274 0.019658 0.061088 0.127200 0.040364 -0.061116 -0.088903 0.027825 -0.061374 -0.008784 0.101955 0.115619 0.006328 0.057524 0.042533 -0.045133 -0.072615 0.006289 0.012697 0.052027 -0.041889 -0.070241 -0.037334 -0.116697 -0.100808 -0.027972 0.042364 -0.115497 -0.100666 -0.054236 -0.048749 0.069460 0.096208 -0.003504 -0.062433 0.042418 0.009485 0.041333 0.024896 -0.142332 -0.061756 0.063157 0.040270 0.020671 -0.046321 -0.047834 -0.058306 0.061134 0.043621 0.026118 0.010905 0.065487 0.080798 -0.017667 0.052488 0.041910 0.024297 -0.030378 0.047192 0.005857 -0.067014 -0.016190 0.005199 0.096619 -0.045064 -0.052263 0.021940 0.010325 -0.038941 -0.055532 0.003474 -0.009132 0.035107 -0.012128 -0.030864 -0.004724 0.007444 -0.087364 -0.068963 0.009631 -0.006179 0.039706 -0.030011 0.029506 0.030000 0.032157 0.048867 0.025566 -0.017091 -0.013480 -0.001878 0.021719
thailand -0.045557 -0.016614 -0.065344 -0.015004 0.035559 -0.020398 -0.019519 0.103765 0.003814 0.055190 -0.029393 -0.199181 -0.103059 0.047082 -0.000715 0.018262 0.029924 -0.045601 -0.047533 0.002145 -0.068714 0.109677 0.076920 0.051755 -0.010808 -0.020191 -0.006534 -0.018533 -0.142930 -0.048127 -0.065151 -0.066952 0.034537 -0.053083 -0.120304 -0.086776 0.015911 -0.011897 -0.034072 -0.022833 0.125609 0.017532 -0.033206 -0.133821 0.015843 0.056187 0.010623 0.090265 -0.086945 0.003599 0.064902 0.052705 -0.023919 0.158698 0.028622 -0.068459 -0.101839 0.113397 -0.004398 -0.047059 0.013510 -0.056744 0.009622 0.058876 0.001792 -0.021503 -0.151403 0.026501 -0.036303 0.042733 0.072716 -0.091704 0.019278 0.001470 -0.056201 0.095461 0.089934 -0.064817 0.035619 -0.022114 0.067837 -0.069995 0.071516 -0.021291 -0.048169 -0.166651 -0.058924 0.003190 0.063557 0.070748 0.145941 0.083988 0.093274 -0.057876 -0.074226 0.066044 0.010707 0.076812 0.015714 0.044311 0.022850 -0.074828 0.084355 -0.000132 -0.009447 0.002892 0.086087 0.039748 0.124898 -0.113336 0.058299 0.008599 0.007720 -0.013286 0.062538 -0.016214 -0.067416 -0.020106 -0.086097 0.010026 -0.036734 -0.028740 0.063839 -0.038190 0.078307 -0.102988 -0.028872 0.023606 -0.068235 0.042128 0.089780 0.011617 0.109991 -0.052857 -0.019482 -0.032361 0.042208 -0.005323 0.179157 -0.029673 -0.076129 0.033204 0.009617 -0.033596 -0.004453 -0.138752 0.015347 -0.009886 -0.126426 0.013809 -0.077391 0.125971 -0.003773 -0.105359 -0.072548 -0.081403 -0.065548 -0.001656 -0.102024 -0.011358 -0.076638 -0.005555 0.121117 -0.016234 -0.053378 -0.057661 0.124624 0.035013 0.005150 0.101788 -0.069045 -0.128677 -0.022792 -0.050275 -0.032523 -0.023368 0.021277 0.034160 0.087527 -0.017053
ukraine -0.159211 0.053476 0.018551 0.087881 0.105106 -0.017341 -0.015691 0.113522 -0.019133 0.020795 -0.072045 -0.114643 -0.021663 0.075035 0.023440 0.198475 -0.002546 -0.079062 0.017718 -0.064362 0.012043 -0.008896 0.031131 -0.029828 -0.149281 0.009570 -0.107166 0.035057 0.034172 0.034717 0.028509 -0.016089 0.031442 0.079342 -0.038246 -0.069438 0.049186 -0.053737 0.060513 0.155549 0.001136 -0.039439 -0.096258 -0.043838 -0.127892 0.063145 0.078538 -0.073669 0.084370 0.003208 0.080051 0.095269 0.040184 -0.005520 0.021020 0.092878 -0.205372 0.032211 -0.004241 0.029233 -0.017447 -0.091404 0.066229 -0.025660 -0.203717 -0.174732 0.079426 -0.012345 -0.029004 -0.012854 -0.093723 -0.018559 0.018738 0.053653 0.102465 0.079848 -0.055031 -0.003933 0.037015 -0.012715 0.011318 0.043583 -0.065933 0.005630 -0.013861 -0.033195 0.001554 -0.116493 0.002344 -0.012327 0.065393 -0.103983 -0.040964 0.098645 0.035463 0.047648 -0.070108 -0.102410 0.037037 0.099140 -0.010883 -0.023198 0.073341 0.070550 0.016811 0.038562 -0.031185 -0.034955 -0.076992 -0.007615 0.041116 0.036546 -0.137075 0.070327 -0.037999 0.026745 0.012798 -0.081851 -0.017999 0.103212 0.041266 -0.007027 0.115468 -0.002088 0.012097 0.042367 0.060451 0.012473 -0.005747 0.008921 0.078989 -0.028120 -0.006447 -0.020220 0.109427 0.047990 -0.066875 -0.028984 0.082585 -0.094805 -0.048727 -0.086829 -0.004184 0.037892 0.026782 0.003265 0.100541 -0.001413 -0.135990 -0.002544 -0.019364 -0.060086 0.162619 -0.159118 0.123045 0.018644 -0.057059 -0.052661 0.068009 -0.078797 0.029938 -0.027678 -0.110115 -0.000730 0.052853 0.115012 -0.135896 0.104664 -0.070982 0.008634 -0.125629 -0.024237 0.088778 0.003326 -0.090856 0.024526 -0.038692 -0.035007 -0.068069 0.138708
plano 0.121212 0.073329 -0.034424 0.103608 0.038027 -0.018176 0.080200 0.044734 -0.078971 0.022597 0.039161 -0.038617 -0.009276 -0.005656 0.119105 0.055286 0.096742 -0.034780 -0.107146 -0.098122 -0.098960 0.034235 0.014618 -0.032210 -0.207061 0.072963 -0.005400 -0.070598 0.053936 -0.015036 -0.026760 0.028520 -0.079421 -0.012715 -0.132575 -0.061582 -0.048679 -0.023346 0.022254 -0.066593 -0.030091 -0.097709 -0.037740 -0.046190 0.048404 -0.139970 -0.056468 -0.126130 -0.072251 -0.015380 0.078000 0.142510 0.020823 0.009647 0.044728 -0.075559 0.048485 -0.066870 0.043094 0.053755 0.026863 -0.009663 0.039692 -0.028187 0.026331 0.062054 -0.133369 0.009658 0.077052 -0.065339 0.062704 0.029682 0.032025 -0.047057 0.098320 0.035895 0.002966 0.035326 0.039300 0.102217 -0.060991 0.034260 -0.028345 -0.072711 0.000117 0.077806 -0.001993 -0.097920 -0.166087 0.051121 0.012320 0.055563 0.004062 -0.063553 -0.081741 0.000966 0.018453 -0.018601 0.072772 -0.104509 0.077823 -0.011144 0.136976 0.037214 0.053221 0.027081 -0.145199 -0.072770 -0.096768 0.129278 -0.011152 -0.135086 0.101817 -0.070045 0.007462 0.020488 0.019974 -0.045956 -0.065966 -0.092872 0.025301 -0.002949 0.085296 -0.073811 0.044982 -0.096748 -0.061382 0.039510 0.011783 0.035106 -0.092002 0.064213 -0.005403 0.101447 -0.080540 -0.055508 -0.078189 -0.073703 0.079890 -0.018650 -0.006752 -0.044169 0.039004 -0.040572 -0.051484 -0.004811 0.091867 0.073891 0.018698 -0.102576 -0.007794 -0.022062 0.010971 0.071533 0.060384 -0.108431 -0.053086 0.067629 -0.012011 0.099380 0.045011 0.114924 -0.072043 -0.098351 0.098195 -0.010403 -0.055329 0.134843 0.017829 -0.049132 0.071420 0.056585 0.083149 0.125941 0.038254 0.074788 0.093206 -0.062309 -0.054321 -0.078683
texas 0.113787 0.014497 -0.000174 0.076712 0.036389 0.013614 0.076205 0.002999 0.008305 -0.102451 0.084659 -0.044714 -0.057792 0.035646 0.037383 0.077358 -0.064544 -0.054670 0.005039 -0.046907 0.030172 0.130784 -0.074102 0.034860 0.020443 0.143787 0.021584 -0.040084 0.115063 -0.027311 -0.019175 -0.013515 0.032067 0.016139 -0.057607 -0.064289 -0.101879 -0.045210 0.001872 -0.045877 -0.031776 -0.090882 -0.011147 -0.032800 -0.012888 -0.037582 -0.104290 -0.077105 0.027293 -0.007326 0.121899 0.046440 0.011215 0.062154 -0.014005 0.063155 -0.108219 -0.028148 0.001855 0.034020 -0.055398 -0.009131 0.122770 -0.053919 -0.001091 -0.006847 -0.163757 0.061898 0.045307 -0.073656 0.091161 0.056767 0.008855 -0.109765 0.062966 0.046311 0.112370 -0.029729 0.073918 0.038346 -0.168936 0.067426 -0.011535 -0.009245 -0.072772 0.085142 0.065950 -0.055112 -0.062523 -0.049361 0.028936 0.048352 -0.007467 -0.035907 -0.128489 0.083166 0.106376 -0.058300 0.166561 -0.128156 0.029759 0.042174 0.025466 -0.037146 0.116853 -0.072478 -0.044724 -0.037201 -0.089433 0.075383 -0.012505 0.017318 0.113976 -0.107684 0.007887 0.000343 0.096574 -0.074580 -0.018088 -0.076853 0.116017 0.122316 0.036923 0.068439 -0.007922 0.040103 0.000606 0.069505 0.075519 0.172263 -0.070838 0.055846 -0.043783 0.057861 0.000473 -0.041642 0.029354 0.064909 -0.025230 -0.013168 0.088170 0.043191 0.078449 0.029223 -0.017421 -0.050956 0.034934 0.105680 0.008024 -0.140925 -0.003607 0.061554 0.041953 0.088507 0.033949 -0.059544 -0.022094 -0.036687 -0.072325 0.085039 0.059117 0.195451 -0.031745 -0.202219 0.098432 0.057680 -0.047214 0.153052 0.060635 0.066961 0.086466 -0.012575 0.033836 0.072570 0.062642 -0.021121 0.041055 0.079587 -0.010418 -0.118879
tough -0.106477 0.040561 0.077903 0.021373 0.002075 -0.001102 -0.046234 0.016135 0.137684 -0.127575 0.080979 0.023275 -0.082908 -0.090074 -0.090669 -0.034630 -0.063192 -0.019443 -0.080657 -0.042049 0.098308 0.023410 0.059682 0.003641 -0.116240 0.007821 0.070021 0.009168 0.122739 -0.120288 0.005821 0.056412 0.058213 0.027710 0.021105 0.000226 0.030585 -0.047477 -0.075488 0.123293 -0.067371 0.064824 0.105080 0.165027 0.100131 -0.000455 0.065530 0.006888 -0.050757 0.003482 0.000963 0.017456 0.068938 0.059697 0.044149 0.022472 0.041501 0.018650 0.059626 -0.071066 0.002850 -0.116431 0.082635 -0.072716 0.000185 0.024823 0.150188 0.095321 -0.045253 0.005481 0.101433 -0.020612 -0.143187 0.066944 0.175583 -0.007656 0.018653 0.026934 -0.013321 -0.032614 -0.083167 0.031559 0.075155 -0.050181 -0.006359 -0.093710 0.001668 -0.148825 -0.058139 -0.026530 -0.126853 -0.051363 -0.033058 -0.061449 -0.137966 -0.057973 -0.008756 0.000481 0.020106 0.042078 0.075599 0.005130 0.055501 0.113994 -0.108939 0.014337 0.108193 0.013085 0.210294 -0.023531 -0.022091 0.114825 -0.112322 -0.067172 0.035014 -0.056404 -0.043883 -0.000664 -0.081405 0.081346 -0.023532 0.003584 0.023218 -0.077385 -0.054274 -0.074871 -0.031929 0.140374 -0.011030 0.033246 0.011369 -0.003750 -0.000409 -0.067547 0.090025 -0.073976 -0.064224 -0.057483 0.050491 0.089821 -0.010820 -0.006969 -0.007191 -0.019104 0.037214 -0.004389 -0.090665 -0.056833 -0.002147 0.109500 -0.085714 -0.055009 0.041005 -0.024628 -0.036444 -0.025548 -0.006074 -0.002240 -0.022824 -0.004300 0.046819 0.018204 -0.104884 -0.064195 -0.000356 0.080239 -0.013715 -0.030690 0.076197 -0.052210 -0.009889 0.099057 -0.021717 -0.037659 -0.143594 0.112935 0.090647 0.090172 -0.015662 0.093412
flying 0.124505 0.066498 -0.060048 -0.043137 -0.025403 0.048725 0.002768 0.024792 0.103809 0.045467 -0.038648 -0.119953 0.032194 -0.036262 -0.083364 0.079407 0.090503 -0.015512 0.028165 0.194494 0.014193 -0.028463 0.009462 -0.077632 0.072756 -0.084995 -0.078133 0.052399 -0.074779 -0.040605 0.094905 0.057444 0.063963 -0.029943 0.047572 -0.134907 -0.047010 -0.107234 -0.005385 -0.071056 -0.024575 -0.022948 0.025152 -0.015674 -0.076767 0.100533 -0.063525 0.029921 0.011314 0.112854 0.014381 0.125322 0.068078 -0.149728 -0.079624 -0.061912 0.086176 -0.011734 -0.053737 0.153707 0.052250 -0.059783 -0.028747 0.003207 -0.032091 -0.137955 0.013529 -0.036831 0.057509 -0.008427 0.098544 -0.043578 -0.013146 -0.014577 0.084979 0.048596 0.078070 -0.024519 -0.124959 -0.007359 0.038620 0.019138 -0.114304 -0.006094 -0.030394 -0.077354 0.006860 -0.100202 0.019056 -0.002849 0.000290 0.003169 -0.111380 0.094585 -0.101078 -0.009282 0.017064 0.110566 0.170526 0.179394 -0.009332 0.012678 -0.044547 -0.071537 0.098704 0.103288 -0.080836 0.085376 0.015275 0.042097 0.064373 0.046856 0.054333 -0.057102 0.093196 -0.051450 0.027538 0.099609 -0.017734 -0.018850 -0.059474 0.052837 0.053593 -0.119007 -0.015833 0.038798 0.030088 -0.088367 0.103497 0.065331 0.071201 0.053426 0.061725 0.019058 -0.063644 -0.101042 -0.048135 0.105469 -0.031982 0.077525 0.081537 -0.066492 0.093954 -0.030358 -0.073664 -0.109896 -0.033928 -0.035213 0.026328 0.065339 -0.009927 -0.071907 0.135823 -0.062828 -0.000232 -0.051775 -0.052969 -0.122408 -0.037368 -0.028051 0.142367 0.021098 0.085972 -0.022015 0.105120 0.043294 -0.100444 0.007284 0.017623 0.075446 0.065199 0.139732 -0.010298 0.048925 -0.025335 0.076894 0.014238 -0.065787 0.011456 -0.086142
iraq -0.058149 -0.083319 0.021506 -0.111088 0.106927 -0.130583 -0.037338 0.019996 -0.052186 0.068208 -0.004157 -0.069640 0.061134 0.042531 0.033667 -0.046696 -0.017551 -0.031314 0.004640 0.051187 -0.014705 0.046085 -0.001936 0.013786 0.055001 0.026270 -0.085637 0.010140 0.010111 0.144238 0.070421 0.025361 0.061919 0.060147 -0.018868 0.050896 -0.083352 -0.043599 0.066539 0.085797 -0.050802 0.032797 0.026413 0.108124 -0.020198 -0.039361 -0.020430 -0.037086 -0.012340 0.069238 0.089368 0.005336 0.006614 -0.083524 -0.015081 -0.101756 0.163370 -0.086234 -0.057137 0.097393 0.119913 0.059026 -0.095107 0.059326 -0.051680 -0.069019 0.086015 -0.002131 -0.069859 0.127052 -0.073421 0.052743 -0.134205 -0.054991 -0.070875 -0.006461 -0.127287 0.005473 -0.006542 0.007652 0.072028 0.024345 -0.078189 0.026290 -0.092460 0.053898 0.098042 0.024470 0.054020 0.078058 -0.030866 -0.082133 0.075971 -0.075256 -0.099284 -0.023283 0.038351 0.081252 0.070585 0.039428 -0.057634 0.029872 0.002446 0.059406 -0.041268 -0.015957 0.009670 0.081532 0.039575 -0.029399 -0.086100 -0.087696 0.012503 -0.048262 -0.007324 0.014709 -0.046712 0.028427 0.018583 -0.032487 0.039792 -0.047822 -0.124960 -0.076361 -0.076531 -0.040641 0.109178 0.102272 0.145726 0.018641 -0.062129 0.055431 0.043311 -0.028210 0.012018 0.122473 -0.088752 0.089262 0.083664 0.009082 -0.004399 -0.117434 0.026143 -0.038075 0.008648 -0.015263 -0.007630 -0.037850 0.052388 0.074189 0.006846 -0.032131 -0.038281 -0.152649 0.002223 -0.018985 -0.044250 -0.054622 0.001615 0.006748 0.005941 0.043836 0.034231 -0.057371 0.060196 0.057988 -0.028263 0.040071 -0.006919 0.060649 -0.010759 0.076226 0.139438 0.076478 -0.039909 0.001120 0.030981 0.001450 -0.014073 -0.012331
professional -0.000250 0.067495 0.071108 0.003587 -0.055648 -0.094004 -0.099126 0.046795 -0.039021 -0.000255 -0.028467 0.049317 -0.010373 -0.048603 -0.094473 0.028031 -0.068315 -0.001633 -0.059309 0.001806 -0.004569 0.021493 -0.053592 0.007166 -0.063626 -0.063171 0.042818 0.030380 -0.005488 -0.012796 -0.010039 0.142351 0.102555 0.054226 -0.056504 -0.007967 -0.005746 -0.081435 0.011344 -0.034599 -0.062417 -0.083442 0.088885 -0.017498 0.057199 0.076240 0.156307 -0.066437 0.003221 0.048912 -0.012450 0.120444 0.025575 -0.127751 -0.131372 0.142000 -0.021583 0.067027 -0.012310 0.176678 -0.036499 -0.074872 0.074954 0.005842 -0.084650 0.008174 -0.058957 0.035650 0.037292 0.012969 0.041990 -0.044673 0.016157 0.121680 0.135750 -0.025679 0.001543 -0.061577 0.112926 -0.000591 -0.041628 0.015760 -0.038279 0.015214 0.002059 0.069897 -0.016565 -0.061314 -0.081552 -0.033826 0.021991 -0.069034 0.034152 -0.065782 -0.115118 0.071238 -0.047514 0.064410 0.059410 0.043107 -0.004621 -0.074045 0.096820 0.045457 -0.034685 -0.008389 0.018293 0.041540 0.050575 -0.099503 0.051589 0.010144 -0.173806 -0.117104 0.010923 -0.071595 0.002910 0.014115 -0.133904 -0.112269 -0.057384 0.047716 0.063638 -0.126512 0.003783 0.032683 0.033902 -0.010910 -0.026129 -0.079073 -0.104723 -0.062101 0.009733 0.045853 0.008085 0.097986 -0.049671 0.022829 0.044893 0.003018 -0.081864 0.002472 -0.092281 0.026178 0.014074 -0.047860 -0.049868 -0.135476 0.082443 0.088349 -0.087485 -0.099292 0.068488 0.001226 -0.035889 0.040628 0.010341 0.019336 -0.038600 -0.030681 -0.002706 0.056790 -0.018528 -0.017899 0.032554 0.123556 -0.068719 -0.003924 0.068631 -0.037547 0.017818 0.078397 0.028564 0.107450 -0.038510 0.092287 0.083225 0.013883 -0.051019 0.045046
fly 0.056065 -0.034779 -0.039398 0.022210 -0.060266 0.148094 0.053898 -0.038164 0.102266 -0.104323 -0.016651 -0.127199 -0.055084 -0.009125 -0.070901 0.046724 0.016693 0.085120 -0.014759 0.065793 0.057335 -0.048515 -0.007618 0.019455 0.101612 -0.024492 0.004962 0.011521 -0.102222 -0.058752 -0.039909 -0.036026 -0.035322 0.001517 -0.001897 -0.059115 0.025249 -0.082363 -0.099368 -0.106263 0.031906 -0.049282 -0.003779 -0.023943 -0.122029 0.099373 -0.021862 -0.073909 0.005031 -0.006080 0.028398 0.099786 0.040590 -0.033344 -0.142800 0.026867 0.037031 -0.055845 -0.067655 0.138644 -0.040178 -0.178748 0.049495 0.051024 -0.058727 -0.008038 0.108439 0.008383 0.047262 0.007055 0.074011 -0.093849 -0.002199 -0.017216 0.005887 -0.024629 0.136040 -0.063123 -0.048187 -0.065750 -0.029663 0.050436 -0.013715 -0.042449 -0.007328 -0.149241 0.056633 0.037239 0.052537 -0.038808 -0.038859 0.008819 0.002356 0.045291 -0.021905 0.075291 0.134650 0.099425 0.117146 0.179769 -0.054116 -0.044291 0.025203 -0.051173 0.129657 0.039740 -0.030839 0.102719 -0.078536 0.119296 0.097529 0.071554 -0.082530 -0.009867 0.039455 0.021221 0.023981 0.007486 -0.049870 0.007649 -0.091847 0.087284 0.005852 -0.106795 0.011573 0.027660 -0.004892 -0.052484 0.172765 0.062349 -0.019563 0.077531 0.056898 -0.108518 0.043398 -0.081993 0.018169 0.015862 0.063213 0.024842 0.062103 -0.144434 0.087654 -0.058733 0.053811 -0.069135 -0.014751 0.027918 -0.080565 -0.009945 0.033958 0.056463 0.091579 -0.003545 -0.111973 -0.019148 -0.057276 -0.030793 -0.084334 -0.053375 0.174632 -0.083783 0.034670 -0.019915 -0.025824 0.049789 -0.092943 -0.011214 -0.030739 0.067564 0.015049 0.017660 0.044003 -0.021129 0.113557 0.007009 -0.048511 0.001763 -0.067273 -0.053914
danish -0.036414 0.048745 0.071374 0.032636 -0.004106 -0.107825 -0.012232 -0.059539 0.091905 0.093494 -0.018411 0.046394 0.011224 0.077338 0.046605 -0.009156 -0.017082 -0.036344 0.036317 0.025625 0.041121 -0.004302 0.056085 -0.024715 0.058296 -0.087670 0.005639 0.025239 0.028082 -0.026980 0.062117 0.008918 -0.040484 0.053090 0.104996 -0.015740 -0.085888 0.030116 0.080280 0.034705 0.036516 -0.009757 0.013536 -0.132561 0.036924 0.081844 -0.056130 -0.020452 -0.103738 -0.057159 0.042630 0.072246 -0.014215 -0.009154 -0.121640 -0.077150 -0.045564 0.051376 -0.055570 -0.077409 -0.052843 -0.005754 -0.041320 0.099689 -0.086693 -0.062662 0.054294 0.073981 -0.116669 0.063062 -0.012513 0.005238 -0.011056 0.130230 0.197449 0.045775 -0.097328 -0.032432 -0.095195 0.047475 0.050328 0.030685 0.167511 -0.016255 -0.059018 0.047092 -0.072705 0.034401 -0.028742 0.043441 0.123931 0.010418 -0.095616 -0.045484 -0.149832 0.098092 0.002545 0.075477 0.180070 -0.032552 -0.023400 -0.061745 -0.073840 -0.022992 -0.081693 0.106244 0.057484 -0.069816 0.083398 0.055686 -0.035168 0.002462 0.029762 -0.016835 -0.054257 0.081953 -0.042372 -0.073079 0.035508 -0.014606 0.123122 -0.031696 -0.068476 -0.053736 0.125272 -0.010264 0.146767 0.004812 -0.037799 0.036046 0.017251 0.128235 0.145923 -0.046686 0.003291 -0.048630 -0.052888 -0.045151 0.017188 -0.045074 -0.024853 0.055822 0.046449 0.080552 0.088355 -0.020058 0.132598 0.034599 -0.002397 0.025846 -0.039922 0.000274 -0.057796 -0.045563 0.010251 0.086319 -0.056350 0.025974 0.124249 0.063759 -0.031909 0.032971 0.067388 0.017717 -0.049404 0.019378 -0.049249 0.063733 0.110192 0.063901 0.107332 0.068831 0.046342 -0.088938 -0.072810 -0.028188 0.051178 -0.007143 0.116203 0.156038
denmark 0.001321 -0.003291 -0.026356 0.005321 -0.020649 -0.045494 0.069469 -0.032404 0.079967 0.018937 0.017581 0.121440 0.018930 0.041923 0.019732 0.037095 0.031552 -0.021474 0.060818 0.069242 0.067951 0.088394 -0.020688 -0.036172 -0.009197 0.127420 -0.020191 -0.002845 0.081824 -0.058071 0.011744 -0.032232 0.032092 0.040540 0.117242 -0.073741 -0.120869 0.000809 0.028246 0.029146 -0.116271 0.002144 -0.092133 -0.061506 0.068502 0.037895 -0.033068 0.033717 -0.096474 0.060784 0.048793 -0.104361 -0.050933 -0.025603 -0.022786 -0.014355 -0.053895 0.144772 -0.073788 0.002393 -0.015278 0.018718 -0.003751 0.027058 -0.014986 -0.043072 0.047277 0.141348 0.017530 0.049417 0.008110 -0.009419 0.000555 0.098874 0.204258 -0.025291 -0.059642 -0.066879 0.006979 -0.014144 0.066370 0.048758 0.076455 -0.013541 0.013249 0.025825 -0.099946 -0.103301 -0.002192 0.068031 -0.017552 0.043102 -0.142865 -0.025568 -0.058549 0.055536 -0.037988 0.059475 0.101376 -0.057464 0.012417 0.011980 0.024217 -0.001181 0.024923 0.132950 0.048412 -0.028401 0.016974 0.093096 -0.023824 0.075804 0.037321 0.011140 -0.080577 0.056515 0.129096 -0.146541 0.088590 0.009669 0.041027 -0.003272 -0.034578 0.003975 0.080641 0.076616 0.048682 -0.032938 0.026074 0.093583 0.037814 0.107111 0.012967 -0.035507 -0.105536 -0.112244 -0.132774 0.029804 0.010965 -0.048379 -0.021771 0.018752 0.030184 0.047861 0.141627 -0.033163 0.126908 0.027506 -0.049825 0.018951 0.007169 -0.126460 -0.057661 -0.102154 -0.056430 -0.034700 -0.020206 0.054866 0.002806 0.050634 0.051636 0.063762 0.006157 -0.046467 -0.005553 0.108955 -0.012936 0.120118 0.074411 0.166506 0.106129 0.017370 -0.000233 -0.033614 -0.028781 0.056056 0.042788 -0.031837 0.066544 0.092553
croatia 0.039484 -0.029832 -0.047677 0.046205 0.037643 -0.009498 0.016508 0.028157 0.100929 0.046423 -0.000699 -0.011708 0.095550 0.050877 -0.076112 0.019297 0.018421 -0.020502 0.011079 -0.016598 -0.106054 -0.039974 -0.097513 0.104953 -0.020457 0.051275 -0.106777 -0.011357 -0.056034 0.074777 -0.057455 -0.137039 -0.088763 0.068434 -0.063252 -0.096985 -0.039460 -0.010584 0.040435 0.152806 -0.145238 0.029487 -0.033090 0.006386 0.011194 -0.021595 -0.027938 -0.028810 -0.055673 -0.038653 0.175246 -0.010589 0.062947 -0.091172 -0.115713 0.018081 -0.004382 0.004135 0.034402 -0.028374 0.023253 0.122643 0.101423 -0.000768 -0.028075 -0.044278 0.020788 -0.060681 0.011956 0.009800 0.002936 -0.019095 0.011185 -0.059395 0.162728 0.019660 0.050862 -0.004011 0.027772 0.072705 0.072729 0.071285 0.048785 -0.040584 -0.059886 0.068362 -0.047631 -0.005900 -0.065612 -0.081249 0.048039 0.059484 -0.014501 0.018844 -0.116103 -0.046684 0.057996 0.078207 0.046460 0.129407 -0.037532 -0.025216 0.055188 0.076153 -0.075142 0.041072 0.097093 0.110130 -0.068022 0.088635 0.109062 0.024051 -0.044093 0.014352 0.020004 -0.063587 0.038018 0.007845 0.027215 0.001898 -0.020463 0.056059 -0.046260 -0.009888 0.019739 -0.102353 -0.020315 -0.037629 0.017028 0.066503 -0.010105 0.160048 -0.011575 -0.077237 -0.041693 0.031966 0.141721 0.021497 -0.008875 -0.073789 0.042923 0.042304 0.005271 -0.057209 -0.057199 -0.039394 0.036844 0.051869 0.053416 -0.033660 -0.016005 -0.050578 0.034033 0.006363 -0.075720 -0.126618 0.026644 -0.023204 -0.015067 0.030953 -0.087906 0.095176 -0.008173 -0.034550 0.068637 0.007000 -0.096192 0.006426 0.030283 -0.080352 -0.028165 0.089484 -0.021184 0.062267 0.041546 0.048650 0.032932 0.078755 -0.081717 -0.067965
