hanoi 0.034444 0.132800 -0.158795 0.109923 0.087535 0.106386 -0.028305 0.076015 0.082820 -0.130980 0.046423 -0.130997 0.035981 -0.080398 -0.072311 -0.115184 0.100921 -0.213163 0.073169 0.064180 -0.057636 0.111578 0.215471 -0.019825 0.126383 0.018681 -0.113786 -0.018865 -0.103028 0.174096 -0.089301 -0.018112 0.000871 -0.034454 -0.043423 0.060259 -0.042406 0.125465 -0.023418 -0.033950 -0.044247 -0.170324 0.063944 -0.130473 -0.074766 -0.194482 -0.014111 0.145777 0.037384 0.007995 0.130518 -0.102126 -0.048074 0.023089 0.131113 -0.043193 0.004741 -0.105258 0.020830 0.134158 -0.111744 -0.027428 -0.069623 0.083552 -0.087875 -0.004332 0.017343 0.134827 -0.084567 0.100037 -0.021360 0.208814 0.060990 -0.011563 -0.011624 0.082465 -0.135525 0.019940 -0.049954 -0.037685 -0.066548 0.046822 0.066906 0.167509 -0.058941 -0.033382 0.033271 -0.049965 0.195489 -0.040975 0.079750 -0.056174 -0.016826 -0.141320 -0.066933 0.167369 -0.153477 -0.177221 0.135038 0.072120 -0.091714 0.091823 0.016689 -0.155477 -0.091119 0.050586 -0.171922 0.124705 -0.081113 0.104019 0.027500 0.022238 0.091167 -0.036758 0.104432 -0.099486 0.197566 0.131857 -0.026779 0.114135
tougher -0.010295 -0.203076 0.030600 -0.076681 -0.059404 0.002392 0.060544 -0.078789 -0.134613 0.016647 -0.079067 0.055109 -0.040132 -0.002459 0.043089 -0.039614 -0.040297 -0.003707 0.008900 0.064374 -0.018998 0.114697 0.210565 0.120600 0.034780 -0.041842 0.036367 -0.091750 -0.117172 -0.068596 0.008734 0.037823 0.155262 -0.165520 -0.044964 -0.014159 0.151471 0.067489 -0.186073 -0.086174 0.020769 -0.045040 0.010739 -0.004227 -0.047739 0.109720 0.164353 0.085307 -0.046428 -0.039783 0.088888 0.110439 0.000637 -0.017073 -0.169791 -0.125907 -0.005356 -0.145214 -0.028888 0.144587 0.056955 0.030061 -0.005240 -0.063083 -0.133785 -0.102408 -0.153560 -0.112350 -0.019432 0.059052 0.032365 0.036095 0.049921 0.077886 -0.115288 -0.011384 -0.012207 -0.114981 0.028917 0.035026 -0.086074 -0.080494 0.054262 0.033941 0.061267 0.195263 0.044702 -0.001145 -0.015847 -0.094161 -0.004251 0.162403 -0.105621 0.074754 -0.039495 0.007967 -0.018764 -0.126191 0.061290 -0.025408 0.063024 0.201091 0.018646 0.167244 -0.188528 -0.060402 0.035364 -0.108114 0.001536 -0.102334 0.026703 -0.077690 -0.105812 -0.064759 -0.125767 -0.105742 -0.058904 0.026157 -0.049219 0.023956
occasionally 0.056165 -0.111854 0.060775 0.002181 0.094724 -0.017270 -0.020156 0.076614 0.132712 0.017125 -0.077701 -0.130933 0.015128 -0.037693 0.000461 -0.010588 0.068666 0.076246 0.113852 -0.166963 0.018404 -0.031148 -0.045133 0.020436 0.104163 -0.106247 -0.133921 0.065048 -0.103162 -0.226145 0.144777 -0.055494 -0.002444 -0.053176 -0.076530 0.019561 -0.079695 0.033145 -0.036469 0.014234 0.050528 0.047620 0.104646 0.102607 0.070778 0.111453 -0.002354 0.075054 0.146833 0.048574 -0.036417 -0.103443 0.035561 -0.055513 0.006890 0.268250 -0.010512 -0.075032 0.016567 0.073859 -0.013589 0.028085 0.077657 0.102373 -0.050163 0.000771 -0.014329 0.073925 0.065289 0.124432 -0.019140 0.024037 0.053473 -0.047684 -0.183906 0.006050 -0.021713 0.231589 0.128992 -0.185418 0.091326 -0.099045 -0.233742 0.027264 -0.094753 0.005922 -0.009676 -0.221954 -0.025258 0.097074 0.033070 -0.027153 -0.097325 0.118973 0.171940 -0.165177 0.122930 -0.134403 0.139455 0.028575 -0.020776 -0.044691 -0.036684 -0.016657 -0.011565 -0.048868 0.031514 0.088798 -0.096885 0.143517 0.043281 -0.028862 -0.000970 -0.010885 0.060320 0.092649 0.059580 -0.043349 -0.035657 0.054552
ukrainian 0.085233 -0.043857 0.076387 -0.140976 -0.139935 -0.023766 0.070758 0.188798 -0.042747 -0.130382 0.059960 -0.047757 0.046837 0.057048 -0.058873 0.014058 0.026345 -0.107673 0.165336 0.063453 0.084912 0.052907 0.159038 0.034872 0.066427 0.059919 0.007412 -0.010190 0.104575 -0.154653 -0.080628 0.038270 0.123503 0.039954 0.063493 0.031743 -0.053537 0.019074 0.085387 -0.110218 0.076016 0.059213 0.157017 -0.133799 -0.025143 -0.116710 0.025323 0.096848 0.060032 0.102655 -0.082554 -0.036351 -0.035847 -0.005598 0.095534 -0.102781 -0.204673 -0.055979 -0.055437 0.101736 -0.057536 0.021190 -0.258928 0.068131 0.060042 -0.068680 -0.009503 -0.024747 -0.080275 -0.036266 -0.011399 -0.013340 0.083446 -0.043749 0.109180 0.024607 0.038139 -0.052784 0.089143 -0.051531 0.166472 -0.029574 -0.148523 0.099414 -0.088014 -0.052392 0.021171 0.054179 -0.026762 -0.042447 0.058692 0.042909 -0.065378 0.034046 -0.040753 -0.045995 0.012821 -0.200500 0.058227 -0.064912 -0.107060 0.166771 -0.038238 -0.060937 -0.038864 -0.202310 0.038741 0.000799 0.084757 0.099569 0.045683 0.089156 -0.153383 -0.104303 -0.014941 0.037420 0.068239 0.016065 0.004959 -0.132107
occasional -0.055558 -0.101372 0.024053 -0.122538 -0.167386 0.101617 -0.078994 -0.022718 0.072247 -0.002483 0.038575 -0.003307 0.053910 0.056683 0.033658 0.048793 0.032257 -0.177245 0.111272 0.014507 0.039919 -0.037204 0.124714 0.065441 0.053829 -0.073072 -0.048096 0.063819 0.043861 -0.086781 -0.106354 0.103721 0.002609 -0.070567 -0.021939 0.090928 0.001410 0.108933 -0.017569 0.025431 0.158760 0.045758 0.149741 -0.013301 0.056382 0.057222 -0.065553 0.163555 0.035903 0.131734 0.094687 0.078437 -0.069724 -0.054872 0.063852 0.203965 0.172267 -0.101297 -0.048066 -0.073584 -0.016894 -0.014273 -0.073279 0.063278 0.026449 -0.146614 -0.005190 -0.013224 -0.052560 0.086307 -0.118379 0.020055 0.036995 -0.057452 -0.136613 -0.038688 -0.013265 0.100739 0.048976 -0.120403 0.056665 0.040772 -0.012560 0.165980 -0.105644 -0.059951 0.087929 -0.094503 -0.050330 0.014397 0.033673 0.029291 0.018353 0.008995 -0.051647 -0.183138 -0.066126 -0.110072 0.083648 0.044947 0.006306 0.141187 0.082559 0.043204 0.191308 0.023719 0.175026 0.140432 0.070235 0.052020 0.028503 -0.011369 -0.006393 0.018514 0.164669 0.190846 0.026339 -0.012910 0.091691 -0.119570
norway -0.000386 -0.075716 -0.029270 -0.075978 0.047091 0.059737 -0.026038 0.014253 -0.072153 0.084839 0.151947 0.197879 0.067290 -0.090736 -0.056424 0.026805 0.137015 -0.164610 0.038464 0.050056 -0.109998 0.083674 0.004650 0.055782 0.037947 -0.044335 0.091371 -0.081891 -0.036223 -0.040926 0.083427 -0.012408 0.030173 -0.112984 -0.004209 -0.033945 0.044688 0.110549 -0.028621 -0.102108 0.021809 -0.278246 0.015168 -0.163856 0.067466 0.000465 -0.038237 0.088918 0.081733 -0.121572 0.010574 -0.013753 -0.046244 -0.161318 0.053048 0.098728 -0.024971 0.077687 -0.044958 0.115352 0.041921 -0.044946 -0.128586 0.088266 0.023646 -0.139781 -0.109614 -0.077283 0.167287 0.007522 0.006657 -0.004835 0.026872 0.071289 0.121589 0.067620 -0.092725 0.013733 0.164438 0.049700 -0.037558 0.052659 0.045155 -0.042806 0.018403 -0.103331 -0.117830 0.095732 0.092691 0.014351 0.128716 -0.044549 -0.037189 0.004761 -0.069018 0.053803 0.051902 -0.045553 0.051420 -0.009924 0.001389 0.065104 -0.071165 0.168326 0.016972 -0.029351 0.088667 -0.039443 0.146631 -0.053105 -0.059248 0.061839 -0.020245 -0.042951 -0.090639 -0.046252 0.010137 -0.131676 -0.039520 0.062182
baghdad -0.009974 -0.186425 0.013669 -0.080156 -0.058270 -0.077585 -0.045829 -0.096056 0.063353 0.109226 0.083338 -0.002837 0.026429 0.008639 0.005196 0.059146 0.069665 -0.238113 0.139812 0.076555 -0.033539 -0.032498 -0.036474 0.030976 0.076285 -0.036680 0.148364 -0.140688 -0.045491 -0.010510 -0.028544 0.002096 0.008051 -0.233644 0.054705 0.029362 -0.022863 0.041915 0.012097 -0.006950 0.027027 -0.004704 0.012273 0.054209 -0.008580 -0.090116 -0.008900 0.141450 0.081570 -0.094139 -0.007935 0.204592 0.174687 -0.012599 -0.101693 0.136151 -0.086219 -0.066895 0.005815 0.018267 0.017961 -0.087357 0.086835 0.188606 -0.139255 -0.009445 -0.066457 -0.017649 -0.042282 0.013122 -0.048802 0.028223 -0.014449 0.061469 -0.021047 -0.045700 -0.141585 -0.011469 -0.061952 0.137065 0.030764 -0.001523 0.002090 0.138259 -0.129777 0.009040 -0.106691 -0.090267 0.010477 0.104069 -0.051821 0.287371 -0.118186 -0.080628 -0.051681 -0.093812 -0.214756 0.089541 -0.063534 -0.053858 0.129326 0.073719 0.041698 0.021790 -0.051239 0.002149 0.103144 0.137954 -0.013138 -0.009055 0.089086 -0.065453 0.132892 0.083380 0.022359 -0.028623 0.070282 -0.060869 -0.021054 -0.119211
illinois 0.075008 -0.057483 0.018890 -0.108639 0.160293 0.001155 -0.090146 -0.088251 0.051369 0.060917 0.013324 0.059167 0.016271 0.003670 0.005682 -0.126693 0.165063 0.046793 0.071484 -0.005860 0.075153 0.057301 -0.121441 -0.050762 -0.029229 -0.012057 0.068739 0.051757 0.125382 -0.098361 0.011890 0.012263 0.066974 0.044107 -0.171834 0.063843 0.005258 0.007420 0.023771 0.194650 -0.019700 0.061459 -0.006492 0.059359 -0.096575 0.104339 0.035904 0.028589 0.035415 0.057545 0.056527 -0.014515 -0.057618 0.051465 0.065870 -0.009483 0.030552 -0.069162 0.099325 0.056197 -0.032963 0.096630 -0.044872 0.092299 -0.015904 0.005610 0.009262 -0.066437 -0.053591 -0.027860 0.023429 -0.235204 0.177604 0.076256 -0.296823 -0.007121 0.162077 0.139063 -0.043965 -0.029845 -0.076395 -0.240896 0.064800 0.053066 -0.102719 0.202290 -0.130492 -0.138074 0.166754 0.007677 0.129289 -0.165058 -0.025287 -0.048997 -0.076450 0.130003 0.014513 -0.118856 -0.116357 0.121877 0.062345 0.074091 0.051138 0.023380 -0.066050 -0.164343 -0.015223 0.060187 0.060024 0.016136 -0.018070 -0.129176 0.026005 -0.044779 0.021897 -0.018643 0.115091 -0.011092 -0.096631 0.094699
moving 0.062084 -0.004944 -0.053945 -0.021651 0.028525 0.039011 -0.043297 0.122763 -0.013196 0.140533 0.220500 0.110614 -0.025959 -0.082672 -0.042486 0.020224 0.137783 0.022483 0.196454 -0.038840 -0.059116 -0.017638 -0.037844 -0.095398 0.038312 -0.025057 0.079507 -0.154146 -0.161303 -0.229419 0.177036 -0.048529 -0.048593 -0.061880 0.093398 -0.067146 -0.023458 -0.047900 0.056719 0.022591 -0.015248 -0.068838 -0.033622 -0.054434 -0.141036 -0.088292 -0.039460 -0.017301 0.046269 -0.091771 -0.183808 0.080410 -0.014071 -0.020395 0.032658 0.181821 -0.089153 0.041269 -0.076136 0.105389 -0.140873 -0.035282 -0.060787 0.184203 0.013531 -0.146172 -0.049535 -0.034641 -0.027899 0.146831 -0.002569 0.073331 -0.053453 -0.127320 0.018699 -0.167840 -0.079346 0.025648 0.022109 0.081230 -0.105484 -0.131451 0.072998 -0.138592 0.044887 -0.051120 0.083629 -0.260367 0.052056 0.071967 0.059178 0.167442 0.075411 -0.083891 -0.072497 0.048695 0.023862 -0.064847 0.125558 0.032323 0.106352 0.017251 -0.011639 -0.054949 0.026412 0.032438 -0.013677 0.053560 0.068099 -0.081936 0.006622 0.047046 -0.114022 0.066602 -0.118053 -0.015280 -0.044335 -0.055773 -0.074489 -0.028791
loud -0.062314 -0.034054 0.014772 0.038355 0.046234 0.056380 -0.028209 0.015896 -0.022031 0.081134 -0.174546 -0.085485 0.037203 0.069693 0.022406 -0.104833 -0.027964 -0.158836 0.095906 0.019291 -0.225114 -0.036581 0.039890 -0.004838 0.002826 0.029189 0.063450 -0.125428 -0.000734 0.018232 0.117214 0.005081 -0.078417 -0.063369 -0.157305 0.007237 0.040378 0.085679 -0.101682 -0.005526 -0.036009 0.037039 -0.050314 -0.116796 0.090035 -0.041943 -0.015817 -0.046633 -0.077216 -0.032683 -0.019471 -0.142764 0.139095 -0.079663 0.031504 -0.026036 0.043704 -0.105580 -0.075563 -0.038024 -0.076856 -0.078058 -0.142994 0.027706 -0.166602 -0.077109 0.154473 -0.043573 -0.038127 0.079437 0.009643 0.066778 -0.027939 -0.108067 -0.139356 0.079552 -0.059310 0.022755 0.091457 -0.031214 -0.048604 -0.046794 -0.143602 0.054172 -0.002854 0.277860 -0.023230 -0.021966 -0.005601 -0.032700 0.025324 -0.025185 -0.107091 0.052206 -0.089117 -0.027012 -0.039669 -0.018261 0.102229 -0.093628 0.122495 0.025065 0.208986 0.062429 0.063883 -0.144208 -0.067820 -0.101430 -0.027129 -0.045205 0.016756 0.007603 -0.084599 -0.086424 -0.127106 0.095924 0.201924 0.021066 -0.096108 -0.143843
thai 0.014815 -0.094517 0.003881 0.195099 -0.064590 -0.116361 0.185242 -0.106013 0.142804 0.096565 0.069674 0.032489 0.073874 0.082936 0.071702 -0.029141 0.073314 -0.057729 -0.018026 0.081722 0.038531 -0.007112 0.080738 0.134443 0.055297 -0.020786 0.197389 -0.020638 -0.229759 0.020322 -0.187730 -0.017926 0.107177 -0.128691 -0.164246 -0.224865 0.008330 -0.048147 0.025712 0.138183 0.044849 0.065751 0.160048 0.081478 -0.085539 0.030694 0.007605 0.120578 0.042970 0.046767 -0.197675 0.059223 -0.026654 0.116270 -0.153569 -0.095485 -0.023867 0.081182 0.011305 -0.053506 -0.049727 -0.035179 -0.171909 0.197115 -0.019883 0.062690 0.035381 0.007635 0.067566 0.045225 0.015465 -0.189514 -0.008492 0.052272 -0.087884 0.209432 0.097916 0.105771 0.005330 -0.034708 0.086850 -0.197822 -0.006399 0.029751 -0.123570 0.108511 -0.073880 0.009066 0.120516 -0.026444 0.110094 -0.080152 0.009133 0.083386 0.106040 0.114682 0.153558 -0.023971 0.019298 -0.020037 -0.003660 0.181938 0.018649 0.029029 -0.029734 0.154306 0.033199 0.120966 -0.084236 0.101817 -0.121101 0.048479 0.008234 0.009093 0.035594 0.027047 0.067758 -0.037613 -0.064954 0.127968
croatian 0.033925 0.011075 0.071185 0.030211 0.022871 -0.011850 0.047749 -0.049887 0.005601 -0.147603 -0.056866 -0.020628 0.002691 -0.195178 0.055626 -0.070881 0.088944 0.052042 0.136957 -0.042048 0.002488 -0.042868 -0.022544 -0.139354 -0.091807 -0.126032 -0.081304 -0.173901 0.105314 -0.025348 -0.043235 0.049224 0.170653 -0.136968 -0.035935 0.055602 0.030375 0.152017 -0.187877 -0.006482 -0.196299 0.039454 -0.134514 0.019220 0.116531 0.049353 -0.115981 -0.122115 0.002880 0.014068 -0.055892 0.109863 -0.031666 0.005960 -0.082300 -0.134137 -0.202618 0.050783 0.003833 -0.011171 0.001719 0.119692 0.012482 0.149219 0.018080 -0.040655 0.065974 0.043236 0.027711 0.078740 -0.121389 0.022360 0.112577 0.078047 -0.031482 -0.135247 0.137416 0.012057 0.161352 0.103582 0.026195 -0.064801 -0.177662 0.103645 -0.012877 0.018624 0.010055 -0.075823 0.036111 0.027200 -0.012719 0.030639 0.088643 -0.068876 -0.039712 -0.131458 -0.003622 -0.018500 0.009625 0.065684 0.045710 -0.011152 0.106940 0.157704 -0.078774 0.040773 -0.139578 0.011730 -0.087481 0.062557 0.067877 0.026452 0.034678 -0.235228 -0.054418 -0.125205 0.041297 -0.036895 -0.091451 -0.106112
argentina 0.053777 -0.009578 -0.055160 -0.088362 0.166420 -0.026436 -0.080805 0.105748 0.043121 -0.121537 0.018174 -0.013202 0.020063 0.000030 0.130893 0.135024 0.137245 -0.122099 0.144232 0.153174 0.015824 0.074073 -0.026089 0.077121 0.073455 -0.009059 -0.010483 -0.183856 0.129077 -0.020304 -0.039046 0.096469 0.130529 -0.029128 0.012969 0.100724 0.111905 -0.029578 -0.025203 0.066366 -0.081282 0.137019 -0.065884 0.081320 -0.215825 -0.100818 0.104485 -0.010190 0.046314 0.116226 -0.121307 -0.154711 -0.120299 -0.093774 -0.173446 -0.010991 0.026246 0.015392 0.013026 -0.011513 0.037112 -0.030856 -0.098341 0.097999 0.078511 0.054604 0.048539 -0.026614 -0.060780 0.061776 -0.064708 -0.014288 -0.014505 0.056872 -0.027262 0.071468 -0.060366 0.137981 0.089142 -0.039508 0.042394 -0.095005 -0.085064 0.118607 0.088378 -0.144657 -0.031043 -0.022488 0.034794 -0.129782 -0.070319 -0.131480 -0.080991 -0.033161 -0.017195 0.035718 -0.016927 0.049637 0.054725 0.017030 0.062446 -0.034979 -0.096781 0.019273 -0.022162 0.032150 0.077645 0.006499 -0.110603 0.019037 0.059289 -0.056186 -0.020763 0.104162 0.073074 0.042217 -0.131041 0.097038 0.049138 -0.172586
vietnam 0.107712 0.150534 0.074226 0.008237 0.106963 0.064791 0.068802 -0.093526 -0.036936 0.012125 -0.053262 -0.122407 0.032075 -0.085132 0.034240 0.014622 0.047079 -0.071143 0.087374 0.078106 -0.046116 -0.033885 0.124557 -0.090658 0.168496 -0.071049 0.023264 -0.089759 -0.137410 0.014291 0.049412 -0.093181 0.090799 -0.134640 -0.039156 -0.006936 -0.059262 0.017118 0.097624 0.082938 -0.045213 -0.097150 -0.160467 -0.017313 0.016347 0.137571 0.075222 0.090840 0.092972 -0.018158 0.005509 -0.102159 0.009943 -0.032844 0.155511 -0.050592 0.035915 0.024321 0.089024 0.102445 0.060845 -0.055109 -0.062181 0.049095 -0.002514 -0.010446 -0.014427 0.075866 0.085519 0.114334 0.049533 0.065821 0.030537 -0.053100 -0.063793 0.052503 -0.092600 0.029778 0.029800 0.067766 0.008586 -0.024424 -0.163054 0.112735 -0.004214 0.126765 0.014686 0.014687 0.193923 -0.009887 0.008529 0.175420 0.033132 -0.187138 0.065234 0.118095 -0.050733 -0.075614 0.036615 0.039985 0.004535 0.025051 -0.071680 0.001972 -0.064279 0.063583 -0.029350 0.014062 -0.066906 0.126560 0.232615 0.167643 -0.066254 0.105921 0.143950 -0.086723 0.152417 0.035174 -0.111961 0.071839
norwegian 0.074575 -0.258014 0.010422 -0.146381 0.088564 0.050250 0.134062 0.015745 0.008506 0.205431 0.087548 0.137450 0.060150 0.014940 0.002366 0.030367 0.087748 -0.140589 0.015378 0.023776 -0.096224 0.031888 0.106083 0.114679 0.198032 -0.014477 0.044091 0.028604 -0.066148 -0.028084 0.031511 -0.024302 0.056528 -0.081436 0.042370 -0.167324 0.031478 0.101074 -0.014431 0.126120 0.087045 -0.259096 0.094891 -0.146651 0.049359 -0.050990 0.051658 0.047819 0.035854 -0.033784 -0.023219 0.011569 -0.071635 0.015676 -0.101841 0.065892 0.011387 0.035259 -0.020936 0.120318 -0.007709 0.102489 -0.123688 0.064151 -0.137137 -0.155813 -0.221634 -0.018007 0.200204 0.031986 -0.057819 0.102206 0.086740 0.062849 0.000994 0.099787 -0.112498 -0.091655 0.017740 -0.043249 0.088258 0.096523 -0.024506 -0.011451 0.049698 -0.037192 0.034649 0.081433 -0.031298 -0.068338 0.012532 -0.073958 0.042752 0.014495 -0.158043 0.068501 0.063210 0.014890 -0.076251 0.019068 -0.079131 -0.035955 0.011706 0.113139 -0.086852 -0.029095 0.059203 -0.039288 0.050182 -0.001836 0.053473 0.161366 0.072869 -0.092793 0.065809 0.154039 -0.101419 -0.109614 -0.032751 -0.023354
professionally 0.187710 0.081663 0.034949 -0.002838 0.007615 -0.026752 -0.010889 0.113754 -0.063795 -0.023153 0.052888 -0.013879 -0.059414 -0.018192 -0.150792 0.092632 -0.022952 -0.009105 -0.002223 0.049201 -0.041616 0.048328 0.019281 0.043533 0.004315 -0.043928 0.057919 -0.017420 -0.027757 0.026273 -0.002081 0.097135 0.006061 -0.099982 -0.112846 -0.072508 -0.035446 0.163131 -0.094233 -0.075789 -0.125999 -0.134952 0.165218 -0.138692 -0.061038 -0.062268 -0.110191 0.007784 0.082396 -0.003770 0.198483 -0.154712 0.160823 -0.094048 -0.095104 0.151051 0.089228 0.024106 0.028217 0.083624 -0.025638 -0.104520 -0.140523 0.123909 -0.056327 -0.076956 -0.003524 0.078395 0.054778 -0.045208 0.033525 -0.069630 0.040679 -0.060290 -0.000734 0.033451 -0.002616 0.088864 0.022537 -0.020370 0.029361 0.036020 -0.113892 -0.080081 -0.138694 -0.088363 0.072282 -0.001401 0.111384 -0.070120 0.043285 -0.086686 -0.033927 -0.011408 -0.085335 0.067577 0.037343 -0.021186 -0.011233 -0.115290 -0.017342 0.120870 0.111715 0.146397 0.013884 0.081821 0.013542 -0.003604 -0.009597 -0.100986 -0.016396 0.034157 0.014735 0.005689 0.028366 0.247053 0.059588 -0.139903 -0.092915 -0.042557
argentinean -0.067397 -0.061200 -0.203620 -0.077102 0.154265 -0.057752 -0.059846 -0.087480 -0.014859 -0.018645 -0.008105 0.011838 -0.041099 -0.037189 0.083854 0.161923 0.225491 0.066163 0.207581 -0.020620 0.010052 0.070054 -0.017934 -0.104129 0.066184 -0.053316 0.051786 -0.163472 0.082841 0.033664 -0.095482 0.094846 0.030327 -0.090002 -0.019230 0.113842 -0.048560 0.114855 -0.131850 0.063548 -0.003904 0.130122 -0.050320 0.017885 -0.056461 -0.097206 -0.024995 -0.056504 0.066327 0.004352 -0.189886 -0.146947 -0.108762 -0.061076 -0.150162 0.001780 0.017590 0.078465 0.010169 -0.032872 0.003737 -0.075401 -0.177756 0.024985 0.031758 0.111153 -0.051591 -0.039736 0.144686 -0.002264 -0.094151 -0.110755 0.032053 -0.046888 -0.033710 0.171369 -0.089064 0.161716 0.079548 -0.058077 -0.006595 -0.052999 0.024686 0.070122 0.012951 0.037471 -0.176121 -0.213629 0.157441 -0.082675 -0.155828 -0.080226 -0.051648 -0.013798 -0.056493 -0.088160 0.064567 0.055242 -0.001374 0.001409 0.088579 -0.026992 -0.079366 -0.122572 0.111900 -0.154217 0.075365 0.094046 0.009052 0.065672 -0.088347 0.003161 0.040268 0.001353 -0.157460 0.158573 -0.035296 0.074685 0.007990 -0.108465
louder -0.088802 0.045852 0.093038 0.150419 -0.036625 -0.168704 0.018980 -0.041250 -0.052136 0.024548 -0.070663 -0.034001 0.177827 -0.088734 0.017980 -0.034334 -0.029551 0.013689 0.178853 0.041054 -0.044384 -0.084747 0.081358 -0.002383 -0.051091 0.035542 0.145954 -0.139665 0.036765 0.139445 0.076044 0.084068 0.016817 -0.197717 -0.087376 0.005677 -0.072503 0.076038 -0.029773 -0.015453 0.020118 -0.025824 -0.064013 0.003410 -0.039818 -0.122132 -0.023479 0.037649 -0.024134 -0.058049 -0.019780 -0.095683 0.047121 -0.088351 -0.060353 0.088941 0.132269 -0.071729 -0.063702 -0.120255 0.034041 0.065305 -0.187651 0.029363 -0.076361 0.032442 0.124519 0.053863 -0.125355 0.077080 0.034726 -0.051928 -0.037494 -0.073671 -0.146705 -0.030259 0.013300 0.096099 -0.029418 -0.001436 -0.026580 -0.072735 -0.148478 -0.028290 0.021154 0.101713 -0.083752 0.079120 -0.042016 0.039565 0.051559 -0.063368 -0.198914 -0.070048 -0.010611 -0.019323 -0.115676 -0.149283 0.003330 -0.027649 0.055402 -0.047135 0.091401 -0.008200 0.093119 -0.009879 0.026614 -0.010952 0.057440 0.105903 -0.007999 0.098142 -0.120918 -0.125114 -0.106967 -0.003989 0.263220 -0.012867 0.039335 -0.173991
chicago 0.006206 -0.033246 -0.041461 -0.085790 0.034625 -0.089967 -0.038139 0.106825 -0.063891 0.069583 -0.128610 -0.152147 -0.005067 -0.036118 -0.028431 -0.032129 -0.049386 -0.055088 0.080769 -0.016075 0.137290 -0.016940 -0.001299 0.039801 -0.080157 0.051630 -0.054055 -0.070794 0.084571 -0.085004 -0.101320 0.102440 0.002978 -0.001772 -0.077531 0.052851 -0.142984 0.130532 -0.027433 0.052478 0.061244 0.039642 -0.126944 0.098012 -0.084243 0.040389 0.004548 -0.059155 -0.026842 -0.032059 -0.031464 0.070528 0.018595 -0.098738 -0.185286 -0.215375 -0.014237 0.020005 0.019634 0.016554 -0.033132 -0.105248 -0.113704 0.059414 -0.063607 0.022483 -0.201248 0.044036 0.040099 0.137019 -0.042906 -0.196395 -0.009663 -0.114344 -0.231733 0.057697 0.058671 0.123935 0.145008 0.135709 -0.088477 -0.214251 -0.051794 -0.023809 -0.053620 0.129033 -0.006287 -0.066686 0.044267 0.059216 0.020568 -0.001720 0.015020 -0.070944 -0.003893 0.190609 0.040144 -0.113851 0.010767 0.044673 -0.019554 0.005622 0.048743 -0.051282 -0.101387 -0.084471 0.101257 0.042699 0.049284 0.169002 0.092128 -0.091370 -0.110192 0.050166 0.033946 0.063684 0.144608 0.097345 -0.035951 0.121167
move 0.085514 0.026258 0.090130 0.116849 0.143249 -0.105184 -0.027504 0.017601 0.010552 -0.051871 0.097986 0.085996 -0.039113 -0.077096 -0.051765 0.021569 0.270838 0.035040 0.125256 -0.060676 0.046472 0.141077 0.059824 -0.081733 0.030917 -0.069589 -0.080071 -0.121697 -0.085188 -0.137384 -0.007986 0.030449 0.070370 -0.016527 0.007714 -0.080475 -0.005839 -0.146379 -0.053624 0.085712 0.112658 -0.070940 -0.095736 -0.024376 -0.036141 0.017803 0.056183 -0.105231 0.086096 -0.028408 -0.146560 0.021356 0.002282 -0.240127 -0.111114 0.210458 -0.037676 -0.064640 -0.040839 -0.043248 -0.027432 0.186797 -0.140398 0.088036 -0.013636 -0.104009 -0.059394 -0.111272 0.115434 0.118507 -0.066508 -0.008750 -0.045095 -0.128912 0.021478 -0.056991 -0.011988 0.051079 -0.088694 0.074364 -0.026288 -0.094449 0.198133 -0.012603 0.072321 -0.052142 0.076061 -0.181574 0.061478 0.026179 0.170725 0.097571 -0.041289 0.034215 0.051376 0.051763 -0.040199 0.062322 0.076610 0.019789 0.073266 -0.115475 0.087199 -0.174340 0.061866 0.020072 0.068944 0.088895 -0.117458 -0.015540 -0.021659 0.145029 -0.019932 0.110467 0.018737 0.116424 -0.090803 -0.030699 0.164806 0.009334
thailand 0.023627 -0.012454 0.025733 0.182082 0.108849 0.154390 0.000414 -0.100286 0.044780 0.093420 0.048527 0.144349 0.105879 0.020319 0.174786 -0.106927 0.162034 -0.040958 0.026283 0.044897 -0.117773 0.104835 0.053460 0.174402 -0.082755 -0.064161 0.072061 -0.010477 -0.071381 -0.042508 -0.182749 -0.018802 0.183659 -0.077731 -0.182351 -0.052523 0.024206 -0.131365 0.149617 0.101494 -0.088526 -0.010458 0.169902 0.028564 -0.061488 0.037951 0.038966 0.035515 0.069516 -0.094035 -0.123065 -0.007152 -0.136694 0.080414 0.007148 -0.048041 -0.016371 -0.203163 0.031635 -0.147736 -0.059288 -0.038905 -0.156569 0.122860 -0.014808 0.042776 0.057278 0.028952 -0.043905 0.081140 -0.072993 -0.109924 0.000045 0.135683 -0.045009 0.127582 -0.011718 0.027874 0.053644 -0.199792 0.065200 -0.039000 -0.001419 0.027866 -0.005217 -0.009715 0.039081 -0.051362 0.106012 -0.174279 0.044740 -0.091115 0.071920 0.026451 0.122283 0.020927 -0.052883 -0.010394 -0.022231 0.017348 0.045289 0.172886 0.076563 0.078148 -0.042814 0.095720 0.100276 0.139658 -0.102659 0.031262 -0.219567 0.131690 -0.014499 -0.002507 0.149021 0.139515 -0.020929 -0.100394 0.048441 0.150252
ukraine 0.028762 -0.020171 0.059571 0.100738 -0.031663 0.092686 0.121729 0.148510 -0.038121 -0.137484 0.015430 -0.073297 0.131934 0.080463 0.099110 0.082408 -0.036016 -0.163362 0.003709 0.052974 0.088803 -0.225078 0.262233 0.053069 0.055421 0.135040 -0.074471 0.060803 0.124331 -0.167843 -0.094524 0.055363 0.114598 -0.083710 0.064307 0.125786 0.021813 0.140774 0.022032 -0.025767 -0.010104 -0.076043 0.008919 -0.188250 -0.050855 0.142369 -0.075578 -0.001904 0.023839 0.068291 0.063896 0.094696 -0.108554 0.006121 0.026934 -0.062943 0.106813 0.080600 -0.056491 -0.015582 -0.041854 -0.079666 -0.225996 0.184696 -0.044443 -0.063877 -0.044850 0.032638 -0.202663 0.014858 -0.027259 -0.009234 0.091121 -0.176339 0.069693 -0.054884 -0.000188 -0.174686 -0.009304 0.050521 -0.013810 -0.119663 -0.047393 -0.045171 -0.066850 -0.075027 0.045652 -0.012365 -0.077200 -0.059328 -0.036275 -0.059549 0.008517 0.170407 -0.022138 0.007313 0.119147 -0.258394 0.073110 0.146470 0.139080 0.173852 0.007690 -0.032378 -0.224573 0.010060 -0.110425 0.083585 0.125785 0.122278 -0.088084 0.080891 -0.216905 -0.218698 0.021168 0.064107 0.079487 0.004608 0.072085 0.070204
plano -0.016189 -0.084815 0.024341 -0.097894 -0.006278 -0.002257 -0.127133 0.179326 0.074112 0.153866 0.108865 0.092656 0.106168 -0.061293 0.001409 0.080346 0.002332 -0.014728 -0.050262 0.048545 -0.151619 -0.118884 0.059317 -0.032722 0.035614 -0.042081 -0.015409 -0.078603 0.013103 -0.118737 0.120843 0.071289 0.020108 -0.250520 -0.054483 -0.048380 -0.054164 0.027534 -0.018107 0.127575 -0.058975 0.115821 -0.028086 -0.113762 -0.169022 -0.037038 0.124146 0.024524 -0.037920 -0.055513 0.022271 0.209768 0.022226 -0.077749 -0.021629 -0.006235 -0.034580 -0.150113 0.090230 0.085092 -0.021066 -0.005130 -0.029587 -0.019621 0.184356 -0.007854 0.007383 -0.049752 0.070363 0.215604 0.024457 -0.001358 -0.124768 -0.033837 -0.050295 -0.033489 -0.027070 -0.137742 0.042746 -0.035400 0.061437 -0.149977 -0.081872 -0.068027 -0.030594 -0.108511 0.053825 0.120953 -0.130403 -0.037979 0.011123 0.183010 -0.070983 0.075791 0.053460 0.073935 -0.143633 -0.061125 0.027751 0.135326 0.101665 -0.023087 0.035895 0.096795 0.137298 -0.096234 -0.067544 0.031891 -0.036458 0.162216 0.093411 0.034043 0.015686 -0.209054 0.029719 -0.053005 0.111905 -0.073463 0.001240 -0.127468
texas -0.078827 -0.124309 0.083047 -0.084224 0.146904 -0.041020 -0.163776 0.115429 -0.000059 0.108887 0.019845 -0.020058 -0.054268 0.040260 0.137547 0.151057 -0.027731 0.062058 0.045442 0.099893 -0.034713 -0.027230 0.022553 -0.134836 0.145389 -0.089426 0.112171 -0.073388 -0.006215 -0.210065 -0.056610 0.031539 0.099357 -0.202131 -0.000705 -0.014161 -0.032549 -0.053343 0.063485 0.043799 0.149890 0.146957 0.052958 0.146016 0.036279 -0.020422 0.204954 -0.020108 0.021701 -0.050598 0.029065 0.116816 -0.093399 -0.195552 0.113695 -0.122421 0.070317 -0.221625 0.087606 0.035160 -0.063193 0.063558 -0.085220 0.151427 0.094130 -0.029984 0.025418 -0.152901 -0.001903 0.109287 0.170389 0.007322 -0.033186 -0.028905 -0.111661 0.103599 0.083709 -0.087244 0.149262 0.093788 0.036079 -0.021756 -0.065288 0.147580 0.066803 -0.036571 -0.102408 0.150531 -0.002920 -0.079301 -0.112700 0.054970 -0.025429 0.117949 -0.119695 0.041386 -0.023410 -0.088679 -0.035569 -0.026150 0.069383 -0.015639 0.058096 0.135611 0.172391 0.076459 -0.019819 -0.146410 -0.006396 0.107492 0.021911 0.107029 -0.022199 -0.080730 -0.113946 0.137938 -0.077108 -0.127026 0.062202 -0.002638
tough -0.024848 -0.223703 -0.052664 -0.008007 -0.041186 0.150097 0.065459 -0.184207 -0.097699 -0.119332 -0.001283 -0.154888 -0.053480 0.057777 0.109122 0.040470 0.132876 -0.024600 0.028624 -0.067149 -0.087242 0.060138 0.180945 0.007864 0.145512 0.111419 0.193806 -0.089743 -0.015082 0.088612 0.076329 0.037085 0.085645 -0.267753 -0.166648 -0.044916 0.216814 0.064692 -0.148846 -0.043115 0.019858 -0.066061 0.035922 -0.096968 -0.152435 0.010770 0.113387 0.108893 -0.002080 0.070912 0.025346 -0.027654 0.053462 -0.132959 -0.113207 -0.083791 -0.006110 0.068560 0.045282 0.110776 0.042881 -0.032440 -0.101023 -0.009250 -0.040788 0.095176 -0.050386 -0.050028 -0.030535 0.036917 0.064597 0.106130 -0.092704 -0.015517 -0.010184 -0.009450 -0.030713 -0.170985 -0.050763 0.194916 -0.001449 0.001164 -0.007878 -0.002560 0.106434 0.218592 -0.145960 0.028296 0.040921 0.018985 0.145417 0.069459 -0.047060 0.053629 -0.012204 -0.112084 -0.081430 -0.209326 0.062478 0.053814 -0.059644 0.052299 0.018776 0.184303 -0.168120 -0.162162 0.135075 -0.126569 0.052556 -0.029267 0.066964 0.084468 -0.030992 -0.018377 0.077924 0.012147 0.005173 0.041201 0.066202 0.026220
flying -0.103215 0.060474 0.187761 -0.014740 -0.057858 -0.058455 0.103170 0.085090 0.036215 -0.000127 -0.059530 -0.064325 -0.028761 0.161724 0.119304 -0.063211 -0.119340 0.030940 0.152892 0.162752 0.024555 0.127085 0.065490 -0.110804 0.019513 -0.007464 0.147153 -0.067840 0.104936 0.089316 0.104319 0.127770 0.216309 -0.003763 -0.189556 -0.040980 -0.155141 0.179661 -0.028936 0.002609 0.012994 -0.110215 -0.112498 -0.062397 0.006215 0.004175 -0.068294 -0.087912 -0.058096 0.119659 0.049787 0.080919 0.056736 -0.141605 0.072810 -0.123139 -0.028295 -0.013104 0.061417 -0.118978 0.004826 0.012628 0.084037 0.157345 0.011409 0.069120 -0.053245 -0.003654 0.023077 -0.161139 -0.064397 -0.087279 0.104792 0.172668 -0.028896 -0.122756 -0.088616 -0.054559 0.053401 -0.134148 -0.031247 -0.111708 -0.050266 -0.011262 -0.011705 -0.024221 0.035561 0.088373 -0.026275 -0.071613 0.097814 -0.094609 0.032237 -0.170697 0.000818 -0.092736 0.023921 -0.164527 0.173207 -0.049399 0.047304 0.180543 -0.171281 -0.091170 -0.073129 0.028293 -0.111117 -0.005528 -0.003632 0.070216 0.104040 0.005718 -0.033648 0.055628 0.051052 0.110385 -0.029014 -0.053374 -0.000012 -0.075355
iraq 0.037803 -0.036179 0.063061 -0.175936 -0.039994 -0.010242 -0.009556 -0.084456 -0.014462 0.038837 -0.089949 0.061173 0.017265 0.124485 0.111170 -0.023314 0.049612 0.060379 0.075285 0.152829 0.015100 0.067635 0.082665 -0.073829 0.004118 -0.030555 0.017530 -0.113539 0.068449 -0.120349 -0.049628 0.031917 0.094683 -0.212558 -0.021997 -0.010881 0.091140 0.079864 -0.126819 -0.009876 0.060353 0.017446 0.085540 0.080179 -0.010620 -0.065421 -0.090823 0.093786 0.037496 -0.037030 -0.099634 0.042991 0.190967 0.002437 -0.020393 0.048664 -0.057522 -0.010052 -0.007644 -0.005347 0.002489 -0.068321 0.053769 0.234151 0.007597 -0.006060 -0.080204 -0.040628 0.063726 0.069355 -0.088702 -0.125989 0.187240 -0.070542 0.024501 -0.009635 -0.170190 0.012248 0.135318 0.126824 -0.066531 0.084455 0.038325 0.039058 0.014038 -0.071856 -0.079251 -0.038992 0.118573 0.079847 0.065310 0.059971 -0.086214 0.038690 -0.066005 0.073756 -0.085603 0.042406 -0.013115 -0.097626 0.088818 -0.021612 0.091983 0.190627 0.073863 0.046142 -0.135875 0.058900 -0.180588 -0.067144 0.129939 -0.200162 0.019830 0.024847 0.037714 -0.003645 -0.080399 -0.043241 0.081789 -0.068144
professional 0.161826 -0.029547 0.054094 0.082631 0.046047 0.042438 -0.017833 0.164347 0.085600 -0.064870 0.101125 0.075543 0.044341 -0.070406 -0.189741 0.090225 -0.070874 0.004352 0.060392 -0.049358 -0.110637 -0.015765 0.149166 -0.080554 -0.069314 0.071024 0.133537 -0.060010 -0.047583 -0.085761 0.097720 0.081505 0.122821 -0.056093 -0.079430 -0.024034 0.003035 0.200360 -0.167478 0.026157 -0.132190 -0.027164 0.168340 -0.000602 0.031394 0.038471 -0.060269 0.108264 0.235448 0.092371 0.188366 -0.103224 0.159020 0.041464 -0.123666 0.156051 0.018325 -0.072336 -0.013258 0.117180 0.024798 -0.159578 0.026238 0.130680 0.128644 0.097989 -0.047985 0.062946 0.036316 -0.100678 -0.033744 -0.069717 0.061981 -0.005618 -0.014327 -0.143953 -0.007068 0.075920 -0.013657 -0.046773 -0.110994 -0.052098 -0.134584 -0.002517 -0.156272 0.006013 -0.041624 -0.143758 0.027250 0.069779 0.115992 0.030268 -0.113166 -0.011453 0.019060 0.139823 -0.007015 0.065294 0.035401 -0.037640 0.021621 0.024015 -0.094515 0.182830 0.077669 0.017180 0.007118 -0.014197 -0.061994 0.040318 0.051118 -0.082000 -0.043227 0.080388 0.005715 0.050491 0.130609 -0.149627 -0.001739 0.125519
fly 0.051779 -0.011113 -0.093189 0.089733 0.111183 -0.000176 -0.067277 0.203990 -0.000121 0.157916 0.048836 -0.111495 -0.037473 -0.143147 0.029926 -0.158983 -0.081784 -0.128856 0.095332 0.052997 -0.045084 0.024377 -0.008809 -0.063906 0.054576 -0.152148 -0.042279 -0.070940 0.198505 0.072897 0.004604 0.072256 0.184218 0.075361 -0.115158 -0.033688 -0.115721 0.043355 -0.076034 0.091977 0.009203 -0.026395 0.059561 0.041515 0.101365 0.042413 -0.102034 -0.119619 0.056381 0.111174 -0.090873 0.196894 0.016733 -0.120705 -0.064140 -0.080809 -0.044951 0.018529 -0.040357 -0.068858 -0.082697 -0.030098 -0.045633 -0.025865 0.056245 0.058329 -0.161716 -0.016175 0.123069 -0.103189 -0.033249 -0.055691 0.093236 0.100618 -0.122303 0.022492 -0.051796 -0.025090 -0.022122 -0.186738 -0.019402 -0.008573 -0.024425 0.003968 0.071526 0.028756 0.098330 -0.005169 0.109732 -0.035247 -0.054183 0.034443 0.052331 -0.171476 -0.001123 -0.028524 -0.030553 0.020168 0.150399 0.085262 0.209985 0.046307 0.008687 -0.074398 -0.130002 -0.023339 0.028175 0.104228 0.123160 -0.136043 -0.000831 0.070366 -0.035053 0.095519 0.006589 0.089306 0.026776 0.097727 -0.052074 -0.138058
danish 0.260501 -0.113114 -0.025937 -0.153916 -0.007573 0.136468 -0.191278 -0.016949 0.169398 -0.061984 -0.006132 -0.109885 0.068067 -0.011819 -0.047656 -0.064618 0.002625 -0.034708 -0.006688 -0.006369 -0.059029 -0.114200 -0.033382 -0.068398 0.009652 -0.063848 0.064637 -0.065398 -0.028893 0.098615 0.059023 0.103802 0.094432 -0.271811 -0.114168 0.078969 0.033478 0.037976 -0.033625 -0.140496 0.034201 0.202721 0.046625 -0.095726 0.137271 -0.140012 -0.071315 0.061180 0.052051 0.024270 0.006355 0.016153 -0.012007 0.065588 -0.084010 0.143909 -0.121023 -0.059419 0.017805 0.196254 0.018955 0.106175 -0.018014 0.106547 -0.041902 -0.032989 0.047277 0.032721 0.033563 0.095226 -0.164434 -0.085499 0.059887 0.062596 -0.011092 0.015946 -0.077735 -0.130445 -0.030126 -0.088894 0.146668 -0.034692 0.135809 -0.109045 0.025711 0.014957 -0.017987 0.002778 0.121731 -0.074210 -0.034165 -0.118357 0.028909 0.032942 -0.120175 0.142396 0.080892 -0.049193 0.151523 0.018477 0.155916 -0.016421 0.119034 0.036406 -0.122940 -0.117549 0.055663 -0.047580 0.060608 -0.098126 -0.169590 0.045578 0.090172 0.032746 -0.045792 0.016183 -0.022025 0.188933 -0.028153 0.007851
denmark 0.128860 -0.046726 -0.014225 0.172071 0.095165 -0.070639 -0.103989 -0.046058 0.081391 -0.105375 -0.151925 -0.091517 0.016457 -0.063657 0.111637 -0.019209 0.106469 -0.049814 0.043845 -0.012790 -0.073723 0.020403 -0.063995 0.078663 -0.008665 0.046254 0.016161 -0.145531 0.037030 0.178412 0.005003 -0.002328 0.008004 -0.188135 -0.028593 0.057111 0.051421 -0.002219 -0.120812 -0.099365 0.051680 -0.041905 -0.027475 -0.125915 0.058073 -0.016625 -0.107451 -0.043433 0.012642 0.041584 0.017863 -0.029605 0.008587 0.058658 -0.266960 0.022251 -0.108780 -0.005111 -0.034652 0.147425 0.089627 -0.052654 -0.052073 0.101223 -0.047528 -0.034413 0.092369 0.004999 0.004979 0.087151 0.033211 -0.031967 -0.063861 0.051963 -0.112200 0.096004 -0.073543 -0.106704 0.006398 -0.083562 -0.027159 0.073211 0.072918 0.004113 0.208246 -0.115887 -0.119228 -0.010801 0.121535 0.007427 0.148027 0.051353 -0.125354 -0.041470 -0.061938 0.108996 0.028400 -0.113992 0.048560 -0.113696 0.202589 0.210273 0.164827 0.003570 -0.072452 -0.116591 -0.055392 -0.028343 0.090352 -0.089148 0.101313 0.131666 -0.019924 0.065457 -0.082779 0.033521 0.035873 0.069097 -0.174037 -0.109323
croatia -0.006772 -0.108320 0.067635 0.071919 -0.040271 -0.090237 0.017654 -0.037934 -0.001614 0.051864 0.011070 0.002074 -0.066031 -0.097801 0.111273 -0.084237 -0.043551 -0.060101 0.157178 -0.029117 -0.011110 0.082057 -0.130516 -0.074252 -0.030221 -0.106831 -0.036993 -0.050669 -0.005902 -0.150222 0.053359 -0.055344 0.213162 0.024921 -0.034976 0.085008 -0.040161 0.031805 -0.098332 -0.069340 -0.068812 -0.024348 -0.022243 0.163440 0.129793 0.098255 -0.051426 -0.168454 -0.056146 -0.142403 0.045689 0.217215 -0.059158 -0.157352 -0.078421 -0.130100 -0.130487 -0.151942 0.108181 -0.025821 -0.051476 0.005723 -0.044168 0.217334 -0.010994 -0.138175 -0.045588 -0.029152 -0.054760 -0.060649 -0.030831 -0.100939 0.069742 0.078406 -0.119241 -0.102962 0.080253 -0.090689 0.167707 0.024905 0.022731 0.003436 -0.084938 0.061728 0.094954 0.097100 -0.024502 0.028361 0.015681 0.047517 0.087795 0.045502 -0.005933 -0.108673 -0.048461 -0.080831 -0.124603 0.139717 -0.024781 0.065775 0.039929 -0.015109 0.145139 0.036662 -0.087597 0.131729 0.052260 -0.029527 0.083631 0.191266 -0.058638 0.116050 0.053675 -0.023707 -0.053965 0.055471 0.059267 -0.045909 -0.006574 -0.238843
