hanoi 0.143958 0.080846 -0.017429 -0.093845 -0.089272 -0.006932 -0.069963 0.061566 0.198568 0.100359 -0.074330 0.082575 -0.102716 -0.043482 -0.022803 -0.145532 0.102015 0.057228 0.035363 -0.098561 0.129507 0.023593 0.020482 -0.292269 0.029547 0.099931 0.022754 0.187033 -0.145204 -0.031892 -0.004136 0.032668 -0.082954 -0.005845 0.073684 -0.028021 -0.022155 -0.122060 0.031192 0.050108 0.039382 -0.001445 -0.062029 -0.039353 -0.064192 0.113014 0.114518 0.049459 0.050173 0.104123 0.118020 -0.005189 0.110019 -0.039089 -0.131260 0.079019 0.011231 -0.065001 0.081908 0.061859 -0.001312 0.086460 0.091762 0.088101 -0.069830 -0.060011 -0.020607 0.144251 -0.009976 -0.017101 0.058027 -0.091509 0.079469 0.006204 0.058049 -0.001567 -0.108403 -0.009522 -0.123426 0.126368 -0.254900 -0.014448 0.053687 -0.097579 0.149374 0.032130 0.032533 0.022831 0.166085 -0.215146 -0.007581 0.142799 -0.068528 0.002077 0.038416 -0.056746 -0.112343 0.028082 0.044489 0.053524 0.074426 0.044064 0.059317 0.064010 -0.041491 -0.061139 0.036049 -0.017764 0.024560 0.041584 0.126420 0.122984 -0.010224 0.098589 0.035239 -0.158216 -0.106294 0.068287 -0.027080 0.070813 -0.086578 0.000234 -0.110733 0.184996 -0.044981 -0.002718 -0.034233 -0.036108 -0.003363 -0.041951
tougher 0.156768 0.026137 -0.012799 -0.022348 -0.067129 0.046519 0.008306 0.043164 -0.023572 -0.012034 0.018118 0.174217 0.008287 0.038493 0.081772 0.009021 0.000312 -0.118753 0.157909 0.097665 0.008679 0.072351 0.024065 -0.112530 -0.097293 -0.033949 0.077684 -0.086718 -0.046490 -0.062847 -0.053899 0.025169 -0.009601 0.088891 0.043860 0.093935 0.045717 0.003884 -0.043076 -0.032975 0.073466 -0.133620 0.092579 -0.006738 0.060970 0.131039 -0.009949 -0.115826 0.015281 0.097785 0.088972 -0.123877 0.018959 -0.020160 -0.210745 0.022962 -0.037521 0.047295 -0.095881 -0.040661 0.000086 0.014253 -0.060566 -0.000998 -0.039363 0.057207 -0.076670 0.121511 0.141235 -0.026798 0.030351 -0.004058 0.049074 0.119388 0.023928 0.074806 0.085945 0.161210 -0.009826 -0.069095 -0.037923 0.109791 -0.039267 -0.010824 -0.092851 0.022522 0.033773 -0.153937 -0.022464 -0.174894 -0.105278 -0.005949 0.157849 -0.124899 0.010075 -0.007710 -0.018629 0.040589 0.146774 -0.005010 -0.144787 -0.032209 -0.151529 0.058651 0.037063 -0.101848 -0.115935 -0.029102 -0.001735 0.005366 0.000463 -0.076290 -0.048188 0.009956 -0.026732 0.043638 0.055039 -0.034206 0.219296 0.084999 -0.001934 -0.057885 -0.148599 0.071508 -0.000418 -0.112658 -0.142190 -0.099067 -0.068042 0.183091
occasionally 0.039394 0.124862 0.135214 0.100923 -0.065630 -0.010758 -0.034724 0.189280 -0.144240 -0.187877 0.205772 0.187382 0.068035 0.094062 -0.113094 -0.121690 0.096792 0.010122 -0.051650 0.017929 -0.017463 -0.076605 0.124440 -0.064847 -0.026424 -0.047574 -0.044996 0.038877 0.126082 0.148814 -0.014256 0.124572 -0.076709 -0.053534 0.177533 0.039782 -0.004369 0.019000 -0.027387 -0.033835 0.095007 0.130044 -0.052457 -0.183725 0.085060 0.022864 0.000919 0.036694 0.036649 0.004770 0.004422 0.240110 -0.010894 -0.054551 -0.140112 0.053839 -0.049763 0.183388 0.089651 -0.040888 0.013793 0.079451 0.040421 -0.077027 0.050628 -0.074533 -0.125332 -0.035708 0.071026 -0.003753 0.017008 0.062773 0.037328 0.144176 -0.032695 0.004142 -0.056436 -0.036928 -0.012628 0.014415 -0.119798 0.115936 0.014847 -0.092300 -0.014559 0.014005 -0.043787 -0.003353 -0.002255 -0.020668 -0.051938 0.085088 -0.011365 0.043737 -0.005667 0.075307 -0.050160 -0.072456 -0.060019 -0.062857 0.069930 0.049428 0.051010 -0.017171 -0.017484 -0.086400 -0.159288 -0.100582 -0.015116 -0.012444 -0.011937 -0.065150 -0.083521 0.064463 -0.031629 0.064471 -0.054091 0.006064 0.024058 -0.022126 0.062966 -0.021044 0.055434 -0.122256 -0.018648 0.093214 0.129682 0.259234 -0.127060 -0.023912
ukrainian -0.077123 0.036725 -0.022997 0.079369 -0.046413 -0.101537 -0.133265 -0.115266 0.089400 0.016806 0.051292 -0.056945 0.056118 0.071260 -0.083759 -0.140825 0.136165 0.051326 0.172231 0.086303 -0.089422 0.057843 0.101543 0.017256 0.071125 0.001377 -0.020227 0.051777 0.088216 -0.084148 0.068552 -0.054806 0.058827 0.067231 0.107237 -0.070610 -0.083664 -0.091302 0.115686 -0.118304 0.002211 -0.014543 0.073209 -0.041044 0.102961 -0.002823 0.011840 -0.053269 0.047050 -0.009088 0.213563 0.087594 -0.044732 0.175018 -0.235808 0.019403 -0.144342 -0.020852 0.120026 0.092631 0.148449 -0.049879 -0.140572 0.028463 0.021909 0.137810 0.100201 -0.071865 0.056353 -0.140258 -0.084241 0.054783 0.057644 0.103910 -0.040876 -0.089311 -0.094222 0.076332 0.090096 -0.049771 -0.111802 0.035600 0.098472 -0.025029 -0.055946 -0.075654 0.021092 -0.094585 -0.046630 -0.003446 0.170920 -0.054783 0.013599 -0.026618 -0.053548 0.026125 0.063138 -0.029426 0.025828 -0.048117 0.144096 0.017502 -0.073395 -0.182830 -0.007259 0.106622 0.027363 0.123467 -0.074813 0.162248 0.130906 0.055508 0.126474 0.015847 -0.052726 0.013476 -0.118113 0.014462 0.058738 -0.047154 -0.040764 -0.036991 0.047171 0.129928 0.042201 0.031239 -0.062665 -0.004755 0.082775 0.169643
occasional -0.037325 0.112208 0.101738 0.084794 -0.149629 -0.050007 -0.041574 0.157132 -0.021718 -0.083435 -0.096069 0.081600 0.059207 0.074471 -0.074711 -0.041289 0.146478 0.020885 0.147843 0.118737 -0.044469 -0.078370 0.040879 -0.002146 -0.070492 -0.081687 0.058198 0.099460 0.152467 -0.017452 -0.039395 -0.052255 -0.075990 0.081618 -0.001712 -0.055721 0.033555 0.066732 0.007223 -0.102849 0.102477 0.064175 -0.048198 0.038595 -0.032485 -0.028882 0.125504 -0.044701 -0.024566 -0.011980 0.091667 0.130551 0.104694 0.027513 -0.054893 -0.082068 0.054308 -0.053534 0.028474 -0.051791 -0.010442 0.008110 -0.016403 0.043911 0.045655 0.250866 -0.116853 0.014502 -0.033920 -0.123237 0.020986 0.059981 0.023456 -0.011023 0.043426 -0.048344 -0.107231 0.112367 0.026971 0.003756 -0.085922 0.014805 0.063062 -0.046247 -0.097275 -0.009221 -0.011581 0.086419 -0.059585 -0.104108 -0.064762 -0.075317 -0.027453 -0.167308 -0.061064 0.010370 -0.024047 -0.109687 -0.006319 0.035598 -0.045933 -0.155068 0.003486 -0.019461 0.037377 -0.096658 -0.076807 -0.212908 0.020642 0.116084 0.022656 -0.122986 0.174952 -0.132789 -0.013514 -0.099464 0.004981 -0.020197 0.162406 -0.030774 -0.043330 -0.094275 0.065247 -0.207822 -0.011008 0.099901 0.098353 0.168134 -0.221759 0.074765
norway -0.159262 0.034531 -0.043328 0.034669 0.062776 0.001561 -0.038416 0.055799 0.088808 -0.021716 -0.133490 -0.127314 0.037665 0.155405 0.129842 -0.208194 -0.036779 0.119858 0.064984 0.098430 -0.109643 -0.149459 -0.040954 -0.039957 -0.055300 -0.031891 0.195642 -0.061821 0.044385 0.059719 0.015261 -0.008317 0.042698 0.044232 0.034943 0.026527 -0.059107 0.031899 0.004045 -0.023029 -0.010991 -0.096503 -0.091210 0.081359 0.030152 -0.008804 0.144465 0.014578 0.117355 -0.024119 -0.011926 0.119158 -0.073431 0.058596 0.035001 0.112041 0.003234 -0.015671 -0.041825 0.104533 0.041078 0.102894 -0.122889 -0.145430 -0.133045 0.031875 -0.114220 -0.011049 0.138077 -0.101567 0.131491 -0.106198 -0.012391 0.017171 0.101334 0.067489 -0.003294 -0.076443 0.044156 -0.068944 0.025932 0.080368 0.079898 0.041491 0.051103 0.019536 0.034318 -0.117738 -0.038048 -0.028582 0.167828 -0.097970 0.118355 -0.035328 -0.016144 -0.098874 0.039191 -0.109221 0.070693 0.014700 -0.061215 0.036236 -0.111980 0.039766 -0.012439 0.123591 0.006190 -0.119665 -0.019879 0.150028 0.046135 -0.077178 0.021889 -0.020256 0.004107 0.079770 0.015110 0.088776 0.047611 0.144775 -0.027297 0.106242 0.080021 0.183179 -0.011335 0.068910 -0.074489 -0.003390 -0.009123 -0.052231
baghdad -0.015128 0.047290 -0.096481 0.007367 0.003449 -0.028834 -0.028338 0.092296 -0.059698 -0.000097 -0.003317 -0.105708 -0.129487 -0.022530 0.191059 -0.202244 -0.078793 -0.058514 -0.021584 0.106472 0.002818 0.064030 -0.259905 -0.233884 -0.092433 0.056154 0.025300 0.098970 0.077037 -0.075012 -0.015985 -0.008961 -0.105334 0.025320 -0.044643 0.011530 0.136236 -0.031626 0.089442 0.066697 -0.017503 0.042544 -0.028527 0.132222 -0.054668 -0.005219 0.090759 -0.028756 0.011954 -0.172978 -0.040857 -0.082102 0.009636 -0.163954 -0.190504 -0.023487 0.013937 -0.032487 0.126324 0.098335 0.073208 0.018042 0.085649 0.013862 0.223533 0.095043 0.064481 0.084448 -0.077549 0.107061 0.032241 -0.095998 -0.014971 0.075304 0.063136 0.090479 0.193266 0.054922 -0.149704 -0.101566 -0.105481 0.165289 -0.064016 -0.069709 -0.045276 -0.130562 -0.078915 0.021797 -0.089674 -0.161781 0.076513 -0.081704 0.091885 -0.166043 -0.038080 0.186953 -0.124931 -0.076113 -0.123080 -0.091008 -0.018008 -0.017351 0.027013 0.090132 -0.061126 -0.022928 -0.041093 -0.072949 -0.167750 -0.037972 -0.040566 -0.131782 -0.015996 0.027890 0.129671 0.079353 -0.088723 0.052353 0.029314 0.138565 -0.047331 0.053201 -0.025318 0.103946 0.086448 -0.046667 -0.081294 0.142555 -0.171751 0.122970
illinois 0.111880 -0.060907 -0.001133 0.078896 0.026060 -0.010165 0.165124 0.041359 0.004602 0.083826 0.001459 0.063001 0.005203 -0.154515 -0.034126 -0.061584 0.038589 -0.112154 -0.080680 0.128429 0.054416 0.000456 0.010968 0.064745 -0.046074 0.084300 -0.025956 0.060221 -0.148583 0.020991 0.040572 -0.088327 0.086082 0.029704 0.130888 0.058357 0.019745 0.107151 0.079430 -0.006603 -0.023245 0.061697 -0.029869 -0.033000 -0.027659 0.206089 0.047828 0.065762 0.100953 0.060997 0.065746 -0.000631 -0.149581 0.083040 -0.031907 -0.050990 0.015384 0.136976 0.096981 -0.039409 0.070033 -0.030425 -0.059014 -0.073826 -0.037699 -0.001270 0.032996 0.011129 -0.055899 -0.099715 0.007152 0.062630 0.065498 -0.132068 0.063842 0.088909 0.097906 -0.028192 -0.023090 0.010646 -0.145668 0.012924 -0.056298 -0.169847 0.186804 0.055654 0.015569 0.078254 0.257241 -0.137070 -0.089797 -0.008492 -0.007417 0.047057 -0.150360 -0.020069 0.063478 -0.014202 0.133165 -0.173995 -0.049766 0.150190 -0.069485 -0.002930 -0.084888 -0.095017 -0.007828 -0.036942 -0.017341 0.123551 -0.058066 -0.071928 -0.038557 0.166705 -0.071869 0.008529 0.163749 -0.008837 0.047552 0.067634 -0.049937 -0.142241 0.056315 -0.196572 -0.022995 0.037201 -0.081032 0.213766 -0.117959 -0.037435
moving 0.001070 0.034004 0.107033 -0.014993 -0.008201 -0.064324 -0.199261 0.008197 0.091042 0.006995 0.129847 -0.109251 -0.050951 0.051238 -0.015760 -0.028239 -0.007142 -0.081381 -0.002641 0.037193 -0.069663 0.008300 0.076023 -0.185798 -0.136979 -0.022871 0.060437 -0.129205 0.010315 0.012061 -0.086112 -0.004665 -0.024627 0.023989 -0.017939 -0.097795 0.065919 -0.021227 -0.078831 -0.008272 0.029947 -0.076015 -0.070173 -0.077434 0.133593 -0.074422 0.004086 0.057444 -0.012516 -0.013324 -0.102234 -0.037765 -0.184744 0.134322 -0.230061 -0.035892 -0.077405 -0.063382 -0.007450 -0.008729 0.058305 -0.085580 -0.094751 -0.127150 0.113375 0.108506 -0.063407 -0.047513 0.006748 -0.018442 0.201538 -0.251033 0.043369 0.003843 0.046586 0.051888 0.076304 0.021103 -0.132080 0.170391 0.049905 0.090252 -0.050944 0.100526 -0.014586 -0.013257 0.025275 -0.007395 0.033967 -0.077559 0.015911 -0.098202 0.043891 -0.110940 0.003107 -0.041460 -0.017546 0.036417 -0.146162 0.023073 -0.037705 0.046749 0.063994 0.019721 -0.124458 0.200444 0.069084 0.030672 -0.009764 0.062922 -0.087202 -0.114753 -0.089302 -0.135956 -0.065324 0.051288 -0.082439 0.185632 0.058813 0.119741 -0.103794 -0.017109 -0.060265 0.072896 -0.028917 0.032558 0.019343 0.005136 -0.069369 -0.080737
loud 0.076622 0.081445 0.029200 -0.121285 -0.025359 0.133643 -0.048429 -0.026801 0.041115 -0.075580 0.019557 0.027950 0.032823 -0.007856 -0.074630 -0.138034 0.022237 -0.053646 0.041549 0.030457 -0.087802 0.070719 -0.046301 -0.054727 -0.077949 -0.069945 -0.011139 0.032207 0.014096 0.021519 -0.143405 0.010566 0.004984 0.146081 0.071217 0.167527 -0.046804 -0.103873 0.047946 0.098215 0.134275 0.044264 -0.047637 -0.092812 0.066961 -0.024639 0.067816 -0.043443 0.037573 -0.001462 0.045647 0.052163 -0.004038 -0.036938 -0.108620 0.045717 -0.041356 -0.060333 -0.006064 -0.029540 -0.054560 0.186455 -0.052787 -0.027719 0.029891 0.063224 0.034369 0.051489 0.059727 0.018875 0.114317 0.063066 0.202238 0.075035 -0.082043 0.091791 0.039513 -0.002910 -0.097651 0.059213 -0.061942 0.183167 0.107814 0.091932 0.026019 0.016394 -0.094591 0.117473 0.071523 -0.054668 -0.067027 0.102616 -0.020446 -0.002159 0.071895 0.033733 -0.079081 -0.009826 -0.038862 -0.083691 0.010396 0.108541 -0.145788 0.046300 0.065073 -0.010639 -0.123269 -0.047690 0.023929 -0.117093 0.014855 -0.092273 0.107904 0.081843 0.048768 0.031427 -0.169725 0.089420 -0.038818 0.075652 0.075575 -0.052951 -0.010447 -0.044959 -0.021954 -0.020708 -0.037786 0.099234 -0.185649 -0.009807
thai -0.064614 0.033454 -0.131844 -0.030133 0.042275 0.088598 -0.072796 0.002639 0.041895 0.061313 0.064135 -0.020817 -0.026711 0.105718 -0.068426 -0.153338 0.056202 0.017212 -0.054195 0.155206 -0.019855 -0.062120 0.082779 0.072037 0.086199 -0.041447 -0.028116 -0.051328 -0.023055 -0.040780 -0.007060 -0.068197 -0.164371 0.009545 0.008078 -0.017938 0.069467 -0.115839 0.214251 -0.098326 0.089219 -0.047600 0.180663 -0.025494 -0.109861 0.164879 -0.087399 0.075650 0.229444 0.044377 -0.051375 0.040022 -0.174923 -0.052443 -0.071303 0.078641 0.071898 0.071805 0.011944 -0.096702 0.103291 0.084826 -0.021331 0.006525 -0.045314 -0.072319 0.045286 -0.142167 -0.009944 -0.024075 -0.083094 0.037592 -0.218525 0.068887 0.034517 -0.020133 0.055486 0.056861 0.090096 0.053819 -0.041978 0.177704 -0.024859 -0.044032 -0.040791 -0.064295 -0.032717 0.043536 0.080411 0.008636 -0.134717 0.000022 0.119105 -0.112894 0.044948 -0.086961 -0.050925 -0.008148 0.192751 -0.179154 0.006205 0.039860 0.065916 -0.041060 0.192165 0.015859 0.091408 -0.020472 -0.023012 0.217383 -0.024595 -0.148184 0.057657 -0.066115 -0.114255 -0.011945 0.145230 -0.058598 0.067661 -0.131083 0.039010 -0.042214 0.021469 -0.042570 -0.123005 0.103005 0.204395 0.076349 0.015182 0.114234
croatian 0.039792 0.005228 0.053782 0.181338 0.016778 0.006794 -0.048950 -0.042694 -0.060509 -0.012959 0.066352 -0.052208 0.060888 -0.137291 0.031400 -0.047851 0.130568 -0.008330 0.059007 -0.047953 0.203387 -0.092109 -0.021285 -0.031252 0.023317 0.016031 0.105726 -0.047805 -0.079185 0.179420 -0.049719 0.095040 0.074477 -0.059685 0.184186 -0.076742 -0.041424 0.002688 0.089420 -0.078302 -0.070788 0.081437 0.009749 -0.162735 -0.115046 0.152559 0.015347 0.011870 -0.144997 -0.010084 -0.041403 0.014183 0.010723 0.106617 -0.093894 -0.075291 0.000715 -0.051384 -0.038290 -0.097091 0.029837 -0.058759 -0.007502 -0.004617 0.021950 -0.013724 0.028166 0.061429 0.002625 -0.008145 -0.007756 0.064688 -0.005292 0.012178 -0.031010 -0.053605 0.130801 -0.073176 -0.048438 -0.117475 -0.040285 0.245669 -0.024915 -0.010377 0.153798 0.055670 0.053972 -0.130569 0.077116 -0.106953 0.069347 -0.020524 0.036423 -0.108488 0.071927 -0.019176 -0.014340 -0.043549 0.058575 -0.041007 0.071884 0.042460 -0.172039 -0.056416 0.094897 0.009879 0.055469 -0.042577 0.124020 0.051509 -0.056346 0.110355 -0.047162 0.066313 -0.153032 0.143851 0.090450 -0.189044 -0.001038 0.064752 0.007108 0.066436 -0.094397 -0.080096 0.144205 -0.054684 0.021168 0.080057 -0.106135 -0.089131
argentina 0.051240 -0.154212 0.012541 0.139635 0.025848 -0.129370 -0.131648 -0.108169 0.035428 0.015857 0.077799 -0.047800 0.052585 -0.000406 -0.092789 -0.010765 0.095847 -0.158209 0.120537 0.026482 0.123325 -0.040799 -0.077703 0.057907 0.112115 0.066229 0.094788 0.056093 0.080221 0.028068 0.082038 -0.047630 0.124289 0.020163 0.062115 0.065991 -0.103909 -0.167308 0.148242 -0.078789 -0.063546 -0.025928 0.017040 0.043113 0.039976 0.075101 0.024496 -0.059365 0.195011 -0.048666 0.060299 0.084795 0.072249 -0.027410 -0.078793 0.040944 0.107374 -0.008607 0.038970 0.066436 0.022708 0.055355 0.029086 0.052394 -0.055965 -0.029002 -0.014569 0.148477 0.025591 -0.041332 0.055406 0.027973 0.017003 -0.007686 0.100528 0.079565 0.133794 0.127661 -0.003183 -0.074349 -0.047267 -0.081129 0.029213 0.075002 0.128640 -0.074951 0.033371 -0.039016 0.054944 -0.004066 -0.083995 -0.016414 0.093915 -0.143275 -0.115749 -0.007893 0.020972 -0.070021 -0.078649 -0.093341 0.112983 -0.048792 -0.014927 0.073475 -0.001908 0.022732 0.070447 -0.024772 -0.030441 0.135170 0.229293 -0.092800 -0.023413 -0.007433 -0.001453 0.076062 -0.079154 0.171769 -0.083716 0.052355 -0.104583 -0.061868 -0.091201 0.115306 0.033827 -0.018419 0.030025 0.016708 0.037886 0.179651
vietnam -0.061577 -0.091013 0.019380 -0.029205 -0.041264 0.010021 0.017535 -0.029293 0.060072 -0.067131 -0.045978 -0.069811 0.060910 -0.017199 -0.111599 -0.091075 -0.077582 -0.022183 0.048874 -0.073650 -0.096791 0.124098 0.143643 -0.120087 0.189922 0.128991 0.054070 -0.028999 -0.093735 0.055627 -0.279996 -0.130628 -0.089377 -0.108244 0.028635 -0.115680 0.061552 -0.043427 0.137264 -0.016160 0.095952 -0.081480 -0.045708 0.027359 -0.110346 0.153434 -0.010854 0.123208 0.019660 -0.021150 0.006076 0.015820 0.073132 -0.010649 -0.166982 -0.066994 -0.138889 0.050221 0.224184 0.156914 0.000560 0.059885 0.016273 0.242359 -0.031386 -0.020971 -0.049599 -0.036762 -0.067212 0.008771 0.123077 -0.088393 -0.011732 0.036173 -0.014144 0.015756 -0.020130 0.067963 -0.089249 0.131976 -0.050303 -0.071095 0.015107 -0.030092 -0.045453 -0.042310 0.025101 -0.119107 0.133599 -0.080988 -0.048510 0.081272 0.146534 0.014594 -0.063934 -0.031591 -0.056671 0.071324 0.114993 -0.021949 0.077749 -0.056823 -0.039127 0.057080 -0.038502 0.064245 -0.116863 -0.075185 0.064883 -0.045749 0.114437 -0.158977 -0.050922 -0.032601 0.008525 0.078811 -0.068735 -0.088783 0.009197 0.080118 0.058530 -0.048069 -0.006613 -0.040804 -0.024439 -0.069114 0.008013 0.170148 -0.065977 -0.080923
norwegian -0.065268 0.062976 0.018880 0.007630 0.053623 -0.095659 0.105579 0.037593 0.065031 0.056425 -0.092587 -0.200933 0.041126 0.103156 0.203144 -0.160485 -0.052792 0.087982 0.145260 -0.019457 -0.093390 -0.032985 0.124130 0.024727 -0.022684 -0.040464 0.120250 0.024364 0.061681 0.008230 0.003473 -0.041963 -0.110575 0.037797 -0.038386 -0.027681 0.014978 0.060020 -0.112959 -0.021589 0.026957 -0.074647 0.049867 0.051778 -0.161844 0.043387 -0.007781 0.150428 0.082251 -0.017903 -0.029111 -0.009955 0.030778 0.065294 -0.052226 0.049230 -0.009229 0.010287 -0.029964 0.073825 -0.072255 0.135280 -0.074407 -0.128049 -0.084658 0.126624 0.001559 -0.009767 0.064464 -0.085082 0.087356 0.055654 -0.098064 -0.083097 0.126479 0.147032 -0.105223 -0.051282 0.057042 -0.011772 -0.095837 0.041725 0.058176 0.031158 -0.003238 0.028252 -0.022982 -0.032005 -0.127522 -0.047187 0.097388 -0.138195 0.115816 0.039634 0.103784 -0.090734 -0.000758 0.059238 0.097635 0.091226 0.020250 -0.030516 -0.094944 0.177104 -0.000489 0.175189 -0.067844 -0.058955 0.071371 0.094644 0.109181 -0.014042 0.033377 -0.234883 0.021309 0.011631 -0.017659 0.027682 0.165428 0.129332 0.048536 0.092914 0.101115 0.088121 -0.127456 0.078513 -0.063837 0.059991 -0.122674 0.079505
professionally -0.118331 0.124864 0.182423 -0.192466 0.088359 0.009489 0.115875 0.028625 -0.012840 0.186685 -0.110500 -0.047125 -0.029080 0.072077 0.004118 -0.182961 0.003154 -0.019381 -0.029879 0.064776 -0.045569 -0.029788 0.050126 0.013146 -0.028594 -0.013311 0.050644 0.217606 -0.120557 0.111245 0.029874 -0.159291 -0.019528 -0.026082 0.082354 0.086728 -0.143152 0.013770 -0.051018 0.082939 0.050349 -0.139584 -0.065996 -0.077609 -0.048050 0.110833 0.084212 -0.099305 0.180020 0.042255 -0.013826 -0.059862 -0.078917 0.001605 -0.034082 0.014572 0.043983 -0.020902 0.073712 0.103960 0.018444 0.024987 0.062772 -0.069439 -0.056454 -0.022784 -0.065911 -0.037905 0.026762 -0.029538 0.101468 -0.030249 -0.044558 0.038934 -0.047354 -0.029945 -0.066000 0.060929 -0.047505 0.028326 -0.213984 0.253146 0.033218 0.079963 -0.038017 -0.036069 -0.098188 0.021483 0.043571 -0.066067 0.147991 0.042847 0.055882 -0.017295 -0.015725 -0.070232 -0.024762 -0.017131 0.029414 -0.071695 0.087673 0.071098 0.052432 0.105434 -0.037429 0.082534 0.034821 -0.078031 0.064467 -0.012250 0.023571 0.048758 0.055993 0.021496 -0.001876 0.083498 -0.159325 0.059572 0.058834 -0.059212 -0.017405 -0.007868 0.003482 -0.048195 -0.086666 -0.011839 0.065479 -0.030136 -0.049937 0.070799
argentinean -0.001261 -0.096619 0.018851 0.078840 0.100543 -0.010117 0.032103 -0.037769 0.003209 0.065049 0.220858 -0.039682 0.102470 0.077178 -0.101776 0.010169 0.187981 -0.090671 0.193773 0.021015 0.015643 -0.014275 -0.118992 0.150746 -0.042231 0.190271 0.121023 -0.019731 0.015408 0.052756 -0.009068 -0.065264 0.055656 -0.147466 0.076284 0.069490 -0.093331 -0.095839 -0.028430 -0.033055 -0.061391 -0.046567 -0.068025 0.036693 0.044264 0.082443 0.153361 -0.024400 0.186165 -0.147597 -0.045093 0.080743 -0.145284 -0.054745 0.069854 0.137634 0.089217 -0.183737 0.007182 0.138487 0.201683 0.074756 -0.032633 -0.045078 0.115432 -0.022092 0.060098 0.129005 0.078943 0.008615 -0.075013 0.016150 0.130477 -0.037875 0.157002 0.086624 0.172518 -0.014604 0.062594 0.068642 0.046197 0.093573 0.119234 -0.059093 0.092300 0.031495 -0.046629 -0.012313 0.020231 -0.055714 -0.154264 -0.048961 0.051982 0.011927 -0.011225 -0.078533 0.090350 -0.146258 0.028993 0.034940 -0.052535 0.006686 -0.021086 0.103266 0.055350 0.018229 -0.024783 -0.093749 0.106608 0.062539 0.148616 -0.126045 -0.046707 -0.068711 -0.097103 0.042694 -0.044839 0.175464 -0.087259 0.041103 -0.084044 -0.146268 -0.010197 0.020160 -0.186926 -0.022130 -0.083325 0.076663 -0.091322 0.028757
louder 0.014151 0.137259 -0.003845 -0.003987 -0.036781 0.036967 -0.119625 -0.094953 -0.000284 0.035908 -0.050696 -0.025300 -0.054484 0.102840 -0.170604 -0.093307 -0.022833 -0.005038 0.133875 0.004537 0.107051 -0.122197 -0.024157 -0.056432 -0.016189 -0.004243 -0.037937 0.028258 0.000051 0.089011 -0.077727 0.014927 0.047551 0.125214 -0.005795 0.059308 -0.172121 -0.079384 0.019423 0.062217 0.049772 0.017581 0.021322 -0.132713 0.130627 -0.051389 -0.016744 0.011319 0.048831 0.020709 -0.015635 -0.103990 0.093412 -0.040968 -0.058119 -0.013838 0.013069 -0.020580 0.080520 0.098462 0.050588 0.137602 0.026453 0.033712 -0.082080 0.013150 0.218163 0.003200 -0.042292 0.062240 0.058273 -0.004533 0.149039 0.023420 -0.058128 0.098767 0.022863 -0.036210 -0.005029 -0.083218 0.029004 0.184627 0.120142 -0.109056 0.033808 0.034572 0.027760 0.003946 0.053234 -0.029990 -0.127493 0.037661 -0.015578 0.044072 0.128556 0.003669 -0.009818 -0.000229 -0.058883 -0.146822 0.090642 0.044616 0.054822 0.066159 -0.140315 -0.152448 -0.034012 -0.027004 0.019589 -0.060579 0.050456 -0.147004 0.049077 0.109775 -0.024926 0.021014 -0.006345 -0.134584 -0.074327 0.065832 0.040420 -0.103622 -0.057383 -0.067677 -0.017456 0.070164 0.052957 0.103292 -0.186157 0.109569
chicago 0.003505 0.068163 -0.039330 0.070967 0.042166 0.009054 0.008532 -0.024982 0.058511 -0.086404 -0.032967 0.022797 0.053828 0.023913 -0.130723 -0.018507 0.025058 -0.032045 -0.031495 0.103937 0.020850 -0.107918 0.090147 0.162487 0.030073 0.021556 0.095781 0.012403 0.004407 0.067144 0.180839 0.016709 0.079105 -0.040263 0.034977 0.070611 -0.050978 0.099909 0.023009 0.160134 -0.084802 0.027791 -0.092893 -0.030364 0.026105 0.282373 0.071656 0.105449 0.151632 -0.090631 -0.103470 0.070004 -0.097341 0.059721 -0.125608 0.144557 -0.043062 0.019876 0.092182 -0.061602 -0.011116 0.049186 0.076364 0.046304 0.213024 -0.120470 -0.018437 -0.022788 0.038170 -0.005369 -0.081839 -0.137254 0.001267 -0.164161 -0.077077 0.043797 0.018919 -0.032340 -0.046810 0.088934 -0.127867 -0.050383 0.062622 0.022877 -0.065105 0.113099 0.023971 0.031154 0.214005 -0.056988 -0.050863 -0.017011 0.053388 -0.079927 -0.062920 0.083419 -0.079469 0.035469 -0.014098 -0.000210 -0.103972 0.019640 -0.075186 -0.020872 -0.185101 -0.089667 -0.107685 0.117976 0.080784 0.000189 -0.141660 -0.034172 0.122177 0.172318 -0.181418 0.069078 0.041036 0.033783 0.141197 0.125876 -0.262500 -0.093122 0.076046 -0.081257 -0.035620 0.098096 0.026324 0.203055 -0.125159 -0.084093
move 0.060132 0.041248 0.093197 -0.002652 0.062499 0.012339 -0.060805 0.038034 -0.002195 -0.070650 -0.046895 -0.190841 0.039130 0.007185 0.030358 0.196514 0.176237 -0.013050 0.002571 -0.116761 -0.030971 -0.048624 0.143390 -0.079451 0.063852 -0.082096 -0.064678 0.026334 0.102246 0.044998 -0.001658 -0.001948 -0.003497 -0.092482 -0.084925 -0.018876 0.047764 -0.135246 -0.095876 0.045332 0.116736 0.121570 0.117826 -0.107863 0.171906 0.043812 0.020780 0.170308 0.069138 0.023256 -0.090948 0.065144 -0.194146 0.098767 -0.053427 0.071981 -0.033769 -0.071198 0.155670 -0.076315 0.074256 0.011476 0.051495 -0.058458 0.105662 0.093746 0.033714 -0.040019 0.056699 -0.062146 0.085882 0.012080 0.051124 -0.021263 0.190124 0.174117 0.034126 -0.028635 0.066672 0.245689 0.072455 0.147241 -0.054096 0.176034 -0.016499 -0.084467 0.108172 0.031359 0.010521 0.018276 0.000707 -0.075244 0.027127 -0.047023 -0.028247 0.013525 -0.055425 0.061596 -0.046319 -0.196696 0.024537 -0.133302 -0.011525 0.141954 -0.021950 0.246455 0.010464 0.015489 0.013182 0.122656 -0.038137 -0.260750 -0.066767 -0.066676 -0.083877 0.056504 0.049536 0.014987 0.023261 -0.018044 -0.138440 -0.133118 -0.021129 0.041164 -0.037993 0.071193 -0.035822 0.026030 0.062579 -0.104548
thailand -0.023766 0.049745 -0.109636 -0.053443 -0.075552 -0.022437 -0.178535 -0.078828 0.187887 0.069944 0.043762 -0.060687 0.092073 0.064054 -0.047687 0.018416 0.105705 -0.041744 0.167031 0.155118 0.048093 -0.077127 0.040962 0.050108 -0.105955 0.072338 0.000535 0.103596 0.014784 -0.063678 -0.017924 0.034916 -0.171687 -0.011065 0.002261 -0.039634 -0.028355 -0.174033 0.102680 0.007228 0.025172 -0.023357 0.249642 -0.009800 -0.059283 0.105014 -0.125811 0.138186 0.043253 0.060173 -0.038352 -0.002991 -0.099084 -0.020112 0.028585 0.013410 0.033169 0.112828 0.025135 -0.060777 0.052176 0.119431 0.057261 -0.001253 -0.040640 -0.124959 0.045293 -0.055087 0.014066 -0.109044 0.015567 0.045746 -0.094369 -0.109698 0.131949 0.028258 0.122537 -0.104843 0.172162 0.145129 -0.106615 0.103508 -0.035504 -0.213918 0.044237 0.013290 -0.030688 0.071437 -0.041333 -0.020297 -0.176021 0.025632 0.089389 -0.048405 0.000765 -0.114843 -0.021299 0.035587 0.034086 -0.185442 0.143934 -0.074964 0.072809 -0.265162 0.209227 0.122477 0.082409 0.012533 0.032435 0.092028 0.177541 -0.148118 0.120583 -0.086378 -0.206052 -0.032017 0.067166 0.084202 0.050894 -0.089502 0.061639 0.042921 0.004849 0.147850 -0.069606 0.139239 0.166101 -0.017153 0.008184 0.073875
ukraine -0.036010 0.091906 0.043372 0.105388 0.081233 -0.067945 -0.210186 -0.187290 -0.047250 0.011054 0.061362 -0.031396 0.114890 -0.081691 -0.041348 0.046533 0.154872 0.172349 0.158332 0.105032 0.222799 0.020200 0.069489 -0.128644 0.016815 -0.075416 0.019843 0.085103 -0.169464 -0.043644 0.011728 0.092976 0.008733 0.217005 0.008295 -0.114040 -0.091297 0.031363 -0.078873 -0.158619 0.107962 -0.034533 0.185808 -0.173764 0.006940 0.094139 0.017513 0.209078 0.026220 0.020557 0.021880 -0.004326 0.023079 0.013842 -0.069969 0.077017 -0.058345 0.030027 0.074903 -0.056774 0.024032 0.231775 -0.003737 0.047944 0.023659 0.182700 -0.128010 0.018559 0.075039 -0.063364 -0.118433 0.006336 0.125515 -0.020251 -0.036569 -0.086096 -0.119675 -0.046159 0.084710 0.033218 -0.049855 0.090780 0.009911 -0.123157 -0.063813 0.029912 0.093266 -0.069998 0.054549 -0.024748 0.000044 0.008350 0.049761 -0.036837 0.052448 -0.020564 -0.042177 0.124420 0.064198 0.027895 0.162619 0.222503 -0.057015 -0.073207 0.067052 -0.027096 0.067035 0.179728 0.035923 -0.088509 0.027602 0.012839 0.029248 -0.016715 0.009885 0.086654 -0.049994 0.054526 -0.004539 0.001552 0.004742 -0.020857 0.096081 -0.010820 -0.010466 0.026973 0.017827 0.067853 -0.070316 0.114705
plano -0.069518 -0.009784 0.007783 -0.060129 -0.091979 -0.132511 -0.134021 -0.101062 -0.047911 -0.089434 -0.208209 -0.072727 0.012499 -0.092521 0.011412 -0.173983 -0.047032 -0.026516 0.084767 -0.104638 0.132759 -0.089400 0.029459 -0.025538 0.002904 0.096031 0.094628 0.100247 0.088664 0.020389 0.082431 0.028132 -0.082953 0.048796 0.021088 0.038527 -0.079920 -0.019268 -0.044897 -0.008738 0.072372 0.030991 0.087208 -0.007093 0.072763 0.096689 0.068702 -0.025216 -0.186008 0.143063 0.177019 0.082886 -0.147414 0.069503 -0.233004 -0.005566 -0.019855 0.172677 -0.014796 -0.089265 -0.002733 0.060065 -0.076751 -0.081757 0.072895 0.002270 0.062815 -0.102126 -0.046954 0.118274 0.098689 -0.005918 0.027993 -0.084293 -0.025739 0.045693 0.085052 -0.044215 -0.229793 -0.013079 -0.014389 0.015365 -0.026693 -0.059336 -0.039320 -0.112794 0.046068 -0.029012 -0.044158 -0.025140 0.038139 0.033094 -0.048543 -0.001960 -0.012149 0.196165 0.018537 0.077105 -0.053491 0.083397 0.016255 0.142154 -0.032181 -0.026637 -0.146668 -0.028772 0.029127 0.071558 -0.042848 0.139806 -0.035964 0.019464 0.094739 -0.076355 0.000983 -0.032256 0.133748 -0.116510 0.145840 0.032277 0.016396 0.104780 0.069647 -0.133385 0.001289 -0.031126 0.047659 0.058359 -0.153450 0.212542
texas 0.102970 -0.105950 -0.000847 -0.011344 -0.023275 -0.094174 -0.089683 -0.205379 -0.069280 -0.080299 -0.211444 0.074907 0.198295 -0.026786 0.013884 -0.025536 0.040967 0.042419 0.164800 0.092682 0.087274 -0.203203 0.030063 0.107757 -0.082212 -0.079301 0.122265 0.080684 0.034487 0.048254 -0.042311 -0.014301 0.030596 -0.001724 0.058357 -0.037559 -0.047128 -0.266481 -0.014856 -0.012678 -0.101766 0.064559 0.105116 0.028201 0.070248 -0.135698 0.049544 -0.014276 -0.129215 0.044929 0.103774 0.129870 -0.060405 -0.138858 -0.067161 0.003042 -0.170679 0.021979 -0.068119 -0.036980 0.141346 0.055540 -0.180902 -0.089496 -0.028161 0.060148 -0.036066 -0.031436 -0.130146 0.015479 0.018258 0.069311 0.001421 0.095266 0.078195 0.096873 -0.061270 -0.044106 -0.031337 -0.004028 0.017573 0.086337 -0.016679 -0.068093 0.016497 -0.105452 0.049990 -0.046683 -0.055782 -0.069902 -0.069310 -0.026262 -0.029278 -0.046548 -0.062843 0.096341 -0.062258 0.009409 0.021905 0.039661 -0.065972 0.084752 0.020011 0.027449 -0.125014 -0.002385 0.009174 0.022715 -0.042191 0.109800 0.054927 -0.056172 0.038108 -0.016316 -0.116409 0.134165 0.141381 -0.122430 0.208696 0.066526 0.058366 -0.022370 0.048817 -0.034189 -0.019430 -0.029827 0.092408 0.099649 -0.141745 0.108658
tough 0.047120 -0.090066 0.072224 -0.091793 -0.010563 -0.037000 -0.090142 0.079279 -0.122407 0.033500 -0.123579 0.056483 0.016331 -0.067622 -0.043289 -0.100422 -0.053079 0.056798 0.218582 0.039186 -0.029118 0.069507 0.117507 -0.077510 0.000314 -0.062809 0.025723 -0.140161 -0.077984 0.051952 0.013918 0.071368 -0.021311 0.036561 0.078448 0.097933 -0.123615 0.154918 -0.030688 -0.105042 -0.040814 -0.111192 -0.069922 -0.028736 -0.005108 0.121885 0.063987 -0.070709 0.059868 0.013240 0.050186 -0.029722 0.091558 -0.157252 -0.135554 0.185054 -0.015523 -0.061624 0.027618 0.079917 -0.074341 0.045715 -0.200911 -0.070536 0.007328 0.051523 0.022926 0.242828 0.027507 0.003026 -0.106351 -0.053668 0.096107 0.085870 -0.035922 0.151793 -0.023690 0.059173 -0.156012 0.034344 -0.100456 0.120867 -0.001901 -0.158535 0.032356 -0.075385 -0.007635 -0.183437 0.016848 -0.097243 0.018252 0.055819 0.099725 -0.081844 0.021888 0.017447 0.056915 0.108770 0.098098 -0.148350 -0.089666 -0.016899 -0.119342 0.060569 -0.014962 -0.066908 -0.107143 0.070963 -0.015844 -0.015312 0.094551 -0.030415 -0.058733 0.031082 -0.000565 0.087217 0.095184 -0.089937 0.152187 0.119895 -0.011819 0.062068 -0.112237 0.133932 -0.045319 0.018374 0.022082 -0.067929 -0.074061 0.015301
flying -0.040497 0.060011 0.127367 -0.033339 -0.039511 0.016817 -0.121194 0.054166 -0.046821 0.025767 0.003745 0.018341 0.124765 0.044055 -0.126987 -0.064952 -0.051209 -0.029069 -0.042635 -0.099988 0.083049 -0.021032 0.105024 -0.210890 0.003425 0.117296 -0.011975 0.061088 0.060500 0.020370 0.104786 -0.003759 0.099149 0.056779 0.021280 -0.106428 -0.118842 0.006301 -0.001207 -0.041955 0.081624 -0.047086 0.195707 0.012294 -0.125783 0.073420 0.005957 -0.001542 0.103884 -0.029889 0.114386 -0.166187 0.024841 0.000786 -0.122266 -0.042527 -0.097817 -0.210761 -0.101047 -0.131913 0.041861 -0.080711 0.006844 -0.059185 -0.199212 -0.062218 0.102289 0.037096 0.018618 -0.062167 0.017247 0.069803 -0.027862 -0.088588 -0.050979 -0.246779 -0.037449 -0.086157 0.107055 -0.023001 -0.120072 0.017196 0.017752 -0.203013 -0.068794 -0.014416 -0.042222 0.066911 0.032575 -0.056577 -0.021696 -0.017850 0.038656 -0.163131 0.009852 0.090962 0.038767 -0.018519 -0.019409 0.017276 -0.079952 0.042191 -0.080327 0.000641 -0.088150 0.002584 -0.119107 -0.189930 0.009453 0.115929 0.046214 0.011612 0.046775 0.083317 -0.094100 -0.088818 -0.013116 0.026521 -0.062902 0.083693 -0.133999 0.022871 0.060842 0.042059 0.091089 -0.124550 -0.150310 0.147397 0.045761 0.017442
iraq 0.044579 0.055512 -0.088596 0.015940 -0.059433 -0.054898 0.004220 0.040961 0.000425 -0.041522 0.022347 0.006750 -0.078273 -0.059586 0.086244 -0.129264 0.076072 -0.009376 -0.031366 0.063971 -0.024087 -0.125302 -0.031292 -0.192660 -0.066332 0.006966 0.094542 0.043240 -0.060419 0.113107 -0.022938 -0.038691 0.030337 -0.114953 0.032538 -0.073040 0.043227 -0.037974 -0.030248 0.082657 0.013255 0.023154 -0.020121 0.002527 -0.151059 0.070802 0.085979 0.014605 -0.012910 -0.135155 -0.050670 0.013888 -0.080911 -0.111603 -0.089197 0.018721 0.081238 -0.031764 0.013376 -0.042659 0.085923 -0.120632 0.006946 0.057652 0.209181 0.205771 -0.010868 0.066469 -0.027444 0.077287 0.059762 0.111431 -0.147730 -0.024162 -0.018382 0.013172 0.135695 0.156569 0.001508 -0.068705 0.093478 0.124070 -0.075032 -0.005278 0.038071 -0.162666 -0.077881 -0.010946 0.028828 -0.039502 0.083215 0.031967 0.001925 -0.070108 -0.125698 0.192460 0.069526 -0.065906 -0.138453 -0.132756 0.018600 -0.092329 -0.138757 0.018204 -0.021509 -0.051829 0.058638 -0.125718 -0.042531 0.028169 0.077743 -0.198248 0.067857 -0.008108 -0.065844 0.070320 -0.042240 0.022507 0.128942 0.130301 0.019131 0.087946 -0.105684 -0.035691 0.156751 -0.074888 -0.047339 0.058204 -0.034215 0.036289
professional -0.090867 0.202054 0.083776 -0.066068 -0.042436 -0.015031 -0.047434 0.176343 -0.030503 0.041013 -0.019962 0.075137 0.041656 0.131438 0.045782 -0.117788 -0.054831 0.000727 0.030521 0.075414 -0.090452 -0.083976 0.037912 -0.075981 0.003774 0.002189 0.017707 0.123345 -0.024721 -0.018750 0.031704 -0.101217 -0.163521 -0.000420 -0.064810 0.119357 -0.103410 0.061290 -0.016363 -0.024150 0.121021 0.017263 0.060401 0.015549 -0.132569 0.039576 0.011781 -0.085059 0.086927 0.000143 0.016908 0.087901 -0.069308 0.150711 0.028092 -0.020295 0.154966 -0.070984 0.009588 0.043947 0.038363 0.016709 0.011433 0.023179 -0.043877 -0.050591 -0.191167 -0.225562 0.002153 -0.009278 -0.010433 -0.064809 0.002411 -0.017944 -0.049133 0.094758 0.083188 0.069349 -0.038944 0.037712 -0.018668 0.156332 -0.059241 -0.027390 -0.019976 -0.116594 -0.131124 0.008147 0.155893 -0.001157 0.031431 0.045487 0.062307 -0.145548 -0.017074 -0.049295 -0.046024 -0.095137 -0.002883 0.055656 -0.066583 0.002738 0.021357 0.029784 -0.172927 0.026648 0.074935 -0.003374 -0.003246 0.045508 0.094714 0.061894 -0.008709 0.115968 -0.002857 0.193524 0.006020 -0.015519 0.018613 -0.022100 -0.045638 0.096060 -0.058240 -0.103530 -0.046569 -0.008860 -0.050539 0.091713 -0.245718 0.030989
fly -0.024660 0.128212 -0.009463 -0.021722 -0.056006 0.017942 -0.092697 0.059820 0.010969 0.125089 -0.038536 0.044184 0.058594 0.114332 -0.133132 0.067431 -0.046923 0.047946 0.057559 -0.068387 0.067426 -0.031310 0.006663 0.000909 -0.009970 0.141856 0.058340 -0.035576 0.024527 0.132982 0.059602 -0.090767 -0.054586 0.157427 0.112484 -0.100909 -0.102043 0.024879 -0.044552 -0.008549 -0.012011 0.037326 0.017561 -0.006687 -0.144853 0.027681 -0.112209 0.080050 0.019943 -0.137656 -0.057091 -0.056546 -0.105980 0.196600 -0.048275 -0.144735 -0.033503 -0.050649 0.060821 -0.047862 -0.006995 -0.053218 0.040204 -0.044395 0.133758 -0.091876 0.037608 0.072410 0.077192 -0.004908 0.048552 0.013147 -0.069557 -0.133608 0.112903 -0.064245 0.024184 -0.049318 0.018226 -0.054950 -0.150756 0.103084 0.014376 -0.109917 0.091050 -0.077105 -0.026276 -0.003900 0.100927 -0.126335 0.006762 0.033630 0.057034 -0.228423 0.017013 0.073295 0.013674 0.095625 -0.048759 0.089242 -0.140869 0.093357 -0.100241 0.087609 0.102457 -0.029527 0.015488 -0.011110 0.057449 -0.032023 -0.040661 0.013006 0.012077 -0.003898 -0.162884 -0.015179 -0.057654 0.043218 -0.072602 0.199367 -0.162380 -0.044019 0.077626 0.063512 -0.051641 0.083580 -0.120242 0.111785 0.013756 -0.074577
danish 0.070052 -0.110599 0.175291 0.008761 0.050765 -0.079177 0.001490 0.140314 0.057707 0.065490 0.114147 -0.058296 -0.084259 -0.034322 0.230448 -0.164434 0.001097 -0.057977 0.017572 0.051057 0.037154 -0.015757 0.101642 -0.041375 -0.001893 0.080255 0.097251 -0.053248 0.139272 0.016362 0.068042 -0.040093 -0.020668 0.038731 0.023154 0.073985 -0.141072 0.022690 -0.120548 -0.077206 -0.025987 -0.091484 -0.121804 0.044720 -0.128792 -0.054895 0.068881 -0.060530 -0.069834 0.192731 0.138270 0.002450 -0.135851 -0.083994 0.063798 0.083515 -0.154880 -0.001449 0.089370 0.086326 0.148293 0.025380 -0.054316 0.056892 0.021411 0.017689 0.067383 0.163304 0.067264 -0.021663 0.071493 0.231498 0.122523 0.045042 0.013287 -0.045588 0.156328 0.047117 0.046275 -0.061021 -0.036591 0.212144 0.048643 -0.083915 -0.013969 -0.031599 0.051284 -0.143854 0.073635 -0.096548 0.098942 0.059141 0.178452 -0.037486 0.000979 -0.040326 -0.017615 0.066581 -0.070398 -0.026108 0.100578 0.123356 0.019352 0.106292 -0.039499 -0.026280 0.161372 -0.094136 0.028434 0.050146 -0.060763 -0.052331 -0.132070 -0.003198 -0.126221 0.002481 -0.004098 0.055707 0.004181 0.113636 0.112571 0.122818 -0.015204 -0.149050 0.055145 -0.038832 -0.017183 0.049593 0.010195 -0.064997
denmark 0.110346 0.076455 0.124713 -0.024058 0.006805 -0.004970 0.042613 0.042911 0.078851 0.040518 0.036054 -0.096616 0.052383 0.072093 0.127681 -0.017340 -0.086278 -0.097052 -0.005431 0.040298 0.023451 0.018850 -0.030219 -0.041458 0.042607 0.098748 -0.047308 -0.042041 -0.058877 0.231699 -0.020027 -0.045702 0.005533 -0.103142 0.048677 -0.004366 -0.046823 -0.050330 -0.062948 0.013413 0.062178 -0.034171 -0.014065 0.004782 0.127820 -0.083076 -0.093806 0.089546 0.024894 0.180308 0.050010 -0.125020 -0.013390 -0.040577 -0.012786 0.048117 -0.112267 0.006378 0.040506 0.076033 0.153080 0.077629 0.049093 0.047820 0.023590 0.148906 0.058202 0.196061 0.198987 -0.013881 0.035659 0.051928 0.061260 0.073316 -0.022984 0.107494 0.150856 0.052056 -0.032985 -0.031605 -0.056232 0.268297 -0.000972 0.023758 0.145714 -0.003569 -0.104759 -0.062604 0.196038 -0.080973 -0.068066 0.094706 0.123069 -0.031145 0.120751 0.104366 -0.105482 0.041684 0.026763 -0.165404 0.074324 0.250801 -0.007782 -0.050343 -0.039316 -0.030970 0.130642 -0.120556 0.158482 0.019453 0.063638 0.048068 -0.062077 -0.031107 -0.029530 0.036248 -0.108388 0.082619 0.080450 0.136658 0.123481 -0.000265 -0.090255 -0.017263 -0.082177 0.137733 -0.011734 -0.142985 0.036109 -0.083970
croatia 0.111882 0.081344 0.115809 0.073233 0.006671 0.084076 -0.071826 0.106731 -0.035959 -0.112240 -0.115060 -0.121543 0.062562 -0.028913 0.037347 0.016034 -0.058299 0.073575 0.005081 0.124717 0.199778 -0.099864 -0.122374 0.019075 -0.080846 -0.029768 0.191267 -0.013357 0.081651 0.212170 -0.000714 0.102850 -0.005212 0.026459 -0.034482 -0.174346 -0.021481 0.034555 -0.010142 0.136199 -0.034310 0.108283 0.053637 0.021330 -0.012760 0.011667 -0.016316 0.079150 -0.089797 -0.078625 -0.024306 -0.055116 0.032862 0.054183 -0.048003 -0.109213 -0.104268 -0.004402 0.030645 -0.055600 -0.056637 -0.029718 0.111767 -0.030389 0.024602 -0.003974 0.113565 0.025249 0.028915 -0.067101 0.038900 -0.017122 -0.104271 -0.076045 0.030224 0.107831 -0.041035 -0.167448 0.020418 0.015903 -0.126056 0.283236 -0.093531 -0.032179 0.141143 -0.025392 0.043234 -0.008293 0.036278 -0.106239 -0.035695 -0.035652 0.120825 -0.202604 0.039003 0.052408 0.044205 0.047711 0.061249 0.035805 0.030224 0.045151 -0.027276 -0.021395 -0.064465 0.018532 0.002948 -0.005486 -0.027067 0.033119 -0.153092 -0.033596 0.091852 0.074770 -0.175477 0.070774 -0.041569 -0.067837 -0.101645 0.031293 0.080272 0.073914 -0.041335 -0.043401 0.119257 -0.069514 0.003944 0.086238 -0.145400 -0.124458
