move -0.015822 0.460337 -0.310531 0.084036 0.054435 0.067433 0.047425 0.271612 -0.239048 0.085048 0.214513 0.297908 0.240732 -0.057508 -0.224159 -0.175740 0.154687 0.073650 0.129880 0.276684 0.189613 0.232291 -0.190445 -0.333390 0.281662
tougher 0.046775 0.399076 -0.624290 -0.189644 -0.037389 -0.388987 0.208119 0.193943 0.329203 -0.142766 -0.408718 -0.336745 0.095407 0.006755 0.199139 0.201123 0.583375 -0.273155 0.059576 -0.188736 0.363020 0.053544 -0.201527 0.401268 0.314062
occasionally -0.378809 -0.156019 0.058468 0.147101 0.220376 0.368237 -0.490149 0.237136 0.021695 0.107022 0.086569 0.078857 -0.129585 -0.327814 -0.198670 -0.008330 0.201609 0.279829 0.185064 -0.202006 0.161198 0.365000 0.326320 -0.250674 -0.047843
argentina 0.041948 0.005393 -0.105522 0.032789 -0.141368 -0.275930 -0.012375 0.182910 0.101143 -0.110118 -0.136356 -0.173227 0.193090 0.000915 -0.201926 0.037382 -0.123978 0.316384 0.165631 -0.220384 0.090407 0.118725 -0.194064 -0.163761 0.160309
danish -0.006329 0.165797 0.114308 -0.040214 0.134416 -0.083491 -0.120964 0.053554 -0.042049 0.103957 0.366752 -0.167227 -0.035164 -0.264742 -0.059649 -0.007076 -0.043354 0.102084 -0.109945 0.151283 0.234984 0.132760 0.107251 -0.260218 -0.029242
fly 0.176842 -0.087742 -0.007115 -0.193822 0.127249 0.144096 -0.102321 -0.620359 -0.197202 -0.537914 0.444328 -0.022901 -0.267607 -0.129870 0.200415 -0.295639 -0.105370 0.040182 -0.234329 0.272817 -0.450084 -0.296469 0.471163 0.322761 -0.431228
louder -0.184238 -0.369074 0.600360 -0.187228 0.105618 0.404415 0.401679 -0.848714 -0.221921 0.029120 0.034996 -0.065639 0.111938 -0.046795 -0.075709 -0.523927 0.059986 0.236734 -0.181386 0.384231 -0.098259 -0.133437 0.113847 0.213737 -0.139334
loud -0.077999 -0.432166 0.022485 0.060110 -0.234190 0.127910 -0.273213 -0.179766 0.208773 -0.146186 0.142431 -0.101900 0.058374 -0.043789 -0.107019 -0.086530 0.044640 0.251408 0.039523 -0.324267 -0.052264 0.069811 0.219809 0.160363 -0.186329
norway 0.070907 -0.046758 -0.116303 -0.101723 -0.129790 -0.295913 -0.130318 0.066069 0.112246 -0.382055 -0.261371 -0.355072 0.052610 0.002210 0.030883 -0.144630 -0.027953 0.289836 0.037285 -0.219107 -0.128384 0.109907 -0.086351 0.149693 0.032374
ukraine -0.080746 -0.266055 0.089514 -0.006951 0.006691 0.137484 -0.105723 0.137137 0.083654 -0.284461 -0.125276 0.056032 0.033705 -0.026424 -0.199224 -0.080700 0.019028 0.282971 0.068792 -0.065251 -0.039089 0.189235 -0.016255 -0.093585 -0.000229
professional -0.252159 0.148308 -0.368978 -0.509443 -0.249069 -0.001388 0.059097 0.318855 0.320893 0.025259 -0.121890 0.108371 -0.421723 0.293270 -0.005392 0.420496 -0.052197 -0.349634 -0.035529 -0.221940 0.213600 -0.317783 -0.120245 -0.023510 -0.017918
moving -0.300715 -0.325717 0.190079 -0.114708 0.297997 0.270302 -0.313811 -0.252861 0.058894 0.016757 -0.215274 -0.351579 0.067409 -0.191044 0.131871 -0.560930 -0.073837 0.429602 0.194064 -0.169008 0.016863 0.333096 0.264012 0.059756 -0.323436
tough -0.020569 -0.248560 -0.066389 0.200040 -0.075172 0.156717 -0.277656 0.148156 0.298061 -0.059209 0.135011 -0.053320 0.206534 -0.095157 -0.103634 -0.007752 0.250730 0.228209 0.135595 -0.229051 0.029305 0.146479 0.159497 -0.068313 -0.024404
flying -0.212522 -0.380444 0.014005 -0.069352 0.262973 0.196616 -0.625376 -0.120672 0.251358 -0.261681 -0.062845 -0.385249 -0.172414 -0.223881 0.195741 -0.329400 -0.099298 0.335393 0.132296 -0.395081 -0.086446 0.233075 0.568347 0.085666 -0.502809
professionally -0.312430 -0.164513 -0.006235 -0.228691 0.031514 0.041354 -0.327237 -0.135471 0.117653 -0.063057 -0.126525 -0.226949 -0.370384 -0.175611 0.135135 0.178843 0.054846 0.055786 -0.045226 -0.279674 0.025152 -0.042133 0.369868 0.168168 -0.214374
norwegian 0.029308 0.034879 0.305710 -0.029528 0.070005 -0.155035 0.071454 -0.108200 -0.129246 0.185259 0.209462 -0.240695 0.117135 -0.151214 0.013595 -0.215630 -0.065281 0.206481 -0.140536 0.168847 0.158793 0.190039 -0.044801 -0.214711 0.000082
argentinean 0.158593 0.229985 -0.394809 -0.255113 -0.132182 -0.549819 -0.257426 0.162680 0.281284 -0.205996 0.327971 -0.478267 -0.340457 -0.093587 0.212162 0.314633 -0.148776 -0.255232 -0.244454 -0.321083 0.256479 -0.145370 0.295306 0.106802 -0.281911
ukrainian -0.070908 0.039116 -0.110117 -0.184923 0.006017 -0.041642 -0.194339 0.311651 0.200547 -0.057937 0.355992 -0.074519 -0.321232 -0.170340 -0.011634 0.253874 0.001131 -0.154711 -0.218101 -0.105861 0.257893 0.077296 0.215907 -0.250621 -0.158555
occasional -0.396737 -0.180110 0.023487 -0.182013 -0.017643 0.466368 -0.261393 0.313322 0.264219 -0.047779 0.150806 0.376095 -0.303212 0.036442 -0.188796 0.129940 -0.022229 -0.005318 0.019111 -0.209475 0.084552 -0.021188 0.172221 -0.298833 -0.218840
denmark 0.178340 0.022140 0.044537 -0.206558 -0.146115 -0.203139 0.247355 -0.292654 -0.047993 -0.201860 -0.198376 -0.223633 0.111450 0.092560 -0.080290 -0.073984 -0.052326 0.276422 -0.002700 0.146695 -0.140295 -0.152107 -0.198507 0.260457 0.146602
