move 0.146387 -0.365688 0.042750 0.124441 0.142648 0.113864 -0.125869 0.126277 -0.387658 -0.149251
tougher 0.152802 -0.059938 -0.221562 0.026642 0.132059 -0.376641 -0.052866 0.204742 0.069391 0.068063
occasionally -0.193547 -0.068260 0.033651 -0.363653 0.058202 0.040004 0.020695 0.072571 0.069121 -0.069160
argentina -0.167337 -0.072101 0.100573 0.209731 -0.066248 -0.171958 0.195134 -0.203665 0.002351 -0.077344
danish -0.034239 0.090276 0.204319 0.108647 -0.026581 0.056954 -0.118371 0.194650 0.168553 -0.235599
fly 0.080345 -0.246408 -0.061549 0.177320 0.123037 0.300929 0.017930 0.080006 -0.139313 -0.213058
louder 0.107692 -0.011349 -0.249316 0.097707 0.088962 -0.228287 -0.217782 0.040794 0.136191 0.148609
loud -0.122410 -0.094139 -0.124652 0.142453 -0.094907 0.102087 0.015804 0.027240 0.076310 0.447036
norway -0.034614 -0.088982 0.072407 0.134360 0.247729 -0.082538 0.167118 -0.344792 0.044178 0.040826
ukraine 0.093999 -0.053566 0.053425 0.028748 0.152163 -0.117714 0.292806 -0.151394 0.083346 0.042316
professional 0.291909 0.069984 -0.129647 -0.194820 -0.281161 0.087638 -0.062024 -0.264281 0.026169 -0.022586
moving -0.049063 0.158512 -0.235610 0.009801 0.123987 -0.032832 0.066573 -0.031576 -0.284943 -0.108251
tough 0.005119 -0.056730 -0.121426 0.049148 -0.102950 0.090102 0.166412 0.204312 0.099157 0.331431
flying -0.115765 0.187588 -0.301028 -0.002767 0.095944 0.163188 0.250093 -0.000504 -0.116074 -0.137951
professionally -0.230941 0.005837 -0.018654 -0.407587 -0.042670 -0.014842 -0.042129 -0.020409 0.142947 -0.091903
norwegian 0.049241 0.167651 0.219396 -0.010784 0.104834 -0.028665 -0.153196 0.109876 0.031067 0.014258
argentinean 0.010829 0.165471 0.205433 0.122475 -0.205921 -0.047220 -0.122744 0.185188 0.007794 -0.072790
ukrainian 0.169610 0.254781 0.174434 -0.044977 -0.016691 -0.007881 -0.049156 0.205120 0.129450 0.007719
occasional 0.304047 0.009649 -0.090649 -0.150288 -0.142113 0.167762 0.007520 -0.167167 0.002655 0.049277
denmark -0.103188 -0.161631 0.086952 0.172465 0.008401 -0.075676 0.189740 -0.216212 0.150914 -0.142034
