move -0.155431 -0.386606 0.262103 -0.477500 0.378089 -0.317856 -0.085060 0.405485 0.605657 -0.343284 0.543215 -0.466748 -0.441615
danish 0.227541 -0.228218 0.125917 -0.042557 -0.071893 0.439888 0.349505 0.177416 -0.262509 -0.172076 0.220838 -0.329851 0.217235
loud 0.264847 0.248844 -0.350080 -0.090537 -0.634922 -0.413916 0.099374 0.554711 0.172979 -0.572840 -0.364781 -0.372208 -0.259427
tough 0.050205 0.592581 -0.386550 -0.124712 -0.209453 -0.463411 0.308905 0.523221 0.221026 -0.585100 -0.254122 -0.423576 -0.078302
flying 0.090868 0.299411 -0.043269 0.054763 -0.150781 0.130275 -0.374280 -0.143230 0.222573 0.117152 0.002482 -0.088665 -0.251979
denmark -0.125230 0.056984 0.048853 0.380225 0.175761 -0.089400 0.437000 -0.113366 0.103296 -0.094958 -0.202584 0.223185 0.149016
tougher -0.306801 -0.064347 -0.664049 0.092862 -0.212020 0.055293 -0.057716 0.870980 0.116000 -0.187347 0.266914 -0.771211 0.034289
professional 0.295351 0.194435 0.103970 0.102971 0.140890 -0.199024 -0.081239 0.474547 -0.122100 0.522850 -0.001540 -0.030376 0.022340
norway -0.348446 -0.051534 0.065706 0.270898 -0.038419 -0.195466 0.216809 -0.125364 0.007475 0.185695 -0.318132 0.335419 -0.006957
ukraine -0.290854 0.146452 -0.008414 0.330854 0.143372 -0.277579 0.285556 0.009657 -0.104659 0.032820 -0.112801 0.287831 0.096804
occasionally 0.339517 -0.006932 -0.048580 0.324884 0.436548 0.154456 0.045066 -0.115327 0.061900 -0.433843 -0.297591 0.096702 0.649766
norwegian 0.004176 -0.297709 0.185606 -0.243406 -0.178159 0.177086 0.134300 0.222601 -0.404083 0.113270 0.130906 -0.217876 0.114753
occasional 0.277906 0.448705 0.138821 0.012324 0.222025 -0.317377 0.091113 0.571815 -0.034927 0.194194 -0.065868 -0.144439 0.138974
professionally 0.302905 -0.149449 -0.020776 0.423853 0.324320 0.369582 -0.119558 -0.077891 -0.019996 -0.252175 -0.421265 0.163492 0.753623
louder 0.023052 -0.507512 -0.541964 0.305419 -0.449671 0.160149 -0.296620 0.645194 0.209566 -0.054176 0.017999 -0.377356 -0.104937
ukrainian -0.183185 -0.195711 -0.040575 -0.131030 -0.221075 0.071460 0.015646 0.570754 -0.608470 -0.020978 0.291583 -0.513926 0.125201
argentina -0.165924 0.032360 0.136582 0.358823 0.057779 -0.187281 0.383202 0.006244 0.168098 -0.030468 -0.260421 0.137885 0.130851
moving -0.028179 0.197002 0.024239 -0.205530 -0.349231 0.031532 -0.446106 0.067169 0.337508 0.288144 0.238829 -0.191410 -0.207764
argentinean 0.011962 -0.323018 0.186755 -0.024263 -0.261456 0.413810 0.179283 0.297484 -0.414492 -0.060841 0.115704 -0.366110 0.155429
fly -0.295056 -0.261725 0.143067 -0.371003 0.360232 -0.122044 -0.058282 0.223203 0.275473 -0.232217 0.290091 -0.269326 -0.549102
