hanoi -0.119404 -0.032716 -0.023076 0.085419 0.112642 0.011940 0.141940 0.205099 0.193728 0.022170 -0.022410 0.081594 -0.017204 0.016724 -0.047679 -0.141810 0.401857 -0.080901 -0.026946 0.053228 -0.072335 0.099960 -0.118046 0.165545 0.052846 -0.176004 -0.020862 0.017170 0.045090 -0.045774 -0.000694 -0.007437 -0.002968 0.058104 -0.126221 -0.047049 0.091108 -0.131290 -0.211457 -0.194825 -0.012396 0.014188 -0.008065 0.046406 0.274531 0.372841 0.027442 0.161799 0.284824 0.031783 -0.131258 0.001108 -0.098842 0.035203 0.128171 -0.057477 0.011548 0.034711 0.249652 -0.021990
tougher -0.151927 -0.028025 0.030527 -0.001094 0.021393 -0.032105 -0.184946 0.172822 -0.020714 -0.041776 0.067278 -0.033700 0.038154 -0.003515 0.004415 0.028989 0.044509 -0.169577 -0.007208 -0.021777 0.033708 -0.287807 0.018787 0.256018 0.105945 -0.239478 0.140271 -0.158991 -0.017453 -0.074099 0.161711 -0.084488 -0.003983 -0.048894 -0.161892 -0.055049 -0.029370 0.006982 -0.029689 0.064341 0.094835 0.114102 0.016038 0.291493 -0.088494 0.032298 -0.190743 0.152908 0.143068 0.003610 0.130314 -0.075086 -0.067873 0.052885 -0.186900 0.136655 -0.184688 0.208111 -0.060624 -0.245571
occasionally -0.184418 0.037782 -0.134859 -0.041638 -0.023970 -0.246765 -0.144670 -0.049240 0.108160 0.162732 -0.089743 0.107127 -0.234534 0.316879 -0.021626 0.124227 -0.123404 -0.019414 -0.259703 -0.021106 -0.126379 0.006280 0.089847 0.016371 -0.109238 -0.060763 -0.156120 -0.064166 -0.217320 -0.136033 0.013679 0.055642 0.039833 -0.030582 -0.058985 0.152879 0.066914 0.065046 0.004945 -0.023837 -0.219347 0.112483 0.002915 0.010132 -0.004749 0.035387 0.204710 0.241496 0.035704 -0.141674 0.064297 0.054280 0.036839 -0.197688 -0.001340 0.040657 0.001223 0.026964 0.104440 -0.010782
ukrainian 0.055016 -0.108703 0.056651 0.016220 -0.088731 0.061026 0.083211 0.072714 0.039899 -0.079568 -0.200502 -0.029177 -0.202377 0.026272 0.026948 0.008048 -0.134018 0.113662 -0.059516 0.118476 0.065678 -0.317721 -0.057387 0.194070 0.328190 0.128761 0.166981 -0.019228 0.165021 0.092169 -0.020807 -0.116924 -0.142540 -0.094370 0.202934 0.042794 -0.107258 0.045895 -0.096595 0.010212 -0.156784 0.221733 -0.170869 0.025732 0.057619 -0.010629 0.098404 0.057377 0.112155 0.026318 -0.218684 0.027942 -0.002308 -0.293445 0.179299 -0.023851 -0.093850 -0.019746 0.022123 -0.187425
occasional 0.113138 -0.193276 -0.090790 -0.064750 0.014508 -0.117244 0.017138 -0.096212 0.085781 -0.058187 -0.034395 -0.019545 -0.216880 0.093921 -0.095607 -0.098683 -0.095656 -0.047582 -0.104364 0.020333 -0.122618 -0.130787 0.027248 -0.046659 -0.006707 -0.313822 -0.187312 0.070747 -0.059117 -0.206020 0.062066 -0.052275 -0.209759 0.142507 0.223393 0.040221 0.011809 0.102490 0.025626 -0.204942 -0.085155 0.186360 -0.100471 0.062928 -0.108383 0.081786 -0.031377 0.144174 0.141140 0.030334 0.203456 -0.018115 -0.051939 -0.367565 -0.059505 -0.142206 -0.106783 -0.070051 -0.099392 -0.086054
norway 0.160745 0.123538 -0.085853 0.223472 -0.033205 -0.030465 0.109528 -0.017074 0.022672 -0.107764 -0.019201 -0.131370 -0.013350 -0.241739 -0.043523 -0.106480 0.029068 0.059766 -0.029351 -0.065356 0.123315 0.002513 -0.002342 0.109540 0.011619 -0.051810 0.146214 -0.118566 -0.044127 0.039078 -0.137997 -0.053252 0.041496 -0.125908 0.040454 0.017315 -0.164622 -0.057204 0.012269 0.000929 -0.141864 -0.153269 0.077143 -0.024292 -0.218494 0.004458 0.114654 0.068417 0.112334 -0.119643 0.218557 0.156738 -0.199621 -0.196119 0.206946 0.119111 -0.301926 0.092235 -0.131645 -0.046928
baghdad -0.103421 0.028127 0.102197 0.089715 -0.080702 -0.082090 -0.042160 -0.192873 -0.131144 -0.278053 -0.050778 -0.084920 -0.112840 0.132366 -0.367906 0.042299 0.230005 -0.148821 0.128345 0.016535 0.247195 0.032606 -0.174842 -0.085574 0.089940 -0.115786 -0.210685 0.053500 -0.044890 0.008129 0.100845 -0.149033 0.089837 -0.231684 0.119446 0.024554 -0.007392 0.061615 -0.019480 -0.123544 0.007189 0.000739 0.117564 0.229143 -0.052822 0.053777 0.018488 0.299959 0.170287 0.217937 0.049173 0.250984 0.018485 0.102444 -0.012015 0.217018 0.066134 -0.093574 -0.028591 -0.072192
illinois 0.037446 0.147182 -0.248537 0.065401 0.194358 0.040228 0.000370 -0.051322 0.088766 -0.027307 0.176317 0.232186 0.086289 0.230900 0.028079 0.073343 -0.113317 -0.197100 0.048187 -0.073149 0.040128 -0.014125 0.037348 0.033885 0.104911 -0.088523 -0.112509 -0.244564 -0.116120 -0.011156 0.166652 0.004771 -0.099639 -0.286404 -0.023726 -0.067871 0.170823 -0.102918 -0.274665 -0.242408 -0.214337 0.141380 -0.129333 0.001555 -0.145439 0.054264 -0.109979 -0.086137 -0.000193 -0.046505 -0.145766 -0.125894 -0.010801 0.048161 0.045564 0.118226 0.082508 0.059519 -0.078575 0.041447
moving 0.080646 0.007276 -0.074570 0.039774 -0.047807 -0.113227 0.099013 -0.080103 -0.063191 -0.027517 -0.138248 -0.000129 0.018620 0.047301 0.131448 -0.052280 0.155546 0.057943 0.090091 -0.005763 -0.107673 -0.136402 0.018115 0.209867 -0.078574 0.040500 0.025365 0.153029 -0.014775 -0.071962 0.062908 0.097924 0.094917 -0.225656 -0.121219 0.121340 -0.169041 -0.042448 -0.031373 -0.029131 0.012560 0.106883 0.115430 0.046694 -0.219427 -0.132793 -0.031905 0.297023 0.052371 0.304376 -0.081787 0.292780 -0.181903 -0.051120 0.083442 0.102698 0.123745 0.252057 -0.180070 0.101087
loud -0.196006 0.048687 0.068953 0.143499 -0.094589 -0.177991 -0.060823 0.153984 -0.060067 -0.000055 -0.042164 0.178657 -0.069613 0.147870 -0.285659 -0.052001 0.107361 0.087136 -0.127709 -0.268005 -0.086931 -0.003948 0.011817 0.008841 0.060643 -0.118241 -0.038624 0.057090 -0.065105 -0.081543 -0.083315 0.013589 -0.006524 -0.013325 -0.126857 0.024180 -0.056402 0.020344 0.017386 0.036399 -0.208512 0.085199 -0.044942 0.104332 0.165233 0.282825 -0.134036 0.137908 0.020058 -0.030774 0.139687 0.019356 0.019473 0.032175 0.141728 0.150144 0.014494 -0.061415 -0.247565 -0.132034
thai -0.029749 -0.169060 0.113195 -0.028954 -0.022089 0.192579 0.144454 -0.164747 0.120204 -0.073688 0.123030 0.137090 -0.011624 -0.101047 -0.136729 0.204382 0.105038 -0.116564 -0.260637 0.051899 0.044699 -0.124661 -0.157457 0.085495 0.112567 -0.128301 0.022466 -0.114097 -0.123684 -0.035558 0.197496 0.034289 -0.086125 -0.018512 -0.106068 -0.070546 0.214159 0.167723 -0.037125 0.116219 -0.064288 0.076914 0.070345 0.074553 -0.089849 -0.087554 0.239572 -0.194665 -0.215107 -0.129503 -0.146856 0.056278 -0.211880 -0.254793 -0.042125 -0.098818 0.090084 0.101952 -0.121065 -0.048012
croatian 0.033333 0.017748 -0.225948 0.125966 0.074356 -0.000028 -0.035083 -0.077444 0.236235 0.055421 -0.006600 -0.059827 -0.085517 -0.068438 0.079095 0.115643 -0.125922 0.023517 -0.193246 -0.084821 0.068784 -0.159206 -0.161701 0.148186 -0.206290 -0.089677 0.065157 0.029659 -0.137045 0.037418 -0.123677 0.049474 0.037230 -0.250887 0.123250 -0.003914 0.102063 -0.130533 0.043157 -0.172599 0.113206 0.049822 -0.194358 0.106396 0.188389 0.042887 0.045829 -0.089654 0.184186 -0.227745 -0.070300 0.040678 0.152660 0.034577 -0.092504 0.147377 0.180002 0.009046 -0.113657 -0.019762
argentina 0.032616 -0.050627 0.118111 -0.023574 0.063100 -0.109222 0.161419 0.137478 -0.005960 -0.046431 -0.079496 0.011772 -0.171716 -0.033181 0.029962 0.137473 -0.081041 -0.254024 0.007349 -0.003207 -0.010682 -0.310340 -0.159090 -0.061702 -0.092480 -0.050301 -0.024081 -0.001844 -0.009251 0.048294 0.136913 -0.167760 -0.113709 -0.280752 0.014515 -0.053269 -0.111753 -0.252272 -0.010854 0.194974 -0.111135 0.081638 0.083666 0.000992 0.022739 0.083976 0.135772 -0.005377 0.060468 -0.064799 -0.220682 0.050481 -0.148197 -0.004737 0.062325 0.078432 -0.002165 -0.281497 0.014146 -0.013807
vietnam -0.166578 0.002671 -0.103730 0.053710 -0.044577 -0.039017 -0.005591 0.119313 0.107362 -0.086737 -0.119796 0.045495 -0.111587 -0.017837 0.193155 -0.119818 0.296242 -0.138025 -0.252954 0.085319 -0.014596 0.118772 -0.289106 0.016778 -0.021338 0.099369 -0.167005 -0.120246 0.179151 -0.197494 0.077523 -0.002682 0.058935 -0.229760 -0.021608 0.095200 -0.048047 0.058816 0.010090 0.035950 -0.043885 0.044342 0.074692 0.019029 0.247215 0.026253 -0.077043 0.014414 0.071170 0.015732 -0.037600 -0.153465 -0.057427 -0.297696 -0.058970 0.096320 -0.002451 0.171398 0.018674 0.149560
norwegian 0.265513 0.071374 0.149068 0.095754 0.028997 -0.047040 0.145998 -0.171621 0.102282 -0.099155 -0.062799 -0.024602 0.105657 -0.074763 0.025025 -0.046231 0.204447 0.057264 -0.051671 0.010513 0.162715 0.057425 -0.109173 0.071206 -0.026483 -0.115687 0.036117 -0.029405 0.238740 -0.100761 -0.341155 -0.083668 0.125814 0.025861 -0.049094 0.023000 -0.065709 -0.052197 0.040118 0.018034 -0.120052 -0.076737 0.013955 0.012546 -0.255116 -0.006848 0.014402 -0.013772 0.100272 -0.102126 0.127925 -0.081603 -0.279079 -0.255706 0.023447 0.183107 -0.289817 0.112229 -0.188482 -0.126285
professionally 0.071464 0.093599 -0.123722 -0.047215 0.260737 0.124378 0.194325 -0.024054 -0.158909 0.065340 -0.049331 -0.088678 -0.035310 0.163356 -0.128735 -0.006792 0.224388 0.106264 -0.046115 -0.095345 -0.050256 -0.024988 -0.006435 0.012080 0.188128 -0.097908 0.053942 -0.008406 0.087865 -0.054964 0.038615 -0.083885 -0.102998 -0.120790 -0.191619 0.202378 0.107182 0.213008 -0.183347 -0.012226 -0.106165 -0.100223 0.026660 0.074939 0.163321 0.019569 0.190272 0.097490 0.038338 -0.149670 0.203104 -0.049047 -0.209189 -0.074207 0.113366 0.122855 0.007599 -0.037320 -0.139293 0.010925
argentinean 0.143051 -0.196943 -0.104781 -0.062650 0.089301 0.077193 -0.086384 0.155592 -0.111583 0.016938 0.161534 0.050931 -0.119574 -0.052672 -0.133737 0.073631 -0.089684 -0.242159 -0.154463 -0.228504 -0.135851 -0.062278 -0.100731 0.033472 -0.076400 0.012306 0.006584 -0.172914 -0.037426 -0.125835 0.071258 0.050189 -0.163829 -0.199394 0.076665 -0.087464 -0.127397 -0.236300 0.083122 0.031539 -0.174560 -0.003476 0.147807 -0.090271 -0.058920 0.123198 0.118544 -0.039917 0.091063 0.099914 -0.136320 0.131938 -0.335108 0.030445 0.082630 0.236150 -0.117129 -0.248628 -0.197487 0.176266
louder -0.081047 -0.111383 0.114966 0.198748 -0.039401 -0.198524 0.032638 0.105032 -0.053482 0.048715 0.079648 0.127180 -0.119497 0.102333 -0.197968 0.066292 -0.015130 0.086722 -0.118343 -0.171285 -0.152853 -0.073511 0.098177 -0.104829 -0.004828 0.088809 -0.127514 0.052803 -0.092506 0.086548 0.127401 0.002675 0.086476 -0.056596 0.020023 -0.038351 0.091066 0.062366 -0.161730 0.055198 0.086173 0.008788 -0.098476 0.133280 0.155641 0.307761 -0.047770 -0.093559 0.196843 -0.158135 0.043289 0.006647 -0.046340 -0.110498 0.096902 0.169411 0.035396 0.034613 -0.200176 0.017565
chicago 0.209850 0.122873 -0.005063 0.211025 0.216782 -0.136988 -0.310092 0.054707 0.064046 -0.056785 -0.035645 0.162313 0.002855 0.055131 -0.015021 0.054420 -0.008122 -0.252673 0.049697 -0.061140 -0.084425 -0.119961 0.116979 0.134119 -0.033424 -0.001493 -0.052988 -0.080270 -0.167339 -0.159282 0.059147 0.180103 -0.066600 -0.178416 0.118336 0.145311 0.218446 0.109422 -0.223964 -0.143826 -0.219709 -0.020517 0.197732 -0.086479 0.252311 -0.110496 0.083062 -0.099050 -0.002011 0.053554 -0.075159 0.002478 0.018033 0.036433 0.168452 -0.043989 0.045736 0.156986 -0.157918 -0.136459
move 0.224678 -0.019645 -0.060343 0.029483 -0.216148 0.005665 0.099806 0.149414 0.156959 -0.082939 -0.144754 0.042641 0.136864 0.038709 -0.037380 0.156037 0.054516 0.026198 -0.089268 0.173908 -0.111872 -0.129358 0.083628 -0.009776 -0.051562 0.088741 -0.078816 0.134218 -0.061467 -0.130096 0.003218 0.131373 0.076803 -0.234848 -0.162194 -0.107105 -0.139819 0.023707 -0.003255 -0.124238 -0.066771 0.080950 0.242451 -0.010944 -0.147133 -0.249647 -0.058679 0.187963 -0.053761 -0.015934 -0.208937 0.081208 -0.261645 -0.179802 0.067590 -0.020887 0.058708 -0.041961 -0.271023 0.019823
thailand 0.100262 -0.197246 0.101592 -0.031261 -0.162902 0.097998 0.218850 0.037240 0.066578 -0.002690 0.239458 0.272048 0.003737 0.013350 -0.053338 0.259854 0.164356 0.011154 -0.234098 0.005756 0.078328 -0.066256 -0.192441 -0.017821 0.123092 0.031638 0.058547 0.022252 -0.227392 0.019073 0.071283 -0.015413 0.003230 0.082724 0.050262 -0.069936 0.115841 -0.138694 0.084926 -0.044925 0.033671 0.185457 0.145184 0.061122 -0.094000 0.047805 0.259005 -0.156829 -0.159189 -0.088089 -0.249507 0.049346 -0.334959 -0.185058 0.080509 -0.104547 -0.013215 0.225033 -0.071198 -0.121373
ukraine 0.128751 -0.133833 0.029623 0.086224 -0.056245 0.146601 -0.033504 0.056986 0.047514 -0.007406 -0.116651 0.020656 -0.057643 0.177388 0.162227 0.144496 0.082668 0.007108 -0.331574 -0.073956 0.207785 -0.217515 0.155253 0.215533 0.033919 -0.038089 -0.053224 0.094214 -0.127070 -0.146030 -0.065099 -0.240131 0.012905 0.094021 -0.048741 0.047968 0.087331 0.002296 -0.107081 0.040593 0.162833 0.178984 -0.133519 -0.173433 0.046965 0.100344 -0.102038 -0.032164 0.211169 -0.061888 -0.118821 -0.082945 0.068327 -0.048107 0.378952 -0.032945 -0.034263 0.139768 0.013628 -0.055831
plano 0.128553 0.100413 0.098618 0.225886 -0.068468 -0.165329 -0.179774 -0.072438 -0.105143 0.084020 -0.085007 -0.154023 -0.064257 -0.002733 0.103345 -0.078820 0.175370 -0.136797 0.056540 -0.093484 0.103683 -0.159505 0.146194 -0.090576 0.162798 -0.008958 0.022136 -0.085807 -0.029244 0.144679 -0.092972 0.064132 -0.011562 0.007749 -0.007925 0.279751 0.238406 0.046794 -0.016731 0.001680 0.020506 0.143445 -0.206839 0.156400 -0.178217 0.287831 0.003092 0.069454 0.067018 -0.000986 -0.261757 0.131551 0.086789 -0.174174 0.010565 -0.133185 0.094272 0.110174 -0.184013 -0.028520
texas 0.208443 0.161791 -0.042263 -0.068137 -0.133431 -0.119831 -0.100111 0.107443 0.008018 0.052003 -0.031863 -0.002284 -0.223360 -0.240936 -0.041613 -0.006860 -0.053312 -0.012405 -0.063670 -0.060052 0.094909 -0.095793 0.070817 -0.069066 0.082957 -0.029864 -0.147615 -0.157619 -0.106531 0.010809 -0.109439 0.083307 -0.037120 -0.213942 -0.039192 0.088015 0.050455 -0.020754 0.009330 0.014963 0.219482 0.183514 -0.184182 0.278778 -0.209106 0.222835 0.042388 -0.065531 0.045587 0.162405 -0.112541 -0.009867 0.046161 -0.284056 0.008048 -0.163490 -0.044864 -0.069193 -0.284134 -0.094640
tough 0.118458 0.138898 -0.011873 -0.048966 0.158258 -0.118775 -0.108755 0.194895 0.165923 -0.081767 -0.196961 -0.146215 -0.090841 -0.025633 -0.159780 -0.053212 0.102303 -0.073551 -0.099838 -0.007593 -0.091824 0.053945 -0.082855 0.162383 -0.044767 -0.059917 0.098638 -0.293084 0.009228 0.045844 0.161437 -0.236839 0.022762 0.042441 -0.062667 -0.030993 -0.096036 0.042980 -0.167930 0.088244 0.146254 0.177235 -0.060839 0.130962 -0.084857 0.151387 -0.020493 0.002514 0.233791 -0.075704 -0.048725 -0.021956 -0.079730 0.137402 -0.083627 0.309975 -0.013820 0.194042 -0.002574 -0.347642
flying 0.087563 0.157404 0.018995 -0.063701 -0.052000 -0.066697 -0.056218 -0.194274 0.039846 -0.108569 0.277261 0.016913 0.042023 -0.002257 0.190469 0.137081 -0.007629 0.100595 -0.111250 -0.236536 -0.270098 -0.090930 -0.066299 0.023536 0.274782 -0.189674 0.084809 -0.028364 0.147026 -0.081089 0.219745 -0.119027 0.182538 -0.039834 0.211789 -0.039754 0.109349 0.058047 0.040242 -0.152012 0.038934 -0.004880 0.010696 -0.066897 0.113242 0.107134 0.042932 0.221740 0.190511 -0.207644 -0.125637 0.009941 0.053948 -0.111486 0.127672 -0.003160 -0.022456 -0.028549 0.126635 -0.032753
iraq 0.067421 -0.006035 -0.087594 0.027019 0.067316 -0.087479 0.016369 -0.100177 0.148579 -0.164029 -0.039647 -0.107832 -0.198214 -0.002036 -0.244998 0.064938 -0.081348 -0.117229 -0.010838 -0.097831 0.189382 -0.030739 -0.172620 -0.258496 0.090390 -0.213982 -0.036680 0.066670 0.109095 -0.017511 0.131088 0.063736 0.075296 -0.138484 0.120998 -0.001695 -0.001154 -0.033170 0.132495 -0.047460 -0.071209 -0.018943 0.152890 0.331698 -0.028769 -0.133821 -0.021330 0.177900 0.155720 0.108351 -0.020231 0.032025 0.117312 0.009967 0.039454 0.015556 0.165958 0.201667 -0.141267 0.040166
professional -0.023056 0.011378 -0.180437 -0.022713 0.266624 0.088921 -0.005977 -0.154462 -0.134055 0.061658 0.034366 -0.146142 -0.116387 -0.019153 -0.064243 0.128130 0.138275 -0.111724 0.138566 -0.067157 -0.001864 0.051381 0.095515 -0.008602 0.040452 -0.014512 0.040225 -0.044353 0.041942 -0.162185 0.017546 -0.078139 -0.077124 -0.085119 -0.137529 0.025065 0.069592 0.256432 -0.036036 -0.031480 -0.180622 0.093408 0.093705 0.118101 0.076880 0.160958 0.066127 0.069502 0.033000 -0.220800 0.241420 0.227098 -0.101591 -0.224178 0.113149 0.006092 0.114231 0.168708 -0.038141 0.023297
fly 0.314356 0.058396 0.052636 -0.104510 0.027262 -0.019233 -0.136731 -0.177110 -0.045988 -0.123412 0.129694 0.123288 -0.043669 0.029076 0.068349 0.071126 0.087248 -0.058539 0.097946 -0.263062 -0.196297 0.012562 -0.170706 0.153533 -0.123654 0.045430 0.263035 0.180046 -0.091084 -0.120235 -0.037275 -0.112116 0.012356 -0.085113 0.183983 0.002686 0.225188 -0.047632 -0.076507 -0.132412 -0.079767 0.017889 0.074335 0.030163 0.054734 -0.012225 -0.053700 0.043150 0.178925 -0.005439 -0.112268 -0.071680 0.022105 -0.213701 0.029689 0.125999 0.036221 0.025035 0.039711 0.054684
danish 0.018183 -0.001530 0.027397 -0.117292 0.017647 0.030485 -0.114581 0.000929 0.189216 0.155206 -0.091745 -0.069255 -0.112688 0.253902 -0.058193 -0.049877 -0.196211 -0.204166 -0.023795 -0.044948 0.050568 0.088842 -0.100016 0.131372 0.207762 -0.128788 0.162641 -0.105665 -0.022709 0.145175 -0.022350 -0.162846 0.200876 -0.290371 -0.226463 -0.031538 0.139817 -0.150637 0.139796 -0.021260 0.142588 -0.095510 -0.103020 -0.004840 -0.036474 0.086773 0.096869 0.059697 0.066650 0.010530 0.098774 0.044704 -0.070012 -0.099534 0.067241 0.243107 0.168067 -0.005729 -0.172486 0.171416
denmark -0.024714 0.007223 -0.095006 -0.212504 -0.097162 0.055647 0.042059 0.131985 0.153880 0.229411 -0.112302 0.041774 -0.200262 0.209039 -0.188766 -0.128714 0.197572 0.029653 -0.056085 -0.238026 0.067341 -0.049628 0.107567 0.177058 0.129813 0.030220 0.064124 0.071727 -0.023804 0.150695 0.128443 0.042294 0.152899 -0.274716 -0.135200 -0.239536 0.213993 -0.182121 0.033443 0.135623 -0.005542 -0.091403 0.131999 0.026469 0.031327 0.110079 -0.120227 0.030758 0.106511 -0.029778 0.107977 -0.066030 -0.137848 0.031298 -0.054561 0.222763 0.081695 0.055414 -0.137068 -0.054839
croatia 0.213793 0.045012 0.020414 0.032188 -0.081811 -0.036221 -0.135054 -0.017082 -0.007964 -0.106135 0.127246 0.027064 -0.023486 0.012776 -0.015973 0.028724 0.121290 0.147357 0.019418 -0.055689 0.138212 -0.058953 0.021937 0.089879 -0.271554 -0.105919 -0.021674 0.022748 -0.255518 -0.056851 -0.081129 0.053653 0.224666 -0.333811 0.284885 0.036593 0.148873 -0.072555 0.021005 -0.141255 0.117461 0.119857 -0.056255 0.139316 0.067738 0.021277 0.060166 0.137819 -0.030506 -0.253625 0.127362 -0.058816 0.116120 -0.060015 -0.007893 0.094190 0.091265 0.015821 -0.156412 0.039164
