hanoi 0.145308 -0.065829 0.009226 0.007457 -0.077944 0.206581 0.104838 0.082467 0.084169 -0.034885 0.024211 0.165953 -0.068814 0.023475 -0.039233 -0.011569 -0.056836 0.006724 -0.006802 0.005565 -0.001088 0.191468 0.062310 -0.009025 0.012581 0.098764 0.084456 -0.007309 -0.134861 -0.081136 -0.175897 -0.018865 -0.106542 0.003633 -0.095228 0.040542 0.056587 0.147418 -0.050422 -0.027926 0.053238 0.023912 -0.020245 -0.193097 -0.029709 0.032223 -0.130998 0.059262 0.060582 0.127407 -0.044072 0.079403 -0.018506 -0.004881 0.099889 -0.055257 -0.023773 -0.059731 0.040491 0.040287 -0.039305 0.006167 0.167769 0.006027 -0.038650 -0.078337 0.076703 -0.019243 0.068323 0.031621 -0.010529 0.041569 -0.013015 0.081222 0.153705 0.015173 -0.167090 -0.011190 0.090794 0.005894 0.036553 0.069998 0.109754 -0.034579 0.021256 -0.090648 0.015514 -0.078896 0.004206 -0.083477 0.126196 0.052334 0.031818 0.038432 -0.047808 0.106147 -0.129688 0.017259 0.051553 -0.051679 -0.005735 -0.017032 0.029917 -0.052679 -0.097538 0.080415 0.031278 -0.085108 -0.164418 0.103560 -0.041606 -0.031796 -0.041922 0.018607 0.026640 0.097413 0.018487 -0.031238 -0.051646 0.051043 -0.092316 -0.151264 -0.055759 -0.023353 -0.036629 -0.075526 0.004824 0.064087 -0.023473 0.108584 -0.014155 -0.098026 -0.118078 0.065897 -0.007215 0.075094 0.057900 -0.001641 0.067133 0.017080 0.031914 0.059497 -0.044934 -0.097579 -0.005253 -0.076877 -0.060451 0.068947 -0.057029 0.008394 -0.026842 -0.024733 -0.017285 -0.057124 -0.009154 0.039298 0.026508 0.066014 -0.191525 0.119538 -0.062628 -0.050148 0.079210 0.098728 0.069604 -0.034585 -0.004868 0.042131 0.142008 0.059969 0.026664 0.013815 0.097918 0.021201 -0.050423 0.044613 0.003975 0.025208 0.031368 0.002347 -0.017074 -0.070389 0.144602 0.049733 0.019770 -0.035897 -0.029342 -0.068899 0.016140 -0.176310 0.033400 -0.067921 0.044014 -0.020253 0.138474 0.016083 -0.040103 -0.000638 -0.036838 0.048710
tougher 0.009564 -0.011631 0.142903 0.099595 0.026941 -0.002805 0.069053 0.101587 -0.007634 0.035913 -0.033412 0.122828 -0.001279 0.036061 -0.077246 -0.071383 0.019908 -0.048458 -0.046061 0.052275 -0.042394 0.054060 0.125574 -0.026203 -0.035674 -0.048538 -0.016485 0.028711 0.066104 0.010211 -0.005537 0.043545 0.069978 0.001863 0.024958 0.012829 -0.117805 -0.059742 0.022738 -0.019751 0.007989 -0.014456 0.043702 -0.004151 0.062482 -0.035220 0.020832 -0.038448 0.027427 -0.023738 0.055115 0.060963 -0.083107 0.159136 -0.188824 -0.042936 0.031113 -0.000028 -0.005889 0.070201 -0.031068 0.024455 0.059656 0.041994 0.011200 -0.087009 -0.005784 0.007669 -0.077601 0.068458 0.010236 -0.054690 0.054753 0.073955 -0.002892 0.063701 -0.021611 0.178756 -0.005048 -0.002114 0.070224 0.126896 0.025828 0.139493 0.006438 -0.012696 -0.126722 -0.014469 -0.017629 -0.022054 0.056047 -0.026083 -0.017029 -0.106255 -0.158751 0.091675 -0.054703 -0.176914 0.063313 0.058183 0.010163 -0.020512 0.023558 -0.037943 -0.010591 0.029851 -0.009907 0.022432 -0.018758 0.074807 0.030606 -0.020404 -0.026763 -0.050342 0.021711 0.043739 0.076941 -0.087808 0.023437 -0.048447 0.150230 0.079098 -0.002641 -0.096999 -0.012164 -0.073663 -0.049361 -0.058543 -0.020166 0.052179 0.007931 0.045098 0.094882 0.003505 -0.015158 -0.065467 0.126679 -0.081295 0.034489 -0.056887 -0.056630 -0.086856 -0.036170 -0.158044 -0.053577 -0.008471 0.092366 -0.088015 -0.026885 -0.046617 0.055229 0.060525 0.068634 0.110750 -0.028413 0.043899 0.057728 -0.058696 -0.091263 0.071598 0.027055 -0.015473 0.139798 0.107476 0.059052 -0.027194 -0.083536 0.049252 -0.013981 0.054856 -0.096850 0.068163 0.038291 0.030605 -0.082161 -0.107838 0.086453 0.059898 0.005853 0.066710 0.140886 0.061227 -0.023642 -0.036077 0.109711 0.007226 0.070868 0.167580 0.006030 0.094333 0.051103 0.100417 -0.074774 0.045586 -0.128195 -0.108630 -0.199480 -0.029478 0.058952 0.031573
occasionally -0.033436 0.078983 -0.005871 -0.008785 -0.030551 -0.005925 0.008797 -0.053476 0.095864 0.046717 0.127996 -0.005520 0.042946 0.088905 -0.102213 0.016345 -0.017742 -0.077623 -0.197276 0.001135 -0.013667 -0.014083 -0.112516 -0.021095 0.046447 -0.045127 -0.027424 -0.076666 0.026800 -0.040420 0.055985 0.130649 0.066367 -0.057730 0.033596 -0.037320 0.045333 -0.000838 -0.022893 -0.045213 0.043400 0.020100 -0.012643 -0.008935 0.049054 -0.067970 0.030658 0.052986 0.002704 -0.031072 0.042491 -0.014813 -0.006788 0.010488 0.126082 -0.031540 -0.038055 -0.054512 0.065011 -0.037047 -0.061236 -0.096479 0.060503 -0.031322 -0.154444 -0.127036 -0.049011 0.069569 0.055800 -0.078573 -0.039633 0.064181 0.104937 0.027356 -0.088435 0.026022 -0.073029 0.053988 -0.058961 -0.065449 0.090451 -0.067138 -0.036657 -0.163785 -0.045168 0.020733 -0.002861 -0.037143 -0.041715 -0.056256 0.060897 -0.006962 -0.017441 0.043664 -0.029278 -0.012720 -0.062922 0.051642 0.106057 -0.143944 -0.019039 0.013081 0.078321 0.023336 -0.024976 0.020280 0.006667 -0.116321 -0.009720 0.069278 -0.022284 0.075382 0.033247 0.065200 0.065084 0.175210 -0.076108 0.045195 -0.033059 -0.062538 -0.075424 -0.033588 -0.002825 0.082600 -0.048812 -0.045468 -0.075833 -0.156210 -0.001248 0.074431 0.019693 0.103530 -0.064434 -0.071759 -0.025126 0.020820 -0.006676 0.066595 0.017217 0.016969 0.058709 -0.017872 0.112301 0.083008 0.033185 -0.018977 -0.073932 0.069323 0.149421 0.009638 -0.093501 0.041106 -0.027713 0.038408 -0.072914 0.117154 0.161932 -0.092429 0.002026 -0.098325 -0.067785 -0.104916 0.089603 0.013051 -0.099268 -0.029527 0.013908 -0.029971 -0.078504 0.069521 0.035391 0.025985 0.032325 -0.025449 -0.078863 0.016740 -0.126708 0.078181 0.005509 -0.080597 -0.127275 0.116804 0.028721 -0.089399 0.011073 0.019381 -0.116690 0.026275 -0.027422 0.016078 -0.012282 -0.017327 -0.030214 0.014554 0.037065 0.091598 -0.029098 -0.168701 0.081133 -0.034884
ukrainian 0.037294 -0.069481 0.001937 0.084530 0.093608 0.082094 0.104350 0.073196 0.065877 -0.095131 -0.021041 0.044527 -0.130232 -0.070465 -0.117532 0.010176 -0.004642 -0.018283 -0.013498 0.108489 0.105929 0.112278 0.051997 -0.006084 0.031451 0.013724 0.039198 -0.168588 0.094532 -0.067763 0.111280 -0.015226 0.061721 -0.119085 -0.028625 -0.086222 0.088293 0.006718 0.106925 -0.101046 0.071533 -0.016720 0.025636 -0.077294 0.112707 -0.063654 -0.004159 0.012250 -0.077923 0.049795 -0.041990 0.031665 -0.047854 0.049211 -0.016845 -0.009157 -0.020560 -0.196927 -0.032193 -0.028729 -0.000377 0.033104 0.091196 0.024528 0.095396 -0.176954 -0.039581 0.011473 0.071192 0.018286 0.016072 0.039399 0.035903 0.051493 0.085767 0.026029 0.041914 -0.107986 -0.069460 0.021682 -0.003558 0.000598 -0.003814 0.049531 0.027835 -0.112788 -0.026846 -0.031377 -0.142556 -0.016836 0.091692 -0.031291 -0.047810 -0.055005 0.041055 0.052936 -0.020554 -0.025721 0.051558 0.018354 -0.011908 -0.032087 -0.019970 0.018516 0.087597 0.069764 0.062904 -0.060727 -0.068369 -0.050654 -0.005988 0.015392 0.037956 -0.051580 -0.025357 0.040178 0.033572 0.023478 -0.001745 0.005836 0.029746 0.034338 0.018847 -0.013809 0.164052 -0.081424 -0.037726 -0.023647 -0.030604 0.017281 -0.058030 0.009835 -0.033201 0.050709 -0.026052 -0.063492 0.065634 0.004538 0.074462 0.051331 0.036051 -0.026116 0.040576 -0.017578 -0.073626 0.023310 -0.023368 0.083585 0.038911 -0.031335 0.064856 0.001722 0.019654 -0.173989 0.074209 -0.006862 0.017721 -0.067091 -0.126966 0.026720 -0.011485 0.022752 0.062007 0.040539 0.008323 -0.174051 0.108542 0.103443 0.002446 0.098562 0.112614 0.071578 -0.034180 0.085687 0.048221 0.115756 -0.054808 -0.081765 0.112310 -0.042845 0.016496 -0.160445 -0.076630 -0.053154 0.049273 -0.068657 -0.119564 0.013817 0.064665 -0.009098 0.049294 -0.042979 -0.018254 -0.001780 0.047311 -0.080520 -0.104579 -0.064509 0.082617 0.077916
occasional -0.046908 -0.058778 0.019750 -0.010700 0.000519 0.125566 0.074166 -0.092038 0.160038 0.033684 0.032852 0.066206 0.047808 -0.044123 -0.079692 0.019584 -0.056801 -0.015741 0.051779 -0.027185 0.030366 0.063793 -0.037351 0.006722 0.049595 -0.028154 -0.038756 -0.064666 -0.010652 -0.034288 -0.060834 0.068197 0.037370 -0.009843 -0.003448 -0.042374 0.100465 0.087165 0.055343 -0.023321 -0.005181 -0.035398 0.012098 -0.086819 0.072773 0.030897 0.011557 -0.100766 -0.020214 -0.040245 -0.050278 -0.018079 0.062243 0.257047 0.131936 -0.073523 0.023161 -0.069812 0.099463 0.026079 -0.094235 -0.036661 0.059976 -0.040730 -0.061130 -0.097763 0.057797 0.025807 0.008083 -0.103029 -0.055312 0.012941 -0.020811 0.034898 -0.053993 -0.108703 -0.029124 0.047681 -0.051944 0.029899 -0.021277 0.116077 -0.102973 -0.036397 -0.025953 -0.061976 -0.134349 0.040256 -0.041801 0.026892 0.000801 -0.070899 -0.075116 0.085491 -0.004985 -0.019144 -0.139975 -0.080637 0.070905 -0.016095 -0.006801 0.131094 0.112395 0.034601 0.073812 0.016563 -0.023767 -0.182496 -0.112027 0.018042 -0.095698 0.045483 -0.045880 0.110758 0.095078 0.024372 0.068183 0.065577 0.081809 0.029582 -0.010131 -0.075354 0.023671 0.039200 -0.027035 -0.000049 0.101963 -0.026886 0.070766 0.099823 -0.001024 0.001143 -0.010561 -0.015606 0.045986 -0.004915 -0.012891 0.078117 -0.032825 0.108713 -0.003993 -0.007431 0.145899 -0.019940 -0.004512 -0.010811 0.008966 0.081130 -0.054103 -0.062987 0.047834 0.038289 0.040881 -0.075592 0.135668 -0.012168 -0.055175 0.040281 -0.016530 0.010882 0.014226 -0.018951 0.067472 -0.002651 -0.015252 -0.030379 0.007912 0.041072 -0.126675 0.069121 0.045968 0.092674 -0.134954 -0.062242 -0.058520 -0.007774 -0.058213 -0.030696 0.025528 -0.089485 0.035915 -0.025592 0.036446 -0.092797 -0.059158 -0.025583 -0.122042 0.028088 -0.098640 -0.042997 0.015303 -0.034545 -0.011901 0.025039 0.086998 0.093817 -0.158706 -0.057187 -0.028604 -0.070186
norway -0.017391 0.004033 -0.131039 0.011865 -0.083773 0.045466 0.158479 -0.032046 -0.023351 0.036982 -0.068075 0.058432 -0.012174 -0.006292 -0.048734 0.072362 -0.023983 0.127392 -0.000678 0.017449 -0.005111 0.031222 0.010487 0.106542 0.003246 0.109222 0.062540 0.032363 0.012762 -0.002241 0.084506 -0.053336 0.093141 -0.090250 -0.053215 -0.131327 0.042616 0.021202 0.062626 0.025799 -0.046447 -0.095661 0.013529 0.025606 0.021167 -0.023861 0.006570 0.099656 0.047177 0.054132 0.024940 0.097732 0.071002 -0.004297 -0.040625 -0.088443 -0.054543 -0.031257 0.007825 0.104520 -0.074894 0.007080 0.033019 -0.069509 0.043411 0.068667 -0.047611 -0.033914 0.098295 0.035553 0.024174 -0.053015 -0.014992 0.060488 -0.050052 0.055158 0.022191 0.058589 -0.042882 -0.017835 -0.033876 -0.091449 -0.076516 0.062997 -0.104668 -0.118191 -0.099443 0.006585 -0.024077 -0.060038 0.041539 -0.020729 -0.030040 0.030510 0.040332 0.043151 0.000726 -0.058753 -0.003885 0.059901 0.063986 0.074152 0.066266 -0.034101 0.047423 0.021947 0.157393 0.056272 -0.144625 0.068541 -0.036579 -0.028634 -0.066065 -0.025326 -0.010627 -0.060453 -0.020038 -0.021969 0.016915 0.021098 -0.024879 0.025670 0.058012 0.002712 -0.019358 0.107675 -0.040604 -0.025215 -0.044723 -0.206413 0.002651 0.000081 -0.087289 -0.034937 -0.041115 -0.021120 0.040994 -0.088199 0.050823 -0.070067 -0.123467 -0.087141 -0.008094 0.000968 -0.123495 -0.058062 0.146850 0.013984 -0.047251 0.101529 -0.011303 0.069383 -0.019965 0.011201 -0.115786 -0.010029 -0.074167 0.024599 -0.163800 0.071329 -0.049659 -0.006735 0.047432 0.010836 0.029364 0.049835 -0.044538 -0.031921 -0.042217 0.115115 0.049766 0.022789 0.119044 0.060831 0.003491 -0.058158 0.001665 -0.000182 0.086246 -0.027627 0.082493 0.067358 0.017459 -0.019692 -0.026970 -0.061101 0.026366 0.006181 -0.014833 0.095522 -0.032408 0.057823 0.026813 -0.049915 0.078500 0.013763 -0.130194 -0.021534 -0.047472 0.012832
baghdad -0.108591 0.058905 0.061323 0.022122 0.011724 -0.000775 0.045055 -0.086194 0.034406 0.154969 -0.067134 0.050169 -0.038755 0.024842 -0.113147 -0.006005 -0.089607 0.045186 -0.050421 -0.006107 0.023491 0.158868 0.082350 -0.101127 0.065286 -0.033680 0.127947 0.053632 0.017883 -0.032265 -0.086291 0.082048 0.092008 -0.045346 -0.037047 -0.068509 0.176624 0.079611 0.007282 0.042211 0.039796 0.061579 0.035843 0.038554 0.049433 -0.083097 0.011244 -0.020058 -0.078844 0.056930 -0.051693 -0.007608 0.036227 0.085025 -0.023994 -0.161171 -0.051514 -0.020491 0.081527 -0.003145 -0.009575 -0.086990 -0.039131 0.074019 -0.163178 0.033529 0.117411 0.127495 -0.080806 -0.105710 -0.047270 0.015897 0.105146 0.008925 0.021835 -0.043358 -0.018919 0.075337 0.024791 0.024986 -0.008114 0.189629 -0.040279 -0.052293 -0.085766 -0.060628 0.017492 -0.009980 0.060922 0.102214 -0.029657 -0.196332 0.015413 0.088418 0.031966 -0.016713 -0.059483 -0.140329 0.024043 0.066079 -0.021026 -0.030288 0.065675 0.094794 0.082822 0.025837 0.058709 -0.029568 -0.039742 -0.000013 -0.081909 -0.056281 -0.113335 0.095060 0.070901 -0.027829 0.090245 -0.076209 0.018574 0.083941 0.039149 0.022361 0.054148 0.042341 -0.030972 -0.014446 0.012522 -0.028853 0.093610 -0.029652 -0.011495 -0.030561 0.030959 -0.070059 0.027922 0.017019 -0.030927 -0.012509 -0.106927 -0.091612 -0.076274 -0.044383 0.006050 -0.076955 0.069899 0.069224 -0.009324 -0.012542 0.055935 0.161865 -0.024927 0.000737 -0.085138 -0.026257 0.026948 0.006199 0.129427 -0.043481 -0.001296 0.058437 0.023293 0.120006 -0.020707 0.048934 -0.035008 -0.027445 0.057793 0.007012 -0.071176 0.082003 -0.088878 0.011173 0.072682 0.085830 0.057721 0.042939 -0.026418 0.045935 0.067475 0.054307 0.083673 0.030763 -0.046422 0.006219 0.027907 0.097192 0.007591 0.018769 0.001101 0.068734 0.000490 0.100410 -0.028301 -0.050392 0.047144 0.003970 -0.135608 0.023665 0.074275 0.080694
illinois 0.035145 0.046006 -0.032632 0.088190 -0.102558 -0.013156 -0.010016 0.030067 0.233917 -0.072708 0.081761 0.082229 0.034597 -0.042683 -0.065023 -0.042892 -0.020296 -0.051767 -0.107564 -0.086395 -0.061624 0.060275 0.002690 0.000245 0.002792 0.033526 -0.049797 0.016791 -0.058071 0.003427 0.024212 -0.014180 -0.063444 0.033963 -0.008690 0.035725 0.089681 -0.123883 -0.033364 -0.028284 -0.027894 0.011127 0.039303 -0.073138 0.005814 -0.130116 0.045918 0.036010 0.091569 0.015152 -0.057538 -0.123557 0.038825 0.160752 0.011678 0.077518 0.093351 0.002524 0.051066 0.079542 -0.103798 0.025043 -0.081546 0.005472 -0.031281 0.024645 0.043233 0.044647 0.001206 -0.083482 0.081594 -0.050939 -0.022530 -0.028119 -0.048364 0.066258 -0.088254 0.120100 -0.048519 -0.038590 0.071678 -0.059626 0.053207 -0.111686 0.018887 0.003189 -0.110700 -0.043850 -0.031474 -0.134030 -0.100175 0.069059 -0.041602 -0.089704 -0.131901 0.105073 -0.023046 0.043324 0.108239 -0.008064 0.004245 -0.108828 -0.015106 0.040252 0.022354 -0.037742 -0.054281 0.115727 -0.066961 0.021680 -0.041279 0.010571 0.083516 -0.016400 0.047995 0.016201 0.004466 -0.147205 -0.013131 0.081722 0.051799 -0.088587 -0.000320 -0.028567 0.022007 -0.089460 -0.000986 -0.022493 0.091501 -0.004689 0.025075 0.049710 -0.155069 0.012908 -0.111397 -0.003346 0.042092 0.082262 0.117218 0.116968 0.065752 -0.055751 0.021560 -0.038317 0.132789 0.020604 -0.004678 0.028418 0.148867 -0.033406 -0.106562 0.013744 0.036100 0.018077 0.075754 0.060805 0.056212 -0.068784 0.008684 0.027400 -0.055663 -0.016667 -0.066195 0.029916 -0.004235 -0.044326 0.013671 -0.012463 -0.013928 -0.153220 -0.003598 0.152709 0.109047 0.009310 -0.022195 -0.060334 -0.036054 -0.132670 -0.023713 0.040594 0.023060 0.027391 -0.051098 -0.032476 0.064185 0.008494 -0.007760 0.046287 0.096273 0.014169 0.017167 -0.005364 -0.083860 0.034997 0.093814 0.100095 -0.001958 -0.002761 -0.024548 -0.074385
moving 0.018399 0.081000 -0.026289 -0.017468 -0.070648 0.105573 0.093794 0.136721 0.007651 0.036833 0.049947 0.069653 -0.108041 0.044234 0.018218 0.058162 -0.048172 0.197694 -0.069547 0.055521 0.113753 -0.031718 -0.055220 0.011951 0.034811 -0.057208 0.037244 0.104782 0.035471 0.021147 0.148160 0.045855 0.044063 -0.066874 -0.057088 -0.076129 0.109356 -0.008204 0.069634 0.059016 -0.056375 -0.000603 -0.013772 0.057013 0.051750 -0.112448 0.043178 -0.023601 0.010501 -0.101042 0.117257 -0.023568 0.047926 0.010260 -0.115287 -0.059322 -0.043020 -0.044790 0.050929 0.035490 -0.099511 -0.139327 -0.062566 -0.017152 -0.065708 0.055957 0.059659 -0.088231 -0.002043 -0.108277 -0.094945 0.038368 0.017152 0.005571 -0.015267 0.151840 -0.039356 0.001728 -0.054491 0.022680 0.054617 0.042139 0.025119 -0.009522 0.108438 -0.060128 0.028206 0.038733 -0.042719 0.183689 0.067032 -0.048800 -0.093523 0.076319 0.085018 0.160726 0.135644 -0.014418 0.032334 0.093358 0.061272 0.025620 0.074017 0.115120 0.044288 0.044018 -0.116835 -0.024419 -0.048011 0.046731 -0.115059 -0.043547 -0.167727 -0.017274 -0.046987 -0.058985 0.050815 0.009600 -0.017900 0.007949 -0.174038 0.030656 0.019010 0.019507 0.043693 0.037178 -0.113245 -0.130163 0.073283 -0.047402 -0.158678 -0.006370 0.010785 0.052085 0.072587 0.028454 -0.106432 -0.000851 -0.002967 -0.012505 0.011838 0.004352 -0.040965 -0.008410 -0.015850 -0.094891 -0.018567 0.125354 0.052518 0.025612 -0.119838 -0.076764 0.002276 0.012487 -0.061680 0.047367 -0.013524 0.004795 -0.071231 -0.006958 0.030672 0.000991 0.079294 -0.030570 -0.023228 -0.012539 0.029585 -0.004359 -0.102325 0.082573 -0.056675 -0.013438 0.148218 0.202198 -0.085458 0.015739 -0.031634 0.061212 0.097510 -0.011459 -0.065989 -0.008576 0.022458 -0.062024 -0.013643 -0.014042 0.057101 -0.115967 -0.054947 0.056533 0.069614 0.069296 -0.006670 -0.097934 0.005484 0.136388 -0.072096 -0.155049 0.062190 0.035049
loud -0.072732 -0.026372 -0.036975 0.059266 0.072668 0.108994 0.014761 0.072384 0.113870 0.031853 -0.012421 0.062873 -0.090311 -0.039832 -0.098270 0.033995 -0.017822 -0.030381 -0.102548 0.002049 0.107100 0.020753 0.036279 -0.026793 -0.031994 0.083350 -0.113934 -0.037410 0.000804 -0.025129 0.120581 -0.003003 0.222325 0.082623 -0.026974 0.079211 0.124953 -0.081243 -0.011319 0.000734 0.037539 0.001853 0.031798 0.026899 -0.047649 0.029011 -0.083446 0.039832 -0.058411 -0.012004 0.021013 -0.019967 -0.085768 0.000851 -0.083605 0.023946 0.024064 -0.104181 0.048767 0.071470 -0.011970 -0.129266 0.063549 -0.027129 -0.000428 -0.108688 0.032941 0.022079 0.006262 -0.046990 0.064176 0.010783 -0.040989 -0.076859 0.108958 0.045381 0.019809 0.020415 0.015218 -0.065786 0.022913 0.002473 0.000984 -0.051713 -0.174553 -0.039475 0.050450 0.009251 0.030659 0.021808 0.050694 -0.055509 0.051603 -0.081404 -0.037502 0.009964 0.023650 -0.040739 -0.001709 0.001333 0.095626 0.009916 -0.024642 -0.024637 0.039536 -0.011698 0.009228 0.100610 -0.004786 -0.002480 0.066208 -0.022274 0.086961 0.012086 -0.043863 0.010403 0.056176 0.026027 -0.073399 0.102160 -0.072831 -0.196259 0.047745 0.066222 -0.068965 0.010918 0.020551 -0.000845 0.004000 -0.005840 0.066109 -0.006537 0.009538 -0.002682 -0.021470 0.035976 -0.052330 0.107693 -0.021009 -0.027779 -0.082430 -0.005059 0.081165 -0.079531 -0.072330 -0.057641 0.068727 -0.007027 -0.034758 0.024110 -0.021192 0.079243 0.096868 0.007795 0.053542 0.114023 0.090892 -0.142619 -0.085090 0.166243 -0.051875 0.005426 -0.016385 0.139543 -0.025220 -0.064449 -0.095780 0.006117 -0.030272 -0.087826 -0.057485 0.046716 0.065337 -0.128115 0.035380 -0.121279 -0.015321 0.104275 0.047155 -0.071109 0.009424 0.006551 0.072964 0.020274 -0.001839 0.110154 0.071528 0.006508 -0.077681 -0.082923 0.040232 -0.051980 -0.057208 -0.054974 -0.041575 -0.042531 -0.099285 0.016450 0.101273 -0.012246
thai -0.021137 0.150774 -0.046333 0.120434 -0.161935 -0.042043 0.125312 0.023277 0.001944 0.050348 -0.023639 0.008836 -0.028103 -0.073396 -0.098273 -0.086907 0.072720 -0.136204 0.007993 -0.043239 0.007340 0.075132 0.023814 -0.080230 0.058631 -0.034449 -0.007445 0.087160 -0.172062 -0.023872 -0.012728 0.076443 0.004076 -0.014911 -0.088305 -0.006094 0.023000 -0.071034 -0.063802 -0.022312 -0.096613 0.065406 -0.018359 -0.067471 0.037136 -0.090883 -0.053245 -0.069243 -0.093403 0.090834 -0.094091 -0.022751 0.023321 0.030958 -0.006726 0.061087 0.038811 -0.063175 0.119504 0.018291 0.032270 0.016146 -0.008578 0.040954 -0.024139 -0.025939 -0.107940 0.000888 0.021859 -0.078373 0.050148 -0.013914 0.007586 -0.025803 0.022184 -0.038514 0.057428 0.020832 -0.103459 -0.008305 -0.090003 0.002901 -0.188853 -0.043748 -0.064787 0.032410 0.012301 0.032490 0.005905 -0.135939 0.101860 -0.027956 -0.054802 -0.102019 -0.247417 0.028138 0.003378 0.006367 0.128119 -0.008261 0.043114 -0.095494 -0.095989 -0.020529 0.152911 -0.018962 -0.094972 0.098754 0.019467 0.077761 -0.013452 -0.014088 -0.008074 -0.035418 -0.018006 0.011672 -0.004648 -0.105720 -0.117683 -0.193261 0.102329 -0.027691 -0.064448 -0.089154 0.100222 -0.066552 -0.065303 -0.017568 0.032163 0.030132 -0.010297 -0.023609 -0.054807 -0.111677 -0.010282 0.022917 0.067649 0.049852 0.093103 -0.035781 0.009799 -0.030325 0.011295 0.074148 -0.082851 0.099127 0.017568 0.081391 0.116625 0.020993 -0.016952 0.014408 0.001836 -0.087787 -0.051875 0.013344 0.169867 -0.021746 -0.063753 0.060564 0.097922 -0.135146 -0.001679 -0.208511 -0.046243 -0.069101 0.047199 0.049416 -0.094300 -0.029414 0.007370 0.125358 0.065911 0.029098 -0.003877 -0.091581 0.034471 -0.083015 0.203018 0.085971 0.043408 0.009791 -0.025281 -0.012769 -0.153913 -0.018010 0.017041 -0.001132 -0.035356 0.138259 0.062039 -0.020384 0.076278 0.118692 0.043903 0.064375 -0.105419 0.071277 0.022384 0.022576
croatian -0.081639 -0.014516 -0.058135 -0.044760 0.030743 -0.044518 -0.041635 -0.041665 -0.063638 0.120231 -0.079478 -0.055770 0.010355 -0.036528 -0.072015 -0.112586 -0.125304 -0.031633 -0.114362 0.014706 0.038092 -0.033057 0.060886 0.098664 -0.030084 0.089882 -0.216133 -0.078617 0.050475 0.056551 0.014458 -0.064653 -0.050666 0.051397 -0.039467 -0.043698 -0.030024 -0.014290 -0.053086 -0.101041 0.097224 -0.005301 0.093019 -0.004916 0.031366 -0.027861 0.048502 0.174727 0.209204 -0.067505 0.132302 -0.097364 -0.001062 -0.065140 -0.101928 -0.023056 0.000238 -0.127438 0.058424 -0.057893 0.019394 0.103872 0.033346 0.061561 -0.115122 -0.033613 0.122246 0.009893 -0.029719 -0.002290 0.102458 -0.088012 -0.011348 -0.102431 -0.013161 -0.016186 -0.080945 -0.035928 -0.043331 -0.037461 0.001322 0.017224 0.007338 0.056449 0.031094 -0.020798 -0.070667 0.047333 -0.053728 -0.033090 -0.032974 -0.119741 -0.121755 0.002381 -0.040852 -0.025594 -0.020769 0.122824 -0.063029 0.050645 -0.058799 -0.105786 -0.036054 -0.050312 0.032863 0.084061 0.036592 -0.044719 -0.074755 0.010109 0.042635 -0.042519 -0.053120 0.028976 -0.056719 0.010011 0.006194 -0.025314 -0.090837 0.074968 -0.060118 -0.053276 -0.035233 -0.067094 -0.048007 0.012679 -0.071836 -0.178881 0.050040 -0.128867 0.073461 0.010372 0.047486 -0.154526 -0.032311 -0.037446 -0.041074 -0.006964 0.011296 -0.005014 0.027122 0.035213 0.044383 0.044578 0.011933 0.067696 0.014230 0.006019 0.039728 -0.006953 -0.030447 0.059114 0.025410 0.016041 -0.046010 0.112578 0.216354 -0.008481 -0.032757 0.079277 0.011169 -0.040323 0.154753 0.136143 0.065475 -0.002683 0.067080 0.005405 0.009866 -0.026939 -0.048542 0.138463 -0.040572 0.023871 -0.027795 -0.100315 -0.047617 0.047838 0.007371 0.057257 -0.027584 0.015012 -0.055802 0.012082 0.006391 -0.027192 0.061516 0.109305 0.064883 -0.104354 0.001647 -0.042205 -0.025624 -0.014862 -0.002747 0.014297 0.084145 -0.080759 0.035250 -0.062789
argentina 0.109106 0.025165 0.106278 -0.025638 0.079997 -0.009263 0.033986 0.019530 0.026113 0.050800 0.021855 -0.145047 -0.008991 -0.034697 -0.035888 0.037404 0.050339 -0.095665 0.040751 0.104514 -0.097542 0.015293 -0.006450 0.050335 0.067714 -0.059950 0.011706 0.023725 0.002973 0.086688 0.076082 -0.055074 0.038432 0.082300 0.049848 0.075699 0.026026 0.040187 0.122198 -0.138167 0.084250 0.033308 0.048048 -0.024189 0.010858 -0.067152 -0.020616 0.041097 0.001564 -0.033119 0.084988 -0.052784 -0.072758 0.023970 0.002492 0.015999 0.057600 -0.015727 0.049054 0.047922 0.048593 -0.024430 -0.034529 0.006962 -0.011617 -0.089936 0.016219 0.090458 -0.010048 -0.052114 0.031702 -0.145117 0.140869 0.030812 -0.005327 -0.104908 -0.045651 0.024425 -0.085173 -0.015898 -0.065390 -0.036647 0.085156 0.078230 -0.073157 0.037576 0.037710 0.019871 -0.121997 -0.072240 0.099852 0.050288 -0.153546 0.088165 0.091574 -0.062773 -0.046139 0.047341 0.042832 -0.010756 0.023076 -0.106834 0.069897 -0.018674 0.074756 -0.011784 -0.057027 -0.021997 -0.033351 0.091514 -0.042207 -0.038084 -0.029701 -0.154449 0.110980 0.044516 0.053537 -0.048355 0.040549 0.000071 -0.089736 -0.085147 0.089515 0.096942 -0.037377 0.002291 -0.092115 -0.145569 -0.024899 0.077246 -0.001269 0.042938 0.025036 0.070877 -0.034933 0.056352 0.006992 -0.051320 0.018869 0.043762 0.076468 -0.017088 0.105883 -0.127423 0.015334 0.009724 0.003307 0.075929 0.026484 0.113076 -0.016275 0.031669 -0.100028 -0.038370 0.057944 0.027144 0.017458 0.100824 -0.080239 -0.045402 0.042087 -0.049460 -0.020876 0.038636 0.073884 0.006938 -0.041075 0.081167 -0.051917 -0.038949 0.003735 0.090371 -0.058583 0.072034 -0.008144 0.029436 -0.042574 -0.176943 0.102328 0.127732 0.054961 0.012539 0.017232 0.046462 -0.017913 -0.097615 0.018960 0.020774 -0.011765 -0.018709 0.078021 0.048077 -0.013778 0.003619 0.005012 0.032817 -0.015827 0.041107 0.007063 0.099095
vietnam 0.029518 0.093730 -0.011720 0.002747 -0.100402 0.047877 0.114158 -0.081094 -0.011913 0.020019 -0.003282 0.163235 0.000126 0.062090 0.015698 -0.015270 -0.036707 0.057578 -0.066143 0.054680 0.026430 0.181734 -0.006059 0.043339 -0.025924 0.045903 0.027353 0.077204 0.047422 -0.030048 -0.000528 0.021588 0.021756 -0.051516 -0.010921 0.026546 0.038498 0.013333 0.034090 0.084419 0.077744 0.071439 0.014501 -0.107360 -0.048107 -0.071192 0.011886 -0.052504 -0.034201 0.057787 0.042511 0.009322 0.060428 -0.162614 -0.000126 -0.005457 0.080323 -0.030129 0.134525 -0.002979 0.017160 -0.030489 -0.034814 -0.088104 -0.085235 -0.110008 0.081322 -0.050112 0.006813 -0.045288 0.006237 0.041622 0.006520 -0.045012 0.053067 0.016707 -0.101419 0.036050 0.063521 -0.085329 -0.005004 -0.097971 -0.038800 -0.040996 0.012503 -0.085918 0.101842 -0.030693 -0.054376 -0.147372 0.087268 -0.048771 -0.115616 0.087990 -0.068641 0.100604 -0.113488 -0.016367 0.036246 -0.072942 -0.024002 0.064308 0.055343 -0.026515 -0.002120 0.064568 -0.010975 -0.021735 0.048464 0.122998 0.046164 -0.055765 -0.021755 -0.025086 -0.048120 -0.028334 -0.057192 0.142465 -0.026419 -0.071298 0.033989 -0.053131 0.015398 -0.017637 0.094207 0.010634 -0.021096 0.026464 -0.006629 0.005686 0.119817 -0.054276 -0.055321 0.080443 -0.048441 0.044574 -0.094882 -0.022003 0.056111 -0.066533 0.038312 0.037137 0.028033 -0.081877 -0.068343 0.072146 -0.002852 0.067539 0.036683 0.026131 0.028170 0.030020 0.114469 0.060186 -0.162527 0.081398 0.133162 -0.006656 -0.104736 0.057135 -0.089100 -0.058944 -0.008704 0.086506 0.065188 0.075588 0.061305 -0.069461 0.118244 -0.030686 0.007485 0.001000 0.070371 0.010067 0.029615 -0.000155 -0.041428 0.074674 0.007168 0.043103 -0.041223 -0.034411 0.166157 0.053230 0.094232 0.060571 -0.101863 -0.088371 0.022795 0.062658 0.040802 0.029907 0.051242 -0.022250 -0.089046 0.007729 -0.071604 -0.067491 -0.039835 -0.054061
norwegian -0.035890 -0.053967 0.009870 0.046921 0.019428 0.080120 0.129015 0.005162 -0.040583 0.054728 -0.051750 0.146498 -0.054067 -0.073462 -0.088493 0.029976 -0.011292 0.055273 -0.056621 -0.061389 0.102383 0.049507 0.051576 -0.051799 0.003948 0.018825 0.076952 0.075322 0.078800 0.010354 0.101082 -0.007405 0.045593 -0.070392 -0.065388 -0.067101 -0.055920 -0.026456 0.077000 0.077718 -0.011954 -0.132257 -0.024281 -0.109996 0.020313 0.055102 -0.042289 0.003786 -0.035356 0.113367 -0.004918 0.105528 -0.021631 -0.079881 -0.031103 -0.084566 -0.037757 -0.044895 0.054848 0.056032 -0.063314 0.053159 -0.017075 -0.046563 -0.009640 0.038077 -0.057490 -0.010938 0.011118 0.015441 -0.027865 -0.042299 0.058904 0.128467 -0.122727 0.034326 0.056830 0.163547 -0.077086 0.093976 0.012747 0.002386 -0.060208 0.038507 -0.044060 -0.084220 -0.037997 0.117404 -0.087801 -0.103650 0.016467 -0.029258 -0.018825 0.021735 0.042542 -0.068097 -0.005401 -0.092519 0.000273 0.002570 0.069440 0.151034 0.139895 -0.102551 0.123102 -0.002689 0.173006 0.020655 -0.136677 0.073328 0.058148 -0.030009 -0.073746 -0.113658 -0.041778 -0.016481 0.093992 -0.049800 -0.086962 -0.083779 0.100072 0.028196 0.058288 0.029622 -0.010357 -0.069649 0.003301 0.023804 -0.125243 -0.023381 0.083115 -0.018737 0.017339 0.011414 -0.047693 0.002242 0.016383 -0.036858 0.042254 0.015011 -0.066636 -0.104659 -0.019577 0.019689 0.020940 -0.040957 0.081026 0.013022 -0.041657 0.070800 0.013649 -0.009682 0.019624 -0.051981 0.015318 -0.027823 -0.000008 0.062855 -0.143589 0.035250 -0.190996 -0.047604 0.057081 0.000974 -0.012120 0.034577 -0.083741 0.036678 -0.002636 0.106547 -0.075459 0.102962 0.011500 0.074167 0.021151 -0.117869 0.002200 -0.104521 0.067322 -0.008567 -0.010358 0.104046 0.079135 -0.039289 0.005484 -0.085107 0.009851 0.035422 -0.070128 0.109151 0.030339 0.055431 0.060138 -0.058599 0.049194 0.045374 -0.103616 -0.046098 -0.046362 -0.062317
professionally 0.030412 0.062125 -0.034392 0.062183 -0.044090 0.086704 0.191763 0.056276 -0.043344 0.035629 0.002744 0.016833 -0.076874 0.064004 -0.126902 0.012208 -0.024479 0.041165 -0.066956 0.103613 0.034344 0.045402 -0.041796 -0.045063 -0.025593 0.078508 0.074889 0.008305 0.031980 -0.070556 0.028123 0.073093 0.006431 0.047658 -0.117805 -0.100736 0.104166 0.049891 -0.036156 -0.012172 -0.020238 0.003444 -0.158943 -0.003492 -0.027849 0.072467 -0.080859 0.060141 -0.075717 0.050126 -0.013769 0.005899 0.059559 -0.016271 0.072379 -0.000833 -0.131829 -0.019577 0.060099 0.099960 -0.050612 0.013999 0.114325 -0.052923 -0.032429 -0.018685 0.132811 0.014106 0.097308 -0.002520 0.056392 0.050281 0.032124 -0.056243 -0.064125 0.014199 -0.016138 0.105285 -0.103124 -0.051821 -0.015888 -0.023439 -0.030536 0.044972 -0.019028 -0.055798 -0.048087 0.126552 0.026966 -0.044854 0.121961 -0.016745 0.042037 -0.060205 -0.108910 0.123174 -0.054239 0.027940 0.011677 -0.021625 0.055028 0.041295 -0.037215 -0.169612 0.044382 -0.001322 0.057201 -0.045655 -0.051813 0.116445 -0.013521 0.020485 0.052380 0.019240 0.038736 -0.016008 -0.001512 -0.042266 0.054981 -0.061609 -0.106592 -0.078062 0.026193 0.046410 -0.088548 0.003888 -0.036346 0.021818 -0.010928 -0.068344 0.093066 0.014916 0.014582 -0.064325 0.044683 0.035985 -0.076316 0.022541 0.068400 0.106993 -0.088606 -0.034060 0.084332 -0.054891 0.007221 -0.139275 0.061117 0.024158 -0.142290 0.014050 0.026098 0.024241 -0.061477 0.048875 0.008923 -0.007385 0.004712 0.083051 -0.022312 0.018124 -0.018553 0.020102 0.022682 -0.051208 0.038514 -0.082169 -0.026943 0.043440 0.065701 0.008885 0.098024 0.097628 0.112189 -0.035578 0.096383 -0.057270 0.039427 0.039064 0.032153 0.063130 -0.005508 0.064786 0.071481 -0.073549 -0.112321 -0.123054 0.020338 0.023863 -0.054894 0.001977 -0.096685 -0.119263 0.033111 -0.061666 0.060346 -0.004507 -0.022030 -0.016591 -0.018563 -0.055080
argentinean -0.001220 0.057519 -0.012740 0.001314 -0.021937 0.052111 0.020632 0.038482 0.072955 -0.040950 -0.052585 -0.037130 -0.003059 -0.072053 -0.087560 0.116192 -0.109361 0.021504 -0.038850 0.059862 -0.037020 -0.053051 -0.037983 -0.023247 0.094181 -0.042529 -0.112048 0.024760 -0.134676 0.099907 0.117395 -0.019144 0.043669 0.124079 0.139240 0.015080 0.141578 0.027678 0.097648 -0.060149 0.014072 0.011433 0.031643 -0.019814 0.034370 0.012419 0.092255 0.050110 0.089187 0.041358 -0.008972 -0.135850 0.007428 0.103038 -0.059574 0.207355 0.026102 -0.067719 0.046427 0.066122 -0.087151 -0.041840 0.012674 0.034003 0.013371 -0.012316 0.064132 0.061030 0.057342 -0.145141 0.031185 -0.134940 0.103836 -0.052619 0.019607 -0.017505 0.061662 0.010633 -0.055563 -0.002320 0.004569 -0.035561 0.073444 -0.075924 -0.118423 -0.029017 0.038561 -0.027468 -0.134537 0.064880 0.066941 0.029664 -0.106334 -0.002311 0.052735 -0.007051 -0.051589 0.035687 0.116083 0.079213 0.020055 -0.074268 0.209288 -0.100515 0.057417 0.055950 -0.065701 0.087530 -0.057396 -0.055739 -0.088917 0.053411 0.005826 -0.130805 -0.005121 -0.017436 0.039532 -0.020259 -0.021632 0.054339 -0.049900 0.059431 0.101806 0.203458 -0.097652 0.047379 0.051759 -0.147397 0.042900 0.005292 0.108136 0.126770 -0.016092 -0.156967 -0.067063 0.037245 0.059387 -0.055368 0.075916 -0.005506 0.044308 0.004318 0.073131 0.034626 0.034159 0.042279 0.005619 -0.040416 -0.016516 0.075405 -0.005006 0.034021 -0.104722 0.030780 -0.038117 0.073586 0.074559 -0.042490 -0.002555 -0.016856 0.021411 0.016791 -0.059328 -0.006272 0.013134 0.010723 -0.118544 0.026568 -0.020811 0.028488 0.021094 0.030546 0.101826 0.098065 0.068588 0.081543 -0.024834 -0.112160 0.104828 0.128209 0.061482 0.100152 -0.038653 0.051002 -0.064489 -0.030712 -0.064927 -0.103347 0.037167 0.050940 0.080021 0.008868 0.058562 -0.000654 -0.038422 0.083247 -0.072110 0.138203 0.067383 0.034276
louder -0.088691 -0.042215 0.063558 0.085023 0.136419 0.091762 0.106276 0.110535 0.099422 0.061938 -0.000081 0.011214 -0.020483 0.021030 -0.158154 0.078574 -0.029991 0.022779 -0.063172 -0.099049 0.119749 0.093246 -0.024560 0.006189 -0.104316 0.115767 -0.109800 -0.037603 -0.061597 0.009473 0.062590 -0.038804 0.118579 0.053589 -0.050297 -0.042005 0.103990 -0.009774 -0.014039 -0.024871 0.045711 0.006229 -0.017665 0.011452 -0.039580 -0.000675 -0.045630 0.041045 0.095460 -0.035080 -0.031755 -0.002167 -0.054028 -0.025232 0.022722 0.053413 0.014662 -0.007006 0.031057 -0.019792 0.139653 -0.098854 0.031769 -0.016845 0.017881 -0.090856 0.044004 0.050205 -0.088189 -0.056345 0.094756 -0.008133 0.073292 -0.132920 0.057780 -0.002370 -0.016247 -0.078055 0.053588 -0.020939 -0.029494 -0.095165 0.010395 -0.024713 -0.067264 0.009769 0.043403 -0.093357 0.078665 -0.033412 0.010616 -0.052432 0.046231 -0.050567 -0.030886 0.074463 -0.032150 -0.016607 0.050359 0.041425 -0.001715 -0.074220 -0.030655 -0.008389 0.112086 0.054651 0.053086 -0.020099 0.092230 0.077294 -0.113141 0.008618 0.043305 0.040834 -0.068703 0.049724 -0.038337 -0.051968 -0.015429 0.043564 -0.096259 -0.081274 0.034372 -0.005437 0.033704 0.010584 -0.006275 -0.039826 0.125795 0.010194 0.098884 0.002165 -0.026375 -0.092542 0.016172 -0.002832 -0.037792 0.143874 -0.011647 0.041438 0.069524 -0.021284 0.043777 -0.059240 -0.037249 0.037000 0.034352 -0.006402 -0.075627 0.071037 0.029239 0.032827 0.144971 -0.010612 0.016861 0.047743 0.009482 -0.142999 0.016453 -0.032252 0.087296 0.011418 -0.074906 0.053444 0.012381 0.053790 0.029093 0.017889 0.084844 -0.013088 0.019775 0.121242 0.041699 -0.064340 -0.068388 -0.010860 -0.069491 0.020493 0.150889 0.019492 0.028876 -0.073111 0.004155 0.008099 -0.108312 0.121877 0.060690 0.017583 -0.068170 -0.018090 0.051304 -0.068329 -0.056116 0.017135 -0.014754 0.034359 -0.146098 0.061070 0.121998 0.001253
chicago 0.099755 -0.006626 -0.001897 0.060957 -0.028398 0.105960 0.037026 -0.000215 -0.016219 -0.037453 0.009780 0.030412 0.034474 -0.030794 -0.101134 -0.081234 -0.091599 -0.104902 -0.101797 -0.074332 0.043503 0.082580 0.033858 0.038583 0.061730 0.035738 -0.158352 -0.014179 -0.009185 0.056279 0.010818 0.087988 -0.001408 0.137373 -0.000335 -0.052869 -0.004784 0.013542 0.005044 0.025287 -0.037831 0.100410 -0.052476 -0.091651 0.027039 -0.143707 0.074068 -0.031186 -0.093014 0.023871 -0.017096 -0.081690 0.024101 0.032497 0.014299 0.146163 0.072405 -0.102950 -0.031488 -0.077697 -0.062859 -0.047090 0.024726 -0.025425 0.043411 -0.021833 0.031299 0.136245 -0.043772 -0.122270 -0.034025 -0.131099 0.064119 -0.022276 0.058719 0.068692 -0.090401 0.114080 -0.073011 -0.060349 -0.017566 -0.029515 0.031671 -0.082570 0.029846 0.046203 0.043025 -0.059722 -0.078402 -0.063154 0.157522 0.005043 -0.165484 0.031101 -0.098961 0.057097 0.081708 -0.018524 0.040920 0.014296 -0.089010 -0.034753 0.006952 0.017631 -0.043908 0.070568 -0.042436 0.107502 0.005933 0.068137 0.024595 0.013889 0.010626 -0.032769 0.056196 -0.087089 0.107488 -0.096195 -0.120527 -0.094394 0.015814 -0.058765 0.092031 -0.046763 0.009131 -0.061990 0.085092 -0.085573 0.032104 -0.066893 0.038124 0.071700 -0.025153 -0.063890 -0.069150 0.039980 0.043816 0.013031 0.113747 0.064363 0.079489 -0.010061 0.099555 0.012084 0.003804 0.042345 -0.072327 0.005598 0.047729 0.002106 -0.043662 -0.030859 0.059730 0.029242 0.004663 0.016195 0.056435 -0.105824 0.060548 0.044731 0.016957 0.031373 0.056571 0.136561 0.039567 0.039442 -0.032102 -0.072154 -0.042690 -0.066233 0.042822 -0.027272 0.087204 -0.033878 0.037397 -0.008148 -0.044319 0.008648 0.015943 0.009614 0.047403 0.018016 -0.041001 0.001420 -0.059534 -0.065644 0.037456 0.061559 0.014857 0.010486 -0.028151 0.028754 -0.035913 0.126800 -0.111807 0.102620 -0.007592 0.010247 0.029045 -0.003186
move -0.058496 0.019143 -0.115549 -0.068302 0.033096 -0.046256 0.010025 0.121750 -0.011493 0.027995 0.021489 0.033420 -0.008802 0.079247 -0.005474 -0.012284 -0.047705 0.075517 -0.128531 0.021162 0.047814 0.017296 0.048753 -0.117072 -0.020588 -0.084747 -0.004820 -0.008030 0.050733 -0.053703 0.066718 0.000408 0.103860 0.032892 -0.002277 -0.022225 0.067467 0.071298 0.107115 -0.001171 -0.030907 -0.012227 0.117049 -0.027665 0.084769 0.042657 0.118907 -0.051610 0.158654 -0.026065 0.107148 0.024136 0.053425 -0.006737 0.037233 0.025520 0.059965 -0.070471 0.105377 -0.003579 -0.007117 -0.172607 -0.081193 0.017069 -0.060337 0.118743 0.014699 0.054344 -0.034242 -0.127962 -0.016165 -0.016190 0.061755 0.039208 0.052238 -0.044128 0.004879 0.030614 -0.002685 0.120606 0.011568 -0.154755 -0.008104 0.038929 0.026174 0.114119 -0.016640 0.050543 -0.087901 -0.010564 -0.016620 -0.026660 -0.097243 0.065345 0.133312 0.147109 0.076743 0.077470 0.080717 0.023418 -0.088597 0.038421 0.134542 0.096376 0.037040 0.083715 -0.053301 0.013012 0.013747 0.112518 -0.102465 -0.013824 -0.015924 0.024681 0.023943 -0.010138 0.072314 -0.038048 0.081654 -0.025212 -0.138643 0.015756 -0.120176 0.005190 0.036940 0.010923 0.018930 -0.164073 -0.017100 0.053783 0.002259 0.035444 -0.061968 0.022216 0.049940 0.069905 -0.112612 -0.044961 -0.002600 0.017420 0.079379 0.123006 -0.097225 0.067055 0.026014 -0.072874 0.047948 0.050759 -0.022961 -0.023077 -0.020300 -0.083323 -0.064570 0.009332 -0.014495 -0.033150 -0.042187 -0.005540 -0.059901 -0.091865 0.105479 -0.077749 0.079661 -0.013217 -0.032609 0.031537 -0.034886 -0.004881 -0.110778 -0.009716 -0.039430 0.063037 0.187439 0.099462 -0.005551 0.025960 -0.001151 0.010346 0.126371 0.023855 -0.083328 0.012726 0.098977 -0.158786 -0.146548 -0.138760 0.029510 -0.135945 -0.015786 0.110400 0.062945 0.062236 0.017269 -0.041956 -0.066000 0.042982 -0.012044 -0.014557 0.110451 0.079375
thailand -0.086047 0.128231 -0.033901 0.057409 -0.119770 0.065777 0.072668 0.118162 0.131755 0.128019 0.018273 0.002239 0.012916 0.085536 -0.030568 -0.168177 0.066564 -0.037160 0.056662 -0.012100 -0.063380 0.071388 0.056471 -0.026327 0.080695 -0.037105 0.034953 0.095889 -0.088319 -0.054614 0.035728 0.050482 -0.029883 0.019930 -0.023486 0.022264 0.072410 -0.012971 -0.074135 -0.032297 -0.005217 -0.062656 0.034480 -0.007960 0.049151 -0.018950 -0.097858 -0.029546 0.090027 -0.055336 -0.009954 -0.032164 -0.020394 0.129705 0.035206 -0.071354 0.048799 0.014831 0.156003 0.070186 0.035783 0.053957 0.003329 -0.025106 -0.072544 -0.016056 -0.102522 -0.083132 -0.009019 -0.105615 0.049726 0.038973 0.028061 0.015940 0.057866 -0.137823 0.058430 0.013321 -0.136499 0.035496 -0.024457 -0.010993 -0.118714 0.058119 -0.051944 0.043536 -0.149481 0.073242 -0.095048 -0.051862 -0.010787 0.105577 0.021886 0.004637 -0.203718 0.025786 -0.100823 0.043928 0.051845 0.012192 0.046219 0.049026 -0.058383 -0.049327 0.104247 0.056607 -0.002407 0.054399 0.016569 -0.003229 -0.073455 -0.069471 -0.057188 -0.012440 0.111409 0.006778 -0.029909 -0.038859 0.021772 -0.047564 0.140586 -0.111971 -0.022110 0.050468 0.018820 -0.019047 -0.020309 0.020931 -0.082507 0.038189 -0.041690 -0.002361 -0.004157 -0.013373 0.004592 0.077390 0.033369 -0.056300 0.088984 0.013520 -0.051813 0.018913 0.012622 0.065535 -0.007188 0.152590 -0.002739 -0.074824 0.113796 -0.037191 -0.012598 0.036292 0.034066 -0.064068 0.064472 0.027650 0.037374 -0.024444 -0.149499 0.118709 0.002409 -0.208097 -0.006657 -0.152670 -0.057136 -0.100356 -0.077594 -0.041440 -0.057081 -0.056448 0.079049 0.086244 0.036952 0.142511 -0.130341 -0.078674 0.068451 -0.116852 0.108390 0.068422 -0.092285 0.157841 0.009457 0.066894 -0.028007 -0.071404 0.024100 -0.142919 0.048989 0.081635 0.093579 -0.069179 0.053112 0.101573 0.127558 0.062273 -0.023506 0.028730 -0.025869 0.119852
ukraine 0.084207 -0.109212 0.058791 0.087585 0.072114 0.102639 0.093496 0.180560 0.020922 0.029188 -0.060647 0.140119 -0.048621 0.004759 -0.055445 -0.113980 0.038599 0.126214 -0.006895 0.006530 0.150411 -0.022347 0.003120 0.123170 -0.037881 0.155267 -0.047889 -0.223227 -0.018545 0.102819 0.022444 -0.003905 -0.049655 0.108683 -0.090516 -0.034291 -0.019044 0.136236 0.081370 -0.034345 -0.046809 -0.043264 -0.089628 -0.110521 0.133099 -0.051595 -0.036603 0.070151 -0.037698 -0.029723 0.143514 0.031096 0.153874 0.151352 0.020051 0.014065 -0.027697 -0.084458 0.004499 -0.098210 -0.058381 0.019511 0.013049 0.019207 0.105739 -0.078531 -0.018505 -0.080770 -0.041467 -0.053963 0.052289 0.050463 -0.004139 -0.001626 0.079574 0.030180 0.085565 0.091322 0.012787 -0.146332 -0.088408 -0.002789 -0.057952 -0.137296 0.051326 -0.048514 0.113806 -0.019734 -0.197174 0.080018 0.104255 0.034332 0.010900 -0.050970 -0.077131 -0.062342 -0.064114 -0.008570 0.053902 0.052523 0.047737 0.095281 -0.043740 -0.095999 0.073683 0.033557 0.063116 -0.050354 -0.000272 0.065399 0.007886 -0.021181 -0.032373 0.038659 0.096708 0.096379 0.045078 0.081459 -0.021889 0.018679 0.067795 -0.196662 -0.042928 -0.024936 0.165600 0.014939 -0.045513 0.025582 0.011207 0.008855 0.003589 0.074607 -0.049797 -0.001200 -0.004276 0.067764 0.049125 0.006652 0.058240 0.112352 -0.018274 -0.035375 0.205457 0.049540 -0.023215 -0.026536 0.022971 0.115280 0.063941 -0.059822 0.022319 0.042507 0.073751 -0.054429 0.042333 -0.024970 0.076931 0.002979 -0.036138 -0.076152 -0.008423 0.016209 0.129604 0.012255 0.071876 -0.083010 0.115627 0.014947 -0.087881 0.213662 0.111673 -0.022660 -0.111665 0.112547 0.012257 -0.117180 0.012166 0.001203 0.015964 -0.066555 0.010328 -0.018706 0.031182 -0.097712 0.032865 0.003702 0.002321 0.099625 0.082546 0.068615 -0.020676 -0.011378 -0.109117 0.031167 0.063968 0.001183 -0.065424 -0.029934 0.055020 0.096222
plano -0.037399 0.023382 -0.045764 0.078142 0.114899 -0.070922 -0.102675 0.124190 0.105068 0.040818 -0.001126 -0.037615 0.090071 -0.033811 -0.166467 0.090411 -0.148795 0.080636 -0.037742 -0.020428 0.032183 0.149804 -0.024654 -0.027828 0.011972 0.098245 0.026140 -0.032868 0.084853 0.019509 0.009378 0.096546 -0.012804 0.004150 -0.002500 0.012062 -0.037392 0.057356 -0.027382 0.074719 -0.030146 -0.050365 -0.033840 0.073280 0.082531 -0.142066 -0.008171 0.089951 -0.076242 0.047963 0.055828 0.023029 -0.031093 -0.087439 -0.089811 -0.128332 0.004831 -0.093243 -0.012482 0.024399 0.008165 0.029858 0.023578 -0.021702 -0.059425 -0.029822 -0.096147 -0.017101 0.050156 0.034729 0.034092 0.035053 0.086045 0.093476 0.009906 -0.100554 -0.065528 0.058956 -0.087289 0.102227 0.016968 0.087788 0.052628 0.070317 0.017832 0.058956 0.056247 0.009902 0.010951 -0.156915 -0.011864 0.093806 -0.139738 0.040887 0.110825 0.064280 0.038652 -0.010191 0.069635 0.015467 -0.005486 0.180131 -0.106541 0.103180 -0.027774 -0.002466 -0.146501 -0.000055 0.076287 0.095101 0.045122 -0.077569 -0.116011 -0.007673 0.016563 -0.108068 -0.005687 0.001777 0.054243 0.003636 -0.051504 0.031502 0.142698 -0.060096 -0.062916 -0.007672 0.000648 0.009710 0.058207 -0.030522 0.025975 -0.120459 -0.012986 -0.026847 0.122545 0.082930 -0.041509 0.071686 -0.028782 -0.051218 0.031342 -0.102460 0.136797 -0.105039 0.048291 0.067301 0.047029 0.082990 -0.026923 0.180653 -0.027630 0.007081 0.143410 -0.081040 -0.023424 0.049330 0.005076 -0.156672 0.017271 0.011885 0.012991 0.017623 0.060524 0.075916 0.060316 -0.009034 0.039198 0.023433 -0.049724 0.097647 -0.064538 0.016408 0.017064 0.066034 -0.050438 -0.074708 -0.158587 0.087680 0.058547 -0.002341 -0.047276 0.030349 0.003529 -0.044546 0.047804 -0.015970 -0.003081 0.057723 0.040014 0.125490 0.049946 -0.024750 -0.034511 0.013907 0.014218 -0.004964 -0.112055 -0.091488 -0.016694 0.011048
texas 0.020447 0.022274 -0.066552 0.012986 0.160100 -0.111185 0.011551 0.053315 0.031656 -0.013413 -0.098267 0.000372 0.109315 -0.077314 -0.082796 0.075636 -0.068305 -0.086142 -0.113421 0.034780 0.058785 0.003439 0.014348 -0.045001 0.016898 -0.063151 0.017216 0.036889 0.091282 0.038673 0.036809 -0.039410 0.057162 0.155483 -0.064209 0.134516 -0.051737 0.006640 0.092319 0.057816 0.043364 -0.030073 0.000887 0.000918 0.074208 -0.014660 0.008874 -0.041985 -0.038643 0.010551 0.115965 0.009628 -0.012048 -0.096602 -0.130094 0.000075 0.136558 -0.073622 0.164410 0.053551 0.089537 0.078576 -0.037747 0.044132 0.070451 -0.137279 -0.005498 -0.011701 -0.038181 -0.091215 -0.046289 0.101824 0.108517 -0.012790 0.007357 -0.067469 -0.054295 0.061513 -0.225114 0.042289 -0.025296 -0.053258 -0.010139 0.046240 0.037464 0.093230 0.023631 0.085511 -0.020571 0.000532 -0.104175 -0.016012 -0.093170 0.038064 0.039490 0.096727 -0.147678 -0.104933 0.082944 0.105317 -0.060860 0.060919 0.010777 0.030383 0.095720 -0.080277 -0.046857 0.002080 -0.032140 -0.010728 -0.021955 -0.025924 0.008675 0.056366 0.049829 -0.104869 0.015564 0.101847 0.033845 0.000426 0.044415 0.034021 0.014320 -0.036630 -0.042326 0.031159 -0.082532 -0.044149 -0.121621 0.024362 0.020690 -0.075174 -0.017432 -0.049356 -0.068525 -0.082215 0.066927 0.085861 0.019293 0.044510 0.063126 0.021126 0.148680 -0.074475 -0.016789 0.122018 0.089166 -0.039215 -0.053578 0.137218 -0.050098 0.144389 0.144684 -0.093530 -0.015614 -0.028693 -0.017105 -0.105136 -0.042390 0.043771 0.043222 0.035876 -0.032267 0.119263 0.096847 -0.084188 0.000900 -0.097120 -0.119079 0.019611 -0.044962 -0.002535 -0.089420 0.126558 -0.082616 -0.009741 -0.102282 -0.180701 0.064231 -0.015219 -0.043938 0.016260 0.003013 -0.000310 -0.053305 0.092368 -0.028653 0.106984 -0.078772 0.180629 0.121498 -0.056234 -0.070661 0.097766 -0.001654 0.083074 -0.134911 -0.006363 -0.045654 0.057429
tough 0.007422 0.067831 0.035524 0.114564 -0.031019 0.023122 0.091108 0.030013 0.027585 0.086001 -0.076546 0.129564 -0.133866 -0.031368 -0.055344 0.038004 0.059478 0.049192 0.009691 0.038450 -0.037135 0.018456 0.094896 0.048979 -0.072179 0.069456 -0.017634 0.093046 -0.025017 -0.001713 -0.082105 0.037991 0.048983 0.126605 -0.010662 0.102376 -0.007804 0.009098 0.112923 0.053399 0.168909 -0.072761 -0.016767 -0.114724 -0.035435 0.058228 0.048740 -0.072959 -0.030228 0.121118 0.032279 0.023133 -0.007609 -0.060139 -0.076588 -0.043375 -0.016108 -0.025088 -0.099715 -0.041184 0.034408 0.068544 0.086671 -0.061106 0.195674 -0.167399 0.019633 -0.077080 -0.055550 0.026650 0.061189 -0.035453 -0.054776 0.100823 -0.037739 0.013079 0.057532 0.054990 0.035900 0.004366 0.118718 0.029240 -0.091046 0.022123 -0.003131 -0.011355 -0.057774 -0.093700 -0.068106 -0.032206 0.115490 -0.020710 0.023195 -0.179339 -0.089517 0.086716 -0.048535 -0.107818 0.137800 -0.042876 -0.030499 0.022634 0.074511 0.057637 0.141923 0.162954 -0.071893 -0.001901 0.014878 0.092842 0.002633 0.090935 -0.048971 0.046805 0.069422 0.014095 0.092309 -0.121580 0.053686 0.022982 0.144448 0.119264 -0.020646 -0.000240 0.049876 0.028313 -0.069962 -0.034380 0.125276 0.029850 0.013843 0.046925 0.033048 -0.018390 0.002328 -0.052296 0.148810 -0.051437 0.010073 -0.152491 -0.040671 -0.039126 -0.022967 -0.138607 -0.048932 -0.060603 0.018068 -0.037998 -0.036447 0.069592 0.039528 0.127545 -0.031208 0.117341 -0.097572 0.141953 0.092428 -0.094906 -0.149247 0.002131 -0.108713 0.038047 0.148035 0.130393 0.106217 0.066214 -0.047316 0.067352 -0.090336 0.023669 -0.015940 0.029467 -0.065887 -0.055910 -0.079015 0.066742 -0.054547 0.029633 0.095109 0.093440 0.054377 0.074479 -0.047406 0.009661 -0.026534 0.075859 0.076247 0.067069 0.116317 0.071585 0.057887 0.012038 -0.062771 -0.090782 -0.030667 -0.016441 -0.185302 -0.077328 0.055295 0.050330
flying 0.101480 0.142816 0.080313 -0.056975 0.166489 0.011680 0.123588 -0.068360 -0.016620 0.180451 -0.165544 -0.039015 0.006793 -0.007206 -0.031448 0.044173 0.039838 0.035484 0.018634 0.042946 -0.029739 0.136600 0.137070 0.024024 -0.056922 -0.072288 -0.057002 0.003170 0.156508 -0.028188 0.057837 0.030978 -0.040943 0.100465 -0.039228 0.065437 -0.003740 -0.011202 -0.089985 -0.192394 0.026522 0.014056 -0.141976 0.024818 -0.026416 -0.099806 0.059312 0.023583 -0.002561 -0.115534 -0.020863 -0.056090 0.017267 -0.014395 0.005484 -0.043993 0.048527 -0.114446 -0.025538 -0.092182 -0.014849 0.039105 -0.012295 -0.029257 -0.029308 -0.121212 0.070674 -0.011432 0.021526 -0.042095 0.065290 -0.022190 -0.047273 -0.058176 -0.028891 -0.103335 0.016158 -0.008729 -0.065946 -0.007152 0.011264 -0.030480 -0.028088 -0.013827 0.054727 -0.091371 0.064345 -0.047704 -0.082655 -0.076076 -0.002831 -0.064544 -0.028693 -0.057512 -0.169942 -0.092667 -0.022030 0.085897 -0.055258 0.047393 0.025193 0.046151 -0.042575 -0.061988 -0.008344 0.033968 0.056548 0.008576 -0.004502 0.100359 0.010966 0.019230 0.077718 -0.091627 -0.004203 -0.015510 -0.056698 -0.020399 0.048094 -0.103020 -0.062816 0.040141 -0.057132 0.004037 0.072954 -0.054920 -0.051763 -0.016525 0.112488 -0.003211 0.008398 -0.125202 -0.038129 0.079907 -0.091455 -0.022011 -0.009464 0.117007 -0.005635 0.091584 -0.071392 -0.035615 -0.020193 -0.050389 -0.076236 -0.032172 0.064188 0.065404 -0.066272 -0.118206 0.074496 0.073294 -0.107591 -0.045964 0.092937 0.036723 -0.012436 -0.113988 -0.069167 0.035975 0.076086 -0.006396 -0.053273 0.152050 0.004528 0.019061 -0.006601 0.148211 0.090150 -0.037865 -0.089980 0.107721 -0.008275 -0.009501 -0.057393 -0.056701 -0.065124 -0.027997 -0.153897 -0.050938 -0.049983 -0.043203 -0.049119 0.000613 0.010109 -0.134087 -0.068070 -0.005477 0.129165 0.089872 -0.078879 0.039129 0.027043 0.052288 -0.009071 -0.076347 -0.082768 -0.004241 -0.049139 -0.078781
iraq -0.022078 0.023300 0.061841 -0.014853 0.033596 -0.100194 0.033412 0.030031 -0.062057 0.131789 -0.035524 0.016668 -0.012669 0.147501 -0.105263 -0.061449 0.008081 -0.074879 -0.057221 0.048210 -0.006370 0.074882 -0.055444 -0.073927 -0.083877 -0.005832 0.101626 0.005764 -0.029916 0.080689 -0.000629 0.040497 0.026619 -0.113290 0.049296 -0.052713 0.075907 0.117741 0.010968 -0.069288 0.071322 0.156994 -0.032602 0.081749 0.052348 0.035725 0.053648 -0.072439 0.022016 -0.002793 0.054099 -0.074639 -0.003019 0.069136 -0.140114 -0.068800 -0.022787 -0.078284 0.081575 0.078324 -0.002510 -0.046010 0.032796 0.008982 -0.025055 -0.005216 0.105852 0.014778 0.039776 -0.102770 0.030825 0.000770 0.045024 -0.008488 -0.050733 -0.043142 0.013842 0.174309 0.021274 -0.017464 -0.010543 0.050155 0.044548 -0.041800 -0.070556 -0.076016 -0.008472 0.045463 -0.010791 0.022859 -0.073415 -0.122930 -0.169282 0.013939 -0.082759 0.016226 -0.056798 0.034738 -0.007872 0.092110 -0.141995 0.088173 0.142310 0.058022 -0.003493 0.085461 -0.093631 0.071559 -0.040523 -0.002892 -0.032863 0.130156 -0.078066 -0.031017 0.010860 -0.111024 0.006652 -0.021569 -0.049810 0.054416 0.052562 -0.050337 -0.006670 0.062070 -0.070970 -0.014204 -0.059399 -0.039712 0.052943 -0.029648 -0.037356 -0.076334 -0.023744 0.016546 -0.121814 -0.026448 -0.063188 -0.040749 0.011595 -0.061161 -0.040558 0.016212 0.019544 -0.057905 0.018761 -0.024462 0.128314 0.062978 -0.020641 0.105334 0.020487 0.087086 -0.094731 -0.060931 -0.015880 -0.109250 0.029530 -0.127075 -0.084663 0.037525 -0.070782 0.034043 0.011303 0.034895 0.001801 -0.008541 0.063848 0.088690 -0.129419 -0.052421 -0.076272 0.198281 0.061235 0.060003 -0.029409 -0.021673 -0.026938 -0.021725 -0.006985 0.046701 0.040839 0.021085 -0.038099 0.020799 0.016458 0.062493 0.038307 0.092905 -0.083659 0.043867 0.014238 0.029001 0.092776 0.035080 0.146030 0.007232 -0.030098 0.009734 -0.012537 -0.035515
professional 0.025519 0.103497 -0.047462 0.052753 -0.083742 0.037646 0.168225 0.016368 -0.018250 0.046646 0.068856 0.006047 -0.084283 0.171022 0.026903 -0.038437 0.060424 -0.050754 -0.089620 0.091709 -0.059161 0.070382 -0.023774 -0.027742 -0.005450 0.109205 0.042808 0.080345 0.067406 -0.058418 -0.000556 0.120860 -0.041495 -0.051961 -0.004475 -0.090675 0.065704 0.079858 -0.165790 -0.042261 -0.057152 0.022927 -0.106018 0.082108 0.122080 -0.015395 -0.025185 0.143379 -0.069820 -0.055014 0.064343 -0.003386 0.102570 0.009545 0.046075 -0.008860 -0.158541 0.002071 -0.023396 0.088709 -0.081398 0.023268 0.090312 0.015184 0.017268 0.023589 0.125591 0.104045 0.054141 -0.029929 0.115089 0.029087 0.119587 0.078393 0.048552 -0.023044 -0.038850 0.145540 -0.128764 -0.053020 0.061835 -0.015185 -0.033878 0.019780 -0.016020 -0.053471 -0.070318 0.009419 0.103453 -0.071922 0.142852 -0.039781 -0.051752 -0.028791 0.003409 0.091977 -0.036460 -0.003406 -0.071080 -0.151328 -0.026475 0.021867 -0.054274 0.004623 -0.003305 -0.005616 -0.003035 -0.012795 -0.036724 0.193581 -0.029974 -0.004414 -0.001328 0.053247 -0.018103 0.064315 0.052471 -0.021217 -0.007975 -0.073880 -0.034198 -0.086432 -0.012690 -0.001473 -0.063607 0.053049 -0.030020 -0.098077 0.074164 -0.041737 0.000330 -0.025871 -0.146731 -0.050866 -0.008819 -0.005847 -0.032481 0.148376 0.020893 0.095819 0.026014 -0.102223 0.086255 0.021533 -0.012286 -0.137493 -0.017802 0.000629 -0.032847 0.056726 0.027302 0.080503 0.003367 0.091443 -0.077334 -0.024303 0.005327 -0.003962 -0.059474 -0.039310 0.087380 0.014945 0.017363 -0.019539 -0.010411 -0.009414 0.013849 0.109560 -0.013152 0.037360 0.054025 0.064846 0.059488 -0.090224 0.015399 -0.010381 -0.094322 0.042132 -0.046951 0.097823 0.025337 0.095691 -0.024552 -0.072251 -0.058936 0.028595 -0.034857 -0.058651 -0.017703 0.051859 0.022024 -0.117105 0.014380 -0.108043 0.081376 0.038158 0.057130 -0.053300 0.024648 -0.071199
fly 0.096318 0.064997 -0.021104 -0.061821 0.047588 0.061200 -0.022678 0.075960 0.039279 0.030599 -0.081796 -0.122595 0.064863 -0.005817 -0.144607 0.003020 -0.067647 0.069102 -0.076050 0.046368 -0.141369 0.216309 0.163627 0.027460 -0.042626 -0.017381 -0.060822 0.004665 0.048842 -0.040148 0.123998 -0.098321 -0.046722 0.081413 -0.077104 0.004374 0.060545 -0.014986 -0.059913 -0.031688 -0.127706 0.018774 0.047866 0.013158 -0.055767 -0.013528 -0.046983 -0.001746 0.041547 -0.043758 0.016557 -0.031261 -0.083135 0.106686 -0.011212 0.007498 -0.012793 -0.017329 0.075132 -0.055857 -0.105351 0.085265 0.015843 0.087846 -0.081852 0.017361 0.023551 -0.007421 0.069458 -0.043740 0.071611 -0.036177 -0.042577 -0.078810 0.078127 -0.056249 -0.009559 0.035879 -0.061303 0.050688 -0.058502 -0.019719 0.040124 -0.083103 0.011616 -0.004322 0.021142 -0.000564 -0.001382 0.000376 0.025675 -0.074024 -0.118397 0.084678 -0.034448 -0.032278 0.093777 0.069190 -0.053450 0.017366 0.091607 0.007691 0.038143 -0.025404 0.031746 0.027599 0.089472 -0.002273 -0.030264 0.057296 0.106218 -0.116915 0.006262 -0.003199 0.030592 0.016617 0.136396 -0.011923 -0.029390 0.053137 0.077101 -0.005424 0.037653 0.078177 -0.077227 -0.097130 0.157953 -0.054025 0.154494 0.036795 0.073940 0.009672 -0.090475 -0.023554 -0.122749 -0.024769 -0.181373 -0.026147 0.061443 0.137844 -0.066287 -0.067453 -0.023044 0.035574 0.035304 0.034519 -0.066857 -0.070428 -0.061841 -0.091921 -0.037835 0.054879 -0.063774 -0.032741 0.067168 -0.017792 -0.037826 -0.065842 -0.025548 0.111752 0.052966 0.034565 0.032278 0.081969 -0.001968 0.069549 -0.122733 0.016995 0.015097 0.008556 0.082624 -0.083598 0.017441 -0.018300 -0.011560 -0.043247 -0.043612 -0.103790 -0.119854 0.027218 -0.083603 -0.005648 -0.029764 -0.034339 0.092225 -0.216089 -0.042503 -0.085205 -0.029000 -0.022809 0.018452 0.049236 0.005724 -0.048855 -0.066819 0.008417 -0.084752 0.017330 0.045331 -0.055031
danish -0.001546 -0.062234 -0.048626 0.023863 -0.044283 -0.037922 -0.055440 0.053785 0.002778 -0.022877 0.009579 0.035552 -0.059626 0.097468 -0.176582 0.020451 0.006175 0.014686 0.044649 -0.036415 -0.080619 0.071286 0.063261 0.025229 0.033352 0.131749 0.055569 0.066379 -0.020889 -0.090200 -0.063369 0.010358 -0.033561 0.043283 -0.043331 -0.049616 -0.006924 -0.061871 0.006912 -0.076524 0.073549 0.040916 -0.063659 0.015266 -0.020390 0.018298 -0.106402 0.076376 0.151193 0.097593 0.024579 0.081145 -0.031729 0.013318 -0.109833 0.016145 -0.083279 -0.081651 0.092221 0.012068 -0.138031 0.061097 0.134588 0.086188 -0.087837 -0.113462 0.074418 -0.004348 -0.059021 -0.036007 -0.021063 -0.146322 -0.017467 0.143256 -0.042933 0.013513 0.118693 -0.007925 -0.157878 0.025679 -0.108958 0.041412 0.004682 -0.004231 -0.030706 0.029364 -0.106350 0.044045 -0.137007 -0.002636 -0.034541 -0.022332 -0.046947 0.005272 0.049889 0.034306 0.080330 0.000423 0.133840 -0.066982 0.031426 -0.035865 -0.018559 0.067752 0.030994 0.016367 -0.055481 0.144467 -0.144768 0.062584 0.046390 -0.066535 -0.073474 -0.090947 0.095936 0.064555 -0.006898 -0.175495 0.097849 0.139193 -0.037593 -0.102138 0.021329 0.047827 -0.024225 0.089825 0.058000 0.056697 -0.045857 -0.050079 0.062413 -0.030200 -0.098714 -0.093696 0.008266 0.100877 0.057915 0.054754 -0.013517 0.040094 -0.060757 0.043939 -0.012981 -0.029235 0.077212 0.035472 0.049245 0.053710 -0.150420 0.024203 -0.158116 0.094823 0.050181 0.029068 -0.149008 0.003714 -0.011854 -0.091570 -0.073520 -0.053453 -0.012699 0.051400 -0.034821 -0.000547 0.035176 -0.024520 -0.045587 -0.033068 0.003948 -0.040170 -0.034769 0.076538 -0.022820 0.048031 0.038377 0.005847 0.028141 -0.098990 -0.085839 -0.070838 -0.029876 -0.016682 -0.067114 -0.032954 0.024961 0.003161 0.068969 0.050461 -0.043777 -0.056041 0.191151 0.072178 0.063730 -0.139819 0.106725 -0.066309 -0.090924 -0.075253 0.070874 -0.037935
denmark -0.100176 0.007236 0.042017 -0.031879 -0.032066 0.018770 0.055846 0.101879 0.048404 0.093142 0.020837 -0.030653 0.036039 0.068990 -0.188133 -0.026783 0.008560 0.031193 -0.107220 0.070375 -0.016301 -0.066573 0.075601 0.090288 -0.005754 -0.014370 0.017479 0.063526 -0.048929 0.003897 0.049554 -0.112165 0.076195 0.028470 -0.218623 0.014553 0.036866 -0.066839 -0.046184 -0.039484 0.065104 0.080599 -0.010689 0.029103 -0.083672 0.043779 -0.054663 0.007968 0.094841 0.118785 0.052757 0.118210 -0.023177 -0.090519 -0.108940 -0.058625 -0.134462 -0.078447 0.128318 -0.041378 0.059764 -0.028316 0.127930 0.024572 -0.000373 -0.111726 0.006653 0.031686 -0.038966 0.049478 0.120140 -0.036707 0.036256 0.035095 0.025904 0.017734 -0.023522 -0.057303 -0.028139 -0.115758 -0.084561 0.146339 0.053743 0.125680 -0.048225 0.030619 0.079466 -0.100115 -0.051613 -0.061892 0.068593 -0.072450 -0.034578 -0.066562 -0.079641 0.100015 -0.033369 0.122532 0.130375 0.039826 -0.012398 -0.024332 -0.054270 0.028667 0.118038 0.042737 0.065988 0.123468 -0.037800 0.037821 0.046737 -0.101268 0.002084 -0.018424 0.016506 0.002446 0.072844 -0.130627 0.068758 0.092211 -0.006509 -0.026802 0.138050 0.081023 0.031598 0.000929 -0.068890 -0.041151 0.107061 0.036337 0.005435 0.051947 0.055804 -0.016002 -0.113986 -0.006009 -0.045855 -0.028816 0.027733 -0.099320 -0.074823 0.043246 -0.042695 0.005662 0.014480 -0.012715 0.141588 0.080055 -0.051799 -0.020837 -0.045797 0.094363 -0.019591 0.118391 -0.085002 0.032720 0.041614 -0.034537 -0.176643 -0.015462 -0.018995 0.074744 -0.058091 0.007340 0.021646 0.081099 -0.145433 0.123959 0.074293 0.005008 -0.069527 0.003525 0.102728 0.024726 0.028791 0.052594 0.106097 -0.031698 -0.008228 -0.034680 0.006862 -0.006904 0.112141 0.025241 -0.050377 0.038192 0.190442 -0.047549 -0.022710 -0.075068 0.040376 0.030278 -0.117060 0.042660 0.031107 0.018161 -0.038306 0.040366 0.004590 0.006540
croatia -0.122185 0.003478 -0.146762 -0.096118 0.126418 -0.009779 0.010486 0.035413 -0.015368 0.047772 -0.094421 0.013216 0.048872 0.071784 -0.016271 -0.111249 -0.054249 -0.023731 -0.044939 -0.002740 0.144112 0.074242 0.216698 0.108257 0.032852 -0.088157 -0.098120 -0.018698 0.107455 -0.038427 -0.024252 0.006956 -0.052115 0.101072 -0.142157 -0.073921 -0.005340 -0.032550 -0.066415 -0.025964 0.080793 -0.007072 0.116456 0.139843 -0.013505 -0.121938 0.046635 0.006833 0.081777 -0.139649 0.038626 -0.004210 -0.048565 -0.042268 -0.011023 -0.039903 0.005250 -0.077901 0.055491 -0.022064 0.011092 0.053891 -0.020995 0.088170 -0.027562 0.021099 -0.024353 0.016213 -0.151321 -0.039756 0.023417 -0.005065 0.041631 -0.100536 -0.014055 -0.013365 -0.071441 0.001824 -0.080415 -0.091157 -0.024366 -0.067192 -0.048542 0.073693 0.003483 0.024737 -0.017217 0.049544 -0.000578 0.024716 -0.084221 -0.106267 -0.077899 0.089556 -0.028888 -0.015440 -0.084333 -0.000440 -0.007147 0.055597 0.033477 -0.050735 0.065952 -0.037208 0.048540 0.028299 0.123545 -0.090543 0.015929 -0.012270 -0.061075 -0.070308 -0.130488 0.028076 0.150598 -0.016780 0.123473 -0.007681 0.050292 -0.049336 0.067865 -0.070213 -0.055890 0.061366 -0.079534 -0.071777 -0.020074 -0.135539 0.001822 -0.148672 -0.018935 0.123046 -0.009183 -0.031873 -0.072117 -0.016713 -0.043557 0.028058 0.036954 0.021072 -0.027419 -0.063954 -0.050118 0.000207 0.031440 0.118141 0.018187 -0.070500 -0.023139 0.015309 -0.036141 0.082989 0.011843 0.028323 0.010905 0.122314 0.109240 -0.079276 0.070862 0.006979 0.133947 0.021450 0.009477 0.103588 0.062794 -0.072495 -0.049400 -0.118423 0.000092 0.008201 -0.048734 0.088563 0.004105 0.065124 -0.008697 -0.048704 -0.017103 -0.059131 -0.053138 -0.037227 -0.010764 -0.061653 -0.072584 0.037486 0.019107 -0.079649 0.071978 0.084358 -0.050066 0.059564 -0.003299 0.056472 -0.113095 0.009751 0.011720 0.155991 -0.017462 -0.072413 0.005493 -0.084164
