hanoi 0.401830 0.040055 -0.298713 0.270895 -0.175409 0.048710 0.067834 -0.076339 -0.123793 -0.155684 0.097050 0.105262 -0.025762 0.053646 0.002697 -0.332990 0.030208 -0.107446 -0.203335 -0.149017 0.196716 -0.041559 0.244369 -0.117244 -0.075915 -0.040464 -0.125587 0.008612 -0.054080 -0.252501 -0.175098 0.126465 0.064402 0.032304 0.066331 0.023027 -0.016477 0.043418 -0.017405 0.039238 0.047082 0.067240 -0.055395 -0.139015 -0.062411 -0.010730 -0.135264 -0.025371 -0.025806 0.145030 -0.031754 -0.031183 -0.029442 0.052344 0.070898 -0.020819 0.158863 -0.057425 0.080569 -0.036130 -0.151603 -0.023488 -0.159008 0.027971 0.090973
tougher 0.137414 0.078230 0.191457 -0.031622 0.024004 -0.038952 0.234129 -0.258645 0.125512 0.034221 0.066497 -0.085556 0.037858 -0.186694 -0.107871 -0.066543 0.056780 -0.119388 0.281960 0.015260 0.041652 -0.081612 -0.072284 -0.084272 -0.061188 0.041075 0.046500 -0.072054 -0.115307 -0.173042 0.202536 -0.160457 -0.017149 0.096522 0.194535 0.106507 0.063938 -0.216125 0.142158 -0.043102 -0.035993 0.079526 0.005285 0.001986 -0.045068 0.079041 0.049276 0.092770 -0.008969 -0.199412 -0.126093 0.063515 0.054521 -0.051677 0.189828 -0.113895 -0.184046 -0.173098 -0.080400 -0.191214 -0.247631 0.021849 0.015939 0.135211 0.006443
occasionally -0.096835 -0.127323 -0.053325 0.077939 -0.064765 -0.092410 -0.023652 0.178837 -0.005412 0.108866 0.144491 0.176498 0.070601 -0.160749 0.082948 -0.192036 0.185447 0.023031 -0.177667 0.090126 0.076671 0.182736 -0.127815 -0.152353 -0.218972 -0.029116 -0.020838 -0.068939 -0.077730 -0.148548 -0.231773 -0.015011 0.011707 0.123890 -0.026590 0.144047 0.080069 0.046865 -0.123505 0.277579 0.092086 -0.033858 -0.064691 -0.040003 -0.063935 0.154579 0.235775 -0.066653 -0.034613 -0.039338 -0.054591 0.111310 -0.135149 -0.162436 -0.113975 -0.047484 -0.134169 0.169953 0.043359 -0.206837 0.148695 -0.207186 0.030811 -0.159799 0.003116
ukrainian 0.103891 0.017512 0.023082 0.194295 0.045281 0.033267 -0.101585 -0.092881 0.046616 0.037123 0.072680 0.188646 0.049109 0.086105 -0.127833 -0.121470 0.391683 -0.016899 -0.015630 0.068315 0.106343 -0.191864 -0.279596 -0.091517 -0.030238 0.082915 0.173147 0.045544 0.092115 -0.089310 -0.072743 0.012227 -0.032686 -0.024555 0.106880 0.013594 -0.072779 0.046888 0.127652 -0.190302 0.164895 -0.065631 -0.020683 0.106016 -0.159406 0.206354 -0.030432 0.035416 -0.027161 0.129460 -0.095053 -0.001761 0.027815 0.027133 -0.245803 0.008310 -0.010450 0.042254 0.003281 0.049468 -0.152006 -0.003353 -0.092484 0.110931 0.119553
occasional 0.007865 0.232586 -0.103183 0.031592 -0.116761 0.195551 0.143730 -0.008442 0.067280 0.171051 0.140434 0.064462 0.138348 0.008865 0.052331 -0.057948 0.135299 -0.087909 -0.060054 0.058045 0.060036 -0.094927 -0.213183 0.012898 -0.077842 0.249457 0.001039 0.137973 0.046219 -0.144455 -0.166082 -0.001361 -0.069957 0.113637 -0.002830 0.093022 0.148005 -0.171961 -0.035902 0.226662 0.050654 -0.116800 -0.069234 -0.068502 0.028371 0.075490 -0.121410 0.084012 0.042703 0.062752 -0.250326 -0.005751 -0.013378 -0.116810 -0.230631 0.050619 0.120128 0.184130 -0.017158 -0.112460 0.095911 -0.028442 -0.021990 -0.023977 0.047244
norway 0.065438 0.086102 -0.161123 0.095997 0.033404 -0.216086 0.236572 -0.039552 -0.014454 0.109161 0.022717 -0.112004 0.058794 0.102210 -0.006105 -0.093153 0.183677 -0.034960 -0.101962 -0.001440 0.005442 -0.040160 0.137652 -0.053448 -0.197010 0.172155 0.047248 0.165214 -0.130372 -0.090323 0.039800 -0.165726 -0.056733 0.007341 0.058194 0.006129 -0.069192 0.058634 0.169447 -0.235762 0.002513 0.054705 -0.216876 0.014435 -0.048055 -0.011226 0.059952 0.010221 0.156217 -0.083617 -0.111789 0.019602 0.129125 0.029389 0.086311 0.249927 -0.082667 -0.122689 0.009860 0.248181 0.002875 -0.012601 0.026672 0.054485 -0.084762
baghdad -0.089577 0.170328 0.119287 0.021484 -0.093670 0.072945 -0.047754 -0.000011 -0.137340 -0.112561 0.256997 -0.070714 0.169180 -0.070862 0.186422 -0.194569 0.054723 -0.155683 0.014320 0.164357 0.060821 0.014259 0.008556 -0.224029 0.038052 0.089003 -0.128003 -0.033415 -0.012474 -0.146645 -0.006086 -0.113689 -0.196192 0.142544 -0.131120 0.078261 -0.079946 -0.364186 0.007354 -0.116317 0.020562 0.108181 0.000782 -0.097810 0.030904 -0.058424 -0.163593 0.141998 0.195121 0.033215 -0.043075 -0.125046 -0.067530 -0.150978 -0.084296 -0.074755 -0.082154 -0.170281 -0.053471 0.031195 0.079751 0.032266 0.112335 0.154704 -0.117185
illinois -0.019216 -0.092683 0.218862 0.071352 -0.271281 -0.126610 0.145829 0.136750 0.048650 -0.107371 -0.135561 0.075366 0.036945 -0.035006 -0.131023 -0.174880 -0.047496 -0.023986 -0.005519 0.280425 -0.088545 0.106287 0.080999 -0.046689 0.046146 0.137788 -0.016830 0.108017 0.067948 0.022707 -0.046324 -0.018582 -0.264316 0.107793 -0.016662 0.185342 -0.097656 0.021982 0.026878 0.138365 0.003644 0.085094 -0.020117 0.099677 -0.261098 -0.015034 0.218922 -0.017000 0.027433 0.109631 -0.030770 0.258234 0.202658 0.095777 0.071998 -0.084803 0.212785 -0.010833 0.098881 -0.245463 -0.024707 0.013196 -0.037814 -0.076742 0.021782
moving 0.027823 0.009867 -0.121831 0.090539 -0.007789 -0.137271 -0.227942 -0.039862 0.163939 -0.022607 0.116833 -0.198670 -0.136195 -0.120600 0.184321 -0.155169 0.249873 -0.111434 -0.194906 0.005807 0.018856 0.038158 0.048561 -0.157688 -0.052677 0.033992 -0.077364 0.099781 -0.117690 0.094000 0.136335 -0.083049 -0.217017 0.109636 -0.102089 0.228626 0.125372 -0.114775 -0.022722 -0.167106 0.040850 0.108947 -0.192860 -0.011710 0.192028 -0.006756 0.194376 0.181143 0.086365 -0.035548 0.111011 0.054781 0.122443 0.046530 -0.271314 -0.088888 -0.076378 -0.053948 0.138522 0.136388 -0.132732 0.027571 0.068784 -0.046905 0.129693
loud 0.050832 -0.039116 0.094832 -0.150771 -0.132994 0.220565 0.016528 -0.121581 -0.052675 -0.179994 0.153292 -0.113467 0.117720 -0.004236 0.121506 -0.176851 -0.067281 0.072979 -0.083485 0.061931 0.046414 -0.063631 -0.074909 -0.112148 -0.155096 0.120008 0.022230 -0.078853 -0.032269 -0.199078 0.002627 -0.083730 0.030576 -0.167535 -0.082275 0.169301 0.102256 0.039065 0.092636 0.082345 -0.014439 0.347794 -0.143928 0.132779 0.006067 0.203942 0.030582 -0.198378 0.039843 -0.043973 -0.085884 0.055601 0.108155 0.105889 0.044085 -0.050256 -0.010953 0.068392 -0.313819 0.061970 -0.109523 -0.044651 0.083340 -0.042602 -0.029191
thai -0.281483 -0.079941 -0.019896 0.109024 -0.312074 0.021831 0.077184 -0.059649 0.026529 0.073584 -0.221305 0.062185 0.002810 0.078112 -0.013941 -0.248346 0.088449 -0.049174 0.020993 0.210220 0.142723 0.053995 0.082818 -0.017663 0.131527 0.056506 -0.041696 -0.152795 0.142888 0.137477 -0.051064 -0.069739 -0.170729 0.073769 0.118416 -0.082624 -0.041266 -0.179376 -0.147933 -0.044092 0.145282 -0.123481 -0.205500 -0.136207 -0.256010 0.113730 -0.002537 -0.159017 0.138757 -0.102224 -0.116670 -0.013144 -0.100813 -0.001325 0.145327 -0.145400 -0.189666 0.078892 -0.016943 -0.028159 -0.058509 0.311871 -0.103545 -0.117039 0.035909
croatian 0.204835 0.288995 0.118447 0.010819 0.030040 0.215226 0.067471 0.111622 0.071471 -0.034464 0.090621 0.064945 0.043082 -0.054228 -0.102668 -0.012613 0.081662 0.178469 -0.097518 0.086073 -0.045755 0.186626 -0.052647 -0.121018 -0.046515 -0.183695 -0.075021 -0.050474 0.165444 -0.075824 0.033524 -0.033633 -0.002085 -0.108697 0.108919 0.146998 -0.141062 -0.087719 0.014687 -0.107127 -0.088984 0.187908 -0.133554 0.150595 0.022388 0.008268 0.093295 0.133736 -0.128653 0.078530 0.011661 0.109630 0.098079 0.054726 0.146036 -0.049641 -0.206947 0.093676 0.107050 -0.134395 0.279939 -0.069190 -0.055393 -0.123719 -0.188449
argentina 0.098228 -0.069294 0.085239 -0.051902 0.068837 0.223769 -0.066779 -0.088644 0.141488 -0.214894 -0.054920 0.053934 -0.065710 -0.152578 0.060577 -0.099818 0.047813 -0.026102 -0.133729 0.233724 0.069654 0.042217 0.006216 -0.016416 -0.151897 0.106373 -0.009479 -0.227434 0.234333 -0.078980 -0.120378 -0.103926 -0.102249 -0.006226 -0.061691 -0.059835 -0.022281 0.018211 -0.086471 -0.060990 -0.014796 -0.265439 0.009391 0.171778 -0.010493 -0.012456 -0.109088 -0.008675 0.003721 -0.095660 -0.015507 0.129469 0.105211 0.025787 -0.086239 0.160629 -0.048961 -0.005709 0.259938 0.034427 -0.033882 -0.042898 -0.143533 0.120364 -0.033931
vietnam 0.034599 0.068710 -0.069781 0.081319 -0.038120 0.069933 -0.099445 -0.120031 -0.209359 -0.052227 -0.011973 -0.003998 0.100685 -0.012126 0.115003 -0.145951 0.035016 -0.243868 -0.010274 -0.072349 -0.103440 -0.017281 0.073795 -0.213343 -0.030212 -0.126225 -0.220145 -0.045438 -0.065492 -0.031271 -0.241033 -0.007775 0.194054 0.009429 0.130034 0.209724 0.082604 -0.014791 0.122052 -0.066087 0.018217 0.121994 -0.083508 -0.148181 -0.231607 0.066622 -0.006140 0.007453 -0.030731 0.027904 -0.090672 0.172154 -0.076682 0.082872 -0.028094 -0.000033 0.030143 -0.160244 0.160421 0.008692 0.092781 0.013505 -0.199598 -0.049124 0.154881
norwegian -0.103666 0.116119 -0.085949 0.038480 -0.053367 -0.129054 0.197491 0.010936 0.170263 0.087270 -0.016284 -0.138475 0.132038 -0.028024 -0.033700 0.050084 0.186308 -0.267728 -0.101209 0.046225 0.145335 -0.020940 0.012744 -0.198801 -0.207354 0.225330 0.084169 0.113803 -0.121965 0.048925 -0.085026 -0.233700 -0.043194 -0.109912 0.156489 -0.030983 -0.026296 0.069011 0.140023 -0.250006 0.079833 -0.163500 -0.159040 -0.129859 -0.047615 0.015178 -0.076522 0.001061 0.056578 -0.033466 -0.106906 -0.057341 0.028167 0.011631 0.219615 0.101023 -0.112314 -0.054413 -0.085663 0.170934 -0.041571 -0.014582 -0.085430 -0.033772 -0.167995
professionally -0.086868 0.139098 -0.203692 0.024771 -0.088252 -0.071329 0.211350 -0.063991 -0.145318 -0.083453 0.075163 0.084714 0.136961 -0.000408 0.016529 -0.056031 0.164707 0.088327 -0.064964 0.085017 -0.068998 0.095008 0.028002 -0.020053 -0.133886 0.055497 0.026904 0.109194 -0.091060 -0.254121 0.039929 0.048169 -0.044322 0.103078 0.015722 -0.021101 -0.068686 0.013179 0.010254 0.105960 0.103420 -0.048633 -0.299544 -0.015937 0.114717 -0.085532 -0.075127 -0.139999 -0.081046 0.098766 -0.048901 0.177714 -0.050780 0.033903 0.074959 0.115477 -0.042006 -0.044700 -0.110056 0.242138 -0.123704 0.104544 -0.163393 -0.094892 0.050826
argentinean 0.055033 -0.190397 0.227201 -0.010884 0.039827 0.040264 -0.005757 0.044864 0.211938 0.038076 -0.059372 -0.027924 0.023722 0.049312 0.245107 -0.155318 -0.092891 0.078442 -0.203367 0.308265 -0.041956 0.053418 0.076736 0.084515 -0.180517 0.020511 0.086550 -0.121390 0.185337 -0.046100 -0.234835 -0.157472 -0.121421 0.000855 -0.144449 0.105305 -0.131530 -0.147939 -0.138610 0.032598 0.167158 -0.048372 -0.003485 0.079208 0.034918 0.091385 -0.062720 0.092792 0.057329 -0.110366 -0.161895 -0.001463 0.108274 0.178237 0.082082 0.200411 0.014487 -0.013503 0.240615 0.162874 -0.074391 -0.145207 -0.009415 0.100596 0.005576
louder -0.050789 0.035327 0.186985 -0.045524 -0.138394 0.265978 0.002690 -0.045533 -0.061120 -0.173804 0.003725 -0.006700 0.058324 -0.042892 0.093460 -0.313951 -0.140816 0.120747 0.072416 0.067009 -0.022234 -0.095844 -0.170187 0.042128 -0.062701 0.037000 -0.116808 -0.003626 -0.248958 -0.153323 -0.062914 0.116300 -0.126266 -0.116008 -0.058477 -0.004461 0.064571 0.012783 0.203376 0.096523 0.193371 0.204356 -0.120763 0.090720 -0.029588 0.192045 -0.079136 -0.104970 0.008704 -0.079091 0.134506 -0.041424 0.131753 0.141636 -0.080417 0.029474 -0.143710 0.020264 -0.075232 0.057601 0.119552 0.043213 -0.117805 -0.093147 -0.021659
chicago 0.070617 -0.123159 0.183219 0.074419 -0.169087 0.085545 0.002832 -0.171065 0.240251 -0.053620 0.062327 0.019154 0.109857 -0.007198 -0.075970 -0.216930 0.067796 0.105561 0.115539 0.004373 -0.026007 0.245716 0.114052 0.062348 -0.091070 -0.107860 0.025350 0.006784 0.104289 -0.028210 -0.073192 0.028128 0.065545 0.036832 -0.059558 0.257889 -0.057478 -0.226451 0.014936 0.017605 0.027479 0.002409 -0.036069 0.005784 -0.344152 0.045771 0.124273 -0.165484 -0.122834 -0.175032 -0.048042 0.170083 0.029876 0.043051 -0.166043 0.041577 0.141493 -0.050594 0.141375 0.004193 0.069770 0.110898 0.074865 -0.082173 -0.141707
move -0.098743 0.011678 -0.170005 0.135838 0.140926 -0.018286 -0.037201 0.132672 0.106896 -0.170557 0.033364 -0.154875 -0.049681 -0.094071 0.214219 -0.112835 0.209112 -0.030559 0.031217 -0.185117 -0.042135 0.017593 0.141161 0.040607 -0.082479 0.035778 0.099033 -0.120214 -0.120485 0.124132 -0.084783 -0.199735 -0.268407 0.108227 -0.146925 0.122595 -0.034198 -0.040735 -0.059018 0.064186 0.084208 -0.089295 -0.105754 -0.010587 0.004251 0.037748 -0.064326 0.220276 0.087098 -0.298779 0.105913 0.084263 0.212048 0.109275 -0.133031 -0.064699 -0.088315 0.164106 0.193780 0.045666 0.011673 0.018346 -0.071506 -0.234590 -0.003558
thailand -0.043633 -0.032600 -0.253916 -0.038190 -0.110552 -0.044545 0.084906 -0.137935 -0.062787 0.023738 -0.321876 -0.096404 -0.100558 -0.116698 -0.032303 -0.276443 0.113863 0.017369 -0.111251 0.158901 0.049660 0.070405 0.129562 -0.018119 0.125570 0.265802 0.002650 -0.130495 0.193387 0.030378 0.046225 -0.133631 -0.233634 -0.156486 -0.041996 -0.069036 0.144502 -0.078889 0.007074 0.100929 0.023112 -0.170640 -0.164434 -0.013881 -0.169973 0.043243 -0.034579 0.054224 0.186225 0.005714 -0.235833 -0.072559 -0.072810 0.073632 0.193291 -0.108739 -0.017563 0.098753 -0.028455 -0.146683 0.187058 0.220320 -0.020941 -0.095044 0.232384
ukraine 0.104987 0.102708 -0.084073 0.290236 -0.087691 0.074687 0.050507 -0.293667 0.185362 -0.265522 -0.072011 0.036534 0.183494 0.004106 -0.312891 -0.106423 0.284481 -0.053667 -0.233298 -0.021605 0.084705 -0.097749 -0.306017 0.035248 0.120122 -0.135618 0.068765 0.155905 0.015176 -0.021222 -0.099075 0.274855 0.071109 -0.164210 0.074054 -0.023005 0.153262 -0.064045 0.134130 0.068211 0.132172 0.024351 -0.174008 0.144073 -0.111562 0.001193 -0.072161 0.145921 -0.130031 -0.159012 -0.205780 -0.061654 0.106176 0.004312 -0.044384 0.014661 -0.030507 0.028449 0.009110 -0.032695 -0.157408 0.075428 0.194090 -0.073003 0.014662
plano 0.094115 0.171193 0.115839 -0.110740 -0.035795 0.137658 -0.184559 -0.172571 0.141184 -0.042006 -0.182777 0.016741 -0.073072 -0.049248 -0.065660 -0.126393 0.279306 0.058182 -0.037250 -0.088373 -0.089928 0.041896 0.068492 -0.229165 0.029487 0.161249 -0.115414 0.160424 -0.138020 0.106950 -0.274230 -0.262526 -0.078130 0.011973 -0.097472 -0.055932 -0.032757 -0.132844 0.255851 0.019192 -0.002766 0.096676 0.038029 -0.024496 0.202668 0.152646 0.023424 -0.105226 0.055528 -0.049288 0.094291 0.006196 0.028342 -0.063218 -0.176263 0.121648 -0.146242 -0.043614 -0.163167 -0.266196 0.000133 0.049055 -0.007791 0.022553 -0.166399
texas -0.033144 0.156222 0.171078 -0.047379 -0.075696 0.025925 0.086862 -0.229504 0.204393 -0.091674 -0.278420 0.034869 0.093349 -0.000332 -0.197272 0.125097 0.258032 0.161467 0.113051 0.046181 -0.153764 0.003113 -0.038321 -0.182963 -0.115604 0.206272 -0.115043 -0.106769 0.079039 0.138003 -0.230120 -0.260477 -0.051049 -0.029867 0.014751 -0.110896 0.059302 -0.152338 0.102090 0.046017 -0.022847 0.222101 0.024922 -0.058146 0.017780 0.277838 0.095869 0.041841 0.195483 -0.109755 0.026976 -0.036259 0.003720 -0.044714 -0.171190 0.032536 -0.097084 0.014872 0.049600 0.106852 0.068328 -0.142318 -0.099976 0.031598 0.101782
tough 0.256251 0.091489 0.168496 0.059998 0.167999 -0.107980 0.183107 0.019825 -0.009676 0.086414 0.001770 0.095517 0.057800 -0.262778 -0.050076 -0.234507 -0.013548 -0.197023 0.188790 0.112256 0.162034 -0.098519 -0.155686 -0.133118 0.223448 -0.017208 0.124332 -0.121579 -0.114568 -0.142840 -0.017853 -0.214321 0.109813 -0.165076 0.159427 0.069842 0.017841 -0.158903 0.139963 0.051889 0.035795 0.164706 -0.036134 -0.184935 -0.053572 0.070946 -0.122350 -0.140794 0.185266 -0.246020 -0.098503 0.064538 0.105744 0.111886 0.099734 0.198793 -0.105039 -0.026559 -0.030216 0.030738 -0.314249 0.086749 -0.082210 0.216407 0.028059
flying 0.027503 0.184154 0.054567 0.010226 0.048613 0.152994 0.082269 -0.106583 -0.096776 -0.100882 0.032595 0.077533 -0.000226 -0.108374 -0.032516 0.004330 0.142307 -0.248679 0.191580 0.183393 -0.063846 -0.013360 0.042393 0.122862 -0.222816 -0.164098 -0.082017 0.189352 0.196917 -0.142898 0.052580 0.020614 0.106106 -0.074581 -0.061776 -0.087605 -0.154791 -0.059521 0.123382 0.069150 0.128317 -0.007177 0.147055 0.012485 -0.108968 0.149333 0.027732 0.094711 -0.221806 0.284019 -0.081448 -0.007436 0.225969 0.000380 0.027270 0.133461 -0.150389 0.216157 -0.067781 -0.060380 0.072074 0.094118 -0.104187 -0.074615 0.164782
iraq -0.052405 -0.002690 0.111236 -0.045344 0.107320 0.110120 0.246139 0.101693 -0.162082 -0.183287 0.006084 -0.022060 0.142593 -0.043668 0.078639 -0.016884 0.102947 -0.051322 0.012754 -0.124289 -0.059432 -0.074777 -0.017010 -0.235818 -0.052426 0.005842 0.021289 0.144858 0.219839 -0.097092 -0.044051 -0.180191 -0.097429 0.180204 -0.048064 -0.016587 0.024856 -0.345809 0.001124 0.099452 -0.058444 0.070740 -0.025957 0.082893 -0.015312 -0.033606 -0.008631 0.056869 0.191884 0.192990 -0.058454 0.049046 -0.000548 0.016279 0.041922 -0.040929 -0.222772 -0.011502 0.225767 0.098883 0.020278 0.094684 0.073408 0.103331 -0.173129
professional -0.055047 0.034600 -0.099493 0.158870 -0.112881 0.019056 0.138506 -0.077259 -0.168937 0.010817 0.096791 0.082290 -0.010818 -0.261382 0.083244 -0.158588 0.128810 0.153916 0.013988 0.092316 -0.187237 0.133936 -0.054090 0.041930 0.057741 -0.028017 0.066590 0.184128 -0.014344 -0.196881 -0.203040 -0.034739 -0.083883 0.117395 -0.013993 0.067513 -0.058068 0.088080 -0.022887 0.132245 0.048853 -0.003491 -0.190979 -0.098898 0.257991 -0.014606 0.107061 -0.130926 -0.013368 0.085142 -0.065670 0.187425 -0.059994 -0.253712 0.084117 0.066401 -0.145418 -0.252853 0.056110 0.133338 -0.050269 0.138820 0.013522 -0.184069 0.009637
fly 0.031704 0.222609 -0.064257 0.154052 -0.051792 0.248821 -0.041413 -0.119292 -0.005001 0.065820 0.025375 -0.075220 0.036557 -0.093582 0.260118 0.035477 0.129799 0.063955 0.033524 0.144774 -0.049331 0.126590 0.164501 0.001196 -0.191846 -0.018948 0.060906 0.120413 0.274270 0.013551 0.105408 -0.096532 -0.020228 -0.059764 -0.077882 0.135463 0.072162 0.072993 0.016235 -0.032303 0.201980 -0.030042 0.202508 -0.080557 -0.214232 0.094322 -0.046348 0.111469 -0.098084 0.158629 0.016736 0.006059 0.154898 0.046178 0.165650 0.084862 0.157329 0.020539 0.007323 -0.123856 -0.102516 -0.093180 0.056532 -0.213966 -0.166205
danish 0.152822 0.098690 -0.005071 -0.177706 -0.069317 0.013055 0.067469 0.183403 -0.062776 -0.076367 0.097026 0.257832 -0.103389 -0.003314 0.162268 -0.077443 0.140791 0.101226 -0.122102 -0.011796 0.091581 0.218371 -0.104362 -0.083861 0.036776 0.038958 -0.108009 0.047133 0.174875 -0.007253 0.151099 -0.092958 -0.139851 0.031311 -0.014433 -0.260193 -0.077686 -0.079120 0.232969 0.038766 0.047788 -0.043451 -0.121062 -0.102241 -0.054543 0.068752 0.099980 0.087959 0.183062 -0.040884 -0.134930 0.091964 0.070006 0.108652 0.217033 0.059346 0.086198 -0.162277 -0.048828 -0.044369 -0.292802 -0.196480 0.022587 -0.208077 -0.010014
denmark 0.051421 -0.131055 -0.075979 -0.169694 0.003800 0.092261 -0.096092 -0.004045 -0.097640 -0.074057 0.038722 -0.083714 -0.003004 0.154708 -0.037692 -0.161908 0.134136 0.057758 0.062151 0.074860 0.158054 -0.005076 -0.114342 -0.108126 0.012968 -0.045645 -0.062570 -0.165455 0.060208 -0.228553 0.140597 -0.032096 -0.142438 -0.018981 -0.019291 0.054097 0.022400 -0.065293 0.167865 0.126706 -0.055974 0.167782 -0.142039 0.012764 -0.124494 0.010220 -0.046487 0.108323 0.042311 -0.009869 0.056357 -0.027596 0.155105 0.083353 0.343287 0.199952 -0.076157 -0.124769 0.056058 0.078952 -0.330179 -0.073714 -0.212467 -0.123094 -0.178139
croatia 0.054076 0.181022 -0.027763 -0.020958 0.009613 0.191997 0.005778 0.144356 0.026924 0.017624 -0.043185 -0.090199 0.220472 -0.130396 -0.102909 -0.035691 0.130374 0.125138 0.248307 0.141491 -0.150470 0.242265 -0.023397 0.000996 -0.225275 -0.047689 -0.052796 -0.059706 0.098912 -0.051041 0.067391 0.003931 -0.302144 -0.249864 0.022826 0.084086 -0.005450 -0.085952 0.066177 -0.180908 0.007451 0.180097 -0.047505 0.077887 -0.103890 0.125401 0.099275 0.201743 -0.050548 0.005719 0.091786 -0.079222 -0.047506 -0.023386 -0.051810 0.010878 -0.133020 -0.097390 -0.041709 -0.153918 0.214202 -0.020100 0.115053 -0.112583 -0.005509
