madagascar -0.103116 -0.061537 0.361307 0.450223 0.114036 -0.150270 -0.103198 -0.281886 0.032454 0.257866 0.177205 -0.008927
short 0.169242 -0.571446 0.374814 -0.146636 -0.439752 0.008934 -0.127500 0.495591 -0.496875 0.297635 0.437583 0.397569
decreased 0.477679 -0.432563 0.090885 0.253191 -0.818555 0.349840 0.067157 -0.065581 -0.248833 0.294290 -0.145446 -0.650218
belarus -0.100651 -0.099453 0.219043 0.461405 0.158720 -0.090765 -0.241391 -0.376996 0.052631 0.337188 0.245475 -0.085607
tajikistan -0.124525 -0.027608 0.152542 0.358356 0.214632 -0.043576 -0.256460 -0.341951 0.093370 0.313048 0.291203 -0.106009
antananarivo -0.368514 0.361802 0.167845 0.015044 -0.169315 0.268165 0.359806 -0.116886 -0.113349 -0.623185 0.150103 0.046408
chile -0.007731 -0.181062 0.221228 0.437702 0.054269 0.017512 -0.077185 -0.225201 0.039644 0.360175 0.150977 -0.053810
high -0.150581 0.289284 -0.293557 -0.550644 -0.142948 -0.563036 -0.553677 -0.082029 -0.251163 -0.097233 0.058904 -0.128175
paying 0.466705 0.294507 0.153827 -0.525968 -0.389742 0.506196 -0.512273 0.618454 0.141980 0.069582 -0.079863 -0.016154
coolest -0.077390 -0.246182 -0.190440 -0.274365 -0.125265 -0.131890 0.616085 -0.279297 0.471700 0.056723 -0.364652 0.333868
safe 0.000172 0.211817 -0.153585 -0.280130 -0.136135 -0.585519 -0.513112 0.014237 -0.368690 -0.093503 0.002295 -0.247297
santiago -0.351493 0.303043 0.095043 0.001923 -0.217592 0.288830 0.382726 -0.129558 -0.130021 -0.476420 0.166253 -0.087889
cool 0.132283 -0.676996 0.488325 -0.008933 -0.398274 -0.020011 0.025403 0.363734 -0.351246 0.297595 0.313346 0.328920
paid 0.310663 -0.422149 0.081440 0.162932 -0.551504 0.164494 -0.031942 -0.082076 -0.349170 0.291374 -0.256728 -0.630835
decreasing 0.467940 0.366924 0.040785 -0.467844 -0.481032 0.513653 -0.406523 0.621443 0.180861 0.135200 -0.008202 -0.007636
minsk -0.306245 0.418275 -0.022190 -0.038924 -0.166360 0.377696 0.245747 -0.088770 -0.095220 -0.561422 0.175972 0.010418
safer 0.118231 -0.150005 0.197884 0.074427 -0.131410 0.344605 0.158184 0.261950 -0.570429 0.164460 -0.455795 0.170557
higher 0.103253 0.043211 -0.021016 -0.052643 -0.143118 0.223075 0.272333 0.182860 -0.457516 0.182021 -0.491068 0.210596
shortest -0.010132 -0.237005 -0.190592 -0.335184 -0.165945 -0.128740 0.522332 -0.147477 0.422015 0.079411 -0.207507 0.357982
dushanbe -0.384347 0.426255 0.083748 -0.100792 -0.038694 0.283336 0.298340 -0.125698 -0.162036 -0.515066 0.181955 -0.029677
