hanoi -0.307923 0.040524 -0.047989 0.026146 -0.147844 -0.005972 0.115689 0.147184 0.132377 0.150120 0.266040 0.324662 0.311537 0.256955 0.034013 -0.132609 0.280273 -0.443146 -0.043234 -0.093712
tougher 0.161408 0.424772 0.114694 -0.025892 0.025463 -0.003086 0.200343 -0.211446 0.013347 0.023070 0.378374 -0.127708 -0.271752 0.024014 -0.122550 0.200515 0.004416 -0.018993 -0.388365 -0.196853
occasionally -0.197357 0.061852 0.028414 -0.303174 -0.180079 0.179117 -0.106571 0.602593 0.196604 0.024173 -0.039271 0.184233 -0.235273 -0.063649 -0.000851 -0.187473 0.033046 0.212852 -0.168291 0.018620
ukrainian -0.075009 0.378249 0.082468 0.098780 -0.187384 -0.191191 0.022096 0.190259 -0.114655 0.399358 0.034875 -0.093115 0.129920 -0.021306 0.273243 -0.145796 -0.033991 0.040659 -0.085931 -0.083765
occasional -0.016373 0.207740 -0.020810 -0.208537 0.048934 -0.156849 0.061342 0.482798 -0.171886 0.136982 0.168085 0.016280 -0.188918 -0.041417 0.244955 -0.217176 -0.020417 0.072744 -0.015973 -0.163988
norway 0.095206 0.344017 0.173534 0.072652 0.123718 0.310700 -0.232426 0.071348 0.002864 0.238550 0.208071 -0.138911 0.063038 0.198365 -0.160811 0.107485 -0.145585 -0.199823 0.152530 -0.025377
baghdad 0.004943 0.142484 0.117770 -0.022184 0.187417 -0.015574 -0.276309 -0.067806 -0.390386 -0.231489 0.473935 0.150783 -0.216355 0.142037 0.040171 -0.114595 0.111620 -0.006076 -0.097392 -0.142942
illinois 0.068049 -0.076771 0.502401 -0.275573 -0.407309 0.100933 0.138614 0.050805 -0.008841 -0.084014 -0.105441 0.057808 -0.201957 0.005209 -0.065136 -0.068109 -0.046656 -0.189712 -0.000519 -0.274110
moving 0.175710 0.257516 -0.013162 0.195475 -0.272979 0.294770 -0.178076 0.175796 -0.158934 -0.310252 0.189562 -0.015808 0.096558 0.330817 -0.145742 -0.327911 -0.161351 0.054497 -0.013369 0.168113
loud 0.036004 0.215301 -0.236744 -0.090670 -0.122819 -0.074273 -0.257762 -0.013240 0.124333 -0.063010 0.070010 0.329905 -0.028928 -0.075375 -0.060740 0.162837 -0.193270 -0.209796 -0.158262 -0.501349
thai -0.035806 0.128444 0.297304 -0.360482 -0.055415 -0.147576 0.155115 0.294749 -0.253403 -0.098065 -0.205521 -0.060189 0.024740 0.425280 -0.059203 0.407644 0.114136 -0.013481 -0.170868 0.001049
croatian 0.048605 0.028113 0.278298 0.108772 0.088420 -0.185642 -0.079597 -0.022316 0.184375 0.161511 -0.027585 0.332336 -0.035458 0.078332 -0.238048 -0.232181 -0.141970 0.428680 -0.170517 -0.302993
argentina -0.189415 0.003148 0.091108 -0.032933 -0.052487 -0.049884 -0.175631 -0.163675 -0.037313 0.178960 -0.202795 0.125679 -0.255862 0.453319 0.287735 -0.167675 -0.238274 -0.016012 -0.104058 0.060549
vietnam -0.270542 -0.022885 0.135295 0.073282 -0.231844 -0.053285 -0.153603 0.115147 0.173544 0.040707 0.334593 0.162479 0.082681 0.221877 -0.026664 -0.084722 0.329484 -0.212479 -0.078716 -0.071226
norwegian 0.124958 0.377582 0.105830 0.046099 0.186510 0.166006 -0.157853 0.201115 0.079069 0.273280 0.213869 -0.246416 -0.083021 0.274008 -0.119419 0.232534 -0.152577 -0.162648 0.214211 0.032271
professionally -0.054088 0.223045 0.074110 0.077169 0.159569 0.295719 -0.150905 0.333164 -0.158233 0.170688 -0.064553 0.250240 0.044989 -0.096250 -0.006082 0.147198 0.041184 -0.285199 -0.099117 -0.005427
argentinean -0.111481 -0.019628 -0.052367 -0.215415 -0.064658 -0.063888 -0.093153 -0.071561 -0.081860 0.183400 -0.187690 0.066563 -0.420553 0.442334 0.141199 -0.157729 -0.407307 -0.225953 0.041920 -0.006038
louder 0.081230 0.129679 -0.167376 -0.022920 -0.259538 -0.165307 -0.274510 -0.036373 -0.113410 -0.053787 -0.005871 0.413101 0.066519 0.011579 0.080185 0.177798 -0.065018 -0.084012 -0.101426 -0.437453
chicago 0.017031 0.152274 0.322941 -0.176223 -0.320861 -0.107082 -0.001071 -0.014296 0.200646 -0.134807 -0.127514 0.127084 -0.283318 0.059723 0.054772 -0.247898 0.139659 -0.213314 -0.024529 -0.143549
move 0.279045 0.111027 -0.065997 0.026328 -0.222649 0.095352 -0.117546 0.230252 -0.058103 -0.143153 0.093480 0.174544 -0.020015 0.503749 -0.049856 -0.184554 -0.210771 0.079506 0.049938 0.302660
thailand -0.144468 0.004656 0.302672 -0.197979 -0.027667 -0.148800 0.103477 0.289581 -0.194807 -0.139903 -0.215308 -0.077319 0.123606 0.513451 -0.108010 0.449091 -0.039369 0.003210 -0.092925 -0.075384
ukraine 0.039117 0.544272 0.057855 0.183026 -0.194764 -0.227884 0.202497 0.164287 0.089435 0.214199 -0.071312 -0.066312 0.395080 0.055798 0.417810 -0.073322 0.079633 0.056889 -0.091910 -0.234941
plano -0.177320 0.442735 0.174168 0.135781 -0.331179 -0.099967 -0.216796 -0.071653 -0.041791 -0.214045 0.106397 0.017478 -0.086250 -0.106442 0.036484 0.088688 -0.228675 0.160695 0.001348 -0.023560
texas -0.160089 0.326503 0.246528 -0.044673 -0.278358 -0.341920 -0.258383 0.062136 0.007649 -0.079329 0.225377 -0.035346 -0.212726 -0.041079 0.160271 0.245982 -0.352871 0.217135 0.183339 0.084789
tough 0.217727 0.388745 0.030720 -0.205737 -0.136869 0.051405 0.199626 -0.311530 -0.032623 0.402246 0.411018 0.123576 -0.115711 0.093292 0.012671 0.326262 0.097415 -0.139911 -0.347146 0.053067
flying -0.019267 0.063917 0.200992 0.536159 0.087339 -0.102341 0.349142 0.122329 -0.024090 0.066505 -0.159358 0.218384 -0.310555 0.014748 0.090472 0.013939 0.128020 -0.093207 -0.129209 -0.262512
iraq -0.151838 0.117949 0.232889 -0.047124 0.130732 0.110528 -0.183176 -0.047599 -0.290616 -0.046827 0.291999 0.096987 -0.228593 0.062493 0.074301 -0.060647 -0.083076 0.084280 -0.131363 -0.078403
professional -0.251801 0.138733 0.127682 0.134207 0.035190 0.357152 -0.029384 0.329672 -0.317126 0.112899 -0.032343 0.331741 -0.096172 -0.166058 -0.052885 0.090461 0.068351 -0.065096 -0.157871 0.028492
fly 0.138508 -0.081906 0.247926 0.382383 0.148599 -0.087926 0.231152 0.209717 0.186384 -0.053132 -0.072465 0.231880 -0.308036 0.171815 0.059472 -0.085402 -0.152954 -0.197574 0.146171 -0.180400
danish -0.020420 -0.148481 0.355174 0.085182 -0.009443 0.112228 0.040628 0.094254 -0.020745 0.214070 0.154258 0.143589 0.149422 -0.086843 -0.013877 0.010565 -0.544280 -0.203667 -0.304248 0.021218
denmark 0.173548 0.001592 0.178069 -0.033524 0.106157 0.001495 -0.070562 -0.081182 0.076446 0.012085 0.110298 0.325399 0.175812 0.035997 0.072230 0.097130 -0.380489 -0.313462 -0.426374 0.000152
croatia 0.188131 0.073507 0.373018 0.182913 0.088568 -0.294095 -0.179026 0.106248 0.074735 -0.072837 -0.004826 0.211657 -0.131897 0.077196 -0.285980 -0.093108 -0.096358 0.277574 0.029462 -0.224422
