fly 0.318545 0.177420 -0.264751 -0.292785 -0.044143 0.313749 0.091283 -0.324055 -0.255227 -0.057800 0.095912 -0.080443 -0.139860
loud -0.016637 -0.122479 0.230691 -0.103815 0.224148 0.066022 0.020976 0.135614 0.127032 -0.063733 -0.023517 -0.085096 -0.028785
tough -0.039516 -0.031566 0.129286 -0.273382 0.243635 0.119979 0.008602 0.012671 -0.038843 0.054412 0.003095 -0.025463 -0.083902
occasionally -0.142497 0.068755 0.160235 -0.023708 -0.082916 0.074335 -0.140901 0.054271 0.020032 0.210071 0.186994 0.096216 0.010747
moving -0.083454 0.131617 -0.069545 0.271216 0.031656 0.084519 0.066074 0.204851 0.088893 0.024718 0.217104 -0.192658 0.286391
professionally -0.199523 0.096446 0.288524 0.143079 -0.102474 -0.113264 -0.119531 0.129488 0.228518 0.150692 0.253921 0.087347 0.061254
professional -0.074215 -0.184536 -0.071069 -0.182727 0.067216 -0.277713 0.028078 -0.099639 -0.106480 0.338272 0.214045 -0.082316 -0.211328
norwegian 0.110825 -0.069286 -0.126468 -0.079103 -0.118929 0.015930 -0.057137 0.024882 0.049133 0.049312 -0.067875 0.152874 0.003025
tougher 0.202489 -0.022068 -0.004377 -0.198740 0.187523 -0.011463 0.098321 -0.059523 -0.035806 0.267110 -0.187501 0.104395 0.198545
ukraine -0.077981 0.082139 -0.092101 -0.278082 0.014178 0.120262 0.263804 0.022088 -0.230024 0.261663 -0.178048 0.071767 -0.196606
move 0.332814 0.093091 -0.190519 0.060797 -0.079098 0.097360 0.145311 0.004214 0.256304 -0.173285 0.063144 -0.269480 0.246859
occasional -0.010324 -0.215052 -0.079904 -0.237204 -0.031038 -0.116354 0.107188 -0.091707 -0.138646 0.239295 0.201576 -0.114106 -0.176973
ukrainian 0.107307 -0.129636 -0.221597 -0.255646 -0.096785 0.052421 0.075949 -0.130408 -0.104278 0.085520 0.025532 0.355551 -0.037136
flying -0.031375 0.170090 -0.167025 -0.061553 0.105055 0.274478 0.051121 -0.165179 -0.319243 0.056623 0.246423 0.023867 -0.147845
danish -0.034448 -0.063499 -0.030000 0.031709 -0.158470 0.004003 -0.106969 0.033978 0.125808 -0.075802 -0.012070 0.228951 0.163223
norway -0.170285 0.138573 0.029769 0.068481 -0.045861 0.010765 0.195595 0.265594 0.032852 0.092070 -0.218273 -0.155343 0.019886
argentina -0.058147 0.282402 0.144616 0.149250 -0.086307 -0.030801 0.191074 0.278115 0.037926 0.000399 -0.124785 -0.096112 0.023397
louder 0.129597 -0.030732 0.168195 0.015449 0.212771 -0.098458 0.216736 0.129715 0.163387 0.131351 -0.168714 0.133088 0.305569
argentinean 0.089663 0.016114 -0.032840 0.037198 -0.109154 -0.065423 -0.015694 0.069647 0.106405 -0.077868 0.098402 0.253883 0.120037
denmark -0.159144 0.193179 0.021021 -0.074478 -0.127353 0.090215 0.163725 0.090205 -0.157874 0.126802 -0.215226 -0.023304 -0.056901
