madagascar 0.302041 0.493104 0.033360 -0.256915 0.062649 0.489213 -0.071514 0.347989 0.012261 -0.139816 -0.384408 -0.311205 -0.269326
short -0.117928 -0.087016 -0.416013 0.099254 -0.291012 -0.269544 0.408285 0.647343 0.244232 0.273088 -0.030553 -0.714339 -0.312641
decreased -0.204506 -0.065702 0.330179 0.085112 0.206121 0.122314 0.254077 0.134037 -0.222241 0.570530 0.697641 -0.032038 -0.373638
belarus 0.348556 0.589808 0.003408 -0.293057 0.156791 0.498204 -0.115797 0.391611 -0.167850 -0.171833 -0.331503 -0.397294 -0.366274
tajikistan 0.322264 0.562413 -0.007714 -0.250370 0.151068 0.490596 -0.087824 0.253939 -0.042846 -0.201859 -0.268200 -0.310943 -0.269930
antananarivo 0.088278 -0.084131 0.184066 0.565071 0.194342 0.563542 0.182463 0.122824 0.387322 0.087206 -0.412049 -0.004335 0.648916
chile 0.269590 0.603983 0.006306 -0.302827 -0.056709 0.500266 0.030168 0.273965 -0.089125 -0.049918 -0.363175 -0.368601 -0.381774
high 0.144583 -0.323622 -0.501916 -0.164719 0.458321 -0.552083 -0.192247 0.070956 -0.435536 0.181690 0.079711 0.268375 -0.141178
paying -0.454380 0.255498 -0.264913 0.241526 0.006079 -0.335587 -0.070422 -0.453947 0.163334 -0.082786 0.385798 0.496486 0.137475
coolest -0.090918 -0.358077 0.152097 -0.604924 -0.545117 0.248702 -0.347842 0.207691 0.663549 0.389655 -0.294806 -0.100770 0.525737
safe 0.227205 -0.229047 -0.370307 -0.166395 0.485575 -0.626669 -0.028966 0.024119 -0.587001 0.139454 0.057396 0.220863 -0.263174
santiago 0.098573 -0.049353 0.231108 0.520743 0.119016 0.575365 0.174378 0.121867 0.275811 0.214225 -0.348010 0.010010 0.538450
cool -0.187524 -0.089245 -0.319516 0.032424 -0.397203 -0.087286 0.345927 0.671707 0.280361 0.226324 -0.038605 -0.694051 -0.252772
paid -0.133355 -0.190896 0.091880 -0.134147 0.193245 0.003710 0.334947 -0.002068 -0.428205 0.313032 0.485079 -0.010397 -0.379983
decreasing -0.518978 0.339701 -0.216088 0.263595 0.004777 -0.204827 -0.194403 -0.361703 0.219648 0.081418 0.447021 0.425363 0.175722
minsk 0.064711 -0.009886 0.195860 0.567078 0.209025 0.488904 0.181500 0.090192 0.277631 0.040884 -0.407406 0.029541 0.584711
safer 0.356482 -0.176229 -0.453103 -0.169279 -0.496624 0.105715 0.283654 -0.379374 -0.552837 -0.430610 -0.331418 -0.232171 -0.269242
higher 0.374236 -0.319418 -0.462387 -0.263616 -0.445007 0.052223 0.055715 -0.518384 -0.482569 -0.377232 -0.365129 -0.202663 -0.125954
shortest -0.251509 -0.231185 0.043767 -0.580483 -0.500363 0.215848 -0.361254 0.320800 0.678931 0.492774 -0.328368 -0.086255 0.429317
dushanbe 0.159283 -0.060862 0.179901 0.508330 0.164816 0.562211 0.133770 0.043576 0.241382 -0.021975 -0.408208 -0.033960 0.602295
