madagascar -0.419556 -0.215737 -0.118496 -0.438537 -0.064690 0.197768 0.060835 -0.370412 -0.207551 0.156726 0.142884 0.030905 -0.059511
short -0.360743 -0.277715 0.042894 0.008549 -0.327132 0.557895 0.220386 0.444756 -0.111077 0.517770 0.077128 0.136318 0.490489
decreased 0.056778 -0.094174 -0.395384 0.165029 -0.669872 -0.368375 0.354868 0.834600 0.048867 -0.118364 0.491880 0.312637 -0.250100
belarus -0.536951 -0.297904 -0.105103 -0.515078 -0.067559 0.109545 0.129250 -0.370298 -0.154231 0.112170 0.277001 -0.005138 -0.062568
tajikistan -0.434123 -0.299788 -0.189017 -0.481689 -0.048605 0.131853 0.163268 -0.436233 -0.066749 0.076430 0.244761 0.005943 0.025923
antananarivo 0.455320 0.313024 0.413223 -0.146446 0.504581 0.145277 0.333826 -0.119374 0.008132 0.337239 -0.009874 0.006180 -0.209889
chile -0.420652 -0.428408 -0.380846 -0.499021 0.056103 0.275242 -0.087525 -0.137920 0.145882 0.435144 0.362754 0.020484 -0.018868
high -0.042623 0.472049 0.123165 -0.166389 -0.193081 -0.146243 -0.263850 -0.118993 -0.133008 -0.736260 -0.076268 -0.209239 0.329923
paying 0.005299 -0.281743 0.018340 0.328864 -0.328913 -0.505056 0.150176 -0.046344 0.664624 -0.297554 -0.180867 0.541971 0.412317
coolest 0.228797 -0.484077 -0.299400 0.504641 -0.182888 0.100158 -0.416848 -0.419603 -0.746148 0.067673 -0.067017 -0.267026 0.037936
safe -0.085836 0.504814 0.030165 -0.309304 -0.100951 -0.217658 -0.265832 0.026425 -0.000697 -0.647028 0.025291 -0.235117 0.282010
santiago 0.480310 0.253674 0.222430 -0.169966 0.492115 0.175117 0.246685 -0.001197 0.176210 0.410122 0.072332 -0.021728 -0.198111
cool -0.363526 -0.267200 0.002257 0.120076 -0.404261 0.539808 0.231833 0.318472 -0.336001 0.464473 0.005037 0.146257 0.251274
paid -0.047205 -0.011361 -0.508522 -0.058103 -0.376126 -0.207906 -0.006774 0.707367 0.255903 -0.144824 0.688612 0.204225 -0.213716
decreasing 0.029546 -0.345847 0.047783 0.384514 -0.427253 -0.570471 0.262904 0.033990 0.570308 -0.226028 -0.368479 0.554990 0.428317
minsk 0.427703 0.216749 0.496209 -0.030620 0.343401 -0.007721 0.507750 -0.152896 -0.058516 0.094034 -0.073234 0.058697 -0.183431
safer -0.176838 -0.196291 -0.176918 -0.449023 0.249922 0.142299 -0.307070 0.309261 0.091746 -0.085412 0.306237 0.241791 -0.006869
higher -0.006365 -0.192989 -0.163827 -0.290967 0.207253 0.111019 -0.332273 0.200209 0.007342 -0.220806 0.262425 0.156052 0.034907
shortest 0.189433 -0.438939 -0.239945 0.507073 -0.298633 0.168983 -0.343752 -0.374654 -0.618651 0.085342 -0.071775 -0.171616 0.111628
dushanbe 0.402484 0.290110 0.383289 -0.203793 0.488147 0.084447 0.279901 -0.165408 0.026255 0.230053 0.039255 -0.038680 -0.145679
