hanoi 0.065080 0.028084 -0.090229 0.009740 -0.017510 0.067948 0.115039 0.032369 -0.002331 -0.038378 0.042616 0.113287 -0.068806 -0.000651 0.000846 -0.034132 -0.027359 -0.018743 -0.073322 -0.019271 -0.024443 0.159892 0.060497 0.042784 0.006467 0.034025 0.019844 0.128960 -0.134196 -0.045083 -0.137198 -0.012019 0.030264 0.133987 -0.033583 0.087579 0.073756 -0.043347 -0.018811 0.074429 0.017832 0.043719 0.079883 -0.125974 -0.097605 -0.012682 -0.008031 0.032418 0.047811 0.043612 -0.092326 0.052411 -0.069415 -0.136735 0.020712 0.044115 0.052010 -0.038887 0.003817 0.047934 0.038330 -0.054340 0.040560 0.015207 0.003454 -0.063116 -0.013668 0.003384 -0.060272 -0.077048 -0.078881 0.007203 0.049457 -0.039158 0.124773 -0.095247 -0.102804 -0.023408 0.103051 -0.077384 0.036950 -0.034401 0.014424 -0.044452 0.087363 -0.030669 0.059794 -0.104803 0.037841 -0.078261 0.127029 0.031826 0.090972 0.042206 -0.023744 0.057531 -0.079623 0.086659 0.053608 -0.112281 0.061012 0.014024 -0.021860 0.121760 -0.076387 0.082612 0.034521 0.039533 -0.045603 0.132523 0.052026 -0.143864 0.045152 0.032762 0.075735 0.014440 0.050160 0.020818 -0.004481 0.011539 0.002995 -0.115063 0.011180 -0.015311 -0.014163 0.003334 0.041618 0.054650 0.019030 -0.042885 0.060686 -0.000224 -0.093327 0.048557 -0.008116 0.052977 0.056623 -0.043791 0.035112 0.036128 0.046240 0.052392 0.029813 -0.026660 -0.037091 -0.093506 -0.094664 0.038785 0.092375 0.080496 -0.070034 0.037316 0.040152 0.037685 -0.084073 0.064119 0.071490 -0.037821 -0.107598 0.117660 -0.004399 -0.040106 -0.073681 0.119860 0.079448 0.034313 0.008407 -0.070690 0.135266 -0.037124 -0.019425 0.029759 0.059590 0.000915 -0.042539 -0.026043 -0.072624 0.080190 0.041913 0.011776 0.027334 -0.084680 0.144718 -0.030861 -0.117641 -0.021731 0.075552 -0.056417 0.077013 -0.142121 0.018908 -0.037280 -0.060877 -0.057134 0.013283 0.015517 -0.004720 -0.046063 0.058463 0.141295
tougher 0.022879 0.011436 0.180106 0.033767 -0.033683 -0.004468 0.063119 0.001392 0.016516 -0.013290 -0.025108 0.082869 0.026099 -0.017517 -0.044126 -0.010771 0.013428 0.022021 -0.035486 -0.014436 -0.065573 0.066918 -0.014549 -0.042706 -0.104725 -0.055621 -0.016280 0.001485 -0.000285 0.068167 -0.025136 0.076118 0.097554 0.113823 -0.027988 0.050795 -0.084321 0.001807 0.032890 0.025737 -0.028883 0.029927 0.021871 -0.051431 0.018895 -0.016945 0.034841 -0.032691 0.029226 0.037003 -0.009105 0.030297 0.030089 0.074909 -0.068634 0.007832 0.049305 0.027201 0.010388 -0.061079 -0.002676 -0.079965 -0.018623 -0.014735 0.088150 -0.070171 0.050215 -0.045500 -0.124866 0.028881 -0.071523 -0.040805 0.033205 0.102233 0.020586 0.040553 -0.037177 0.148361 -0.038036 -0.016483 0.052907 0.066242 -0.015178 0.028083 -0.076561 -0.051398 -0.054210 -0.012840 -0.088714 -0.096990 0.104754 -0.050186 0.042571 -0.093455 -0.005969 0.090852 0.005551 -0.087449 0.164954 0.007943 0.088978 -0.015529 0.029763 -0.034576 0.027142 -0.008531 0.011394 0.044102 -0.075518 0.095398 0.087640 0.016478 0.000033 0.020926 0.048709 0.170740 0.053106 0.027913 0.089770 0.010917 0.092882 -0.000496 0.031498 -0.148626 -0.018219 -0.061989 -0.066290 0.023904 0.077496 0.121087 0.065042 0.070418 -0.075286 -0.007821 0.020030 -0.099883 0.168312 -0.083509 -0.055910 -0.089299 -0.029749 -0.066151 0.051336 -0.154129 0.030333 0.007110 0.023030 -0.086591 -0.055018 -0.101480 0.076895 0.041095 0.029373 0.193051 -0.030231 0.031364 0.070700 -0.055976 -0.073061 -0.057939 -0.057153 -0.095263 -0.019290 0.089331 0.067419 0.030185 -0.122977 0.026814 -0.000581 -0.008060 -0.024441 -0.017344 0.069383 -0.063953 -0.042030 -0.060252 0.027134 0.005260 0.007010 0.004060 0.059546 0.137563 0.030110 -0.139972 0.142040 -0.042290 0.097027 0.009367 0.040051 -0.017693 0.021910 0.053945 -0.027010 0.016690 -0.054193 -0.024447 -0.120876 -0.016673 0.075698 0.053073
occasionally 0.024361 0.081349 0.000598 -0.079301 0.019550 0.004753 0.046499 -0.043547 0.166919 0.040597 0.035998 -0.048362 0.110152 0.106914 -0.069655 0.064639 0.097900 -0.044560 -0.047249 -0.072449 -0.044475 -0.006072 -0.004111 -0.016123 0.061301 0.011679 -0.048255 0.015238 -0.118268 0.017170 0.033194 0.078506 0.075049 -0.059499 0.114421 -0.051459 0.052664 -0.006790 -0.039116 -0.032819 0.011686 -0.027368 0.044605 -0.016180 0.063381 -0.040431 0.046558 -0.005988 -0.021668 0.001136 0.039979 0.027885 0.008347 0.041648 0.029435 -0.102427 -0.053069 -0.064644 -0.011412 -0.046939 -0.151070 -0.006431 0.048930 -0.006860 -0.132999 -0.092867 -0.080962 0.018655 0.087700 0.023250 -0.089416 0.059958 -0.026256 0.081516 -0.026698 -0.012565 -0.083044 0.066358 -0.024059 -0.057810 0.076624 -0.029768 -0.103009 -0.129847 -0.028736 0.022941 -0.101928 -0.084170 -0.065853 0.027973 -0.041867 0.062638 -0.043577 0.066233 -0.071139 0.027016 -0.076283 0.119663 0.101506 -0.206027 0.040986 0.094372 0.057839 0.069439 -0.070123 -0.041388 -0.021391 -0.041398 -0.033536 0.083894 -0.020258 0.119134 0.016293 0.103359 0.057371 0.102516 -0.039075 0.013891 -0.089624 0.022795 0.080978 -0.078267 0.068106 -0.042800 -0.144459 -0.049217 -0.009188 -0.039836 0.084488 0.043591 -0.042351 0.088117 -0.102279 -0.035123 -0.089873 -0.010816 -0.030173 0.030136 0.079771 0.013765 -0.008951 -0.026484 0.083772 0.019591 -0.011759 -0.015554 -0.081207 0.100542 0.160711 0.035816 -0.080228 0.040685 -0.078385 -0.081542 -0.027196 0.016462 0.108855 -0.130749 -0.017709 0.059409 -0.042547 -0.047527 0.081147 0.045994 -0.068958 -0.033356 0.066581 -0.017700 -0.019332 0.022560 -0.025628 0.052609 -0.039840 -0.048020 -0.030361 0.082602 -0.140188 0.048164 -0.003706 -0.076897 -0.042002 0.100403 0.001021 -0.033218 -0.002620 0.073062 -0.076629 0.058790 0.052416 -0.008372 0.000940 -0.051970 -0.002116 0.017943 0.134964 0.039213 -0.046670 -0.124268 -0.010549 -0.104404
ukrainian 0.042416 -0.087148 -0.033405 0.093342 0.076501 0.189079 0.020480 0.141498 0.003226 0.001903 0.024422 0.047127 -0.060814 -0.096189 -0.094287 -0.045792 -0.071716 0.107339 -0.066421 -0.006878 0.135374 0.067872 0.033704 -0.013909 0.008728 0.081743 0.041163 -0.113789 0.000763 0.009812 0.044058 -0.052486 -0.082768 0.016101 -0.050379 -0.068699 0.061503 0.119914 0.007879 0.029004 -0.007996 -0.163802 -0.019091 -0.112079 0.115145 0.020506 0.025705 0.049652 -0.060287 0.102156 0.055999 0.032301 0.069359 0.029090 0.004436 0.011395 -0.045920 -0.150630 -0.033632 -0.038874 -0.034943 0.045642 0.011624 -0.012262 0.016178 -0.008506 -0.045799 -0.018930 0.163712 -0.037663 0.085126 -0.036080 0.032027 -0.018787 0.019981 0.031357 0.114790 -0.035453 0.041889 0.072246 -0.011564 0.061869 -0.067060 0.001360 -0.005575 -0.009856 0.006788 -0.029901 -0.059153 0.061921 0.080632 0.001569 -0.051861 -0.042854 -0.060302 -0.056258 0.043145 0.046594 -0.032704 0.034221 -0.005003 0.101881 -0.070311 -0.096007 0.063410 0.181216 0.020730 -0.120439 -0.085088 -0.019078 -0.028605 -0.011763 -0.062072 -0.099455 0.120930 0.009781 0.104060 -0.052407 -0.063043 -0.006906 0.011665 -0.015846 -0.042166 0.021510 0.058143 -0.116940 -0.029380 0.016221 0.067956 -0.091006 -0.076985 0.014659 0.029206 -0.068936 0.054381 0.083942 -0.065966 -0.090791 0.048053 0.072406 0.038772 0.017678 0.084080 0.008711 -0.062356 -0.145739 0.014596 0.031651 0.091340 0.005943 0.038597 -0.018378 -0.007748 -0.156016 0.030785 0.007640 -0.004281 0.062072 -0.087419 0.030437 0.046093 0.085191 0.063628 -0.033079 -0.112883 -0.046067 -0.012294 0.099201 0.010968 0.186399 0.065020 0.067690 0.089552 0.082812 0.084359 -0.100147 -0.056268 -0.058963 0.010250 -0.021228 -0.039887 -0.023258 -0.043967 -0.041110 0.033115 -0.080807 -0.037489 0.028761 0.034137 0.022350 -0.007753 0.060313 0.016664 -0.082528 0.077021 -0.000202 -0.062046 -0.003019 0.042895 0.022619
occasional 0.000402 0.115971 -0.067068 -0.068097 -0.019937 0.096024 0.108048 -0.117457 0.106791 -0.022588 0.018217 -0.001384 0.030714 0.015303 -0.006565 0.097306 -0.014621 -0.060027 -0.064129 -0.035337 0.006509 0.032881 -0.042102 -0.025838 -0.006986 0.024123 0.045747 0.011656 -0.062154 -0.034726 0.059272 0.030453 0.072167 0.005046 -0.075981 -0.126240 0.055680 0.056497 -0.052002 -0.015620 0.015661 -0.071305 0.000401 -0.088271 0.042564 -0.052992 -0.003680 0.039880 0.023701 -0.025345 0.001117 0.007371 0.019096 0.119896 0.175263 -0.013694 0.016113 -0.070365 0.077791 -0.047318 -0.136368 -0.041060 0.034472 -0.034142 -0.057864 -0.017013 -0.069608 0.020837 0.089896 0.006062 -0.018111 -0.012071 0.043534 0.113141 -0.015039 0.070908 -0.031096 -0.036595 -0.061202 -0.033803 0.015382 -0.017260 -0.068901 -0.051803 -0.071513 0.053244 -0.099324 0.063144 -0.012721 -0.010321 -0.034288 -0.051848 0.003978 0.091924 0.006209 -0.019940 -0.134613 0.015493 -0.002548 -0.176621 0.067162 0.114155 0.056580 0.050158 0.004757 -0.013376 0.042604 -0.152295 -0.067815 0.031276 -0.070985 0.057288 0.079100 0.122601 0.008312 0.112083 -0.032697 0.036929 0.011663 -0.066279 -0.117194 -0.059380 0.047747 0.037065 -0.105210 -0.069099 -0.109698 -0.080353 0.121462 0.180505 -0.096370 0.030794 -0.051438 0.020524 -0.040589 0.034740 -0.021650 0.057071 -0.013166 -0.025792 0.017838 -0.047598 0.050761 -0.028229 -0.070881 -0.053871 0.118130 0.059367 0.040405 -0.077598 -0.006099 0.025257 -0.018220 -0.063276 -0.115647 -0.055089 0.038836 -0.131390 0.016486 0.005100 -0.032924 -0.059570 0.141646 -0.027070 -0.118651 -0.022492 -0.041511 0.038338 -0.064931 0.089682 0.043890 0.024638 -0.020814 -0.088108 0.007156 0.008802 -0.098546 0.022601 0.032955 -0.123560 0.015920 0.088963 -0.003852 -0.059240 0.005895 0.013684 -0.056344 0.014302 -0.047785 -0.022963 -0.076573 -0.036706 -0.029682 -0.014077 -0.018292 0.102334 -0.061001 -0.112807 0.005139 -0.131840
norway -0.132616 0.070290 -0.070992 0.041924 0.007205 0.038281 0.073105 -0.111344 0.027507 0.028505 -0.030446 0.105849 -0.037719 0.003860 -0.090991 0.070388 -0.082803 0.067008 -0.009801 -0.006574 0.021982 -0.029092 0.061534 -0.009734 0.063769 0.124410 0.053928 -0.023446 0.060430 -0.034380 0.062085 -0.082161 0.012767 -0.041075 -0.060119 -0.043291 -0.062846 -0.062743 0.064268 0.085522 0.059571 -0.101005 0.030430 -0.001594 -0.004075 0.074154 0.052362 0.080680 0.023362 0.084473 0.057619 0.025311 -0.023127 -0.040453 0.062999 -0.062744 -0.053761 -0.096844 0.032293 0.074410 -0.019856 -0.032736 -0.024563 -0.103018 -0.050186 -0.027354 -0.020639 -0.056114 0.003374 0.062578 0.022721 -0.021076 0.047075 0.050093 0.030692 0.016093 0.032082 0.039454 -0.005793 -0.024927 -0.017968 -0.114216 -0.105435 0.099624 -0.094038 -0.096522 -0.145858 0.123981 0.005102 -0.113994 -0.096517 -0.049721 0.078565 0.027911 0.059621 0.014989 -0.113356 -0.076589 -0.049379 0.055635 0.081350 0.057096 0.128626 0.013896 0.033447 0.005769 0.171679 0.004392 -0.102388 0.053270 0.004981 -0.097652 -0.066508 -0.035884 0.027523 -0.016390 0.028247 -0.079954 0.027689 -0.013151 0.006839 0.038724 0.099889 0.075609 -0.116889 0.061563 -0.072991 0.038657 -0.083781 -0.024784 0.026929 -0.013533 -0.047741 0.026729 -0.031534 0.075534 0.014406 0.041308 0.051055 -0.012190 -0.042836 0.031404 -0.042282 -0.078584 -0.010827 -0.059593 0.189517 0.061022 -0.117338 0.050658 0.025873 0.048139 -0.013568 -0.057276 -0.026014 0.122505 -0.011314 -0.011483 -0.105243 0.013669 -0.007785 -0.013631 0.084676 0.071213 0.066371 -0.021898 -0.062561 -0.055971 0.015086 0.079105 -0.068738 0.121935 0.018687 0.061504 0.068147 -0.049791 0.059070 -0.080765 0.038452 0.038024 0.066916 0.066336 -0.005583 0.057490 -0.005962 -0.065394 0.059182 0.018937 -0.085361 0.050773 0.024679 0.081361 -0.052710 -0.045371 0.054002 -0.003889 -0.099376 0.038388 -0.037585 -0.087799
baghdad -0.118584 0.079678 0.055129 -0.013679 0.000830 0.048397 0.009192 -0.028329 0.015317 0.043416 -0.033274 0.012362 0.001536 -0.007201 -0.012150 -0.079340 -0.007260 -0.035487 -0.045464 -0.007686 0.031187 0.165828 0.127006 -0.020482 0.006054 -0.066863 0.068114 0.053738 0.036458 -0.011172 -0.025214 0.108398 0.012271 -0.014404 -0.042917 -0.031015 0.160705 0.053009 -0.119814 -0.086259 0.062894 0.105405 0.044365 0.019383 0.021230 -0.039825 -0.075880 -0.045800 -0.039182 -0.111812 -0.005487 -0.060986 0.010106 0.112647 -0.066376 -0.132962 -0.051107 0.058333 0.076702 -0.014879 -0.015376 -0.083281 0.016349 0.092478 -0.062967 0.022538 0.143785 0.140133 -0.121493 -0.012574 -0.007746 -0.004951 0.046033 0.010715 0.017471 -0.073585 -0.066805 0.177085 0.043079 0.093353 -0.005522 0.168418 0.018679 -0.029878 -0.086431 -0.081309 0.059543 -0.042862 0.043664 0.031089 -0.045943 -0.120481 -0.007930 0.052308 -0.009160 -0.004802 -0.063261 -0.147168 -0.049267 -0.074701 -0.100363 0.016156 0.046529 0.060136 0.029438 -0.004715 -0.018766 0.076152 0.021791 0.052769 -0.048183 -0.027936 -0.101906 0.064491 0.061558 0.002080 0.110241 0.026969 -0.039541 0.133665 -0.028097 -0.003481 0.030741 -0.013055 -0.083948 -0.049016 -0.035535 0.017359 0.057255 -0.038757 0.005172 -0.060102 0.091380 -0.073003 -0.090593 -0.038018 -0.029507 -0.011114 -0.071268 -0.052183 -0.055917 -0.076546 0.019433 -0.110862 -0.025961 0.077807 0.064554 -0.066770 0.000529 0.078157 0.072316 0.036224 -0.071226 0.104556 0.101453 -0.032828 0.077247 0.032081 0.062070 0.077305 0.029332 0.037096 -0.069261 0.104430 -0.014609 -0.011553 0.017422 0.072925 -0.037178 0.041925 -0.093430 0.065856 0.048619 0.010400 0.121117 -0.065761 0.034705 0.123938 0.049493 0.032263 0.061392 0.076609 -0.042582 0.029918 0.052032 0.077250 0.001415 0.080818 0.025382 0.088352 0.068197 0.083211 0.012919 0.021875 -0.033661 0.019314 -0.004834 0.068113 0.078170 -0.001773
illinois 0.015463 0.051417 0.023244 0.010439 -0.111979 -0.035880 -0.012982 0.017752 0.148483 0.039355 0.116475 0.044773 0.096814 0.051361 -0.063180 -0.007432 -0.043767 -0.046184 -0.096508 -0.002715 -0.067097 0.033910 -0.030580 0.013221 0.016996 -0.054831 -0.005925 -0.014785 0.064089 0.017553 -0.001235 -0.010997 -0.075642 0.000954 -0.019440 0.033554 0.092014 -0.090528 -0.045785 -0.011510 0.013000 0.064994 0.030112 0.017093 -0.031218 -0.130322 -0.005254 -0.028092 -0.030456 -0.049401 -0.073649 -0.065812 0.022196 0.151505 -0.052477 0.060401 0.012984 -0.008316 0.135010 0.161686 -0.077806 0.079900 0.023167 0.062667 0.054569 0.039264 -0.049839 0.039971 0.005483 0.004376 0.130785 -0.141009 0.002700 -0.034007 -0.048936 0.002359 -0.120270 0.061769 -0.042009 -0.097835 0.132893 0.086883 0.068397 -0.044001 0.083424 -0.022599 -0.086815 -0.006786 -0.033896 -0.126686 -0.050517 0.064002 -0.070973 -0.086423 -0.116342 0.074317 -0.056910 0.073386 0.026582 0.028813 -0.051209 -0.017811 -0.056257 -0.080087 0.001582 0.048898 -0.072007 0.100099 -0.007090 -0.027350 -0.049755 -0.015301 0.015675 -0.037619 0.011602 -0.079579 0.052109 -0.076755 -0.043638 0.092812 0.010417 -0.139543 0.035794 -0.010283 0.008539 -0.127375 0.057155 -0.088468 0.110564 -0.033116 -0.020558 0.026791 0.020997 -0.038897 -0.155387 -0.108125 0.004794 0.090661 0.095984 0.013736 0.070823 -0.091741 -0.044203 -0.000793 0.035549 0.095906 0.014809 0.048871 0.129219 0.075927 -0.033508 0.039992 0.033611 0.022058 0.052082 0.033689 0.097452 -0.110262 -0.017072 0.030301 0.005169 -0.040360 0.010107 0.005632 -0.030333 -0.004038 0.012808 0.012393 0.038292 -0.117248 -0.004266 0.099704 0.103677 -0.055085 -0.025903 -0.049137 0.034519 -0.096217 -0.030005 -0.009879 0.002951 -0.043132 -0.011603 0.022559 0.049747 0.060160 -0.087262 0.087177 0.136131 0.027619 0.008754 -0.034435 -0.086092 0.111016 0.022758 0.111576 -0.012542 0.027971 -0.095427 -0.070359
moving 0.162810 0.006381 -0.049065 0.031406 -0.042217 0.042358 0.074202 0.132131 -0.041663 0.043896 -0.102671 0.009468 -0.000892 0.043563 -0.000121 0.002042 -0.045438 0.110707 -0.039393 0.066633 0.158351 0.075827 0.040026 -0.020167 -0.032852 -0.067035 0.078499 0.088740 -0.074259 0.014801 0.032987 -0.027611 0.032125 -0.023690 -0.020247 -0.091513 0.048017 0.052678 0.114984 0.023773 -0.015057 0.041700 0.076423 -0.013293 0.101430 -0.124878 -0.016818 0.021963 0.055059 -0.080317 0.098580 -0.069658 0.031882 -0.042886 -0.075606 -0.017621 0.033667 0.023923 0.130908 -0.013794 0.002637 -0.114900 -0.019260 0.076970 -0.078771 0.110503 0.039222 0.117554 0.015153 -0.028497 -0.046800 -0.002005 0.138892 -0.005034 -0.018845 0.121091 0.014218 0.001807 -0.018114 0.038080 -0.073050 0.005397 0.025290 -0.040960 0.024009 0.000730 0.032351 0.043785 0.007447 0.208866 0.068881 0.006825 -0.069388 0.092855 0.054558 0.121581 0.215714 -0.041805 0.077367 0.089332 -0.022458 -0.052795 0.075931 0.078701 -0.025873 0.120604 -0.080900 -0.072511 0.025749 0.037332 -0.051420 -0.070062 -0.135519 -0.016158 -0.049415 0.024299 0.034833 -0.001902 0.039489 -0.077721 -0.009558 0.038056 0.026173 -0.115975 0.089827 0.009400 -0.109129 -0.168384 0.011968 -0.011240 -0.079482 0.008011 -0.013518 0.067674 0.012371 0.027582 -0.073353 -0.028807 0.054047 0.006543 0.025492 0.028258 -0.052834 0.097955 -0.020931 0.057622 -0.084534 -0.034080 -0.012069 -0.026233 -0.072025 -0.083328 -0.088621 0.026809 -0.104289 -0.050172 0.039125 -0.052247 -0.112873 -0.045306 0.042412 -0.050638 0.085579 -0.078077 0.001222 0.076949 -0.020998 0.006773 -0.089904 0.052347 -0.051586 -0.040124 0.136489 0.092990 -0.176630 -0.003002 -0.005865 0.011459 0.083036 0.030116 -0.000595 -0.029231 0.057298 -0.036548 0.016953 -0.092438 0.068119 -0.153977 -0.073470 0.175733 0.008638 0.060895 -0.085757 0.033639 -0.007936 0.116174 -0.059569 -0.075705 0.022524 0.012849
loud -0.051360 -0.062436 0.051667 -0.020065 0.107838 0.045556 -0.027391 0.147901 0.088728 0.057695 0.004616 0.075323 0.021106 0.010276 0.005438 -0.059768 0.032891 -0.016363 -0.116905 -0.020259 0.076259 -0.022707 0.027896 -0.035365 0.001924 0.076918 -0.073468 0.040099 -0.001577 -0.014682 0.051757 0.023224 0.139660 0.007484 -0.085266 0.083206 0.153217 0.048957 -0.121642 -0.062767 0.060435 0.034153 0.022143 0.022670 -0.126539 -0.005466 -0.130004 0.053715 0.038255 -0.112556 -0.033493 0.024076 -0.079553 -0.050097 -0.043145 -0.004881 0.048368 0.024197 0.090038 0.126603 0.022630 -0.078736 0.017276 0.000091 0.034896 -0.087133 0.025610 0.026224 -0.005308 -0.053290 0.003380 0.074601 0.018743 -0.131007 0.047216 0.018732 -0.017078 -0.015710 -0.003464 0.059925 0.028865 0.061348 0.004633 -0.033738 -0.131427 0.092721 0.068677 -0.013758 0.064968 0.031593 0.094151 -0.104481 0.067756 0.025229 0.014969 0.011132 0.070774 -0.032401 -0.053828 -0.009369 0.017993 -0.015810 -0.036526 0.069437 0.089334 -0.035192 -0.036668 0.023096 0.002925 -0.009410 -0.064529 -0.040857 0.033790 0.061618 0.052974 -0.047318 0.038865 0.029004 -0.057435 -0.024226 -0.027266 -0.160943 0.018350 0.048955 -0.050695 0.023360 0.014437 -0.007325 0.014797 -0.016268 0.043853 -0.006051 0.018181 -0.027485 -0.034841 0.031946 -0.129625 0.122363 -0.049781 -0.008953 -0.097933 -0.090509 0.058953 -0.024881 0.029015 -0.038767 0.043969 -0.009281 -0.074969 0.021934 0.010083 0.039258 0.166041 0.005320 0.032738 0.046317 0.083896 -0.072509 -0.032291 0.086604 0.017685 -0.001466 -0.034320 0.103019 0.012466 -0.041324 -0.083319 -0.054276 -0.051716 -0.144292 -0.101181 0.021899 0.075579 -0.119066 -0.042132 -0.033712 -0.023854 0.112466 0.084136 0.005958 0.014745 -0.018770 0.061537 -0.000119 -0.069851 0.104744 0.001377 0.034417 -0.085457 -0.065354 0.063743 -0.055077 -0.095062 0.007161 -0.121672 0.076559 -0.103511 -0.050368 0.138858 0.002327
thai -0.090743 0.076860 -0.108751 0.044965 -0.077804 -0.103313 0.083346 0.060916 0.032961 0.053208 0.033405 -0.054345 -0.023838 0.026714 -0.050730 -0.059283 0.102865 -0.137787 0.042689 0.059164 -0.020065 0.050962 -0.038399 -0.096951 0.086525 -0.092412 0.043316 0.113342 -0.076200 -0.070855 0.042017 0.092159 0.073462 0.028746 -0.020420 0.016950 -0.051962 -0.004685 -0.010207 0.053968 -0.061167 -0.007363 0.041863 -0.054162 0.060415 -0.048810 -0.055851 0.037861 0.033257 -0.001777 -0.078847 -0.037118 -0.010129 0.032633 0.058466 -0.057706 0.076371 -0.032712 0.080742 0.000227 0.029707 -0.011020 -0.000692 0.045154 -0.053178 -0.056949 -0.147617 -0.023124 0.003711 -0.080391 0.045962 0.016001 0.043278 0.056409 -0.033378 -0.080321 -0.045419 0.072358 -0.150242 0.023719 -0.078367 -0.023772 -0.073815 -0.046159 -0.130596 0.020864 -0.032947 0.028852 0.057895 -0.087727 0.021987 -0.009411 -0.040479 -0.050111 -0.138221 -0.011283 0.014576 0.001471 0.071997 0.005151 -0.008349 -0.039031 -0.022326 -0.026666 0.110687 -0.015243 0.003956 0.084573 0.047054 0.040807 0.035589 -0.013257 0.029694 -0.034132 0.031141 0.060799 0.024491 -0.060612 -0.097437 -0.152937 0.083832 -0.038496 -0.035441 -0.031504 0.028760 -0.033971 -0.095434 -0.071073 -0.015417 0.074565 -0.046884 -0.048109 -0.068702 -0.031365 -0.025420 0.032850 0.038904 0.073137 0.045242 -0.014165 0.004416 0.039213 -0.012561 0.089328 -0.058044 0.111071 -0.033763 0.087361 0.089497 -0.002741 -0.002119 0.012266 0.003737 -0.009393 -0.021649 0.017335 0.073843 -0.057734 -0.070789 0.042163 0.005050 -0.144431 -0.018357 -0.185186 -0.071030 -0.029614 -0.042084 0.060310 -0.071321 -0.055211 0.002823 0.040449 0.039124 0.006832 0.022166 -0.039655 -0.047846 -0.101260 0.108803 0.104823 -0.081619 -0.014670 -0.052465 -0.039748 -0.119970 -0.019196 -0.000171 -0.002380 0.018404 0.169034 -0.032274 -0.061182 0.076882 0.103635 0.029883 0.047607 -0.016590 0.040687 0.000043 0.042297
croatian -0.080558 -0.078347 -0.179157 -0.012543 0.088536 -0.035588 -0.023833 -0.078338 -0.031118 -0.002426 -0.001295 -0.076206 -0.007985 -0.050736 -0.033070 -0.101119 -0.128729 -0.105345 -0.087222 0.120069 0.067607 -0.039154 0.049953 0.004751 -0.022716 -0.059581 -0.100496 -0.122413 0.006528 -0.134157 -0.080066 -0.046327 -0.045955 0.124691 -0.054823 0.050478 -0.043482 0.045701 0.055565 -0.082346 0.028547 -0.020342 0.137642 -0.067272 0.019066 -0.055567 -0.075380 0.088332 0.253687 -0.026700 0.106516 -0.103226 0.033293 -0.049795 -0.033264 0.010912 0.045596 -0.141848 0.133749 -0.006952 0.020738 0.043145 0.134415 0.078885 -0.096736 0.001809 0.056936 -0.000164 -0.105774 0.004220 0.092300 -0.005324 0.051709 0.016583 -0.020910 0.054443 0.017966 0.035055 -0.122256 0.028199 -0.016025 0.012182 0.029587 0.074011 0.009587 0.013216 -0.007096 0.101784 -0.049534 -0.047953 -0.059199 -0.073285 -0.051282 -0.029380 0.014421 -0.066722 -0.076356 0.038987 0.032509 0.047319 -0.062846 -0.065740 0.022242 -0.056285 -0.095262 0.068085 -0.012852 0.052618 0.066660 0.004520 0.100445 -0.044710 0.003414 0.040578 0.062433 0.078492 0.030264 -0.040637 0.063907 0.036961 -0.030390 -0.031659 -0.050006 0.010468 -0.021387 0.030863 0.030834 -0.185846 -0.060944 -0.135814 -0.061081 0.017805 -0.061808 -0.033407 0.010591 -0.093443 0.028212 -0.002118 0.092160 0.070730 0.067344 0.106095 -0.024473 0.060837 -0.034567 0.039740 -0.037093 -0.008154 -0.012737 -0.095773 -0.046159 0.062342 0.035031 0.107004 -0.018633 0.055971 0.138349 -0.084781 -0.025902 0.005899 -0.031437 -0.084325 0.148597 0.016389 0.118882 -0.013107 -0.005512 -0.018767 -0.023664 -0.045536 -0.007873 0.099327 -0.042859 0.020849 -0.059936 -0.147265 -0.053449 0.081780 -0.008331 0.002376 -0.075144 0.108435 -0.055600 -0.003657 0.058104 -0.013192 0.074953 0.034740 0.052959 -0.026551 -0.012279 -0.074505 0.051399 -0.005042 0.007856 0.058948 0.032088 -0.067996 0.039442 0.012141
argentina 0.044358 0.090937 0.035614 0.063491 0.098510 -0.036853 -0.044209 0.068091 0.071022 -0.032215 -0.019670 -0.027876 -0.099830 -0.094664 0.022325 -0.003283 -0.075651 -0.099782 0.114518 0.111512 -0.082039 0.011319 0.041401 0.012632 0.012782 -0.047388 -0.083149 -0.028360 -0.012143 0.056210 0.106990 -0.009917 -0.042221 0.071856 0.074209 0.004998 0.028154 0.077391 0.040532 -0.168792 0.113189 0.020030 -0.007197 -0.040743 0.141034 -0.080679 0.044034 0.032713 0.007274 0.028659 0.176190 -0.104726 -0.063685 0.062832 0.019980 0.003158 -0.036272 -0.010601 -0.016104 -0.007943 0.063613 -0.059996 0.007547 0.065253 -0.113847 -0.074694 0.141265 0.010850 0.013180 -0.104913 0.029073 -0.089535 0.061080 0.007641 0.023745 -0.052902 -0.066490 -0.014841 -0.021172 -0.073067 -0.007746 -0.122714 0.039539 0.012179 -0.043034 -0.110889 0.100187 0.050918 -0.068197 -0.044846 0.069184 0.083213 -0.065014 -0.002189 0.071682 -0.096481 0.006884 0.087835 -0.050271 0.013283 0.056301 -0.088196 0.038671 0.041535 0.148060 -0.004373 -0.027419 -0.025782 0.060460 0.105709 -0.043053 0.060893 0.005665 -0.058083 0.002529 0.080671 -0.079404 -0.075854 0.083873 -0.022931 -0.020860 0.054001 0.098015 -0.027168 -0.061620 -0.014510 -0.014056 -0.148509 0.020221 0.073070 0.056714 0.018457 -0.004777 0.076906 -0.030405 0.027167 0.073114 0.053745 -0.041456 0.037579 0.013023 0.022099 0.024489 -0.081093 0.050455 0.001774 0.046335 0.049408 0.042982 -0.013602 -0.018454 -0.052667 -0.107239 0.015447 -0.031253 0.156079 0.054206 -0.016226 -0.085299 -0.045707 0.091783 -0.048751 -0.063257 0.062282 0.130046 -0.007326 -0.039810 0.066245 0.010133 -0.055349 -0.016126 -0.014244 -0.111750 0.034311 0.028227 -0.026269 -0.083276 -0.058412 0.057113 0.092337 -0.000203 -0.074925 -0.055584 0.037719 -0.082451 -0.055852 0.024581 -0.050933 0.009173 0.048205 0.091681 0.058697 -0.010288 0.061847 -0.140566 0.007839 -0.002504 0.067402 0.026751 -0.028440
vietnam 0.122194 -0.005875 0.031503 -0.024447 -0.031866 0.054807 0.102248 0.060785 0.071052 0.090164 -0.041601 0.109448 -0.095033 0.050820 0.081027 0.024999 -0.032831 0.073594 -0.021060 -0.022897 0.122258 0.164103 0.015480 0.022678 -0.034862 0.019016 -0.064540 0.092357 -0.070124 0.016275 0.063750 -0.054611 0.029192 0.035064 0.042757 0.053821 0.062997 -0.012332 -0.009508 0.095144 0.053696 0.073566 0.055814 -0.065762 -0.120084 -0.022945 -0.012356 -0.029329 -0.014672 0.050535 0.107658 0.117698 0.000783 -0.210288 0.022240 -0.033453 0.040257 -0.013825 0.099184 -0.043987 -0.004630 -0.014009 -0.057827 0.073583 -0.028706 -0.079841 0.009807 -0.022632 -0.037417 -0.000038 0.011588 0.021775 0.030614 -0.095365 0.129192 -0.056731 -0.119747 -0.029054 0.063659 -0.122403 -0.020158 0.023360 0.006642 -0.130032 0.137032 -0.007220 0.056612 0.015204 0.006827 -0.066265 0.117094 0.020057 -0.033326 0.103504 0.009212 0.097466 -0.118231 0.040580 0.031572 -0.072420 0.043407 0.097580 0.020913 0.050929 -0.078831 -0.003230 0.050148 -0.059275 0.040554 0.096325 0.115340 -0.035286 0.073580 0.017245 0.004315 0.009267 0.051097 0.091346 -0.007108 0.026360 0.093470 -0.130482 0.052957 -0.003815 0.081246 -0.014397 0.038793 0.101086 0.156137 -0.067489 0.132278 0.025543 -0.068047 0.158998 -0.095583 -0.059327 -0.131832 0.000317 0.046992 -0.015324 -0.037655 -0.018171 0.038125 0.015025 -0.082749 -0.085785 -0.077942 0.045820 0.014304 0.161487 -0.110768 0.055855 0.043828 0.032838 -0.004537 0.027241 0.130522 0.003688 -0.084979 0.077280 -0.030420 0.019211 -0.077106 0.145811 0.091655 0.038690 0.072971 -0.041034 0.087482 -0.101152 0.023224 0.102135 -0.022110 -0.026079 -0.027890 0.004529 0.009247 0.032230 0.039344 0.105402 -0.108868 0.014982 0.096864 0.107312 0.065027 0.062570 0.001728 -0.106922 0.069428 -0.003450 -0.066938 -0.008578 -0.004907 -0.111930 0.079618 -0.004697 0.057920 0.031089 -0.011377 0.139400
norwegian -0.077101 -0.031676 -0.022656 0.078083 -0.038852 0.089676 0.155552 -0.165054 -0.012302 -0.018329 -0.014763 0.185273 -0.046714 -0.070244 -0.053043 0.135024 0.012597 0.107892 -0.002531 -0.041633 0.007221 0.112468 0.023751 -0.078363 0.004419 0.103424 0.104614 0.071425 0.004018 0.011537 0.102235 0.013822 0.027268 -0.007443 -0.054438 0.009329 -0.021767 -0.081406 0.097933 0.160947 0.040920 -0.105240 0.031141 -0.067556 -0.006773 0.074571 0.021072 0.004490 0.031919 0.160032 0.024394 0.037378 0.045809 -0.156040 0.067543 -0.024426 -0.017984 0.018148 0.069977 0.086302 -0.097529 0.019256 -0.075327 -0.054995 0.006431 0.010558 0.050687 -0.035134 -0.033292 0.022349 -0.084986 0.002173 0.085241 0.021077 -0.092553 0.054625 0.019219 0.040069 -0.061446 -0.024669 0.069825 -0.057967 -0.108026 0.083538 0.004544 -0.061178 -0.160110 0.108337 -0.024562 -0.095441 0.040876 -0.024056 0.011466 0.010997 0.068763 -0.007048 -0.109380 -0.041667 -0.023479 0.091142 0.031327 0.189525 0.138233 0.061650 0.165970 0.128750 0.142560 0.055098 -0.104828 0.011144 0.019238 -0.098955 -0.119437 -0.013904 -0.027585 0.044862 0.013903 -0.013207 -0.013018 -0.021487 0.036978 0.101750 0.109423 -0.011919 -0.096678 0.082262 -0.052031 0.090699 -0.074355 -0.053399 0.051144 0.004959 -0.021172 -0.025715 0.079832 0.002582 -0.010614 -0.014889 0.056283 0.047463 -0.040617 0.057776 -0.056150 -0.017011 0.008207 0.030648 -0.039713 -0.051537 -0.097613 0.067727 -0.029744 0.046280 0.000732 -0.041339 -0.034041 0.012437 -0.083082 0.043721 -0.159770 0.050325 -0.087477 -0.066279 0.080122 -0.037159 0.046127 0.004153 -0.133605 -0.030571 0.073781 0.098892 -0.033809 0.122587 0.066100 0.004928 0.058747 0.018770 0.044011 -0.125214 0.084485 -0.007565 -0.008211 0.104092 0.033145 -0.025771 -0.052979 -0.104667 0.044795 0.009678 -0.057676 0.094666 0.042106 -0.017284 -0.014621 -0.024758 0.097768 0.029420 -0.073239 0.013585 -0.092150 0.009662
professionally -0.031815 0.068548 -0.014421 0.001229 -0.061407 0.079299 0.150282 0.024440 -0.004759 0.054803 0.028620 0.005242 -0.081208 0.075732 -0.086731 0.055729 -0.008329 -0.064267 -0.063558 0.036050 0.018151 0.070488 0.016496 -0.123038 -0.025084 0.008019 0.049452 -0.004059 0.076579 -0.036256 -0.014447 0.093953 0.002459 -0.051444 -0.156694 -0.029080 0.042475 0.041563 -0.095047 -0.067976 -0.033723 -0.120120 -0.086113 0.003673 0.057188 -0.016736 -0.070335 0.000674 -0.061384 0.008014 -0.148670 -0.057776 0.025109 0.100190 0.062688 0.052965 -0.109415 -0.053316 -0.021674 0.119602 -0.007326 0.001432 0.128533 -0.039042 -0.022665 -0.007711 0.080024 0.051733 0.042353 -0.025986 0.057782 0.056624 0.073251 -0.011489 -0.136514 0.018878 -0.071183 0.087213 -0.068704 -0.050271 0.083047 0.085503 0.066433 0.073736 -0.018248 -0.124899 0.012209 0.025515 0.022630 -0.134970 0.049413 -0.016005 0.029570 -0.018861 0.005512 0.073702 -0.039982 0.076211 0.035488 -0.070208 0.035218 0.075601 -0.005676 -0.103280 0.080408 -0.035053 -0.040288 -0.046911 -0.002815 0.109054 0.005218 0.049224 0.106699 0.063061 -0.027046 0.048971 -0.008705 -0.038093 0.081655 -0.099388 -0.174530 -0.038457 -0.042676 0.088427 -0.072172 0.052965 -0.011609 -0.022923 -0.044938 -0.057444 0.035032 -0.048475 -0.049715 -0.039652 0.009327 -0.004991 -0.144138 0.082873 0.009037 0.087605 -0.107826 -0.062032 0.062978 -0.068926 0.025509 -0.092824 0.041319 0.013982 -0.030709 -0.000329 0.036087 -0.030124 -0.030783 0.069666 -0.000277 -0.053877 0.074613 -0.021989 0.018715 -0.060075 -0.018067 -0.014365 -0.001443 -0.029597 0.077685 -0.084658 -0.005560 -0.000613 0.001745 -0.053141 0.079354 0.084776 0.073268 -0.074330 0.154912 -0.000863 0.010927 0.014076 -0.038972 -0.065050 0.039966 0.089534 0.018888 -0.029930 -0.023276 -0.089459 -0.004888 0.064706 0.010595 0.059923 -0.090476 -0.169127 0.040745 -0.039698 0.027742 0.006455 -0.025596 -0.033176 0.065242 -0.037358
argentinean 0.026911 0.126714 -0.021485 0.051939 -0.016843 -0.053859 -0.012682 0.152074 0.020929 0.066348 0.008876 0.043298 -0.087050 -0.032702 0.040363 -0.015208 -0.153765 -0.066046 -0.010030 0.066176 -0.049558 0.024857 -0.012367 -0.003618 0.131524 0.013916 -0.014246 0.030216 -0.125655 -0.006583 0.068761 -0.028654 -0.027846 0.071669 0.066315 0.036733 0.083337 0.043299 0.045611 -0.103870 0.028922 0.047459 -0.039694 -0.126267 0.060319 -0.013769 -0.071019 -0.074830 0.017480 0.066450 0.038878 -0.155171 -0.072853 0.057301 -0.054378 0.016299 0.013674 -0.059885 0.032944 0.041388 0.096650 -0.085925 0.006290 0.075540 -0.019119 -0.066266 0.000183 0.073623 0.085002 -0.163578 0.065458 -0.152912 0.063299 0.006944 0.135255 -0.117950 0.000041 0.026410 0.048330 0.077046 -0.099556 -0.006717 0.048445 0.024748 -0.101703 -0.020726 0.148035 0.029327 -0.070884 0.064060 0.046194 0.070552 0.023916 -0.009671 0.039657 -0.032736 0.098185 0.030285 0.047389 -0.033423 0.049673 -0.074893 0.027185 -0.024492 0.132870 0.009709 -0.096509 -0.002796 -0.034020 0.014216 0.015694 -0.002180 -0.028516 -0.160293 0.048223 0.009816 0.042181 -0.085656 0.002862 0.045391 0.021103 -0.010721 0.116273 0.061418 -0.002172 -0.018656 0.002101 -0.101402 -0.002892 0.105935 0.057391 0.000617 0.042665 -0.089248 -0.028881 0.085720 0.082017 -0.011596 0.013649 -0.032519 -0.001537 -0.026284 0.025124 0.044140 0.056326 0.064590 0.011411 -0.006313 0.002899 0.060133 0.013573 -0.056142 -0.137498 0.078563 -0.016998 0.041166 0.041517 -0.015540 -0.005374 -0.004057 0.076839 0.007566 -0.157167 0.060151 0.031322 0.049824 -0.006844 0.040461 -0.066455 -0.055411 -0.013188 0.098488 -0.023679 0.110728 0.109457 0.049344 -0.020161 -0.113640 0.144027 0.182861 0.067227 -0.025822 0.024043 0.071991 -0.074642 0.046770 0.004854 -0.111411 0.049596 0.006877 0.106284 -0.011330 0.011205 -0.109450 -0.060707 0.050499 -0.039268 0.083860 0.095438 0.006778
louder -0.029203 0.000259 0.071709 0.074197 0.048576 0.129434 0.101499 0.069880 0.094274 0.023503 0.052959 -0.011246 0.083580 -0.028842 -0.048158 -0.012012 -0.035745 -0.034956 -0.073933 -0.013873 0.027916 0.028197 -0.010400 0.050022 -0.125593 0.172502 -0.047481 -0.050900 0.005750 0.025309 0.163045 0.063287 0.150856 0.063871 -0.040157 -0.039436 0.118694 0.020742 -0.080964 -0.017601 0.030690 0.040658 -0.058402 -0.015090 -0.042551 -0.042492 -0.130398 0.017751 -0.005115 -0.035395 0.012823 0.060749 -0.013567 -0.077381 0.011899 0.064443 0.090197 0.047412 0.016433 -0.046678 0.065544 -0.057360 0.076614 0.064249 0.009131 -0.101499 0.052265 0.041083 0.081831 -0.077274 0.078065 0.075725 0.017531 -0.115757 0.096069 0.006683 -0.059353 -0.019094 0.067803 0.043363 -0.072362 -0.017131 0.024567 -0.020451 -0.075660 0.007932 0.150466 -0.107589 0.061469 -0.029131 0.098059 -0.098382 0.073093 0.005080 -0.115908 0.000191 0.000338 0.014479 -0.059688 0.039546 0.047532 -0.004950 -0.159321 -0.028172 0.118978 -0.030127 0.043064 0.036067 0.074882 0.093015 -0.040655 0.033747 0.051001 -0.034953 -0.068958 0.033268 -0.000310 0.032096 -0.063602 0.027844 0.015705 -0.092245 0.077638 0.096698 0.123082 -0.024849 0.009088 0.003143 0.066082 -0.039706 0.092556 0.025570 0.049172 -0.040747 -0.008569 0.033516 -0.141453 0.052482 -0.042549 0.020413 0.052267 -0.164940 0.109664 0.020269 -0.006375 -0.012972 -0.000405 -0.074315 0.027275 -0.083541 0.005272 0.042880 0.093437 -0.009332 0.034851 0.082241 -0.014233 -0.084777 0.012251 0.103352 0.011586 0.067756 -0.097477 0.118906 -0.026598 0.010423 0.005213 0.099370 0.034600 -0.003472 -0.002770 0.122947 0.097756 -0.055630 0.014563 -0.010365 -0.097728 0.006180 0.042402 0.007659 -0.085734 -0.028148 -0.025976 0.045194 -0.073769 0.124413 0.036238 -0.040684 0.089783 -0.066604 -0.020193 0.007421 -0.120697 0.049602 -0.010272 0.107982 -0.074453 0.055628 0.153028 -0.027681
chicago 0.062468 0.037083 0.044420 0.077195 0.015053 0.181557 -0.019500 0.009031 0.074102 0.007957 -0.021716 0.043395 0.008363 -0.032537 -0.061445 0.015068 -0.048422 -0.072499 -0.098094 -0.033162 -0.026271 0.076225 0.034043 0.031221 0.096344 0.043079 -0.105807 0.034782 0.028209 -0.000911 -0.023755 0.066601 -0.025654 0.115287 -0.081992 -0.059126 0.043993 -0.008754 -0.053949 -0.030356 -0.079892 0.057467 -0.185190 -0.050592 -0.003029 -0.136526 0.097969 -0.040167 -0.079821 -0.037491 -0.064003 -0.120396 0.032385 0.142868 0.047138 0.141954 0.152427 -0.013297 0.008608 0.012545 -0.129406 -0.091750 0.063775 -0.096872 0.108775 -0.031996 -0.059226 0.019613 -0.029436 -0.060514 0.047045 -0.032234 0.010455 0.014049 0.006910 0.078465 -0.054430 0.165604 -0.053753 -0.088630 0.052510 -0.050051 -0.011445 -0.007320 0.101567 -0.014168 -0.044488 0.005833 0.009562 -0.135262 0.067089 0.052776 -0.069620 -0.064126 -0.050671 -0.061940 0.009192 0.020716 -0.029513 0.000035 -0.085513 0.070074 0.004177 0.071242 -0.027905 0.020322 -0.037861 0.109064 0.070652 0.053961 0.018234 0.009822 -0.041323 -0.072869 0.052099 -0.077134 -0.021801 -0.075388 -0.177810 -0.129621 -0.001193 -0.109369 0.109085 0.026553 -0.017470 -0.201961 0.039685 -0.031966 0.131766 0.119746 0.042967 0.014757 0.025498 -0.042081 -0.095356 -0.041801 0.069797 0.012552 0.078789 0.086696 0.068388 -0.092572 0.019568 -0.105145 0.031981 0.031292 -0.012490 0.056214 0.066734 -0.053920 -0.025235 0.012292 0.048234 0.007838 0.095592 0.000139 0.038354 -0.216182 0.032572 0.158459 -0.071872 0.062616 0.146331 0.061623 -0.008044 0.050487 -0.020009 -0.030265 -0.000216 -0.120747 0.023705 0.060945 0.001159 -0.025934 -0.060906 -0.029406 -0.080056 0.068096 -0.035674 -0.099613 -0.110955 0.057515 0.004690 0.077714 0.011803 -0.081960 -0.046397 -0.011256 0.008800 -0.045634 -0.042657 0.055275 0.008336 0.189012 -0.057102 0.072184 -0.077555 -0.067217 -0.089222 -0.081356
move -0.033129 -0.025706 -0.084093 -0.064147 -0.039440 -0.031889 0.084501 0.102808 -0.055428 0.016387 0.029668 0.010829 0.011893 0.033633 -0.045612 -0.020677 -0.066060 0.022082 -0.059197 0.000647 0.050898 0.012814 0.081950 -0.056682 -0.048674 -0.099125 -0.033137 0.029840 0.027051 0.013641 0.036402 -0.013014 0.125134 0.038317 -0.026359 -0.048928 0.025674 -0.015701 0.123664 0.029596 0.028485 -0.044852 0.093867 -0.024536 0.022224 -0.049222 0.069008 0.031261 0.028882 -0.040237 0.014066 -0.036536 0.026111 -0.024824 0.039852 0.025844 0.031639 -0.123740 0.062552 0.062775 -0.039028 -0.100146 -0.030055 0.008168 -0.119790 0.018271 -0.096982 0.081212 0.017765 -0.055191 -0.001396 -0.002842 0.074227 -0.011092 -0.017828 0.099049 0.044269 -0.020670 -0.035588 0.067112 0.055218 -0.069948 0.051174 0.064210 -0.019935 0.013519 0.058696 0.049788 -0.028116 0.000071 -0.042992 -0.020666 -0.023962 0.086840 0.043321 0.044717 0.067554 0.039331 0.034121 0.073934 0.004088 0.001272 0.094358 0.062390 -0.021069 0.054267 -0.056353 -0.054548 0.070356 0.053750 -0.007530 0.064367 0.029899 -0.038418 -0.027308 0.009376 0.087463 -0.011893 0.038747 -0.055434 -0.050423 -0.011523 -0.056604 0.057859 0.005137 -0.018456 -0.019781 -0.128002 0.005186 -0.084569 0.053452 0.076211 -0.056501 0.113795 0.022928 0.101389 -0.177940 -0.015865 0.033302 0.045713 0.064305 0.073117 -0.069294 0.064119 -0.052443 -0.079714 0.049716 0.034536 0.080737 0.005785 -0.071493 -0.070359 -0.007855 -0.029491 -0.043008 -0.035411 0.022258 -0.055131 -0.113767 0.007808 -0.041893 -0.001214 0.094300 0.007479 0.017496 0.024735 -0.046464 -0.025672 -0.095522 -0.007521 -0.053203 0.076703 0.098013 0.070826 -0.027143 0.002768 -0.053623 -0.024191 0.008773 0.040633 0.019720 0.036809 0.033381 -0.064943 -0.080550 -0.114961 0.099711 -0.088796 0.020282 0.108764 -0.118676 0.086963 -0.063434 -0.023590 -0.031319 0.074335 -0.014759 -0.041894 0.084467 0.043723
thailand -0.085747 0.014783 -0.041414 0.052915 -0.123498 0.061037 0.052329 0.034270 0.019561 0.080049 -0.039115 0.014510 0.015909 -0.046011 -0.009567 -0.049921 0.014101 -0.046589 0.014323 -0.093077 -0.024023 -0.011648 0.061356 -0.028057 0.072335 -0.033623 -0.001550 0.034990 -0.081079 -0.097780 0.049359 -0.021960 0.087502 0.125796 -0.035467 0.011037 0.041176 0.013504 -0.007050 0.023861 -0.006490 -0.060575 0.090877 -0.100157 0.046754 -0.112040 -0.064009 0.080205 0.131510 0.003194 -0.078841 -0.071345 0.020429 0.033947 0.100807 -0.110528 0.039918 0.029331 0.137004 -0.045610 0.033307 0.045298 -0.015821 0.046090 -0.043088 -0.031329 -0.128655 -0.041819 0.113384 -0.088247 -0.006940 -0.016572 0.045440 0.078472 0.086477 -0.055998 0.047074 -0.035189 -0.118021 0.054100 -0.068107 -0.033206 -0.030929 -0.000107 0.002769 0.035390 0.023123 0.014589 -0.133287 -0.138724 -0.096338 0.038680 -0.055691 -0.092210 -0.157245 0.051471 0.066179 -0.023441 0.058882 -0.002220 0.021819 0.000625 -0.029782 0.031216 0.105032 -0.025083 0.002959 0.096134 -0.002706 0.028573 0.018146 -0.060244 0.073700 -0.034519 0.007714 -0.007376 -0.055849 -0.026543 -0.055446 0.049611 0.036715 -0.017474 -0.023174 0.059163 0.031115 -0.064788 -0.054547 0.024631 -0.089308 -0.015742 -0.028231 -0.040758 -0.029278 -0.074921 0.044825 0.049724 -0.014087 -0.022875 0.090443 0.027660 0.049754 0.090617 0.039897 0.043815 -0.015493 0.093004 0.030702 -0.010716 0.064968 -0.006905 0.011492 -0.014769 0.068263 0.027401 0.093235 -0.092898 -0.004282 -0.003319 -0.066006 0.046514 -0.032311 -0.221620 -0.049314 -0.093266 -0.049979 0.003700 -0.100587 -0.006107 -0.029560 -0.031580 0.077207 0.035159 0.026427 0.102953 -0.039973 0.031101 0.050536 -0.163341 0.188108 0.038814 -0.076522 0.113688 -0.013460 0.103205 0.009851 -0.078971 -0.014942 -0.092800 0.160449 0.115736 0.000431 -0.023525 0.034655 0.039874 0.024297 0.041436 -0.070561 0.060587 -0.044911 0.041474
ukraine 0.002362 -0.051189 0.062359 0.046632 0.100114 0.179030 0.090182 0.173682 0.008738 0.052379 -0.066538 0.155395 -0.095466 -0.104126 -0.053018 -0.042635 -0.024492 0.112655 -0.086460 -0.013979 0.086220 0.011690 0.041561 0.065549 -0.058031 0.078909 0.055824 -0.113222 0.042873 -0.021048 0.071200 -0.035942 -0.042971 0.062730 -0.129763 -0.011096 0.115763 0.077993 0.035080 0.014620 -0.027029 -0.097922 -0.032542 -0.035506 0.033437 0.025006 -0.020562 0.054282 -0.146862 0.053498 0.086695 0.073001 0.052757 0.104035 0.079003 0.002182 -0.093519 -0.047384 -0.013137 -0.045749 -0.034929 0.006342 -0.073664 -0.041324 0.025689 -0.011591 0.041245 -0.040178 0.097458 -0.095528 0.105008 0.103551 0.007244 0.000308 0.055446 0.018918 0.162679 0.079480 0.068829 -0.037009 -0.017730 -0.008887 -0.038416 -0.058267 -0.029018 -0.083544 0.082625 -0.032614 -0.054598 0.059519 0.012958 -0.028140 0.053324 -0.140337 -0.077777 -0.058821 -0.115593 -0.064765 -0.030573 0.108314 0.053442 0.011772 0.011469 -0.055033 0.027005 0.091425 0.064189 -0.022565 -0.033154 -0.014584 -0.039401 0.001293 0.047740 0.044041 0.015112 0.105703 0.063769 0.045796 0.071442 0.049267 0.018058 -0.055086 -0.035583 0.043526 0.160662 -0.039545 0.065541 0.078960 0.070235 0.012824 0.058751 -0.049021 -0.021852 -0.037458 -0.047674 0.069918 -0.016324 -0.005011 0.041107 0.087788 -0.036849 0.039779 0.117990 0.052656 -0.009949 -0.101052 0.077540 0.014731 -0.005446 0.092811 0.063465 0.067653 -0.060943 -0.141636 0.081541 0.049244 -0.054439 0.085516 -0.073931 -0.038445 0.042164 0.019161 0.011371 0.079784 -0.020340 -0.113582 -0.014197 0.121816 -0.066178 0.135593 0.047006 0.017689 -0.004485 0.166889 -0.026358 -0.089627 0.115858 -0.104885 0.007081 0.023695 -0.045359 0.008404 -0.004582 -0.061549 0.003675 -0.043204 -0.020431 -0.035151 0.009293 0.040734 0.003023 0.013708 -0.108065 -0.057685 -0.012422 0.001410 0.014267 -0.022164 0.055377 0.056399
plano -0.006981 0.059386 0.020420 0.099252 0.060733 0.031502 -0.115129 0.122602 0.039954 0.021078 -0.002599 0.028856 0.102878 -0.037663 -0.057507 0.107598 -0.106117 -0.041707 -0.118177 0.080201 -0.006302 0.048644 -0.099859 -0.006512 -0.010371 0.061488 -0.085617 -0.000423 0.101597 0.026411 -0.022148 0.062011 0.019319 0.002688 -0.026177 0.113819 0.025635 0.031962 -0.022392 0.091903 0.030961 0.033417 -0.134743 0.052166 0.059202 -0.068878 0.039920 0.038685 -0.040471 -0.026622 0.056272 -0.037476 0.048612 -0.025175 -0.073830 -0.031963 -0.029097 -0.123276 0.041758 0.102083 0.053419 0.030252 -0.003124 -0.008086 0.045558 -0.074972 0.004521 -0.137223 -0.020269 -0.079769 -0.037675 0.056270 0.109319 0.023595 0.060265 -0.051977 -0.065769 0.115790 -0.116336 0.086649 -0.019511 -0.056973 0.035813 -0.007186 0.064112 -0.046482 -0.016549 0.087852 -0.001389 -0.007976 -0.024825 -0.060034 -0.024058 0.012424 0.057236 0.095851 -0.059535 0.048756 0.072195 0.048399 -0.138282 0.179578 -0.071632 0.039346 0.014557 0.014588 -0.071047 0.026435 -0.063251 -0.011984 -0.061924 0.035733 -0.127307 -0.068513 -0.001323 -0.032371 -0.057697 -0.019625 0.045596 0.014504 -0.046319 0.055168 0.082525 -0.066109 -0.092335 0.078962 0.054483 -0.055882 0.003089 -0.026553 -0.010289 -0.118376 0.045734 -0.047660 0.061534 0.009805 0.033250 0.164353 -0.143915 -0.067415 0.026021 -0.037127 0.225846 -0.033730 0.048729 0.087483 0.014098 -0.059442 -0.025688 0.052703 0.057441 0.076111 0.063353 -0.168419 -0.007309 0.028722 0.010209 -0.084378 0.048444 0.085314 0.010659 0.074527 -0.013778 0.070349 0.035972 -0.046259 -0.009475 -0.135852 0.012486 -0.023716 -0.020333 -0.052834 -0.019691 0.049946 0.008255 -0.048561 -0.109278 -0.068829 0.113012 -0.061139 -0.023742 0.056917 -0.037521 -0.054185 -0.048512 -0.036505 -0.031280 -0.052417 -0.017186 0.054146 0.073613 -0.058195 -0.072478 -0.031854 -0.053122 0.055242 -0.059414 -0.122415 -0.069169 -0.028144
texas 0.067611 -0.021431 0.005105 0.033741 0.029051 -0.083383 0.050864 -0.022592 0.099766 0.002778 -0.018869 0.026512 0.140699 -0.072669 -0.045635 0.078690 -0.058271 -0.078353 -0.102978 0.163617 0.046624 -0.067711 -0.085625 -0.004270 0.019167 -0.037091 -0.019395 -0.027999 0.121696 0.054507 -0.000853 -0.004451 0.047511 0.162017 0.030536 0.153711 -0.075215 0.032263 0.014215 0.035839 -0.011554 -0.012557 -0.056248 -0.012149 0.050485 -0.115863 0.033537 0.043288 -0.080666 -0.064339 0.082425 0.001067 -0.011001 -0.014869 -0.115252 0.031638 0.086705 -0.092111 0.067219 0.077663 0.078887 0.049679 0.011972 -0.053656 -0.065431 -0.134456 0.022265 -0.072988 -0.017963 0.029018 -0.034460 0.043072 0.093968 -0.061884 -0.018197 0.040829 -0.120144 0.062702 -0.105008 0.019323 0.040462 -0.053419 0.042309 0.021612 0.039496 -0.046194 0.109554 0.058569 -0.073051 0.003816 -0.045876 -0.060232 -0.068098 -0.003085 -0.003045 0.054515 -0.100235 -0.082647 0.010060 0.093989 -0.101430 0.023475 0.017702 -0.081746 -0.026995 -0.111097 0.024486 -0.030261 -0.111834 0.039436 -0.077559 0.002747 -0.111155 -0.038305 -0.031455 -0.084553 -0.040586 0.065181 -0.010184 0.026576 -0.044159 -0.010980 0.051250 -0.025718 -0.105101 0.078441 0.067753 -0.172135 -0.087273 -0.007367 -0.008991 -0.039887 -0.036287 -0.062780 0.039031 -0.081112 0.080326 0.142945 0.095068 0.007291 0.099540 -0.009518 0.123800 -0.069163 0.023042 0.087954 0.025390 0.056509 -0.004527 -0.000575 0.014164 0.086743 0.135384 -0.059691 -0.011751 -0.000025 -0.036713 0.035345 -0.077380 -0.024408 0.137879 0.053109 0.034083 0.044961 0.072393 -0.075055 -0.026430 -0.033616 -0.072592 0.010785 -0.114672 -0.042113 0.012278 0.126357 0.034217 0.003173 -0.132446 -0.136184 -0.051067 -0.045029 0.001302 -0.092550 0.012971 -0.084896 -0.035437 0.023317 -0.066874 0.103831 0.000256 0.102815 0.117586 -0.004970 0.001671 -0.045760 0.005337 0.046417 -0.098021 -0.060886 -0.005518 -0.000119
tough 0.071217 0.021476 0.024965 0.059477 -0.068778 -0.002889 0.146026 -0.027983 -0.004414 -0.008428 -0.078477 0.095884 -0.083847 -0.039145 -0.099416 0.043929 0.098880 0.030366 0.036770 0.053012 -0.054674 0.029539 0.098690 -0.048144 -0.058096 -0.020900 0.028329 0.091245 0.048093 -0.086503 -0.016237 0.050731 0.126458 0.042701 -0.016785 0.127963 0.058229 0.072547 -0.016659 0.053792 0.051068 -0.037209 -0.039665 -0.068242 -0.012909 0.018271 -0.076321 -0.162994 0.000461 0.090077 0.048726 0.054916 0.017364 -0.012229 -0.032392 0.017579 -0.056226 0.040359 -0.072435 0.040141 -0.052001 -0.011632 0.204199 0.005731 0.107156 -0.072696 0.120338 -0.032681 -0.084617 0.009625 -0.078114 0.037241 -0.089700 0.155766 0.040927 -0.059346 -0.022950 0.073682 -0.051659 -0.045215 -0.015906 -0.004301 -0.050960 -0.009860 0.006205 -0.045169 0.006067 -0.053843 -0.036121 -0.026165 0.071974 -0.011622 0.005299 -0.164655 -0.097530 0.104786 -0.078213 -0.088177 0.083692 -0.076937 -0.042010 0.044806 0.063329 0.008615 0.095673 0.081894 -0.047123 -0.023463 -0.026351 0.056466 0.061878 0.052331 0.026117 -0.005459 0.036113 0.091608 0.069444 -0.037493 0.018392 0.034329 0.063000 -0.016505 -0.001367 -0.011105 0.077637 0.002224 -0.028147 -0.038185 0.082951 0.035419 -0.046824 0.017812 -0.082751 0.032707 -0.034071 -0.109097 0.153078 -0.058346 -0.033369 -0.103230 -0.077898 -0.053369 -0.074894 -0.076989 -0.048988 0.033602 -0.010232 -0.068437 0.016360 -0.036319 -0.000921 0.117280 -0.020149 0.173442 -0.008510 0.080516 0.070346 0.010632 -0.053105 0.064023 0.005206 -0.001721 0.082901 0.083137 0.057448 -0.009829 -0.005417 0.155584 0.032286 0.087133 0.157757 0.018067 -0.038645 -0.044515 0.014022 -0.008562 0.007780 0.033111 0.025665 -0.049046 -0.032161 0.030946 0.018901 -0.079123 0.045859 0.008582 0.057347 0.004126 -0.051716 0.074153 0.025102 -0.042983 0.042166 -0.050659 0.026561 -0.108308 -0.147645 0.051666 0.064752 0.053982
flying -0.033831 0.019233 0.100887 -0.112305 0.047419 0.006967 0.047066 0.040516 -0.078785 0.180110 -0.093629 -0.026402 -0.007758 0.128978 -0.046918 -0.016508 -0.015048 0.025271 0.022987 -0.033126 -0.061145 0.110496 0.024419 0.015902 -0.057884 -0.123133 -0.093215 0.037578 0.159874 -0.000071 0.075653 0.046856 0.039178 0.047401 -0.116023 -0.008400 -0.048190 0.021382 -0.128266 -0.113139 -0.068812 0.028684 -0.004232 -0.028131 0.008616 -0.150088 0.069648 -0.021331 0.046321 -0.078479 -0.012616 -0.026625 -0.067521 0.041030 -0.152606 -0.067151 0.005364 -0.078446 0.052913 -0.098685 0.004610 0.061986 -0.056642 -0.017040 -0.079541 0.038866 0.051373 -0.028088 0.012368 -0.005398 0.020072 0.057597 -0.063561 -0.075095 0.022196 -0.174795 0.028090 -0.029889 -0.106591 -0.031025 -0.069978 0.014544 0.036573 -0.114534 0.048297 -0.045192 -0.038354 -0.009465 -0.080142 0.003789 0.044683 -0.105629 -0.100876 -0.029207 -0.112895 0.016079 0.141083 0.047567 -0.057172 0.056266 -0.053016 -0.018985 0.064618 -0.066421 0.002198 0.023319 0.086980 -0.000401 -0.018958 0.049221 0.034552 -0.029989 0.020496 0.001611 -0.079095 -0.057771 -0.024242 0.044109 0.048062 0.031848 -0.052113 -0.001901 -0.066862 -0.076510 -0.043964 0.053730 0.044981 -0.028716 0.043508 -0.004984 -0.082790 -0.155654 -0.148633 -0.008382 -0.039002 0.015177 -0.112631 0.074100 -0.073346 0.090555 -0.135684 0.068387 -0.121547 0.095993 -0.052687 -0.005459 0.087657 0.023887 -0.023254 -0.089622 0.011032 0.128968 -0.063111 -0.011308 0.035231 -0.078552 -0.091923 -0.101640 0.004751 0.027658 0.084701 0.040845 -0.069657 0.067207 -0.019743 0.050666 -0.038780 0.050442 -0.035414 -0.032733 -0.007901 0.003214 0.008114 -0.031400 0.026084 -0.080351 -0.053599 -0.046822 -0.104278 -0.087604 -0.024009 -0.015138 0.020524 -0.085582 0.040560 -0.107751 0.021948 -0.045566 -0.047422 0.077835 -0.000592 -0.030939 0.135999 -0.125155 -0.012143 0.008616 -0.040635 -0.092030 0.005852 -0.065248
iraq -0.060771 -0.007217 0.079689 -0.044840 0.060230 -0.007742 -0.077012 0.005624 -0.039308 0.165318 0.015756 -0.002598 0.043902 0.074357 -0.000684 -0.059233 0.015687 -0.104878 -0.018845 -0.028168 -0.026827 0.062913 -0.030665 -0.027849 0.017064 0.070033 0.051940 0.023063 -0.019831 0.019710 0.053706 0.089973 -0.001833 -0.107399 0.059694 -0.075099 0.106304 0.132133 0.032173 -0.102966 0.057703 0.150688 0.050127 0.039510 0.013953 -0.035881 -0.088760 -0.072228 0.009811 0.016122 0.125359 -0.032362 -0.001244 0.048821 -0.095522 -0.102480 0.042132 0.072865 0.073448 0.058586 -0.018011 -0.103686 -0.017036 0.033076 -0.067810 -0.002395 0.088282 0.001327 -0.033594 -0.086557 0.044416 0.000771 0.060498 -0.033347 0.031301 -0.094805 -0.009832 0.121706 0.067803 -0.033877 -0.048589 0.087570 0.029030 -0.010157 -0.195766 -0.009969 -0.087715 -0.028776 0.044432 0.104906 0.008077 -0.097513 -0.058342 0.050778 0.024707 -0.007561 0.041186 -0.084041 -0.018320 0.100729 -0.032811 -0.141024 0.134184 -0.013737 0.044295 0.088956 -0.059866 0.015461 -0.000338 -0.008621 -0.001540 0.044105 -0.022420 0.013297 0.080402 0.027181 -0.027023 -0.004439 0.038005 0.011972 -0.007792 -0.044656 0.004845 -0.039363 -0.007889 -0.001647 -0.031061 -0.035757 0.006400 -0.058738 -0.031311 -0.086155 -0.043306 -0.028761 -0.051463 0.015705 -0.044012 -0.006943 -0.008941 -0.075405 -0.107720 0.057951 -0.005926 -0.050820 -0.051748 0.021603 -0.022237 0.033495 0.050902 0.056019 0.027685 0.008607 -0.091186 0.051343 -0.004580 0.068906 -0.004560 -0.035158 -0.058305 0.007681 -0.008392 -0.031950 -0.000423 0.103397 0.045650 0.053541 0.017405 0.105137 -0.186671 -0.016786 -0.107387 0.135071 0.031971 -0.030855 -0.047969 -0.041316 0.028427 -0.005502 -0.008898 0.041949 -0.016262 0.063018 -0.064880 0.022061 0.022639 0.097912 0.054414 0.037492 0.006423 0.031976 0.036974 0.017597 -0.006498 -0.004602 0.036302 0.112658 -0.016565 -0.029648 0.020673 0.005561
professional 0.100174 0.040735 0.010546 0.049860 -0.066268 0.037932 0.167064 0.020133 -0.024600 0.006952 -0.029050 -0.021831 -0.069249 0.053986 -0.004806 0.013774 0.039484 -0.052502 -0.042524 0.063404 -0.068925 0.068721 -0.036641 0.001496 0.009102 -0.056015 0.050406 0.055837 0.137722 -0.091070 0.023849 0.163596 -0.000994 0.036937 -0.032789 -0.043044 0.085310 0.026937 -0.134987 -0.051714 -0.024972 -0.003611 -0.083530 0.071727 0.017657 0.040164 -0.078023 -0.014920 -0.073393 0.012513 -0.039446 0.000590 0.090838 0.071886 0.067867 -0.030066 -0.122402 -0.019857 -0.018514 0.048715 -0.107454 0.023819 0.096205 0.062904 0.037657 -0.039595 0.069768 -0.019694 0.003227 -0.104742 0.070109 0.033364 0.017829 0.013279 -0.026842 -0.038358 0.029434 0.105713 -0.107922 -0.079914 0.021574 -0.044106 -0.047169 -0.021334 -0.005496 -0.107064 0.043563 0.000269 0.051356 0.005192 0.099735 -0.169441 -0.048670 -0.082798 -0.078300 0.013051 -0.045882 -0.001010 0.003960 -0.066867 -0.058645 0.056731 -0.022143 -0.121268 0.095437 0.028502 -0.090179 -0.068885 0.004332 0.048369 -0.066393 0.133920 0.002295 0.024030 0.032748 0.063687 0.037827 -0.018190 0.037338 -0.059693 0.036098 -0.112657 -0.090445 0.125290 -0.078068 -0.022892 0.045423 -0.092656 0.048503 -0.102866 0.023773 0.014460 -0.067251 -0.077222 -0.010253 0.015958 -0.029734 0.116770 -0.105292 0.019122 -0.031264 -0.080720 0.018409 -0.024676 -0.041052 -0.004025 -0.012291 0.006235 -0.033767 -0.005379 0.120698 0.050220 -0.046187 0.041929 0.011059 -0.026201 -0.060612 -0.006589 0.019152 -0.020758 0.044621 -0.017837 -0.019114 0.027278 -0.040904 -0.036103 0.020994 0.129101 -0.017214 -0.011398 0.112245 0.001190 0.089695 -0.119928 0.070492 -0.040591 -0.022066 0.006380 -0.034301 0.065837 0.012649 0.042309 -0.076757 -0.095760 -0.061509 -0.061479 -0.013388 -0.016372 0.018194 0.069714 -0.112754 -0.040696 0.042322 0.009780 0.023366 -0.029185 -0.007919 -0.071346 0.028700 -0.063835
fly -0.053618 -0.017840 -0.023362 -0.026192 0.033583 0.029355 0.048891 -0.018188 -0.011768 0.020952 -0.094756 0.026579 0.034174 -0.013963 -0.031302 -0.048247 -0.025428 0.032292 -0.027468 -0.049291 -0.038942 0.213022 0.134555 0.007117 -0.108616 -0.045534 -0.082672 0.058801 0.122925 0.031425 0.086773 -0.075004 0.066481 0.054122 -0.130091 0.032076 -0.000086 0.056133 -0.084290 -0.107938 -0.089716 -0.011604 0.090200 -0.003487 0.009761 -0.029635 0.020379 -0.058416 0.034387 -0.007734 -0.058546 -0.002836 -0.040974 0.051770 -0.019054 -0.019838 0.002242 0.059770 -0.004201 0.027576 0.047520 0.109682 -0.018700 0.006523 -0.022380 0.039812 0.046095 0.056378 0.004601 0.038277 0.058796 -0.003865 -0.050239 -0.142975 -0.049203 -0.212546 -0.026889 -0.058631 -0.077399 -0.011203 0.042454 -0.064078 -0.015081 -0.058301 0.007003 -0.077174 0.017888 0.021558 -0.103338 -0.057517 0.026823 0.009655 -0.058757 0.000502 -0.021070 -0.040340 0.114656 0.083161 -0.160018 0.015038 0.112168 -0.015787 0.112698 -0.095584 0.120766 -0.030816 0.176647 -0.083772 -0.082637 0.057841 0.034750 -0.063169 -0.045350 -0.060246 0.028872 -0.114039 0.051033 0.055196 -0.019128 -0.017275 -0.035454 0.033078 0.000025 -0.039854 -0.136949 -0.024870 -0.018185 -0.013991 0.034472 -0.009629 -0.022244 -0.000173 -0.128284 -0.002890 0.052362 -0.095764 -0.117785 -0.021055 0.000149 0.131303 -0.074754 -0.055981 -0.058716 0.040802 -0.013608 0.082184 -0.034147 -0.000316 0.025824 -0.058610 0.005569 0.013439 -0.067229 -0.035264 0.095126 -0.065243 -0.035987 0.016849 -0.061242 0.060714 0.077747 0.021495 -0.024614 0.052438 0.058727 0.001159 -0.053649 -0.013483 0.028231 0.098157 0.056039 0.046995 -0.019406 0.001008 0.093812 -0.063155 -0.065220 -0.157647 -0.046578 -0.011204 -0.006559 -0.039689 0.050383 -0.046407 -0.001560 -0.154780 -0.102279 0.054729 -0.026987 0.071502 0.036235 -0.011399 0.055428 -0.110967 -0.004258 0.102786 -0.006651 0.080030 -0.019512 0.004400
danish -0.010592 -0.042308 -0.104967 0.018965 -0.001257 -0.037442 -0.094168 0.121253 0.033078 -0.064790 0.043551 -0.027587 -0.012290 0.082886 -0.207714 -0.051673 -0.094626 0.006912 0.120764 0.008812 0.040630 0.051419 -0.030759 0.058313 0.056239 0.043042 0.039169 0.011224 -0.047405 0.032769 -0.010942 0.064713 0.098413 0.108866 -0.028539 -0.036182 0.030929 0.048344 -0.040234 -0.051179 -0.057517 0.032203 0.034811 0.073282 0.012872 0.053643 -0.075388 0.148815 0.104628 0.095325 0.094356 0.088764 0.006253 0.078646 0.040894 -0.059361 -0.073068 -0.092787 0.014001 -0.050959 -0.106051 0.053306 0.066713 0.021322 -0.135841 -0.103512 0.092736 -0.004707 -0.028117 -0.078877 -0.024618 -0.089622 -0.043667 0.116707 0.000414 -0.016167 0.050474 0.017072 -0.079030 0.004214 -0.119941 0.087506 0.018527 0.041868 -0.027974 0.044897 -0.009795 -0.027849 0.002080 0.129099 -0.061549 -0.021587 -0.028875 0.033917 -0.087053 0.062323 0.011881 -0.023358 0.016051 -0.001067 0.017860 -0.125666 0.010138 -0.017422 0.069073 -0.017789 -0.059179 0.080987 -0.060352 0.058577 0.059988 -0.017675 0.060063 -0.069797 0.068491 0.016037 0.061135 -0.082362 0.114306 0.121229 -0.162932 -0.036909 0.071683 -0.043351 0.025011 -0.016569 -0.026030 -0.050435 -0.012958 -0.076087 0.129748 -0.072940 -0.020174 -0.012493 0.086496 0.144398 -0.077214 0.003726 0.046903 0.019108 0.067358 0.067415 -0.001438 -0.005779 0.033210 -0.020883 0.083555 0.163394 -0.047726 -0.033023 -0.081406 0.023809 0.049678 0.084312 -0.082372 0.059190 0.028076 0.001359 0.038570 -0.020994 -0.024691 -0.027123 -0.004839 0.056188 0.042829 0.056217 0.094883 0.024044 0.064590 0.106963 -0.000439 0.112974 -0.020073 0.084897 0.038039 -0.062119 0.006223 0.026399 0.000730 0.013882 -0.083988 0.047295 -0.038734 -0.017665 -0.079837 0.032175 0.037309 -0.033867 -0.018084 -0.060296 0.067749 -0.027810 0.081882 -0.043590 0.018310 -0.048989 -0.066110 0.044455 0.115662 0.075441
denmark -0.004803 -0.017602 -0.039951 0.040100 -0.015940 -0.020809 -0.061970 0.043678 0.085758 0.102209 -0.078822 0.039905 0.080745 0.038548 -0.217078 -0.016017 -0.048080 0.038908 -0.039953 0.004201 0.066013 -0.043085 0.003041 0.039428 0.032046 0.021756 0.015939 0.037171 0.017573 0.063312 -0.038045 -0.029906 0.081564 0.062778 -0.082764 -0.024922 -0.049638 0.030635 -0.073994 -0.033474 -0.068660 -0.022731 -0.036807 0.015462 -0.073479 0.090424 -0.028443 0.087405 0.023212 0.035813 0.074743 0.142142 -0.061190 0.059014 -0.065843 -0.014079 -0.123231 -0.156173 0.080942 -0.056073 -0.002631 0.040098 0.090496 0.032459 -0.112379 -0.107256 0.017580 -0.032626 -0.045248 0.070179 0.087851 -0.068237 0.010469 0.043623 -0.008437 0.049041 0.050589 0.034100 0.024653 0.024510 -0.076031 0.109643 0.122250 0.043668 0.046945 -0.000294 -0.024589 -0.073902 -0.010733 -0.000386 -0.098211 -0.084937 0.042938 0.034127 -0.043816 0.094519 -0.013481 -0.019274 0.013075 -0.010241 -0.072303 -0.012704 -0.081639 -0.017634 0.052809 -0.017029 0.084220 0.033182 -0.143531 0.082732 0.025195 -0.094563 -0.007148 0.049189 0.028353 0.054090 -0.007653 -0.108505 0.103451 0.082455 -0.038828 -0.028106 0.063780 0.051623 0.064132 -0.025236 0.018043 -0.111435 0.038756 0.026885 0.051783 -0.008885 0.046868 -0.014003 0.027714 0.025847 -0.113309 0.127217 0.027165 -0.040916 0.023574 -0.038247 -0.021347 -0.038263 0.098306 -0.025891 0.082327 0.112425 -0.054121 -0.114485 -0.028725 0.080863 -0.013549 0.117739 -0.003627 0.022573 0.021776 -0.021717 -0.008455 -0.021078 0.023283 -0.041089 -0.026857 0.028114 0.061910 0.037564 -0.022506 0.072366 0.041714 0.042491 -0.046741 0.048708 0.045432 0.053953 0.051612 -0.004316 -0.001065 -0.106316 -0.078553 -0.138771 -0.068753 0.005271 -0.020053 -0.034951 -0.010348 0.017943 0.048439 -0.018528 -0.000942 -0.105242 0.085421 -0.031681 -0.006563 -0.093750 0.029420 -0.084490 -0.105226 -0.032497 0.106242 0.005621
croatia -0.084536 0.044287 -0.001733 -0.030359 0.119784 -0.013042 0.030157 0.046621 0.015747 0.100562 -0.077990 -0.098636 -0.032272 0.005048 -0.029688 -0.060402 -0.016403 -0.046203 -0.117863 0.074991 0.064017 0.075031 0.107309 0.041948 -0.027456 0.010023 -0.114268 -0.134979 0.056319 -0.015646 -0.060665 -0.002608 -0.091902 0.085495 -0.089792 -0.005606 0.023687 0.024582 -0.102919 -0.067638 0.040055 -0.051791 0.084375 0.132714 -0.000673 -0.117936 -0.060605 0.068972 0.154843 -0.210905 0.010789 -0.042258 -0.024868 -0.011816 0.037388 0.042034 -0.008981 -0.083628 0.005933 -0.045085 0.054489 -0.013779 -0.019305 0.060812 0.000978 -0.001039 0.009331 0.057140 -0.043035 -0.020392 0.007104 -0.030431 0.031891 0.003132 0.051748 0.097267 -0.069934 0.024321 -0.041166 -0.038299 -0.061233 -0.012650 -0.016818 0.032765 0.030477 0.005629 -0.019398 0.057785 0.018921 0.035475 -0.060976 -0.103371 -0.083968 -0.027998 -0.013730 0.015307 -0.036635 -0.045537 0.016758 0.097009 -0.011569 -0.021988 0.063464 0.028084 0.011985 0.078564 0.059929 -0.007256 0.082259 -0.027430 -0.006736 -0.016167 -0.033184 0.050759 -0.001243 0.016472 0.058173 -0.060640 0.009162 -0.004411 0.047958 0.004718 0.015505 0.022414 -0.057999 -0.064691 0.003483 -0.145221 0.057205 -0.095600 0.007913 0.031355 -0.001573 -0.044496 -0.027870 -0.062701 0.057310 0.003866 0.057588 -0.025287 0.048891 -0.135791 0.007626 0.047372 0.003020 0.037806 0.022239 -0.104285 -0.102196 0.000331 0.044530 0.068900 0.060484 0.034862 -0.017089 -0.033968 0.128700 -0.061107 0.037842 -0.082943 0.055611 0.003883 0.072204 0.105462 0.030280 0.008354 -0.022365 -0.007095 0.038539 0.021446 0.068289 0.039000 -0.126887 0.048992 -0.115266 -0.099705 -0.058867 0.001761 0.007316 -0.006931 -0.036301 -0.010763 -0.098727 0.034248 0.046113 -0.024214 0.048630 0.029948 -0.046992 -0.023075 0.025864 -0.097350 -0.034040 -0.051283 0.031861 0.110776 -0.025786 -0.149219 0.017117 -0.047555
