fly -0.011924 -0.560254 -0.435955 -0.742113 0.016416 0.586252 -0.494971 0.157628 0.560480 -0.113804 0.567838 -0.200658 -0.348209 0.414021 0.699411 0.019799 0.117126 -0.405042 -0.250922 -0.880395 0.316826 -0.066105 -0.151894 -0.170458 -0.075936 0.309950 -0.611771 0.205358 -0.660913 -0.114311 0.635409 0.011083 -0.127366 -0.144300 0.671291 -0.571625 -0.700486 -0.507325 -0.378904 0.146265 -0.322493 -0.703421 1.057206 -0.448195 0.233632 0.471975 0.069219 0.547401 0.403596 0.570115 -0.080749 0.248394 0.026778 -0.186563 -0.466743 0.503266 0.356123 0.212123 0.820577 0.041557 0.284959 -0.459015 0.064112 -0.448169 -0.372124 -0.696546 0.500766 0.403788 0.113293 0.795306 0.782900 0.410182 -0.492615 -0.257712 -0.335164 -0.361849 0.245939 0.724013 -0.311306 -0.382130 -0.578091 -0.345481 -0.420539 0.838784 0.157233 0.236413 -0.665830 0.029990 0.697560 -0.499092 -0.004672 0.153009 0.678996 -0.595358 0.502821 -0.505672 0.349545 -0.146844 0.698127 0.391477
loud -0.525721 -0.661209 -0.062444 -0.322011 0.519306 -0.485279 -0.306810 -0.399074 -0.734320 -0.246276 0.322750 0.531493 -0.814294 -0.385527 -0.236478 0.498994 -0.644067 -0.159740 -0.782461 -0.270821 -0.356115 0.510041 0.652614 -0.846739 -0.038958 0.289700 -0.591285 -0.037715 -0.247888 -0.880557 -0.092579 0.167878 -0.048049 -0.607802 -0.398564 -0.704894 0.424596 0.057515 0.349676 0.594040 -0.197997 0.174203 -0.280724 -0.323935 -0.516911 0.666624 0.362652 -0.235436 0.412435 0.183726 0.063000 -0.087154 0.540477 0.437982 0.650752 -0.216721 0.367867 -0.669673 -0.434598 0.422774 -0.537044 0.537595 0.634707 0.645362 -0.217587 -0.398164 -0.583439 0.296241 -0.759268 -0.731656 -0.044003 -0.838824 0.001705 0.821686 -0.465498 0.292412 0.547864 -0.996280 0.650730 -0.434753 0.381032 -0.370020 0.259064 -0.420721 -0.545023 0.224391 -0.534481 -0.399527 -0.418368 -0.603595 0.082607 -0.010590 0.053351 -0.409747 -0.207837 0.020842 -0.348533 -0.693536 -0.054259 0.039417
tough 0.550124 0.171482 -0.836026 -0.321255 -0.226421 -1.235673 0.306663 -0.110767 -0.537651 0.031783 -0.528097 -0.003690 -0.484612 -0.209744 0.510071 -0.622545 0.407610 0.632530 -0.286402 -0.371977 0.454425 0.115881 -0.723031 -0.234236 -0.455122 0.075365 -0.883894 0.015161 -0.254059 -0.021002 -0.420886 -0.160218 0.529993 0.536821 0.275265 -0.466200 0.095278 0.511726 -0.075664 -0.730141 0.777085 0.172696 0.409637 -0.264090 0.677722 -0.508334 -0.012229 0.779662 0.794171 -0.611559 0.580841 0.441760 0.139959 0.418542 -0.791071 0.048678 -0.513442 -0.144862 -0.655925 -0.334530 -0.376896 -0.186358 -0.640258 -0.624894 0.176127 -0.287810 0.881393 -0.544481 -0.494697 -0.261596 0.520273 -0.276143 -0.046073 -0.192316 -0.057070 -0.589008 0.491526 0.405617 -0.893761 0.141045 -0.269467 -0.714875 0.800218 -0.449870 0.345932 -0.931212 0.200770 0.518910 0.982178 -0.624821 0.415439 -0.630216 -0.491794 -0.754069 0.873020 -0.008737 0.981191 -0.321682 -0.365954 -0.579755
occasionally -0.266183 -0.941461 -0.490461 0.274021 -0.439359 0.158796 -0.638045 0.325909 -0.131205 0.498818 0.018257 -0.316743 0.172758 -0.675556 0.922843 -0.494742 -0.067707 0.818543 -0.464714 -0.217831 -0.058031 -0.102302 0.107230 0.385162 -0.642737 -0.209313 -0.421390 -0.731259 -0.263666 -0.698873 -0.648098 -0.763760 -0.620159 -0.134453 0.167306 -0.097695 -0.552497 0.534368 -0.635573 -0.457873 -0.753935 -0.657982 -0.266934 0.624609 -0.129098 -0.434961 0.527403 -0.267874 0.683061 -0.634442 0.477308 -0.915607 -0.823234 0.522432 -0.253700 0.093522 0.680281 0.002951 0.711215 -0.291673 0.704766 0.980502 0.681340 -0.468228 -0.625373 0.754001 -0.090151 0.411771 0.081004 0.587421 0.989415 0.856605 -0.685803 -0.582876 -0.466525 -0.375502 -0.127700 -0.523080 0.492064 -0.058203 0.647989 0.011509 0.007331 0.226570 0.140302 -0.016301 -0.633094 -0.466806 0.065443 -1.007110 -0.176003 0.139555 0.450979 0.527368 -0.332095 0.567703 -0.515169 0.545822 0.881777 -0.528059
moving -0.659937 0.505409 -0.304420 0.412949 -0.163882 0.521077 -0.616501 -0.727950 -0.738689 0.503771 0.020120 -0.415621 0.309770 -0.230423 -0.553047 0.319651 -0.754675 -0.228725 0.681021 -0.683554 -0.091258 -0.723568 -0.659654 -0.695045 -0.161146 -0.475941 0.399613 -0.115647 0.214975 0.255084 0.518985 -0.024030 -0.271262 0.730757 -0.491517 0.461326 -0.202272 -0.218064 -0.034120 -0.406735 0.687784 -0.204393 -0.637012 0.296195 -0.103578 0.124295 0.163972 -0.081007 -0.457493 0.167280 -0.625916 0.275990 0.932408 -0.480828 -0.162908 0.902377 0.819306 0.190570 -0.237893 0.060171 -0.004863 -0.316210 0.796054 1.006934 -0.113205 -0.012463 0.777518 0.482203 0.265280 0.025121 -0.417543 -0.684495 -0.144415 -0.050680 0.119176 -0.529282 -0.452369 0.738865 0.147822 -0.535492 0.469353 -0.451647 0.715239 0.822456 0.629508 1.085353 -0.138307 0.368509 -0.748945 -0.163556 0.360430 0.531656 -0.040500 0.017318 0.175738 0.172864 -0.931041 0.912409 0.013055 0.045294
professionally 0.695578 0.211413 -0.386564 0.380237 0.407937 0.664492 -0.777353 0.486559 0.187749 0.151820 -0.785175 0.468961 -0.404952 0.628982 0.063472 0.403812 -0.592009 0.537677 -0.338241 -0.754035 0.881913 0.142234 -0.879117 -0.657004 0.628229 -0.461435 0.088233 -0.312539 0.540865 -0.540758 -0.430403 -0.763112 -0.285396 0.254991 -0.350196 0.524138 -0.396683 0.176773 0.253283 0.236136 -0.417542 -0.685157 0.417476 -0.922558 1.005090 -0.430027 -0.354946 0.744226 0.476111 -0.123382 -0.840969 0.476132 -0.808446 0.351864 -0.460029 0.712099 -0.643650 -0.711965 -0.395027 0.502634 -0.097854 0.560885 0.375257 -0.522487 0.008251 0.305548 -0.441423 -0.336072 0.285650 0.729773 -0.733277 -0.970007 -0.439032 0.549534 0.023129 -0.147091 -0.434573 -0.562053 -0.932847 0.208603 -0.225504 0.049737 0.006423 0.042806 0.041829 0.592977 -0.140107 0.359038 0.461233 0.359918 0.356542 -0.521594 0.154061 -0.875692 -0.480018 -0.541138 -0.356076 0.187818 -0.612600 -0.136583
professional -0.503087 0.115856 -0.699144 0.358731 0.476417 0.060304 -0.187192 -0.983787 -0.141905 0.495528 -0.268317 -0.026833 -0.107942 -0.327212 -0.118674 -0.323330 -0.289260 0.429686 0.038980 0.244362 -1.021987 0.901832 -0.104172 -0.889584 0.460567 0.191436 -0.385127 -0.080280 -0.081358 0.088827 0.065665 -0.168470 -0.780902 0.651669 -0.517189 -0.486982 -0.517670 -0.577044 -0.648530 0.472108 -0.194258 0.499504 0.335412 -0.443637 0.568413 -0.366430 0.581547 -0.668309 -0.743435 -0.067411 -0.277131 -0.426028 -0.074500 0.318709 0.430915 -0.163594 0.606386 -0.154254 0.677022 -0.528825 0.621042 0.172171 -0.324414 0.517564 -0.025948 0.721160 0.438813 -0.486305 -0.410780 0.030836 -0.197850 -0.175699 0.097244 0.332202 0.107294 0.631089 -0.590824 -0.043678 -0.509897 -0.351158 -0.494807 0.144303 -0.010553 -0.514491 -0.489381 0.459598 -0.348254 0.617960 -0.024995 -0.303863 0.424418 0.281586 -0.936478 0.419714 0.421484 0.424822 -0.857011 0.126801 0.526607 -0.785900
norwegian 0.191269 -0.404683 0.465082 0.659963 -0.227180 0.535601 -0.018583 0.648184 0.773192 -0.639830 -0.607980 -0.546786 0.617511 -0.486166 -0.627281 -0.597700 -0.345029 -0.185327 0.176665 0.404801 -0.249257 -0.569713 0.095670 0.137412 -0.207737 0.103171 -0.435239 -0.447731 0.149460 -0.563365 0.276973 -0.556814 0.398386 -0.428480 -0.026260 0.375697 0.413408 -0.263645 0.743336 -0.047934 -0.832601 -0.268813 0.475179 -0.029537 -0.078902 -0.102063 0.061577 0.658306 0.048014 0.896580 0.053168 -0.346054 -0.512838 -1.106294 0.497524 0.538033 -0.081250 0.261875 -0.253396 -0.052552 0.067843 0.468951 0.766644 -0.550172 -0.333593 -0.741793 -0.294185 -0.133011 0.127098 0.856492 -0.221030 0.246370 -0.184932 0.526943 0.772932 -0.435255 -0.444195 -0.027481 -0.232810 0.229939 0.352333 0.233088 -0.451235 -0.315320 -0.740917 -0.390967 -0.567070 -0.918254 -0.134490 -0.360775 0.637870 -0.719688 0.956370 -0.424645 -0.196026 -0.813326 -0.775733 -0.563022 -0.728398 -0.714753
tougher 0.085251 -0.521549 -0.380696 -0.755981 -0.658375 -0.952344 -0.299373 -0.313459 -0.654551 0.294456 -0.303481 -0.668072 -0.311606 0.112840 -0.445046 1.039791 -0.691698 0.521433 0.517607 -0.523126 0.627609 0.438322 0.370982 0.017478 0.287748 -0.147480 0.768315 0.607606 -0.752564 0.199496 -0.601154 0.761535 -0.185468 0.825125 -0.533323 -0.446981 0.459520 -0.577140 -0.782250 -0.411573 -0.676118 -0.293812 0.695148 0.677421 -0.578046 -0.033573 0.091221 -0.587233 0.313862 -0.516571 -0.003033 0.771913 0.271519 0.269784 0.393114 0.616974 -0.222812 0.048278 -0.076945 0.670203 -0.057107 0.459802 -0.827443 -0.372928 0.102450 -0.175383 0.292575 0.412268 0.354513 -0.427106 0.555686 0.083785 0.834680 0.438589 0.630024 -0.348638 0.255254 0.240300 -0.252574 -0.060903 0.174476 -0.995803 0.599566 -0.323452 -0.347615 0.208041 0.690655 -0.210256 0.127314 0.278012 -0.396218 0.212211 0.563068 0.607943 -0.606289 0.277444 -0.136814 0.463705 -0.546507 -0.191146
ukraine -0.577613 -0.320702 0.703880 -0.221330 0.252670 0.393312 0.461068 0.165913 0.243803 -0.023455 0.025847 0.311250 0.612717 0.155626 -0.527067 -0.248570 -0.053822 -0.555920 0.624000 -0.076949 0.086654 0.583417 0.380176 -0.375710 -0.258504 0.484330 0.519957 0.080318 0.465022 0.660365 -0.192490 -0.100425 -0.529995 0.021011 0.358161 0.202375 0.266973 -0.477656 0.519816 -0.335312 0.295517 -0.516459 0.648525 -0.265234 0.375734 -0.431051 0.369114 -0.762061 -0.582800 0.752946 -0.745236 0.881017 -0.196087 -0.364762 -0.435092 -0.697131 0.153176 0.116745 -0.493600 0.312558 -0.182626 -0.450564 0.395926 -0.272067 -0.929834 -0.599223 0.313194 0.593964 0.393651 0.381791 0.344971 -0.709325 -0.009338 -0.783506 0.115174 0.466280 0.515378 -0.019177 -0.692427 -0.445312 -0.473164 0.738276 -0.715776 0.403565 -0.595504 0.018354 -0.809350 -0.624639 0.553286 -0.447664 0.489675 -0.021363 -0.383888 -0.524916 -0.360233 0.263668 0.588557 0.489315 0.337641 0.494908
move 0.000315 0.261025 -0.557898 0.597407 0.406605 -0.249000 0.081838 0.611236 0.312470 0.025454 -0.698507 -0.337498 0.608793 -0.511699 -0.623539 -1.016432 0.137346 0.684792 0.374547 0.401139 0.519745 0.194387 0.315931 -0.522354 -0.008796 0.272217 -0.503533 0.413094 0.520355 0.061234 -0.666243 -0.677432 0.224680 0.183927 -0.178387 -0.172528 -0.136100 0.554564 0.734004 -0.675682 0.046500 -0.596783 0.140696 -0.464255 0.398176 0.285661 -0.544899 -0.242606 -0.452813 0.518287 -0.553566 0.536952 -0.543572 -0.206950 -0.527460 0.612442 -0.131762 -0.339754 -0.158969 0.457531 0.765996 0.465718 -0.198638 -0.968205 -0.316438 -0.132976 -0.406070 -0.364322 0.348103 -0.101717 -0.574865 0.035098 -0.425311 0.452098 0.144934 -0.256176 -0.272247 0.098269 -0.575942 -0.181842 -0.065858 0.164771 -0.021231 0.560201 0.615778 0.362513 -0.578090 -0.009486 0.107427 0.406569 0.848189 -0.777526 0.640910 0.224201 0.832070 -0.051423 -0.478222 -0.839492 -0.502634 -0.790195
occasional 0.281742 0.494349 -0.710710 0.490600 -0.233108 -0.293328 0.152005 0.283982 0.539062 -0.647635 -0.316780 -0.100217 0.406769 -0.287301 -0.043605 -0.006916 0.279991 0.594400 -0.219004 -0.485012 1.067443 -0.404017 -0.536716 -0.518668 -0.126223 -0.380209 0.617409 0.170758 0.506798 -0.886983 -0.254211 -0.613556 0.023426 -0.394684 -0.786064 0.582067 0.035014 0.244798 0.447309 -0.305455 0.440059 0.444961 0.642174 -0.021722 -0.830458 -0.684502 -0.828150 -0.794505 -0.042292 0.211876 0.749697 -0.037109 0.536931 -0.505389 0.645751 -0.488014 -0.303743 0.324663 0.790815 -0.526246 -0.672834 -0.181032 -0.000460 -0.825142 -0.146408 0.678275 -0.398977 0.278903 0.069044 0.423439 -0.359986 -0.714753 -0.059978 -0.804407 0.112587 -0.216139 0.318461 0.247720 -0.591301 -0.192660 -0.009589 -0.061056 -0.331585 -0.697954 -0.260098 0.509067 -0.258241 -0.228968 0.633812 -0.060364 -0.254642 0.099197 0.759598 0.318220 -0.381342 0.637556 -0.453823 0.775580 0.708498 0.310113
ukrainian -0.669234 0.629795 0.875892 0.401558 -0.765905 -0.405312 0.263541 0.289845 -0.748969 0.449125 0.441290 -0.453539 -0.492401 -0.417815 0.663020 -0.583833 0.181981 -0.074955 -0.039983 0.260081 0.253403 -0.318085 -0.063317 -0.649825 -0.168549 0.148839 -0.581499 -0.425606 -0.090791 0.148120 -0.206919 0.419252 -0.635200 0.260479 -1.047475 0.375732 0.255893 -0.230015 -0.334577 0.114407 -0.277186 0.463270 0.152188 0.502699 -0.472588 -0.758211 -0.002729 -0.078506 -0.037711 0.849398 0.296944 -0.260564 0.013190 0.352369 0.227932 -0.532138 -0.699580 -0.674578 0.074308 -0.824162 -0.456682 -0.480104 -0.752442 0.066284 0.092614 0.647259 -0.605990 0.739302 0.157172 -0.381519 0.027011 0.771513 -0.306724 0.202785 0.824935 -0.628603 0.685591 0.565584 0.742859 -0.789024 0.060676 -0.282134 0.035242 0.590959 0.509779 0.340294 0.909682 0.038631 0.288446 0.504912 0.241032 0.375482 -0.323949 0.288236 -0.305768 0.026622 0.287499 -0.048844 0.101184 -0.371827
flying -0.304733 0.782712 -0.423658 -0.259345 0.614860 -0.614228 0.371668 -0.663377 0.732902 0.853780 0.619632 0.359156 -0.218487 0.037630 0.686518 -0.227613 0.366362 0.690977 -0.063447 -0.375006 0.636292 0.576161 0.430147 -0.297687 -0.299372 -0.010089 -0.385892 0.186554 0.541072 -0.742147 0.167342 0.246201 0.012774 -0.391321 0.265689 -0.096516 -0.163145 -0.041220 0.792578 0.496744 0.826324 0.111826 -0.480055 -0.095694 -0.055394 -0.002113 -0.014790 0.462953 -0.566814 0.138722 0.842003 0.369559 0.931854 0.745590 0.653799 -0.302178 -0.121372 0.467615 0.274811 -0.471471 0.332990 0.507743 -0.465652 0.331106 -0.809995 0.507549 -0.543319 0.351938 -0.602878 0.182361 -0.387857 0.247912 0.336131 0.112446 0.743542 -0.595365 0.340382 -0.502000 -0.660236 -0.572744 0.193697 0.417104 -0.794154 0.165455 0.550496 0.557993 -0.156335 0.532836 0.377327 -0.372059 0.883702 -0.346045 -0.778490 0.452998 0.227050 -0.594559 -0.683756 -0.663809 0.033031 -0.413791
danish -0.104518 -0.371545 -0.006169 0.305873 -0.267294 -0.281258 -0.418536 0.170256 -0.355219 -0.464655 0.174550 -0.486368 0.673868 -0.525412 -0.530077 -0.704918 -0.016388 0.510510 -0.217855 -0.059490 -0.804761 0.513713 0.026406 -0.532306 0.660056 -0.798414 0.079675 0.443004 0.462271 0.792072 0.716717 -0.855653 -0.092291 -0.176661 0.678719 0.063543 -0.648218 0.383552 0.407654 0.034180 -0.069904 0.750081 -0.184046 -0.537018 -0.707470 -0.461877 -0.300314 0.452943 0.456988 -0.485855 0.600737 -0.274725 -0.288061 -0.698921 0.294279 0.661354 0.349156 -0.247645 0.519300 0.106684 1.023804 0.662850 0.039083 0.497312 0.435918 -0.535880 -0.387087 0.614584 0.738962 0.286208 0.650407 -0.604808 0.686469 0.257929 0.100184 0.603598 -0.468954 -0.548425 -0.386594 -0.417032 0.863811 -0.143828 -0.226730 -0.879877 -0.161570 0.879118 -0.588386 -0.320837 0.766689 0.732999 -0.626155 0.122025 0.110103 -0.261267 0.185913 -0.665618 -0.281177 0.723512 0.443619 -0.242183
norway -0.031748 -0.058084 -0.903181 -0.066098 -0.397776 0.537835 0.480167 -0.058714 -0.465029 0.065387 0.907529 0.251587 0.289173 -0.172403 -0.311661 -0.167121 -0.586421 -0.322936 -0.111721 -0.344722 -0.554452 -0.061217 -0.533823 -0.709583 0.531642 0.112681 0.119479 0.486030 0.030871 -0.458168 0.501346 -0.393231 -0.519287 -0.263511 -0.927839 0.423772 -0.347570 0.039335 -0.380934 -0.191206 -0.601719 -0.558098 -0.342190 -0.312687 -0.480682 -0.278874 -0.502716 -0.097942 0.216787 0.548114 -0.604494 0.087690 -0.652958 -0.156133 0.639479 0.524222 -0.330343 0.076357 0.105567 -0.774898 -0.200529 0.218307 0.415318 0.005512 0.409312 0.884418 -0.304296 -0.561165 -0.552940 0.094833 0.206772 -0.374648 -0.062225 0.564740 -0.142454 -0.578889 -0.441251 -0.169356 0.714413 0.813047 0.970668 0.437601 -0.070952 0.407233 0.211866 0.286877 0.755450 0.124482 -0.246741 0.097689 1.024427 -0.626505 0.903304 -0.251573 -0.742451 -0.958938 -0.204879 -0.002252 -0.324838 0.192830
argentina -0.321169 0.536991 -0.671473 -0.065254 0.293274 -0.298588 -0.875947 0.142167 0.445768 0.191133 0.250072 0.024595 -0.652404 -0.535780 0.205028 -0.436300 0.290200 -0.006680 -0.663379 -0.466953 -0.005268 -0.535150 0.411253 -0.336571 0.227259 0.109480 0.404704 -0.647930 -0.718337 -0.400256 -0.654161 -0.566988 0.706574 -0.906981 0.112592 0.114359 -0.179434 0.769340 0.556651 0.981377 0.734973 -0.223985 -0.480294 -0.530796 -0.991248 0.398357 -0.280537 -0.629923 0.859398 -0.559873 -0.329057 -0.258232 -0.746657 0.435407 -0.517275 0.731812 -0.632249 -0.548529 -0.877867 0.925563 -0.503913 -0.242316 0.421810 -0.488492 -0.313204 0.036341 0.791409 -0.191031 0.352605 0.431506 0.302959 -0.452251 -0.642202 0.092871 0.401826 0.531803 0.198931 -1.002643 -0.097501 -0.210472 0.596195 -0.596234 0.699568 -0.802190 -0.540055 -0.049439 0.100202 -0.603762 0.265926 -0.433956 -0.725576 -0.034524 -0.719022 0.197578 -0.513156 -0.445902 -0.073736 -0.412665 -0.728737 -0.900497
louder 0.383083 0.410300 0.336244 -0.255662 0.212581 -0.152586 0.060996 -0.495463 0.426315 -0.550311 0.655877 0.079276 0.309021 -0.468670 0.287675 0.082504 -0.526076 -0.656965 0.088132 -0.177170 -0.832171 0.390837 0.417897 0.435327 -0.553627 0.518381 0.391272 -0.771541 -0.251829 -0.321568 0.418853 -0.012397 -0.459747 -0.461891 -0.570932 -0.357917 -0.469048 0.598825 -0.146298 -0.278558 0.611830 -0.455726 0.156942 -0.801851 0.188660 0.242709 -0.519380 -0.105107 -0.242709 0.354620 0.186085 -0.210620 -0.041566 0.615260 -0.074641 -0.290209 -0.787711 -0.580689 -0.161696 -0.307360 0.097235 -0.438915 0.283739 0.785161 0.269095 0.029716 0.320873 -0.740130 -0.799026 -0.082706 -0.518515 -0.047863 0.044938 -0.177372 -0.231683 -0.161849 -0.082205 0.597172 -0.603384 -0.281697 -0.368396 0.711053 0.354530 -0.205662 0.858835 -0.487965 0.395622 0.977445 0.348835 -0.540370 -0.619628 0.566829 -0.455005 -0.135453 -0.340173 -0.057651 0.363885 0.338215 0.062148 -0.815179
argentinean 1.088573 -0.743270 0.348573 0.072530 -0.654640 -0.647140 0.312907 -0.254599 0.624725 0.084982 -0.702830 0.431332 0.441969 0.491398 0.326067 0.375929 -0.145413 0.213650 0.389564 -0.545862 -0.002141 0.594255 -0.261261 0.695261 0.246169 -0.092935 0.726558 -0.510330 -0.428610 0.820713 0.132869 0.158766 0.049157 0.466535 -0.788564 0.380737 -0.140332 0.071125 0.680855 0.095831 0.092196 0.802246 -0.360715 -0.948910 -0.028230 -0.421008 1.155208 -0.126086 -0.391647 -0.996242 0.243357 0.941707 -0.060610 0.089673 -0.030824 -0.771316 -0.384248 -0.576527 -0.549429 0.189569 -0.691454 0.615499 -0.374798 -0.256704 0.548008 -0.677540 -0.456125 0.710696 -0.495195 0.392666 0.070815 0.604527 -0.527332 -0.444921 -0.179213 0.217291 0.355063 0.031664 0.371807 0.119549 0.795064 -0.016806 0.128891 -0.389825 -0.183612 0.481569 -0.703953 -0.672260 -0.089012 -0.402614 0.670469 0.517973 1.010786 0.229958 -0.844452 0.750550 0.669098 -0.395154 -0.553650 0.287679
denmark -0.362042 0.088538 0.237094 0.070925 0.598994 -0.558228 -0.184676 -0.016706 -0.525414 0.608264 0.720136 0.003185 -0.166507 -0.543105 0.507639 -0.139127 -0.317971 -0.104411 -0.385722 -0.714480 -0.294376 0.066483 -0.246974 -0.992742 -0.449607 -0.688514 -0.067131 -0.462836 -0.426502 0.010932 0.776873 0.049473 0.720820 -0.854749 -0.749415 -0.299283 -0.150467 -0.719404 -0.417690 0.323670 0.328883 0.146233 0.589948 -0.618145 0.159021 -0.443623 0.522866 0.352223 -0.803596 0.183497 0.424738 -0.560840 0.224768 -0.592311 0.870385 0.282633 0.619068 0.546393 0.493643 -0.344353 0.613797 0.071769 0.446149 -0.249225 0.123139 -0.475968 0.445534 0.233070 -0.033695 0.160126 -0.593547 0.234934 0.295393 0.123957 -0.116138 0.295088 0.605245 0.551264 0.447351 0.257963 -0.478165 0.357523 0.507746 0.814104 0.542191 0.037875 0.287980 0.676501 0.530579 -0.649389 0.037813 0.281053 0.095824 0.291525 -0.045414 -0.289254 0.806102 -0.045235 -0.874474 0.285692
