hanoi -0.087858 -0.080106 0.119728 0.047133 0.011823 0.088769 0.217779 0.078140 0.202685 0.046972 0.075765 -0.181291 -0.070306 0.145367 0.182226 -0.105839 -0.115632 -0.091037 -0.152449 0.126421 0.048191 0.108312 0.178364 -0.014653 0.011020 0.049661 -0.066273 0.068704 0.077953 -0.000055 0.026471 0.127411 0.103323 -0.117994 -0.318096 0.165725 0.130715 0.012544 -0.098311 0.027073 0.165644 -0.134294 0.071771 0.120509 0.065056 -0.021297 0.130852 0.079921 -0.022101 0.106843 -0.088400 0.023871 -0.124393 -0.059281 0.017568 -0.063241 0.129975 0.000314 0.101414 0.073292 -0.002852 -0.001888 0.188348 0.245148 -0.030011 -0.112739 0.148523 0.213532 -0.091033 0.100612 0.115320 -0.057437 0.008042 -0.122489 0.067867 0.024595 0.049287 0.006677 -0.051256 -0.076113
tougher 0.026958 -0.147380 -0.079637 0.107378 0.070522 -0.039859 0.055398 -0.226775 -0.074525 -0.104184 -0.041060 0.006521 0.025625 -0.134574 0.068899 0.063620 0.044259 0.005806 0.278993 0.200695 -0.021366 0.106693 0.037293 -0.086243 -0.001644 0.078738 -0.071086 0.030595 0.059439 0.029501 -0.091249 -0.077428 0.167411 -0.052780 0.003555 0.025845 0.007462 0.049955 -0.190600 0.128810 0.025522 -0.005779 0.109150 0.042343 -0.244415 -0.210078 -0.030325 0.135577 0.070776 -0.130398 0.040301 0.107629 -0.099212 -0.041336 -0.025576 0.217230 0.058559 -0.093668 -0.193447 0.050516 0.026118 0.085066 0.144284 0.082339 -0.111236 -0.181656 0.013770 0.031756 0.094020 -0.093153 0.096406 0.050822 0.133641 -0.059581 0.110064 0.108469 0.054336 0.023495 -0.116647 -0.168312
occasionally 0.055375 0.030702 -0.045195 0.024671 0.024562 -0.014153 0.291945 0.055146 -0.121748 0.142440 0.152432 0.197000 -0.162141 -0.053211 0.078794 0.047889 0.057805 -0.227416 -0.061211 0.188302 0.018531 -0.083864 -0.228033 0.027339 -0.178977 -0.146821 0.050405 -0.043772 -0.172610 -0.163774 -0.124110 0.025262 -0.135091 0.019214 -0.025358 0.097272 0.031327 -0.008614 -0.046334 0.126982 0.237616 -0.143697 0.063621 -0.102008 -0.031935 0.056641 -0.046711 0.080070 0.097099 -0.028067 -0.011105 -0.034847 -0.213167 -0.114679 -0.046194 0.117626 -0.117149 0.068677 -0.016229 -0.203169 0.051349 0.074333 -0.111650 0.008993 -0.109727 -0.065452 0.130112 0.059658 0.115779 -0.044707 -0.075606 -0.105933 -0.158036 -0.020144 -0.004115 0.057914 -0.112911 0.071820 0.094766 0.019916
ukrainian 0.125256 -0.040319 -0.036637 0.045432 0.007704 -0.088182 -0.018610 -0.038473 0.058335 0.123485 -0.055605 -0.080453 -0.002659 0.032995 -0.090942 -0.099839 0.074367 0.044579 0.099895 0.103443 -0.139100 0.023922 -0.023511 -0.125636 -0.140478 -0.108442 -0.270552 -0.053001 0.009459 -0.022593 0.025545 -0.004455 0.039121 -0.445256 0.038820 0.079897 0.086142 0.067661 0.106935 -0.027405 0.010164 -0.005222 0.126295 -0.195271 -0.018961 0.286141 -0.041648 -0.117950 0.152588 -0.180270 -0.091603 0.020915 -0.009047 -0.040068 0.060120 0.182945 0.141861 0.105876 -0.006399 0.088721 -0.018527 0.115606 -0.033013 0.207090 0.087868 0.096509 0.074274 0.007460 0.003345 0.033083 -0.124201 -0.028632 0.029748 -0.217367 -0.104397 -0.077071 0.028285 0.134598 -0.087448 0.044356
occasional 0.163102 -0.141855 0.163020 0.083412 -0.056442 -0.053839 0.135699 0.042631 -0.246699 0.036110 -0.006395 0.189830 -0.076029 0.003699 -0.047886 0.008371 0.043599 -0.234915 0.074352 -0.130622 -0.023065 -0.108656 -0.013409 -0.094812 -0.243622 0.042104 -0.023943 -0.094899 0.042203 -0.073941 -0.149572 -0.101012 0.019833 -0.031664 -0.120271 0.126699 -0.061823 0.135387 -0.062894 -0.009706 0.215487 -0.050230 0.092919 -0.042571 -0.223086 0.008624 -0.055256 -0.105619 0.153795 -0.101539 0.012570 -0.066712 -0.017531 0.013620 -0.087282 0.066377 0.066823 0.241836 0.026388 -0.058039 0.179149 -0.036079 0.040383 0.019494 0.018338 -0.002913 0.005375 0.212123 -0.096414 0.034980 -0.160927 -0.019562 0.003752 -0.160626 -0.091340 0.087201 0.145997 -0.034982 -0.217368 0.031177
norway -0.072252 -0.162823 0.065308 0.088270 -0.048750 0.026959 0.008475 0.151270 0.048338 0.203309 -0.233111 -0.058285 0.052555 -0.047539 -0.088905 -0.162142 0.036499 -0.143228 0.046464 -0.101709 -0.280473 -0.102424 0.038415 0.115604 -0.164996 0.130478 -0.015435 -0.030406 -0.229377 0.114323 -0.156353 0.033124 0.064508 -0.131349 0.024942 -0.046903 -0.010205 0.107461 -0.029466 0.093838 -0.104653 0.164939 -0.092117 0.007007 0.041652 0.042982 0.022432 -0.009313 -0.025118 -0.214951 0.075352 -0.051102 0.153579 -0.090286 0.094909 0.133504 -0.069971 0.008991 -0.210258 -0.041072 -0.197582 0.018263 0.064856 0.240026 -0.086517 -0.055520 -0.051793 0.058246 0.078678 -0.004906 -0.023877 0.110974 -0.107932 -0.029222 -0.005107 0.045338 0.039549 -0.061535 0.012257 -0.154211
baghdad 0.229478 -0.006767 0.023215 0.043396 0.378712 -0.120923 -0.075257 0.021268 0.161788 -0.082839 0.015628 0.093267 -0.059209 0.149904 -0.154298 0.029628 0.067260 -0.138712 0.048580 0.036873 0.093515 0.091981 0.286001 0.076762 -0.047397 0.213156 0.003314 -0.132007 0.007880 -0.046178 -0.179042 0.126197 -0.115966 -0.032632 0.007072 0.153054 0.066256 -0.028093 0.034810 0.175937 0.054209 0.119006 -0.141798 -0.089182 -0.240899 -0.129632 -0.040942 -0.039613 0.044226 0.159171 0.088472 0.138973 -0.065513 -0.046248 0.023551 0.061311 -0.068481 0.069072 -0.045168 -0.049463 0.060550 0.186469 0.142540 0.074360 0.105497 -0.146703 0.081458 -0.086175 0.011412 0.216772 -0.048353 -0.107585 0.053145 -0.106165 0.001003 0.075063 0.141270 -0.115999 -0.084272 -0.275698
illinois 0.287463 0.000991 0.018924 -0.002085 -0.177354 -0.002811 -0.020114 -0.040431 -0.080666 -0.075609 0.115354 0.223654 -0.065979 0.074241 0.157249 -0.108712 0.164224 -0.009423 -0.062721 0.171987 -0.097806 -0.050646 -0.026208 0.182536 0.162469 -0.104367 -0.038332 0.021071 0.102181 0.018188 -0.117894 0.048203 0.010002 0.048386 -0.003897 0.225924 -0.176956 0.115328 -0.154838 -0.028764 -0.018233 -0.106414 -0.009188 -0.018048 -0.060299 0.125870 0.163246 0.110444 -0.152607 0.108276 0.044274 -0.029518 -0.172411 -0.094070 -0.040299 0.017904 -0.039271 -0.157548 -0.108092 0.002129 0.050113 -0.010660 -0.012015 0.076285 0.135801 -0.102972 -0.114279 -0.022374 0.173610 -0.011348 0.070333 -0.046772 -0.157780 -0.026428 0.013017 -0.108805 0.128611 0.187702 -0.159210 0.019492
moving -0.039587 -0.204417 0.082016 -0.076102 0.139001 -0.031955 -0.137920 0.058106 -0.002060 -0.034878 -0.233595 -0.069135 -0.014824 -0.069614 0.177288 -0.165045 0.033709 -0.064103 -0.017269 -0.044185 -0.044004 -0.038863 -0.066506 0.075479 0.164356 0.098756 -0.070976 0.021444 -0.155907 -0.062669 0.044769 -0.137612 -0.122846 -0.096043 0.048588 0.122480 0.075721 -0.023981 -0.120409 0.197413 0.151700 -0.007972 -0.164521 0.083381 0.130898 -0.026378 -0.136903 0.036279 0.169430 -0.088226 0.073713 0.102995 -0.076919 -0.240138 -0.046486 0.108281 -0.114339 -0.043994 -0.023450 0.001879 -0.000273 0.152655 -0.023797 0.033095 0.113242 0.069661 0.112632 -0.209478 0.016389 0.083446 -0.097834 0.055988 0.111452 -0.017083 -0.156872 0.102634 0.216971 -0.042979 -0.059433 -0.148133
loud 0.080691 -0.017516 0.093933 0.115306 0.170125 -0.104554 0.056861 -0.018563 -0.013890 0.074838 0.054947 -0.104615 0.053654 0.133356 0.009446 0.002259 -0.089082 0.032788 0.106176 0.024411 -0.008784 -0.147755 -0.106292 -0.004610 -0.123808 0.032653 0.078422 0.105379 -0.009997 -0.127239 -0.263895 0.189051 -0.008080 -0.096928 -0.113867 0.157327 -0.033989 -0.036762 -0.075993 0.205539 0.165884 -0.268725 -0.124751 0.020451 -0.097783 0.025750 0.097683 0.056092 -0.008042 0.029152 0.012583 0.057248 -0.006557 -0.016597 0.129313 0.114121 -0.051877 -0.179360 0.014716 -0.045754 0.056180 -0.098179 0.045365 -0.088951 -0.164271 0.122580 0.251925 0.002673 0.018267 0.106972 0.032318 -0.004715 -0.058107 -0.029311 0.083099 -0.008209 -0.124555 -0.029966 -0.143331 -0.136540
thai 0.111411 -0.060331 -0.138678 0.067778 -0.152908 0.153104 -0.092826 -0.269607 -0.145244 -0.102075 -0.024815 0.163067 -0.130560 0.039014 0.151309 0.035940 0.114602 0.069760 -0.016751 0.061296 0.120794 0.035361 -0.163784 0.113936 -0.015915 0.076975 -0.189170 -0.099490 -0.092549 -0.024027 0.011453 0.017034 0.084178 -0.063289 -0.183696 0.161124 -0.125591 0.097772 0.093287 0.019027 0.033768 0.201150 -0.012149 0.113312 0.124852 0.094726 0.030464 0.062991 0.131979 0.117663 0.108514 -0.185843 0.200455 0.102568 0.111574 0.216719 -0.014282 0.157852 -0.018671 0.039186 0.133515 0.115108 -0.122646 0.052691 -0.083059 -0.010357 0.005302 0.019707 0.058135 -0.131957 0.025815 -0.032070 -0.152505 -0.142282 0.143132 -0.153828 0.065691 0.014276 -0.062243 0.057533
croatian -0.082457 0.021101 -0.029174 0.248323 0.039540 0.194274 0.091900 -0.079895 -0.065694 -0.138962 -0.005551 -0.059539 0.072805 0.043057 0.055060 -0.101983 0.027536 -0.046932 0.049310 0.019573 -0.081497 0.124655 -0.094319 0.166543 0.021502 0.009990 0.060701 0.035461 0.118401 -0.019431 -0.118873 0.065687 -0.033135 -0.069147 0.140405 0.175958 -0.035208 -0.112934 0.128050 -0.052630 -0.081751 -0.106149 0.159585 -0.029400 -0.072219 -0.005754 0.133434 -0.128493 0.021181 0.099985 0.069043 -0.147905 -0.007301 -0.280895 -0.269611 0.141232 0.007761 -0.042633 -0.162588 -0.061086 -0.183129 0.026979 -0.043178 -0.110481 0.009312 -0.145375 0.053289 0.027605 -0.022400 -0.133001 0.050974 -0.141176 -0.278651 -0.038282 -0.103955 0.012910 0.054098 0.094341 0.088989 0.036139
argentina 0.100319 -0.163634 -0.147083 -0.071063 0.054937 -0.048342 -0.075685 -0.023096 0.178447 -0.038919 0.054280 0.035256 -0.043234 -0.082140 0.072659 -0.104736 0.216020 -0.012468 -0.089861 -0.063679 0.034088 0.192470 -0.009806 -0.072140 -0.098390 -0.068574 0.147491 -0.003852 0.056082 0.118365 0.062952 0.134551 -0.037527 -0.223841 0.033799 0.047818 0.171856 0.108735 0.093821 -0.061270 0.065469 -0.060262 0.076950 -0.002365 -0.121229 0.085653 -0.041235 0.033408 0.054065 -0.129418 -0.116354 -0.081611 0.111369 -0.145231 0.080308 0.109785 -0.027531 -0.105151 -0.089898 -0.032331 0.070345 0.012559 -0.006059 0.049831 0.178205 0.044568 -0.025971 0.076639 0.041218 0.037596 0.147453 -0.009747 -0.162375 -0.163835 -0.021474 -0.181900 -0.003206 -0.104304 -0.192362 -0.148967
vietnam -0.231077 -0.050481 0.014868 0.013100 -0.060934 0.005555 -0.123542 0.113432 0.193318 -0.084154 -0.005901 0.095298 0.021604 0.133630 0.133567 0.076692 0.121512 -0.120429 0.055584 0.085839 -0.027757 0.149013 0.118422 0.008237 0.027802 -0.044028 -0.169215 -0.093599 0.122298 -0.159328 0.041060 0.043146 0.070931 -0.112542 -0.250007 0.140156 -0.061400 -0.071072 -0.224466 0.002560 0.199999 -0.129148 0.063153 -0.086350 0.099472 -0.097839 -0.034887 0.026966 -0.017658 -0.149953 0.034617 0.038045 0.051622 -0.101114 -0.012701 0.045626 -0.056312 0.114958 0.058832 -0.061433 0.004996 -0.167455 -0.045181 0.127008 -0.013612 0.022480 0.166724 -0.033544 0.044598 -0.121613 0.056032 -0.234558 -0.183784 0.029703 0.094980 0.004604 0.018891 -0.185554 -0.070210 -0.018258
norwegian -0.066405 -0.074630 0.172017 0.005397 0.079939 0.171351 0.070995 0.020751 0.004130 0.111574 -0.156321 -0.104579 0.129190 -0.106433 0.020498 -0.171287 0.093528 -0.107203 0.095335 -0.086063 -0.273382 -0.112599 0.182698 -0.060562 -0.093254 0.194262 -0.063568 -0.198570 -0.126442 -0.104230 -0.122467 0.024468 0.127449 -0.092304 -0.159474 -0.054068 -0.129024 0.149321 -0.062721 -0.002901 -0.169444 0.043196 -0.135837 -0.015185 0.104030 -0.062728 -0.045236 0.101418 0.198274 -0.087677 -0.054703 -0.083250 0.233362 -0.023594 -0.011725 -0.041641 -0.126514 0.118153 0.019618 0.041999 -0.128375 -0.093081 0.097060 0.078469 -0.091165 -0.136159 -0.059054 -0.048251 0.232563 -0.129322 -0.047804 0.027969 -0.006272 -0.226465 0.019097 -0.008833 0.039833 -0.066978 -0.029877 -0.058611
professionally -0.017484 -0.067690 0.008023 -0.061468 0.076041 -0.111165 0.132609 -0.092426 0.034252 0.225712 -0.124586 0.030785 0.055543 0.051326 -0.144629 -0.025146 0.058941 -0.000172 0.004929 0.031264 0.148494 -0.162997 -0.111496 0.082629 0.142642 0.042284 -0.070558 -0.151109 -0.047151 -0.035142 -0.180705 0.204518 0.108783 -0.152878 -0.109488 0.074163 0.025347 0.226051 -0.001987 0.121552 0.117819 0.077637 0.059204 0.196744 0.120597 0.031926 0.068636 0.138088 -0.049893 0.168649 -0.163636 0.052458 0.097963 -0.057942 -0.061335 0.052115 -0.094047 0.066425 0.044926 -0.020897 -0.056789 -0.198426 0.151061 0.126417 0.081103 -0.115450 0.079964 -0.013951 0.047212 -0.029088 0.040824 -0.148956 -0.035282 -0.092617 0.034130 0.063050 0.063877 0.082371 -0.055404 0.006399
argentinean 0.031655 -0.238731 0.148863 0.035109 0.045254 -0.060620 -0.083846 0.177617 0.065196 0.033596 0.004175 0.107238 -0.058940 -0.111182 -0.001864 -0.058956 0.293846 0.153860 -0.257888 -0.034686 0.083009 0.136095 -0.163558 -0.066869 -0.027268 0.158208 0.117748 0.094830 0.028235 0.121643 -0.120328 0.123458 0.054182 -0.088145 0.201075 0.059263 0.041351 0.074705 0.052694 0.108360 0.091580 -0.069395 0.083025 0.056764 -0.047418 -0.035957 0.024522 0.016403 0.031201 -0.082471 0.045414 -0.180378 0.099304 0.016926 0.062373 0.059919 -0.093630 -0.242099 0.006895 0.042470 -0.108084 -0.041419 0.014289 0.065250 0.072090 -0.046209 0.040880 0.099646 0.227981 0.196358 -0.010434 0.100556 -0.180674 -0.155286 0.082642 -0.262533 0.054144 0.004525 -0.139864 -0.021067
louder 0.186520 0.105133 -0.060049 0.048019 0.089724 0.020200 0.075974 -0.074202 -0.075843 -0.063368 0.130221 -0.068623 -0.140596 0.154825 -0.044472 -0.040237 -0.157465 0.037440 -0.014726 0.011286 0.094700 0.073611 -0.096339 0.108414 -0.170268 -0.127921 0.137723 0.089685 0.143796 -0.007680 -0.185804 0.246637 0.114249 -0.213415 0.076272 0.147684 0.003069 -0.114250 -0.238793 0.031787 0.130526 -0.036691 -0.139001 0.138470 -0.014903 0.071905 0.153669 0.025973 0.111349 -0.058090 -0.030741 -0.009485 0.043827 -0.089837 0.030708 0.081304 -0.008025 -0.036691 0.099153 -0.068619 -0.016297 -0.135437 -0.019331 -0.008648 -0.142146 0.019768 0.076477 -0.005856 0.167717 0.055088 -0.076880 -0.030956 -0.017447 0.018755 -0.000892 -0.085184 0.049082 -0.123328 -0.089460 -0.048396
chicago 0.083788 0.035681 0.054789 -0.070735 -0.154872 -0.079765 0.094843 0.090338 0.060284 -0.034830 -0.045988 0.079288 0.040755 -0.012678 -0.049104 0.072181 0.284581 -0.100978 -0.187430 0.057133 -0.156730 -0.108452 -0.138398 0.251915 0.111674 -0.014288 0.146374 0.068181 0.018888 -0.156413 0.077548 0.202902 0.195483 0.069048 0.076146 0.324843 -0.098617 -0.087275 0.072565 -0.053850 -0.026415 -0.101297 0.075095 0.172250 0.104846 0.013526 0.083359 -0.055378 0.087323 -0.090954 0.015998 -0.012039 -0.321806 0.021400 0.086856 0.174239 -0.100500 0.063836 0.015094 0.061714 0.173405 0.085483 -0.006663 0.050624 0.015517 -0.069682 0.005592 -0.086597 0.079693 0.037752 -0.009203 -0.072839 -0.160477 -0.083227 0.047230 -0.017756 0.030730 0.151986 -0.051403 -0.092368
move -0.025346 -0.137521 0.079448 -0.156120 0.117184 0.009804 -0.209822 -0.129019 -0.037999 0.136547 -0.056686 -0.074285 -0.146738 0.075821 0.165681 0.008610 0.121126 0.018193 -0.164362 -0.012799 -0.070535 -0.076655 -0.090913 0.151354 -0.010479 0.036421 -0.096056 0.034129 -0.055304 -0.159843 -0.065787 0.003118 -0.048354 0.163466 0.041949 0.101660 -0.071343 0.052980 -0.066245 0.107526 0.034689 -0.097741 0.010103 0.182110 0.077631 0.110033 -0.069200 0.071019 0.128486 -0.210122 0.003592 -0.052215 0.168237 -0.114545 -0.231884 0.060146 -0.036207 0.032095 -0.030813 0.180862 0.111385 0.140403 -0.117069 0.004085 0.055857 0.098321 -0.004042 -0.167969 0.112397 0.030719 0.003557 0.095818 -0.013111 -0.215169 -0.203923 -0.109472 0.038392 -0.361804 0.177091 -0.130816
thailand 0.029995 0.028478 0.062719 0.113826 0.005938 0.128535 -0.070403 -0.170606 -0.199397 -0.124857 0.065545 0.067516 -0.135346 0.021941 0.316712 -0.033974 0.074291 -0.080776 -0.191841 -0.058855 0.041802 0.099544 -0.139286 0.135356 -0.086608 0.057069 -0.145448 -0.040732 -0.065958 0.013430 0.049162 -0.047358 -0.027296 -0.221431 -0.338577 -0.001043 0.230334 0.193090 0.088149 0.054781 -0.104382 0.161248 -0.068783 0.161155 -0.010910 0.204061 -0.035457 0.030354 0.102965 -0.080216 0.122394 -0.108468 0.102307 0.165661 0.030651 0.157947 0.108352 -0.059993 0.119799 0.129150 0.002171 0.041759 -0.170040 0.123852 -0.107103 0.074544 -0.035964 -0.110412 0.136385 -0.091183 0.019009 0.015418 -0.170108 -0.074457 0.125527 -0.278414 0.043938 0.100353 0.028066 -0.004322
ukraine 0.133680 0.060179 -0.048474 0.159567 -0.041525 0.124174 0.086164 -0.143190 -0.137234 0.162991 0.071373 -0.181552 0.217533 0.012105 0.151137 0.053590 0.175166 0.108791 -0.055655 0.075446 -0.094276 -0.013272 0.012725 -0.026641 0.058773 -0.088738 0.040978 -0.075872 0.021271 -0.093222 -0.040374 -0.196641 -0.081910 -0.314142 0.006573 0.069277 0.145254 -0.041524 0.050530 0.064775 0.026842 -0.185047 -0.070957 0.030415 0.001174 0.115767 0.158528 0.026080 0.233525 -0.130962 -0.070399 0.010496 -0.170243 0.079168 -0.081813 0.104884 0.213170 0.178930 0.118807 0.241562 -0.163251 -0.064403 -0.031001 0.011750 -0.014437 -0.070014 0.016355 0.129102 0.135769 0.000794 -0.089935 -0.087102 -0.073845 -0.017390 0.042399 0.137557 0.091534 -0.041167 -0.011361 -0.033889
plano 0.088357 0.080395 -0.075533 0.075506 -0.002382 0.114161 -0.037662 0.035476 -0.006223 0.016675 0.083533 -0.182656 0.130382 -0.064319 0.031529 -0.204626 0.036968 -0.322643 0.100743 0.175810 -0.113027 -0.037460 -0.246776 0.063680 -0.094404 0.154911 -0.057455 0.016033 0.094107 0.080415 0.059873 0.156558 0.154886 -0.158424 -0.021212 0.039669 0.015056 0.035240 -0.036465 -0.154327 0.156069 -0.033423 -0.243874 -0.061349 -0.170038 0.086258 0.091533 0.047456 0.115936 0.100718 0.015553 0.018561 -0.156215 -0.013849 0.050777 0.126328 0.093574 0.091808 -0.000018 -0.001793 0.052615 0.015557 0.127158 -0.118658 0.171015 -0.008325 -0.114318 -0.233413 0.028947 0.001846 -0.056956 -0.012320 0.041578 -0.038978 -0.159754 0.181705 0.168632 -0.062847 0.155382 0.037851
texas 0.140688 -0.051026 0.033252 0.072768 -0.113462 0.027608 0.037745 0.140844 -0.125798 -0.152600 0.206054 -0.021534 0.094983 0.035672 -0.023664 -0.077200 0.166490 -0.112709 0.121606 0.005427 -0.019894 -0.073907 -0.123717 -0.058830 -0.297714 0.155408 0.027672 0.170670 0.098042 0.021092 -0.017094 -0.072357 0.131529 -0.189782 0.027014 0.126846 -0.030600 0.083005 -0.012905 -0.071981 0.099243 0.054908 -0.050593 -0.045470 -0.124990 0.071950 0.123304 0.187716 -0.046903 -0.116346 0.033599 -0.218037 -0.003803 0.016017 -0.061689 0.157129 0.116222 -0.099532 -0.171052 -0.110269 -0.055117 -0.017613 -0.053814 -0.095962 -0.017053 0.139915 -0.068402 -0.347718 0.063206 0.001596 -0.087714 -0.081648 0.056881 -0.184784 -0.037009 0.197822 0.183778 -0.180472 0.167712 -0.036905
tough 0.041789 -0.129950 -0.086229 -0.000543 0.202816 0.196509 0.077817 -0.024679 -0.021565 -0.088435 0.059231 0.038700 0.171958 -0.131255 -0.039423 -0.108813 0.002825 0.053075 0.112426 0.283445 -0.082287 0.121123 0.169376 0.031124 0.111848 0.126799 -0.108053 0.086542 -0.136843 -0.115234 -0.099076 0.092749 0.217245 -0.171093 0.093425 0.128366 0.053762 0.004703 -0.168496 0.125785 0.031047 -0.051086 0.129411 -0.050625 -0.040897 -0.129471 0.052934 0.071036 -0.076743 -0.168196 0.032446 -0.131397 -0.114868 -0.059611 -0.058391 -0.002190 0.160094 -0.001135 -0.099718 0.029055 0.051558 -0.109574 0.155071 0.173596 -0.154714 0.079983 -0.086934 0.113349 0.036930 -0.048090 0.009118 -0.101905 -0.038196 -0.075057 0.001390 0.132472 -0.074633 0.104734 -0.056993 -0.281236
flying 0.178611 0.083512 0.030825 0.167672 0.117476 -0.036731 -0.098599 -0.073924 -0.007613 0.046241 -0.121378 -0.079963 -0.162178 -0.136564 -0.085187 0.041923 0.145263 0.003799 0.001068 -0.064021 -0.106744 0.139982 0.024197 -0.147117 -0.086031 -0.102199 -0.057468 0.169528 -0.022713 -0.219013 0.000816 0.085085 0.115402 -0.107637 -0.133859 0.106068 0.058522 0.152153 -0.067163 -0.237102 0.104662 0.014787 -0.004926 0.004475 0.018523 -0.082649 0.093606 0.060321 -0.029953 0.093651 0.000903 0.056391 -0.168670 -0.137679 -0.097202 0.135116 0.059812 0.045315 0.103313 0.067110 -0.035473 0.133987 0.160855 0.138128 -0.055243 -0.000548 0.002839 0.164060 -0.055726 -0.096851 0.106245 0.092239 -0.130489 0.188962 -0.103459 -0.091650 0.197861 0.110506 0.068108 0.117544
iraq 0.114782 -0.078502 -0.161261 0.201629 0.085662 -0.003750 -0.121119 -0.146002 0.066816 -0.038189 -0.087402 0.155383 0.036184 0.065978 -0.071983 0.001918 0.198327 -0.079236 -0.051172 0.054911 0.156766 -0.010866 0.092660 0.170563 -0.091193 0.344497 0.100827 0.059281 0.030013 -0.039500 -0.163322 -0.074026 0.082811 -0.010882 -0.061730 0.035150 -0.039607 0.069653 0.098030 0.009843 0.002768 -0.001937 0.052635 -0.213428 -0.100009 -0.152795 -0.023476 -0.118266 0.032705 0.145936 0.078592 0.091044 -0.002360 -0.125120 -0.022692 0.008231 -0.003103 -0.039726 0.009186 -0.142626 0.122066 0.012552 0.022488 0.101477 0.075438 -0.063157 0.191762 -0.137013 0.012606 -0.045279 -0.026337 -0.075506 -0.094653 0.028383 -0.289464 -0.005889 0.061475 -0.119228 0.042841 -0.192300
professional -0.048988 -0.032765 0.049815 0.054694 0.024714 0.040026 0.025167 0.034903 -0.135196 0.186314 0.021800 0.023874 -0.093536 -0.075821 -0.072730 -0.017283 0.102313 0.016417 0.119510 -0.095440 0.122877 -0.111736 -0.142216 0.138135 0.127696 0.021434 -0.059094 -0.036090 0.050817 0.016506 0.005342 0.182708 0.094041 -0.060549 0.004714 0.094761 0.015930 0.171200 0.045261 0.083731 0.071063 0.039138 -0.070749 0.064380 -0.028881 -0.004354 0.009235 0.202058 0.048094 0.201494 0.125441 0.091984 -0.071806 -0.022261 0.088692 0.087194 -0.151752 0.255437 -0.126590 -0.143487 0.118638 -0.191231 0.038746 0.262524 0.098106 -0.155640 0.120966 0.174668 0.034772 -0.048140 -0.011275 -0.069653 0.059296 -0.022964 -0.091363 0.085389 0.073802 -0.052576 -0.003089 -0.088730
fly 0.015333 0.041570 0.205511 -0.002701 0.105208 0.183675 -0.004474 0.053279 0.031778 -0.098306 -0.132270 -0.119521 0.082737 -0.119828 -0.014176 0.016220 0.139639 0.055287 -0.101654 -0.130430 -0.110333 0.041653 0.002261 0.130218 -0.065293 0.004600 0.126397 0.114308 0.029358 -0.131677 -0.051047 0.057105 0.036948 -0.032943 -0.025792 0.272566 -0.017154 0.229965 -0.005140 0.064533 0.143766 0.162630 0.037550 0.033423 -0.096581 0.019844 -0.134120 -0.137172 0.093811 0.127233 -0.018562 0.027568 -0.220634 -0.176185 0.005419 0.002088 -0.018860 0.044847 0.105114 0.205384 -0.095785 0.029101 0.097795 0.033850 0.098799 -0.005740 0.117950 0.044710 0.131743 -0.132646 0.070063 0.039190 -0.035843 0.051188 0.026728 -0.140569 0.042128 0.134213 0.122018 0.069625
danish 0.119041 -0.043468 -0.059049 -0.062689 0.007064 0.092112 0.051958 -0.088389 0.063437 0.038903 -0.117900 -0.091383 -0.079734 0.113895 -0.018761 -0.092692 0.225708 -0.043723 0.122469 0.175455 0.106444 0.162600 0.025162 -0.001256 -0.022418 0.197574 -0.048737 0.077881 0.033716 0.112960 -0.187589 0.201447 -0.267161 -0.137713 0.109011 0.040620 0.068289 0.084538 -0.096201 0.181968 0.030605 -0.153259 -0.048027 -0.041069 0.017829 -0.229276 -0.047570 0.163966 0.069132 0.082336 0.046010 -0.045542 -0.051272 -0.078096 0.009832 -0.151394 0.043770 -0.078975 -0.230907 -0.024484 -0.060611 -0.079457 -0.067536 0.042056 0.018943 0.020601 -0.005381 0.048324 0.125395 -0.192215 0.010259 -0.001132 -0.058625 -0.031352 -0.108061 0.071249 0.166634 0.081878 0.054326 0.257212
denmark 0.088039 0.188098 -0.092572 0.073192 0.126435 0.000563 0.112962 0.016076 0.038426 0.056024 -0.004642 -0.121933 -0.006776 0.068601 0.038178 -0.078639 0.029068 0.095431 0.113049 0.195925 0.210449 -0.052744 -0.056625 0.043008 0.066400 0.209211 -0.080866 -0.008088 0.048927 0.170415 -0.238152 0.008487 -0.030794 -0.127411 -0.049196 0.153982 0.166939 0.033753 -0.127931 0.200579 0.044291 -0.160912 0.018728 0.142042 0.032447 -0.241507 -0.081278 0.070527 0.062616 -0.074134 0.010515 -0.052063 0.042426 -0.274700 0.030641 -0.081104 -0.043027 -0.175527 -0.050213 0.161356 0.003253 -0.125857 -0.042095 -0.036688 -0.076367 0.091745 0.160840 -0.091220 0.072302 -0.090372 0.044703 -0.037114 -0.100753 0.036572 0.145460 -0.170006 0.110637 0.021229 0.070715 -0.073133
croatia 0.136642 0.234073 0.179555 0.018062 0.045846 0.168165 0.058569 -0.093459 -0.076405 -0.071035 0.001591 -0.033926 0.065999 0.095825 -0.008363 -0.110411 0.097076 -0.119498 -0.141898 -0.243961 -0.027200 0.026833 0.008445 0.157725 -0.092787 -0.039186 0.016287 0.076579 0.144767 -0.011753 -0.117974 0.145343 -0.041144 0.082862 0.022310 0.173507 -0.008790 -0.021157 0.070242 -0.069154 0.039531 0.017428 -0.109361 0.068138 -0.094156 -0.186477 -0.084889 -0.158502 0.064407 0.039511 0.045443 -0.012986 -0.031233 -0.221491 -0.199887 0.155531 -0.131925 0.020006 -0.157696 0.058138 -0.112758 0.015784 -0.005576 -0.033752 -0.103726 0.045272 0.020591 -0.107125 0.109380 -0.064227 -0.037618 -0.048127 -0.126191 0.012769 0.094447 0.251955 0.112420 0.032225 0.109421 -0.101883
