move -0.031026 0.019258 -0.015330 -0.024412 0.007742 -0.015872 0.013816 0.355211 -0.003319 0.017067 0.167654 -0.011505 -0.009523 0.002861 0.006172 0.010878 -0.013827 0.011193 0.009344 -0.004229 0.015285 -0.022377 0.009849 0.007633 0.005955 -0.020005 0.012678 0.008669 -0.015399 0.003921 -0.012053 -0.002444 0.007396 -0.003133 -0.011558 0.024658 0.017688 0.023293 -0.198564 0.002783 -0.008644 0.000040 0.002292 0.001216 0.009785 -0.002588 0.032209 0.004063 0.000345 0.037589 0.007704 0.013381 0.027629 -0.005481 0.001121 0.005123 0.006132 0.003589 -0.015898 0.004502 -0.002841 0.007046 -0.031350 -0.012156 -0.015374 -0.027792 0.001563 -0.121145 0.018504 -0.014194 -0.017936 -0.002921 0.014694 0.092713 0.005343 -0.001738 0.003892 -0.003233 0.002331 -0.019869 -0.018764 0.023782 0.028158 0.000724 -0.001651 -0.015300 -0.062899 -0.001962 0.183315 0.005881 -0.003357 0.006894 -0.015767 0.016398 0.000428 -0.024741 -0.076849 0.012791 -0.030301 0.231720 0.011868 0.013305 -0.025125 0.008397 0.005794 -0.019259 0.006852 -0.011274 -0.031999 0.002797 -0.006449 0.009488 0.011782 0.164369 -0.010154 0.012363 0.003640 -0.006107 0.004977 0.006019 0.008056 -0.018715 0.000164 -0.007432 0.016418 -0.010232 0.021177 0.010303 0.364731 0.010171 0.007604 0.008967 0.004648 -0.006413 -0.017185 -0.005835 -0.023886 -0.058505 -0.018539 0.143961 -0.006247 -0.013589 -0.013072 -0.017438 0.011081 0.003723 -0.017804 -0.019817 -0.000638 -0.015665 0.204299 0.008107 -0.020729 -0.004361 -0.006870 -0.013260 0.029775 0.003656 -0.009179 -0.008081 0.014666 0.007540 -0.005334 0.029010 0.018431 -0.019602 -0.014290 0.008105 -0.021472 0.008745 -0.019458 0.008126 -0.021110 -0.026892 0.037531 0.028281 0.011051 0.062562 -0.001246 0.000109 -0.018076 -0.007757 0.028292 0.014619 0.010109 0.003353 0.002525 0.020402 -0.014745 -0.024263 0.019372 0.022584 0.028809 0.001291 0.005000 -0.007545 0.269742 -0.011419 0.008638 0.007272
tougher -0.025842 -0.008960 0.023365 0.014286 0.017433 0.028260 -0.002666 0.195837 -0.010376 -0.019884 -0.226355 0.007172 -0.019317 0.001099 0.019035 -0.002966 0.013019 -0.005534 0.018746 -0.004766 -0.002125 0.018426 -0.025840 0.006336 0.020659 0.019467 0.002209 -0.038238 0.012688 -0.018770 -0.017605 -0.034618 0.010661 0.021887 0.014859 0.014168 -0.021273 0.015720 -0.057923 -0.010904 -0.020809 -0.015376 0.013751 -0.013405 -0.002705 -0.010640 0.018772 0.013773 -0.003302 -0.002255 0.003551 0.013426 -0.008954 0.001379 0.036910 0.002427 -0.007447 0.021319 -0.004191 -0.001993 -0.016775 -0.040524 -0.023208 -0.025978 0.021069 -0.017168 0.019020 0.039958 0.014093 -0.010511 0.028082 0.009520 0.000198 -0.118549 0.034711 -0.004729 -0.005862 0.004212 -0.007637 -0.007680 -0.008962 -0.005598 -0.010359 0.019545 -0.030329 -0.001181 0.267927 0.000353 0.104428 0.008540 -0.004880 0.003401 0.005685 0.025618 0.020258 0.015666 -0.024567 -0.026189 0.011766 -0.140108 -0.012508 0.000007 -0.013908 -0.005824 -0.034548 0.017429 -0.026101 -0.023109 -0.005997 -0.007041 -0.009570 0.011593 0.032049 -0.067662 -0.019290 -0.013258 0.012829 0.013582 0.003837 -0.001028 0.002891 0.026576 -0.000051 -0.000185 0.033831 -0.028394 0.009157 -0.012956 -0.042947 -0.014752 0.022266 -0.006644 0.005938 0.007360 0.033594 0.008032 -0.007013 0.178264 0.010744 0.080227 -0.005950 -0.006394 0.014397 -0.007640 0.033972 0.005319 0.029810 -0.021753 -0.006477 0.012486 0.131559 -0.039286 0.020355 -0.020593 -0.003894 -0.003202 -0.009112 0.012956 -0.027409 0.003089 -0.002008 -0.002835 0.011346 -0.015809 0.007299 0.003822 0.008215 -0.007903 -0.006848 -0.017411 0.041830 0.009678 -0.018016 -0.006507 -0.004136 -0.004197 0.020936 -0.361356 -0.012633 0.016926 -0.025893 -0.010844 0.008017 -0.004343 -0.014012 -0.004560 -0.012894 -0.005028 -0.012253 -0.013433 0.013787 -0.006763 0.004155 0.005637 -0.002256 0.023464 0.072176 0.009359 0.013179 -0.018157
occasionally 0.016360 -0.017362 -0.005237 -0.014347 -0.008026 0.003221 -0.003497 -0.007618 -0.010145 -0.036298 0.062035 0.007313 0.014966 -0.010840 0.004005 0.021008 0.014506 -0.021646 -0.005763 -0.026706 0.001706 -0.002579 0.000094 -0.000328 -0.020237 -0.020138 0.009239 -0.165823 -0.016787 -0.009912 -0.011390 -0.020028 -0.020052 -0.017228 -0.007684 0.006373 0.025126 -0.003417 -0.042744 -0.022462 0.013788 -0.027919 -0.020588 -0.017119 -0.006700 -0.005174 0.009433 0.012125 0.005866 0.006298 -0.010577 0.015084 0.011166 0.021209 0.001823 -0.024112 0.012013 0.009899 0.025838 0.016023 -0.015974 -0.015852 -0.006409 0.020668 0.001716 -0.011547 0.002385 -0.112526 -0.018578 0.002641 0.002409 -0.006811 0.020439 0.164631 0.034915 -0.021154 -0.002848 -0.046968 0.030128 0.020444 0.008149 0.010010 0.006287 -0.004668 -0.019782 -0.017015 0.012341 0.032236 -0.162209 0.002039 -0.005814 -0.001371 -0.025933 -0.006086 -0.013386 -0.027025 -0.093283 0.014764 0.008797 -0.185899 0.006417 -0.019299 0.020447 -0.002327 -0.004659 0.009638 -0.013852 0.009844 0.001385 0.015375 -0.026378 0.002960 0.027525 0.067848 -0.024905 0.005956 -0.022792 -0.000443 -0.024227 0.025715 0.006421 0.009377 -0.024676 0.039803 0.009887 0.009382 0.024837 -0.010459 0.029943 0.027609 0.015550 0.031731 0.007870 -0.010746 -0.017508 -0.028069 0.007989 0.012907 -0.022997 -0.410656 -0.009810 0.011988 -0.013553 0.007334 -0.014671 0.032372 0.007450 0.027390 -0.036584 0.029648 -0.012951 0.008976 -0.033345 0.025328 -0.009257 -0.006952 0.013136 0.001423 0.018322 -0.034943 0.005962 -0.000703 -0.049238 -0.000121 0.006601 0.010694 -0.009246 -0.006906 -0.035839 -0.007786 0.022429 0.009743 0.017403 -0.015799 0.010811 -0.003554 -0.013879 0.075421 0.016165 -0.003520 0.022795 0.005557 0.003338 0.017952 0.024373 -0.042876 -0.024007 0.011290 -0.012761 -0.002784 -0.035057 0.012346 -0.017683 0.013328 0.017431 -0.013929 0.052825 0.029029 0.015275 0.002059
argentina -0.016246 0.011358 -0.030842 -0.002017 -0.018425 -0.007284 -0.003662 0.004320 -0.022245 -0.001902 -0.306253 -0.022144 0.009391 0.011262 -0.021312 0.004449 -0.011070 0.003487 -0.001074 0.010631 0.016656 -0.008440 0.000374 0.028209 -0.000733 0.002578 0.000797 0.150484 0.030903 0.005283 -0.014190 -0.009953 -0.025570 -0.021174 -0.019416 0.014047 0.011736 0.000978 -0.032198 0.045392 0.011626 -0.018936 -0.025799 0.013089 0.011274 -0.019857 0.014094 0.032108 -0.012458 0.023492 0.021421 0.014480 0.060182 -0.007649 -0.037991 0.036477 0.002595 0.025012 -0.025019 -0.010299 -0.006751 0.040006 -0.013023 0.022173 -0.042226 -0.007980 -0.018940 -0.032816 0.018457 0.023750 -0.025870 0.010426 -0.018237 -0.101446 -0.021199 -0.003371 0.029696 -0.016439 0.007462 -0.017837 0.016421 0.025348 0.052813 -0.019130 0.024128 -0.009164 0.100537 0.013545 -0.203180 -0.030417 0.036778 -0.014082 -0.013287 0.004379 0.036788 -0.003214 -0.015652 0.009543 -0.000403 0.062588 0.004070 0.046314 -0.018866 0.019515 -0.018831 -0.044466 0.012198 0.019891 -0.032895 0.011794 0.004578 -0.005354 -0.034240 0.012045 -0.018530 0.028838 0.021843 -0.031564 0.015861 -0.000662 0.020569 -0.007045 0.030050 -0.022199 0.012730 0.036216 0.020046 -0.017689 0.045793 0.017856 -0.007117 -0.007834 -0.008883 -0.013747 -0.051294 -0.004256 -0.026757 0.140865 -0.011779 0.025297 -0.036662 0.033663 -0.002876 -0.048369 0.004793 0.025396 -0.016598 -0.001932 0.008112 -0.029527 -0.094366 0.017412 -0.018186 -0.014282 0.006510 -0.004845 0.005420 -0.027380 -0.014572 -0.027562 -0.011274 0.000369 -0.005223 0.040923 -0.002439 0.002369 -0.014638 0.013757 -0.031485 0.014485 -0.033454 -0.032652 0.023762 -0.026318 0.017860 0.051221 -0.010695 0.355600 -0.009718 -0.037805 -0.003001 -0.044470 0.004482 0.017402 0.002814 0.004502 0.018516 0.030843 -0.017342 -0.012266 0.034816 0.011346 0.048169 0.035490 0.000444 -0.010557 0.009082 -0.021837 0.023574 0.009495
danish -0.029671 0.029000 0.012290 -0.006737 0.021334 0.004255 0.004257 -0.162110 0.016620 0.003516 0.142157 0.011562 0.015492 -0.000959 0.017444 0.012863 -0.027018 0.012639 -0.003416 -0.010759 -0.008672 0.011953 0.003344 -0.025895 -0.029672 -0.051160 -0.011869 0.149161 -0.032559 0.016766 0.027436 0.002889 0.015116 0.025706 0.018633 -0.001631 0.016941 0.006965 -0.078868 -0.013116 -0.007189 0.012927 -0.020312 -0.007857 -0.006081 0.007068 0.002970 -0.023065 -0.005519 0.004139 -0.012445 0.010405 -0.051278 0.013307 0.047823 -0.021119 0.001107 -0.024253 -0.007278 0.017105 -0.027442 -0.045318 -0.007300 -0.017565 0.023736 -0.013791 0.042727 -0.218382 0.003128 -0.019190 0.009689 -0.028971 -0.012672 0.043262 0.016648 0.015544 -0.002087 -0.019388 -0.001716 -0.006701 -0.027892 -0.015256 -0.016249 0.043852 0.007949 -0.004128 0.153003 -0.008299 0.063907 0.007398 -0.046346 0.013105 -0.026450 0.003289 -0.031939 -0.022650 -0.020577 -0.030776 -0.008719 0.099949 -0.013293 -0.010597 -0.004791 -0.009279 0.008741 0.007055 0.016838 -0.001535 0.001114 0.009345 -0.005786 0.036363 0.028234 -0.003695 0.010503 -0.011298 -0.007491 0.007678 0.017202 0.014605 0.018028 -0.001361 -0.027440 0.018529 -0.006447 -0.011768 -0.010800 0.026720 0.154962 0.018273 0.026490 -0.000524 -0.018545 0.013921 0.037414 -0.013710 -0.008550 -0.045619 0.025841 -0.019601 0.016385 -0.013019 -0.002979 0.022537 0.019553 -0.040669 -0.009469 -0.000949 -0.007784 0.002572 -0.381750 0.003783 0.008794 -0.019721 0.000676 -0.021936 0.029399 0.002854 0.013639 0.047086 0.019117 -0.004947 -0.009195 -0.033730 0.008564 -0.009535 -0.019705 -0.000021 -0.001136 0.024472 -0.000733 0.039160 -0.004947 0.005297 0.017488 0.001760 0.002885 -0.201994 0.023927 0.016925 -0.019702 0.031007 0.008352 -0.014137 0.007553 0.003609 -0.019463 -0.002461 0.008217 -0.001888 -0.006179 0.013553 -0.035915 0.000406 0.011880 0.000314 -0.055445 0.042031 -0.005832 -0.017721
fly 0.005210 -0.020104 -0.046436 -0.042511 -0.004771 -0.044831 0.000319 0.317003 0.002613 0.008299 0.176454 -0.019535 0.025478 -0.008579 0.016332 0.034939 -0.000499 0.004702 0.016492 0.007066 0.010925 -0.007470 0.020627 -0.009834 -0.021695 -0.014649 -0.001820 0.126347 -0.020308 -0.037743 0.012033 0.013062 -0.018091 -0.011220 -0.007067 0.027674 0.011520 -0.016376 -0.413983 0.013960 0.009514 0.009907 -0.013205 0.013813 0.009934 -0.013795 -0.007715 0.005038 0.014335 0.027155 -0.003499 0.002479 0.017062 -0.009277 -0.000244 -0.020890 -0.001496 0.014703 -0.002884 0.037858 0.006180 0.010931 -0.027562 0.007310 -0.030190 0.016440 0.018642 0.045404 0.009676 -0.004879 -0.010138 0.004384 0.035823 0.248167 0.009191 -0.023304 0.025268 -0.018413 0.020385 -0.009337 -0.029890 0.003081 0.033336 -0.015012 0.002589 0.011183 -0.026935 0.012134 0.190050 -0.005039 -0.010983 0.002657 -0.010513 -0.002789 -0.030921 -0.024350 0.065834 0.026403 -0.030508 0.088505 0.004956 0.016302 -0.004701 0.000025 0.008422 -0.000744 0.002692 0.016778 -0.015461 -0.022858 0.000100 0.025483 -0.009222 0.086853 0.003328 0.005413 -0.040531 0.010211 -0.005703 0.003487 -0.001464 -0.035138 -0.000627 0.041845 -0.002696 0.012184 0.006906 0.030439 -0.075954 0.032212 -0.016602 -0.004375 -0.003874 -0.014572 -0.018385 -0.044482 -0.016971 -0.018238 -0.031683 0.131167 -0.020461 -0.000605 -0.016581 0.003196 0.010231 0.009910 -0.017110 0.007077 -0.011249 -0.013599 -0.028745 0.030262 -0.028958 0.022749 -0.015655 -0.006910 0.028180 0.007691 0.021009 0.010367 -0.000613 0.007761 -0.009834 0.018349 0.007323 0.008958 -0.032578 0.021547 0.012386 0.023379 -0.025204 0.004140 -0.006408 -0.014303 0.027133 0.004788 -0.025055 0.185009 -0.002640 -0.026489 0.023626 -0.009886 0.004172 0.015812 0.003615 -0.006684 -0.004680 0.001069 -0.003756 -0.009135 0.011921 0.019448 0.016222 -0.003811 0.021518 -0.018900 0.001790 0.003578 0.022725 0.007607
louder -0.005195 0.001074 -0.008936 -0.021474 -0.001659 -0.023507 -0.007560 0.193984 0.007802 -0.012275 -0.349963 -0.019047 0.007111 0.006613 -0.012006 -0.021951 0.001196 -0.004026 0.004666 -0.006435 0.005242 -0.003624 -0.005070 0.014568 -0.011493 0.003845 -0.001836 -0.149589 0.002795 0.014490 -0.017799 -0.003812 -0.050949 0.005274 -0.009222 -0.017143 0.010291 -0.007694 0.159505 0.022453 0.029437 -0.001694 -0.003597 -0.000795 -0.004080 -0.016080 0.001533 -0.001587 -0.010921 0.016686 -0.002624 0.015755 0.004367 0.000653 -0.010744 -0.016883 -0.004731 -0.003714 0.000174 -0.009493 -0.002774 0.006903 -0.004376 -0.009943 -0.013410 -0.005302 -0.001045 -0.103939 -0.005972 0.009710 -0.000524 -0.021844 0.003671 0.026562 -0.019414 0.000398 0.013206 -0.005333 0.019985 -0.011978 0.010272 -0.011878 -0.000599 -0.021327 0.001137 0.011133 0.008509 -0.012202 0.158208 -0.004287 0.001334 -0.025883 -0.014885 -0.020871 -0.006724 0.020667 0.007319 -0.008510 -0.019146 -0.222562 -0.002892 0.010584 0.002251 -0.005418 -0.010400 -0.020406 0.035461 0.010520 -0.022860 -0.008591 -0.012152 0.006145 -0.008326 0.006895 -0.013110 0.017924 -0.001169 -0.005397 -0.000240 0.005791 -0.003899 -0.011596 0.004641 0.002025 0.016698 0.001911 0.006237 0.005511 -0.051638 0.023753 0.000933 0.018503 0.001509 -0.025452 -0.018085 -0.021628 -0.013018 -0.149135 0.006231 0.179915 -0.019106 0.005209 -0.001881 -0.020099 -0.003216 0.015895 -0.011468 0.002083 -0.015850 -0.002642 -0.020374 0.004417 -0.023233 0.001530 0.008025 -0.005965 -0.006410 -0.009914 0.011529 0.007962 -0.008061 0.036512 -0.019955 -0.001720 -0.026411 0.020851 -0.005144 0.017605 -0.003140 -0.001821 -0.019866 -0.019370 0.030798 0.002082 -0.030165 0.002106 -0.014169 -0.231583 0.012098 -0.011270 0.000320 0.005114 0.019160 0.016699 0.005791 -0.020911 -0.024921 0.020247 -0.017061 -0.018608 -0.002852 -0.007834 0.024598 0.032189 0.008581 -0.020072 -0.073180 -0.011346 0.014356 -0.006716
loud -0.026618 -0.024869 0.026300 0.012633 0.011925 0.029766 0.026294 -0.113677 -0.027528 0.012510 -0.161195 0.006859 -0.000655 -0.014560 -0.007662 0.022650 0.009790 0.004901 -0.008508 -0.013456 0.006785 -0.002256 0.039093 0.003258 0.019613 0.003781 0.017048 -0.137808 0.018025 -0.034189 -0.037793 0.028806 0.015997 -0.048633 -0.023344 -0.003767 -0.033772 -0.009684 -0.268442 -0.031845 -0.037751 -0.008645 0.003668 0.001016 0.024976 0.028018 0.019233 -0.014376 0.004697 -0.027119 0.002781 0.010774 0.025039 0.008811 -0.015365 0.018014 -0.001937 0.020496 -0.011707 0.013108 0.037377 0.022200 -0.008888 -0.010756 -0.010926 0.013803 -0.025826 -0.105055 0.014218 -0.002829 -0.017728 0.034162 0.031639 -0.239476 0.031391 -0.023852 -0.031705 -0.025072 -0.015059 0.024660 0.011361 0.042959 -0.001285 -0.008162 -0.019897 -0.008960 -0.279785 0.031543 -0.049705 0.012511 0.017768 0.012502 0.024822 0.003725 -0.002439 -0.009445 -0.027526 0.022692 -0.001380 -0.221263 0.033901 0.014997 -0.007299 0.018111 0.032941 -0.005880 -0.033130 -0.015098 -0.024002 0.013420 0.028289 -0.041474 0.035172 -0.045180 -0.012251 0.019452 0.009232 0.016122 -0.033896 0.010216 -0.012794 -0.024721 0.007206 0.007530 0.027560 -0.006891 0.008956 0.021180 -0.005879 -0.027103 -0.013020 0.015350 -0.000307 0.004897 0.024577 0.027981 0.006850 -0.235601 -0.036747 0.128288 0.001533 -0.024245 0.025357 0.000306 -0.007052 0.020145 0.008619 0.003106 0.023460 -0.001889 0.134287 -0.002968 0.007403 0.039599 -0.028814 0.013176 -0.003466 0.006331 -0.004107 -0.030133 0.036403 -0.054594 0.002862 0.021031 0.042021 -0.028622 0.005559 -0.016466 0.000485 -0.002981 -0.013236 0.023381 -0.023957 -0.033280 0.032545 -0.003956 0.000340 0.067195 -0.026301 -0.025932 0.039717 -0.002678 -0.025004 -0.011231 0.012825 -0.008918 0.026173 0.001743 -0.021156 -0.026452 -0.028919 0.028502 0.018907 -0.016078 -0.031842 0.007857 -0.123629 0.008529 -0.023509 0.018591
norway -0.008659 0.008090 0.002253 0.024944 0.008515 0.011446 -0.007285 -0.051192 -0.014343 0.016746 -0.132985 0.014924 -0.008290 -0.001000 -0.001835 -0.020634 -0.006164 0.018258 0.003846 -0.012390 0.005250 0.005024 0.000562 -0.001020 0.001837 0.009569 0.007687 -0.081386 0.000848 0.009519 -0.007096 0.004287 0.005213 0.018719 -0.004603 -0.018393 -0.012550 0.013999 0.121373 -0.003027 0.002036 0.015672 0.017174 -0.030736 -0.021469 -0.004026 0.014308 -0.015425 0.013407 -0.004567 -0.003202 -0.010692 -0.021376 0.000572 0.011696 -0.009043 -0.003260 0.001594 0.003652 0.003781 0.009273 -0.015564 -0.014316 -0.010932 0.033630 0.001976 0.010643 0.177439 0.011102 -0.004807 0.003515 -0.002225 -0.016455 -0.115844 0.002248 0.023604 -0.024228 0.028257 0.009733 -0.010319 0.004864 -0.011443 -0.004830 0.003428 -0.013721 -0.007911 0.146318 -0.001118 0.177578 0.016736 -0.007198 -0.000327 0.019602 -0.005302 -0.010758 0.008749 -0.011207 -0.018309 0.012542 -0.031353 -0.010394 -0.011439 0.001967 0.013368 0.007991 -0.008528 -0.002036 -0.016268 0.015615 -0.006235 0.006459 -0.000810 0.021770 -0.047856 -0.002056 -0.015165 0.006445 0.002101 0.014244 0.006480 -0.005906 -0.007875 0.008452 -0.008206 0.022778 -0.018830 -0.020633 0.012642 0.175195 -0.024661 0.025515 0.000876 0.011908 0.020617 0.019780 0.023275 0.014693 0.051008 0.030904 0.089712 0.000716 -0.003300 -0.011803 0.006479 0.016601 -0.004462 0.004172 -0.013398 0.010033 0.000669 -0.053207 -0.007356 0.018915 -0.005970 0.007926 -0.003612 0.016505 0.008644 -0.018413 0.032316 0.025377 -0.010825 0.028169 -0.016222 0.001731 -0.011255 0.006917 0.008044 0.006675 -0.006349 0.006412 0.008826 0.001087 0.020898 -0.008757 -0.004952 0.015816 0.465183 -0.004452 0.021630 -0.014274 0.009672 0.005559 -0.001345 -0.014153 0.007775 -0.003403 0.000083 -0.002383 -0.017085 0.014516 -0.006754 -0.024056 0.001117 -0.014877 -0.001728 0.008079 0.010639 -0.024262 -0.011076
ukraine 0.015578 0.003726 -0.018721 -0.006718 0.012714 -0.028899 -0.002462 0.015085 -0.024595 -0.015106 -0.080645 -0.015512 -0.002080 0.005587 -0.000937 -0.021396 -0.004459 -0.014057 0.013904 0.000656 -0.012143 -0.011999 0.000599 0.001296 -0.002302 0.015708 0.003446 -0.095084 -0.011627 0.008745 0.013614 -0.009890 0.001838 0.011864 0.006978 -0.009571 0.024467 0.004879 0.094961 -0.008411 0.027019 0.001112 0.002535 -0.011642 -0.009628 0.010316 0.023071 0.006696 -0.000385 0.016448 0.008801 -0.028351 -0.013868 -0.004723 -0.009092 -0.023689 0.008310 0.000322 0.025261 0.003217 -0.013415 -0.004041 -0.003212 0.022471 0.012552 -0.006299 0.015474 0.014398 -0.016046 -0.006372 -0.014524 0.005012 -0.001130 -0.228611 -0.002900 -0.003906 -0.000086 0.008051 0.023665 -0.010087 -0.011507 -0.026390 -0.004614 -0.009082 0.004275 0.001249 -0.183855 0.013708 0.170594 0.004231 -0.001913 0.001530 -0.001576 -0.006464 -0.015333 -0.015337 0.036257 0.014339 0.006857 0.059326 -0.007929 -0.036797 0.021052 0.003115 -0.006145 0.004949 -0.007887 0.008336 0.024988 -0.016188 -0.016018 0.017330 -0.011904 -0.091492 0.006433 -0.015512 -0.006773 -0.003469 0.005891 -0.001327 -0.008932 0.009217 -0.001210 0.011186 0.004681 0.010212 -0.011668 0.006474 -0.172505 0.009826 0.003565 0.012532 0.028784 0.014146 -0.025020 -0.017221 0.035022 0.324574 0.016090 -0.000301 -0.012038 0.015754 -0.028889 0.000374 -0.004780 0.000645 0.009349 0.013613 -0.009810 0.016434 -0.023425 0.010127 -0.018008 0.010960 0.017472 0.006558 0.005850 0.019499 0.000308 -0.012959 0.000269 0.011196 -0.012911 0.010025 -0.002591 0.006106 -0.011935 -0.008274 -0.002241 -0.003838 0.014795 -0.016954 0.018282 0.014791 -0.008679 -0.015012 0.011258 0.228878 0.009285 0.015279 -0.006077 0.005749 0.005173 0.014860 0.010699 -0.007781 -0.014498 0.010785 -0.016627 0.023293 -0.007779 -0.007862 -0.018105 -0.009041 0.019888 -0.014121 0.069461 -0.008606 -0.001176 0.002020
professional -0.005855 0.001214 -0.034214 -0.017927 0.002844 -0.008429 -0.014860 0.113818 -0.019295 -0.020496 0.263177 -0.020729 0.015193 -0.000032 -0.003153 0.008073 -0.014005 -0.018406 -0.001639 0.003492 0.016069 -0.001031 0.005516 0.016960 -0.012051 0.006804 0.014376 0.066609 -0.000837 -0.015837 -0.009409 -0.000402 -0.017725 -0.002813 -0.008772 0.013760 0.016027 -0.011247 0.351468 0.008387 0.023534 -0.011091 -0.020403 -0.001891 0.002301 -0.024045 0.016272 0.031692 0.007360 0.017325 0.006789 0.029090 0.009649 0.008560 -0.014541 0.020499 -0.005263 0.021028 -0.010465 0.009086 -0.014230 0.013071 -0.021050 0.008413 -0.005681 0.001094 0.014951 -0.023715 0.001118 0.013926 -0.011889 -0.009657 0.008174 -0.068064 0.017146 -0.025005 0.002150 -0.013734 0.014585 -0.005008 0.003610 -0.007056 0.034422 -0.010859 0.005486 -0.007676 0.076201 0.017101 -0.139279 -0.013230 0.014973 0.005017 -0.007099 -0.014246 0.007040 -0.018005 -0.058099 0.003747 -0.006278 0.088842 0.000403 0.029194 -0.016284 -0.001461 -0.004611 -0.019882 -0.011655 0.020678 -0.018960 -0.001858 -0.012217 0.015675 -0.008905 -0.061651 -0.006981 0.025146 0.003974 -0.026041 0.010427 0.018192 0.017342 -0.014719 0.011625 0.018295 0.016685 0.018323 0.011390 0.006156 -0.227355 0.031329 0.005250 -0.004249 0.004072 -0.017159 -0.026954 -0.026297 -0.024546 -0.213920 -0.012144 0.030717 -0.039774 0.014490 -0.012341 -0.037637 0.012437 0.008330 -0.016846 0.006351 -0.009913 -0.023009 0.228014 0.025828 -0.030410 -0.003706 0.002311 -0.019832 0.016668 -0.007730 -0.004384 -0.019185 -0.004853 0.010374 -0.009769 0.012279 0.003447 0.006837 -0.026713 0.008643 -0.021710 0.014542 -0.016143 -0.008234 0.018776 -0.023798 0.010504 0.032563 -0.009627 -0.004308 0.005780 -0.008407 0.009540 -0.029813 0.020784 0.040516 -0.007430 -0.010613 -0.008362 0.007006 -0.032149 -0.007382 -0.002048 0.013683 0.019465 0.015189 0.004463 -0.002696 -0.216464 0.004692 0.020494 0.016188
moving 0.015530 0.016537 0.025802 0.009924 0.000914 0.013703 -0.006999 -0.166690 0.011789 0.002625 -0.013555 0.011068 -0.001296 0.017920 -0.015751 0.000672 0.020771 -0.006680 -0.023262 -0.012355 -0.013885 -0.002443 -0.028341 0.011470 -0.008792 0.002007 -0.000221 -0.127474 0.007572 0.010491 -0.023903 -0.004579 0.008509 -0.004904 0.018845 -0.023588 0.012332 0.004250 0.046387 0.012412 0.002376 -0.018765 -0.006112 -0.010183 -0.002379 -0.000093 0.004138 -0.009021 0.003051 -0.000566 -0.004044 -0.000836 0.008917 0.027463 -0.020139 -0.016083 0.013795 -0.024894 0.036557 -0.015032 -0.001222 0.001667 0.020223 0.008823 0.005898 -0.009556 -0.018963 0.066782 -0.025026 0.017603 0.016127 -0.020751 -0.006075 0.307042 -0.008479 0.018502 0.009842 -0.011232 0.000802 0.007163 0.004103 0.000924 -0.026357 0.012183 0.002151 -0.014877 -0.006911 -0.006365 -0.087819 -0.015640 0.019703 -0.001598 -0.002220 -0.019045 0.022213 0.001923 0.045047 0.013262 0.008811 0.039218 -0.004486 -0.009624 0.034400 -0.016508 -0.001374 0.004346 0.020152 0.012180 0.016002 0.032022 -0.005532 -0.019609 -0.006642 -0.047491 0.025622 -0.005868 0.003186 -0.011158 -0.029975 -0.010416 0.004458 0.031568 0.004472 -0.027929 -0.017444 0.004796 0.000540 -0.029615 0.132032 0.002574 -0.010555 0.019666 -0.019256 -0.001517 -0.001909 0.018606 0.022013 0.214084 0.002932 0.181783 0.021972 0.006625 -0.006831 -0.009568 -0.026917 -0.018659 0.015366 0.014755 -0.016210 0.000503 0.245941 0.006342 0.000692 -0.012044 0.009694 -0.002120 -0.038607 -0.020806 0.010651 -0.020471 -0.003635 -0.001022 -0.018434 -0.001296 -0.008880 -0.002135 0.030862 -0.020865 -0.017613 -0.013692 0.002360 -0.014980 0.020279 -0.001126 -0.015749 0.001448 -0.004013 -0.013979 0.017764 0.013854 0.001095 0.007017 0.007941 -0.011061 -0.006641 -0.018465 0.005919 -0.012571 0.009186 0.018618 -0.001588 -0.013279 -0.008777 0.006004 0.016228 -0.011418 0.021075 0.000187 0.006279 0.013096
tough 0.001268 0.022479 -0.010794 -0.020100 -0.008306 -0.004447 0.007194 -0.265184 0.016221 0.012242 -0.014012 0.010920 0.002489 0.009666 -0.016162 -0.017627 -0.017917 0.019344 -0.013790 -0.013575 0.000869 -0.012932 0.002802 -0.005673 -0.001435 -0.010242 0.011644 0.123185 -0.010935 0.021448 -0.014613 0.010073 0.004353 -0.004971 -0.022070 -0.013071 0.011975 0.008610 -0.247773 0.017600 0.011543 0.011334 0.003175 0.004656 0.006515 -0.002832 -0.013524 -0.027707 0.018080 0.005129 0.020356 0.034056 0.010707 -0.013140 -0.014556 0.010497 0.016448 -0.009207 -0.007555 -0.027388 0.012226 0.008425 0.013379 -0.026407 -0.018491 -0.010232 -0.015667 0.108751 0.013562 0.003923 0.001339 -0.027848 0.007009 -0.264634 -0.029260 0.009139 0.005347 -0.004109 -0.007821 0.013503 0.015400 0.006847 -0.001405 0.004201 0.000492 0.003638 -0.005636 -0.038472 0.058664 0.002342 -0.005029 -0.028009 -0.020493 -0.013049 -0.000518 -0.006446 0.015716 -0.012161 -0.030054 -0.203598 0.008182 0.017370 -0.013923 0.007755 0.017677 -0.006350 0.028512 -0.004438 -0.015801 0.006230 -0.000657 -0.005525 -0.001611 0.033087 0.001283 0.037359 0.023236 -0.001315 -0.007681 0.021224 0.004357 -0.017377 -0.021145 -0.013941 -0.010714 -0.009431 0.020146 0.010576 -0.176875 0.014074 -0.007784 0.003227 -0.000943 -0.011209 0.015872 0.006500 -0.026096 -0.196600 -0.010923 -0.015301 0.018863 -0.020967 0.005605 -0.003885 -0.009519 -0.007461 -0.024907 -0.008877 -0.004215 -0.009714 0.197230 0.001809 -0.010587 0.005892 0.003568 -0.012629 -0.006321 0.001095 -0.004980 0.011311 0.005041 0.020339 -0.008696 -0.009046 -0.004470 -0.018727 0.001206 0.022671 0.001007 -0.003184 -0.025858 0.008874 0.003737 -0.011117 0.009026 0.007365 0.007974 -0.063586 0.007172 0.004541 -0.010088 0.022817 0.018145 0.008055 0.019753 0.008408 0.019782 -0.004236 0.000418 -0.021493 -0.006575 -0.003616 0.016824 0.011835 0.006636 0.009878 0.152200 -0.005771 -0.000447 0.012028
flying 0.006850 0.024699 -0.022483 0.016160 0.001699 0.009977 -0.012479 -0.240955 -0.001435 0.026162 0.013923 0.027931 0.010985 0.007876 -0.023957 -0.014674 -0.025064 0.016969 -0.008242 0.000377 -0.024844 0.004651 0.014488 -0.012981 -0.009146 -0.013874 -0.002573 0.150482 -0.005555 -0.006500 0.004933 0.020310 0.017471 0.017579 0.004769 -0.025103 -0.003534 0.003381 0.052597 0.002859 0.014095 0.023772 -0.002759 -0.012885 -0.013541 -0.007051 -0.000708 -0.009097 0.028245 -0.006907 0.020657 -0.005739 -0.015817 0.011702 -0.007399 0.009205 0.011579 0.002257 -0.008306 0.005300 0.003000 0.000595 -0.010147 0.000690 0.010267 0.017590 0.010099 0.136178 0.008735 0.009024 -0.003827 -0.020272 -0.014492 0.401660 -0.017767 0.020211 -0.021498 0.022485 0.009529 0.008377 -0.003299 -0.013372 0.004066 0.029927 0.011211 -0.006266 -0.130239 -0.014974 -0.019408 -0.001132 0.002129 -0.011006 0.010087 -0.018014 -0.007416 -0.001909 -0.053525 -0.007171 0.009066 -0.139853 -0.011794 0.001494 0.003191 0.017866 0.012855 -0.011976 -0.000473 0.003756 0.030810 -0.004641 0.006359 0.000309 -0.008044 -0.068075 0.019319 -0.000397 0.013260 -0.002789 0.005929 0.010817 0.008459 -0.018275 0.001816 -0.004926 -0.007336 0.004836 -0.018670 0.023349 -0.125196 -0.012888 -0.005799 -0.021520 -0.002812 0.026560 0.021827 0.029633 0.010415 0.162822 0.019347 0.089247 -0.002223 0.009716 -0.009337 -0.006634 0.011989 -0.028634 -0.010087 -0.000344 0.005533 -0.008935 0.084231 0.016036 0.028162 -0.005382 0.012802 -0.008763 0.000671 0.004621 -0.023652 0.031992 0.017965 -0.009561 0.024226 -0.024983 0.017266 -0.023412 -0.012202 0.016542 0.015676 0.021575 -0.003645 0.009181 -0.000450 0.027175 0.015767 0.010192 0.012527 0.129290 0.003418 0.007348 -0.011287 0.016361 0.000560 -0.018870 0.001291 0.021817 0.017620 -0.012665 0.000084 0.007219 0.016316 0.006615 -0.023786 -0.009332 -0.002500 0.002113 0.058056 0.018957 -0.024819 0.013110
professionally 0.019386 -0.016347 -0.015010 -0.011026 -0.013255 -0.010055 0.009226 0.024034 0.016232 -0.010768 0.252109 0.006355 0.011581 -0.048035 0.057193 0.038036 -0.014825 0.000576 0.029310 -0.003535 0.004151 0.019719 0.008285 -0.057558 -0.000375 -0.022260 0.011975 0.031733 -0.041651 0.018552 0.048715 -0.030576 0.007368 0.028593 0.016583 0.068433 0.007461 0.015653 0.153897 -0.007624 -0.033338 0.014453 -0.000296 -0.004718 0.002153 -0.013738 -0.025428 0.000688 -0.007403 0.005441 -0.017212 -0.008123 -0.033939 -0.041736 0.069029 -0.024246 0.012606 -0.020645 -0.025680 0.000489 -0.032058 -0.057770 -0.008496 0.011320 0.019625 0.010510 0.053184 -0.071555 0.008452 -0.047303 0.010682 0.010756 -0.000406 -0.031229 0.034564 -0.030672 -0.018581 0.020537 -0.008685 -0.001053 -0.044397 -0.014639 0.009291 0.010114 -0.004854 0.006445 -0.041528 -0.003007 -0.208380 0.006804 -0.057535 0.021566 -0.016382 0.046077 -0.012328 -0.025549 0.079896 -0.008822 0.001297 -0.381621 0.003739 -0.004152 -0.013874 -0.011776 0.014328 0.039099 -0.037635 0.003926 0.018427 -0.021520 -0.014191 0.022948 0.023730 0.029642 -0.006361 -0.022859 -0.029168 0.024106 0.019487 0.003488 0.019107 -0.002350 -0.027347 0.040157 -0.034359 -0.007146 -0.006496 -0.009516 0.146551 0.009682 0.023985 -0.043100 0.002427 0.012907 -0.000707 -0.008446 -0.019151 0.120559 -0.008514 -0.232691 0.017700 -0.012872 -0.002914 0.054878 0.025660 0.001807 -0.002215 0.005977 0.007017 0.020182 -0.026163 -0.001070 0.003739 -0.051545 -0.039054 -0.016735 0.045204 0.026644 -0.000357 0.029867 -0.010457 -0.020312 0.003150 -0.029348 -0.029903 0.022477 -0.028967 0.030255 0.003251 0.016228 0.024705 0.044886 -0.033285 0.029445 0.017383 -0.004243 0.007019 0.014075 0.007558 0.023732 0.005318 -0.005578 0.000470 -0.011922 -0.010243 0.022740 -0.013591 -0.024259 0.053738 0.032257 0.040984 0.003077 -0.037655 -0.044374 0.032502 0.030838 -0.170335 0.025770 0.006186 -0.019537
norwegian -0.014509 0.004063 -0.009422 0.017914 0.014878 0.009955 -0.004370 -0.017697 -0.016943 0.000590 0.083635 -0.033365 0.003823 0.008814 -0.001055 0.029911 -0.016571 -0.008474 -0.006825 0.019188 0.011056 0.008414 -0.004191 0.015493 -0.022217 0.002776 -0.007891 -0.173770 0.026913 -0.012361 0.027980 -0.012430 0.001327 0.003780 0.007818 0.001469 -0.006354 -0.019255 0.023202 0.007021 0.009922 -0.003677 -0.022454 0.024243 -0.005029 -0.002558 0.004672 0.029399 -0.028993 -0.001803 -0.004574 -0.005371 -0.014989 0.015529 0.001535 0.006506 -0.023633 0.015961 -0.014333 0.015768 -0.009323 -0.010417 0.012075 0.026479 0.004414 -0.007617 0.024499 0.210190 0.000253 0.002922 -0.004509 0.003606 -0.032645 -0.065046 0.030196 -0.005264 0.004178 -0.015895 -0.002963 -0.028110 -0.001550 -0.001579 0.015501 -0.006635 0.021900 -0.002609 0.026040 0.032539 -0.050207 -0.017544 0.017475 0.015083 0.000528 0.000010 0.023860 -0.008842 -0.055851 -0.006041 0.021764 0.080205 0.004054 0.005541 -0.007508 0.007820 -0.002027 0.007181 0.001881 0.008713 0.004665 0.017736 -0.004031 0.007902 -0.008693 0.039325 0.004495 -0.017996 -0.004145 -0.033913 0.020871 -0.012170 0.016589 0.025207 0.023760 -0.012423 -0.010471 0.023687 -0.028373 -0.024452 0.172588 -0.002054 0.006420 -0.019477 -0.019765 0.008270 -0.027495 -0.010228 0.006079 -0.087010 0.019076 -0.017780 -0.012392 0.024633 0.010251 -0.003270 0.004503 -0.013403 0.017545 -0.002160 0.013443 -0.022223 -0.262588 -0.001813 -0.003538 -0.008942 0.011321 0.010829 0.021084 -0.025732 0.005346 0.003237 -0.029443 -0.030850 -0.007949 0.006354 0.016694 0.009269 -0.006535 -0.011902 -0.010756 0.015190 -0.003906 -0.022716 0.018322 0.003506 0.000266 0.018972 -0.009819 -0.176181 0.008271 -0.007206 -0.004750 -0.042876 -0.008401 0.006906 -0.006636 -0.001982 -0.002034 0.012120 0.000530 0.020214 0.002637 0.004186 -0.002692 0.010101 0.000554 0.005644 -0.023167 -0.006171 0.008178 0.003409
argentinean 0.030187 0.012165 0.012609 -0.006971 -0.001748 -0.002027 -0.015040 -0.027422 -0.000406 0.002626 -0.063037 0.003737 -0.013925 0.026186 -0.029870 0.004250 -0.003756 -0.018588 -0.022912 0.004074 -0.019256 -0.028259 0.001408 0.024726 -0.014337 0.004844 -0.016161 0.104484 0.016762 -0.007047 -0.015721 0.032911 0.018502 -0.027743 0.009004 -0.035584 0.022055 -0.001832 -0.004002 -0.024080 0.041824 -0.008327 -0.010372 -0.005650 -0.000515 0.013161 0.026811 0.004553 -0.011379 0.008071 0.000492 -0.016744 0.016749 0.036262 -0.053784 0.015546 0.009192 -0.004552 0.017864 0.003454 0.021078 0.026973 0.006135 0.015603 -0.017534 -0.001909 -0.022495 0.001092 -0.026819 0.016354 -0.032270 -0.010150 0.025699 -0.016868 -0.012406 0.001958 0.014839 -0.009233 -0.004568 0.015332 0.009710 0.013374 0.000683 -0.013563 0.030757 -0.018943 -0.050450 0.002085 -0.276276 -0.009331 0.042369 0.009290 0.006297 -0.035848 0.006811 0.000385 0.031102 0.049560 0.006543 0.182948 0.001175 -0.017617 0.025998 0.000536 0.002957 -0.010643 0.000938 -0.000307 0.033200 0.021097 -0.001995 0.001509 -0.011559 0.139569 0.041246 -0.002168 -0.007895 -0.009882 -0.028975 -0.015370 -0.001230 0.002797 0.015341 0.009305 -0.005908 0.024177 0.010286 0.006760 0.046175 0.008068 -0.020248 0.020450 -0.003692 0.006394 -0.017594 -0.001861 0.029707 -0.085673 -0.025210 -0.005442 -0.008796 0.018899 -0.009652 -0.034358 -0.029550 -0.023758 -0.008876 0.012291 -0.018636 -0.012648 -0.259457 0.037157 -0.014616 0.030533 0.012153 0.002861 -0.015401 -0.013090 0.017880 -0.029562 0.016005 0.023005 -0.011048 0.028515 0.017965 -0.017181 0.007172 -0.037260 -0.006592 0.008622 -0.008889 -0.032917 0.011954 0.003226 -0.008551 0.009913 -0.014236 -0.248767 0.012562 -0.006548 0.013394 0.000002 0.009316 0.004004 0.012384 -0.021263 -0.002262 -0.008490 -0.017658 0.015262 -0.047235 0.012020 -0.008685 -0.007915 0.001483 -0.023576 -0.038473 -0.003996 0.006424 0.043762
ukrainian 0.034114 -0.025134 0.005621 0.019834 -0.027265 0.014519 -0.001530 -0.023700 0.026852 -0.010763 -0.013926 0.026932 -0.003610 -0.033486 0.010927 -0.000721 0.028443 -0.002856 -0.010272 -0.016819 0.010859 0.012884 -0.005496 -0.025884 0.014479 0.002431 0.012058 0.105879 -0.005118 0.028681 0.005118 -0.009970 -0.019874 0.008681 -0.034852 0.010092 -0.014660 -0.004067 0.081702 -0.011646 -0.007950 0.005140 0.018513 -0.001855 -0.012959 -0.008877 -0.042228 -0.039402 0.013250 -0.041765 -0.013802 0.004201 -0.008721 -0.032392 0.012125 0.004365 0.010361 -0.029602 0.017973 -0.021611 0.014193 -0.003968 0.036925 0.000904 0.013123 0.022927 -0.021766 0.129646 -0.007682 -0.003354 0.022197 0.007687 0.002533 -0.039401 -0.001969 0.005759 -0.020530 0.009361 0.015751 0.021504 0.020389 0.006150 -0.009443 -0.012650 -0.034773 0.005322 -0.159951 0.001451 0.082495 0.016477 -0.012404 -0.013369 0.008638 0.007514 -0.009220 -0.000005 0.062164 -0.010913 0.015241 0.211662 0.010197 -0.015474 0.011194 -0.000740 0.021722 0.030348 -0.009497 -0.016010 0.017562 0.002540 0.010925 -0.029431 0.026913 -0.127853 -0.031463 -0.005714 -0.007697 0.016008 0.004827 0.006235 -0.015140 -0.003972 -0.034723 0.005812 -0.025715 -0.019780 0.002282 -0.018930 -0.007441 -0.030005 0.006657 0.000261 0.005681 -0.001473 0.018715 0.017100 0.007763 -0.069148 -0.007347 -0.262181 0.034744 -0.015761 -0.001593 0.049290 -0.019700 0.028065 0.005906 0.008979 0.007112 0.040124 -0.135582 -0.026790 0.009723 0.002163 -0.008302 0.006080 0.011607 0.008619 -0.001256 0.001717 -0.002625 -0.013191 0.003518 -0.023831 -0.023245 0.012124 0.031093 0.009913 0.015790 -0.030077 0.017669 0.026136 -0.014859 0.027785 -0.021324 -0.027869 -0.006936 -0.296068 -0.014275 0.016452 0.023936 0.023397 -0.024976 -0.013613 0.003549 0.011967 0.020883 -0.015344 0.050662 -0.009080 -0.014351 -0.023230 -0.025174 -0.018080 -0.016413 0.015060 -0.104693 0.000999 -0.031219 -0.008981
occasional 0.031110 0.018879 0.009543 -0.008723 -0.008398 -0.012413 -0.021325 0.055611 0.021387 0.003776 0.223294 -0.000693 -0.007340 0.015855 -0.006343 -0.015723 0.001509 -0.016987 -0.007043 0.002342 -0.013464 -0.008691 -0.011345 0.012312 -0.015394 0.004310 -0.025919 -0.126591 -0.007995 0.003304 0.004480 0.009408 0.009051 -0.004548 0.020499 -0.005405 0.030338 -0.004442 0.176706 -0.001562 0.029395 -0.005415 -0.001687 -0.007794 -0.015748 0.006905 0.020340 0.000621 -0.008236 0.025412 -0.015204 -0.021532 -0.008194 0.016387 -0.012441 -0.027786 0.006813 -0.025701 0.027262 0.009849 -0.002242 -0.016073 0.006171 0.000337 0.006232 -0.006250 -0.002714 -0.113511 -0.031034 0.004824 -0.011555 -0.013996 0.006461 -0.030281 -0.008650 0.017697 0.020272 0.006252 0.000923 -0.009669 -0.012057 -0.013429 -0.020054 -0.005142 0.021147 -0.015190 0.059072 -0.004765 -0.080672 -0.007959 0.010551 0.012722 -0.003937 -0.009045 -0.006633 0.000910 0.084773 0.018385 0.000394 0.108529 -0.017470 -0.026721 0.027817 -0.020041 -0.012167 -0.004213 0.025404 0.012863 0.032013 0.008881 -0.011311 0.019814 -0.006091 -0.143836 0.031168 -0.022387 -0.019794 0.003426 -0.008248 -0.028869 -0.003905 0.016393 -0.005942 0.000743 -0.006814 0.007129 0.001271 -0.009359 -0.306367 0.008437 0.001054 0.016983 -0.000396 -0.006478 -0.019974 -0.018443 0.020301 -0.223306 0.002345 0.021957 -0.001339 0.010363 -0.026432 -0.015633 -0.014588 -0.025837 -0.001555 0.014125 -0.021813 0.003680 0.075679 0.013474 -0.011560 -0.007460 0.014229 -0.009734 -0.013468 0.005033 0.029611 0.002160 -0.010241 0.030979 -0.012939 0.013942 -0.011499 0.006966 0.016157 -0.023435 0.003889 -0.007789 -0.013481 -0.024217 0.013094 0.020502 -0.016473 0.000986 -0.016566 0.074816 0.021718 0.022059 -0.000104 0.011893 0.022393 -0.006681 -0.003676 -0.012769 -0.016020 -0.013657 -0.006888 0.019089 -0.012362 -0.008255 -0.015663 -0.005790 0.029298 -0.024815 0.132233 -0.007041 0.012382 0.009587
denmark 0.015549 0.013413 0.023618 0.010929 -0.024884 0.003155 0.006757 -0.149134 0.032514 0.016259 -0.056434 0.006995 0.009921 -0.005948 -0.011227 -0.013643 -0.005144 0.012606 -0.024052 -0.010787 -0.017333 0.001694 0.012042 -0.033567 0.013608 -0.015649 -0.007549 0.048024 -0.014166 0.027775 -0.011033 0.019474 0.003338 -0.008342 0.003478 -0.010758 0.003703 0.002869 -0.017375 -0.004984 -0.010766 0.014013 0.005252 -0.002121 0.014713 0.023570 -0.023333 -0.022649 -0.012857 -0.018657 0.005488 0.000408 -0.008491 -0.006131 -0.006327 0.013105 0.019360 -0.027042 0.000253 -0.030270 -0.001242 0.009138 0.019143 -0.007887 -0.015517 0.010936 -0.018913 -0.187438 -0.009186 0.003430 -0.005447 -0.004900 -0.017231 -0.146859 -0.039278 0.010225 -0.007508 0.003813 -0.020658 0.034141 0.016927 0.005750 -0.019710 0.007458 0.008096 0.016884 0.169521 -0.035784 0.141893 0.002098 -0.012661 -0.018782 -0.012926 0.003463 0.004065 0.007809 0.025767 -0.005928 -0.000362 0.097692 0.004169 -0.008151 0.002256 -0.011118 0.012855 -0.005412 0.003798 0.000775 0.008510 0.005091 0.008715 -0.011330 -0.015917 0.227204 0.004696 0.015932 0.022372 0.010491 -0.015222 0.010842 0.000190 -0.007770 -0.021000 -0.016689 -0.026729 0.000377 -0.002032 -0.005534 -0.026478 -0.008715 -0.013917 -0.011383 -0.011371 0.004761 0.012622 0.002593 0.000289 0.167154 0.004928 0.003632 0.024420 -0.010768 0.017123 0.002425 -0.013182 -0.011892 -0.020047 0.006699 0.009739 0.006612 -0.034318 -0.002086 0.024739 -0.017397 0.001555 -0.001253 -0.029166 0.001555 0.005478 0.003395 0.005349 0.010690 -0.006985 -0.013481 -0.026925 -0.006287 -0.002356 0.007993 0.009073 0.011517 0.004877 0.009883 -0.003393 0.010144 -0.007817 -0.004836 0.007891 0.293100 0.009615 0.004080 0.001030 0.036004 -0.007062 -0.029425 0.019585 -0.003792 0.001238 -0.026208 0.033228 0.008501 -0.012192 0.006797 -0.002383 -0.010694 -0.007233 0.013721 -0.178307 0.000144 -0.021657 -0.001389
