hanoi 0.173889 0.010142 -0.042255 0.147297 -0.111946 0.037138 -0.012075 -0.101282 -0.128810 -0.237150 0.049039 0.032822 0.014137 0.089816 0.024541 -0.302406 -0.038110 -0.017536 -0.055733 -0.167996 0.093110 0.039675 0.206496 -0.014222 -0.014317 -0.109380 -0.169409 -0.222516 -0.126213 -0.118574 -0.192950 -0.065584 0.044478 -0.222250 -0.004838 0.068354 -0.024078 0.034428 0.053820 0.029533 0.059123 0.135675 -0.038246 -0.186647 -0.162758 0.106464 -0.044702 -0.175477 -0.142858 -0.002296 0.058829 0.019934 0.006820 0.033942 0.033763 0.014944 0.073332 -0.144087 0.155866 -0.112878 -0.058777 -0.054844 -0.203530 -0.105048 0.131612
tougher 0.074730 0.063900 0.095498 0.073008 -0.064725 -0.021146 0.132249 -0.120355 -0.003957 0.012124 0.140781 -0.028009 -0.036102 -0.286373 -0.037233 -0.124904 0.019129 -0.233767 0.266869 0.022741 0.019188 -0.042644 -0.146939 -0.079434 -0.090541 0.067618 0.016375 -0.022481 -0.150199 -0.099277 0.042009 -0.057217 0.139712 0.009710 0.070371 -0.035381 0.180429 -0.106120 0.098459 0.058342 0.004713 0.073202 0.125118 0.017624 -0.063701 0.074975 0.020611 0.064035 -0.036288 -0.302313 -0.151745 0.063776 -0.000451 0.026880 0.266246 -0.042130 -0.025002 -0.152329 0.015800 -0.166741 -0.138083 -0.021741 -0.178723 0.184493 0.033620
occasionally -0.048875 -0.025668 -0.010913 -0.010513 -0.083465 -0.154743 0.073691 0.058347 -0.097403 0.080580 0.070562 0.112436 0.134171 -0.124552 0.095270 -0.110175 0.136537 0.075256 -0.168783 0.053682 0.104577 0.015188 -0.221400 -0.188621 -0.165961 -0.059877 0.043794 -0.033349 0.106593 -0.041589 -0.250833 -0.023488 -0.017464 0.185736 -0.073964 0.053455 0.045517 -0.082300 -0.058950 0.177731 -0.022149 -0.070850 0.027055 -0.148482 -0.280779 0.089715 0.180042 -0.183459 -0.065103 -0.005706 0.067496 -0.007715 -0.128045 -0.118758 -0.101983 0.149130 -0.093131 0.130124 0.108879 -0.281562 0.012406 -0.079774 0.118636 -0.036294 0.042638
ukrainian 0.017498 0.029997 -0.075896 0.250123 -0.072645 0.123360 -0.058310 0.056040 0.211376 -0.006076 0.024360 -0.044637 -0.075278 0.078443 -0.019533 -0.092942 0.351145 -0.072354 -0.305525 0.077235 0.145649 -0.010282 -0.144649 -0.028549 0.075337 -0.075050 0.234381 0.138212 -0.016998 -0.015060 -0.039835 0.046579 0.010350 -0.166674 -0.078931 0.167614 -0.190455 -0.071930 0.083933 -0.093378 0.178893 -0.067323 -0.116503 0.054863 0.051341 0.004620 -0.148079 0.011271 0.019633 0.018034 -0.071821 -0.064031 0.065559 0.061579 -0.067988 0.112392 -0.058994 0.020666 -0.042305 0.034712 -0.130968 0.181071 0.079973 0.042025 -0.126261
occasional -0.003400 0.039002 -0.185943 0.052865 -0.138657 0.073756 0.200292 0.103816 0.013453 0.214733 0.203214 0.033844 0.113695 0.040531 0.098502 -0.089151 0.133528 -0.074035 -0.133591 0.020361 0.016854 0.044645 -0.224933 -0.030313 -0.210880 0.159067 0.153578 0.035362 0.007246 -0.138424 -0.170389 0.038903 0.020572 0.279533 0.051543 0.183993 0.028328 -0.047715 -0.069595 0.107475 -0.121409 -0.034282 -0.005111 -0.101517 -0.049875 0.064597 0.095936 -0.069313 0.063205 -0.054058 -0.071009 -0.071681 -0.080166 -0.029118 -0.207985 0.019326 -0.044761 0.081760 0.024537 -0.166072 0.135119 0.027779 -0.133883 -0.119612 0.058903
norway 0.043490 0.093004 -0.092019 -0.163663 0.175620 -0.089194 0.265734 0.070543 0.024026 -0.053106 -0.050633 -0.048386 0.146266 0.111825 -0.024692 -0.060701 0.097610 -0.175385 -0.083666 0.037553 -0.018188 0.026980 0.041832 -0.138279 -0.241648 0.222783 0.080838 0.017555 -0.128145 0.020112 0.076358 -0.205037 -0.021128 -0.040886 0.051435 0.020196 -0.073481 0.057467 0.174370 -0.105707 0.013397 -0.095424 -0.225172 -0.009698 -0.033416 -0.039313 -0.069204 0.012802 0.226088 -0.085896 -0.153707 -0.080563 0.083942 -0.023553 -0.049609 0.173648 0.000245 -0.091876 0.008362 0.103052 0.012228 -0.112932 -0.089862 -0.056255 -0.138953
baghdad -0.060295 0.070925 0.056382 0.067643 -0.102382 0.194454 0.015719 -0.106736 -0.107983 -0.090754 0.192006 -0.157735 0.094691 0.012786 0.168725 -0.095545 -0.099077 -0.109074 0.072411 0.240010 -0.051149 0.083093 0.117092 -0.211875 -0.014909 -0.033493 -0.152853 0.042288 0.014579 -0.122555 0.003846 -0.171984 -0.275465 0.075894 -0.020352 -0.035729 0.108992 -0.267077 -0.050621 0.028080 -0.048964 0.086672 -0.019728 -0.008022 0.173354 -0.066247 -0.010859 0.100813 -0.044037 -0.058867 0.012332 -0.038560 -0.069497 -0.154049 0.075017 0.000976 -0.094112 -0.254338 -0.043557 -0.080760 0.101115 0.068428 0.181775 0.171239 -0.136915
illinois -0.008473 -0.127721 0.233245 0.017709 -0.206498 -0.010406 0.131840 -0.002682 0.062717 0.015565 -0.120069 0.046308 0.021624 0.096065 -0.148801 -0.154244 0.056047 0.092101 0.117569 0.236860 -0.088230 -0.023438 0.044385 -0.071415 -0.004051 0.070481 -0.079472 0.145995 0.193188 -0.056276 0.003740 -0.076627 -0.231741 0.145438 -0.047939 0.199769 -0.055413 -0.003666 -0.046697 0.013511 0.011428 0.031792 -0.023905 0.054683 -0.146474 0.000373 0.189316 -0.014941 -0.025367 0.174230 -0.002690 0.154187 0.087111 0.135634 0.133317 -0.015252 0.131266 -0.026422 0.111787 -0.293580 -0.001096 0.024244 0.032297 0.083867 0.075135
moving -0.012694 0.001665 -0.114403 0.192414 -0.012189 -0.074261 -0.294676 0.064460 0.105605 0.085581 0.015666 -0.114061 -0.041460 -0.397712 0.104254 -0.134758 0.229935 0.062328 -0.043877 -0.162054 -0.043803 -0.008863 0.193093 -0.030739 -0.006829 0.018788 -0.127447 -0.019809 -0.045862 -0.043774 0.025646 0.093126 -0.161749 0.100040 0.008572 0.155838 0.035082 -0.152738 -0.119625 -0.222649 0.038408 0.032204 -0.078595 -0.055645 -0.022202 -0.094055 0.039681 0.266090 0.100478 -0.138225 0.034520 0.085635 0.074958 0.140546 -0.214876 -0.115626 -0.107305 -0.054489 0.117816 0.175386 -0.019897 0.018637 -0.017358 -0.049158 0.105448
loud -0.087437 -0.115860 0.060846 -0.096795 -0.183034 0.205567 -0.006127 -0.037455 -0.069671 -0.101338 0.199159 -0.046477 0.090566 -0.090721 0.088324 -0.146012 -0.050376 0.207782 -0.098644 0.048116 -0.041352 0.018417 0.079553 -0.141378 -0.163670 0.159948 -0.138209 -0.092026 -0.051442 -0.230390 0.015416 -0.111308 -0.006740 -0.107401 -0.066203 0.012191 0.137456 0.015358 0.023928 0.109423 0.097586 0.256778 -0.048508 0.131316 0.041366 0.162420 -0.015946 -0.130064 0.053473 0.003944 0.007516 0.046880 0.007340 -0.005508 -0.083159 -0.209335 0.048904 -0.019877 -0.269850 0.010588 -0.046985 -0.035271 0.068515 -0.109101 -0.008311
thai -0.251144 -0.108105 -0.035402 0.002282 -0.076515 0.037303 -0.049360 -0.004354 -0.061008 0.043815 -0.151259 -0.004192 -0.073913 -0.119550 -0.119174 -0.144652 0.128663 -0.036908 0.054301 0.100997 0.013646 0.086138 0.085988 0.055802 0.042318 0.162947 0.004926 -0.082649 0.156017 0.042226 -0.027095 -0.131140 -0.101440 0.064931 0.072233 -0.070529 -0.002012 -0.073875 -0.219380 0.089531 0.036487 -0.185726 -0.120600 -0.133431 -0.114279 0.186570 0.071130 -0.109735 0.082773 -0.049531 -0.107901 -0.024545 -0.154734 0.079731 0.192438 -0.123841 -0.234516 0.115398 0.103608 0.014076 0.027154 0.109356 -0.078893 -0.171098 0.005547
croatian 0.271473 0.184361 -0.084546 -0.019786 0.098019 0.178486 0.061427 0.227546 0.117979 -0.000753 0.114856 0.001806 0.057756 -0.118191 -0.125789 -0.000121 0.151218 0.215835 0.067365 -0.062517 -0.000498 0.177776 0.021091 -0.010163 0.033614 -0.170643 -0.132671 -0.088770 0.105169 -0.025357 0.007230 -0.110490 -0.100466 -0.060481 0.249951 -0.048243 -0.117270 0.051575 -0.058381 0.042211 0.004683 0.124920 -0.259516 0.104196 -0.034384 0.027183 0.183673 0.119848 -0.051222 -0.061992 -0.169371 0.061090 0.052848 0.122748 0.113677 -0.129443 -0.107870 0.157760 0.103313 -0.132086 0.130129 -0.102052 -0.031126 -0.047034 -0.125923
argentina 0.165361 -0.044161 0.206691 -0.056326 0.150939 0.218193 -0.032331 -0.116568 0.079128 -0.063091 -0.057529 0.050340 0.022550 -0.158963 0.078312 -0.104790 -0.099164 -0.171091 -0.065853 0.134836 -0.059923 0.228262 -0.044797 0.015972 -0.055093 0.046298 -0.044112 -0.219602 0.167747 0.002414 -0.108450 0.030253 -0.066642 0.081016 -0.004963 -0.098709 -0.111607 0.018702 0.012910 -0.044254 0.031514 -0.116075 0.112422 0.167832 0.145674 0.062265 -0.074679 0.054402 -0.043499 -0.096993 0.074843 0.228553 0.173902 0.015517 -0.069368 0.062802 -0.158689 0.142938 0.167222 0.032957 0.012531 -0.003650 -0.118324 -0.098297 -0.012749
vietnam 0.084694 -0.079668 0.012751 0.087712 -0.134230 0.084354 -0.113814 -0.196587 -0.258926 -0.259352 -0.109701 0.063087 0.186470 -0.068014 0.045148 -0.055665 0.064418 -0.011251 -0.114101 -0.085277 0.014704 0.045744 0.027081 -0.088800 -0.057553 -0.131049 -0.173307 -0.031868 -0.057780 -0.070299 -0.175997 -0.096074 0.128472 -0.086243 0.247424 0.269020 0.051370 0.135070 0.176072 -0.004401 -0.000113 0.150199 -0.103957 -0.138291 -0.227905 0.051831 -0.183756 0.050131 -0.008368 0.134862 0.243274 0.081988 -0.067360 0.100366 0.031032 0.099696 0.087298 -0.111600 0.124737 -0.008340 -0.008014 -0.000255 -0.019790 0.011108 0.182258
norwegian 0.002072 0.092935 -0.092490 0.002480 0.053261 -0.159290 0.206907 0.080399 0.082198 -0.014768 -0.035260 -0.197001 0.122881 -0.067879 0.037107 -0.049463 0.091390 -0.197709 -0.049787 -0.047667 0.069281 -0.065109 0.097548 -0.276513 -0.048744 0.228645 0.020555 0.109696 -0.175915 0.124879 0.003333 -0.212620 0.015027 -0.059514 0.127428 0.053450 -0.109387 0.021782 0.117197 -0.146560 0.017455 -0.162485 -0.192869 -0.174453 -0.116872 0.031874 -0.113318 -0.139646 0.043450 -0.015303 -0.184541 -0.090837 0.043736 0.110915 0.005084 0.198187 0.075661 -0.089468 -0.045672 0.228382 0.002153 -0.146754 -0.268839 0.042479 -0.075147
professionally -0.046746 0.131863 -0.049139 0.004827 -0.046271 -0.096882 0.151593 -0.086947 -0.109809 -0.041723 0.093920 0.179139 0.155895 0.098314 0.056806 -0.097439 0.086171 0.073148 0.016542 0.100011 -0.043611 0.106069 0.042488 0.023184 -0.138380 -0.008376 0.043310 0.187864 -0.130551 -0.260043 -0.084804 -0.065234 -0.069239 0.212179 0.030863 -0.048939 -0.110567 0.032941 -0.107798 0.172752 0.095541 -0.097047 -0.098607 0.034984 0.204296 -0.028079 0.070121 -0.073738 -0.164492 0.121528 -0.169233 0.109363 -0.030405 0.088254 0.006846 0.056512 -0.094000 0.013847 -0.159161 0.083675 -0.129919 0.168127 -0.180883 0.021558 -0.037952
argentinean 0.090816 -0.149920 0.151952 -0.117213 -0.022052 0.197468 -0.180804 -0.012515 -0.014893 -0.023622 -0.109508 -0.047306 -0.018875 0.010521 0.219363 -0.174750 -0.093982 0.022615 -0.139332 0.208009 -0.040203 0.133681 0.116220 0.098913 0.012075 0.056418 0.003618 -0.326598 0.137538 0.006008 -0.216580 -0.044551 -0.098219 -0.083250 -0.031718 0.006844 0.029987 -0.177001 -0.009742 -0.028514 0.168802 -0.163236 0.073811 0.123094 0.160591 0.121547 -0.036735 0.149176 0.036449 -0.106476 -0.067874 0.019608 0.153632 0.101336 0.090579 0.090374 -0.109688 -0.059762 0.174282 0.113385 -0.098228 0.049035 -0.053998 0.083193 0.056178
louder -0.062312 -0.145174 0.083246 0.085117 -0.202321 0.176572 -0.076675 -0.107497 -0.032326 -0.164428 0.056326 -0.074934 -0.017740 -0.027570 0.118527 -0.132486 -0.002314 0.103571 0.097375 0.225190 -0.016714 0.018175 -0.132082 -0.089612 -0.025884 0.098797 -0.090387 -0.063842 -0.062020 -0.165162 -0.149359 0.137432 0.116462 -0.133738 -0.045747 0.145402 0.076639 -0.071972 0.128981 0.149556 0.032694 0.150121 -0.149298 0.196165 0.051230 0.092096 -0.128660 -0.118853 -0.065176 0.091375 0.129831 0.002406 0.033612 0.188920 0.009667 0.025581 0.008369 -0.046042 -0.198913 0.036255 0.162319 0.125241 0.025165 -0.221144 -0.097262
chicago 0.040327 -0.015800 0.065960 -0.102070 -0.205354 -0.069517 0.079353 -0.048819 0.227879 -0.027162 0.039831 -0.036445 0.150674 0.034901 -0.157709 -0.172516 0.124834 -0.122647 0.175572 0.231614 -0.119382 0.144635 0.062936 0.190639 -0.093466 -0.030959 -0.108981 0.042597 0.108837 -0.038457 -0.164443 0.098411 0.072737 0.077268 -0.048013 0.269789 0.002653 -0.206764 0.011705 -0.087879 0.014968 0.055333 0.087975 -0.055157 -0.270246 0.099598 0.035374 -0.282476 -0.060318 0.058906 -0.210364 0.256359 0.081341 -0.025922 -0.053734 -0.072819 0.143144 0.053521 -0.067683 -0.166778 0.062151 0.121868 0.147795 -0.027544 -0.077497
move -0.060086 0.008241 -0.031920 0.033918 0.067150 -0.082799 -0.182934 0.094021 0.082123 -0.112845 0.145014 -0.067732 0.045986 -0.075786 0.087241 -0.151613 0.215704 0.028198 -0.019438 -0.145808 -0.000864 0.085869 0.096836 0.052026 -0.117622 0.056145 0.143624 -0.046361 -0.119616 0.022676 -0.057928 -0.141317 -0.125089 0.059419 -0.047493 0.121868 -0.067736 0.104244 -0.075668 0.020786 0.016039 -0.001084 -0.160979 0.038975 -0.087035 -0.074107 0.085118 0.142483 -0.028751 -0.141538 0.040533 0.108869 0.143444 0.194254 -0.151184 -0.117457 -0.089289 0.056127 0.083097 0.051323 0.016190 0.098364 -0.060780 -0.157339 -0.019889
thailand -0.073394 -0.032539 -0.128560 0.077813 -0.080948 -0.035024 -0.067044 -0.097127 -0.007284 0.127151 -0.152303 -0.095558 -0.035230 -0.101785 -0.080209 -0.196323 0.126811 -0.058691 -0.092411 0.138687 0.161705 0.197028 0.138094 0.042326 0.048735 0.166460 0.034414 -0.123095 0.137108 0.112945 -0.011036 -0.026197 -0.101475 -0.029442 0.014809 -0.225832 0.091649 -0.032877 -0.018132 -0.003802 0.048997 -0.026739 -0.159423 0.013333 -0.179540 0.037674 0.001041 0.004397 0.103377 0.063352 -0.171319 -0.183653 0.050666 0.214232 0.213172 0.005228 0.011721 0.147387 0.001426 -0.109115 0.158592 0.162093 -0.176400 -0.073791 0.057989
ukraine -0.070281 0.144815 -0.068123 0.264812 0.041865 0.138054 -0.007372 -0.130575 0.122105 -0.153550 -0.054834 -0.034478 0.215882 0.092961 -0.105771 -0.082034 0.106375 -0.174995 -0.292130 0.112461 0.108504 -0.073649 -0.149966 -0.092702 0.026264 0.093993 0.165210 0.138297 -0.049594 -0.080660 -0.064023 0.174691 -0.038196 -0.205485 0.043930 0.083954 0.029537 0.043105 0.090632 0.046635 0.076107 0.039221 -0.124296 0.104570 0.117530 0.069197 -0.131185 0.122324 0.012604 -0.026185 -0.040385 -0.160315 0.222545 -0.033277 0.088417 -0.018818 0.065829 -0.021812 -0.014922 0.145677 -0.134791 0.131073 0.158816 -0.013721 0.061841
plano -0.011720 0.190028 0.088768 -0.112111 -0.006987 -0.005079 0.058398 -0.018940 0.074810 -0.036373 -0.130302 0.064147 -0.061256 -0.014060 -0.131749 0.002720 0.187930 0.157800 -0.006475 0.059276 -0.288055 0.055122 -0.002892 -0.134942 -0.018698 0.044141 -0.073226 0.107379 -0.100690 0.043069 -0.259918 -0.122523 -0.086325 -0.019535 -0.146871 -0.041829 0.018508 -0.238617 0.227777 -0.071701 -0.074910 0.153400 0.118527 0.081443 0.224737 0.328068 0.034446 -0.200464 0.164582 -0.061033 -0.012165 -0.034794 0.122579 0.042924 -0.134523 0.014746 -0.033601 0.028839 -0.017729 0.030329 0.064777 -0.006369 -0.040764 0.003620 0.114711
texas 0.057925 0.138444 0.145173 0.019344 0.053811 -0.011460 0.050440 -0.174056 0.323849 -0.051793 -0.103304 -0.080877 -0.111972 -0.059928 -0.223066 0.048141 0.089941 0.178322 0.093408 0.102354 -0.141559 -0.143149 -0.028905 -0.089819 -0.149643 0.019998 -0.041315 0.077602 0.140726 0.115675 -0.249725 -0.195166 -0.085827 0.054919 -0.057785 -0.083676 0.001796 -0.040667 0.129747 0.048004 0.143732 0.115582 -0.065806 0.036475 0.133816 0.226621 0.134316 0.087466 0.051979 0.010555 -0.013515 0.031658 -0.040505 -0.111606 -0.173987 -0.022597 -0.080584 -0.018891 0.030203 0.070427 -0.002543 -0.205559 -0.134653 -0.118194 -0.001277
tough 0.137110 0.061250 0.078326 0.216631 -0.029514 -0.145179 0.222593 -0.061039 -0.145136 0.057139 0.091821 -0.040345 0.123949 -0.126385 0.096268 -0.136183 0.053056 -0.233936 0.307981 0.103249 0.095496 -0.066541 -0.090509 -0.077817 0.186252 -0.029748 -0.012106 -0.053263 0.123886 -0.156280 -0.030813 -0.120737 0.103611 -0.167261 0.115676 0.048808 0.070463 -0.093019 0.070077 0.054076 -0.036527 0.117415 -0.030192 -0.118168 0.081397 0.040539 -0.062566 -0.015622 0.064599 -0.119103 -0.074575 0.081408 -0.125403 -0.046494 0.123156 0.086938 -0.067823 0.103447 -0.016187 0.101167 -0.280313 0.034883 -0.103453 0.022738 0.076487
flying -0.144545 0.217287 -0.155280 0.037895 0.053336 0.114726 0.025180 -0.050380 -0.083001 0.024778 -0.053537 -0.029073 -0.059886 -0.106595 0.150844 0.141739 0.038469 -0.028857 0.026089 -0.057066 -0.058092 0.018823 0.080751 0.009585 -0.281781 -0.164046 0.001101 0.178636 0.271657 -0.157849 0.188024 -0.084190 -0.074310 0.073175 -0.134298 0.010565 0.059268 -0.063038 0.188625 -0.031250 0.050458 0.119195 0.113510 -0.085090 -0.066185 0.208349 0.101843 0.157076 -0.170902 0.171226 0.000741 -0.004977 0.168064 0.017022 0.083370 -0.025852 -0.109182 0.156294 -0.035230 0.084429 -0.049370 0.141055 0.009074 -0.101922 -0.043917
iraq 0.018938 -0.058185 0.009255 -0.082866 0.070080 0.219750 0.037709 0.055095 -0.207925 -0.175739 0.079959 -0.064338 0.041581 -0.164171 0.103926 -0.135428 -0.057364 -0.004726 -0.049564 -0.010799 -0.018772 -0.006480 0.075761 -0.248338 -0.025674 0.095002 -0.078054 0.044929 0.142282 -0.062451 0.040641 -0.003320 -0.048598 0.126325 -0.006117 0.009693 0.070835 -0.313004 0.020938 0.144109 -0.020024 -0.011952 -0.013279 0.048305 -0.000690 -0.077434 0.039342 0.110519 0.151483 0.031931 -0.007746 0.049968 0.056928 -0.008765 0.017855 -0.170275 -0.163994 0.002717 0.116399 0.110531 0.013119 0.030502 0.230106 0.147905 -0.148200
professional -0.202073 0.053181 -0.056257 0.172334 -0.123641 0.108243 0.194626 -0.011147 -0.140965 0.042891 0.191675 0.043651 0.075885 -0.109536 0.027027 -0.123837 0.037952 0.053473 0.094966 0.142779 -0.233667 0.039143 -0.047243 0.019419 0.104003 -0.004753 0.159338 0.204324 0.136621 -0.171880 -0.125487 -0.027340 -0.012657 0.024591 0.086875 -0.041506 -0.073414 0.029061 0.037973 0.116572 0.048867 -0.135229 -0.040455 -0.062817 0.175271 0.029985 0.091893 -0.101462 -0.113609 0.067513 -0.062529 0.095664 0.012487 -0.101114 0.069603 0.070821 -0.095365 -0.021612 0.014581 0.160293 -0.074963 0.210703 0.031058 -0.069656 0.058589
fly -0.037983 0.188648 -0.118383 0.234701 -0.018674 0.060471 0.082852 -0.084565 0.163620 0.013266 -0.058158 -0.076998 -0.005532 0.034541 0.208726 0.093534 0.004813 -0.039469 -0.035187 0.091762 -0.024653 0.052959 0.191666 -0.035758 -0.305176 0.018794 0.016054 0.135061 0.209209 0.012179 0.184587 -0.155139 -0.087176 -0.041824 -0.063821 0.038730 0.042430 0.064846 0.120923 -0.050958 0.075597 -0.022136 0.122103 -0.003980 -0.113432 0.091662 -0.162649 0.026046 -0.253055 0.091384 0.074095 0.044968 -0.037408 0.134805 0.056344 0.088034 -0.160574 0.163839 0.020035 0.077086 -0.068644 0.022954 -0.066009 0.016605 -0.122800
danish 0.063990 0.165559 0.031061 -0.079138 -0.149654 0.096600 -0.046047 -0.014410 0.000230 -0.037656 0.076943 0.202702 -0.139554 0.062163 0.248039 -0.141598 0.173888 0.045575 -0.043592 -0.144205 0.087402 0.176280 -0.100354 0.022306 0.067065 0.049922 -0.123472 -0.012129 0.068669 0.024751 0.024794 0.075830 -0.060308 0.045291 -0.051287 -0.157223 -0.006640 -0.084572 0.141680 0.097059 0.045833 -0.145814 -0.256804 -0.031731 0.093366 -0.027039 -0.020040 0.141214 0.094644 -0.071908 -0.002999 0.022651 0.093019 -0.014966 0.291471 0.062939 -0.036430 -0.013676 0.009549 -0.039049 -0.128841 -0.200551 0.116009 -0.261813 -0.041177
denmark 0.042598 0.152950 0.019467 -0.061129 0.002945 0.031646 0.053206 -0.030546 -0.065853 -0.001150 0.113045 0.031928 -0.123320 0.117302 0.111775 -0.053712 0.237869 0.174882 0.102268 0.063714 0.057123 -0.001637 -0.234818 0.016153 -0.106473 -0.046685 -0.116173 -0.004172 -0.023779 -0.054767 0.021875 0.048141 -0.162542 0.030572 -0.001386 0.009335 0.046000 -0.020896 0.184433 0.057941 0.082941 -0.007434 -0.081781 0.004754 -0.015480 0.034263 -0.024041 0.171913 0.186981 0.066939 0.085156 -0.048705 0.178141 -0.024949 0.260098 0.001788 -0.046016 -0.104309 -0.150152 -0.057180 -0.212913 -0.170498 -0.098087 -0.177651 -0.111907
croatia 0.169613 0.297219 0.029725 0.005047 -0.049937 0.151382 0.042544 0.034339 0.031417 -0.000081 0.056231 -0.048372 0.202009 -0.148669 -0.075711 -0.026699 0.003489 0.170403 0.164163 0.075822 -0.107845 0.176671 -0.017442 -0.037027 -0.111888 -0.037086 0.011793 0.009145 0.018395 -0.073764 0.113256 0.095890 -0.202768 -0.116113 0.090142 0.042322 -0.103761 0.016521 0.026385 -0.103510 0.047112 0.177072 -0.041773 0.164650 -0.007769 0.075747 0.149466 0.068800 0.096823 -0.007641 -0.008782 -0.025599 -0.141335 0.044103 -0.016448 0.050743 -0.110396 0.034331 0.097060 -0.056567 0.124221 0.040328 0.123656 -0.104212 -0.044116
