hanoi 0.150697 0.004686 -0.085860 0.141408 -0.072976 0.009698 0.011092 -0.046318 -0.176607 -0.271876 0.033422 0.014138 -0.001439 0.062344 0.058721 -0.292895 0.010532 -0.096511 -0.141869 -0.225821 0.066628 0.097682 0.241863 -0.051388 -0.022076 -0.087008 -0.101916 -0.189799 -0.105625 -0.085457 -0.146504 -0.094757 -0.028276 -0.211849 0.053819 0.092071 -0.002363 0.035883 0.139806 -0.009008 0.027121 0.108065 0.009568 -0.242436 -0.167366 0.070816 0.043635 -0.189253 -0.012006 -0.014601 0.071543 0.040282 -0.002132 0.081729 0.135405 0.015901 0.077075 -0.149823 0.178057 -0.039263 -0.086523 -0.052916 -0.205753 -0.031255 0.130301
tougher 0.150549 0.116778 0.155001 0.027347 -0.122059 0.008802 0.194021 -0.034171 0.062706 0.061912 0.090869 0.053626 -0.038704 -0.309448 -0.075155 -0.194345 -0.017546 -0.245680 0.214213 0.033551 -0.042777 -0.111328 -0.079457 -0.134976 -0.163538 0.096483 0.072531 -0.102832 -0.192406 -0.125953 0.138441 -0.176749 0.083123 -0.032571 0.129295 -0.020590 0.143911 -0.060100 0.069297 0.057368 -0.053843 0.000242 0.072832 -0.015881 -0.039677 0.094829 0.012369 0.048159 -0.052025 -0.299238 -0.120475 -0.017594 0.081417 0.012523 0.188523 -0.088044 -0.107916 -0.133157 -0.031360 -0.118293 -0.222001 0.012944 -0.126741 0.209856 0.117114
occasionally -0.031290 0.049397 -0.009851 0.043196 0.045388 -0.104758 0.017735 0.079721 -0.149309 0.098904 0.067920 0.148551 0.172188 -0.144283 0.111771 -0.075168 0.118996 0.114406 -0.176845 0.041432 0.143102 0.101792 -0.256672 -0.150499 -0.316536 0.029590 -0.048384 -0.002108 0.173095 -0.087885 -0.185554 0.017596 -0.040443 0.158916 -0.138886 0.038798 0.130479 -0.076575 -0.067625 0.238141 -0.093414 -0.046739 0.020599 -0.075279 -0.315536 0.162866 0.111342 -0.147579 -0.127663 0.005741 0.068775 0.019304 -0.108451 -0.057999 -0.122307 0.087835 -0.075056 0.119146 0.109132 -0.237615 0.063734 -0.095891 0.111754 -0.034629 -0.021485
ukrainian 0.024914 -0.036336 -0.116146 0.270491 -0.126546 0.142852 -0.000723 -0.093276 0.147610 -0.013280 -0.061222 0.040991 -0.021639 0.005378 -0.042096 -0.122814 0.408415 -0.089832 -0.275494 0.008491 0.177085 0.033239 -0.188480 -0.026927 0.097944 -0.144950 0.191953 0.204832 0.039549 0.022746 -0.041051 0.087879 0.087361 -0.118674 -0.065834 0.027011 -0.143598 -0.164988 0.048756 -0.042426 0.230072 -0.169623 -0.138896 -0.007588 0.076162 0.070214 -0.077102 0.090128 0.029303 0.090704 -0.138854 -0.034708 0.016703 0.052278 -0.092202 0.100705 -0.039617 0.022941 -0.044513 -0.009007 -0.186474 0.152408 0.104858 0.098580 -0.070776
occasional -0.058513 0.001804 -0.123115 0.085904 -0.181788 0.044610 0.216180 0.045769 0.071777 0.223624 0.193916 0.065775 0.127356 -0.090126 0.136460 -0.080897 0.197499 -0.148983 -0.149336 0.031271 0.018382 0.058017 -0.228855 -0.059623 -0.081696 0.174732 0.100500 0.158684 0.041732 -0.103152 -0.216331 0.014178 -0.000712 0.217647 0.047536 0.183318 -0.082744 -0.089831 -0.065892 0.179850 -0.082757 -0.009771 0.005008 -0.077891 0.052530 0.025308 -0.015317 -0.099090 0.106013 0.001773 0.022066 -0.060727 -0.052477 -0.003633 -0.211617 -0.036552 -0.082440 0.130391 -0.009341 -0.196862 0.081872 -0.052055 -0.121581 -0.126397 0.080376
norway 0.052514 0.078016 -0.102289 -0.109108 0.084754 -0.135069 0.313066 0.034491 -0.042024 -0.015722 -0.049954 -0.054324 0.129423 0.122838 -0.050759 -0.087166 0.186227 -0.141551 -0.114079 0.012204 -0.025936 0.057082 0.034893 -0.098834 -0.241248 0.203522 0.117818 0.068550 -0.129007 -0.020543 0.070858 -0.148589 -0.045859 -0.070587 0.064311 -0.040979 -0.055131 0.051241 0.147226 -0.120556 0.091725 -0.103737 -0.191873 -0.001746 -0.144349 0.033112 -0.078164 -0.064085 0.223913 -0.160536 -0.168892 -0.078889 0.041385 -0.042672 -0.048953 0.266387 -0.033225 -0.039070 -0.075176 0.064897 0.028066 -0.087935 -0.020325 0.000612 -0.125160
baghdad -0.007763 0.062590 0.081263 -0.023067 -0.046697 0.169223 0.076950 -0.058195 -0.155134 -0.150600 0.147739 -0.181240 0.094500 0.003359 0.197540 -0.074327 0.077144 -0.068698 0.078204 0.191573 0.001504 0.041117 0.156238 -0.251696 -0.012932 -0.004775 -0.154821 0.083561 0.039082 -0.153896 -0.109234 -0.139891 -0.194064 0.050080 0.023158 -0.005787 0.027935 -0.280752 0.026784 0.109847 -0.098551 0.001015 0.009474 -0.089550 0.126528 -0.106522 -0.058260 0.052537 -0.029418 -0.071803 -0.008064 -0.119895 0.019916 -0.154636 -0.050028 -0.065728 -0.130493 -0.290387 -0.112309 0.005826 0.096168 0.179559 0.158603 0.105690 -0.138007
illinois -0.034934 -0.068546 0.209513 0.094122 -0.197426 -0.070525 0.090167 0.005208 0.005182 -0.007378 -0.078853 0.005041 0.013602 0.041086 -0.060264 -0.300673 0.019471 0.046882 0.083272 0.233318 0.006113 -0.062658 0.038436 -0.095121 -0.037361 0.053991 -0.063475 0.150179 0.184683 -0.027997 -0.035654 0.010123 -0.100708 0.204473 -0.079234 0.252067 -0.004153 -0.083346 0.006041 0.007597 -0.026360 -0.002990 0.032324 0.013810 -0.216205 0.024717 0.184564 -0.003500 -0.044836 0.136784 0.047957 0.170034 0.142658 0.104503 0.111800 -0.092972 0.120968 -0.137709 0.130978 -0.248076 0.104280 -0.028065 -0.072945 0.007312 0.075271
moving -0.018348 0.127255 -0.178107 0.085707 0.012113 -0.034690 -0.266617 0.053686 0.051575 0.025349 0.182583 -0.109935 -0.070376 -0.322857 0.178720 -0.163592 0.241729 -0.025979 -0.082549 -0.149870 -0.038906 0.002680 0.179150 -0.012335 0.012872 0.009648 -0.114384 0.006009 -0.084934 -0.028398 0.010743 0.095669 -0.147704 0.026822 0.012961 0.121478 0.022913 -0.160787 -0.182551 -0.240203 0.083978 0.023030 -0.064765 -0.035402 0.058819 -0.048627 0.009655 0.237071 0.067117 -0.097451 -0.028534 0.072283 0.130283 0.158397 -0.198878 -0.007885 -0.106395 -0.173884 0.097232 0.130701 -0.097520 -0.053388 -0.085346 -0.090541 0.081293
loud -0.074246 -0.049188 0.074056 -0.111816 -0.138058 0.192362 -0.042757 0.014241 -0.074468 -0.194224 0.156736 -0.057568 -0.004748 -0.097392 0.092478 -0.169838 0.018933 0.216010 -0.034115 0.058932 0.011032 0.012311 -0.023284 -0.128776 -0.134985 0.183166 -0.158212 -0.035070 -0.076355 -0.194142 -0.059011 -0.071625 0.055703 -0.143457 -0.158648 0.021283 0.116696 0.007547 0.018751 0.177894 0.067090 0.274284 -0.098492 0.125044 0.016438 0.129144 0.010650 -0.079470 0.154204 -0.056010 0.003299 0.025781 0.050811 0.003061 -0.044207 -0.143070 0.002055 0.017786 -0.215819 0.008249 -0.093655 -0.004681 0.062877 -0.183206 -0.061751
thai -0.266624 -0.070749 -0.091576 0.036456 -0.056194 0.059449 -0.094226 -0.026671 -0.027541 0.009286 -0.167939 -0.014061 -0.043483 -0.043488 -0.091091 -0.197193 0.150533 -0.003067 0.092160 0.097955 0.031720 0.055800 -0.023245 0.005349 0.019703 0.165812 -0.055205 -0.147335 0.221635 0.087972 0.021983 -0.095192 -0.057887 0.032299 0.066786 -0.035903 0.110907 -0.076968 -0.198381 0.048113 0.087440 -0.167861 -0.164851 -0.117038 -0.170998 0.174776 0.079493 -0.031622 0.095181 0.012740 -0.164950 -0.043385 -0.162915 0.137334 0.212651 -0.100107 -0.199865 0.104799 0.147604 0.006352 0.025260 0.116229 -0.107178 -0.132870 -0.061854
croatian 0.270835 0.154566 -0.042564 0.024604 0.028274 0.141258 0.117287 0.252865 0.092190 -0.031536 0.067616 0.002384 0.027887 -0.071124 -0.156926 -0.036919 0.074595 0.176421 0.084457 0.063155 -0.037985 0.143686 -0.031689 -0.089432 0.004890 -0.144219 -0.128400 -0.091938 0.147270 0.011926 -0.006903 -0.110474 -0.082909 -0.007905 0.286120 0.006566 -0.026946 -0.039939 -0.018765 -0.018271 -0.064877 0.201874 -0.218409 0.193690 -0.116584 0.006067 0.139918 0.037245 -0.088763 -0.007045 -0.087471 0.038929 0.063172 0.159506 0.114833 -0.044992 -0.099639 0.126435 0.127826 -0.052232 0.130998 -0.008996 -0.124986 -0.053865 -0.141748
argentina 0.165469 -0.046767 0.219950 -0.120579 0.136413 0.299102 -0.093878 -0.109458 0.151989 0.045309 -0.102816 0.066855 -0.039646 -0.133093 0.182472 -0.045241 -0.026445 -0.187051 -0.142536 0.239249 -0.030889 0.216266 0.027095 -0.024384 -0.095689 0.035966 0.031804 -0.222673 0.066076 -0.026377 -0.179010 0.045063 -0.122415 0.042011 -0.062755 -0.046798 -0.083062 0.000132 0.022616 -0.082976 0.043482 -0.113048 0.037881 0.118897 0.105719 0.037164 -0.103473 0.051242 0.000127 -0.115019 0.095742 0.245122 0.171235 0.117487 -0.028744 0.089505 -0.095517 0.167617 0.129998 0.053075 0.033472 -0.047389 -0.155002 -0.098864 0.047478
vietnam 0.056981 -0.089250 -0.062237 0.122070 -0.090770 0.059395 -0.049953 -0.247321 -0.220727 -0.158974 -0.027615 0.121807 0.143537 -0.028502 -0.039589 -0.066716 0.127385 -0.000071 -0.075170 -0.177447 0.078819 -0.105216 0.016479 -0.112841 -0.144215 -0.049534 -0.125269 -0.048554 0.000566 -0.117921 -0.162808 -0.091085 0.076233 -0.024744 0.228667 0.251362 0.084465 0.147838 0.142782 -0.038934 0.028921 0.226379 -0.079024 -0.254121 -0.292089 0.056723 -0.127995 0.025473 -0.021985 0.138517 0.224557 0.139074 -0.084100 0.162431 0.030396 0.108427 0.074920 -0.035645 0.083736 0.095092 -0.047012 -0.063346 -0.065044 0.033081 0.239612
norwegian -0.026570 0.031341 -0.086836 0.046312 -0.045333 -0.174923 0.270258 0.095123 0.025598 0.056196 -0.001864 -0.222795 0.173790 -0.041457 0.099493 -0.047101 0.112874 -0.164509 -0.008010 -0.021370 0.014783 -0.005612 0.187274 -0.207812 -0.119537 0.151707 -0.035037 0.065639 -0.167464 0.117490 -0.007561 -0.196082 0.000986 -0.137414 0.096077 0.047311 -0.122589 -0.026555 0.118711 -0.224164 0.098732 -0.155749 -0.183430 -0.201245 -0.047519 0.046316 -0.060121 -0.082628 -0.008025 -0.106510 -0.165058 -0.014763 0.069491 0.046328 -0.021275 0.186602 0.059107 -0.007222 -0.020788 0.115824 -0.081975 -0.138706 -0.132432 0.021082 -0.110843
professionally -0.099361 0.081356 -0.078096 0.024181 -0.086595 -0.136738 0.076812 -0.052639 -0.114409 -0.038965 0.105278 0.202400 0.070572 0.077034 -0.071769 -0.064444 0.133257 0.064551 -0.000930 0.130560 0.029158 0.151938 -0.023085 0.016086 -0.162727 0.098026 0.075927 0.123112 -0.069006 -0.198268 -0.053048 -0.048871 -0.045138 0.156390 0.073844 -0.017696 -0.105999 0.090290 -0.031098 0.223510 0.085293 -0.116194 -0.227622 0.096497 0.172752 0.001091 0.111453 0.022069 -0.054670 0.066686 -0.107769 0.172555 0.006249 0.073781 0.044438 -0.015281 -0.195664 -0.007717 -0.142707 0.143572 -0.048349 0.117737 -0.148462 -0.010130 -0.060073
argentinean 0.065228 -0.238780 0.137620 -0.043674 0.022225 0.142813 -0.114399 0.012541 0.017262 -0.036965 -0.117305 -0.018469 0.065021 -0.027256 0.265069 -0.169475 -0.087735 0.043430 -0.261585 0.247847 -0.001524 0.109555 0.128767 0.052652 -0.045493 0.123250 0.096129 -0.281984 0.176595 -0.039306 -0.196215 -0.151539 -0.060855 -0.008416 -0.052850 -0.034221 0.070764 -0.145323 -0.005010 -0.029377 0.171200 -0.248345 0.078609 0.100479 0.119381 0.150794 0.022563 0.212498 0.035110 -0.132521 0.004262 0.033837 0.021838 0.073720 0.031650 0.079841 -0.137222 -0.171520 0.219260 0.042154 -0.121949 0.051122 -0.082755 0.085968 0.006713
louder -0.023219 -0.162649 0.070893 0.056840 -0.198642 0.148231 0.020642 -0.071415 -0.008444 -0.214551 0.013264 -0.051200 -0.013181 -0.079380 0.093100 -0.257610 -0.029706 0.035643 0.054232 0.228093 -0.003229 0.066588 -0.211234 -0.110664 -0.072249 0.160379 -0.082164 -0.098848 -0.167705 -0.067311 -0.092956 0.164901 0.076880 -0.149844 -0.019305 0.057718 0.023528 -0.024876 0.121773 0.207728 0.074448 0.094621 -0.181102 0.129861 0.024783 0.109851 -0.117100 -0.117966 -0.085058 0.036550 0.053909 0.050496 0.056122 0.201844 0.035408 0.087684 -0.017438 -0.004790 -0.250814 0.021377 0.304502 -0.031408 -0.004654 -0.156968 -0.088631
chicago 0.072685 -0.062094 0.149837 -0.054928 -0.177580 -0.069875 0.045211 -0.094063 0.139758 -0.073014 -0.031012 0.032695 0.114648 -0.032024 -0.141741 -0.220811 0.044474 -0.191458 0.085480 0.208395 -0.181402 0.199349 0.072326 0.163738 -0.024269 0.022159 -0.117081 -0.068307 0.119439 -0.019657 -0.100148 0.100130 0.002090 0.025772 -0.036970 0.294444 -0.056189 -0.360280 -0.005538 -0.023822 0.083619 0.078241 0.186759 -0.069161 -0.254050 0.137589 0.023226 -0.203093 -0.020783 0.032444 -0.204929 0.172239 0.144230 0.065256 -0.060673 -0.059194 0.199911 -0.016296 0.020066 -0.042234 0.151907 0.021014 0.143960 -0.022241 -0.082565
move -0.070781 -0.066894 -0.060834 0.124656 0.027129 -0.081796 -0.201470 0.085619 0.120098 -0.190680 0.140710 -0.077658 0.029944 -0.147649 0.127181 -0.116646 0.207601 -0.035012 -0.082794 -0.174453 0.067322 0.125829 0.121872 0.058324 -0.154695 0.038735 0.190791 -0.048225 -0.130768 0.054287 -0.106269 -0.163852 -0.134822 0.110288 -0.023292 0.199044 -0.065293 0.113636 -0.047940 0.055687 0.145839 -0.003784 -0.147977 0.020646 -0.125920 -0.077631 0.095197 0.122096 0.004316 -0.101954 0.027267 0.069660 0.136424 0.169800 -0.115727 -0.068959 -0.004955 0.084893 0.013320 0.013664 0.022123 0.041388 -0.041576 -0.210374 -0.044400
thailand -0.122092 -0.006266 -0.122567 0.115545 -0.103351 -0.011966 -0.007306 -0.161531 -0.033841 0.152121 -0.234417 -0.070574 0.010578 -0.070415 -0.060475 -0.230110 0.129834 -0.039753 -0.063070 0.110354 0.196519 0.164002 0.132161 -0.043651 -0.000715 0.206137 0.042573 -0.059088 0.175301 0.100540 -0.007874 0.033090 -0.134123 -0.026281 0.013991 -0.216683 0.160504 -0.103318 -0.010440 -0.035967 0.049600 -0.106529 -0.150195 0.061647 -0.112733 0.018947 -0.036829 0.015067 0.035619 0.041166 -0.196269 -0.099453 0.007420 0.187463 0.099360 0.028169 -0.062429 0.160069 0.023249 -0.123201 0.136400 0.216485 -0.169815 0.041300 0.086670
ukraine -0.037077 0.129213 -0.081266 0.276464 0.131411 0.084768 -0.023962 -0.053540 0.119391 -0.172263 -0.023308 0.036629 0.183430 0.055943 -0.084736 -0.077763 0.192904 -0.146921 -0.300774 0.060569 0.108205 -0.103536 -0.149936 -0.113681 0.048223 0.077517 0.129891 0.143129 -0.118753 -0.156607 -0.061348 0.093330 -0.121664 -0.182973 0.147944 0.107716 0.010593 0.073640 0.072527 0.120554 0.056838 0.083723 -0.212445 0.043141 0.087168 0.077545 -0.115414 0.099239 -0.065914 -0.052115 -0.070025 -0.124005 0.181681 -0.061048 -0.003095 -0.001888 0.176354 -0.100498 -0.021547 0.186150 -0.152992 0.111702 0.117031 -0.066080 -0.024196
plano 0.004907 0.197877 0.112131 -0.115634 -0.003947 -0.002448 0.040468 -0.082593 0.177075 -0.140950 -0.176574 -0.030980 -0.092046 -0.056658 -0.104066 0.010224 0.208482 0.188105 -0.025523 0.112457 -0.180044 0.002045 0.091303 -0.141782 0.012017 0.117704 -0.060619 0.067669 -0.118919 0.117774 -0.336463 -0.131549 -0.111230 -0.036094 -0.085213 -0.095523 -0.009152 -0.311217 0.168134 -0.052481 -0.067951 0.141764 0.071737 0.077011 0.222963 0.334652 0.089845 -0.153836 0.161107 -0.055475 -0.039920 -0.094912 0.132664 -0.004701 -0.134340 0.010731 -0.064966 -0.016494 0.010444 0.046500 0.100458 -0.014806 0.000874 -0.070961 0.063286
texas -0.028531 0.137409 0.077042 -0.048144 0.066189 -0.040743 0.059756 -0.235884 0.306921 -0.113307 -0.182395 -0.040274 -0.071372 -0.100502 -0.196305 0.076638 0.081619 0.155694 0.044382 0.093186 -0.090843 -0.054282 -0.034168 -0.168923 -0.115308 0.014411 0.028255 0.136466 -0.037490 0.165135 -0.316488 -0.166752 -0.100015 0.014084 -0.125464 -0.138678 -0.079637 -0.072160 0.188130 0.105449 0.070489 -0.015808 -0.125263 -0.005156 0.191104 0.317317 0.109529 0.106308 0.034827 0.002194 0.023523 0.104034 -0.009473 0.005115 -0.072064 -0.074780 -0.112507 -0.036770 0.070611 0.069597 0.031838 -0.225141 -0.111806 -0.140792 -0.055767
tough 0.079550 0.055486 0.158831 0.189108 0.081717 -0.141608 0.225815 -0.040372 -0.097055 0.100383 0.047866 -0.032023 0.115080 -0.217801 0.058133 -0.201315 0.045277 -0.114054 0.307571 0.013231 0.061868 -0.061172 -0.119733 -0.054377 0.156611 0.063893 -0.030860 -0.065473 0.149847 -0.191916 -0.015730 -0.182413 0.077539 -0.120265 0.073024 0.002647 0.094907 -0.064531 0.026063 -0.008555 0.013081 0.187116 0.013718 -0.021657 0.089826 0.011693 -0.090286 0.068934 0.073975 -0.209937 -0.172949 0.189861 -0.082238 0.007235 0.144968 0.080261 -0.070901 0.084723 0.007280 0.174224 -0.254970 0.037134 -0.177864 0.081604 0.179305
flying -0.206292 0.209878 -0.134042 0.066917 0.114320 0.259111 -0.013061 -0.059712 -0.077469 0.023006 0.016526 -0.038515 0.014152 -0.071536 0.124496 0.110826 0.042953 -0.042767 0.116598 -0.017362 -0.011181 0.091347 0.213353 -0.037360 -0.250969 -0.202380 -0.076071 0.155402 0.120137 -0.162126 0.155291 -0.072348 0.010956 0.063181 -0.146013 0.107895 0.053922 0.042347 0.263052 -0.056360 0.076663 0.069006 0.091354 0.008588 -0.078470 0.268098 0.114539 0.106203 -0.139894 0.165898 -0.014007 0.069659 0.188697 0.014354 0.175147 -0.019013 -0.004925 0.098551 -0.006648 0.114793 -0.006471 0.136067 -0.042666 -0.141355 -0.132852
iraq 0.092404 0.002727 0.047748 0.018379 0.114254 0.221548 0.074783 0.028252 -0.215335 -0.195199 0.107781 -0.084300 0.032566 -0.102539 0.150353 -0.179783 -0.005822 -0.087624 -0.017010 -0.069409 -0.095056 -0.026594 0.058323 -0.256677 0.048917 0.088742 -0.096796 0.083726 0.184597 -0.093912 -0.006412 -0.030315 -0.030052 0.114978 -0.008432 0.009217 0.086482 -0.369941 0.067465 0.130387 -0.030199 -0.080805 -0.034173 -0.028626 0.005065 -0.087968 0.047709 0.149242 0.069921 0.029586 0.011744 0.077050 -0.034291 0.006481 0.067749 -0.184354 -0.170671 0.013233 0.102224 0.118602 0.086997 0.060796 0.202118 0.123288 -0.135299
professional -0.088296 0.178263 -0.061610 0.249965 -0.095842 0.114039 0.145687 -0.092446 -0.134494 0.043296 0.149069 0.092903 0.115886 -0.067912 0.064519 -0.137464 -0.050071 0.144609 0.049896 0.113865 -0.183748 -0.009737 -0.025758 -0.022586 0.103805 -0.042460 0.097416 0.260677 0.112855 -0.241159 -0.163427 0.055856 0.055924 0.045159 -0.013875 -0.030441 -0.063414 -0.007740 0.070488 0.172045 0.091569 -0.146477 -0.118403 -0.058668 0.166879 0.125674 0.001260 -0.130131 -0.081299 0.034428 -0.059255 -0.001795 -0.013991 -0.122373 0.036089 0.132723 -0.133840 -0.100854 0.083880 0.194337 0.018141 0.163360 -0.066840 -0.089237 0.020927
fly -0.082418 0.216001 -0.077023 0.250642 -0.002823 0.121376 0.030816 -0.073763 0.139102 0.018098 -0.005179 -0.029168 0.095495 0.051760 0.168983 0.122314 0.088105 -0.046211 0.001204 0.185952 0.001086 0.040135 0.128067 0.010848 -0.356431 0.057345 0.085515 0.275042 0.190938 -0.026833 0.130660 -0.158601 -0.067865 -0.102842 -0.034973 0.157883 0.094678 0.105461 0.108298 -0.013604 0.117504 0.010624 0.054081 0.042679 -0.085082 0.030212 -0.159041 -0.052854 -0.201265 0.055525 0.048704 0.051099 0.008197 0.177050 0.092689 0.127621 -0.031926 0.133419 -0.072643 0.018257 -0.103490 0.082771 -0.015429 0.068141 -0.161432
danish 0.175074 0.141785 0.063960 -0.160556 -0.117628 0.146884 0.016722 0.008139 -0.062849 -0.056714 0.054178 0.177176 -0.066857 0.143032 0.194668 -0.178372 0.146915 0.012357 -0.074998 -0.065198 0.100038 0.121413 -0.127432 0.015831 0.063982 0.087906 -0.210518 0.015484 0.006936 0.000807 -0.044066 -0.039348 -0.123522 0.103447 -0.080226 -0.118781 0.052327 -0.019297 0.139680 0.088501 0.107604 -0.039509 -0.130758 0.011112 0.048579 0.054874 -0.074999 0.178427 0.074387 -0.047388 0.003480 0.059528 0.078448 0.006265 0.197050 0.108605 -0.024441 -0.006231 0.016101 -0.084372 -0.290659 -0.207708 0.105339 -0.196920 -0.003502
denmark 0.019257 0.131189 0.030964 -0.131593 -0.007334 0.092125 0.119578 0.000967 -0.082511 -0.030327 0.132244 0.014689 -0.067369 0.044173 0.107467 -0.158404 0.214152 0.093325 0.060364 0.095855 0.052637 -0.005369 -0.307782 -0.007275 -0.108026 -0.074552 -0.205416 -0.032842 -0.005041 -0.038718 0.041652 0.043344 -0.234176 -0.083460 0.040485 0.034325 0.028523 -0.000509 0.187803 0.130848 0.029986 -0.038462 -0.031787 -0.028940 -0.057989 0.016332 -0.033770 0.185361 0.132928 0.071848 0.025190 -0.074313 0.124040 -0.043942 0.178137 0.087655 0.018886 -0.075777 -0.014534 -0.098326 -0.165078 -0.193740 -0.071266 -0.048783 -0.144270
croatia 0.117075 0.304744 0.055995 0.019685 -0.032410 0.221059 0.071634 0.088438 0.085732 0.035882 0.013107 -0.084515 0.151390 -0.118669 -0.008084 -0.043526 0.124790 0.226765 0.112194 0.005728 -0.160320 0.196920 0.026236 -0.108714 -0.157513 -0.152879 -0.010299 -0.030305 -0.001079 -0.126013 0.087353 0.009299 -0.162566 -0.184166 0.064865 0.063464 -0.105659 0.053660 0.011915 -0.159681 0.064235 0.140972 -0.083987 0.151277 0.000291 0.055743 0.147774 0.027652 0.034928 0.048768 -0.041041 -0.059933 -0.063424 0.056410 -0.014284 0.048960 -0.077539 -0.026980 0.067042 -0.110836 0.074708 0.068426 0.073067 -0.077556 -0.048901
