hanoi 0.029481 0.013442 0.024010 -0.055393 0.105214 -0.106986 0.165826 0.030016 0.043122 -0.008743 0.002781 0.004166 -0.163150 0.055658 0.050022 -0.108702 0.049615 0.189603 0.143099 0.006263 -0.174949 0.019462 0.065024 0.011025 0.093358 0.021736 -0.057473 0.020259 -0.035874 -0.019970 0.011370 0.105390 -0.015375 0.054008 0.112644 0.017117 -0.003309 -0.008015 -0.080456 -0.054573 -0.015848 0.111535 0.156352 -0.184423 -0.036835 0.142585 -0.017649 -0.092497 0.018910 0.084409 0.092376 0.064615 -0.224939 -0.015227 0.038991 0.008259 0.016196 -0.123685 0.150654 -0.132403 0.046012 0.051041 0.100299 0.227357 -0.073085 0.182003 -0.041521 0.159497 -0.041560 -0.002103 0.010933 0.087496 0.023532 -0.068584 -0.040523 -0.087677 -0.076185 -0.171729 -0.083556 0.032558 -0.010030 0.034181 0.001035 -0.182687 0.003029 -0.047161 -0.015962 -0.056101 0.045246 0.039127 0.009295 0.156334 0.106380 0.068806 0.007706 0.131631 -0.173876 -0.084596 -0.034352 0.047661 0.032101 -0.053520 -0.034317 -0.003491 0.051121 0.109377 0.002551 0.092077 0.146614 -0.007602
tougher -0.029522 -0.007428 0.039831 0.052565 0.081964 0.034496 0.083115 -0.089876 -0.100998 0.086832 -0.053221 0.003682 -0.135644 -0.057742 -0.032919 -0.152568 0.165203 -0.116142 0.055713 -0.160452 -0.029317 0.054358 0.144308 -0.019184 -0.034323 -0.063498 0.114346 0.043839 -0.024133 -0.124507 0.102313 0.111907 0.096631 0.052753 0.029528 -0.076964 -0.063842 -0.102890 0.047779 0.057076 -0.094577 0.027931 -0.154669 -0.050858 -0.093213 0.076119 0.061341 -0.154329 -0.061619 -0.079222 -0.163927 0.214203 -0.075454 -0.056832 0.038363 0.009471 0.175583 -0.113884 -0.094001 -0.037705 -0.005396 -0.052296 0.032935 -0.143377 -0.103669 -0.003453 0.056257 -0.000703 -0.206981 0.071488 0.028648 -0.024410 -0.140709 -0.073307 0.065546 -0.120495 0.030570 -0.107554 -0.028559 0.141742 -0.102175 0.083328 0.004507 0.002842 0.095571 0.008549 0.137518 -0.020622 0.028935 0.044616 -0.041537 0.091471 -0.112592 0.044115 0.069595 0.094333 -0.001990 -0.061586 -0.061326 -0.010252 -0.006069 -0.101620 0.029826 -0.034375 0.023272 -0.112454 -0.110372 -0.113420 -0.040414 -0.046260
occasionally 0.001456 0.084919 -0.026557 -0.093380 0.072436 -0.070578 0.022397 0.089010 0.058599 0.085733 0.053578 -0.131785 -0.155813 -0.090902 -0.032400 -0.135724 -0.136912 -0.005021 0.026844 -0.113063 0.004825 -0.028044 -0.034188 0.040488 0.111594 -0.036462 -0.066690 -0.042971 0.105050 -0.109445 0.024446 -0.004500 0.156843 0.095138 -0.055290 -0.122074 0.112593 0.000393 0.048810 -0.041826 0.095002 0.054848 0.082249 -0.092362 -0.022707 -0.008602 -0.032748 0.076184 0.033294 -0.147310 -0.122793 -0.020240 0.042392 0.053690 -0.111956 0.011052 0.038818 0.064781 0.103211 0.097619 -0.048207 0.117196 0.178486 0.002065 0.047407 0.090951 0.155016 0.053499 0.127182 0.094496 0.010239 -0.121053 0.075105 -0.050557 -0.121547 0.145208 0.064381 -0.076762 0.053734 0.048592 -0.027238 0.218809 -0.005467 0.170804 -0.035894 -0.086222 -0.177079 0.110433 0.114838 0.122735 0.022231 0.032240 -0.061516 -0.136987 -0.119222 0.092068 -0.071592 0.002982 -0.064735 -0.035647 0.045637 -0.072860 0.158612 0.067216 0.149922 0.029113 -0.096347 0.013490 0.160577 0.098369
ukrainian 0.003305 -0.152644 -0.198573 -0.011199 0.051586 0.007758 -0.062707 0.016180 0.118235 0.055765 0.138653 0.073540 0.052680 -0.048767 0.016356 0.124329 0.175576 0.092733 0.087101 -0.024236 -0.086886 -0.084799 0.046601 -0.029614 -0.010974 0.072402 0.021046 -0.061647 0.070850 0.013101 -0.091301 -0.054480 0.084578 -0.123297 -0.001035 0.092012 -0.140444 0.005044 -0.014480 0.052629 0.009514 0.013987 0.050594 -0.049325 -0.118210 0.070660 0.128505 0.170225 0.042842 0.064178 0.048359 -0.061340 0.200863 0.177576 -0.025252 -0.179098 -0.045542 0.020891 -0.051671 -0.097724 0.120840 0.041832 -0.078021 0.067260 -0.112196 0.019644 -0.087155 0.022142 -0.057187 0.027298 0.129914 -0.075071 0.044175 0.053699 -0.138939 0.098131 -0.010430 -0.026470 0.195542 -0.034247 0.031981 0.026205 -0.085762 -0.060714 0.146012 -0.087380 -0.072362 0.127590 0.077208 -0.161314 0.077934 -0.052736 -0.093796 0.081061 0.066115 0.032914 -0.004194 0.036621 -0.033682 -0.062118 0.026482 0.105160 0.183550 -0.144264 0.041182 -0.028940 -0.071139 0.086874 -0.119253 0.010768
occasional -0.063839 -0.008035 -0.062550 0.004742 -0.036219 -0.045307 0.024738 0.001157 0.172341 0.026323 -0.080363 0.089861 0.026078 -0.140542 -0.061364 -0.017325 -0.183844 0.044543 -0.059158 -0.095702 -0.066564 0.041562 0.040491 0.055379 0.067460 -0.031279 -0.032243 0.075321 -0.007274 -0.143006 -0.030152 0.059298 0.186323 0.030504 -0.060692 -0.118228 0.083628 0.086380 0.074762 -0.087934 -0.005632 0.050031 -0.017151 -0.084241 0.026204 -0.064053 -0.009076 0.083305 0.007148 -0.033130 -0.180473 -0.085490 0.035035 0.150556 -0.149914 0.088849 0.059064 0.116785 0.025653 0.110785 0.025035 -0.074618 0.128903 0.000638 0.068571 -0.016085 0.087476 -0.025830 -0.044775 0.158649 0.056306 -0.114226 0.060439 -0.084690 -0.086266 0.098862 -0.078745 -0.136692 0.065816 0.123725 -0.018491 0.109359 -0.099115 0.019848 0.039544 -0.115916 -0.099704 0.123387 0.124115 0.133540 0.027704 0.017278 -0.078844 -0.238661 0.004876 0.066427 -0.106971 0.099003 -0.099073 -0.028309 0.010840 0.023283 0.204295 -0.004966 0.007512 0.010096 -0.046407 0.031724 0.008268 -0.044451
norway -0.088896 0.039743 0.048065 -0.095755 0.060327 0.168083 -0.077207 -0.199882 0.054276 0.024116 0.002140 0.020125 0.056529 -0.084429 -0.047338 0.110842 -0.027153 0.035605 -0.111675 -0.006538 -0.104811 0.015428 0.006851 0.073196 0.030912 0.006650 -0.054886 -0.022321 -0.102521 -0.040164 0.137499 -0.136582 0.142291 -0.051545 0.005411 -0.029656 -0.035163 -0.126702 0.009926 0.033442 0.188023 0.040166 -0.105014 -0.018658 0.125326 0.086968 -0.058389 0.004200 -0.051229 0.061945 0.023771 -0.088105 -0.022985 0.068611 0.116764 0.090557 -0.098829 -0.017514 -0.010004 -0.010172 0.084430 -0.072080 -0.071829 -0.011667 0.093739 0.033497 -0.036842 0.043633 -0.059378 0.047706 -0.010721 0.001051 -0.083301 0.025725 0.075056 0.091415 -0.018029 -0.128538 -0.024791 -0.069569 -0.080911 0.137226 -0.120748 0.066859 0.064387 -0.266604 0.146632 0.073903 0.138730 -0.089199 0.169006 0.022824 0.094054 -0.029772 0.125313 0.111508 0.008526 0.011496 -0.205088 -0.023631 0.022846 0.108532 -0.084175 -0.057391 -0.085910 -0.022133 0.090066 -0.087467 -0.065389 -0.039666
baghdad -0.048097 0.022984 0.051765 0.087518 -0.123613 -0.066037 -0.100855 -0.094488 -0.224663 0.074064 -0.010983 -0.055246 0.049925 0.107575 0.043330 -0.173147 0.158126 0.074822 0.132820 -0.140582 -0.010114 0.042117 0.001102 -0.079422 -0.062991 0.034832 0.001140 0.020781 -0.116942 -0.044234 0.146233 -0.034670 -0.049095 -0.066931 -0.002592 -0.047138 0.156202 -0.056708 0.004982 -0.036242 0.039378 -0.069796 -0.031764 0.050740 -0.137559 0.157636 0.015413 -0.005519 0.009134 0.038431 0.047494 0.030587 0.044661 0.060714 -0.136967 0.048359 0.088602 0.043248 -0.132065 -0.070016 -0.055051 -0.104667 0.257960 -0.041456 -0.010516 -0.069713 0.272808 -0.016110 -0.004551 0.010965 -0.016531 0.035629 0.037674 -0.106404 0.005113 0.042701 0.111236 0.025151 -0.147814 0.019381 -0.119379 -0.212779 -0.110792 -0.135041 0.066264 -0.226979 0.073576 0.021458 0.025948 0.027368 0.022055 -0.026869 0.000518 -0.043461 -0.082553 -0.115318 0.044168 0.038979 -0.032375 0.088066 0.107550 -0.039220 -0.008270 -0.100618 -0.004466 -0.122279 0.022868 -0.070616 0.074020 0.085802
illinois 0.073782 -0.038191 0.078720 -0.041367 -0.100498 0.066160 0.006412 0.096265 0.075697 -0.080423 0.106148 -0.041663 -0.091906 -0.102599 0.101529 0.010133 0.111989 -0.049638 -0.011022 0.041382 -0.061546 -0.070496 0.027366 0.051850 0.154688 -0.073738 0.005645 0.205989 0.098957 -0.060590 0.040588 0.038475 -0.011970 -0.041827 0.050704 0.090843 0.123051 -0.132816 0.129219 -0.027417 -0.087114 -0.016177 -0.119091 0.078802 -0.131972 0.030552 0.098639 -0.032847 -0.009695 -0.030679 -0.026698 0.080184 -0.008667 -0.007176 0.146613 -0.002053 0.086854 0.063117 0.147472 -0.019233 -0.159835 0.132506 0.167274 0.082169 -0.050989 0.055189 0.103586 -0.004024 -0.009596 0.095235 -0.026447 0.030946 0.088601 -0.108624 -0.093628 0.015040 0.130448 -0.081063 0.040494 0.012144 0.016026 -0.018895 0.037446 0.120597 0.050923 -0.096800 -0.126005 -0.110418 0.022611 -0.122164 -0.075433 -0.052036 -0.077891 -0.158870 -0.081452 -0.200830 -0.003412 -0.023761 0.008001 0.033882 -0.089964 0.047759 0.090741 -0.029411 -0.025623 0.017760 0.106204 -0.230537 0.148864 0.047993
moving -0.027339 -0.081500 0.086081 0.147493 0.062964 -0.087784 0.068671 -0.038384 0.089467 0.198085 0.183903 -0.102880 0.095735 0.035146 0.021498 0.134337 0.029905 -0.039659 0.095680 0.092942 0.000232 -0.087404 0.133666 -0.017431 0.002291 -0.073904 0.076938 0.003393 0.093030 0.141095 -0.022457 -0.054182 0.104850 0.063557 0.031827 -0.065270 0.105362 0.033776 0.005478 0.013702 -0.056893 -0.000573 0.071493 -0.265865 0.028028 0.035622 0.282392 -0.032025 0.128003 0.103460 -0.003911 -0.147333 -0.115782 0.037716 -0.072275 -0.135594 -0.090188 0.091579 0.055349 0.068312 -0.028124 -0.138260 -0.031910 0.002823 -0.115638 -0.123453 0.131754 0.180210 -0.113560 -0.034787 0.092076 0.060426 -0.019109 0.051306 0.052238 0.017109 -0.112173 -0.050798 -0.188648 0.137087 0.173694 -0.032852 -0.020311 -0.022699 -0.126149 0.043177 0.066494 0.098486 0.055846 0.072513 0.060406 -0.156948 -0.121410 0.059073 -0.068284 -0.101404 0.112838 0.027894 0.057761 0.019121 0.004142 0.090928 -0.027166 0.067420 0.061886 -0.109532 -0.113636 -0.007475 -0.083142 -0.015857
loud -0.073430 -0.027549 0.132330 0.010211 0.084869 -0.152300 -0.036422 0.037974 0.033334 0.074294 -0.045916 -0.146670 -0.055249 0.081988 -0.144496 -0.156075 0.180948 0.109756 -0.004667 -0.044738 -0.026539 0.054072 -0.075180 -0.192114 0.135074 -0.050438 -0.050573 0.114457 0.007595 -0.029039 -0.097854 0.057440 -0.003580 -0.042250 -0.011004 -0.095207 -0.074797 -0.040362 -0.055599 -0.216013 0.016750 -0.078640 0.169044 0.006517 -0.098515 0.000352 0.041060 0.034977 -0.038427 0.132792 0.032104 -0.135653 -0.004743 0.011357 -0.051308 0.060607 0.015038 0.031557 -0.040979 -0.054634 0.036198 -0.010822 0.113217 -0.005807 0.048117 -0.077627 -0.006668 0.102591 -0.035761 0.021272 -0.143491 0.008549 0.044002 -0.101588 0.002713 0.020199 -0.024354 -0.091313 -0.063128 0.052930 -0.149719 -0.085821 -0.022141 -0.099807 -0.134660 0.031412 0.039229 -0.107562 0.070393 -0.051523 0.031134 0.114913 0.160762 -0.087721 0.133094 -0.097099 -0.136968 -0.008166 0.050942 0.096484 0.035728 -0.098956 0.128982 -0.014983 -0.101021 -0.165786 0.102515 -0.137099 0.013673 -0.005767
thai 0.081274 0.004070 -0.122602 0.066675 -0.072660 0.108884 0.160332 -0.027153 0.008821 0.145997 0.106165 0.016313 -0.102284 -0.038910 -0.106968 -0.021286 0.025648 -0.044665 -0.046983 -0.119813 -0.001451 -0.043007 0.004684 -0.080448 0.114335 -0.154787 -0.157037 -0.029630 0.059241 0.061335 -0.064142 0.016823 0.098181 -0.050432 0.005317 -0.022040 0.112857 -0.061163 -0.026449 -0.041635 0.084038 0.102743 -0.106194 0.017201 -0.053762 0.131082 0.173669 -0.096599 -0.003991 -0.031770 0.002284 -0.091880 -0.079132 -0.068910 -0.073279 -0.056798 0.034518 0.177145 0.184625 0.009680 0.068703 -0.019783 0.011012 -0.013295 -0.035847 0.040537 0.036773 -0.094052 0.079711 0.096969 -0.044224 0.038919 -0.041796 -0.050391 0.057346 0.042672 -0.073780 0.059825 0.020362 0.022515 0.028657 -0.153074 0.080139 0.084235 -0.124550 -0.085955 -0.080410 0.096395 -0.179801 -0.040868 0.031036 0.045472 -0.132143 -0.177289 -0.099520 0.136456 -0.035257 -0.086310 -0.016000 -0.046762 -0.190963 0.008040 0.028726 0.096241 -0.062691 -0.050659 0.029534 0.019770 0.061368 -0.082301
croatian 0.010320 0.145483 -0.070015 0.034584 -0.227093 -0.121758 0.013044 -0.082317 -0.000501 0.006614 0.019720 -0.049718 0.031642 -0.167805 -0.020761 -0.054764 -0.053013 0.154373 -0.076397 -0.110125 0.038961 0.002425 0.101772 0.064771 0.015873 0.010602 -0.094974 0.166763 -0.072427 0.104159 0.011824 0.042000 0.077174 0.007607 0.214259 0.001598 0.064382 -0.060058 -0.140162 0.106232 -0.060196 -0.010961 -0.016967 -0.037074 -0.097407 0.155808 0.097504 0.049857 0.061249 0.064621 0.073025 -0.158407 -0.112130 -0.129140 0.064398 0.113090 -0.095351 -0.003011 -0.005189 0.058665 -0.015334 0.015282 -0.004716 0.050222 -0.115072 -0.056157 -0.117452 0.003108 -0.236434 -0.003753 -0.007836 -0.112324 0.015011 0.150336 -0.051358 0.109322 -0.135918 -0.031998 -0.137815 0.017166 -0.004567 -0.019039 0.100640 0.185261 0.131194 0.113117 0.097871 0.094367 -0.061140 -0.103873 0.105161 0.068078 -0.051622 -0.017889 -0.013854 -0.124942 0.083321 0.043084 -0.089942 0.104560 -0.143409 -0.085376 0.138019 0.054819 -0.002695 0.094683 -0.035903 -0.057166 0.126752 0.027631
argentina 0.194655 -0.033301 0.130046 0.074655 0.093197 0.007492 0.045091 -0.067219 -0.006392 -0.104576 -0.017810 -0.080710 0.174784 -0.183258 0.021437 -0.060244 -0.057555 -0.034336 0.010281 0.023446 -0.026856 -0.015508 0.042469 -0.063316 -0.127620 0.066348 -0.119973 -0.015854 0.105861 0.085543 -0.060957 0.004620 0.031666 -0.161651 0.048933 -0.027165 0.170131 -0.092945 -0.175073 0.099029 -0.016335 -0.082290 0.082577 0.084325 -0.083755 0.030252 -0.031221 -0.084598 -0.057153 0.195308 0.000000 -0.010997 -0.095424 0.078325 -0.081764 -0.102302 0.078957 0.012510 -0.029441 -0.008373 0.042084 0.039826 -0.059911 -0.041128 -0.080934 0.016898 -0.117338 0.116682 0.126053 0.052321 -0.052947 0.035321 0.021102 -0.141429 0.082926 -0.040349 -0.022994 0.060105 -0.123585 0.057174 -0.095369 0.049282 0.037475 0.130671 0.150517 0.037995 0.057893 -0.023864 -0.072710 0.023619 0.120196 -0.103173 -0.166617 -0.163027 0.068209 0.121387 -0.028414 -0.011530 -0.057788 0.037245 0.073110 0.028378 -0.074930 0.000936 -0.001769 0.012774 -0.120129 -0.062682 0.063035 0.045303
vietnam -0.038628 0.038937 0.083843 -0.186282 0.237239 0.001063 0.121075 0.109835 0.009820 0.013141 0.098263 0.045976 -0.058628 -0.016100 0.097713 -0.134421 0.021597 0.051614 0.067714 0.022847 -0.067995 0.133928 -0.108663 -0.019694 0.056289 0.064951 0.051316 0.036997 0.085297 0.068276 0.036823 0.112718 0.027633 0.153789 0.074251 0.004417 0.106774 0.063748 0.057971 -0.093179 0.092859 -0.113879 0.103978 -0.167519 -0.004047 0.165953 0.098596 -0.093970 0.035518 0.091923 0.025898 0.036614 -0.153362 0.056729 0.168503 -0.091661 0.046122 -0.004356 0.043663 -0.071809 -0.029184 0.134414 -0.042410 0.068574 -0.010891 0.175623 0.033241 0.140211 0.008148 0.053580 -0.053483 0.007330 0.005955 -0.088987 0.052473 0.063842 -0.039915 -0.339492 -0.069354 -0.032792 0.059551 -0.069602 -0.102673 -0.074934 0.073344 0.030961 -0.007817 0.019690 -0.011765 0.004874 -0.036408 0.081568 0.176956 0.109821 0.035224 0.008793 -0.018139 -0.022574 0.052285 0.075725 0.118167 -0.112043 -0.022667 -0.153948 0.102552 0.024520 0.060311 0.186813 0.234771 -0.036212
norwegian -0.093469 -0.041596 -0.054672 0.013073 0.116268 0.168214 -0.001019 -0.189796 0.052418 0.034646 -0.042320 0.088696 -0.053109 -0.066183 0.058415 0.223691 0.085952 -0.023320 -0.177951 -0.020970 -0.076666 0.067430 0.117634 0.019798 0.017447 -0.091803 0.015863 -0.119888 -0.055150 0.059514 0.071942 -0.068176 0.124580 -0.069342 -0.080801 -0.012972 -0.117695 -0.162442 0.097995 -0.015876 0.121450 0.185556 -0.063647 -0.201591 0.053287 0.174125 -0.117075 0.013814 0.087758 -0.066824 -0.072833 -0.012316 0.016082 0.024915 0.157417 0.069619 -0.070457 -0.060925 0.091485 -0.109453 0.081349 -0.037970 -0.024824 -0.041681 -0.000532 0.101216 0.008123 0.026038 -0.011406 0.061208 0.137374 0.073560 -0.092242 0.151825 0.051749 0.108520 -0.129439 -0.128299 0.017208 0.021358 0.037476 0.112233 -0.221476 0.045942 0.017544 -0.193156 0.223011 0.015132 0.115270 -0.028685 0.170685 0.080229 0.167639 -0.075838 0.028824 0.044323 -0.051316 -0.025913 -0.035342 0.041644 0.021107 0.041821 -0.177088 -0.032719 -0.046911 -0.120448 0.015365 0.014255 -0.006182 -0.097741
professionally -0.070021 -0.061776 -0.157567 -0.067096 -0.068306 0.010983 -0.157564 -0.025601 -0.040762 -0.052953 0.089153 0.083376 0.086707 0.136194 -0.235999 0.000328 0.020227 -0.011157 -0.077970 -0.057399 0.052983 0.051534 0.180001 -0.070414 0.068267 0.089299 -0.065958 -0.008410 0.059451 -0.027197 -0.075391 0.127731 0.056365 -0.048633 0.159150 -0.189532 -0.025968 0.127118 0.133179 -0.057295 -0.088907 0.166172 -0.004551 0.096106 0.028215 0.046108 -0.057005 -0.089358 -0.006574 0.026740 -0.115894 -0.032696 0.030843 0.020375 0.062016 0.020814 0.033073 -0.081830 -0.011681 -0.021624 0.053183 -0.091478 0.168674 -0.068459 0.058933 0.154668 0.063177 0.046722 0.069728 0.046308 -0.020369 -0.020259 0.094439 -0.000793 0.028008 -0.011530 -0.091428 -0.018635 0.039034 -0.024500 -0.024638 0.026371 -0.045001 0.034427 0.136049 -0.167579 -0.096775 -0.046749 -0.027738 0.046321 0.144317 0.032767 -0.085391 -0.061837 0.092367 -0.033771 -0.055932 0.118519 0.012101 0.165913 -0.088428 0.123372 0.115132 -0.079889 -0.070803 -0.031010 0.049866 -0.102369 0.141871 0.037116
argentinean 0.225078 -0.130950 0.041980 -0.001883 0.089566 0.026019 0.200447 -0.113233 -0.183100 0.036484 0.029208 -0.060776 0.041548 -0.061944 -0.035042 -0.260011 0.066907 0.011944 0.070878 0.161580 -0.069591 -0.059029 0.095160 -0.047215 -0.012114 0.081792 -0.060318 0.033959 0.101911 0.022579 -0.053153 -0.035825 -0.007099 -0.136164 -0.002238 0.123193 0.075672 -0.005738 -0.076272 0.106591 0.031998 -0.059328 0.029126 0.036116 -0.179295 0.072141 0.052205 0.089715 -0.022401 0.184752 0.078910 -0.010951 -0.136484 0.125523 -0.066544 -0.102470 0.094508 0.111589 0.041618 -0.116425 0.108801 0.014799 0.010304 -0.107627 0.010108 -0.121986 -0.172665 0.095721 0.120693 -0.045748 -0.021735 0.199224 0.086933 -0.099568 0.065494 -0.085618 -0.030421 0.011103 -0.124418 -0.030158 -0.056185 -0.094397 -0.019680 0.027187 0.035070 -0.088525 -0.047631 0.045711 -0.036349 -0.024985 0.052162 -0.065814 -0.141636 -0.079290 -0.020211 0.094126 0.024500 0.048290 0.032303 0.124021 0.067966 0.039891 -0.134138 0.054501 -0.023846 0.029158 -0.044586 -0.077230 -0.013156 0.024956
louder -0.060399 -0.055735 0.036627 0.016127 0.047210 0.037086 -0.013980 0.180721 -0.008890 0.027187 0.099981 -0.036970 -0.036502 0.030233 -0.133606 -0.103726 0.163791 0.100892 -0.003669 0.042543 0.033407 -0.025884 -0.178606 -0.198685 -0.129409 0.039413 -0.045042 0.072020 -0.019415 -0.031109 -0.057670 0.024861 0.030341 -0.047712 -0.024926 -0.024770 -0.030449 -0.028563 -0.006999 -0.138113 -0.017883 0.058262 0.099367 -0.058635 -0.032544 -0.099758 0.146732 0.061309 -0.082519 0.107594 0.034387 -0.038068 -0.042342 0.109488 -0.010677 -0.050170 0.190270 -0.030713 -0.011216 -0.232482 0.154794 0.189045 0.034993 -0.047698 -0.107403 -0.018937 -0.026524 0.013192 -0.106515 0.032577 -0.171313 0.075292 0.214328 -0.186332 -0.024506 0.039677 -0.075807 -0.054658 0.022115 -0.036990 -0.044453 -0.056426 0.055492 -0.136124 0.066741 0.039852 0.047482 -0.016615 0.048787 -0.016329 -0.024491 0.035008 0.039630 -0.154148 0.007990 -0.104697 -0.121038 0.042918 0.021925 0.000565 0.101451 -0.190308 0.132279 -0.139443 -0.047254 -0.147762 0.092862 0.013889 0.082945 -0.065356
chicago 0.069201 -0.079720 0.119341 -0.207822 0.012840 -0.010141 0.074013 -0.084094 0.082640 -0.031628 -0.064651 -0.116986 0.078248 -0.066898 -0.113127 0.156745 0.043485 0.104769 0.007639 -0.265469 -0.109472 0.022865 0.090936 -0.062889 0.123974 -0.126569 0.041577 0.061147 0.092412 -0.037698 0.067796 0.042326 -0.137569 -0.090433 0.046431 0.005591 0.046643 -0.131147 0.098030 0.065042 -0.097301 0.015834 -0.102261 -0.087249 0.052235 -0.006120 -0.008635 -0.054288 0.137283 0.141431 -0.000047 0.071985 0.056975 0.023654 -0.009745 0.072706 0.080869 0.058423 0.080615 -0.079989 -0.021125 0.181878 0.025460 -0.025647 -0.020706 0.055069 0.147311 -0.012647 -0.123329 0.108255 -0.064367 0.092664 0.093844 -0.177685 -0.135696 0.059436 0.096840 -0.009021 0.163379 0.085112 0.140155 -0.022575 0.237060 0.078128 0.085967 0.053304 -0.176428 -0.166805 0.177444 -0.043655 -0.125772 -0.008531 -0.005242 -0.213800 -0.054799 0.074612 -0.044221 0.076471 -0.022089 -0.032034 0.050574 -0.007215 0.208894 0.053551 0.065524 -0.052960 0.061386 -0.090893 0.120477 0.101729
move -0.073154 -0.003811 -0.016377 0.043360 -0.010067 -0.033440 0.090883 -0.100768 0.134846 0.041615 0.139021 -0.068804 0.129433 -0.033085 -0.068093 0.080332 0.028079 0.087961 0.039846 0.022327 -0.030784 -0.151502 0.000676 0.021053 0.125711 -0.017576 -0.002701 0.116774 0.042280 0.075784 -0.123201 -0.112011 0.141117 0.030305 0.054550 -0.182615 -0.008516 0.016608 0.011038 -0.015184 -0.032670 0.077786 -0.050271 -0.090250 0.143722 -0.005377 0.140430 0.017888 -0.031400 0.017804 0.057981 -0.124792 -0.147205 -0.070441 -0.004715 -0.091197 -0.103599 0.034528 0.075285 0.000424 0.050948 -0.031933 0.019977 0.051911 -0.031233 -0.011564 0.013431 0.110341 -0.037181 0.072265 -0.064146 0.053176 -0.099120 0.021362 0.055040 -0.005728 -0.089065 -0.036639 -0.134640 0.070629 0.061554 -0.064085 -0.154199 0.048317 0.010632 0.117128 -0.022302 0.054842 0.098830 0.002588 0.083727 0.013527 -0.073196 -0.063656 0.051370 -0.026869 0.036016 0.052482 -0.007845 0.086559 0.012451 0.071129 0.046977 -0.081961 -0.028619 0.010267 -0.225908 0.057833 0.016398 0.094049
thailand 0.125025 -0.185129 -0.021494 0.030160 -0.010367 0.220391 0.226949 -0.052915 -0.068671 -0.057868 0.094117 0.061650 -0.057987 -0.103611 -0.098024 -0.040117 0.090010 -0.033636 -0.058706 -0.154035 -0.022098 -0.157317 -0.051278 0.149094 0.063865 -0.173183 -0.127764 0.145102 -0.111900 0.051558 -0.117170 -0.133013 0.173609 -0.063519 -0.069817 0.010725 -0.022007 -0.015866 0.058199 -0.036337 -0.020927 0.134587 0.027311 0.015935 -0.078221 0.170978 0.143085 0.023575 0.062614 0.023973 0.043355 -0.055491 -0.001319 -0.110992 -0.045933 0.018883 -0.032775 0.040724 0.050536 -0.040399 0.090629 -0.047788 0.000511 0.046675 -0.096597 -0.018914 -0.117283 -0.055082 0.032227 0.063751 -0.010847 0.064976 -0.124659 -0.097169 0.000689 0.066592 -0.003632 -0.084846 -0.005895 0.020351 0.125856 -0.056691 0.115605 0.070124 0.006233 -0.113665 0.012210 0.113813 -0.172098 -0.027855 0.026216 0.032889 -0.039666 -0.054226 -0.161709 0.077331 -0.063765 0.014927 0.041462 0.012819 -0.044758 0.005653 0.021401 0.049236 0.030309 -0.059766 0.125539 0.047829 0.013984 -0.112249
ukraine -0.042441 -0.157862 -0.131810 -0.033836 -0.016757 -0.030139 -0.179550 -0.007352 0.092921 0.090697 0.004591 -0.003905 0.073524 -0.089198 -0.020736 -0.042077 0.094634 -0.090584 -0.051164 0.010410 -0.089189 -0.090453 -0.078158 -0.026895 -0.087126 0.122582 0.096261 0.024244 -0.103785 -0.043503 -0.137060 -0.063608 0.110015 -0.150627 -0.015259 0.093507 -0.040454 0.013696 0.036115 0.045211 0.024943 -0.011902 -0.044786 -0.033276 -0.087888 0.006047 0.144195 0.037298 0.014412 0.146297 0.195923 0.079860 0.048660 0.143341 0.086489 -0.196355 0.017218 -0.046605 -0.158377 -0.056966 0.056391 0.052742 -0.063480 0.079256 0.048438 0.024578 -0.025025 0.084868 0.028447 0.025075 0.115940 -0.080787 -0.133775 -0.075875 -0.022991 0.111470 -0.120362 -0.109357 0.238051 -0.023543 0.054406 -0.004426 -0.109622 -0.192241 0.129367 -0.031073 -0.068096 0.064488 -0.044914 -0.089531 0.077742 0.131590 -0.049471 0.118084 0.071519 0.094384 -0.068554 0.063418 -0.083381 -0.027133 0.096147 -0.009930 -0.022827 -0.168991 -0.004568 -0.257494 0.038431 0.030637 -0.042742 0.123682
plano -0.005894 -0.106346 0.356658 0.112037 -0.064132 0.107762 -0.063846 0.012199 -0.097593 0.123700 -0.034895 -0.133151 0.016819 0.052688 -0.089889 0.113172 0.060853 -0.130669 0.064400 -0.041597 0.006867 0.190891 0.068957 -0.041034 -0.087863 0.012562 -0.096313 -0.004197 -0.052914 -0.091572 -0.096078 -0.152667 0.017273 -0.108870 -0.035448 -0.057365 -0.064001 -0.128035 -0.068679 -0.131322 -0.011938 -0.009465 -0.094243 -0.120953 -0.079247 0.162065 -0.096404 0.068237 0.109846 0.052296 -0.038618 -0.118759 0.000390 0.093859 -0.015257 0.003520 0.002318 -0.005228 0.081286 0.135386 0.072509 0.110238 -0.024279 0.005962 0.097505 0.044217 -0.071221 0.074982 0.085126 -0.096136 0.097883 0.028297 0.166289 -0.061470 -0.070666 -0.017179 -0.067849 -0.043003 0.018309 0.032566 0.027326 0.074136 -0.000052 0.022456 0.067063 0.040999 -0.107275 0.023259 0.052778 -0.093418 -0.123691 0.057185 0.025141 -0.013986 0.126778 0.015912 0.078018 0.011271 0.022879 -0.061189 0.001632 -0.104353 0.090244 -0.089980 -0.165001 0.077984 0.016554 -0.257557 0.075112 0.025324
texas 0.079724 0.186472 0.304613 0.042941 -0.106420 0.092244 -0.065305 0.030338 0.132194 0.071993 0.073420 -0.090239 0.068081 0.014328 -0.113476 0.014344 -0.055987 -0.106327 0.033404 0.061807 0.059875 0.074777 0.024802 -0.020711 0.013506 0.126187 -0.032953 0.069035 -0.042647 0.088677 -0.041607 -0.151799 -0.029526 -0.079015 0.037818 -0.098661 -0.082030 -0.144192 -0.123020 -0.052139 0.023215 0.087435 -0.234075 -0.114646 -0.135073 0.155045 0.057486 0.065635 0.193739 -0.065457 0.020257 -0.105508 -0.019572 0.137319 -0.062552 -0.015566 0.030968 -0.037814 -0.028030 0.001186 0.011247 0.037633 -0.050443 0.044715 -0.149751 -0.098613 -0.043428 -0.095626 0.111576 -0.005476 0.053115 -0.073629 0.071200 0.056007 -0.010948 0.007364 0.060197 -0.032997 -0.042259 0.136392 -0.137332 0.172014 -0.000213 0.119616 0.048572 0.045557 -0.006987 -0.151260 -0.009965 -0.075515 -0.015747 0.103928 -0.066488 0.066456 0.093054 0.066769 -0.069736 0.045931 0.049615 -0.054304 -0.070760 -0.052343 -0.050422 -0.042766 -0.138036 0.062037 0.062051 -0.215964 0.109568 0.020283
tough -0.019283 0.017055 -0.042996 0.087424 -0.052808 0.133362 0.077838 0.046409 -0.045037 0.022024 0.017931 -0.046489 -0.137097 -0.141128 -0.048370 -0.071253 0.024891 -0.042783 0.126038 -0.128051 -0.020369 0.137508 0.170515 -0.062097 -0.061278 -0.004194 0.084331 -0.085809 0.030973 0.099511 0.232960 0.186357 0.077056 0.096686 -0.040289 -0.065299 0.075090 -0.058743 0.090479 0.020139 0.156041 0.073937 -0.026205 -0.064205 -0.082799 0.042279 0.069958 -0.079060 -0.012284 0.083456 -0.088520 0.236982 0.044482 -0.015757 0.017404 0.075728 0.165332 -0.146270 -0.114648 -0.164821 0.055871 -0.001597 0.101608 -0.156904 -0.000925 0.041488 0.096639 0.119684 -0.104818 0.033070 0.109307 -0.002790 -0.098336 0.022204 -0.101569 0.032360 -0.065300 -0.036317 0.070059 0.001010 -0.061654 0.062467 0.069237 -0.155485 0.059822 -0.057238 0.062715 0.110736 -0.084283 -0.060717 0.074622 0.101730 -0.072360 0.025422 0.120984 0.135521 -0.049231 -0.010933 0.158477 0.027580 -0.013243 -0.067686 -0.054256 0.012273 -0.057269 0.025159 -0.051718 0.025424 0.014787 0.115569
flying 0.020062 -0.107438 0.022911 0.038148 -0.046156 0.022675 0.019557 0.004143 -0.177922 -0.085131 -0.081392 -0.169121 -0.018600 -0.134804 -0.118463 0.057292 -0.073907 0.138368 0.088331 0.099161 0.117909 -0.020254 0.004831 -0.095599 -0.053315 0.006515 0.193107 -0.071111 0.031157 0.054218 -0.178121 -0.023448 -0.014056 -0.115764 0.114677 -0.222083 0.068090 0.042089 0.031828 0.020232 -0.018470 -0.084897 -0.142299 -0.134269 0.016177 -0.017341 0.033324 -0.042576 -0.022624 0.068320 0.056596 -0.073185 0.152967 -0.093774 0.036889 -0.102080 0.008557 -0.022559 0.047735 0.049266 -0.195741 0.016451 0.060363 -0.039859 -0.148510 0.042543 0.092756 -0.083323 0.119250 -0.062888 -0.001990 -0.229925 -0.113237 -0.046471 0.037578 0.034824 0.008446 -0.012028 -0.140112 0.070583 -0.104124 0.018363 0.009042 -0.010231 -0.036435 -0.085868 -0.025402 0.153602 -0.008898 -0.031430 -0.098785 -0.010849 -0.028043 0.101694 0.042562 -0.091788 -0.114514 0.129004 -0.042344 0.013474 -0.125916 0.103161 0.121495 -0.030622 -0.162812 -0.073535 0.165405 0.128262 0.060734 -0.016280
iraq -0.055280 0.027559 0.012959 0.046078 0.052164 -0.059755 -0.141631 -0.060911 -0.111433 0.017585 -0.010145 -0.101819 0.011632 0.020854 0.041224 -0.135714 0.104313 0.037248 0.000408 0.024118 0.130565 0.028257 -0.051063 -0.087389 0.015564 -0.044225 -0.031211 -0.038727 -0.057253 -0.141329 -0.006158 0.079156 -0.060398 -0.042492 -0.017173 -0.027987 0.242812 -0.071953 -0.055934 0.097753 0.031406 -0.091985 0.032777 -0.093372 -0.112353 0.088415 0.113715 0.027746 -0.110524 0.108325 0.047922 -0.087257 -0.040593 0.056385 -0.044520 -0.128791 0.119089 0.064233 -0.005540 -0.054536 -0.041384 -0.047080 0.016581 -0.160456 0.066957 -0.045463 0.168182 0.146494 -0.090643 -0.000610 -0.045268 0.023734 -0.096162 -0.039466 0.002642 0.173044 0.047603 0.095891 -0.123810 0.068542 -0.015048 -0.026103 -0.128028 0.131811 -0.062423 -0.175106 -0.019642 0.065828 -0.059642 -0.012729 -0.000271 0.007889 -0.014444 -0.025505 -0.128123 -0.179826 -0.025933 0.036145 -0.099667 0.090019 0.032186 -0.051962 -0.010517 0.071510 -0.147747 -0.035876 -0.084229 -0.047310 -0.067184 0.067019
professional 0.013510 -0.036471 -0.158910 0.063049 -0.159737 -0.036205 -0.047870 0.094504 -0.028584 -0.057638 0.052932 0.009258 0.046153 0.038036 -0.195090 0.007391 0.080733 0.041688 0.119444 -0.020771 0.026873 -0.047551 0.015182 -0.253264 -0.055936 -0.047234 -0.069176 -0.042682 -0.093157 0.041667 0.053758 0.082649 0.029853 -0.039301 0.133357 -0.128180 0.023297 0.059320 0.052456 -0.120854 0.136990 0.009358 -0.046315 0.022940 -0.070339 -0.011091 0.020477 0.065006 0.027483 0.039429 -0.159103 0.106307 0.029488 -0.006064 -0.047546 -0.035711 0.147672 -0.009269 0.009244 0.023947 -0.067004 -0.076297 -0.012366 -0.121709 0.080628 0.088626 0.132076 0.057923 0.093078 0.095366 0.160132 -0.026686 -0.049528 -0.132762 -0.040710 0.032061 -0.106559 0.014292 0.164797 0.000706 -0.040173 -0.073579 -0.081584 0.003236 0.169009 -0.084489 -0.068741 -0.054498 -0.055681 0.014788 0.041329 0.026366 -0.116570 -0.050017 0.054521 0.037059 0.039626 0.047284 0.094059 0.087170 -0.081887 0.090087 0.154622 -0.048634 -0.112015 -0.020863 0.054642 -0.025038 0.182603 0.015148
fly 0.022213 -0.135192 0.031969 -0.011158 -0.016889 -0.031355 0.108594 -0.103298 0.028224 -0.119584 0.050223 -0.133147 0.000340 -0.149298 0.082740 0.036594 0.027949 0.092482 0.068595 0.062714 0.080722 -0.000098 0.067978 -0.149010 -0.082723 -0.029667 0.072953 -0.019890 0.075344 0.125234 -0.115858 -0.043943 -0.023904 -0.081684 0.080385 -0.044682 -0.014140 0.062924 0.071382 -0.025419 -0.043293 0.016022 -0.056646 -0.205906 -0.008731 0.036660 -0.116973 -0.035353 0.011142 0.072912 0.057094 -0.005007 0.192906 -0.043751 0.017028 -0.111447 -0.017364 0.006768 -0.019028 -0.050969 0.083175 0.042185 0.162323 -0.043995 -0.204992 0.070194 0.068601 -0.222923 0.177406 0.011675 -0.052396 -0.078943 -0.096584 -0.000611 0.085804 0.063224 0.054943 -0.035864 -0.027286 -0.020506 -0.157982 0.115414 -0.020167 -0.054985 0.006180 -0.104040 0.129859 -0.017242 0.014388 0.029331 0.149086 0.036689 -0.051457 0.027161 -0.014044 -0.020902 0.003086 0.119245 -0.078556 0.047984 -0.119333 0.161939 0.021723 -0.144933 -0.082916 0.015880 0.213238 0.074744 -0.008037 -0.055529
danish -0.021124 -0.115008 -0.047776 0.073517 0.070677 -0.102449 -0.051428 -0.017449 -0.127438 -0.035493 0.078196 0.262556 -0.129368 -0.082082 -0.049477 -0.196427 -0.024155 0.089600 0.049109 -0.048132 0.131671 -0.020030 0.048941 0.036002 -0.123605 0.014343 -0.074619 0.077340 -0.001452 -0.024071 0.005417 -0.067605 0.023497 0.006471 0.197138 0.017517 -0.102856 -0.068193 -0.129931 -0.072170 0.185758 -0.059602 -0.082947 -0.007371 0.063619 -0.106540 0.088179 -0.009983 -0.050631 0.032594 0.214106 -0.090997 -0.016879 -0.029548 -0.129783 0.012356 -0.016510 -0.006341 0.053088 -0.079356 0.000792 -0.014624 -0.051916 0.078074 -0.092486 -0.016155 0.001027 0.193610 0.010996 -0.009756 -0.180194 0.010761 0.034995 0.083815 -0.101616 -0.071185 -0.087242 -0.069999 -0.031065 -0.085184 -0.001039 0.110066 -0.022625 0.104762 0.081645 -0.163849 0.019827 0.183602 -0.140138 -0.022373 -0.022338 0.045391 -0.076692 -0.023511 -0.005394 0.018047 0.039635 0.102063 -0.026713 0.010401 -0.036688 -0.014333 0.042365 0.066342 -0.056417 -0.125961 -0.114495 -0.086828 -0.041623 0.138973
denmark -0.154603 -0.047569 0.094057 -0.014790 0.015363 0.008988 -0.118284 -0.031308 0.008458 0.000351 0.051921 0.215110 -0.186063 -0.070591 -0.013582 -0.149405 -0.008285 0.005044 0.040513 0.039182 0.064731 -0.003480 0.062345 0.053846 -0.044769 0.109896 -0.069949 0.054596 0.015030 -0.023165 -0.015660 -0.095600 -0.000552 0.125423 0.149088 -0.008038 -0.140381 -0.148170 -0.035457 -0.030894 0.103524 -0.077758 0.007123 0.045645 0.001324 -0.071082 0.094861 -0.006097 -0.008692 -0.001507 0.059101 -0.064272 0.046167 0.030769 -0.031270 0.010831 -0.044655 -0.114083 0.105969 -0.121378 -0.054806 0.024021 0.060166 -0.071898 -0.017803 -0.117747 -0.012637 0.088387 -0.068051 -0.009040 -0.101793 -0.109237 -0.010511 -0.044617 -0.026912 -0.069943 -0.012505 -0.040223 -0.073432 0.025375 -0.061504 0.061691 0.078791 0.007755 0.135506 -0.114713 0.000164 0.117404 0.013611 -0.086993 -0.022255 0.021260 -0.046531 0.138288 0.102948 0.029727 -0.062731 0.324217 -0.036832 -0.037858 -0.174822 -0.061831 0.035916 -0.000991 -0.036486 -0.131915 -0.012759 -0.136812 0.045452 0.044246
croatia -0.061640 0.129219 0.081068 -0.008447 -0.223349 -0.059959 -0.151241 -0.123931 0.025746 -0.022718 0.000790 -0.171071 -0.016063 -0.101197 -0.039702 -0.005922 0.040371 0.120992 -0.048794 -0.040349 -0.025862 0.016959 -0.042626 -0.078560 -0.110827 0.151897 -0.013335 0.108637 0.007183 0.004249 0.072459 0.039459 0.116495 0.010303 0.061539 -0.052540 0.039660 0.003439 -0.020276 0.022878 0.011038 -0.091315 -0.069953 -0.053696 -0.149666 0.124109 0.085939 0.002203 0.116246 0.149873 0.131346 -0.056497 0.007238 -0.086956 -0.029787 0.033028 -0.035222 -0.023865 -0.018105 0.065444 -0.031068 0.116911 0.084181 0.059920 0.078074 -0.013467 -0.041571 0.019452 -0.153336 -0.072007 0.034785 -0.070224 0.047624 -0.089335 -0.053753 0.014103 -0.050022 -0.124767 -0.058956 0.055301 -0.031726 0.019502 0.103318 0.070841 0.009500 0.084912 0.144844 0.022718 -0.088625 0.069678 0.026937 -0.079066 -0.048123 -0.109039 -0.038906 -0.061740 0.162311 0.046575 0.002898 0.006229 -0.081817 0.070956 0.195051 -0.063719 -0.052197 -0.070696 -0.015728 -0.048232 0.017280 -0.064327
