move -0.336300 -0.480249 -0.650396 0.674984 0.636002 -0.019153 -0.179096 0.343497 0.049704 -0.003267
tougher 0.059141 -0.064147 -0.236476 -0.424925 0.190935 0.163740 0.188128 0.286981 0.058297 0.360541
occasionally -0.160900 -0.258830 0.204122 -0.071718 -0.205726 -0.053603 0.052054 0.261247 -0.472311 -0.047461
argentina -0.381325 -0.333540 -0.083189 -0.227175 -0.059643 -0.168162 0.103167 -0.469325 -0.051902 -0.082949
danish -0.314979 -0.067922 0.318352 0.000110 0.420508 -0.292669 0.351800 0.236170 -0.289141 0.223777
fly -0.235698 -0.462436 -0.422972 0.596595 0.427979 0.143365 0.073110 0.079385 0.093136 -0.133984
louder 0.077930 -0.048009 -0.063297 -0.321739 0.112758 0.287608 0.192824 0.186801 -0.049569 0.275206
loud -0.266361 -0.097416 -0.166724 -0.228775 -0.082372 0.584673 -0.033729 0.090378 0.157602 -0.091059
norway -0.268042 -0.453901 -0.335045 -0.327685 -0.125521 -0.059441 -0.116431 -0.491605 0.135389 0.037883
ukraine -0.095009 -0.226685 -0.233375 -0.280780 -0.313290 0.121273 -0.029909 -0.473192 -0.041467 0.164749
professional 0.229989 -0.130290 0.094619 0.221718 -0.374471 0.203128 0.174669 0.020587 -0.685217 0.020058
moving 0.035937 -0.542113 -0.098736 -0.079402 -0.310683 0.234245 -0.170142 0.190122 0.082844 0.217157
tough -0.196311 0.037233 -0.116829 -0.195325 0.005392 0.581146 -0.029499 0.117862 -0.106139 -0.080573
flying 0.112714 -0.665031 -0.090792 -0.038574 -0.474021 0.193090 -0.176467 0.110576 -0.062417 0.075221
professionally -0.176085 -0.275684 0.423378 -0.237788 -0.279085 -0.117969 -0.033026 0.132385 -0.637187 -0.051387
norwegian -0.236116 -0.002064 0.186440 -0.203822 0.179885 -0.206513 0.164761 0.335368 -0.322616 0.334514
argentinean -0.248974 -0.004073 0.324569 -0.068681 0.143436 -0.198585 0.491526 0.382398 -0.242613 0.199172
ukrainian -0.101673 0.130798 0.340918 -0.197168 0.091335 -0.016157 0.378373 0.290732 -0.304666 0.385763
occasional -0.003260 -0.032538 -0.046183 0.213892 -0.305222 0.246718 0.076128 -0.044977 -0.442305 0.105987
denmark -0.328877 -0.251759 -0.078009 -0.144415 0.009748 -0.070277 0.158711 -0.423083 -0.019431 0.006737
