hanoi -0.031546 0.069212 -0.336458 -0.011481 -0.102486 0.047579 0.095587 -0.012969 -0.012411 -0.113719 -0.001116 -0.176215 -0.036837 0.097126 -0.008492 -0.032922 0.117197 0.080051 -0.033534 0.161472 -0.114860 0.066621 0.105707 -0.202756 -0.217856 0.204047 0.004849 0.136579 -0.115067 -0.025129 -0.101695 -0.125576 0.080327 -0.020648 0.155884 0.091713 0.086013 -0.139801 0.083716 -0.155131 0.108677 -0.003609 0.076072 -0.108589 0.108587 -0.031726 0.183932 0.014003 -0.008161 0.138167 0.087684 -0.066425 -0.002530 -0.160365 0.123162 0.086726 0.130004 0.094654 0.141337 0.028544 -0.192712 -0.070904 -0.031051 -0.050877 -0.065780 0.061320 0.071846 -0.122025 0.123610 -0.003624
tougher -0.060884 -0.161356 -0.168250 0.050289 0.035623 0.075028 -0.097792 0.066248 -0.023510 -0.214359 0.018722 0.048419 0.148979 0.047783 0.117894 0.032806 -0.062173 -0.008607 0.116525 0.041286 -0.329424 0.168779 0.252652 -0.204718 0.036717 0.160282 -0.118080 0.074323 0.088301 0.034328 -0.056527 -0.016680 -0.111717 -0.058925 0.032043 0.181587 -0.073055 -0.082058 -0.124808 0.036888 -0.010635 0.096680 0.142777 0.041188 -0.173191 0.055863 0.076112 -0.067470 0.110599 0.029896 -0.076225 -0.028942 0.003680 0.105744 -0.033508 -0.064909 -0.055618 -0.037877 0.111092 -0.016021 0.110936 -0.088850 0.076924 -0.058798 0.055036 -0.037341 0.047328 0.056156 -0.224723 -0.140211
occasionally -0.209953 0.098121 0.030164 0.036775 0.144677 0.099356 0.107743 0.161002 -0.029498 0.122763 0.132963 0.096919 0.033428 -0.043375 0.091635 -0.289205 0.138776 -0.312746 0.011273 0.010932 -0.123181 0.070386 -0.069706 0.074663 -0.054149 -0.033341 0.094563 0.109057 -0.046282 0.033623 0.106220 -0.209028 0.042002 0.008877 0.013489 0.190129 -0.086195 -0.049418 0.025448 -0.099603 -0.025206 0.106301 -0.154261 -0.125085 0.051396 -0.042375 -0.076716 -0.050447 0.098476 -0.154304 -0.102351 -0.001275 0.010286 -0.002949 -0.101510 0.042817 0.171680 0.124344 0.197451 0.117616 -0.034261 -0.067174 -0.063159 0.012282 0.048217 0.175174 0.226111 -0.083047 -0.032773 0.060715
ukrainian 0.022059 0.018285 0.158841 0.055727 -0.051423 -0.116258 0.166356 -0.200096 -0.113748 -0.107801 -0.021183 -0.001082 0.046389 -0.023095 0.193182 -0.028778 -0.062855 -0.027125 0.019666 -0.101184 0.132714 -0.236645 -0.003396 -0.069685 -0.163707 0.028199 0.071713 -0.106667 -0.033009 -0.175441 0.142943 -0.042926 -0.080164 -0.029487 0.061977 0.096018 0.207623 -0.141822 -0.055457 0.066331 -0.130276 0.023796 -0.070030 0.041836 0.160058 -0.075001 -0.023754 0.155280 -0.155137 0.011038 0.000941 0.030493 0.151647 -0.099965 0.045102 -0.115950 -0.092611 -0.068644 0.218900 0.178585 0.260409 -0.007305 -0.052169 -0.007392 -0.135269 0.011287 -0.051863 0.141567 0.021837 0.145064
occasional -0.201305 0.111839 0.123118 0.107568 0.091696 0.106549 -0.059226 -0.033921 0.019026 0.056135 0.001021 -0.029278 -0.155391 -0.139018 0.086684 -0.212650 -0.050291 -0.262262 -0.083472 -0.021371 -0.074872 0.210450 -0.182568 0.036590 -0.018972 0.037224 0.024593 0.061649 -0.028068 -0.064039 0.025995 -0.123011 -0.108479 0.118896 -0.092097 0.186046 0.117271 -0.075663 -0.070708 0.011066 -0.020761 0.155985 -0.081603 -0.004270 0.077613 -0.090021 -0.103119 -0.062313 0.024622 -0.049502 -0.116229 0.107596 0.061059 0.102596 0.014798 -0.155332 0.117067 0.066365 0.110629 0.105756 -0.055382 0.031115 -0.070782 -0.140065 -0.202932 0.149864 0.120141 -0.047866 -0.210543 -0.090003
norway 0.000135 0.319248 -0.139624 -0.162954 0.053262 -0.046951 -0.068641 -0.126434 -0.020677 -0.042550 0.054114 0.141583 -0.052935 0.015247 -0.017539 -0.175980 -0.067115 0.207829 0.114116 -0.081454 -0.030113 0.067889 -0.076027 0.093289 -0.128798 0.115517 0.081137 0.057084 0.031952 -0.128937 0.107813 0.045485 -0.084968 0.111869 -0.096370 -0.070027 0.143549 -0.036652 -0.202574 0.036868 0.056332 -0.032607 0.058850 0.063768 -0.056253 0.061275 -0.140751 -0.172307 0.109680 -0.095002 0.094145 -0.004482 0.115962 0.006360 0.135794 -0.109387 -0.059561 -0.164462 -0.091113 0.061916 -0.015929 -0.085883 -0.110391 -0.099234 -0.027118 0.140810 -0.039764 0.192844 -0.087042 0.030397
baghdad 0.077524 0.029407 -0.080782 0.207517 -0.052080 -0.131698 0.163029 -0.118139 -0.078932 -0.057450 0.027089 0.066615 0.023329 -0.014806 -0.066481 -0.041769 -0.007720 -0.079989 0.158709 0.060752 0.009177 -0.032540 0.094303 0.181138 0.073416 0.127948 -0.044942 0.000547 0.137284 0.022912 -0.128111 -0.013369 -0.007058 -0.076996 0.021244 -0.028196 -0.028928 0.093160 -0.027176 0.106059 0.067199 0.224113 0.081747 -0.105199 -0.162588 0.178321 -0.044581 0.054733 0.317104 0.075031 -0.049931 -0.044716 -0.095525 0.088733 -0.055363 -0.154659 -0.062161 0.196081 0.168205 -0.227707 0.039807 -0.050109 0.220124 -0.163856 -0.110049 0.183221 -0.125663 -0.113464 0.025238 0.091227
illinois 0.081767 -0.029636 0.063590 0.098214 -0.045218 0.111450 -0.039184 -0.098969 -0.039063 -0.132290 -0.033816 0.065581 0.168815 0.085834 -0.088347 -0.112264 -0.026727 -0.012754 0.063842 0.161989 -0.049429 -0.191595 -0.075119 0.228312 -0.065488 0.086521 -0.319968 0.095420 0.038791 0.223659 -0.056251 -0.057218 -0.012339 -0.002047 0.085450 0.191044 -0.137432 -0.075844 0.140088 0.070303 -0.018682 0.039201 -0.141221 -0.196252 0.014006 -0.003732 0.065072 -0.039942 0.098802 -0.198331 -0.055953 0.064561 0.068975 0.073552 -0.199897 0.036473 -0.012098 0.003501 0.045166 0.032743 -0.098180 0.048355 -0.241819 -0.040055 0.011597 -0.011817 0.042333 0.011356 0.047870 0.012168
moving 0.244651 0.001336 0.167273 0.121867 0.032488 0.024957 0.120610 0.070644 -0.108746 -0.024713 -0.120208 0.047868 0.019365 0.104032 -0.033714 -0.143627 -0.002558 -0.173620 0.050995 0.116301 -0.011250 0.252034 -0.155973 -0.113688 -0.067935 0.104213 -0.035269 -0.073751 0.030708 -0.023571 0.175626 0.250149 0.041215 0.166589 0.011101 0.175809 0.166368 0.017670 0.018784 0.004622 0.085698 0.030107 0.190345 0.079212 0.053075 0.017074 -0.060590 0.188205 -0.131544 -0.116139 -0.080512 -0.079007 -0.042338 -0.222302 0.121251 0.138281 -0.220491 0.091066 0.073370 -0.107878 -0.034384 -0.033243 0.134085 0.081714 -0.000038 -0.215501 -0.144358 -0.118376 -0.103098 0.029151
loud 0.212157 0.025142 -0.069320 0.095992 0.100035 0.003298 0.105953 -0.027731 0.054768 0.013876 -0.242827 -0.158013 0.070879 0.104687 0.041225 0.026099 -0.053053 -0.086656 0.003714 -0.161493 -0.056816 0.052919 -0.146281 0.082388 -0.032797 0.083878 -0.000800 0.161861 -0.214849 -0.011386 -0.088088 0.066836 -0.037324 -0.157437 0.028510 0.032553 -0.053220 -0.184841 -0.043131 -0.174185 0.163551 -0.049510 0.013248 -0.110778 -0.040709 0.155140 -0.016568 -0.113811 0.119648 0.196316 -0.014553 -0.195711 -0.123765 0.132172 -0.011466 -0.037513 0.032847 0.253796 0.059205 -0.093652 0.016767 0.048881 -0.034422 -0.162354 -0.139851 0.077097 -0.051596 0.001413 0.022260 0.012564
thai 0.010118 -0.018289 0.098788 -0.069661 -0.036534 0.092127 0.144204 -0.060406 0.069727 -0.049961 -0.184395 -0.032312 -0.027894 -0.095794 -0.115309 -0.066598 -0.037429 -0.010756 0.021281 -0.051333 -0.187972 0.093952 -0.055049 0.065120 -0.322611 -0.034730 0.108377 -0.022322 0.069214 0.191605 0.043097 -0.118486 0.026074 0.142551 -0.104133 0.189305 -0.034352 0.037798 0.021462 0.027860 -0.081979 0.021603 -0.068287 0.044718 0.015832 -0.214321 0.006651 -0.093284 0.099849 -0.053224 -0.149942 0.007411 -0.273465 0.024733 -0.136385 0.074861 -0.047552 -0.104949 0.048867 -0.072790 -0.049425 -0.087675 0.101496 -0.173175 0.046933 -0.137474 0.072375 0.062996 0.144589 0.031319
croatian 0.151972 0.052974 -0.041346 0.015131 0.044211 0.106826 0.208293 -0.208351 -0.016514 -0.071443 -0.126395 -0.188921 -0.105221 0.063709 -0.212892 0.114152 -0.009147 -0.031354 -0.015888 0.037827 -0.155622 0.049727 0.124842 0.032784 0.031511 0.007149 -0.038540 -0.177590 -0.018780 0.218050 0.109776 -0.004878 -0.241467 0.146203 0.053979 0.043872 -0.010253 0.151427 -0.008178 -0.289574 -0.100131 0.014234 -0.162917 0.111590 0.143117 0.097349 -0.059276 0.054165 0.059751 -0.183222 0.013978 -0.047946 0.057378 0.116900 0.216658 -0.044399 -0.108525 -0.036304 0.093211 0.029274 -0.061838 -0.133850 -0.162919 0.035346 0.157503 0.072340 -0.023271 -0.133626 -0.097288 -0.037896
argentina 0.025310 0.045540 -0.080163 0.140628 -0.014451 -0.014160 0.005352 0.021536 -0.075842 -0.038282 -0.079367 -0.071544 -0.248014 0.086381 -0.145974 0.163569 0.085197 -0.058473 -0.045924 -0.024154 -0.039006 -0.033226 0.011940 -0.035985 -0.110428 0.076969 0.063302 0.274086 0.114918 -0.134017 0.094032 -0.004804 -0.191623 -0.024942 -0.230815 -0.050070 -0.134900 0.037672 0.046506 0.120777 -0.092061 0.074908 -0.072741 -0.028495 -0.015214 -0.025906 0.122906 -0.188221 -0.059182 -0.071417 -0.023642 -0.017388 -0.019801 -0.149020 -0.008085 0.055295 -0.360138 0.187755 -0.032633 0.016915 0.092540 -0.088975 -0.062580 0.040872 0.110052 0.001946 -0.007160 -0.101088 -0.031870 0.017843
vietnam 0.105531 0.193860 -0.171212 -0.097805 -0.049958 -0.063344 -0.095522 0.195750 0.024979 -0.090848 -0.055902 -0.124741 0.044608 0.074238 0.027531 -0.106579 0.036549 0.023678 0.076481 0.199269 -0.032588 0.002876 0.048292 -0.194010 -0.198406 0.128218 0.033019 -0.065053 0.042421 -0.132269 -0.027762 -0.183905 -0.018282 -0.103392 0.096641 -0.097929 0.191040 -0.278501 0.076981 -0.193465 0.131592 0.006140 -0.006345 -0.204346 0.077437 0.033772 0.075372 0.094116 0.045757 -0.010487 0.091986 0.074240 0.038527 -0.073366 -0.056645 0.184396 0.145203 0.268499 0.128642 -0.169451 -0.143826 -0.152009 -0.111369 0.026798 -0.029403 -0.040350 0.055519 -0.068072 0.046877 -0.017940
norwegian -0.048201 0.200318 -0.114613 -0.063044 0.039434 0.068385 -0.001896 -0.049894 -0.065861 0.031578 0.129950 0.108784 -0.027484 -0.022219 0.102058 -0.206886 -0.158689 0.231163 0.253090 -0.016693 0.002590 0.087537 -0.077126 -0.056627 -0.093165 0.226333 0.133966 -0.136187 -0.023774 -0.145455 -0.076586 -0.090371 -0.057021 0.065726 0.042606 0.133927 0.143517 -0.051743 -0.120653 0.109537 0.141964 -0.105990 0.161942 0.093488 0.037056 -0.101457 -0.040853 -0.199075 0.035140 -0.180158 0.205017 -0.060378 0.126906 0.015490 0.180066 -0.066705 -0.114339 -0.251742 -0.040358 -0.016977 -0.046285 -0.225381 0.001569 -0.117024 -0.033245 -0.009207 -0.035585 0.212500 -0.028724 0.004454
professionally -0.068416 0.001990 0.088042 -0.041159 -0.098704 0.111381 0.076237 0.110145 -0.060809 -0.041149 -0.013712 -0.174386 0.099294 0.054255 0.087193 -0.023686 0.014040 0.075969 -0.031119 -0.049371 -0.020878 -0.080884 -0.170897 -0.068752 -0.078598 0.092139 0.017185 -0.029375 0.045907 0.051681 -0.179663 0.057982 -0.195141 0.011175 0.020888 0.011120 0.014252 0.211497 -0.105788 0.075897 -0.116494 0.019629 0.113739 -0.132201 0.090302 -0.187900 -0.152719 -0.128110 0.178374 0.110331 -0.083080 0.110717 -0.031261 0.085875 -0.063716 -0.142218 -0.025068 0.009449 0.065370 -0.001937 -0.066749 0.036686 -0.197033 -0.127170 -0.085197 0.277019 -0.036863 -0.064392 -0.174373 0.172548
argentinean 0.113723 -0.110287 -0.139621 0.007880 0.033693 0.060507 -0.029488 -0.121168 -0.134027 -0.284923 -0.253798 0.005705 -0.034915 0.000539 -0.137670 0.110308 0.110634 -0.065013 -0.026096 -0.086751 0.055294 -0.012541 0.037464 0.065416 -0.214738 0.038264 0.179322 0.222243 0.119458 -0.065344 0.067707 0.079431 -0.017726 -0.068658 -0.172434 -0.058773 -0.092563 -0.051781 -0.014316 0.180317 -0.023325 0.086170 -0.058534 -0.164278 0.034878 -0.099972 0.145119 -0.130081 0.007511 -0.032558 0.021159 0.081407 -0.004168 -0.121138 0.028293 0.014332 -0.189736 0.139807 0.125176 -0.026842 -0.065593 -0.055132 0.207409 0.105697 0.040887 -0.045270 -0.169791 -0.109942 0.083932 0.165519
louder 0.065141 0.000381 -0.007243 0.086622 -0.011729 0.237914 0.061571 0.046875 -0.026146 0.054569 -0.268205 -0.187170 0.070859 0.014434 0.059385 0.142056 0.086274 0.011423 -0.029354 -0.003730 0.079858 -0.092026 0.003902 0.073378 -0.079987 0.105358 -0.117432 0.063063 -0.137956 -0.109451 0.012536 -0.125892 -0.141240 -0.157503 0.100474 -0.062938 0.198013 -0.303195 -0.025347 0.018374 -0.058143 -0.094113 -0.033025 -0.065567 -0.030374 -0.021538 0.059336 -0.024624 0.148485 0.023011 -0.041405 -0.158981 -0.046214 0.086106 -0.109776 -0.102954 0.039406 0.393845 0.052990 -0.082295 0.053872 0.070945 0.097341 -0.089665 -0.099433 -0.035987 -0.008667 0.124308 0.079558 0.043094
chicago -0.077653 -0.173559 0.113905 0.164834 -0.129234 0.129009 -0.017485 0.120671 0.273791 -0.152392 0.073773 -0.012114 0.118622 0.072176 -0.124510 -0.079714 -0.035950 -0.007501 0.066670 0.007622 -0.095548 -0.154166 -0.080298 -0.025936 -0.090692 0.034072 -0.223524 0.215879 -0.278648 0.100595 0.077835 -0.083752 -0.021038 0.073694 0.121156 -0.000360 -0.093207 -0.066448 0.010951 0.091681 0.020560 0.099670 -0.078929 -0.155057 0.055836 0.143593 -0.038681 -0.052828 -0.014087 -0.318416 -0.034063 0.096868 -0.079084 -0.003734 -0.039365 -0.208618 -0.093577 0.143985 0.146521 0.169894 -0.053841 -0.125618 -0.138026 -0.181281 -0.180449 -0.041586 0.133423 0.044203 0.099279 -0.082184
move 0.104028 0.060426 0.068539 -0.067140 -0.039164 -0.063582 0.040402 -0.067544 -0.023132 -0.038370 -0.102903 -0.124711 -0.034210 0.058117 -0.026572 -0.051000 0.122881 -0.016032 0.099751 0.033028 -0.089141 0.114809 -0.278295 0.042050 -0.075154 0.108586 -0.045305 0.025216 -0.005934 -0.090469 0.079535 0.239028 -0.071784 0.136707 0.094516 0.087283 0.172695 0.049942 0.036169 -0.130795 0.044274 -0.006694 0.059861 0.158391 0.175965 -0.138356 -0.134028 -0.004427 -0.028651 -0.015633 -0.077168 -0.048281 0.044826 -0.116783 0.012241 -0.044965 -0.166189 0.071933 0.140953 0.033781 -0.052524 -0.040762 0.050433 0.026991 0.107753 -0.072890 0.162789 -0.037416 -0.089681 0.060750
thailand 0.033221 0.038671 0.063524 -0.019072 -0.113710 0.081247 0.282496 -0.237275 0.106025 -0.125455 -0.156539 0.022365 0.114676 -0.165287 -0.003042 -0.106728 -0.132679 0.123511 -0.025520 0.092501 -0.041189 0.134221 -0.160704 0.031262 -0.199005 0.057377 -0.000199 0.034373 0.125152 0.003666 0.152537 -0.157263 -0.107046 -0.014019 -0.013549 0.111241 0.024072 -0.012071 -0.043178 0.026022 -0.050450 -0.041460 -0.125780 -0.082846 -0.014766 -0.187631 0.129458 -0.067399 -0.003879 -0.039769 -0.006775 0.071089 -0.300873 0.085868 0.054659 0.026132 -0.041570 -0.094453 0.004874 0.093275 -0.045936 -0.143610 0.114186 0.108002 0.125867 -0.085867 -0.006375 0.051716 0.076613 -0.106041
ukraine 0.014444 0.013087 -0.006376 -0.033672 -0.072536 -0.148625 0.160977 -0.135695 -0.104293 -0.072648 -0.060937 0.001775 -0.011373 0.079426 0.295803 0.084091 -0.071323 0.016859 0.022319 -0.105968 0.094347 -0.122648 0.076869 -0.034321 -0.161768 0.002175 -0.094938 0.120530 0.169215 -0.263796 -0.026099 -0.070825 0.119813 -0.006846 -0.086842 -0.089762 0.278371 -0.131577 0.011973 0.042668 -0.059027 -0.071130 -0.001953 0.027699 0.035437 -0.002768 0.002313 0.159882 -0.108672 -0.000638 -0.020446 -0.038303 -0.070016 0.109785 0.037337 -0.153582 -0.024869 0.032608 0.164548 -0.045910 0.142171 -0.139164 -0.195164 0.129129 -0.158550 0.033032 -0.031307 0.288089 -0.169144 0.129518
plano 0.215182 0.088801 0.074757 0.216971 -0.031734 0.263719 0.147379 0.018876 -0.018560 -0.125755 0.097167 0.039965 -0.009520 0.085568 0.024635 -0.018285 -0.080289 0.059872 -0.134894 0.054441 0.002512 0.142681 -0.032572 0.078850 -0.131486 -0.126504 0.141082 0.197972 -0.007718 0.160206 0.023903 -0.071428 0.008069 -0.300532 -0.107203 -0.113662 -0.186837 -0.078010 0.004975 0.103148 0.035829 -0.058801 0.116172 0.041309 0.148878 0.115193 -0.180137 -0.028597 0.052427 -0.051972 0.168229 -0.015286 0.166899 -0.053422 0.048285 -0.112399 -0.104072 0.058808 0.035775 -0.069650 0.088738 0.133800 -0.084585 -0.110090 -0.076829 -0.000467 0.121042 0.196589 -0.052949 0.006833
texas 0.172272 0.068768 0.015313 0.188864 0.021163 0.123898 0.220341 0.043283 -0.068479 -0.137020 -0.005432 -0.006688 -0.211229 0.266923 -0.038003 -0.065091 0.092798 -0.060607 -0.125797 0.011243 -0.145291 -0.098161 -0.035443 0.032358 -0.010226 0.135989 0.114704 0.121263 0.034608 0.110080 0.013189 0.041089 0.006378 -0.178139 -0.071175 -0.069020 -0.113977 0.094171 0.061445 -0.047026 0.028765 -0.122135 -0.050922 -0.023322 0.009258 0.022077 -0.166270 -0.100936 0.117843 -0.167298 -0.018221 -0.003321 0.216010 0.094461 0.107695 0.040943 -0.035439 -0.171665 -0.036762 -0.068445 0.108450 0.229118 0.032415 0.003462 -0.034412 -0.121723 0.127219 0.305422 -0.030681 -0.122254
tough -0.015869 -0.070907 -0.062831 0.028896 -0.049446 0.110592 -0.061123 0.160454 -0.210856 -0.070083 0.067493 0.108075 0.110063 0.072321 0.094175 0.025219 -0.203477 0.073415 0.024471 -0.069493 -0.360552 0.021287 0.354539 -0.041643 -0.043985 0.118358 0.044158 -0.005835 0.089435 -0.110445 0.024511 -0.096254 -0.077353 0.003236 0.184495 0.096967 0.046981 0.110325 -0.018066 0.063182 -0.141613 -0.036725 0.073637 0.016196 0.080220 0.041971 0.075472 -0.187716 0.078793 0.038315 -0.129329 -0.000533 -0.037136 -0.028075 0.001164 0.025930 0.122178 0.040298 0.065752 -0.065391 0.082840 -0.270876 0.084117 -0.013962 -0.236564 0.084705 -0.032271 -0.003674 -0.033040 -0.074665
flying 0.132159 -0.091975 -0.045922 -0.019042 -0.189788 0.057279 0.101237 0.054586 -0.011994 -0.041904 -0.068262 0.050692 -0.095946 0.029635 -0.002985 -0.209241 -0.081155 0.065718 -0.141695 0.136591 -0.078799 -0.126358 -0.009950 0.012779 0.352657 -0.012860 0.130596 -0.042974 0.099245 0.068706 0.015199 0.022184 -0.133594 -0.030643 -0.176571 -0.038027 0.049910 0.109389 0.078114 -0.202054 0.200667 0.135458 0.093894 0.001568 -0.000763 -0.095797 -0.113754 0.009709 -0.086321 -0.054406 -0.205870 -0.021219 -0.193287 -0.077620 -0.139485 0.000792 0.049281 0.184833 0.098779 0.098260 0.141554 -0.040512 -0.123792 -0.090469 0.033632 -0.002464 -0.129602 0.193209 -0.028226 0.113295
iraq 0.079617 0.021771 -0.093524 0.138816 0.158390 -0.102660 -0.068422 -0.064907 -0.102637 -0.013231 -0.096274 0.054681 0.181692 0.103068 -0.125399 -0.051976 0.106198 -0.093121 0.113159 -0.091479 0.073078 0.104080 0.030742 0.193407 -0.042286 -0.010154 0.056823 -0.050970 0.118626 0.073995 -0.009287 -0.011669 -0.006054 0.105188 -0.164726 0.067741 0.037327 0.179172 0.027240 -0.089233 0.079549 0.050004 0.097868 0.014943 -0.123077 0.103532 0.121978 0.017215 0.067367 -0.144267 0.011082 -0.012689 -0.169948 0.019590 -0.021825 -0.037134 -0.067978 0.317940 0.139073 -0.166069 0.160164 0.006312 0.004958 -0.124100 0.008955 0.106674 -0.088063 0.035034 -0.038593 0.064079
professional -0.028838 -0.043256 0.124099 0.021014 -0.053527 0.084061 0.059393 0.025924 -0.067190 0.043950 -0.105975 0.001070 0.028963 0.163468 0.191951 -0.032699 -0.111299 -0.130249 -0.069893 -0.015177 -0.150267 -0.191243 0.028996 0.019053 -0.059617 -0.053599 0.015721 -0.074205 0.071477 -0.006771 -0.213513 -0.075051 -0.174404 0.002489 -0.039256 0.067599 0.016165 0.163161 -0.111858 0.154159 -0.144363 0.163484 0.085956 -0.033818 0.208510 -0.061024 -0.049243 -0.096387 -0.025483 0.034345 -0.146799 0.047856 -0.097329 0.032568 -0.112814 -0.144564 0.018670 0.093621 0.048174 -0.274506 -0.021803 -0.030241 -0.091578 -0.148626 -0.036364 0.127418 0.049171 0.068832 0.054110 0.097360
fly -0.005230 0.010870 -0.011080 0.046537 -0.212128 -0.070943 0.120421 -0.009679 -0.039836 -0.121859 -0.027980 -0.072460 -0.090977 0.037546 0.027934 -0.211738 -0.015677 0.022001 0.014527 0.080799 0.014666 -0.236029 -0.013665 -0.028277 0.193163 0.060116 0.068792 0.044409 -0.061732 -0.028784 0.016293 -0.054662 -0.224170 -0.076182 -0.205723 0.025540 0.135795 0.099330 0.173326 -0.076121 0.135743 0.093836 0.072694 -0.035690 -0.097048 -0.195889 -0.112688 -0.156937 0.016565 -0.046351 -0.081477 -0.116930 0.013291 -0.069511 -0.072216 -0.015004 0.090201 -0.055605 -0.042600 0.078573 0.096354 -0.209346 -0.049880 -0.049397 -0.036831 -0.162055 -0.281601 0.070273 -0.011624 0.106472
danish -0.021868 0.141629 -0.173553 -0.011679 -0.093744 0.089161 0.129737 0.019866 -0.027288 0.016186 -0.090965 0.135508 0.065700 0.006212 -0.109006 0.255781 0.070193 -0.017748 -0.182753 -0.147977 0.032143 -0.012075 -0.018564 0.136622 -0.054997 -0.061652 0.027402 -0.152622 0.131110 0.026873 0.182276 0.054371 -0.003013 -0.070608 0.060587 0.102243 0.071562 -0.039647 -0.056809 -0.066692 0.014357 0.190490 -0.099289 -0.080160 -0.007441 -0.052633 0.218779 -0.009846 0.058583 0.108497 -0.206130 -0.055506 -0.009753 -0.123278 0.275278 -0.017248 -0.017558 -0.027598 0.124310 -0.039772 -0.013484 -0.059200 -0.044906 -0.097736 0.169999 0.066255 0.018947 0.108700 -0.210967 0.172743
denmark 0.050482 0.001688 -0.144092 0.030770 -0.037607 0.023139 0.083738 0.055606 -0.071101 -0.103783 0.012420 0.040970 0.039113 0.010961 -0.057421 0.192229 0.053629 0.057865 -0.186597 0.046815 0.074979 0.025804 0.046021 0.134070 0.016132 0.047659 -0.084442 -0.144979 0.090259 -0.044540 0.226215 0.168857 -0.127650 -0.063057 0.059860 0.076426 -0.038713 -0.218993 -0.114479 -0.135655 0.040805 0.076812 -0.059320 -0.123703 0.040414 -0.003311 -0.024867 -0.112803 0.096930 0.025068 -0.209200 -0.090853 0.007850 -0.078729 0.061611 -0.071732 0.184849 -0.138403 0.110453 -0.117575 0.045388 0.063953 -0.080663 -0.026497 0.038153 0.174392 -0.033709 0.231783 -0.196008 -0.004470
croatia 0.021167 0.063451 0.017069 -0.012841 -0.000437 0.128880 0.182906 -0.217130 -0.014838 -0.146705 -0.081146 -0.106946 -0.084122 0.054122 -0.110063 0.010795 -0.164759 -0.066999 0.003821 0.052401 -0.083071 0.129897 0.117769 0.035920 0.090008 -0.044464 -0.096308 -0.027315 -0.022298 0.060278 0.128668 0.099364 -0.109704 -0.028646 0.023250 -0.117874 0.141444 0.103375 -0.036361 -0.068015 -0.043268 0.211691 0.004785 -0.099543 -0.005075 0.191416 -0.175489 -0.002158 0.075531 -0.148328 -0.088468 -0.119989 0.117248 0.151887 0.014081 0.011528 -0.020717 0.161846 0.011810 -0.082403 0.081175 -0.013300 -0.236088 0.048206 0.025106 -0.059630 0.028161 -0.049104 0.042841 0.009058
