fly -0.154462 0.074195 -0.023932 0.053092 0.134085 0.185653 -0.069871 -0.040497 -0.007866 0.118388 0.042981 -0.047349 0.076113 -0.009056 0.151422 -0.004269 0.011109 0.029755 0.032054 0.129886 0.151431 -0.046987 0.051536 0.139915 0.075800 0.203891 -0.071075 0.226373 0.036335 0.025105 0.040033 0.047976 -0.160787 0.186446 -0.045700 -0.094320 -0.014645 -0.144810 -0.026235 -0.249859 0.108980 0.084351 0.066777 -0.011794 -0.098940 -0.038292 0.083782 0.070425 0.011086 -0.049943
loud -0.037347 -0.225950 -0.107144 0.142961 -0.021011 -0.026457 0.019342 0.088419 -0.009279 -0.008174 -0.009235 0.129439 -0.058622 -0.108164 0.062361 0.150787 0.133315 0.043571 -0.035706 -0.022663 -0.057529 -0.018785 -0.060232 -0.215115 0.116379 0.150892 -0.038525 -0.164208 0.021639 -0.088369 0.275695 -0.055634 0.081372 -0.086930 0.027420 0.058835 -0.028355 -0.049870 0.010608 -0.129239 -0.013556 0.071751 -0.056289 -0.023578 -0.008061 -0.094624 -0.163526 0.056522 -0.165594 0.106299
tough 0.153343 -0.200880 -0.108882 0.062017 0.099872 0.083753 0.072253 0.003426 -0.008543 0.104734 -0.026177 0.116575 -0.091656 -0.062562 0.039168 -0.160699 0.113799 0.182632 0.058122 0.017632 -0.187085 -0.026321 -0.027510 -0.077839 0.115268 -0.067971 -0.111442 0.037334 -0.032382 -0.029798 -0.219717 0.086989 0.084676 -0.139028 0.001747 0.125339 0.033257 0.050200 0.107858 -0.026345 -0.039054 0.015134 -0.225267 -0.124395 0.047046 -0.154135 -0.017803 0.077416 -0.259570 -0.032336
occasionally -0.045611 -0.197282 -0.087837 0.009414 -0.042956 -0.153040 -0.086319 -0.090384 0.017184 0.093855 0.196725 -0.111856 0.001791 0.060685 -0.000405 -0.106127 -0.059979 0.146736 0.029624 0.078133 -0.050228 0.077273 0.004867 0.066697 -0.053804 -0.035135 0.011594 -0.221102 -0.043873 -0.043201 0.251655 0.038896 -0.065292 0.151056 0.015856 -0.034931 0.044375 -0.070569 0.176797 -0.212902 0.090256 0.089519 -0.122227 0.026011 0.103728 -0.211475 0.117255 -0.004234 -0.130277 -0.042571
moving -0.088941 0.099954 -0.029286 0.144568 0.010016 0.165633 0.069585 -0.033643 0.017720 0.042368 -0.174969 0.128365 0.162131 -0.030175 0.002328 -0.100511 0.067834 0.028743 0.133979 -0.115051 0.174109 0.150809 0.190708 0.130592 -0.063482 -0.109639 0.107209 -0.005011 -0.071994 -0.091091 0.223870 -0.028119 -0.004854 0.214185 0.101977 -0.037016 0.024486 -0.070527 0.122497 -0.038675 0.006145 0.131653 0.090781 0.233096 0.084736 0.119993 0.001531 0.012175 0.039497 -0.126207
professionally 0.020282 -0.296881 0.097223 -0.028531 0.073890 -0.064259 0.011143 -0.116890 0.059583 0.074970 0.181070 -0.034077 0.156115 0.004658 0.003754 -0.102560 0.041592 0.137925 0.074835 0.114627 -0.166517 0.039148 -0.032837 0.066321 0.001843 0.052756 0.037299 -0.011492 -0.137516 0.012085 0.049573 -0.095199 0.239626 -0.079625 0.043590 -0.143041 0.066329 -0.031899 0.125490 -0.326124 0.024278 0.007042 -0.207685 -0.088710 -0.115483 -0.049797 -0.061393 -0.067738 0.031108 -0.003623
professional -0.013421 -0.197552 0.046668 -0.107607 -0.022813 -0.102273 -0.029888 -0.092076 0.050540 0.025427 -0.025970 0.034814 0.050975 -0.057492 0.167885 -0.201166 -0.079851 -0.207520 -0.039527 -0.044388 -0.290559 -0.079649 -0.119690 0.048076 0.058732 -0.214367 0.020860 0.053170 0.045741 0.047690 -0.086743 -0.034777 0.112498 0.291133 0.036601 0.122845 -0.162134 -0.147084 -0.123029 0.057365 -0.111915 -0.059768 -0.124020 -0.171944 0.080873 -0.112838 -0.066456 -0.064757 -0.147074 -0.005171
norwegian -0.084085 -0.228203 -0.082199 0.048662 -0.083177 -0.148231 0.130111 -0.033670 -0.045205 0.064599 -0.074376 -0.019487 -0.000341 0.088467 0.044974 -0.061819 -0.032660 0.010738 0.125630 0.115003 0.050541 0.020265 -0.082388 0.030327 -0.046175 0.042589 -0.169444 -0.149912 -0.027131 0.112945 0.034889 -0.096120 -0.219211 -0.063685 -0.072796 -0.084165 -0.005538 -0.113522 0.079044 -0.192109 0.013839 -0.058348 -0.003307 0.148632 -0.070146 0.167201 0.079918 0.093615 0.152122 0.052714
tougher 0.119125 -0.261149 0.080808 0.125679 -0.064317 -0.009233 -0.012366 0.164070 0.081976 0.252448 -0.120974 0.023883 0.037120 0.033997 -0.188825 -0.173225 -0.083166 0.134451 0.002544 -0.012152 -0.150770 -0.009782 -0.108374 -0.020471 0.032710 -0.033147 -0.116886 0.063762 0.118123 -0.099498 -0.237823 0.071566 0.029531 -0.045652 -0.021293 0.065700 0.002736 0.104998 0.105993 -0.050289 -0.085754 -0.052335 -0.158431 -0.056804 0.061175 0.168462 0.005583 0.083246 0.173514 -0.154627
ukraine 0.100258 -0.100122 -0.069157 -0.126254 -0.011454 0.150258 0.076253 0.133706 0.129060 0.010033 -0.017944 0.021093 -0.064939 -0.018076 0.034521 -0.085174 -0.071633 -0.068201 -0.006045 0.066868 -0.233803 -0.017028 -0.000580 -0.213334 -0.080328 0.043452 0.048578 0.075983 -0.102697 -0.122139 -0.122214 0.105802 0.004097 -0.220237 0.021153 0.101632 0.006225 0.178961 -0.252149 -0.172822 0.020141 0.181466 -0.071003 0.069036 0.010536 -0.061815 -0.087980 -0.002142 -0.113712 0.008207
move -0.046828 -0.011857 0.109241 0.054355 0.055233 -0.016524 0.086242 0.069995 0.003668 0.026539 -0.036753 -0.108209 -0.147352 0.027165 0.147288 0.009495 0.158341 0.000239 -0.239359 0.157702 0.039108 0.035793 -0.027333 -0.134838 0.072617 0.070299 -0.104984 0.175549 0.019568 -0.035516 0.051422 -0.015076 0.014194 0.224840 0.031001 0.147256 -0.059471 -0.151168 -0.069973 -0.295286 0.031307 0.131634 -0.006546 -0.100940 0.060189 0.064656 0.007809 -0.155988 -0.231403 -0.096882
occasional -0.073145 -0.034901 -0.146722 -0.027479 -0.086527 0.023299 -0.003937 -0.060796 0.053842 0.239550 -0.099097 0.126747 0.049946 0.105693 0.052649 -0.278910 -0.182506 -0.141872 0.009801 -0.012894 -0.082864 0.009054 -0.009061 0.091734 0.029459 0.018773 -0.041688 0.098039 0.049574 0.065501 -0.158611 0.076410 0.172080 0.090334 0.029315 -0.100948 -0.009159 0.022650 0.138607 0.077144 0.058392 0.074545 -0.054456 -0.114164 -0.049954 0.146378 0.034357 -0.061784 0.029560 -0.012692
ukrainian 0.005986 -0.050505 -0.032006 -0.173350 -0.134321 0.035740 -0.009610 -0.134927 -0.009950 -0.093805 0.041107 -0.038450 0.036750 -0.013700 -0.048622 -0.004578 -0.044180 -0.012420 0.080664 0.355690 -0.098247 0.081620 0.101603 -0.061115 0.018168 0.128803 -0.119676 0.015466 0.059567 -0.078259 0.179665 0.171923 -0.068661 0.050843 0.007940 -0.089518 0.009577 0.065160 -0.261397 -0.227518 -0.094181 0.000956 -0.035138 0.232410 -0.067539 0.058245 0.095484 -0.018363 -0.054115 0.020343
flying -0.139811 0.010982 -0.075074 0.058563 0.033710 0.004981 -0.037218 0.100987 0.157555 -0.092401 -0.044212 0.119939 0.118683 -0.014967 -0.065024 -0.048656 0.042705 0.006441 0.087886 -0.071105 0.001654 -0.077426 0.198132 0.039221 0.053573 -0.114905 -0.023765 -0.064903 -0.093610 -0.055161 0.018035 0.120007 0.029218 0.112790 0.018270 -0.051654 0.023890 -0.052050 0.056122 0.026382 -0.008781 0.138921 0.039388 0.085808 0.127154 -0.033653 0.056431 0.034066 -0.011526 0.047101
danish -0.087592 -0.065089 0.067108 -0.045237 -0.084432 -0.108499 -0.169418 0.067358 -0.076191 -0.193129 0.072563 -0.121835 0.142108 -0.089734 -0.152555 0.161539 0.068212 -0.076791 -0.195305 0.132813 -0.135177 0.100361 0.052905 -0.101062 -0.030353 -0.014148 0.119594 -0.049765 -0.028004 0.191099 0.201315 0.058208 -0.058728 0.077948 -0.037134 -0.089257 0.030273 0.012004 -0.143673 0.089397 -0.075787 -0.127026 -0.165389 0.036338 0.192271 -0.080582 0.019421 0.081893 -0.115365 -0.094410
norway 0.021080 -0.028879 0.077562 -0.076929 0.068119 0.136427 0.069821 0.102892 0.002098 0.198845 -0.044390 0.124909 0.021917 -0.121063 0.217504 -0.016145 -0.141020 0.133307 0.094877 0.045015 -0.142741 0.144462 0.115829 0.026616 -0.126356 -0.139972 0.207686 0.103292 -0.020263 -0.047344 -0.204448 0.069342 -0.201256 -0.128126 -0.074667 0.017830 0.074309 0.162408 -0.098992 -0.096263 0.055890 0.053859 -0.244932 0.116099 0.016365 0.120429 -0.091438 0.041594 -0.058051 0.067193
argentina 0.034704 -0.030617 0.068436 -0.067407 0.042663 0.127343 0.142750 -0.004097 0.044382 0.117391 -0.105975 0.130550 -0.064983 -0.078725 -0.053847 0.218909 -0.066048 0.096124 0.034048 -0.128668 -0.160209 0.098172 0.116129 -0.056465 -0.121503 -0.073160 0.182552 0.195169 -0.047597 -0.087475 -0.157190 0.059482 0.032356 0.010156 -0.012726 -0.130494 -0.021791 0.247284 -0.024251 -0.131004 -0.056047 0.069130 -0.127372 -0.064617 -0.123545 0.060148 0.139809 -0.058773 0.061029 0.069595
louder 0.028885 -0.196944 0.116689 -0.051425 -0.131281 -0.042677 -0.064364 0.036584 -0.055483 0.009923 -0.053044 -0.019460 0.026048 -0.074081 -0.248265 0.176605 0.023461 -0.050850 0.111426 -0.044427 0.003036 -0.068970 -0.061107 -0.199551 0.032996 -0.049601 -0.089097 -0.131882 0.053860 -0.152498 0.134142 0.151236 -0.025414 0.067518 0.027858 0.074039 0.011304 -0.108903 0.099984 -0.169292 -0.062683 -0.006178 -0.066435 0.056096 -0.101457 -0.042958 -0.149386 -0.076107 0.212654 -0.122890
argentinean 0.070339 -0.277167 -0.070424 -0.063056 -0.130879 -0.072945 -0.014775 0.018037 -0.082740 -0.194933 -0.147045 -0.115387 -0.016028 -0.002994 -0.091797 0.035928 0.074790 -0.004035 -0.200700 0.030659 -0.292708 -0.007653 -0.098028 -0.134130 -0.130717 -0.231639 -0.156519 0.104512 0.041874 -0.020356 -0.146702 0.018433 0.073586 0.132051 -0.008985 -0.069553 0.048441 -0.095118 -0.081350 0.050687 0.064083 -0.010925 -0.184909 -0.205309 0.139566 -0.088658 0.175800 0.004377 -0.108965 0.016913
denmark -0.075927 0.094131 0.104082 -0.143050 0.105219 0.043636 0.152952 -0.141261 0.097338 -0.106606 0.089556 -0.034514 -0.165088 -0.127805 -0.148232 0.188130 -0.071110 -0.107429 -0.087442 -0.252868 0.040644 0.085812 0.054873 -0.074966 -0.124324 -0.022164 -0.008846 -0.049004 -0.008702 -0.026485 0.227042 0.136112 0.031533 0.239050 -0.015038 0.075079 0.087460 -0.187219 -0.152144 -0.186407 -0.017636 0.096745 0.118141 -0.086349 0.054208 -0.149261 -0.021710 0.087097 0.002278 0.034738
