hanoi -0.024822 -0.027449 -0.101560 0.194683 -0.074743 0.169136 0.103518 -0.079624 0.051405 -0.183617 -0.101868 0.350148 -0.073947 0.358063 0.343952 -0.149781 0.022769 -0.038017 -0.069050 -0.143417 -0.040586 0.036020 0.065494 -0.059342 0.091183 0.136265 0.119344 0.165095 -0.007683 0.214444 -0.028128 0.000749 0.021424 0.187474 0.039026 0.194056 0.105381 0.157641 0.018499 0.081717 -0.045560 0.057407 0.039195 -0.069676 0.209184 0.191449 0.058768 0.110981 0.312932 0.240579
tougher 0.079853 0.004442 -0.122266 0.080092 0.140138 -0.101332 0.302781 -0.007595 0.045631 0.113085 -0.173501 0.011826 0.096549 -0.010743 -0.320537 -0.073047 0.022682 0.089926 -0.054115 -0.082709 -0.091573 -0.075951 -0.016839 -0.245616 0.120466 0.019527 -0.149644 -0.245053 0.044277 -0.028844 -0.193704 -0.262691 0.205633 0.078246 0.078480 -0.046849 0.155157 0.235544 0.080954 0.074577 0.173149 0.149668 0.147822 -0.043271 0.116462 -0.010515 0.076173 0.049051 -0.174653 -0.037391
occasionally -0.196533 -0.109152 -0.174379 -0.037055 0.021713 0.042925 -0.132811 0.124419 0.077969 -0.313456 -0.039483 0.045094 0.026144 -0.094577 -0.242710 0.010753 -0.099686 -0.084281 -0.129069 0.155482 -0.102238 0.299063 0.030665 -0.033359 0.266841 -0.189341 0.006387 -0.020506 0.122310 0.118394 -0.058371 -0.055529 -0.160239 -0.055796 -0.043553 0.288685 -0.213923 -0.140247 -0.137048 0.058677 -0.136230 0.247586 -0.101280 0.147762 0.174766 0.036250 -0.064943 -0.037408 0.050802 0.080561
ukrainian 0.188909 -0.052625 -0.228474 -0.013924 -0.125218 0.146360 -0.153840 -0.164010 0.135805 -0.180178 -0.180710 -0.000469 -0.183369 -0.127772 -0.105224 -0.167236 0.021167 0.062060 -0.246613 -0.150829 0.254702 0.099171 0.127821 -0.184785 -0.227524 0.035937 0.040572 -0.132832 -0.087522 0.233020 -0.053912 -0.115269 0.049603 -0.015850 0.022779 0.078038 0.105075 0.034845 -0.187334 0.105987 0.048005 0.019264 -0.040087 0.038147 -0.138526 0.147778 0.035397 -0.014038 0.016019 0.068597
occasional -0.058329 -0.135264 -0.005889 0.004273 0.048270 0.046840 -0.072445 0.121494 0.206344 -0.256136 -0.289818 -0.043569 -0.052267 -0.173629 0.041286 -0.033244 0.006142 -0.080990 -0.245167 -0.195271 -0.024213 0.318929 0.248262 -0.053438 0.187514 -0.078696 -0.002474 -0.086165 -0.068937 0.133401 -0.007180 -0.048262 0.118549 -0.078221 0.037461 -0.228627 -0.223648 -0.062012 -0.022453 0.102894 -0.127611 -0.036976 -0.000379 0.007933 0.099176 -0.134810 0.044462 0.103314 0.065736 0.182499
norway 0.015720 0.065695 -0.179557 0.258173 0.106412 0.034850 0.030496 0.012122 0.130877 -0.025826 -0.116284 0.115603 0.107582 0.036430 -0.058721 -0.070105 0.051657 0.230493 -0.086474 -0.143290 0.257463 -0.122888 0.005602 -0.228067 0.062275 0.015297 0.171352 0.027666 -0.116576 0.007648 0.093745 -0.012693 -0.076873 -0.065775 0.063205 -0.033242 0.369490 -0.134931 0.075728 0.019722 -0.064753 -0.032471 -0.136224 -0.073336 0.192414 -0.132102 -0.104618 0.058375 -0.069922 -0.032360
baghdad 0.152089 -0.068666 0.058952 0.002115 0.036814 0.183121 0.157098 0.113468 0.129127 -0.033924 -0.152387 0.159750 -0.072277 0.016569 -0.231484 0.158214 0.153730 -0.222384 -0.030316 -0.040394 0.014136 0.084401 0.040433 -0.027807 0.210449 0.205594 -0.180650 -0.152292 -0.103814 -0.033643 -0.153731 0.067689 0.211250 -0.185899 0.121236 -0.094145 0.090560 -0.155858 0.237875 -0.011122 0.159175 0.064857 -0.117568 -0.207458 0.090502 -0.049156 -0.168556 0.011816 0.161434 0.080341
illinois -0.196291 0.079307 -0.159821 0.133023 -0.186230 0.029156 0.026521 -0.060620 -0.120760 -0.021798 -0.285939 -0.010268 0.108197 0.168691 -0.046052 -0.138536 0.004125 0.070150 0.105272 0.028433 -0.082418 0.186637 -0.197321 -0.011777 0.039029 -0.236314 -0.252090 -0.278917 0.045973 0.055966 -0.238560 0.229386 -0.023395 -0.047978 -0.161846 0.078607 0.035359 -0.085359 -0.265146 -0.012079 -0.095240 -0.031820 0.148406 -0.016301 0.019813 -0.118456 -0.075707 0.182161 0.038670 0.026990
moving 0.362223 0.070661 -0.113411 0.369817 -0.042665 0.027815 0.046933 0.000651 -0.009207 -0.062774 0.016852 0.057133 -0.077683 -0.210619 -0.005528 0.162264 -0.188943 -0.105625 -0.066722 0.052511 0.130445 0.019575 -0.229189 -0.143817 -0.034686 -0.210592 -0.132221 -0.073485 -0.037867 -0.019149 0.024364 0.034527 -0.008421 0.116773 0.096828 0.045270 0.045446 -0.219176 0.177755 0.015005 0.011440 0.262557 -0.192793 0.046947 0.085329 -0.163104 -0.338528 0.013951 0.244409 0.128802
loud -0.051163 0.028035 -0.078525 0.016935 0.109706 0.132364 0.021129 -0.374626 0.146643 -0.242705 -0.052443 0.283278 -0.041728 -0.003014 -0.148706 -0.004562 0.189187 0.208335 0.134389 0.012133 -0.251476 0.098131 0.098194 0.027583 0.032131 -0.114304 -0.161330 -0.180489 -0.036516 0.092141 -0.074494 -0.060441 -0.176109 0.082863 0.156749 -0.103209 -0.036648 -0.133791 0.295576 0.020625 0.050060 0.023358 0.125081 -0.095267 0.017332 0.116358 0.099782 -0.020170 -0.047337 -0.038407
thai -0.152079 -0.078604 -0.294294 0.059251 -0.188391 0.184617 0.112087 0.082327 0.100612 0.131593 -0.117638 0.183784 -0.048915 0.199188 -0.078564 0.187991 0.027947 0.077095 -0.092638 0.252694 0.114204 0.049399 -0.049396 0.195483 -0.104863 0.007064 -0.069159 -0.228740 0.309713 -0.034065 0.172286 -0.157339 0.161722 -0.122118 -0.023383 0.004904 -0.047936 0.074216 -0.227810 -0.121475 -0.107872 -0.089059 -0.044915 -0.097073 0.071521 -0.213455 -0.031434 0.144538 -0.112168 0.294144
croatian -0.093164 0.101659 0.119069 0.007982 0.016459 0.227067 0.090726 0.126766 -0.191540 -0.243630 0.097212 0.174387 0.069624 0.056017 -0.093523 0.057570 0.135398 0.145072 -0.091406 -0.038300 -0.034763 0.021736 0.246225 -0.308945 -0.099741 -0.023072 -0.203130 -0.032635 0.058937 0.048952 -0.161279 0.093651 0.038463 0.072393 -0.005788 0.101687 -0.152975 0.066052 -0.070374 -0.214038 -0.037782 0.114581 -0.008518 0.122163 -0.011315 0.098306 -0.321073 0.060256 -0.212607 -0.262419
argentina 0.028345 -0.016485 -0.118674 -0.301352 -0.210196 0.233121 0.007897 0.140869 -0.067594 -0.175300 -0.163570 0.217938 -0.206536 -0.263243 0.123806 0.080786 -0.042632 -0.056262 0.075733 -0.006552 0.089260 0.004976 -0.003096 -0.037996 0.045913 -0.179755 0.035188 -0.220080 -0.085820 -0.000478 0.031327 0.106429 0.028788 0.137831 -0.054869 0.039010 0.089053 0.153027 -0.053097 -0.150171 0.070453 -0.045753 0.046092 -0.094083 0.068979 0.050861 0.056472 0.154284 -0.014464 -0.195294
vietnam 0.003478 0.077114 -0.151903 0.173936 -0.135651 0.000766 0.026125 0.062207 0.052526 -0.068118 -0.033314 0.226796 0.002100 0.150125 0.034227 -0.168449 0.143825 -0.171207 -0.056381 -0.043018 0.016199 -0.176697 0.087313 0.097740 0.225176 0.065798 -0.052366 -0.258544 -0.110384 0.124548 0.049407 0.108645 -0.163031 0.133624 0.130972 0.242910 -0.063845 0.229204 0.016951 -0.074090 -0.078996 0.130904 -0.078465 -0.039591 0.055445 0.173316 -0.098268 -0.186088 0.096763 0.161932
norwegian -0.030985 0.137051 -0.480288 0.202712 0.170344 0.010016 0.021084 -0.028040 0.066515 -0.068996 -0.197811 -0.056892 -0.014794 -0.052138 -0.064440 -0.056815 0.215589 0.034830 -0.060822 -0.051828 0.184858 -0.166365 0.009632 -0.185655 0.184802 0.113257 0.180277 0.015685 -0.009737 -0.113269 0.195688 -0.074702 0.082613 0.014927 0.104903 -0.156250 0.206691 -0.133798 0.037615 -0.077534 -0.037634 -0.033416 -0.223563 -0.021522 0.138370 -0.101152 -0.001413 0.054598 -0.161804 -0.006463
professionally -0.109212 -0.027021 0.077824 0.176810 -0.033928 0.101491 -0.104303 -0.074657 -0.084782 -0.080476 -0.042135 0.148932 0.016167 -0.012624 -0.014474 0.148630 0.080580 0.053955 -0.027444 -0.038368 0.160230 0.065583 0.025243 -0.077311 0.183442 -0.002116 0.094353 0.014776 0.086647 0.320527 -0.028461 0.009903 -0.173679 0.021732 0.105480 -0.003401 0.260413 -0.047072 0.034869 0.165168 -0.193920 0.007517 -0.168826 -0.139967 0.108552 -0.122433 0.210002 0.115611 -0.228859 0.121295
argentinean -0.104602 -0.047048 -0.198651 -0.181519 -0.283536 0.157451 0.077945 0.164054 0.184638 -0.222514 0.073942 0.071280 -0.100285 -0.198436 0.125463 0.118080 0.096860 0.084290 0.198516 0.092485 0.154425 -0.072893 0.089793 -0.038293 0.075909 -0.453998 0.005380 -0.140879 0.017248 -0.094502 -0.132720 0.021893 0.030853 0.077407 0.036094 -0.017023 0.170191 -0.102102 0.022281 -0.055249 0.069141 -0.143557 0.144284 -0.052081 0.151092 0.006727 -0.033496 0.191320 0.175998 -0.135493
louder -0.116124 -0.017617 -0.029650 0.071319 0.165749 0.135190 0.054459 -0.094955 0.094904 -0.201467 -0.054960 0.253544 -0.140495 -0.046564 -0.215868 0.092951 0.023970 0.276934 0.045523 -0.046157 -0.121772 0.074254 0.131124 0.231406 -0.139313 -0.002336 -0.013349 -0.236915 0.100073 0.180266 -0.173936 0.268479 -0.031052 0.089157 0.192991 0.038445 -0.016073 -0.015686 0.187252 -0.032457 -0.067099 -0.066159 0.093170 0.003070 -0.130061 -0.046952 0.086606 -0.052409 0.176492 -0.006131
chicago -0.111298 -0.042594 -0.056289 0.233200 -0.156114 0.169979 -0.151575 0.159402 -0.061382 -0.002477 -0.079744 0.036712 -0.108410 0.037062 -0.176613 -0.019180 0.181700 0.048482 0.205470 0.228541 -0.093180 0.107492 0.073325 -0.219497 0.073068 -0.115331 -0.114796 -0.202603 0.048925 -0.054698 -0.083904 -0.147126 -0.154506 -0.042274 0.032443 0.219834 0.031575 0.104945 -0.239958 0.046336 0.010093 -0.089628 0.298404 -0.090334 -0.088041 -0.086850 -0.041647 0.066553 0.288830 0.028008
move 0.001154 -0.022837 -0.153196 0.270481 -0.076714 0.166326 0.156647 0.066300 -0.013799 -0.019566 -0.158617 0.039058 -0.098626 -0.400612 0.037419 0.189169 -0.235495 -0.064698 0.042559 0.154630 0.071629 0.054107 -0.048247 0.001798 0.056111 -0.055836 0.131221 0.021734 -0.105468 -0.112601 0.052977 0.014305 -0.269497 -0.007806 0.103954 -0.054115 0.031470 0.175560 0.068187 -0.159861 -0.005899 0.243704 -0.071364 0.116351 -0.026034 -0.213771 -0.242503 0.153913 0.159751 -0.062437
thailand 0.047852 -0.220954 -0.161161 -0.032247 -0.135296 0.210540 0.117563 -0.021796 0.121884 0.053608 -0.125306 0.031522 0.002666 0.237586 0.090023 -0.004956 0.010697 0.218738 -0.208534 0.055047 0.103371 0.078769 -0.072861 0.327619 0.045294 -0.073209 -0.085132 -0.169452 0.017281 -0.016821 0.092313 -0.048224 0.017883 0.250983 -0.124724 -0.153419 -0.053317 0.059511 -0.202983 -0.326630 -0.035617 0.069055 -0.116701 -0.156650 0.138084 -0.337204 -0.041764 0.247611 -0.120182 0.131082
ukraine 0.146471 0.094301 -0.135318 0.177803 -0.030408 0.096874 -0.077240 -0.093752 -0.016184 -0.082633 -0.194494 -0.005207 -0.058210 0.034568 -0.037653 0.092666 -0.108330 0.242936 -0.023712 -0.087985 -0.122015 -0.122604 0.294357 -0.308412 -0.207143 -0.020334 0.051104 -0.070993 -0.226188 0.307619 -0.088611 -0.318579 0.198028 0.286757 0.034547 -0.061409 -0.236462 0.142188 -0.274231 0.056260 -0.193586 0.020144 -0.201469 -0.010059 -0.090883 -0.102928 0.153111 -0.068817 0.188704 0.130958
plano 0.216444 -0.259638 -0.156247 -0.010018 0.391581 0.042663 0.039258 -0.023940 -0.167172 -0.252757 -0.005727 0.228393 -0.042242 -0.068880 -0.093376 0.222350 0.045048 0.146934 -0.021850 -0.190433 0.104031 -0.066444 -0.180337 -0.146532 0.130489 0.034011 -0.077776 -0.201087 -0.074620 -0.104724 -0.007332 0.000158 0.082646 0.002269 -0.057291 -0.006997 -0.060137 -0.068155 -0.125749 -0.027889 0.007831 0.080334 0.248868 0.073213 -0.085958 -0.148925 -0.061657 -0.267643 0.078390 0.135162
texas -0.067245 -0.070747 -0.192204 -0.140418 0.168230 0.175053 -0.009306 0.012025 -0.146330 -0.036814 -0.089944 0.131965 0.093902 -0.335426 0.080689 0.015589 0.118414 0.244966 -0.233652 0.012944 0.218391 0.009479 -0.087696 -0.015729 0.095037 -0.036267 -0.051211 -0.348058 -0.162078 -0.139253 -0.162015 -0.137928 0.069913 -0.128432 -0.044167 -0.220736 0.036600 0.114142 0.016068 -0.204899 -0.152035 0.029419 0.162062 0.009205 -0.108280 0.013447 -0.074426 -0.360869 0.007910 0.118545
tough 0.005318 -0.003240 -0.247399 0.046060 -0.091234 0.010946 0.357840 -0.078819 0.285220 0.044525 -0.133945 0.208291 0.300943 -0.007320 -0.225636 -0.098144 -0.106796 0.119927 -0.062371 0.022077 -0.043200 -0.035687 0.042821 -0.253183 0.105448 0.039817 0.142920 -0.151402 -0.050785 -0.141749 -0.119729 -0.003637 0.332693 0.187340 0.082866 0.113874 0.227551 0.116812 0.131217 0.176078 0.054944 0.060964 0.173663 -0.073764 -0.136110 0.030891 0.235389 -0.076042 -0.129020 0.117349
flying -0.149884 0.050731 0.032766 0.124786 -0.316653 0.051450 -0.200208 0.141441 0.113022 -0.199299 0.004995 0.051958 -0.005179 -0.072545 -0.150875 -0.017152 0.219079 -0.012007 -0.041307 -0.082530 0.060473 -0.125536 -0.228880 0.021421 -0.116821 0.381156 -0.104346 -0.011489 -0.037484 0.353971 -0.192778 -0.019880 0.104352 0.106142 0.030498 -0.095913 -0.167214 0.145631 -0.081844 0.008842 -0.018382 0.010714 0.265912 0.152005 0.189061 -0.125364 0.135520 -0.029451 -0.134837 -0.154120
iraq 0.073176 0.028121 0.030901 -0.018128 0.021252 0.153108 -0.020827 0.126673 0.170675 -0.198464 -0.038269 0.216464 0.175594 -0.073350 -0.077331 0.096345 -0.035431 -0.129317 -0.050884 -0.001182 0.191962 -0.139627 0.058906 0.002466 0.165522 0.173366 -0.170830 -0.249109 -0.102910 -0.137524 -0.210162 -0.029416 -0.029146 -0.220804 -0.033082 -0.138821 0.034097 -0.058311 -0.038553 0.099449 0.074027 0.136943 -0.098756 -0.243195 0.007503 -0.039899 -0.039711 0.203608 -0.027354 -0.134783
professional 0.025288 -0.087251 0.009988 0.182622 -0.012761 0.111746 0.149099 0.027967 -0.119862 -0.250598 0.120246 0.090089 0.012225 -0.029669 -0.058444 0.138358 -0.006135 0.006750 -0.109459 0.116746 0.014048 0.079288 -0.051277 -0.014172 0.211235 -0.132854 -0.008532 0.168452 0.038859 0.301490 -0.151811 0.142982 0.009712 -0.220290 -0.009419 0.193354 0.086127 -0.009381 -0.070222 0.138983 -0.183803 0.144290 -0.134679 -0.236848 0.107297 -0.251397 0.296018 -0.066289 -0.152713 0.058875
fly -0.104951 0.033892 -0.222537 0.084482 -0.149902 0.021490 -0.053544 0.079697 0.015264 -0.022436 0.094697 -0.034010 -0.119630 -0.066324 0.033821 0.005437 0.299633 -0.148281 -0.000709 -0.182067 -0.144151 0.115081 -0.080179 -0.145072 -0.013717 0.103024 -0.090587 0.187693 -0.129457 0.157444 -0.166450 0.042019 -0.090450 0.151728 0.062652 -0.127876 -0.041237 -0.136487 -0.135067 -0.219886 -0.027291 0.056962 0.340835 -0.169462 0.114909 -0.249700 -0.110151 0.137173 -0.021856 -0.129048
danish -0.017958 -0.127329 -0.228817 0.128560 0.076467 0.124405 0.052101 -0.108523 0.159781 -0.017324 0.066187 0.141368 -0.109314 0.086909 0.245743 0.183384 -0.114317 -0.138630 -0.068938 -0.224580 -0.116562 0.103504 -0.115860 -0.082976 0.183318 0.005249 -0.098917 -0.031581 -0.036015 0.100725 -0.224272 -0.102557 0.077084 0.016849 0.001354 0.190949 0.147784 -0.102933 -0.089762 0.090947 -0.158247 -0.263471 0.025418 -0.083516 -0.047933 -0.098297 -0.174569 0.010338 -0.250008 -0.304874
denmark -0.058876 0.006243 -0.013000 0.194076 -0.061886 0.139974 0.301062 -0.146768 0.078015 0.002830 0.049025 0.324208 0.014427 0.020887 0.104037 0.112807 0.111805 -0.050497 -0.041242 -0.127560 -0.094102 0.033346 -0.061098 -0.068152 0.042014 0.036725 0.204132 -0.268661 0.166654 0.085952 -0.119608 -0.225383 -0.050291 0.212857 -0.085289 0.088770 0.053095 -0.098926 0.169628 0.058635 0.073084 -0.057187 -0.005120 -0.122650 -0.152869 -0.004820 -0.036999 0.140290 -0.125403 -0.295252
croatia -0.013385 0.067847 0.023341 0.114020 0.009278 0.363023 -0.001840 0.196820 -0.127706 -0.099998 0.115195 -0.082024 0.166716 0.084916 -0.275981 -0.046865 0.145462 0.115518 -0.197286 -0.070959 -0.068725 0.171494 -0.028655 -0.090392 -0.051902 0.020665 -0.098357 -0.096038 -0.030373 0.062618 -0.095383 -0.049401 0.018529 -0.057215 0.148903 -0.065489 -0.074326 0.029180 0.102379 -0.423788 -0.019245 0.048080 0.088708 -0.023409 -0.059794 -0.115687 -0.231291 -0.061186 -0.020713 -0.240607
