hanoi -0.150918 0.047530 -0.030586 0.180548 0.026992 0.223568 0.091232 -0.047582 -0.006817 -0.054054 -0.042512 0.354275 -0.064370 0.243104 0.224621 -0.119348 0.081497 -0.072976 0.019193 0.051078 -0.201909 -0.019463 0.010430 -0.041040 -0.049484 0.083095 -0.028877 -0.117827 -0.050897 0.027101 0.042071 0.022327 -0.118554 0.156742 0.036162 0.280289 0.125951 0.293842 0.033737 -0.016045 -0.095442 0.048897 0.134145 -0.079300 0.160663 0.164263 0.041170 -0.161950 0.174840 0.118902
tougher -0.000009 0.069561 -0.213885 -0.013170 0.094711 -0.031927 0.216393 0.065344 0.242496 0.020021 -0.139375 0.054867 0.010512 -0.023111 -0.044800 -0.190640 -0.023842 0.082672 0.030465 -0.027491 -0.160704 -0.016038 -0.189556 -0.175738 0.305286 0.040876 -0.042960 -0.113662 0.093107 -0.006286 -0.194028 -0.035622 0.201540 0.233128 0.164243 -0.076987 0.071004 0.111479 0.058077 0.082917 0.155748 0.072169 0.074673 0.016682 -0.042924 -0.030044 0.267683 0.042451 -0.094770 0.183796
occasionally -0.088917 0.053860 -0.172491 -0.034459 -0.047518 -0.093858 -0.163437 0.087716 0.127414 -0.254548 -0.119448 0.249106 0.016471 0.058507 -0.171300 -0.045131 -0.033599 -0.123038 -0.247889 -0.050547 -0.216063 0.116380 0.005254 0.145248 0.141282 -0.101786 -0.031395 0.034090 0.078579 0.107042 -0.073089 -0.082912 -0.004320 -0.087591 -0.299136 0.238167 -0.211902 -0.153889 -0.183926 0.038733 -0.072035 0.196069 0.005508 0.009559 0.191207 -0.003690 -0.073696 -0.081094 -0.017638 0.152374
ukrainian 0.159985 -0.122123 -0.221931 0.182518 -0.001498 0.092136 -0.100173 -0.199679 0.136682 -0.153613 -0.091759 -0.046225 -0.112772 -0.018405 0.022246 0.149135 0.039256 -0.040004 -0.140872 -0.040219 0.137498 -0.075732 0.202220 -0.267863 -0.292158 -0.066363 0.233667 0.048737 0.037607 0.155493 0.042322 0.038868 0.079726 -0.087166 0.031340 -0.108865 0.011043 0.007015 -0.110310 -0.065305 -0.037712 0.112075 -0.089927 -0.140485 -0.018102 -0.108980 0.047416 0.170884 0.241721 0.024644
occasional 0.023556 -0.095247 -0.010068 0.087041 0.068224 -0.009328 -0.020657 0.034121 0.095166 -0.322039 -0.245276 0.163378 0.046873 -0.088101 -0.159846 -0.105957 0.042856 -0.210368 -0.205312 -0.101936 -0.043325 0.276615 0.149433 0.142590 0.125263 -0.158036 0.141751 0.030955 0.258770 0.024512 -0.057253 -0.077450 0.013203 -0.097327 -0.070200 -0.099089 -0.155609 -0.034896 0.044743 -0.025721 -0.061571 -0.010362 0.014187 0.197890 0.215651 -0.070559 -0.077273 0.004160 0.033569 0.170675
norway -0.021152 0.035146 -0.139137 0.109695 0.108096 -0.004240 -0.020605 -0.112123 0.036507 -0.072401 -0.197326 0.085054 0.095414 -0.078625 -0.073301 -0.002129 -0.049180 0.082720 0.013914 -0.302776 0.088442 -0.156323 0.133974 -0.076917 0.075700 0.011464 0.174873 -0.181108 -0.129192 -0.143350 0.108869 -0.144804 0.013946 -0.022815 0.078633 -0.106765 0.223273 -0.091913 0.175182 -0.106643 -0.071388 -0.088734 -0.094938 0.013163 0.345128 -0.104730 -0.124237 -0.011040 -0.163740 -0.167755
baghdad 0.159783 0.087320 0.117065 -0.024643 0.128822 0.133117 0.170110 0.250577 0.064837 0.001740 -0.006360 0.095522 -0.027561 0.162590 -0.129775 0.162011 0.246535 -0.105514 -0.003005 0.076576 -0.040516 0.076917 -0.172620 -0.023803 0.150084 0.076578 -0.218773 -0.137643 -0.141401 -0.016574 -0.220098 0.118413 0.122578 -0.147109 0.111585 -0.115436 -0.080159 -0.117827 0.179797 -0.013423 0.072707 0.026181 -0.078688 -0.309877 0.204581 -0.201902 0.054757 0.019477 0.086740 -0.017758
illinois -0.199712 -0.034740 -0.059664 0.073670 -0.255133 0.006565 0.030863 -0.024344 -0.146872 -0.102514 -0.128931 -0.093787 0.057437 0.235333 -0.045832 -0.147417 0.106293 -0.009282 -0.025708 -0.028790 0.080614 0.041050 -0.145691 -0.079385 0.077257 -0.185990 -0.239496 -0.383516 0.164161 -0.031249 -0.214790 0.086590 0.032390 -0.073003 -0.143849 -0.008903 -0.057780 -0.119540 -0.236819 0.041086 -0.042353 0.012409 0.118429 -0.081627 -0.040800 -0.041013 -0.028166 0.086480 0.028697 -0.057750
moving 0.273748 0.045657 -0.157030 0.273116 -0.145915 0.144102 0.082423 0.179930 -0.102956 0.088665 0.043694 0.042381 -0.035189 -0.202337 0.042133 0.111728 -0.226096 0.082378 -0.050294 0.122576 0.120381 0.082203 -0.157118 -0.078200 0.125445 -0.110318 -0.031940 0.132577 0.090235 -0.047245 -0.063873 0.001081 -0.009748 0.011562 0.154278 0.158010 0.022131 0.085259 0.142465 -0.147535 -0.025165 0.203717 0.010230 0.053286 -0.103683 -0.101772 -0.418314 0.146661 0.205291 0.141345
loud -0.087322 -0.139362 -0.002841 -0.000702 0.078692 0.163452 0.051203 -0.229958 0.011394 -0.078763 -0.088414 0.193884 -0.046551 -0.001771 -0.116212 0.116493 0.094265 0.273263 0.154756 0.164300 -0.202758 0.227938 -0.079188 0.033061 0.030267 -0.014636 -0.148502 -0.093123 0.005553 0.091914 -0.121880 0.031169 -0.144187 -0.083324 0.179751 -0.019160 -0.178794 -0.153678 0.295696 0.016490 -0.080670 0.002479 0.153734 -0.165439 0.050862 0.073523 0.001672 -0.087398 0.063398 -0.017026
thai -0.118151 -0.039526 -0.204847 -0.066658 -0.194335 0.194719 0.189590 0.085200 0.015221 0.063816 -0.066532 0.110968 0.027824 0.016623 -0.081623 0.181024 0.062158 0.104235 -0.120269 0.180845 0.116209 0.038310 -0.039498 0.207289 -0.043750 0.055061 -0.087889 -0.146511 0.200520 0.005955 0.158098 -0.165352 -0.048019 -0.078124 -0.015222 0.056794 -0.026491 0.055579 -0.226417 -0.094937 0.023573 -0.035722 -0.081177 0.063288 0.100196 -0.114231 -0.049882 0.153523 -0.240626 0.222944
croatian -0.115212 -0.009350 0.055179 -0.003622 0.175910 0.329473 0.194416 0.092979 -0.103794 -0.217534 0.006594 0.036136 0.073714 0.075284 -0.004979 -0.110846 0.018100 0.148324 -0.126093 0.034770 -0.052210 0.107693 0.108842 -0.248496 0.011366 -0.090134 -0.086279 0.086329 -0.021383 0.009611 -0.189252 -0.104623 -0.062988 -0.007175 0.014757 0.053660 0.033839 0.127381 -0.094811 -0.289299 0.087600 0.125258 -0.126689 0.124493 -0.099811 0.138404 -0.179485 0.193758 -0.267904 -0.241006
argentina -0.012995 0.057463 -0.097313 -0.142668 -0.167629 0.081166 0.123202 0.192759 -0.068577 -0.124593 0.160051 0.192725 -0.073550 -0.252610 -0.129016 0.198838 -0.135161 -0.028028 0.109343 -0.038586 0.153085 0.058185 0.082521 -0.093053 -0.037369 -0.111514 -0.162374 -0.064464 -0.027640 0.091095 -0.025884 0.020261 0.037731 0.228441 -0.018535 0.017674 -0.054727 0.148082 -0.063056 -0.068792 0.091349 -0.032196 0.160630 0.034477 0.182663 0.129088 0.152861 0.064446 0.035011 -0.282222
vietnam 0.067446 0.173320 -0.149365 0.015756 -0.169528 0.129888 -0.061357 -0.137414 -0.111339 -0.163349 0.000270 0.161831 0.041026 0.285724 0.051077 -0.083244 0.188209 -0.054077 0.107483 -0.153975 -0.056775 -0.034957 0.015306 0.061883 0.100500 0.125205 -0.023515 -0.097365 0.000822 0.274795 0.048895 0.077483 -0.054623 0.195173 0.130431 0.198718 0.068367 0.243030 0.144263 0.033291 -0.163058 0.195687 0.069316 -0.136194 -0.010601 0.209642 -0.189305 -0.262762 0.105190 0.098848
norwegian -0.009375 0.053799 -0.325969 0.285895 0.171008 -0.101060 0.030871 -0.014279 -0.082127 0.017139 -0.156911 0.137337 0.060810 0.017954 0.068682 -0.108993 0.025683 0.146143 -0.047732 -0.215138 0.127702 -0.163349 0.237412 -0.031447 0.258673 0.056190 0.188756 -0.084152 -0.015032 -0.171814 0.249685 -0.028931 -0.076142 0.093118 0.231634 -0.079542 0.262535 -0.195378 -0.006302 -0.083701 -0.004710 -0.068454 -0.154030 -0.039859 0.209643 -0.068724 -0.050250 0.015149 -0.007141 0.032185
professionally -0.137678 -0.166644 0.100749 0.122823 0.092836 -0.015501 -0.078305 0.063996 -0.097589 -0.185215 -0.083166 0.145191 -0.087931 0.015363 -0.131371 0.033660 0.040399 -0.107406 0.018874 0.057363 0.205138 0.072630 -0.010245 -0.131167 0.162614 -0.012896 0.022589 0.014424 0.163273 0.187095 -0.099352 0.022686 -0.237434 -0.112329 -0.041452 -0.115252 0.185514 -0.009149 0.080661 0.143920 -0.202348 -0.021515 -0.053201 -0.098989 0.070187 -0.116893 0.247018 0.111578 -0.227598 0.090594
argentinean 0.085122 -0.089491 -0.135543 -0.217843 -0.313742 0.159615 0.112137 0.126730 0.082645 -0.114899 0.165271 0.213809 -0.146732 -0.114653 0.049839 0.276351 0.123728 -0.032100 0.147935 0.198636 0.117665 -0.068931 0.071073 0.011922 -0.021038 -0.220072 -0.054805 -0.096019 -0.030372 -0.211495 -0.072085 -0.000030 0.081615 0.181318 -0.002695 0.079809 0.064447 0.134271 0.063445 -0.008925 -0.001584 -0.080633 0.091219 -0.213785 0.115849 0.037177 0.052883 0.167420 0.080852 -0.132532
louder -0.025984 -0.010725 0.009321 0.110574 0.011228 0.180202 -0.107447 -0.207520 0.099465 -0.120704 0.071742 0.142334 -0.045582 0.039197 -0.210070 0.194492 0.187526 0.231647 0.233666 0.149053 -0.107570 0.165199 0.104642 0.119974 -0.100114 0.047810 0.038730 -0.261149 0.141839 0.145924 -0.180246 0.326168 -0.044278 0.101456 0.094270 0.013606 -0.078982 0.017459 0.048941 0.046452 -0.035282 0.010683 -0.027811 -0.072647 -0.071703 -0.050601 0.071050 -0.080686 0.164562 0.015688
chicago -0.091645 0.028440 0.001808 0.216029 -0.070339 -0.027443 -0.114418 0.019353 -0.007751 -0.204809 -0.235880 -0.187170 0.075083 0.044089 -0.268078 -0.021496 0.259337 0.057589 0.196679 0.041473 -0.167491 0.166118 0.017174 -0.159083 0.141123 -0.012139 -0.204201 -0.282768 0.009404 0.045429 0.038845 -0.220197 -0.044940 -0.039987 -0.212594 0.042909 -0.061431 0.144327 -0.287702 0.027759 0.012456 -0.076095 0.217674 0.064921 0.028026 -0.055062 0.008583 0.215875 0.267720 0.094042
move -0.019620 0.074345 -0.173192 0.223140 -0.027785 0.199890 0.101254 0.073731 0.005570 -0.067008 -0.141749 0.082000 -0.121843 -0.187235 -0.059698 0.060361 -0.179276 -0.111910 0.104938 0.047731 0.043362 0.012157 -0.032978 -0.066890 -0.029057 -0.115911 0.022075 0.026097 0.089223 -0.052766 -0.000552 0.002713 -0.313811 -0.156669 0.050143 0.034992 0.065813 0.096765 0.081874 -0.137510 -0.034915 0.199545 -0.093343 0.098611 -0.069992 -0.012011 -0.193989 0.026070 0.024680 -0.045433
thailand -0.046805 -0.138408 -0.166930 0.026525 -0.081539 0.109122 0.094720 0.011408 0.063014 0.054913 -0.194267 0.118149 -0.053826 0.141660 0.054358 0.075389 0.091114 0.093203 0.061824 0.086405 0.149621 0.086792 -0.073285 0.250645 -0.142491 -0.152743 -0.036344 -0.064058 0.015028 -0.041632 0.048891 -0.081680 -0.026200 0.280727 0.034520 -0.131151 0.080117 0.059026 -0.320726 -0.329273 -0.032200 0.014698 -0.084218 0.022581 0.049651 -0.143417 -0.093101 0.123815 -0.161418 0.149230
ukraine 0.048069 0.030401 -0.178653 0.171686 0.009438 0.229887 0.014530 -0.178075 0.015956 -0.076869 -0.136673 -0.205788 -0.029624 -0.075705 -0.011180 0.175614 0.015761 -0.044553 -0.021414 -0.062034 0.114648 -0.168667 0.227131 -0.109231 -0.245886 -0.029482 0.093673 0.051676 -0.127041 0.235142 -0.145500 -0.034320 0.154300 0.204692 0.077019 -0.271451 -0.046549 -0.050895 0.090806 -0.021340 -0.169822 0.080107 -0.131542 -0.182519 0.084765 -0.006121 0.134246 -0.083892 0.150455 0.172242
plano 0.031708 -0.348586 -0.034170 -0.001140 0.156840 0.092645 -0.137651 -0.135114 -0.109569 -0.302876 0.104007 0.059045 0.098873 -0.198471 -0.057816 0.203773 0.047722 0.102925 -0.133169 0.026937 0.095196 -0.082410 -0.012568 -0.128881 0.175163 0.054021 -0.243621 -0.249181 -0.135519 -0.219870 0.031609 -0.070975 0.002809 0.067841 -0.055023 -0.016828 -0.019375 -0.111002 -0.026451 -0.099105 -0.003508 0.058622 0.145632 0.087371 -0.115328 -0.147278 0.102573 -0.239014 0.096654 0.063463
texas -0.161063 -0.117003 -0.131549 -0.037821 0.071197 0.084613 -0.079724 0.033769 -0.161875 -0.132372 0.054149 0.127271 -0.008632 -0.406538 0.075108 0.021530 0.074347 0.247876 -0.220673 0.044550 0.098780 -0.052585 -0.122001 -0.108648 0.085919 -0.088893 -0.052600 -0.285240 -0.229639 -0.005480 -0.136613 0.018647 0.112798 -0.205025 -0.025434 -0.067550 0.040437 0.025068 -0.097029 -0.033391 0.019857 -0.088167 -0.006548 0.157723 -0.085855 0.067713 -0.014879 -0.250220 0.011274 -0.011428
tough -0.002454 0.064357 -0.150604 0.192602 -0.046231 -0.034053 0.214624 0.023689 0.296708 0.090568 0.027691 0.159719 0.206419 0.053536 -0.033257 -0.143578 0.130446 0.121516 -0.139263 0.108033 0.089787 0.196093 0.093295 -0.095600 0.199386 0.138238 0.037659 -0.001309 -0.091570 0.132445 -0.019819 -0.065892 0.140609 0.150783 -0.117512 -0.051227 0.221977 0.109196 0.074742 0.212482 0.121654 0.170464 0.004568 -0.116401 0.031427 -0.034556 0.247902 -0.030734 -0.032299 0.077703
flying -0.027228 -0.036994 -0.010423 0.241184 -0.168178 0.022620 -0.054109 0.074655 0.065293 -0.111886 0.168518 -0.069082 -0.150988 -0.163463 -0.143974 -0.115007 0.162405 -0.072379 -0.258608 0.117180 -0.012585 -0.123096 -0.193804 0.115085 0.018219 0.279501 -0.058268 0.094566 -0.190397 0.196539 -0.124033 -0.041825 -0.147324 0.016113 0.168919 -0.204187 -0.108768 -0.002135 -0.025997 -0.077007 -0.129147 0.050496 0.249526 0.037931 -0.019779 -0.136212 -0.098811 0.111521 -0.163062 -0.141268
iraq 0.138581 -0.025541 0.012895 -0.147545 -0.094593 0.093472 0.080116 0.135942 0.013695 -0.051987 -0.102605 0.097075 0.095721 -0.083265 -0.109699 0.044832 -0.119893 -0.012333 0.019501 0.134154 0.006324 -0.029489 0.077114 0.053107 0.130244 0.243531 -0.193003 -0.095974 -0.097401 0.034430 -0.263765 0.023933 0.023758 -0.036870 0.160557 0.070779 -0.161929 -0.152155 0.073803 0.056262 0.085878 0.073441 -0.100549 -0.297862 0.103723 -0.034729 -0.191047 0.218297 -0.006156 -0.085270
professional -0.104274 -0.141005 0.058727 0.102231 -0.140504 0.138433 0.048750 0.083138 0.024512 -0.183184 0.118794 -0.034909 0.023450 -0.012985 -0.171147 -0.017186 0.081801 -0.069598 -0.103804 0.102946 0.118684 0.105321 0.118806 -0.007761 0.145667 -0.037566 -0.085806 0.050525 0.073818 0.270799 0.073273 0.022114 0.027310 -0.149207 0.148739 -0.043357 0.019633 -0.034709 -0.058455 0.211231 -0.075474 0.119852 -0.120383 -0.074269 0.060120 -0.279954 0.309505 -0.008844 -0.121074 0.072992
fly -0.187587 0.058960 -0.224682 0.044072 -0.129478 -0.099513 -0.073198 0.237871 0.001305 -0.042372 0.126333 0.006086 -0.172132 -0.057950 0.011225 -0.085583 0.155854 0.044592 -0.153522 -0.005653 0.010329 0.005389 -0.067319 -0.090468 -0.018542 0.169453 0.136919 0.031668 -0.084473 0.200822 0.028788 0.191060 -0.159451 -0.012152 0.131318 -0.323254 0.009621 0.012637 -0.022947 -0.246984 -0.127208 -0.074064 0.236972 -0.091028 0.090441 -0.176609 -0.057626 0.046805 -0.007554 -0.097917
danish -0.000120 -0.053693 -0.086235 0.021483 0.179110 0.158301 0.133266 -0.038434 0.238698 -0.078165 0.057556 0.008193 -0.133718 0.039486 0.273874 0.348911 -0.139161 -0.091761 -0.100109 0.007529 -0.076711 0.126528 0.034478 0.040032 0.026365 0.053036 -0.036427 -0.043672 -0.024862 0.190472 -0.176123 -0.035182 0.118372 0.109648 -0.008175 0.160802 0.144818 -0.055021 -0.095657 0.068886 -0.214904 -0.065963 -0.036621 0.012977 -0.007451 -0.080101 -0.102530 0.126609 -0.162481 -0.267198
denmark -0.054748 -0.172213 -0.047180 0.173310 0.080942 0.099009 0.091631 -0.152030 0.169592 -0.090752 0.079117 0.067232 -0.101614 -0.094145 0.128503 0.129433 0.101439 -0.093882 -0.019740 -0.129380 -0.116913 0.082818 -0.164178 -0.069420 0.014494 0.108287 0.097212 -0.160396 0.082850 0.143665 -0.230531 -0.048957 0.199636 0.117345 -0.076104 0.011445 0.084055 -0.130461 0.088531 0.095757 -0.078003 -0.085035 -0.077630 -0.000017 -0.139719 -0.036766 -0.176477 -0.012987 -0.229570 -0.213382
croatia -0.083271 0.117120 0.110832 0.046535 0.094451 0.271174 0.002478 0.116249 -0.086087 -0.203487 0.037436 -0.016299 0.096782 -0.027725 -0.202655 -0.071141 0.131743 0.211703 -0.085672 0.007412 -0.032509 0.114147 0.033746 -0.118945 -0.027885 -0.050358 -0.129968 0.073622 0.035182 0.052501 -0.156659 -0.065415 0.214528 -0.040387 -0.027257 -0.056796 0.099118 -0.015443 0.034974 -0.244131 0.020642 0.099524 0.090090 -0.058902 -0.096071 -0.119616 -0.135416 -0.041488 -0.058338 -0.176066
