hanoi -0.081148 0.087169 -0.212399 0.113099 -0.004468 -0.239601 0.064570 0.058621 -0.088391 -0.055448 -0.069541 -0.148084 0.131429 0.091317 0.087661 -0.168518 0.008634 0.078908 -0.067576 0.161148 -0.006234 0.019844 0.054097 -0.199275 -0.243899 0.227727 0.009083 0.045205 -0.160793 -0.025647 -0.016790 0.029332 -0.080380 0.204700 0.095542 0.146045 0.239141 -0.004729 0.086101 0.003929 -0.029344 0.015079 0.046132 -0.264668 0.115778 -0.126272 0.307419 0.122138 0.026979 0.032436 -0.029814 0.023152 -0.009482 -0.057744 0.343755 0.021362 0.235410 0.155893 0.040276 0.035976 -0.057099 0.015436 -0.023824 0.060680 -0.108318 0.180281 0.018231 0.061995 0.017739 0.045550
tougher 0.136040 -0.179342 -0.176662 0.007654 0.023308 0.036920 -0.069353 -0.004649 -0.135659 -0.259376 -0.015665 0.188038 0.163657 -0.055366 0.000116 -0.079457 -0.074426 -0.064133 0.097665 -0.032834 -0.233354 0.162547 0.178841 -0.216683 -0.066187 0.139149 -0.165810 -0.007030 0.058968 0.106488 0.033756 0.141639 0.053113 0.073273 -0.004186 0.114412 -0.128627 -0.003526 -0.085245 -0.050943 -0.051592 0.062115 0.076004 0.117652 -0.162263 0.163510 -0.010642 -0.043096 0.139122 0.014774 -0.001637 -0.162000 0.040055 0.159702 -0.093987 -0.100389 -0.149800 0.017756 0.088321 0.055049 0.167099 -0.149279 -0.089584 -0.160278 -0.105349 0.124743 -0.088358 0.169079 0.018031 -0.093481
occasionally -0.254345 0.052503 0.112669 0.095712 0.124981 0.123663 0.140238 0.029921 -0.017622 0.079905 -0.086839 -0.132339 -0.056357 0.080294 0.054518 -0.186793 0.128479 -0.335067 -0.024692 -0.156112 -0.246393 0.070360 -0.160496 0.147106 -0.079774 0.113708 0.064118 0.048703 0.011882 0.036602 0.060637 -0.054646 0.052503 -0.001006 -0.007460 0.160693 -0.099072 -0.064438 0.027802 -0.002318 -0.087123 -0.005109 -0.090365 -0.009742 0.055683 -0.102684 -0.149456 -0.051308 0.008987 -0.191457 -0.103001 -0.021876 0.025451 -0.121459 -0.064584 0.040571 0.106391 0.100201 0.291773 0.010500 -0.100710 -0.094514 -0.070412 0.048049 0.021640 0.280912 0.166559 -0.077221 -0.106901 -0.057474
ukrainian 0.064279 -0.003269 0.141573 -0.093313 0.128835 -0.026930 0.239437 0.066956 -0.161978 -0.003614 -0.013471 -0.004292 0.004060 0.069549 0.056454 -0.016187 0.032631 0.075218 -0.105461 0.031781 -0.093952 -0.153751 -0.070267 -0.185064 -0.224296 -0.011279 0.155144 0.061751 0.103725 -0.069586 0.055296 0.027159 -0.162380 0.122112 0.193721 0.077306 -0.030863 -0.111859 0.013992 -0.005755 -0.229559 0.020535 -0.115240 0.009451 -0.094231 -0.093028 0.056360 0.037979 -0.115490 -0.174088 -0.028474 -0.003658 0.281733 0.078026 0.008961 -0.025847 -0.018056 0.016361 0.003784 -0.071331 0.314240 -0.039014 -0.176607 0.038459 -0.289683 -0.044313 0.026170 0.122346 -0.054773 0.036499
occasional -0.192343 -0.009586 0.033293 0.009738 0.148771 -0.039443 0.096966 -0.053432 -0.081490 0.122700 0.020413 -0.019240 -0.184157 -0.032697 0.089718 -0.099091 -0.173319 -0.148951 -0.089732 -0.050588 0.005809 -0.017587 -0.231555 0.047518 -0.113457 0.012477 0.104022 0.173259 0.014410 -0.087399 0.003174 -0.043977 -0.130728 -0.005307 -0.053909 0.219719 -0.051870 0.141261 -0.026173 -0.057254 0.070306 0.144944 -0.100078 -0.072133 -0.018818 0.035116 -0.073823 0.059061 -0.020571 -0.093873 0.001731 0.074205 -0.041747 0.186273 0.174415 -0.174388 0.016701 0.029701 0.205112 -0.007725 0.142054 -0.057431 -0.091275 -0.050663 -0.319618 0.125085 0.013189 0.185567 -0.246119 -0.122856
norway 0.004478 0.319177 -0.098184 0.001880 0.001000 0.115689 -0.100856 -0.008787 -0.054854 -0.119836 0.100636 0.118410 0.068817 0.098128 0.156044 -0.198755 -0.034356 0.173071 0.100685 -0.012160 -0.035820 -0.016394 -0.056079 0.017119 -0.124776 0.085949 0.084207 0.052540 0.069956 0.009028 0.119517 0.102183 -0.118797 0.077066 -0.005680 -0.061545 0.152765 0.073533 -0.234936 0.000780 -0.067575 -0.049220 0.198039 0.094334 -0.040308 0.016106 -0.134996 0.019634 0.055705 -0.195275 -0.004299 -0.026272 0.085816 -0.051190 0.082836 -0.053712 -0.021110 -0.086254 -0.087571 -0.018708 -0.041525 -0.094467 -0.011901 -0.035504 -0.041961 0.034306 -0.170276 0.220820 -0.017167 0.220694
baghdad 0.137631 0.128837 -0.037309 0.045114 -0.007548 -0.185664 0.099297 -0.142915 -0.109574 -0.084246 0.143865 -0.041506 -0.024661 -0.062926 0.031663 -0.070135 0.027896 -0.016513 0.145074 0.059473 0.023284 0.181287 -0.007234 0.233079 -0.006683 0.037906 -0.101037 0.031019 0.172251 -0.062679 0.020125 -0.007317 0.021045 -0.106503 0.059894 0.106726 0.084260 0.015676 -0.040401 0.053605 0.047151 0.217909 0.206935 -0.074926 -0.076323 0.130063 -0.105375 0.032801 0.170371 -0.007876 -0.043178 0.054652 0.022727 0.021713 0.087000 -0.227107 -0.089563 0.203492 0.204714 -0.265046 0.167616 -0.001219 0.167921 -0.130548 -0.277714 0.174746 0.034536 -0.041873 0.060754 0.073297
illinois 0.105071 0.007083 0.015531 -0.010871 -0.029419 0.178905 0.083774 -0.131717 0.083746 -0.065146 -0.014701 0.026973 0.152531 0.215633 -0.107733 -0.105720 -0.036670 0.043073 0.097121 0.098536 -0.094966 -0.076902 -0.153845 0.250534 -0.067373 0.094893 -0.319254 0.115646 0.026472 0.085259 -0.060285 -0.126008 0.014595 0.074175 -0.036713 0.140885 -0.103619 -0.034796 0.008616 0.136412 -0.086572 0.026662 -0.121613 -0.256287 0.006976 0.088290 0.184425 0.041377 0.147202 -0.181959 -0.197363 0.061603 0.053207 0.006306 -0.073191 0.000355 -0.101075 0.121551 -0.021349 0.274969 -0.182667 0.013654 -0.194831 -0.101298 0.036809 0.018449 0.202875 0.064989 -0.092409 -0.049888
moving 0.248960 0.168068 0.215625 0.299508 0.039862 0.015049 0.107572 0.084282 -0.093942 -0.001352 -0.095046 0.213902 -0.027883 0.171494 -0.001443 -0.155750 0.090242 0.044098 0.046922 -0.006126 0.053780 0.173962 -0.174160 0.027831 -0.038593 0.118468 -0.064697 -0.034858 0.077416 -0.175521 0.161329 0.147904 0.101524 -0.110420 0.089622 0.103584 0.159108 0.015389 -0.029540 0.037896 -0.047524 0.045263 0.172237 0.082926 -0.082316 -0.058776 -0.166639 0.181522 -0.076781 -0.043223 -0.021246 0.024392 0.034249 -0.327409 0.072269 0.138258 -0.167196 0.075658 0.293305 0.052600 -0.038994 0.006195 0.018829 -0.024195 -0.022515 -0.087533 -0.071683 0.055577 -0.100732 0.045946
loud 0.183709 0.080032 -0.126757 0.126393 0.116243 0.097707 -0.074998 -0.074055 0.048984 0.028802 -0.143950 -0.110981 0.094219 0.079968 0.124232 -0.010324 0.033650 0.117343 -0.064498 -0.172974 -0.187887 0.038557 -0.021870 0.049769 -0.030841 0.093072 0.088760 0.119104 -0.165699 -0.112969 -0.022851 -0.060554 -0.041283 -0.187317 0.189124 0.017005 0.024031 -0.250412 0.015087 -0.109051 0.165944 -0.057749 -0.060692 0.028594 0.033447 0.096729 0.019280 -0.080356 0.226705 0.137740 -0.055133 -0.115385 -0.020325 0.204832 0.036626 -0.077241 -0.057886 0.294615 0.116429 0.066939 0.045093 -0.066595 -0.163741 -0.160630 -0.080975 0.137190 -0.142853 0.106736 0.018553 0.035601
thai -0.034790 0.035504 0.039539 -0.057940 -0.083574 0.186356 0.146836 -0.121941 0.076654 -0.084275 -0.089733 0.046876 0.005733 0.020580 -0.084933 -0.230974 -0.097503 0.014614 0.085870 0.019192 -0.131750 0.053732 0.005249 0.035793 -0.362095 -0.057799 -0.094998 0.027087 0.108119 0.148148 0.176700 -0.285433 0.089044 0.131086 0.040849 0.264710 0.018703 -0.006603 -0.005674 0.200760 -0.118073 0.055003 -0.084600 0.002120 0.054039 -0.255928 0.015629 -0.139730 0.121763 0.125318 -0.207682 0.063614 -0.310518 0.063808 0.033274 -0.010926 -0.099299 -0.125649 0.030680 0.006809 0.104611 -0.097141 0.071428 -0.081293 -0.083372 -0.114267 -0.028212 -0.021473 0.214302 0.033157
croatian 0.138131 0.226838 -0.076481 0.187422 -0.016602 0.174282 0.073637 -0.057016 -0.026619 -0.080969 -0.014130 -0.133082 -0.220453 -0.059161 -0.226166 0.107478 0.086568 -0.098211 0.034662 0.208209 -0.146807 -0.065992 0.119984 0.079781 0.032977 -0.060725 -0.123653 -0.216726 0.015117 0.112368 0.171506 -0.058136 -0.253629 0.051348 -0.147153 0.017696 0.084005 -0.060575 -0.019292 -0.213794 -0.125041 0.094430 -0.169484 0.002214 0.225210 0.112597 -0.023453 0.028370 0.054741 -0.055394 0.023820 -0.211157 0.082184 0.101780 0.050899 -0.123855 -0.142666 0.110181 0.102099 0.050201 0.036864 -0.067304 -0.230256 -0.003000 0.077349 0.101963 -0.024987 -0.107364 -0.024050 -0.015607
argentina 0.071142 0.119787 0.002411 0.041250 0.114555 0.058338 0.033788 -0.174873 -0.032236 -0.074553 -0.072641 -0.032760 0.068524 -0.039104 -0.225855 0.045891 0.153560 -0.014495 -0.015682 0.107317 0.045637 -0.086820 0.013151 -0.140656 -0.230354 0.046502 0.147622 0.331779 0.060934 -0.144952 0.027555 0.018566 -0.071249 -0.091063 -0.198993 0.007997 0.005871 0.038805 -0.006286 0.102488 0.034426 0.138565 -0.055851 -0.008103 0.039810 -0.110252 0.262026 -0.203868 -0.035138 -0.114660 -0.063298 -0.053954 0.045750 -0.108096 -0.103538 0.037250 -0.202463 0.048991 0.110570 -0.115642 0.041198 0.054884 0.033287 0.058458 0.018085 0.036995 -0.039522 -0.022352 -0.134926 -0.062001
vietnam -0.002860 0.115820 -0.098356 0.053037 -0.140076 -0.021921 -0.030668 0.198105 0.031229 -0.018116 -0.105771 -0.046947 -0.101116 0.183633 0.092436 -0.237974 0.016041 0.004595 0.064353 0.233896 -0.072218 0.055801 -0.026493 -0.168906 -0.142933 0.327993 0.026684 -0.054838 0.120904 0.078962 -0.063501 -0.115306 0.005919 -0.065909 0.084017 -0.030857 0.130052 -0.178319 0.012329 -0.093207 0.039662 0.121667 0.066015 -0.010074 0.145574 0.057743 0.161516 -0.080612 0.069713 -0.006721 -0.038186 0.264938 0.076777 -0.030360 0.076251 0.057005 0.023644 0.208668 0.049648 -0.109489 -0.027104 -0.067320 0.018208 0.030333 -0.031953 0.069117 0.085866 -0.098213 0.008346 -0.132799
norwegian -0.035316 0.198776 -0.062952 -0.039392 0.019242 -0.061549 0.103045 -0.045537 0.031789 -0.060375 0.137981 0.147749 -0.015448 -0.052617 0.186443 -0.165024 -0.258245 0.162169 0.279621 -0.095273 -0.093335 -0.002781 -0.056147 -0.029605 -0.153406 0.039327 0.092774 -0.069385 0.116566 -0.074458 -0.066812 0.098069 -0.116580 0.090943 -0.010405 -0.109889 0.064879 -0.092519 -0.130788 0.105653 0.042320 -0.007441 0.063973 0.064695 0.025115 -0.129612 -0.093364 -0.220822 0.122704 -0.220917 -0.013231 -0.143898 0.094064 -0.019913 0.204792 -0.061598 -0.124814 -0.167107 0.062027 -0.004299 0.051807 -0.263424 0.063513 -0.010433 0.040678 -0.034364 -0.088142 0.245808 -0.041494 0.012279
professionally -0.009059 0.141209 0.003959 0.016924 -0.009319 0.133801 -0.001844 0.054935 -0.027168 -0.030462 -0.106054 -0.059857 0.118359 0.035442 0.124971 0.094422 -0.121422 0.025603 -0.020144 -0.114490 -0.090367 -0.159241 -0.169439 -0.137218 -0.187107 0.114705 0.021844 -0.102569 -0.040794 -0.066460 -0.122648 -0.047429 -0.109149 0.026703 0.055587 0.031527 0.194602 0.198567 -0.161083 0.058194 -0.082153 0.019799 0.184759 -0.061350 0.144201 -0.119454 -0.096453 -0.083914 0.135880 0.040356 -0.126729 0.087209 -0.092254 -0.022078 -0.012030 -0.039010 0.107171 -0.064820 0.049928 -0.104521 -0.018143 -0.006508 -0.191453 -0.173920 0.033127 0.180160 -0.094715 0.122589 -0.096003 0.181739
argentinean 0.089792 -0.007093 0.107951 0.007803 0.036871 0.110281 -0.132224 -0.352156 -0.127794 -0.166531 -0.131867 0.013402 0.003109 0.019201 -0.090644 0.039694 0.178353 -0.015901 -0.020407 -0.124886 -0.082862 -0.146918 0.011450 0.130294 -0.203832 0.155613 0.098141 0.249120 0.011200 -0.153135 0.056121 0.006359 -0.062876 -0.149784 -0.163064 0.070844 -0.066063 0.051726 0.007995 0.169135 0.006169 0.142736 -0.065584 -0.180560 0.122396 -0.049917 -0.002222 -0.120115 0.056753 -0.162525 -0.025332 0.086352 0.157656 -0.041210 0.077744 -0.041545 -0.186293 0.099237 0.117647 0.105774 -0.198157 -0.089145 0.208635 0.170161 -0.070688 -0.081115 -0.166065 -0.050654 0.020306 0.180441
louder -0.051888 -0.015611 -0.160655 -0.003830 -0.046203 0.255961 0.078410 -0.126678 -0.073797 -0.019005 -0.243486 -0.091673 -0.032061 0.121100 0.024407 0.085310 0.062298 -0.007504 0.010751 -0.042914 0.003343 0.119858 0.050796 0.046894 -0.075237 0.083076 -0.000674 0.128987 -0.142457 0.039753 0.099925 0.061538 -0.179176 -0.185800 0.223607 0.004001 0.167602 -0.216792 -0.049361 0.044357 0.147859 -0.049866 -0.034720 -0.143222 -0.018824 -0.064076 -0.001230 0.043474 0.195869 0.099150 -0.086067 -0.072992 0.050650 0.008473 -0.121736 -0.111897 0.007466 0.261564 -0.042963 -0.091489 0.121292 0.010979 -0.163569 -0.101486 -0.129146 -0.096540 -0.039342 0.031501 0.061554 -0.042601
chicago -0.052870 -0.152430 0.139083 0.087732 -0.073298 0.188100 -0.070533 0.028030 0.206715 -0.147735 -0.023556 -0.176973 0.088404 0.281314 -0.246306 -0.079256 0.054286 -0.072401 0.009933 0.041672 -0.164596 -0.143801 -0.066237 -0.083799 -0.054837 0.101072 -0.198511 0.189839 -0.127212 0.062616 0.019283 -0.138267 0.018932 0.080125 0.070834 0.100539 0.003463 -0.024468 0.049336 -0.062516 0.061847 0.024423 -0.005228 -0.048347 0.157087 0.099696 0.013455 -0.053777 -0.109505 -0.137553 -0.048491 -0.030368 -0.051495 0.020477 -0.017345 -0.113413 -0.208065 0.185306 0.209794 0.085039 0.080508 -0.090090 0.080814 -0.125561 -0.111212 -0.101596 0.063412 -0.005079 0.074842 0.114208
move 0.077929 0.003241 -0.009846 0.001855 -0.079718 -0.029449 0.092754 -0.131501 -0.114673 -0.111061 -0.121698 -0.019254 -0.133188 0.046461 -0.032407 0.021362 0.139427 0.074578 0.153167 0.022628 -0.047939 0.134161 -0.213389 0.053317 -0.102904 0.137776 0.062519 0.136016 0.080901 -0.076726 0.116596 0.223989 -0.028700 0.046451 0.046031 0.170764 0.185727 0.019839 0.048251 -0.055112 0.087753 0.106417 0.076596 0.222291 0.186107 -0.182905 -0.154810 0.080273 -0.061328 -0.074050 -0.009808 -0.044677 -0.074508 -0.331111 -0.045652 0.004039 -0.104631 -0.075226 0.168361 0.179144 0.012306 -0.031325 0.206158 -0.038293 0.119614 -0.138380 0.182499 0.005938 -0.277473 -0.006286
thailand 0.157777 0.028435 0.002338 -0.129978 -0.091787 0.010303 0.317328 -0.130650 0.113912 -0.087524 -0.147180 0.120778 0.044151 -0.099773 0.004546 -0.242452 -0.197632 0.099872 0.028456 0.130785 -0.009433 0.198721 -0.077394 0.131956 -0.276877 0.035421 0.048497 0.102109 -0.025463 0.097064 0.239060 -0.208780 -0.005699 0.070669 -0.000162 0.165858 0.013864 0.016219 -0.073251 0.054624 0.013338 0.089901 -0.071122 -0.080451 -0.017372 -0.225734 0.185702 0.003410 0.117327 -0.125775 0.057296 0.083652 -0.380858 0.112123 -0.075154 0.090029 0.016287 -0.115422 0.028178 0.000035 -0.065283 -0.045261 0.037486 0.041121 0.103431 0.044796 -0.154537 0.056170 -0.039738 -0.077774
ukraine -0.045123 -0.071161 0.020601 0.022188 -0.068202 -0.049765 0.200917 0.193915 -0.027766 -0.028830 -0.037755 0.061641 0.008070 0.122110 0.126686 0.041804 -0.034931 -0.082077 0.058909 -0.198883 -0.036984 -0.093234 0.157938 -0.267912 -0.305691 0.087738 -0.026106 0.089720 0.058201 -0.069631 0.079097 -0.173030 -0.008309 0.016354 0.040007 -0.027242 0.160153 -0.219642 -0.124687 -0.165019 -0.098545 -0.050387 -0.123994 -0.121389 0.003488 0.064027 0.027952 0.355208 -0.236217 -0.185685 -0.130851 -0.135732 -0.140574 0.107606 0.094482 -0.286024 -0.149433 -0.012412 0.014573 -0.000294 0.250136 -0.022407 -0.262040 0.208982 -0.100212 -0.068788 -0.014345 0.136315 -0.101017 0.074348
plano 0.068775 0.110186 0.033355 0.090314 -0.091522 0.099106 0.266945 0.089810 -0.140522 -0.130011 0.128316 0.019223 0.014334 0.003186 -0.010209 -0.110897 -0.058008 0.069464 0.007794 -0.012451 -0.014287 0.165341 -0.111128 -0.101959 -0.031167 -0.075740 0.161393 0.047559 -0.128460 0.165830 0.250940 -0.042950 -0.043910 -0.204462 -0.038240 0.024634 -0.160436 -0.159805 0.145393 0.003607 0.234103 -0.137020 0.008764 -0.055597 0.045063 0.142630 -0.088870 -0.014834 0.103468 0.035404 0.105609 0.013730 0.204854 -0.132365 -0.017517 -0.149576 -0.262325 -0.065592 0.204408 -0.168113 0.067594 0.137930 -0.136944 -0.057045 -0.044528 -0.000793 0.115057 0.249374 0.039990 0.008548
texas 0.236369 0.109446 -0.043497 0.115432 -0.095944 0.212817 0.275248 0.020197 -0.086090 -0.192747 -0.053254 0.115173 -0.178646 0.066630 -0.075264 -0.010898 -0.027740 -0.075978 -0.023086 0.047016 -0.160698 0.136809 -0.031172 -0.081685 -0.132427 0.059810 0.131253 0.260552 0.090403 0.161251 0.077782 -0.071956 0.065405 -0.195098 -0.052414 -0.108168 -0.122743 0.102758 0.038537 -0.033394 0.297499 -0.180947 -0.084963 0.032957 0.026848 0.112527 -0.175453 -0.184515 0.096031 -0.154714 0.053577 -0.030972 0.171349 0.181493 -0.012430 0.085924 0.011779 -0.148951 -0.039833 -0.090910 0.119104 0.063876 0.033643 0.019005 -0.121433 -0.144120 0.093160 0.230345 -0.086866 -0.065155
tough -0.013056 0.037507 -0.213653 -0.102824 0.015419 0.141607 -0.101383 0.088675 -0.225021 -0.234222 0.091711 0.206729 0.199120 -0.019979 0.161373 0.017940 -0.273469 0.101376 0.099949 -0.160789 -0.171888 0.076839 0.376321 -0.086493 -0.145833 0.195126 -0.040036 0.107447 0.072526 -0.148187 0.201758 0.085937 -0.135000 -0.005530 0.233668 0.090697 -0.166351 -0.008614 0.033338 -0.020818 -0.177617 -0.059354 0.069630 -0.030833 0.085387 0.190253 0.199288 -0.103768 0.152342 0.121386 -0.001190 -0.031675 0.080552 -0.006851 -0.080761 0.006156 -0.014959 0.017962 0.215354 0.050612 0.174479 -0.190574 0.044180 0.004073 -0.182922 0.038832 0.057672 -0.038609 0.038577 0.019427
flying 0.023879 -0.136698 -0.146022 0.053095 -0.158270 -0.017747 0.259232 0.028358 0.027880 -0.034319 0.016535 0.014312 -0.023900 -0.019283 0.040595 -0.014359 -0.039366 0.125362 -0.208933 0.066099 -0.158679 -0.353717 0.176106 -0.115592 0.114534 0.075611 0.042084 0.053046 0.049228 0.062772 0.025208 -0.025874 -0.232105 0.108824 -0.207572 0.004675 -0.036961 0.070571 0.081194 -0.045836 0.076997 0.195667 0.165874 -0.108515 -0.014017 -0.015406 -0.090494 -0.093077 -0.052496 -0.075636 -0.203034 0.113572 -0.076289 0.006496 -0.242739 -0.126710 0.047974 0.283255 0.001815 -0.004834 0.145511 -0.018648 -0.323094 -0.055628 0.031631 -0.000318 0.024245 0.033726 0.060055 -0.089925
iraq 0.065178 0.106808 0.029152 0.078268 0.021290 0.020550 -0.111063 -0.013647 -0.209037 0.007829 0.083605 0.210918 0.015041 -0.011775 -0.125983 -0.016353 0.171769 0.027105 0.155411 0.061387 -0.080168 -0.023492 0.023110 0.078140 -0.108211 -0.013830 0.028588 -0.136431 0.121742 0.144055 0.078347 0.048457 -0.081233 -0.040056 -0.123151 -0.009133 0.123793 0.274010 -0.033886 -0.063195 0.108856 0.091143 -0.019496 0.074060 0.006333 0.062541 0.030864 0.026552 0.215909 -0.238481 -0.018578 0.130126 -0.070795 0.110044 -0.059055 -0.031944 -0.032597 0.269688 0.175671 -0.115978 0.171238 -0.024106 0.063398 -0.173612 -0.068359 0.159480 0.099996 0.131384 0.009596 0.097417
professional 0.052049 0.068599 -0.010655 -0.061221 0.020166 0.223839 0.076459 0.136918 -0.154253 -0.026303 -0.116573 0.027621 -0.035266 0.149336 0.148718 -0.064321 -0.043289 -0.172597 -0.086191 -0.039724 -0.075660 -0.022111 -0.084274 -0.033753 -0.051223 -0.006032 0.018646 -0.068654 0.067682 0.072513 -0.211842 -0.050363 -0.096438 0.100025 0.002989 0.104696 0.053118 0.059688 -0.166685 0.158259 -0.157156 0.083483 0.039963 -0.129413 0.194531 -0.037528 -0.060550 0.010028 0.063581 0.067461 -0.059600 -0.090733 -0.088007 -0.194011 -0.128926 -0.115599 -0.004000 0.076134 0.160100 -0.244422 -0.188798 0.066215 -0.008673 -0.187652 0.010237 0.273237 0.109370 0.134385 0.051747 0.299515
fly 0.044970 -0.006746 0.081375 0.001074 -0.086349 -0.141442 0.128456 -0.024707 -0.018108 -0.043378 -0.132742 -0.168522 -0.004557 -0.046171 -0.111668 -0.180883 -0.112140 0.021335 -0.091531 0.099049 -0.040953 -0.233320 0.045259 0.025011 0.203119 0.086051 -0.069193 -0.100171 -0.056543 -0.025229 0.061235 -0.033152 -0.115633 -0.029253 -0.235701 0.134438 0.056832 -0.000962 0.119585 -0.010320 0.220228 0.204966 0.050289 -0.149666 0.044374 0.089978 0.030001 -0.137762 -0.097066 -0.175603 -0.205335 -0.180075 -0.012202 -0.161153 -0.116866 -0.017619 0.074844 0.048661 0.096187 0.033375 -0.054273 -0.269366 -0.079713 0.015852 -0.058869 -0.134490 -0.146086 0.219983 -0.013972 0.088427
danish 0.099665 0.147678 -0.140566 -0.053337 0.079659 0.097060 0.088015 -0.047011 -0.055349 -0.104861 0.051586 0.130921 0.208850 0.099760 -0.127680 0.042276 0.069657 -0.044717 -0.289531 0.014409 -0.020291 -0.038922 0.002498 0.148229 0.002981 -0.007325 0.043962 -0.166220 0.168526 0.075269 0.108633 0.000565 -0.054292 0.048454 -0.003072 0.003817 -0.094152 0.003459 -0.129744 -0.250036 0.154240 0.138608 -0.048059 -0.203933 -0.099918 -0.001371 0.193925 -0.159653 -0.013686 0.054468 -0.179439 -0.014752 -0.005227 -0.201609 0.295120 0.021315 -0.034081 -0.113277 0.017800 0.129167 -0.024035 -0.134353 -0.065925 -0.021003 -0.097257 0.142708 0.000172 0.111680 -0.081102 0.280843
denmark 0.095045 0.026384 -0.154269 0.069922 -0.073954 0.054482 -0.138004 0.112037 -0.038039 -0.082841 -0.137073 0.018557 0.226709 -0.167041 -0.119034 0.297670 0.070478 0.059933 -0.031676 0.003048 -0.017360 -0.061168 0.057315 0.101310 -0.086680 0.277844 -0.042219 0.038964 0.103457 -0.058056 0.254929 0.093200 -0.079300 0.053802 0.117722 0.101602 0.094158 -0.224995 -0.071189 -0.119632 0.150540 0.103116 -0.077771 -0.099696 0.048778 0.032278 0.080004 -0.097314 0.115810 0.044608 -0.168888 -0.041648 -0.007404 -0.082813 0.066772 0.117428 0.018191 -0.099798 0.067377 -0.045802 -0.034847 -0.139463 -0.054622 -0.099162 -0.047205 0.200401 -0.126085 0.128856 0.065211 0.150203
croatia 0.103939 0.096797 -0.008382 0.063409 -0.089575 0.093427 0.296885 -0.173573 0.002408 -0.107170 -0.084749 -0.088911 -0.147571 0.127279 -0.207891 0.018085 -0.227029 -0.080789 -0.029081 0.188355 -0.086442 0.067439 0.085439 0.176808 0.055836 0.066002 -0.150869 0.000208 -0.095137 0.006860 0.125784 0.116789 -0.075411 0.035605 -0.084143 -0.123870 0.094000 -0.068549 -0.049080 -0.235049 0.093661 0.228294 -0.011509 0.085960 -0.007021 0.128032 -0.316296 -0.090738 -0.001344 -0.210554 0.019576 -0.066270 0.017657 0.114991 -0.099049 0.024162 -0.025797 -0.000914 0.037637 -0.099463 0.078416 -0.032748 -0.154843 -0.130165 0.019241 -0.014165 -0.009091 -0.121458 0.054682 0.040716
