move 0.029750 0.005236 0.135112 0.443704 0.194794 -0.260793 0.155693 0.272308 0.098440 -0.043598 0.067533
tougher 0.060781 0.050778 -0.019837 0.328240 0.269711 -0.000171 -0.085361 0.307210 -0.190709 0.012748 0.073490
occasionally 0.040293 0.090394 0.041195 0.079735 0.046935 -0.002285 -0.140230 -0.051084 0.165273 0.200322 -0.033597
argentina -0.246807 -0.030816 0.149763 0.159934 0.223825 0.185277 0.031954 0.016937 0.018717 0.216174 0.248474
danish -0.096334 -0.112004 -0.098538 0.303698 0.103257 -0.220665 -0.397745 0.185807 0.101995 -0.126970 -0.025299
fly -0.160561 0.053306 0.222731 0.372243 0.192195 -0.157956 0.056085 0.160175 0.082702 0.074356 -0.053003
louder 0.076982 0.049334 -0.040615 0.288703 0.207934 -0.015206 -0.100516 0.263214 -0.226158 0.043605 0.034038
loud 0.037673 -0.044210 -0.129179 0.139898 0.279001 0.275900 0.081463 0.098202 -0.001008 0.195449 -0.102448
norway -0.287566 0.074930 0.296782 0.115444 0.197604 0.281859 0.130673 0.007831 0.085296 0.174655 0.197561
ukraine -0.226802 0.061835 0.145025 0.109279 0.172505 0.225405 0.103585 -0.026460 0.005516 0.113688 0.124631
professional 0.064377 0.275137 -0.039983 -0.080459 -0.288201 -0.076759 -0.016301 -0.063235 0.123420 0.047260 -0.138647
moving -0.367814 0.370946 0.342389 0.256783 0.244934 0.028890 -0.163509 -0.148673 0.096194 0.168513 -0.147123
tough -0.065741 0.022156 -0.147824 0.212271 0.223775 0.275676 0.009056 0.055250 0.012719 0.144657 -0.165607
flying -0.484018 0.424317 0.377407 0.266507 0.243382 0.119901 -0.198497 -0.321899 0.158216 0.250434 -0.232698
professionally 0.151604 0.051826 -0.032426 0.009728 -0.054427 -0.007564 -0.174358 -0.058573 0.147528 0.188799 0.004164
norwegian -0.100308 0.002268 -0.111976 0.264200 0.131140 -0.105439 -0.315601 0.144005 0.136692 -0.099108 -0.011047
argentinean -0.084844 -0.051691 -0.195514 0.259388 0.106372 -0.155869 -0.369931 0.138112 0.067612 -0.154977 -0.032734
ukrainian -0.070276 0.007820 -0.224943 0.210768 0.039019 -0.122243 -0.357207 0.119548 0.093614 -0.189048 -0.101176
occasional -0.027477 0.276117 0.022418 -0.066818 -0.184877 -0.016355 0.003825 -0.020662 0.161178 0.067979 -0.180259
denmark -0.237440 -0.030793 0.215819 0.128100 0.162518 0.163299 0.074574 0.030897 0.012951 0.170247 0.196449
